{"layer_count":6,"input_len":64,"hidden_len":128,"output_len":3,"x":[[1.0,0.91764706,0.7529412,0.52156866,0.43137255,0.4,0.38039216,0.4745098,0.9529412,0.89411765,0.6862745,0.48235294,0.40784314,0.4,0.3882353,0.41960785,0.8980392,0.827451,0.63529414,0.42745098,0.42352942,0.41568628,0.38431373,0.38039216,0.83137256,0.7529412,0.50980395,0.36862746,0.34509805,0.38039216,0.36078432,0.32156864,0.6862745,0.79607844,0.44313726,0.3019608,0.27058825,0.28627452,0.32156864,0.30588236,0.6392157,0.5254902,0.34117648,0.30588236,0.26666668,0.23921569,0.24313726,0.25490198,0.62352943,0.14901961,0.25882354,0.2784314,0.24705882,0.21176471,0.2,0.23921569,0.5568628,0.09803922,0.19607843,0.23529412,0.21568628,0.1764706,0.17254902,0.19607843,0.4627451],[1.0,-0.9952526,0.010602255,0.9958521,0.5637801,0.7379086,0.7564632,-0.9560558,-0.22611554,0.9923824,0.70150834,-0.9984792,-0.97489965,0.99621874,0.9857708,0.98836535,-0.999921,-0.99695015,0.7947206,0.93352896,0.99971455,0.9269591,0.9668141,0.99984336,-0.98789316,-0.98932177,-0.7781642,0.8484388,-0.9268818,0.9376179,0.99762744,0.7368977,0.081188366,-0.49419338,-0.98511463,-0.97969973,0.94902563,0.99340737,0.9564642,0.9978923,-0.393055,-0.9906982,0.66893965,0.9831271,-0.9929074,0.9764648,-0.93822384,-0.99767846,0.9779749,0.9999933,-0.72473925,0.7455632,0.82829523,0.98589796,-0.897989,0.9883861,0.9384673,0.6118962,0.68400925,-0.9482479,-0.9704489,0.94906145,-0.98361784,0.99988526,0.96131986,0.9344112,-0.9953073,0.13508388,-0.9786396,0.9949841,-0.96309644,0.23355773,-0.86650014,-0.60650384,-0.9994962,0.93123686,-0.9997974,0.9943653,0.9845321,0.99470526,-0.99555844,-0.41232464,0.9994409,0.9774193,0.5388114,-0.8070777,0.9661404,-0.45435408,0.7090893,0.99291736,-0.91343164,0.36606973,0.8584245,-0.9428464,-0.7546226,-0.68449545,0.99254566,0.77859616,-0.9721565,0.5020979,0.9990372,0.9976937,-0.99987555,-0.98037976,0.97065306,-0.39914134,-0.97915465,0.9987413,0.92007834,-0.9998709,-0.917371,-0.9925764,0.99493164,0.8452322,0.99372375,-0.9133002,0.99977887,0.9999052,-0.9763345,-0.93711615,0.74766207,0.4460771,-0.87451196,-0.97203565,-0.9988047,-0.7096757,-0.97248274,-0.6446392,-0.073949546],[1.0,-0.9940744,0.99999976,-0.9952998,0.999983,-1.0,1.0,0.9988416,0.99912935,-0.9999914,-1.0,-0.9997202,0.99894017,-0.99999994,-0.99997973,0.99999934,0.99974304,0.99981135,-0.9999869,0.9999993,-0.9997419,0.43700287,-1.0,0.997064,0.99987245,-0.96576935,-1.0,0.9995966,0.99999964,0.9994803,0.99997383,0.93290085,0.9999996,-0.54717714,-0.99993604,0.99999726,0.99999994,-0.9997297,0.999974,-0.9994784,-0.51000863,0.9999848,-1.0,-1.0,-0.9999979,0.94579196,0.91327465,0.99997,0.9999981,0.99999946,-1.0,-0.99999964,0.9999998,-0.9999997,-0.492202,1.0,0.9999984,0.9999997,-0.99387264,0.99998385,-0.42374185,1.0,-0.9052224,0.99999887,0.8897638,0.99999994,0.9999997,0.9999989,0.99998784,-1.0,-0.99999994,0.99999315,0.99999994,-0.9999997,-1.0,0.99998116,1.0,0.99996537,0.43377426,-1.0,0.999999,0.9998924,-0.9997792,-0.8215547,1.0,0.99976426,-1.0,0.22326471,-0.9997837,0.9999969,-0.98399806,-0.9998185,0.9999999,0.99993134,0.995921,-0.9999817,1.0,0.9920001,0.9635153,0.99999803,0.9999209,0.99843335,-0.24872915,-0.9999996,1.0,0.999651,0.9999873,-1.0,-1.0,0.9990307,0.99999976,0.9778105,1.0,0.9997767,0.9984137,0.9999992,-1.0,0.9997933,-1.0,1.0,-0.9999988,-1.0,0.99999994,1.0,-0.9810704,-1.0,-0.99999195,0.99999976,0.9999166],[1.0,-1.0,0.99881995,-0.99999565,-0.99999994,-0.99999994,-0.99999934,-0.99999934,-0.78991914,-0.99999994,0.99996847,1.0,0.99999803,0.26389247,0.99688995,0.9996935,0.9999137,-1.0,-1.0,1.0,0.9998914,0.98141605,1.0,-0.9998423,-0.9997212,0.9991036,-0.9999999,0.9999913,0.34213993,0.97685224,0.99999976,-0.9999993,-0.9998822,-1.0,0.9999426,0.99961185,-0.99975586,1.0,0.99990714,-0.98564404,-0.9999999,-0.99998283,-0.9388195,-0.99997914,-0.54788214,-0.9999995,0.99999756,0.9999978,0.8853488,-0.975638,-0.9959022,-0.78132105,0.99999994,0.99999994,0.9999938,-1.0,1.0,-0.99999994,-0.9673544,0.99996644,-0.9999966,-0.99999696,0.9999988,0.99999964,0.9998592,1.0,0.9999335,-1.0,0.9998875,0.99704677,-0.99999994,0.99999017,0.999951,-0.99999106,-0.9999994,-1.0,0.9999078,-0.9998654,-0.9999766,-0.99999964,0.9995939,-1.0,-0.99999946,0.99998826,1.0,-0.38737443,0.9999997,-0.99998677,0.9999998,-1.0,-0.99991345,0.99994105,-0.9999963,0.9999618,-0.99995184,-1.0,-0.9896638,0.999992,1.0,-0.99997735,0.99999994,-1.0,0.04713384,-0.99994797,-1.0,-0.9999977,-0.9999655,0.99999803,-0.9984982,-0.99777555,-1.0,0.9999979,0.9999998,0.9999953,0.99999994,-0.9999819,-1.0,-0.9999996,-0.99999386,-0.9999999,-0.7451976,0.9999806,0.9168023,0.9999999,0.99999344,0.9999872,1.0,-0.9999998,0.9999996],[1.0,-1.0,-0.99999994,-1.0,1.0,0.99999994,-0.9999844,-1.0,0.999926,-0.9999996,-1.0,1.0,-0.99985164,0.99992263,-0.99995226,0.99998665,-0.99999946,-0.9883237,-0.9999389,0.9999967,-0.9968733,0.9997714,0.99999946,1.0,-0.9915194,0.99999994,-0.9999953,0.99992305,0.9876074,0.9987285,1.0,-0.99999475,-1.0,1.0,-0.999997,0.99999994,-0.9999991,-0.999984,-1.0,0.99999917,-0.9999846,-0.99999946,-1.0,1.0,0.99999297,1.0,0.9999994,-0.99890184,-1.0,0.99999654,-1.0,-1.0,1.0,-1.0,-1.0,0.99999636,0.99999845,0.9999999,0.9973368,-0.99795103,-0.99992645,-0.9908533,0.99925184,0.99999636,0.99999803,-0.99998856,-0.99999976,-0.9998071,-0.9999856,-0.9999998,1.0,-0.9935675,0.99999994,1.0,1.0,0.743138,0.99883795,0.999998,0.998919,0.9999788,-0.9999995,1.0,-0.9999417,0.99862623,-0.9999991,-0.99959713,0.9829784,0.9997956,0.9971953,-1.0,0.51064736,0.9999115,-1.0,-0.99999994,-0.9999941,-0.99999964,-0.5281808,0.9998901,1.0,-0.9999746,-1.0,0.98314714,-0.9999973,0.9993271,1.0,-0.9999999,-0.992667,0.9999348,0.9921765,0.9058088,0.999989,0.9482053,-0.99999076,-1.0,-0.9985075,0.9997834,0.9999998,-1.0,-0.99999994,1.0,0.99991417,0.99999815,1.0,-0.99998343,0.9686529,-0.9999999,0.9999987,-0.99997866,-0.99999183],[1.0,-0.99999976,0.9999999,0.99989444,1.0,-0.9999989,-0.99998283,0.9999997,-1.0,0.9999997,0.99988025,1.0,0.99997944,-0.99999994,0.9999331,1.0,-1.0,-0.9999929,1.0,-1.0,1.0,-0.9997731,0.99994206,-0.99999994,-0.99999994,-1.0,-1.0,0.99997896,0.9999948,-0.99999946,0.9999998,0.99999964,-1.0,-0.9999974,0.99999976,-0.9999967,0.9999935,0.99999994,1.0,-1.0,-0.9999643,0.99999565,0.9999823,-0.999757,-0.9999995,1.0,1.0,0.9999984,-0.9992169,-0.99959874,-0.99996394,0.99999994,0.9999996,-0.99999785,-0.99999976,-0.99999547,0.99999976,0.9999423,0.99998385,-0.99999976,0.9999877,0.9999923,1.0,0.9999999,0.99999994,-0.9999686,0.9999926,0.99999946,0.99999446,0.99999964,0.99986327,-0.99657905,0.99992317,-0.9999995,-0.99997795,0.9996397,0.9999952,-0.99996847,-0.9999999,0.99993515,-1.0,1.0,0.99999183,-0.9999996,1.0,0.99999946,-0.9999845,0.99999994,0.9999994,-0.99632794,-0.99999917,0.99999917,0.99982685,0.99999976,-0.99999774,1.0,0.9999935,-0.99998045,-0.99997807,-0.99901885,-0.9999975,-0.99974316,-0.9999999,0.9964978,1.0,-1.0,0.99994606,0.99996835,-0.9999421,0.99999934,0.9998602,0.9999999,0.9999923,-0.9990303,0.9999945,1.0,-0.99997926,-0.9999981,0.99999994,-0.9998253,0.9999997,1.0,-0.9999695,-0.99997723,0.9999946,1.0,-1.0,-1.0,0.99998266]],"w":[[[0.1144793,-0.5297415,0.3653438,-0.038203716,-0.5520773,-0.22088742,0.07552409,-0.19406223,-0.3953414,0.3629229,0.77220273,-0.76514745,-0.94666433,0.028055906,-0.23527908,0.109748125,0.5484731,0.4208064,-0.9967885,-0.6592908,0.6176779,-0.44008446,0.6756611,0.8073187,-0.41921258,0.34567666,0.040169954,-0.65645003,0.15094972,0.82071996,-0.98237133,-0.128937,-0.557065,0.3438604,-0.33679008,-0.9166298,0.13805509,0.85864425,0.072134495,0.99845934,-0.63916206,-0.2526996,0.019837141,0.96706533,0.70243907,-0.6432712,0.14971066,-0.5647342,-0.5454445,0.67551017,0.37906623,0.05949235,-0.6053939,-0.6492059,-0.63456273,-0.90568304,-0.15702677,-0.8973813,0.92671967,-0.43205237,0.34634852,-0.24241018,-0.55311084,0.2842598,0.6317291],[-0.5933975,-0.5124683,-0.041978963,-1.0159061,-0.97038007,0.7984315,-0.25679192,-0.0459736,0.022822555,-0.94826365,-0.943061,-0.31689274,0.4398625,-0.49111965,0.39550433,-0.14006054,0.9372563,0.49646622,0.6936751,-0.6150041,0.6314935,-0.84422964,-0.29611087,0.87332654,-0.98439866,-0.91244173,0.13585274,-0.82750726,0.17746545,-0.7918065,-0.49107784,-0.23263453,0.75408506,0.57445437,0.34527054,0.24829131,0.9208531,-0.038662016,-0.22243558,0.99096125,0.458824,0.88674664,0.1484135,0.84485507,-0.43093053,0.32994398,-0.77828455,-0.13832399,0.28980327,-0.92236817,-0.72377396,-0.87488025,0.8873536,-0.89962524,-0.6998595,-0.42412052,-0.8850956,0.104710855,-0.43409234,0.61380583,-0.9447756,-0.606108,0.28101557,-0.7141016,-0.031666912],[1.0250909,-0.51082253,-0.4271782,-0.7197763,-0.5922283,0.6939346,-0.5394395,0.3651672,0.11305555,-0.49528882,0.6796825,-0.1048562,-0.24708603,0.19119771,-0.82066166,-0.1815049,1.0636657,1.0338014,0.3243568,-0.52331525,1.1022909,-0.8544679,0.8307638,0.06320195,-1.2362152,-0.034977555,0.8736357,0.11491805,1.359025,-0.53105533,0.1279727,-0.022748213,-0.46972764,-1.0746074,0.52327627,0.77502,-0.3157681,0.47971475,0.7415408,-0.54902196,-0.07385963,-1.1933165,0.28508756,-0.67988944,-0.27205276,0.16046819,-0.0009998166,0.78114456,-0.7781345,0.68344015,-0.015973536,0.57192594,-0.65826017,-0.31412092,-0.0547297,0.81556416,0.06297527,0.9232242,1.0553024,-0.6122626,-0.90294755,-0.48082224,-0.9627437,-1.1887959,1.0489101],[-0.71372366,0.4906096,0.5771095,-0.39498648,0.9615813,-0.8111635,-0.8338394,-0.52329046,0.8809056,-0.85374904,0.5741714,0.5657794,-0.3848458,0.8843852,0.85414666,-0.6340763,0.15113264,0.26683414,0.5533617,-0.12415254,0.76889914,-0.6748142,0.10538615,-0.57600486,0.43388826,0.24724315,0.5413846,0.24474886,1.0081309,0.04760294,0.07008547,0.7779468,0.7298875,-0.5594183,0.2377375,0.32964605,-0.38289168,0.113911815,0.437556,-0.71569115,-0.73383254,-0.884713,0.61387324,0.7970469,-0.58981895,0.26585484,-0.2271143,0.16077593,0.8847988,0.5986723,0.10731586,0.81471425,0.6996948,-0.2166074,-0.73085874,-0.3922923,0.6157022,0.072407246,0.6878953,0.38298458,0.5118594,-0.1645901,-0.5367885,-0.48695862,-0.5542976],[-1.0029665,0.9017721,-0.20730425,0.29791284,0.81158215,-0.040824875,-0.28469884,0.9806546,0.58222145,-0.8545184,0.86382097,0.9699034,1.1686871,0.6809965,0.07958262,0.8020053,-0.86316615,-0.8438385,-0.67320025,0.15079822,0.3830487,0.9968772,-0.067396134,0.015373506,0.50136673,0.27921394,0.69307494,0.06891965,-0.16968687,-0.8655677,0.4396325,-0.26724276,1.1999061,-0.10263084,0.734583,-0.7920939,-0.8862796,-1.9063061,-1.4318385,-0.09603682,0.5956468,-0.480435,0.25276124,1.0650927,-0.23105668,0.35809806,-0.100259386,-0.31877464,-0.3581547,0.15994628,-0.11731573,0.3359166,-0.2310241,0.47075406,-0.8547866,-0.9307756,-0.9741227,-0.49181357,-0.91019493,0.15636377,0.53668284,-1.0206547,-0.4378321,0.24088593,0.09958646],[1.002007,0.07187168,0.31466606,-1.0545294,0.6759521,1.1475002,0.40508673,-0.3079567,-0.34265265,-0.9003133,0.16979806,-0.47163144,-0.2850521,0.21522677,-0.7690717,-0.5393662,0.54153955,-0.662918,-0.773981,-0.22901486,0.20130724,-0.6501578,-1.550672,-1.2776451,0.25618073,-0.15099497,0.9681454,-0.041401796,0.06509479,0.71554726,-0.9315727,-0.10749634,0.24633425,0.88971794,0.42690644,0.7598592,1.0951318,0.6232551,0.68593353,0.44224778,-0.23513065,-0.08592451,-1.1192725,-0.876479,0.92101187,1.0636393,0.71541214,0.113538615,0.18968585,-1.0305907,-0.8217049,0.6684785,0.08260533,-0.44842076,1.0290058,0.44053388,-0.69921726,0.3189117,1.1919518,0.83909774,0.7435477,0.84297097,-0.4638749,0.34189576,0.2574687],[-0.8056591,0.77015543,0.77163583,-0.054619953,-0.66586965,0.07496382,0.18642582,-0.21005866,0.023060873,-0.034432862,0.08065915,0.8057659,-0.17433411,-0.29917166,0.6262023,0.9845955,0.5005239,0.723974,0.64466494,-0.18788035,0.6321125,0.15556039,-0.45856246,-0.775503,-1.1772779,0.3833642,0.0052319444,0.74090266,0.7238029,-0.3687008,0.1450444,-0.35289353,-1.1634254,0.1979168,-0.52439743,0.11294092,-0.95022637,0.06621016,0.75226074,-0.5999603,-0.8683775,0.09290558,0.5673998,0.00052077457,0.5218262,0.40856054,-0.42902297,0.8382579,0.34831205,-0.87041885,-1.2186878,0.8903897,-0.80720526,0.27577734,-0.8217345,-0.8774618,-0.8966877,-0.045598455,1.3537233,-0.20623522,1.1716121,0.6562681,0.5142072,-0.0077637173,0.7743305],[0.20929664,-0.99628764,0.17367011,-0.61288387,-0.5505509,-0.9631506,-0.80735457,-0.5461663,-0.59374005,-0.35708728,0.08387659,0.4407979,-0.4008646,-0.5603197,0.55497944,0.06609635,-0.091161184,0.7592689,0.16341962,-0.65634966,-0.19217382,0.8417527,0.327862,0.71961343,0.28865275,-0.42885843,0.15274157,-0.40727228,0.5284508,0.8536976,0.0038765583,-0.21281095,-0.43120864,0.3417164,0.75282973,-0.11618092,0.3965812,-0.64167744,-0.13221382,0.41346532,0.63392144,-0.16025102,-0.10217411,0.19202055,0.91171294,-0.99372387,-0.2011051,-0.45190316,-0.56192523,-0.92671233,-0.8724372,0.20666832,0.3773284,-0.8953658,0.631559,-1.0145224,-0.6124776,1.0069911,0.5964736,0.06947018,0.8272299,-0.35208657,0.14166269,0.56634897,-0.25959578],[1.0286963,0.13112508,1.16939,0.30060476,-0.3260209,-0.86382014,-0.86036175,0.83815867,0.033824306,-0.6031422,1.0751107,0.779878,0.9855085,-0.73697925,-0.31350598,0.9090209,0.123903066,0.62177867,0.30518207,-0.86632574,0.20100363,-0.061361164,0.033804357,0.0020754605,-0.76514214,-0.8997217,-0.21426715,-0.009729654,0.3311768,1.1500845,-0.24935964,-1.0681669,-0.3849591,-0.9108458,-1.0640022,0.4288201,-0.593705,1.2676611,-0.30754638,-0.7761201,-0.4877254,-0.91449577,-1.1007236,0.6798864,-0.7164837,0.6918837,0.8155935,0.47237274,1.1146768,0.13018133,-0.32831183,0.5521961,-0.3370355,-0.98573,-0.9425715,-1.0506642,-0.19847968,0.4591086,0.85153294,0.6870939,-0.8060508,-0.32524043,-0.22828402,-0.008623737,-0.21434608],[0.3685103,-0.40426734,0.4239999,0.28727037,0.9110164,-0.009947114,-0.37684718,0.55632824,-0.030380897,-0.401593,0.86381483,0.2535284,0.018668996,0.8510089,-0.7137958,0.80090207,-0.06110846,0.5886934,0.34236985,0.8442577,0.11773724,-0.5140712,-1.0696639,0.2450803,0.6711349,0.59573805,0.5438606,0.20070966,0.15959345,0.8661211,0.22580361,0.24703303,-0.0690714,-0.5684369,0.51534045,0.61913496,-0.8315879,-0.45934626,0.71042806,-0.028661238,-0.37623215,-0.04495396,-0.7565725,-0.18499215,0.23344147,-0.5447261,0.21820551,-0.21825927,-0.0017269173,-0.8473591,-0.50516963,-1.0675876,-0.8615192,-0.8780975,-0.1431346,-0.22278528,-0.7883455,0.37481588,0.35770628,0.82555133,0.32145047,0.8565296,-0.80388695,0.5513377,1.0714703],[1.0930551,0.80423814,0.28016734,0.09088853,0.18918534,0.16003682,0.7043825,-0.39145455,-0.8964028,0.5689214,-0.4556835,-1.310535,0.03621604,-0.87182486,0.7742553,-0.59835505,-0.05131598,1.1226132,0.002502002,0.48719937,-0.5798164,-0.9089072,0.9974633,0.5692075,1.3531531,-0.37017357,-1.3316426,-1.5421124,1.2139237,0.68546206,-1.1869375,0.46116823,-0.6172221,-0.34686098,-0.53809863,0.29026675,0.281237,-1.0556873,-0.7815836,0.15023777,-0.31809205,0.942316,-0.83108115,0.64813,0.18467163,-0.23520523,-0.67657703,-0.8394457,0.59950644,-0.52878284,-0.56287295,0.11271112,-1.0514956,1.1047494,0.0071112677,-0.5034125,-0.79786336,0.44991583,0.5614434,0.7865596,0.42105225,-0.27207857,1.5068198,0.32876852,0.48175487],[-0.9237303,0.13663255,0.961872,-0.29768044,-0.6132567,0.08135679,-0.49306315,-0.78170544,-0.50511146,0.08812771,-0.5382413,0.80456847,0.98830324,-0.4892534,0.70900893,-0.98489416,0.36130458,-0.5563039,-0.15459503,-0.54728293,-0.75286233,0.5564431,0.5664393,0.8326406,-0.70915157,-0.8907619,-0.59666127,0.2566993,-0.4399772,0.6597355,-0.91633844,-0.110541806,0.5151992,-0.27573165,0.7646702,0.14511985,-0.68989575,-0.6291395,0.04437482,0.10740018,-0.3099999,-0.22275844,-0.96136713,-0.27297938,-0.11107653,-0.72278625,0.17142364,-0.25840062,0.55258834,-0.88554007,0.27477026,0.32355553,0.8242052,0.32420743,-0.6604213,-0.7609808,0.50355124,-0.17757063,0.2278742,0.23526706,-0.19544618,0.9828203,-0.7523336,-0.83838534,-0.5918438],[0.24276423,-0.8664141,0.0215592,0.8160131,0.2775002,-0.35864323,-1.0640488,-0.15766571,0.14669822,-0.5187969,0.89199555,0.49661773,0.2229796,-1.0872272,0.04393831,-1.1713557,-0.7735847,0.51667565,-0.06500934,0.34167072,0.71449417,-0.24030802,0.43489578,0.07080315,-0.6302789,0.3727063,0.7207123,-0.14211442,-0.32515362,-0.11644681,0.16967103,-0.030771662,-0.93605095,-0.81403744,-0.5976196,0.18577,-0.5948277,-0.30508667,0.6140492,-0.8819707,0.6421202,0.082970105,1.0006442,-0.7505524,-0.5798139,0.4218507,0.5075784,-0.8226439,-0.22190268,-0.70262694,-0.43554533,1.065925,0.5507194,0.12580559,0.3803905,-0.53309286,-0.03899844,-0.6249392,-0.6062919,0.7138059,0.81721944,-0.91516554,-0.5081029,0.6239017,-0.33028638],[0.051202543,0.2524131,0.65296227,0.717268,-0.8265428,0.6600767,0.91510224,-0.14007394,0.23575917,-0.98935705,-0.3029145,0.93980277,0.1355156,0.18884157,0.672289,-0.9532525,-0.47848958,0.7267649,0.49103895,-0.4482154,0.80452174,0.28170303,-0.6214564,0.71312463,0.68335676,0.38425,0.63351184,-0.16510522,0.8334589,0.6152939,-0.24903554,-0.29809755,0.031161994,-0.4632677,-0.3327758,-0.19457082,0.9033672,0.64066416,0.39700082,-0.7487522,0.01488946,0.43661436,-0.70033896,0.08026709,0.90585744,-0.15169291,0.5048357,-0.75435483,-0.14639367,0.4784823,0.24055532,-0.37666932,-0.7806758,0.45257905,0.15193754,0.7261788,0.043046676,0.19579962,-0.27925244,-0.943296,0.0761491,-0.0155240195,-0.3741592,0.7195364,0.31845242],[-0.46413893,0.36634538,0.008763873,-0.010749649,-0.29675922,-0.19364144,-0.11479291,0.8640438,-0.002357473,0.55276144,0.9956519,0.8138969,-0.5833989,1.0392067,1.0264398,-0.432053,-0.6349814,-0.01690044,0.48801497,-0.4986647,-1.020295,1.018348,1.0840783,0.4909876,-0.1474748,0.63440317,0.26439297,-0.23826985,-0.9301504,-0.589338,-0.6075816,-0.809788,0.9197619,0.28196406,-0.35461733,-0.008733209,0.441589,0.8681394,-0.17625812,-0.6016184,-0.84755135,0.7920281,0.5566245,-0.26376233,-0.56555766,-0.18468434,0.7646988,-0.42818823,0.8086877,0.55956525,1.111833,-0.7139474,-0.23222278,-0.41331163,-0.062695175,-0.43288612,-0.37154314,0.80478066,-0.89351547,-0.03657563,0.5932176,-0.68550783,-0.361999,-0.27584386,0.6594437],[-0.13812716,0.8990781,0.82038295,0.47716865,0.45330843,-0.3649104,-0.75917,-0.008821662,-0.9837406,0.71269643,-0.61307,-0.12946138,0.7234299,0.67266774,-0.68724453,-0.33530852,-0.8221275,-0.06719434,-0.58353883,0.080326155,-0.9013447,-0.7463992,0.3222629,0.84276175,1.122222,0.011967066,0.7642565,-0.16972597,0.6175371,0.009749084,1.0803334,0.8107979,-0.18182461,0.42530778,0.31223187,-0.40001258,0.5146625,0.9701565,0.2939874,0.7236173,-0.050676472,0.9652459,-0.8444863,0.3151077,0.034803152,0.43851897,-0.6702045,0.39347392,0.5477753,0.77938193,-0.9862528,-1.0121028,0.010030301,0.4106566,0.3543606,0.44046086,0.48359856,-0.33166066,0.053112023,0.08519268,-0.036672737,-0.9668061,0.02474052,-0.9054539,-0.58755547],[-0.24309844,0.9115286,-0.07684655,-0.56532145,0.14909984,-0.7754977,0.9692641,-0.7802404,-0.19133087,-0.3256017,-0.74788857,0.51228356,-0.03852056,-0.85485566,-0.88803905,-0.09501523,-0.03180602,0.6761437,0.06970189,-0.48900154,-0.60772973,-0.14043859,-0.041514363,0.83995545,-0.94353086,-0.91334504,-0.7101831,0.54056495,-0.4759585,-0.81557596,-0.99223185,-0.7457029,-0.367638,-0.7662057,-0.66229594,0.40016687,-0.15062279,0.50544775,-0.45217192,-0.5123344,0.24935703,-0.10779334,-0.21374393,0.4501653,-0.7937556,0.099253595,-0.6321983,0.19606914,0.36286804,0.95044833,0.103362836,-0.80397415,-0.6565829,-0.7442374,0.13349621,-0.66939825,0.9377316,-0.18319348,-0.6182152,0.8655678,0.46835247,-0.6836586,-0.7395448,-0.045094077,-0.04055697],[0.71728265,-0.49430043,-0.2986502,0.27523687,-0.67144835,-0.06241457,0.23489867,-0.56042564,-0.90259165,-1.1912223,-0.9074342,-0.9940174,-0.19114749,-0.95298475,0.8489819,0.90480834,0.1732394,-0.116146244,-0.06605919,-0.70966566,0.082378335,-0.002054263,-0.68346363,0.61588895,-0.2610747,0.26849115,0.5410517,0.73121196,0.3852226,0.25611517,1.0545596,-0.6219033,0.296605,-0.20389095,0.60458606,0.7916648,0.07601588,-0.24066347,-0.79515845,-0.9325601,-0.21663965,-0.27146173,0.79588693,-0.14211836,-0.31061584,0.22000536,-0.43096778,0.11043676,-0.2898758,1.0014033,-0.4711449,-0.35824138,-0.81187934,-0.027807144,-0.16478167,-0.12000593,-0.37037724,0.85608774,-0.16562502,0.68881166,0.53240275,0.08460781,-0.842554,-0.961363,0.22040056],[0.8299525,-0.73442096,-1.1409593,0.3259874,-0.75552016,0.63209164,1.0230725,-0.5757928,0.41099367,-0.36802086,1.0502138,-0.81228757,-0.12382454,0.7749392,0.28319535,-1.0021578,-0.38135055,0.73049563,1.182281,-0.41318282,-0.8204596,0.9275536,0.5815268,0.39970472,-0.5060793,-0.4790364,-0.67370385,-0.18195558,1.0470597,0.31115466,-0.13837138,-0.56468254,0.8107611,0.39709496,-0.44655192,-0.44739723,0.27235308,0.7131651,-0.5386315,-0.51435906,0.57288,0.9184526,0.4772519,0.44457597,0.6838569,-0.00014172346,0.50898325,-0.8433872,0.15387517,0.99475676,0.62261075,-0.65321803,0.9200637,-0.2979856,-0.8352791,0.6587888,-0.97089803,0.9627049,-1.0514927,-0.34213474,-0.64900285,-0.22167891,-0.029437918,0.09011059,-0.5981881],[-0.5590321,1.0114288,0.973794,1.2818948,0.12384264,0.37467143,-0.50807613,0.34880933,0.7521424,-0.8381128,0.72419465,0.2100322,-0.75623655,-0.496871,-0.4393487,-0.9188022,-0.007776722,-0.6144767,-0.61303586,-0.35467827,0.55698323,0.3878804,-0.4134013,0.26495594,0.44642156,-0.6194897,-0.74229395,-1.118432,-0.36724344,-0.7605696,0.99890804,0.9050602,0.21250488,0.58998173,-0.7746321,0.11648299,-0.5220125,0.50989205,0.9832741,-0.12333183,0.2563711,0.025158213,0.17837337,0.20732814,0.09475036,-0.072348505,0.33022034,0.8501286,0.6626422,-0.42867497,-0.62329257,0.4718393,-0.5141706,0.32694677,0.83414,-0.70549035,0.24268994,-0.13835631,0.67927384,-0.3629977,0.4113875,0.5785014,-0.4340499,0.071184635,-0.3271244],[0.33153972,0.58255243,0.48521203,0.50949645,0.3554232,0.77732366,0.31508586,0.46133843,0.3596495,0.03244418,0.7326173,-0.68919533,0.26998362,0.9665771,0.22600973,-0.83669746,0.8378795,0.36572337,-0.85728157,-0.29981166,-0.60316676,0.7376852,-0.81371844,-0.19965155,0.11176761,0.85038,0.994363,0.18652394,0.22216867,-0.74898815,0.9764432,-0.6502926,-0.6821467,0.61650234,-0.029858828,-0.8542108,0.193734,0.8459453,0.04739942,1.0395818,-0.86103076,0.44682243,1.032458,-0.81353146,-0.7536724,-0.104583666,0.82163006,-0.77391887,0.004905961,0.9611107,1.0100255,-0.4719983,0.14703776,0.75840867,-0.73605245,0.519549,-0.8348991,-0.36048937,-0.2634775,0.8455453,-0.6044273,-0.27552503,-0.34585792,-0.53737515,0.790912],[-0.8327094,0.08638223,0.7198163,-0.15018873,-0.65611684,-0.6055887,0.8253572,-0.43113327,0.8487578,-0.86249894,0.3633823,0.26062346,-1.0061309,-0.14400694,-1.3282846,-0.38953224,-0.22488877,0.4617662,-0.83495307,-0.34550372,0.9452771,0.14771256,0.18507905,1.035996,0.046553936,0.7266318,0.9421008,-0.14955235,0.4311565,0.5532007,0.73326313,-0.18224321,0.08833483,0.9174582,0.4932791,-0.26912695,0.1873981,-0.77646244,-1.080331,0.28185746,-1.0399114,1.0998416,-0.023146167,-0.059286747,0.04700005,0.6572665,-1.0736457,-0.2284344,0.09358468,-0.68231857,-0.35661533,1.401526,1.1056184,0.18988861,-0.41919634,0.048462607,-0.22234316,0.29420906,-0.47260472,0.03293446,1.0709553,0.55723083,0.68155986,0.334577,0.020853803],[0.64099014,0.7243039,-0.008767154,-0.20939368,0.72751546,-0.10709154,-0.49805126,-0.90987647,-0.33162576,0.92814016,-0.756393,0.48599768,0.94496673,-0.14821284,0.5323818,-0.25887495,-0.25808617,0.7400067,0.070350386,0.25696886,0.39584658,0.13387562,-0.6985336,0.28682497,-0.6156698,0.32615522,-0.58749515,-0.82419974,0.44933674,-0.13142833,0.009106545,0.8837053,0.15148197,0.7085672,0.766682,0.123805285,0.8574718,-0.6914843,-0.32598698,0.004120727,0.029939543,-0.9039016,-0.9179525,0.17394999,0.14873841,-0.6229939,-0.59783584,0.5219782,-0.82113117,-1.0596033,0.068625525,-0.4321737,0.38715652,0.6844203,0.27650744,-0.8890562,-0.07945744,0.96298695,0.2686288,0.90995044,0.65631974,0.82747865,-0.30906516,0.24877906,0.8151395],[-0.026238114,-0.70512486,0.91529125,-0.051779956,0.95692235,0.5745903,0.56924963,-0.758457,0.841625,0.08601657,0.35237074,0.29694608,0.82933336,0.72250944,0.032647736,0.12276605,-0.40169445,0.8471511,-0.018032195,-0.053200517,-0.4118326,0.9652909,-0.5969415,-0.85974795,-0.20841125,0.4670638,0.9557341,-0.71011066,-0.15945856,-0.5129162,-0.43842044,-0.8625913,0.8373253,0.8512902,-0.60112214,0.21435297,-0.45793605,-0.66899174,0.38465357,-0.00879205,0.6565592,-0.008220661,-0.4715427,0.798774,0.8420206,0.89643407,0.23884805,0.71729964,-0.81998557,0.8091019,0.10313359,0.8448437,0.39838824,-0.3265972,0.9063601,0.14762262,0.18900684,0.3157072,0.5069721,0.12496892,-0.42806554,0.7822623,-0.86465913,0.6882859,0.30398807],[0.3067779,-0.8326631,0.15181135,-1.1682811,-1.0545851,0.4464988,-0.94575053,0.32461607,0.5231126,-0.60861003,-0.17207174,-1.0269712,-0.44177118,-0.5233709,-0.97926503,0.80736554,0.43743575,-0.08858514,-0.1467863,0.8795797,-0.22895996,0.79165417,-1.0714611,-0.7334416,-0.4553207,0.12388636,-0.7345189,-0.033313174,-0.4252034,-0.84597486,-0.9159661,-0.287899,0.15724371,0.21413186,0.17985028,0.27819362,0.40560767,0.9805776,-0.86277133,0.4169244,-0.46029785,0.7062442,0.67197585,0.6227724,-0.32033667,-0.46622428,0.64714044,0.6943112,0.8579088,0.0012206318,-0.23833074,-0.58802307,0.5125281,-0.044628832,0.07566663,0.9635985,-0.1288507,0.47463983,-0.42042127,0.41312337,0.037663843,0.3686727,-0.70572793,-0.5683926,-0.9179741],[-0.6912041,0.60256666,-0.007868998,0.063332714,0.3736427,-1.0476778,-0.8446709,-0.6289564,-1.0049052,0.22634418,-0.41083917,-1.0309653,-0.7410773,0.19278312,0.23401071,0.7292313,-0.66739666,0.44020644,0.87318945,-0.6434463,0.8494596,0.60053897,-0.37631223,0.3740108,0.49619147,-0.68959004,-0.45748454,-0.25701514,0.67791843,-0.1998079,-0.059253056,-0.034534268,-0.1323402,0.30976537,-0.43878466,0.23241296,0.5717821,0.36879137,-0.62239325,0.4469273,-0.5144617,0.49799347,-0.68958086,-0.8152889,0.12739375,0.76520133,-0.99064964,0.86222637,0.3067622,0.9043704,-0.7484354,-0.5245376,-0.90052116,-0.5484208,-0.08228773,0.64628613,0.062464986,-0.870057,-0.07614579,-0.5466337,-0.84559435,-0.37238148,-0.68962234,0.72462994,0.33758807],[1.25115,-0.8438909,-0.6806055,0.13559507,0.82940507,0.40006104,-0.9178992,0.79913735,-0.28226694,0.0736039,0.65459126,0.6456558,0.19031744,-0.8347854,-0.74752223,-0.6459386,0.63641465,0.52321947,-0.61045384,-0.21847723,-0.46493775,-0.9288703,0.7011983,-0.36466494,-0.7360639,-0.63637424,-0.5720386,-0.044375207,-0.031831656,0.06306824,-0.5573454,-0.0323759,0.7289727,-0.37659734,-0.7077848,0.30205753,-0.8295613,-0.8282197,-0.19167793,0.512211,-0.0327869,-0.1643118,-0.7596961,0.50745213,-0.43509907,-0.49796107,0.88109225,-0.0008651067,0.22914067,0.6642866,0.15254098,0.53858894,-0.6279586,0.5511586,-0.25891808,-0.3273856,0.3707653,-0.7952534,1.320092,-0.16214241,0.37305036,-0.5260303,0.25912672,-0.73655367,0.6139055],[-1.0864197,-0.5679323,-0.39196625,0.36057857,0.5483353,-0.93342745,0.07797704,0.87809455,-0.57696074,1.5341926,0.78383154,0.89439416,0.027347848,0.61824954,-0.61677516,0.69291383,1.3228797,0.34960738,-0.79686224,-0.16473824,0.46320125,0.115495235,1.0921401,0.6050786,0.17605312,-0.12851839,0.9074237,-0.30665955,-0.25004417,1.2463466,0.19798586,-0.6835181,0.4472451,-0.904289,0.27479866,-0.5144464,0.499481,-0.35420942,0.8026038,-0.5610942,0.551594,-0.49341986,-1.2380385,-0.43950203,-0.35379374,-0.011479824,-0.25595915,0.83339304,-0.30648854,-1.0985894,0.65373254,0.38148427,1.0591575,0.039064243,0.97097135,-1.1791103,-0.7529427,-0.878285,-0.8279431,-0.22099072,-1.3150468,-0.16827434,0.39432302,0.4078364,-0.7769659],[-0.97045916,-0.03180978,0.89132017,-0.7316048,0.9226932,0.147858,-0.8491783,0.38071772,-0.7396135,0.33549216,-0.88949496,0.66907436,0.7503046,0.5333515,-0.023271233,0.06869549,-0.065564595,-0.20367274,-0.37062284,-0.513786,0.39704967,-0.530593,-0.97503436,-0.5581179,0.014874179,-0.8447219,0.41122994,0.96538204,0.72628343,-0.8370202,0.84870857,-0.73590493,0.9686318,-0.12300604,0.78587204,-0.7306844,-0.18881759,-0.3452215,-1.0099599,0.27162826,-0.5657508,0.8676635,0.010595631,0.22915486,0.39314818,-0.5998406,-0.012228973,-0.4162072,-0.18319622,-0.25200897,-0.06293246,-0.769686,-0.7121602,0.88431317,0.11073709,0.63897705,0.32188135,-0.08515863,-0.69164824,0.28667867,-0.25352702,0.44722244,-0.655754,-0.85289896,0.68616396],[0.40079054,-0.45004392,0.22905838,-0.6928194,-0.3691218,0.015784366,0.23692948,-1.0233964,-0.73730975,0.7593649,0.6787988,0.9650254,0.05725726,-0.26381686,-0.6688101,0.1691124,0.18782982,0.45215037,-0.46461916,-0.05123646,0.099702746,-0.44274402,0.15590844,-1.0254277,1.01131,0.79301083,0.12678994,-0.4369375,0.8993375,0.7503925,0.12846667,0.062344328,-0.394096,-0.8950421,1.0555794,1.2467911,0.031715177,-0.23799983,1.1095504,-0.20882195,0.53411096,-0.1684694,0.96765053,-0.46472278,-0.13192436,1.2287743,1.0741438,-0.4017573,0.15356435,-0.8873021,-0.27553657,-0.6560437,-0.5236853,-0.26999697,0.9066163,0.8643865,-0.732621,-0.3513762,-0.42114517,-0.7450017,-0.5429634,0.2225305,-0.8625632,0.9581064,-0.11191729],[0.34509584,-0.18776283,0.3582997,-0.6267837,-0.7967251,1.0895838,-0.19002566,-0.7225662,0.9560286,0.957961,-0.050839443,0.73917574,-0.63198525,0.09526734,-0.072658904,-0.13424923,0.14668943,0.4197386,-0.33425575,0.45138767,0.7551962,-0.52029777,0.35909194,-0.21140118,0.34497505,0.2622152,0.398778,0.730304,-0.48428252,0.14454237,-0.41836736,-0.9002212,0.7384841,0.29017836,-0.3766655,0.27946723,-0.09004829,-0.12668367,-0.83119804,0.009226376,-0.18167019,-0.35010415,-0.113518454,0.5777337,-0.19847822,0.1098296,-0.526927,0.64978164,0.4758584,-0.18001902,0.5669414,-0.41602746,-0.9105429,0.3319089,-0.7959192,0.26915386,0.5003293,-0.12307461,0.70207655,0.334232,-0.96723443,0.53598976,0.88898855,0.96963614,-0.38335124],[1.3232746,0.50172526,1.2923634,-0.5276005,-1.394433,-0.86127865,-0.33087748,-0.1486343,1.7026689,1.1676897,1.1209532,0.75802094,-0.56571525,0.5369467,-0.2009895,-0.05741272,-1.2440102,0.39990884,-1.3481258,0.794855,0.8587901,-0.59631157,-0.93017584,-1.2645032,0.053200766,-0.5147244,-0.85144943,0.7041824,0.2996451,0.62823206,-0.41532233,-0.57055616,-0.7116462,-0.09484188,0.32353505,-1.1654799,-0.037688315,0.82412386,0.2826661,-0.12380904,-0.29448408,0.29378513,0.19566767,-0.86092985,0.09001092,0.5297487,-0.44292027,-1.363441,-0.97318524,-0.49410704,-0.18904646,0.70283103,-0.57680583,-0.042906713,-0.13290758,-1.061444,0.23639901,1.2262446,-0.099625714,-0.6574632,0.83498573,0.7054646,0.32146305,-0.9460127,0.42708042],[-0.8216357,-0.13470684,0.6586033,-0.6049416,-0.41638225,0.82107866,0.6288768,-1.020494,-0.93469065,-0.8280889,0.26491058,-0.13480791,0.6816278,-0.66921514,0.25169662,0.16280945,0.4349702,0.80224115,0.20256825,-0.021113846,-0.40452287,-0.9088569,-1.0186259,-0.47097898,0.50902855,0.9088179,0.27510405,-1.0651414,0.9565239,-0.15629809,-0.58955467,-1.1059165,0.7019875,0.4155836,0.18555655,-1.3873589,0.5347409,0.32275766,0.27245376,0.40655196,0.23279247,0.8782236,1.4498856,-0.6462223,-0.5933536,0.77563554,0.5326987,-0.59816873,0.42652786,-0.3684354,1.4911593,0.31234553,-0.9076895,0.5685043,-0.23768154,0.6481726,-0.66234183,-0.44086793,0.43591624,-0.9711631,-0.6128774,0.2715218,0.88177496,-0.7157915,-0.49264866],[-0.51278514,0.76686865,-0.27587602,-0.6045963,-0.11064272,-0.4558831,0.45580187,-0.36866713,0.41199937,1.1104453,0.42063054,-0.6228903,-0.8460303,-0.42621902,-0.28185305,0.8469711,-0.95734954,0.10561821,0.9575851,-0.5437639,0.58611214,0.45633268,0.6906896,1.428863,0.35393935,-0.40123466,0.63240963,-1.331409,-0.74863076,0.41734156,-1.5070664,-1.3025838,-1.1199087,-0.2479514,0.9325968,-0.10194593,-1.0700746,0.32009062,0.42109734,-0.9557008,-0.77508974,-0.025643606,-0.1326183,-0.8243799,0.5634689,1.3367134,0.63932496,-0.24887408,-0.3579035,-0.11184005,1.0261608,0.9061921,1.135208,1.3137116,-0.065667145,1.1370071,-1.3388826,0.2409439,0.2607606,0.18705438,0.2707551,-0.6459807,-0.7979509,1.1095428,-0.009602183],[-0.12658922,-0.66250515,-0.3190661,0.65248513,0.75611496,-0.07002241,-0.49528658,-0.20642647,0.12252499,-0.52529377,0.7456739,-0.83663154,-0.7260748,-0.098820895,0.32579663,-0.9585466,-0.7671414,0.88235116,0.03487852,0.47146615,-0.6364087,-0.4692466,-0.22652562,0.30355313,0.33252499,-0.9302391,0.112027794,-0.4430944,-0.75526536,-0.9509712,0.85670877,0.82450724,0.026774447,0.539367,-0.463892,0.46615177,-0.46549588,-0.076998286,-0.9786804,0.88333833,-0.24584442,0.696517,-0.1553924,0.5170562,-0.6321066,-0.6274386,0.7066814,-0.5715496,-0.75882083,-0.56084514,-0.65711606,0.8536645,-0.3001471,0.66149795,-0.3804879,-0.25546905,-0.015807249,-0.4603345,0.65709525,-0.6184411,0.33483297,-0.35105148,-0.8552755,-0.50001067,0.94294274],[0.18983607,0.50239974,0.18175663,-0.7591369,-0.56965196,0.7512587,0.015511408,0.23411402,0.71684957,-1.0176395,-1.1334795,0.06974569,-0.5264393,0.33783227,0.6699212,-0.2023779,-0.8996447,-0.14483795,-0.32536244,-0.2743471,-0.38638374,0.9477575,-0.9041088,0.12971869,-0.628723,-0.38717908,-0.47347274,0.9659359,0.87792593,0.8305677,0.95603144,0.41346097,0.8071132,-0.8103386,-0.61647934,-0.24965852,-0.46123397,-1.2104207,0.25106528,-0.61256814,-0.0048364145,-1.0599514,0.08921492,-0.1863989,-0.1625334,0.10196433,-0.36258084,-0.9561019,0.58720374,0.012850455,0.39943516,-0.8976062,-0.60982025,-0.9542785,-0.7773777,0.3484967,0.090268366,0.26670834,0.21096173,0.7287558,0.14376213,1.222493,0.9972983,0.34433293,0.70680135],[0.59808725,0.95447296,-0.6535188,0.15272173,-0.6423067,0.6095202,-0.37676916,-0.7725484,0.2579368,-0.5421704,0.4653508,-0.55572003,0.00069756026,0.33310166,-0.78272706,1.1217525,0.6120286,0.027106747,-0.16317934,-0.88545036,0.6112889,0.69579977,-0.28324774,-0.31472588,0.36145714,-0.81793845,0.0014441044,-0.88828135,-0.47500256,-1.3763068,-1.2021321,0.56378984,-1.2537943,1.1849071,-0.23937307,-0.21308143,-1.0248039,0.24902084,-1.1068555,0.41109687,0.9719315,1.3641157,-0.36414948,-0.98298997,-1.4714904,-0.5059747,0.5671008,1.0339522,1.5254366,-0.0055500637,1.2699095,-0.6496974,-0.33340317,-0.49817088,-0.97747487,1.5058769,0.8461647,0.987076,-0.03813106,-0.57246006,0.5355699,0.45559397,-0.27684122,-0.4964729,1.1546459],[0.5100502,-0.0064335307,0.7695682,0.66897786,-0.26837125,0.047820013,-0.35974416,0.026125908,0.36557126,-0.2589218,-0.9880896,0.37761343,-0.25838703,-0.45181054,0.8776826,0.3104671,0.89394045,0.12447947,0.4487498,0.63334304,0.08954335,0.75426203,-0.7061046,-0.25722882,-0.5715066,-0.47013772,0.77201235,0.17868759,-0.39057896,0.28719515,-0.9252729,-0.57643384,0.068006665,-0.48432294,0.41001835,-0.46453443,0.8922979,-0.013395853,0.9086078,-0.09053484,-0.36005268,0.1274059,0.649579,0.8127254,0.8994023,0.35212407,0.46380404,0.7830796,-0.20522219,0.6605584,0.705396,-0.37046933,-0.62790823,0.8948437,0.75533825,-0.7137411,-0.7317991,-0.80737734,-0.005973186,0.8202915,0.4873106,0.3287586,-0.042481482,-0.7100773,0.8097549],[0.8988371,0.52908266,0.70401174,0.8556812,-0.75073373,-0.5173976,-0.6425896,-0.38749567,-0.7954106,0.037127446,0.43184212,0.6275108,0.6517469,0.04257603,-0.71814084,0.1883673,0.24968366,1.0193431,0.9931624,-0.39283952,0.9176155,-0.9310735,-0.2457074,0.04280293,-0.22042327,0.55142856,0.4401184,-0.18977946,-0.523492,-0.9775086,0.9028578,-0.83124053,-0.66020805,-0.31745085,0.35362998,-0.48213148,0.88618094,0.3129909,-0.29134902,-0.16801879,-0.7578375,-0.376463,-0.87957186,-0.56638205,0.91839343,1.056367,0.16384235,-0.10868414,-0.36926997,0.32970595,0.0902423,0.74815786,0.79395425,-0.71166736,-0.6358521,-0.90798646,0.5034182,0.6999245,0.86627454,-0.48071635,0.5870901,-0.39228046,0.8693446,-0.97013646,0.38671213],[0.85739064,-0.030225575,0.078914165,0.38552484,0.17092434,-0.91467047,0.17187837,-0.28101003,0.56629264,0.5902539,0.03541232,-0.71549076,-0.7096037,-0.26772302,0.25226068,-0.2558724,0.22147438,0.23791097,-0.5416226,0.0288922,0.33337215,0.71533334,0.91310716,-0.007694572,0.6446882,0.27060288,0.558988,0.68140566,-0.5408833,-0.24518155,-0.001491413,-0.35561606,-0.07611147,-0.13247162,-0.44178256,0.77241266,0.731249,-0.46825194,0.08426674,-0.6693571,0.88412213,0.0620791,-0.2459004,0.94412076,0.14516251,-0.6712489,0.21483865,0.7353107,0.25763202,-0.5217955,-0.40383142,0.9287284,-0.05811844,-0.91190255,0.052442797,0.6441702,-0.81975406,0.67912966,0.666511,-0.46397263,0.000055247612,0.70699304,-0.7124588,-0.8834429,0.6139224],[0.42370307,-0.9391236,-0.4988123,-0.61885756,-0.586788,0.31230444,0.09315965,0.72130346,-0.22805677,0.013240407,0.7565072,-1.2055422,1.0616558,0.85255504,-1.0569218,1.2792646,0.34626892,0.0108209895,0.8558878,-0.5219326,-0.566789,-0.5927533,-0.65603286,0.022864817,0.005579661,0.060606018,0.3756002,0.6347154,-0.88314396,-0.13492431,0.69118357,1.2826691,-0.6024879,-0.70128447,0.38483602,1.2232153,-0.0037049039,-0.6710427,-0.8027946,0.081088595,0.6591288,-0.579554,-0.13267289,-0.25305244,-0.0970822,-0.002640513,-0.69737685,-0.24384019,0.5290741,0.03689994,-0.7359099,-0.5455856,0.6459773,0.8460169,0.6225581,-0.2834794,-0.6296229,0.45292273,0.31826505,-0.3132966,0.6942593,1.0023661,-0.09177621,0.10524695,-0.28788084],[1.0753131,-0.4385133,-0.6068993,0.46675953,-0.50999874,0.9961602,-0.7575959,-0.3537482,-0.13908736,-0.669179,-0.049226362,-0.7850138,0.23037067,-0.33667833,0.5520326,0.25627106,-0.23365374,-0.46037412,-0.5604115,-0.081558116,0.7887252,-0.7657535,-0.6418407,0.9588587,-0.5083166,-0.050838865,-0.34936926,0.5043407,0.522636,-0.76648897,-0.5186308,0.56908303,-0.48047775,0.60601526,-0.829979,-0.022560729,-0.02410293,-0.42065984,-0.582831,-0.21906824,-0.3916075,0.31789443,0.79803777,0.66829705,-0.03457757,0.43124154,-0.92994887,-0.62728024,0.55564934,0.47275066,0.14747609,0.9963276,0.51145214,0.7350469,-0.9975363,-0.032260213,-0.8139771,0.91365224,-0.008296067,-0.7559777,-0.2396071,-0.6289532,-1.2453778,0.68004805,-0.2255403],[-0.7813061,1.2158178,-0.57375807,-0.5798789,-0.51984674,0.4341981,0.4934359,0.09194787,1.1036725,-0.198956,-0.7951195,1.1615909,-0.4371641,0.85139066,-0.5528582,1.1055914,-0.4198535,0.36476004,0.6323427,-0.5964458,-0.28686816,0.69617623,-1.3252403,0.6068287,-0.2535747,-0.29444438,0.83618826,-0.9248999,0.70538384,0.47911564,-1.210697,0.2099084,0.8658713,0.063410915,-0.24523947,-1.5262153,-0.31481224,-0.19125941,0.22016399,0.9969319,-0.30342054,0.60042804,0.9824931,-0.2868908,-0.41663066,0.3553673,-0.48761678,0.87074566,-0.099158265,0.51903844,-0.79535156,0.40948668,0.37975088,-1.0463837,-0.61045647,0.41271114,0.1311302,-0.9271724,-1.4572867,-1.4320458,0.68020153,-1.1715851,-0.055289373,-0.8530743,0.87632596],[-0.12047241,-0.9145204,-0.6924341,-1.0273926,0.8488156,0.070908904,0.6240587,-0.26751545,-0.66690487,0.49944437,0.6806499,0.4571176,-0.44174635,-0.85280627,-0.9226661,-0.056496926,0.5656905,0.90953505,0.24787937,0.9683599,0.16723931,-0.6261905,-0.1393225,-0.26501176,-0.444865,0.7161986,0.54135084,0.5465551,-0.5103172,0.0008420235,0.7038719,0.8120532,0.53118455,0.21426027,-0.3050029,0.77677685,-0.25811374,0.6261449,0.6682829,-1.0059924,-0.10828006,0.8017763,0.46253085,-0.42822844,-0.40999398,-0.3239206,0.09702476,-0.6630065,-0.3509435,0.49079013,0.5778149,-0.18123846,-0.02848042,0.22422448,0.7255672,-0.31156036,0.95930296,0.6484844,0.9075324,-0.67849916,0.8260553,0.5410276,0.44512054,-0.6866844,0.5000504],[-0.6735996,0.4023902,-0.3218782,0.28482217,-0.4965867,0.024686005,0.5486599,0.01276914,0.6759464,-0.5628982,-0.5503439,-0.21029389,-0.84286016,0.1791709,-0.121731475,-0.8328894,-0.5591592,0.2983087,-0.80612534,0.15900102,0.16310164,0.16772686,-1.0193964,-0.35044393,-0.23033483,-0.025006115,0.7028451,-0.6383291,0.9753335,0.21705987,-0.92368364,0.6599646,0.15770166,0.9531189,0.7245224,-0.45478132,-0.6353732,-0.38424885,0.53072643,0.44244558,-0.8397923,-0.65385634,-0.76609194,-0.28502762,0.52298474,0.02555609,-0.5184274,-0.1334393,0.8999224,-0.060778428,-0.9230032,0.89699465,-0.53860056,0.6684618,-0.019550731,-0.5411734,-0.8285679,-0.49712223,-0.9917157,0.1642938,0.27521226,0.6092613,0.09031091,-0.14029221,-0.6651518],[-0.06898821,0.2967848,-0.32232088,-0.34026533,-0.27067184,-0.29367077,1.0734302,0.48466605,-0.27077475,0.6008969,-0.56863385,0.48549455,0.85088396,-0.5961731,0.46393174,0.6914277,-0.78433347,0.28923884,0.11059407,0.09620234,-0.52246934,0.8767913,0.15242317,0.083205126,-0.7886575,0.949944,0.37169865,0.59481716,0.9018323,-0.6350173,0.66260964,1.0176669,0.13583969,-0.24623038,-0.8245982,-0.041443046,-0.013296432,-0.3164477,0.26930735,0.084956564,0.41291243,-0.57089615,-0.55382895,-0.052967977,-0.85994405,0.3095142,-0.8622626,-0.2850245,0.9417256,-0.9022104,-0.7364703,0.8380535,-0.10224419,-0.17536978,-0.61136895,0.63490254,1.0083258,0.16473906,-0.30003855,0.2792301,0.88235986,-0.2906964,0.8892581,0.07518861,0.27805167],[0.010971773,0.19862777,-1.5581508,0.4393829,-0.8999325,-0.7875923,-0.6209511,0.53104955,-0.6954601,-0.90577036,0.444105,-0.064745195,0.07965143,-0.59859157,-0.56089145,-1.067413,0.019219305,0.97242445,-0.25049284,0.73317194,-0.40888232,0.29945448,-0.30728504,0.055386744,-0.61666316,-0.047482148,1.2013166,0.7412956,-0.1884718,-0.86129546,-0.3512005,-0.07290991,1.3583262,-0.96864986,-1.0549484,0.5382206,0.6094828,-0.72010845,0.1889583,-0.60739267,0.76164544,0.09717789,-0.02198132,1.1451656,-0.25840652,0.20469554,1.0181522,0.25148878,-0.70481527,-0.89086694,0.9884223,0.08792869,-0.52648187,1.0992885,1.513225,-0.7389327,0.4484443,-0.07936481,-0.27391842,0.44699848,0.030380648,-0.048038024,1.0176433,0.8108732,-0.5683359],[-0.6328114,-1.1503183,-0.14483099,0.97116715,1.0489237,-0.067227215,0.13023491,0.14595298,-1.0453438,-0.79855275,0.051004298,-0.13890089,-0.33465466,0.48486423,-0.89490634,1.2143184,-1.14121,0.5150887,0.17201991,-0.08404951,0.6892229,-0.5912524,0.88517493,0.06845538,-0.5413214,-0.7433919,0.23390752,-0.758873,0.9304416,0.21663089,0.054793134,-0.414249,-1.0111765,0.6059232,-0.7954234,0.8232898,-0.97884625,-0.9161564,0.5738989,-0.6748581,-0.41718093,0.14109121,0.57801306,-0.73461986,0.83743876,0.19619924,-0.21711121,-0.5025909,0.14253758,0.8601688,-0.32951024,0.5510585,0.32968175,0.09813508,-0.6786303,0.2694431,-0.2706948,-0.5649906,-1.1584727,0.8146124,1.2837046,1.1679664,-0.06979764,0.94456303,0.31971824],[0.7436636,0.3830782,0.121651866,-0.028005999,0.5677754,0.8406376,0.09026283,0.90520155,-0.117707625,0.5340885,-0.017621668,-0.7539794,-0.09011397,-0.17651993,-0.007306822,0.055325326,-0.42701244,0.94074035,-0.4078835,0.4973759,-0.9308809,-0.48268613,0.6896448,-0.45042044,-0.71687096,-0.8889057,1.018321,0.34465572,-0.4413901,0.4280888,-0.472715,-0.055496927,-0.44455817,0.6071294,-0.072267525,0.1338965,0.625522,0.70680696,0.75161356,0.80642605,-0.023505924,-0.107749395,-0.27430263,0.18349648,-0.7433203,0.29724494,0.5236584,-0.5902799,-0.019298045,0.7572167,-0.94169545,0.027267419,0.45852408,-0.2693785,0.6424716,-0.41467765,0.3137942,-0.6864391,0.4467949,-0.0102647105,0.2929468,-0.65598184,-0.35131183,0.7738419,0.23794554],[0.81588495,0.8097387,0.7942402,0.9014199,-0.014856032,-0.2948566,-0.6460258,0.87754476,-0.12020091,0.069566555,0.14200109,-0.49303827,0.98953503,-0.28424883,-0.08570256,-0.15838462,0.9714104,-0.7451692,0.9269695,0.6674955,-0.13109814,-0.75880295,-0.12981482,0.426481,0.17859602,0.4780689,0.0029359327,-0.40841848,0.86122686,0.90204734,-0.4026109,0.9077236,0.073214576,0.6926686,-0.6714681,0.5444892,0.6078377,-0.6994756,0.052875195,0.34704664,0.5406729,0.19916545,0.15554531,0.8250477,-0.57095003,-0.6264128,-0.41549757,-0.37933192,0.3503084,-0.97488254,-0.57932764,-0.14538915,0.7795264,0.83876985,0.46140054,-0.053798176,0.05130677,0.10447725,0.667354,-0.47113267,0.4606228,0.45531666,0.68703586,-0.0479112,0.27101022],[-0.35011244,-0.6341715,0.39510792,0.81463075,0.90634155,0.440954,0.5617452,-0.7889819,0.35806078,-0.9579948,-0.7590539,-0.29888773,-1.0691422,0.76956385,0.4610953,-0.5144091,0.51789665,-0.25542355,-0.7111871,-0.82548606,0.64644474,-1.0375439,-0.59303725,1.0201842,0.7342953,0.14517899,-0.92560923,-0.4481812,-0.025966026,-0.80332804,-0.06020036,0.12219678,0.5980659,0.38271528,0.25097463,-0.8343503,-1.0253189,0.25871953,-0.0705959,-0.20514014,0.8001464,0.9324781,-0.6023055,-0.9725289,0.7494732,0.8038655,0.04289383,-0.3867061,0.31486994,-0.6236698,-0.10453859,0.31885365,0.65410346,-0.4624424,0.03926586,-0.2617963,0.4796541,0.4685962,-0.217182,-0.32182088,-0.64011306,-0.5210187,-0.83334553,0.59999275,-0.4476874],[0.2027231,0.78303295,-0.91370255,0.90980154,0.91440815,-1.020757,0.36520246,0.68149054,-0.9765296,-0.4066024,-0.08747037,-0.13641009,0.8847869,-0.17162628,-0.9726144,-0.7751429,-0.0734141,0.538143,-0.3342234,0.34074515,-0.6619007,0.057364233,-0.96464956,0.30637985,0.26493618,0.22981216,-0.023543088,-0.9413652,-0.5543061,0.9474332,0.41442388,-0.0044558193,-0.86084586,-0.6964166,-0.5551931,0.4428862,1.1140738,0.9124174,-0.4250092,1.1019194,0.9512714,1.0192947,-0.12956774,0.46551427,0.76799905,-0.45304808,0.8513571,0.5717854,-0.61010766,0.089565754,-0.2717507,-0.19784279,-0.20893681,0.47576216,0.3798851,0.7998355,0.30549252,0.7843177,-0.22546421,-0.4575894,-0.9052668,0.70214367,-0.12533909,0.33403954,0.8547118],[-0.96294576,-0.46237823,-1.083574,-0.31873143,-0.5188844,-0.5040515,0.35946944,0.21159233,1.086927,0.31689847,-0.33292842,-0.9393444,-0.5246107,0.8160422,-0.34719217,-0.10007863,1.1747674,0.72231823,-0.1359009,-0.3019416,-1.0484252,-1.5328718,-0.37024334,-0.16541779,1.432832,0.7558258,1.1330183,0.42859057,-0.34023362,-0.8186397,-1.044267,-1.081387,0.08477578,-0.8477696,-0.18484637,-0.5596959,0.33201283,0.29494625,-0.10002127,-0.3163587,1.4177549,1.3500086,-0.6895616,0.4713682,1.4730814,0.061376143,0.43361357,-0.3885014,0.35751522,0.12081215,0.6283975,0.73461753,-0.1556381,-0.90525407,0.6693555,0.3096653,-0.68826103,-0.05562046,-0.66535723,0.4881815,-0.58157736,0.0054867626,0.08767549,0.47648296,0.8467411],[-0.7437054,-0.36473858,-0.22813673,-0.21837832,-0.080710135,0.75038224,0.59509164,0.5854803,-0.013149252,-0.62838113,0.5098758,0.060248096,0.5098989,0.89870965,0.11759885,0.4822459,0.06235224,0.79152113,-0.48045716,-0.10541196,-0.42663577,-0.8800611,0.5744719,-0.99633926,0.6597606,0.43772167,-0.9650497,0.5674443,-0.87251234,1.0253491,-0.7398001,0.64095485,0.74141055,0.9014046,0.7328577,0.4313772,0.52934074,0.05027191,0.70633334,0.6134718,-0.1368035,0.105329484,-0.76974255,-0.33998844,-0.69945765,0.08300196,0.9010435,-0.45442003,-0.9284493,0.23533149,0.51015383,0.35032663,0.8385375,-0.4066699,-0.5519827,0.048058018,0.93012285,0.8497381,-0.45086342,-0.56183326,-0.1926854,0.82303005,-0.8641977,-0.34468848,0.8681511],[-0.9625578,0.080957785,0.10360048,0.39426568,-0.3111429,0.7475496,-0.59672445,-0.7535799,-0.5057617,1.0082196,-0.45134962,-0.15389198,-0.63923424,-0.7662313,0.6709096,-0.111833155,0.19696563,-0.5886812,-0.0073641934,-0.92306924,-0.7369739,0.10538057,-0.717269,0.19589151,0.3072021,0.72512174,-0.44629592,-0.58244723,1.0264301,-0.41102955,0.12818174,-0.32328716,0.082048565,0.057167843,0.41992256,0.69132864,0.44924402,-0.09168406,-0.8591971,0.61501443,-0.6683682,-0.82421905,0.7914155,-0.85645556,-0.3959851,-0.31182125,0.90562814,-0.442288,1.0150427,0.100439504,0.09023554,0.46769854,-0.059326667,0.771451,-0.19921651,0.8314139,-0.15234981,0.5002564,0.856059,-0.67489266,-0.8689847,0.3090512,0.19284654,-0.035514962,0.012494457],[-0.07325995,0.49436107,-0.5163296,0.5327571,0.5326795,0.62345225,-0.18418421,0.58045775,0.31634635,-0.05273483,0.09371625,0.7415988,0.663983,-0.90755284,0.18943395,0.11352072,0.5911986,0.102312826,-0.43847856,0.87174517,0.51103115,0.9298441,-0.9161908,-0.7019813,0.7220193,-0.022936663,0.71098006,0.75597084,-0.57054913,0.86962247,0.4181708,-0.3877542,-0.013113152,0.40291503,-0.8912614,0.4430524,-0.801132,-0.35763466,-0.3295224,0.74186206,-0.8542152,0.3793999,0.4973457,-0.111490265,-0.28006914,-0.51923025,-0.7890526,0.570496,-0.9815328,1.0351716,-0.17621408,0.6425825,0.068795405,-0.6969785,0.17084254,-0.687487,0.4558451,-0.66495854,-0.40279254,0.6364818,-0.30947718,0.7370625,0.3940809,-0.6105683,-0.53431845],[-0.40263206,-0.390398,0.3579704,0.6101659,0.4023183,-1.1348795,1.0421429,-0.3712666,0.037883993,-0.31182843,1.0434597,0.031051788,-1.1155121,0.03255872,0.5345431,0.04524076,0.62521815,0.8462133,0.38222373,0.08904422,-0.840811,-0.013040878,-0.74068296,0.3936809,-0.7631634,0.7388223,-0.1863188,-0.1715498,0.44328278,-0.50444233,0.87272054,-0.5074435,1.1211531,-0.75709444,0.44071344,0.018840685,-0.15394121,-0.09074664,-1.0475246,0.30169126,0.61235756,0.22611403,0.14185771,0.101867676,0.9833513,0.1079759,-0.61500823,0.45436272,0.9820829,-0.6121037,0.06826047,0.44677928,-0.035043918,-0.36106586,0.99301136,0.6530385,-0.78133625,-0.8066364,0.22335719,0.086777955,-0.28482234,-0.9109206,0.5792708,-0.08503038,-1.0390873],[0.3807072,-0.34741464,-0.1048776,-0.48552814,0.53171504,-0.62619215,0.8224227,0.81889147,-0.8738936,0.026416032,0.4945895,-0.14273492,-0.73999393,-0.74808127,-0.44085738,0.46637622,0.5100836,-0.21625836,-0.20718798,0.50717103,-0.49082986,-0.051478326,-0.24933867,0.5758708,-0.5028446,0.88924325,-0.5635779,1.1706005,0.1868097,-0.2652253,0.614092,0.1627139,-0.5400004,0.83368313,-0.07092848,0.4957251,0.5885666,-1.140178,0.5532857,0.10305359,-0.7525587,0.31923354,-0.30478975,0.39717892,0.16320167,0.99934316,0.8258101,0.16208598,0.7579845,0.49589425,-0.5151301,-0.26071426,0.8819471,-0.466329,0.25134474,-0.579436,-0.25181025,0.0616304,-0.80890656,-0.23899983,0.6070785,-0.542618,0.48963046,-0.6085756,-0.38821575],[0.78226703,0.8462848,-0.6653529,0.5403237,0.47725064,-0.11411675,0.79330206,0.55088884,-0.023577537,-1.0672692,-0.49473748,-0.076261476,-0.6058101,0.03363425,-0.13730551,-0.6512843,0.08688546,-0.64375764,-0.003954287,0.091485925,0.9463743,-0.5891722,0.27471137,-0.8675517,0.07069051,-0.73719776,-0.81901836,0.62555385,0.15789683,-0.33673367,-0.64856046,-0.24200608,0.5611969,0.7568937,-0.21828642,0.18348654,0.5542386,-0.7697041,0.46008858,0.7682934,0.42028078,0.33119735,0.75846964,-0.57995886,0.49218625,0.8116422,-0.17649142,0.18501145,-0.9342297,0.037399158,0.27947578,-0.7134921,0.8237471,-0.7676512,0.19778474,0.8714174,-0.05107991,0.8436078,0.7464577,1.0167572,-1.0547229,0.6854878,0.4426614,-0.2806112,0.4083277],[-0.1838013,0.16220288,-0.8495302,-1.3919159,0.021704495,0.08836132,0.34586114,-0.1874433,0.7663206,-0.7313671,0.5372546,-0.4491497,1.0893695,0.2865497,0.17812523,0.105185255,-0.086148866,0.8157461,-0.7661978,0.08325434,-1.1186202,-1.3050545,-1.6699615,-0.7913198,0.82092774,-0.7338099,-0.3138622,0.5257512,-0.24914967,0.6326924,-0.04327946,0.09026264,-1.2430828,-0.10350617,-0.9717068,0.9612311,0.57153624,0.10157786,0.049528133,-1.1979693,-1.1169525,0.6468133,0.48596364,0.52001494,-0.26590487,-0.61855435,0.5394152,-0.32224703,0.500526,0.5088687,-0.33771682,1.1438261,0.6982453,0.48361018,0.8679372,0.5973468,0.26811516,0.7833502,-0.6458549,0.37331173,-1.2109431,0.2150179,0.08569246,0.29850018,0.63365346],[-0.50612634,0.70562744,-0.6475263,0.12754448,0.16825832,-0.014338925,0.29906932,-0.37849653,-0.29108432,-1.0152177,0.31542847,-0.28831103,-0.5570262,0.86570305,0.60749686,-0.8710016,0.9444149,-0.5507495,-0.5238945,-0.576513,-0.35592964,-0.59830135,-0.9171621,0.98562634,0.4542596,0.07616865,-0.42201093,0.9166317,-0.000033685345,1.0585225,0.94327265,-0.4518894,-0.02111642,0.2986539,0.9950763,0.92841095,0.3745695,-0.58673555,-0.94519424,-0.62321854,-0.2548563,0.5176488,-0.63076603,-0.86269295,-0.14797293,0.6115516,-0.53490454,-0.6628709,-0.6959058,-0.86134213,-0.69715524,-0.39764175,-1.0133276,-0.5456345,-0.42740434,0.34120932,-0.32199568,0.57082754,0.83312947,0.20647909,0.56448203,0.54742247,1.0818963,-0.10265957,-0.79128224],[0.120499104,-0.12363738,0.24688298,-0.39660698,-0.9213723,0.91731346,0.99138904,-0.5694056,-0.22717768,-0.4406229,0.20772994,-0.13595144,-0.26442918,0.5181309,-0.5776228,-0.34446138,-0.8169342,0.20018865,-0.9508339,0.6693838,-0.4141889,-0.2668752,0.73238707,-0.10944111,-0.84602034,0.4855451,0.78719443,1.0038545,0.78540635,0.53672373,0.45886305,-0.19129875,-0.166331,0.28733256,-0.48174712,0.21588784,0.27055848,0.82011396,0.73631674,0.5838852,-0.65465885,-0.6077138,0.41604632,0.35503238,0.51667875,0.49458748,0.77749985,0.51561874,0.6569495,0.2095607,0.8291466,-0.43910623,0.98302346,-0.5242327,-0.6185129,-0.29750422,0.5189754,0.18279156,0.123514876,0.6998319,0.55479014,0.30614677,-0.23570696,0.89726424,0.92566794],[0.35046217,-0.29642072,0.8074648,-0.7718822,0.9185646,0.7802222,-1.2425048,-1.6748377,-1.0791522,-0.79282904,-0.23630334,0.9759093,-0.6219078,-0.24873586,0.91895753,-0.9142913,-0.32554102,0.2728888,-1.1165313,0.38867313,-0.487588,0.27284786,1.0289446,0.33180434,-1.0129424,0.51503354,-0.57542473,0.76521564,-0.34096637,0.34465423,-0.007385269,0.017012969,-0.78825825,0.56061184,0.8215549,-0.086163186,-0.7855241,-0.12570302,0.44923323,-0.510036,-0.9448186,0.10362549,0.84303254,0.29138735,0.22019316,-0.8208894,1.5726783,1.084698,0.4487598,0.7138539,0.30076784,0.05321664,-0.58837867,0.48164576,0.3233302,-0.73944914,-0.69204533,-0.19908017,0.20677102,-0.39496356,-0.7675116,0.4518343,0.31898987,0.07675554,0.2899206],[0.29353425,0.6537617,0.63918227,0.5286128,0.41924512,-0.2649733,-0.2376136,0.7909366,-0.5482615,-0.0457453,0.14157511,-0.21843526,-0.11460239,-0.32252175,0.6036394,-0.1988377,0.675098,-0.1868296,0.9778703,0.029983265,0.5807143,0.7702559,0.46318495,-0.77800226,-0.47185802,0.8507265,-0.095950104,0.46342674,-0.3823372,0.4246363,0.1612818,-0.59133595,0.67719495,-0.71787006,0.96085906,-0.84804714,-0.23788814,0.3815162,0.020632077,0.95924073,-0.9963011,0.078890234,0.9541489,0.18545733,0.60962,0.92639285,0.7402875,0.19644769,-0.2791227,-0.10921551,0.8558538,0.7154261,0.53604835,-0.98721033,0.94728684,0.67536175,0.6454927,0.84174156,0.6950641,-0.8163554,-0.3046711,0.4385888,-0.7339052,0.76105654,-0.14458117],[-0.7293288,-0.17706285,-0.6980308,0.9800434,0.059969258,-0.108874656,-0.2514317,0.54217935,0.46599308,-0.86365193,0.004804196,0.19916025,0.9870297,0.7767138,0.8342065,0.40089616,0.29593197,0.44583955,-0.28274578,-1.0850437,0.7359807,0.06581045,0.4716152,-0.82424456,0.42313528,-0.9683022,-0.24931362,-0.39189517,-0.41625562,0.26067793,0.5519497,-0.40082163,1.091751,1.0274105,0.5360089,0.6700893,-0.84558904,0.054906163,0.22388627,-0.25760195,0.22015053,0.7166575,-0.99553376,-1.0959209,-0.42484802,0.31735614,0.85220057,0.62102586,0.96925277,-0.11922335,0.37203467,0.68430513,-0.9822878,-0.87433237,1.0171498,-0.16533288,-0.76049674,-0.6398598,-0.83139515,-0.8406634,0.72902626,-0.72177815,0.8786386,-0.1580727,0.65534884],[0.96583617,-0.50709885,-0.084477045,0.61084896,-0.5586964,0.96965146,0.22983989,-0.3599112,-0.5161288,-0.25959188,-0.9009076,0.94103855,0.44971022,0.14552234,0.36886132,-0.59920543,0.54496145,-0.95020443,-0.46401265,0.9728809,-0.8485641,0.5119171,0.011183221,0.4773882,-0.0052732727,0.3557,-0.92536867,0.7517463,0.35548982,0.08217678,-0.68073934,0.80693537,0.7575144,-0.050455566,0.7888705,-0.5039046,-0.42838994,-0.64806026,0.22490662,0.6773664,-0.52051854,1.0224892,-0.022507736,0.34839374,-0.912595,-1.0562854,0.37609932,0.94942975,0.56625575,-0.38970092,0.49536073,0.08304835,-0.79840386,0.88480747,0.48732916,-0.7781465,0.13037015,0.16471882,-0.48555684,-0.3605341,0.45279968,0.7147354,0.24329679,0.6321647,0.18489394],[-0.64486706,0.8547275,-0.8099492,0.41026258,-0.43843228,1.0415353,0.59069693,0.94430447,-0.43702245,-0.19475693,0.8632195,0.38063505,-0.10881359,0.75442517,0.1127886,0.029705567,-0.6973126,0.4066558,-1.0262405,-0.804331,-0.69486487,0.6335728,-0.20511411,0.038705524,-0.6404923,0.5959599,0.9432095,0.57417244,-0.10434757,-0.9672773,0.16290624,-0.051974554,-0.6412204,-0.40430632,-0.64133066,-0.867821,0.52642953,0.7546523,-0.14085908,0.3512869,-0.32493946,-0.7883437,0.53301156,-0.7084628,-0.21402353,-0.22110793,-0.63805634,-1.0146688,-0.3534649,-0.49139452,-0.29635203,0.23337126,-0.49488467,-0.9949989,0.82031447,0.45614278,-0.4122668,-0.12051007,-0.19498815,-0.068436995,0.39700055,-0.8210863,-0.29316434,0.09101439,-0.4636508],[0.2860196,0.43582258,-0.13477053,-0.7077684,-0.67842174,0.24386244,0.7587186,0.6262065,0.39396477,-0.03997108,0.22341761,0.55878574,-0.2515786,0.300845,0.733153,-0.37107396,-0.10906728,-0.29339078,-1.1868527,-0.4829387,-0.5135655,-0.12840138,-0.10813518,-1.2297757,1.0900714,0.09087435,-0.98885566,-0.9320811,0.27129483,0.5729528,1.1192514,-0.8733636,-1.1783779,0.98213387,-1.0065237,0.58318216,-0.8790015,-0.6108383,-0.22655372,0.18852682,0.7044078,0.838189,0.8040719,-0.111903474,0.61369276,1.1698092,-0.48655406,-0.099466175,-0.2577038,0.5739032,0.09721851,-0.6399347,-1.259605,-0.21299832,0.059888367,-0.23164928,0.6485397,0.47575724,-0.046602696,0.17036022,-0.8084472,0.5421643,0.7683204,-0.05709882,-0.90520024],[0.4406881,0.32349944,0.9353185,0.24098279,-0.29663053,0.7728867,-0.14621027,-0.9420062,-0.9368002,-0.15743189,-0.80524457,0.6309433,-0.34245512,-0.510905,0.41779974,-0.96241087,-0.9579027,0.23237137,0.556968,0.8494495,-0.8522904,0.49224415,0.7752556,-0.8654507,0.60209554,-0.24720806,-0.26323226,0.82502115,-0.9529626,-0.2118222,-0.5043439,0.15823746,-0.8229347,-0.41194278,-0.16079593,-0.5302202,0.5946686,0.30670157,0.77576476,-0.06768711,0.20907256,-0.74948525,-0.69220364,-0.7919588,0.03283416,-0.05212693,-0.8857703,0.11033531,-1.0944512,0.6655186,-0.027929556,0.17000465,-0.7299843,-0.63903004,-0.060912345,-0.30361786,0.7366853,-0.55759966,-0.29545924,0.8936096,0.22487584,-0.16810428,0.4635943,0.75369745,0.68529487],[0.86320823,0.611079,0.78714913,-0.6498542,-0.83428776,0.4438964,0.54096353,0.46666157,1.0261136,-0.08767474,-0.32008407,0.36949435,-0.44983372,-0.52328795,-0.45559093,0.6139899,0.25573018,0.23421195,-0.20058765,0.30577487,0.8647123,1.1073977,0.9273901,-0.8495023,-0.98396957,-0.10341533,0.19337004,0.18076847,-0.5210593,-0.9964525,0.5766975,-0.8233427,0.81866133,1.257099,-0.053431064,1.2495373,0.6279298,-1.0592874,0.6070682,-1.0023485,-0.43445805,-0.55410373,0.53428835,0.15345308,0.8309217,0.51097685,-0.24133809,-0.5211612,0.45621988,0.24246216,-0.85645413,-0.41419047,-0.9881937,-1.3001403,0.6849949,-0.37078434,-0.92068154,0.541139,0.013443805,-0.8718969,-0.2977552,-0.5497073,-0.65050966,0.66251844,0.849709],[0.79230046,0.388147,0.3763775,-0.20545208,-0.40705097,-0.5732922,0.90316397,0.8901675,0.48466033,0.295887,-0.45638832,-0.7717724,0.42322695,-0.6552445,0.7363713,-0.5350619,-0.57133156,0.27340114,-0.07722779,-0.2770409,-0.84686255,-0.25816792,-0.7949546,-0.4138386,-1.0337917,-0.94199914,-0.6429247,-0.02785378,0.32438883,-0.52717364,0.17537905,-0.7138543,0.41745698,0.046920255,1.0133079,0.25371835,-0.45438805,-0.82298607,-0.5346914,0.4394235,-0.77252483,0.43066627,-0.4652394,-0.3491425,-0.7693049,1.0973012,0.16011058,0.3506467,-0.58386606,-0.28859133,0.43564785,0.025694262,-0.8439796,0.9485053,0.7636877,0.12910207,0.8522004,-0.10145891,0.2758162,-0.5896897,-0.7479033,-0.6239471,0.122211955,-0.60281664,-0.31752253],[-1.3264304,0.86673975,-0.23544265,0.13930176,0.22302607,-0.380307,0.6788342,1.0931009,0.34773913,-1.3642004,0.1009483,0.82525253,0.92586964,-0.74910504,-0.20307559,0.83835906,0.4363504,-1.409486,-0.31742445,-0.32196876,0.87295616,-0.3802493,0.527105,-0.2651283,-0.0922946,-0.049648732,1.6002511,-0.47017115,0.87935,-1.0627557,0.45027354,-0.67966413,0.2838247,0.539374,0.6952079,0.345962,1.0793399,-0.79535294,0.5469081,0.58218706,0.6986104,-0.33983374,-0.85539067,-1.969199,-0.81125224,0.15984073,-0.41744334,-0.46333376,1.036807,-0.6273243,0.08924042,-1.6468766,-0.84475195,0.75559765,-0.21059315,0.5712941,0.3257325,-0.6033527,0.53465,0.33039215,-0.2775971,0.76834464,-1.1237627,0.058815435,-0.3048184],[0.9449697,-1.0585859,-0.27915573,0.6433139,0.56531465,0.5956661,-0.73096913,-0.4760804,-0.059456777,0.3254607,-0.03668978,0.063196816,-0.28389832,0.28734484,0.5796031,1.4073507,0.09142997,-0.19633915,-0.93976074,-0.16410331,0.07954004,0.025852596,-0.7203826,0.772769,-1.518064,-1.2629993,-0.032688793,-0.58314383,0.018116545,-0.29668298,-0.67424953,-0.22308591,-0.5265845,0.41255096,0.3536372,-0.3645716,0.9883126,-0.3181212,0.8264505,0.6075962,0.0651396,-1.1450183,-0.71195686,0.6932046,0.5575202,0.78102237,-0.99459153,0.37904376,0.61825365,0.31909364,0.9866927,-0.016969595,0.40029335,0.0805514,0.5978126,0.28695828,0.2912622,0.40170857,0.9743711,-0.16450745,-0.7859188,0.5668938,0.67769456,-0.4190948,-0.9640796],[-0.30529594,-0.93501884,0.055490892,-0.9842383,-1.0991637,0.9360005,1.0552739,-0.76008433,-0.57753587,0.69730175,1.0458473,-0.056758,-1.1295246,0.1543209,-0.6466566,-0.47892398,-0.8348366,1.0327984,-0.29837123,-0.083797455,-0.18932232,0.45826548,-0.34035888,0.8312095,-1.167838,-0.83242714,-0.22134511,-0.5115752,0.090100005,-0.76987606,0.5299262,-0.9171796,0.04296705,0.93780667,-0.2272517,0.15499467,0.961518,1.4573016,-0.7701601,1.1716089,1.2748868,0.51163596,0.77415526,-0.77448696,0.3798995,1.1228424,0.69548595,0.977277,1.0721036,-0.4168275,-0.47602445,-0.12077646,0.11745362,0.091530435,-0.58003616,0.06207741,-0.47073323,-0.65966135,-0.63609606,-0.13729466,0.33336273,0.7324023,-0.021861685,-0.45451343,-0.5686874],[0.87036836,0.28273973,0.10693995,-0.6298107,-0.30054894,-0.22000922,0.0698012,0.20954695,-0.1305112,-0.78183484,-0.61086804,-0.7813738,-0.464779,0.2217126,-0.9782678,-0.51314247,0.3680731,-0.68497807,-0.5465286,-0.57717645,0.58808583,0.20762148,-0.5008085,0.56607705,-0.08156499,-0.9298971,-0.36595845,0.40922293,-0.17361297,-0.73320174,0.17022948,-0.67258435,-0.7132465,0.8902296,0.6640301,0.031232696,-0.77880305,-0.868786,-0.6730536,-0.58066684,0.20057522,0.093762375,-0.15355392,0.3823259,0.6687211,0.14512065,0.5505528,0.1374805,-0.7716917,-0.1360638,0.7027879,-0.7862214,-0.5375301,-0.2805505,0.19728534,-0.051354177,0.14774852,-0.06121081,-0.48386604,-0.53597146,0.5729881,-0.15174727,-0.20386972,0.2853933,-0.888723],[0.43006995,-0.3122917,0.7981041,-0.58093214,-0.9217133,0.5010798,0.3595367,-0.8431738,0.3800334,-1.0859017,1.2453997,0.2350312,0.20121755,-0.5374814,-0.2437419,-0.16685808,-0.3060873,0.049746223,0.7230745,0.41908768,0.27036536,0.9863741,-0.6436474,-0.21508385,0.52152735,0.78719765,0.3402028,-0.75493056,-0.5504897,-0.3266854,0.41422006,-0.833704,-0.49791822,-0.8537328,0.07943161,1.0872834,-0.08886861,-0.11254025,0.35874292,-0.4885426,0.422171,0.59039325,0.9175182,-0.92932445,-0.98560154,-0.42865905,0.76304644,-0.41504025,0.3890063,0.5782246,0.5341708,0.12008147,0.06561898,0.31794927,-0.51250964,0.47518107,0.8351711,-0.34256956,-0.37090746,-0.16823417,0.26492122,-0.3103605,0.21245691,-0.87410384,0.38744318],[-0.910987,-0.4594225,-0.8873259,-0.028626498,-0.79332155,0.865447,-0.5900362,0.9631711,0.92821264,-0.44881937,-0.92704934,0.6076868,0.21657088,-0.40066516,0.2180144,0.023623055,0.9759319,-0.7007463,-0.73128295,-0.84221804,-0.3275412,-0.13919106,-0.93703765,-0.013753621,-0.13355531,0.41500118,0.17275362,-0.99506587,0.5847125,-0.7522256,-0.8288328,0.89469033,0.0012654774,-0.4084477,-0.1346158,-0.86829996,-0.20459998,0.44386604,-0.8047248,0.7783321,0.18110801,-0.14346282,-0.81499344,0.3543127,-0.54974836,0.09260342,-0.90104455,0.27309102,-0.14368795,0.4050581,-0.2019389,-0.2814041,0.2804328,-0.32702392,0.60350126,-0.87510985,-0.15146028,0.4944998,-0.33952847,0.069400534,0.9430092,-0.89345056,-0.5343433,-0.6125725,-0.47525874],[1.1831197,-0.13723788,-0.7797306,0.9505282,-0.1844303,-0.8170148,-0.9089942,0.7587776,0.5389236,-0.22124077,-0.55707294,0.48749048,-0.008364069,-1.2261839,0.35816342,-0.38689762,0.079528436,0.537118,0.73272866,-0.85014725,-0.7626006,-0.86755615,-0.6786167,-0.20612937,1.7042449,-0.6691014,-0.6286495,0.1706345,0.08809608,-1.0223793,0.8171629,-0.36586556,1.5332248,-0.18325658,0.44160348,-0.3569664,0.59824914,1.2483307,0.14480685,0.79613835,0.6402466,0.7053437,-0.5126014,-0.22993891,-0.5471061,-0.02225345,0.76297337,0.39133048,0.64659816,-0.115078814,0.2962873,-0.3275809,-0.48643646,-0.95799,-1.3238739,-0.2963686,-0.29277298,0.33241665,-0.2979914,0.31035903,-0.10288613,0.91890264,-1.0005264,1.1969496,0.797127],[0.4210366,-0.23641247,0.7415198,1.1957831,-0.22231466,0.81294477,-0.054033864,-0.4269607,0.23870705,0.4463361,-0.1693854,0.53719234,0.71550024,1.0226847,-0.016008755,-0.1926912,-1.0947322,0.9302361,0.90312994,0.78591436,-0.48334992,-0.6576294,0.13130842,-0.023466313,0.41705135,-0.6518541,-0.09108297,-0.35006478,-0.53808534,-0.30786046,0.60050136,-0.05283573,1.0664169,-0.64777195,0.58965874,-0.89121175,-0.4802946,-0.20837261,-0.3244157,0.1459024,0.4209261,-0.45560953,-0.019016119,-0.7696993,-0.96930987,0.67832285,-0.31279638,-0.9161517,0.037778787,-1.0862274,1.0388852,-0.3923346,0.17789389,-1.028478,-0.359658,0.7145167,0.16110153,0.34996918,0.4021495,0.8706008,-0.45020226,0.94672364,-0.13064387,-0.60067296,0.41022906],[-0.20590319,0.9220398,0.19003755,0.16966853,0.26039797,0.7874154,0.378047,0.93073916,-0.37027022,-0.8402079,-0.12421315,0.8895647,0.5657698,-0.76036614,0.22278395,0.17855705,-0.72974044,0.53447795,0.41523814,0.5773133,0.47357574,0.082755424,-0.4565298,0.32107663,-0.9463732,0.18071584,0.57529575,-0.35615784,0.16869481,0.59569174,0.628919,0.90130883,-0.22948822,0.7925964,-0.027226714,0.2955734,-0.18680671,-0.89131033,0.94375783,0.7818004,0.1460541,-0.7030268,0.0765771,0.8731997,0.9771188,-0.7459966,-0.32251328,0.06312838,0.6628729,0.16613598,-0.30709714,0.047926817,0.48396918,0.62326866,0.82905215,-0.28960073,-0.85195386,-0.11447502,-0.63643485,-0.53039765,-0.8780643,0.22682883,0.31317985,-0.063369386,0.56171805],[-0.8802492,0.18283017,0.62558085,-0.98650396,0.34094846,0.63291943,-0.22448765,-0.24448305,0.8530509,-0.70702934,0.3105505,0.07471542,0.13068528,-0.586904,0.8893047,-0.7849915,-0.87361175,0.43369633,-0.8600903,-0.9284901,-0.0777996,-0.658257,0.1835544,0.60895073,0.5800276,0.44315258,-0.047907107,0.020723138,-0.5942522,0.29880294,0.10133835,-0.76550347,-0.8769146,-0.1413183,0.3265075,-0.77121246,-0.20845349,0.79963386,0.20307572,0.13942789,0.3087042,-0.68572354,-0.4771588,-0.93496203,-0.3518325,-1.0011142,0.15237005,0.19626515,-0.8575665,0.6707124,0.6659222,0.8926267,-0.14338234,-0.41300997,0.547613,-0.31449908,0.09074359,0.59150475,-0.57971215,-0.7280385,-0.12985386,0.2303348,-0.2770224,-0.30775648,-0.28362453],[-0.81520486,-0.54774547,0.5178385,-1.259443,-0.84306264,0.56620973,-0.95359,-0.7167363,-0.50544196,-0.05435134,0.054594968,-1.2516214,0.24396408,-1.0378444,-0.042899314,0.49461898,0.58054286,0.5933895,0.056499183,-1.3308784,0.8377272,-1.128342,-0.53706527,0.20081294,-0.5124607,-0.47824517,0.9723438,-1.3948623,-0.5926758,0.68943316,1.1867859,0.6746096,-0.012994617,0.852227,1.1680735,-0.24383387,0.8923663,-0.09174347,-0.12880878,0.12700295,1.1521363,0.4736218,0.6286183,0.16069897,-0.4653539,1.2336327,0.15697424,-0.9278113,-0.70919657,0.25795433,0.26263872,0.82968765,0.016569097,-0.08292628,-0.9505042,-0.7154368,0.6573288,0.648224,1.5412238,0.7065916,-0.76970077,0.21586782,-0.11884075,-0.15127441,0.61829865],[0.5529231,0.38451117,-0.087729126,0.77967495,-0.7202485,-0.07591534,-0.27171338,-0.6856654,-0.0048852973,0.19249153,0.02532142,-0.17384736,0.4620062,0.1913223,0.041731033,-0.9231653,0.41773796,0.66030926,0.92197907,0.5921854,0.2306073,0.62147033,-0.2515187,0.5548719,0.82555354,-0.7222094,0.60596895,0.17345668,-0.82438433,-0.6635583,0.2302861,-0.032460146,0.36028233,-0.5164359,-0.26180843,-0.6995031,-0.8581342,-0.09945271,0.05625151,-0.7803772,0.5168066,0.9297656,0.8236762,0.6274992,-0.7440533,-0.121471725,0.41570705,0.7819121,-0.090342775,-0.858467,0.8282931,0.7370871,0.9934389,0.40614292,0.5646126,0.14680377,-0.4733156,-0.18810157,0.25443015,0.21742766,-0.17123225,0.8613162,0.7690507,-0.8160042,0.6994295],[-1.2710323,0.90650046,0.16193263,1.1157005,0.011969237,-0.54429525,0.3732858,0.47721934,0.36891407,1.0623125,-0.08023234,-0.078855984,0.10060337,-0.36433586,0.92910683,0.8710894,-0.13070786,0.34831572,0.9507168,0.316636,0.57768065,-0.011193993,-0.39526322,-0.58940965,0.04110873,-0.66487306,0.73538095,-0.04047908,0.8373591,-0.3217865,0.6120191,-0.4757925,-0.7376306,-0.53522575,-0.6680904,-0.7941391,0.0884305,-1.5361983,-0.8962274,-0.15253404,0.077421665,-0.688592,-0.22076073,-0.065294854,0.23124866,0.89605,1.4158491,1.26985,1.1223575,-0.8875188,1.0217278,-0.6247852,0.2873028,-0.41967332,-0.70880073,-0.40007806,1.3952409,-1.2100983,-1.1981804,0.26568267,-0.07840695,0.4205964,-0.058821786,-0.24543194,-0.26187626],[0.37619573,-0.48762664,0.0018501829,-0.53104615,0.7726738,0.37793905,-0.59089464,0.025186956,0.9619301,-0.88178647,0.32187623,-0.7947858,0.7520043,-0.34202963,-0.7218272,0.08986017,1.1913847,0.13693513,-0.4724502,0.3764141,-0.6260757,0.008424532,0.24808979,-0.64999765,1.3827581,-1.0426508,-0.4208948,-0.6879673,-1.0885775,0.14314614,1.5908353,1.7424755,1.0259355,-1.143269,0.4206954,-0.3340754,-1.4215199,0.745484,1.0993726,-0.083881326,-0.6731131,-0.5686322,-0.4713607,0.5794315,0.9436783,1.0754794,-0.46508422,-0.6262642,0.31556493,0.41603863,0.5593293,0.37465224,-1.2112846,-0.7757495,-0.09130535,1.2006924,0.3347256,0.10001742,-0.89911723,-1.2020915,0.930309,0.5370441,-0.22694656,-0.03398985,-0.89655817],[0.6125858,-0.08180148,-0.010970187,-0.48608807,-0.76840866,-0.31098914,0.060012717,-0.12982622,-0.32256103,-0.16867532,-0.97941625,-0.5944264,-0.110743195,0.31437,-0.17746024,-0.9195934,-0.5653055,-0.21259297,0.5614184,-0.87930626,1.0099992,0.7638838,0.46338984,0.53564614,0.049093746,0.24016927,-0.6648104,0.8331403,0.9165097,0.8243677,-0.59863126,0.31351984,-0.7987476,-0.8704686,1.3426183,0.6762077,-0.17684542,-0.53803277,0.8146977,0.3448344,0.012490753,1.1540871,0.4524495,-0.33599743,0.022779461,-0.9916839,0.6307774,-1.1025908,-0.5422864,-0.59354436,0.48602462,0.98381114,1.3820301,-0.2234704,0.6342584,-1.1486876,1.0443137,0.12542713,-0.22862056,-0.28981787,-0.742551,-0.25820884,-0.7032348,-0.08048992,-1.1355206],[1.0974791,0.43314838,-0.29981893,0.16707072,-0.2405829,-0.49361005,-0.23120886,-0.17200789,0.85648406,0.6348982,-0.9734771,0.7054013,-0.9579135,-0.72041094,-0.9654789,-1.0825337,0.22509806,1.1450816,-0.6052096,-0.4745556,0.62151617,0.31355333,-1.3484387,-0.5498772,0.8220425,-0.32334974,-0.79072857,-0.5149027,0.2477064,0.7777738,0.69165534,0.383009,0.7561856,0.19526893,-0.38082978,-1.1551944,1.0514239,0.46434522,-0.57643265,0.066541925,0.71680427,-0.4653424,-0.81153584,0.6474712,1.3929645,0.07890271,1.0571218,0.6857596,-1.0575017,0.8019135,0.6219586,-0.21603814,0.66258085,0.96501297,-0.44618753,0.6330179,-0.9798122,-0.08820948,0.024668342,0.721161,-0.39270112,-0.61112386,-0.6019891,-0.0071306014,0.18953265],[-0.9384454,0.31773883,0.88415045,0.5122566,-0.50166,-0.22615804,-0.46627736,-1.2132763,0.3429684,-1.1494745,0.198476,-1.1562501,0.7533551,0.57632494,-0.30214843,-0.7185655,-0.310396,0.065923035,-0.42050153,-1.1752359,0.19774304,-0.33499444,0.044037018,-0.4481427,-0.040328503,0.5550574,0.91825914,0.3643998,0.97541904,0.9888234,-0.5473503,0.42529097,-0.09208807,-0.18671632,0.38556436,0.92358583,-0.055974774,0.034810606,0.21541037,0.2529932,0.910788,0.9755297,-0.8595206,-0.7377397,0.44818303,-0.040656183,-0.3052033,0.3527915,-0.7613546,-0.49985948,-0.5904188,1.4436854,1.4022572,0.49186406,-0.5183027,-1.1251113,0.18032542,-0.13259518,0.48095354,-0.13581868,0.6544655,-0.38538182,0.24641229,-0.24121365,-0.48748305],[-0.03539097,-0.29012164,-0.34283733,0.52427787,1.0133647,0.3419143,0.59301525,0.83295155,-0.8562139,0.32368058,0.872121,-0.24436812,0.1435932,-0.13240331,0.9435126,0.9997202,0.60664314,-0.84526104,-0.19244702,0.9529975,-0.32582647,0.60965085,0.7598198,-0.036851726,0.11307175,-0.22933042,-0.6009586,-0.52719337,-0.16536537,0.67789245,0.55644953,-0.83385664,-0.34490144,0.121956676,0.33524832,0.1979822,0.6156171,0.8053221,0.22921632,-0.13127781,0.5916583,-0.8730326,-0.4471183,-0.43846682,-1.0923781,-0.8498692,0.011476544,-0.26702106,-0.9405112,0.36153358,-0.9019298,0.77351516,-0.5286744,-0.18252373,0.15688492,0.6549581,0.29052147,0.82492566,-0.40756327,0.4828589,0.32350552,-0.8747243,-0.10434563,-0.7931871,0.20484059],[0.7929289,0.31136805,-0.22671013,-0.22075541,-0.70135516,-0.21678182,-0.5327481,-0.22771987,0.588959,1.066397,-0.08384534,-0.22528473,0.6905396,0.382838,0.89947265,0.112102956,0.4842389,1.2031604,-0.6706866,-0.36117274,1.4181737,0.9300044,0.9028215,0.38980418,0.59443235,-0.6507562,1.0510497,0.8375392,-0.078131996,1.0704205,-1.072496,-0.008996717,0.2264783,-1.1307356,-0.19886743,-1.1615874,0.6556896,-0.2800177,-0.43176618,0.5878729,0.1680821,-0.8514583,0.32369828,-0.26964775,-0.66920036,-1.0568885,0.46799928,0.59021163,1.3981293,-0.103582,-1.5316877,-1.6262866,-1.3794315,-0.87187964,-0.9143391,-0.44742286,0.06045811,-0.049889185,0.8240737,0.11168557,-0.90788805,0.1536784,-0.117496416,0.056306902,-0.71344453],[0.33055595,0.5207279,-0.35333928,-0.47566247,-0.14343224,-0.05113451,-0.03176294,0.9894703,-0.6184794,-0.760491,-1.0480642,-0.39410305,-0.66929376,-0.020707447,0.65791917,0.5974419,0.16882679,0.67886305,-0.7286436,-0.33476883,0.09662082,1.0410833,0.7779057,-0.26922098,0.64360434,-1.0473768,-0.031939115,0.77607113,0.42890608,-0.7817853,-0.75035536,-0.6179657,-0.10529794,-0.6148997,0.7631626,-0.03853909,0.8691019,0.30102912,-0.70725566,-0.8025266,-0.07002723,0.481209,0.8289888,0.9876881,-0.68674296,-0.9096036,0.34478697,-0.19291842,-0.61232466,-0.30432904,0.6961443,-0.54283434,-0.117694505,-1.0175422,0.19884472,0.14734888,1.1262008,-0.018329699,0.842644,0.13462558,-0.83369327,0.36590487,-0.53878313,-0.24878322,-1.0291294],[0.684863,-0.9638298,-0.95165825,0.2920086,0.04154969,0.16939223,0.90779287,0.3668816,0.11148832,0.38085565,-0.50792277,-0.36819962,-0.6201912,0.7843912,0.257188,-0.055589534,-0.5959579,-0.39780694,1.0659876,0.22445479,0.11240991,-0.4422847,-0.5312375,-0.032710623,0.7258992,0.9109952,0.041637316,0.6031899,-0.7486436,0.22317955,-0.8519005,-0.86929667,-0.4499811,-0.10701478,-0.5237595,0.298733,0.9882143,0.6807537,-0.5111248,0.08513642,0.22535293,0.32947695,-0.6251029,0.5121383,0.28423753,0.03733687,-0.45451942,0.73242533,-0.9892447,-0.39079592,0.2794215,-0.22439435,-0.29541078,0.99173903,0.95702183,-0.1688784,0.9008753,0.7104885,-0.5874804,-0.45470265,0.73575145,-0.061007153,0.045559008,0.69468105,-0.6859488],[-0.12190186,0.9781062,0.9098328,0.005103581,0.6305711,-0.86825204,0.6158142,-0.97721773,-0.5177995,-0.36016384,0.51643604,0.17547534,0.2994931,0.122255,-0.3417713,0.7750966,-0.45695388,0.563771,-0.7820397,0.67766804,-0.7484796,-0.92307085,0.6187327,0.30316603,-0.76932555,-0.100142285,0.028471235,0.92581797,0.9725458,0.33750185,0.068599716,-0.6889966,-0.10714018,0.1268054,0.42983714,0.7873628,0.46642402,-0.3898229,-0.8817954,-0.77302516,0.90656745,-0.8630186,0.2647178,0.17624511,-0.12484148,-0.16229671,0.56002945,0.9217599,-0.1765947,0.5630588,0.78688,0.56105375,0.08878179,0.08176961,0.3573014,0.8718952,-0.8629087,0.41155216,-0.8024258,-0.9239369,0.61873263,0.75271076,-0.8655189,0.06101046,0.5310049],[0.6865841,-0.8245797,-0.409968,-1.1833564,0.036349375,-0.1688499,-1.1179819,-0.4351582,0.83998317,-1.0591081,0.7854364,-0.39365053,-1.0226432,0.07538855,0.21580046,-0.839408,0.72121805,-0.42984617,0.96488386,0.108319536,-0.034106348,-0.1952017,0.10489279,-0.50587684,-0.6481555,-0.97309417,0.5740031,0.120354086,0.32959417,-0.32097727,-0.32566133,1.1427025,0.7952036,-0.28324398,0.486258,1.1765306,-0.9006101,0.09670361,0.64283735,-0.24138014,0.6249776,-0.92910427,-0.49766177,-0.020054646,0.294116,-0.8677637,-0.5734837,0.17006564,-0.8330255,0.010978209,-0.81640196,-0.8922341,-0.4451561,1.0105145,0.85557365,0.81583995,0.04145803,0.23440084,0.54585344,-0.9846014,0.53845114,0.37326536,0.46834502,0.4885386,0.57875395],[-0.5450755,0.16185872,0.4550397,0.5185093,0.42855665,-0.8182425,0.36446095,0.79832715,1.5757138,-0.4192071,0.3716,0.6454371,0.64535254,0.42437077,0.67764884,-0.6779567,0.7481157,-0.9840802,-0.8711333,-0.9911896,-0.63841695,-0.4686941,0.13444452,-0.36020502,-0.9255313,-0.5109704,-1.1649556,-1.0441388,0.5702985,1.1108481,0.33040866,-0.09641535,-0.04937497,0.10195653,-0.00753794,-0.76449007,0.093361855,0.69434613,0.2670147,0.30729935,-0.064781636,-0.30765533,-0.16431941,0.16274767,-0.7594917,0.7503771,1.1542424,0.6570551,-0.38503334,-0.92033404,-0.54969734,0.62166977,-0.989802,-0.4149574,0.08653427,-0.6933679,-0.9143654,-0.8943175,0.73000324,-0.7625612,0.5090891,-0.024551991,-0.19242379,0.5684864,0.5614512],[-0.073935784,-1.087018,0.4905278,-0.2577786,-0.8182152,0.10751413,-0.27514675,-1.0545439,-0.81556517,-0.64112216,0.32735726,-0.00020757648,-1.2271717,0.78411365,0.15785135,-0.0068788566,-0.14477538,-1.0959744,1.4532205,1.1943768,-0.013416036,-0.097688794,1.019908,0.5941201,0.8188093,-0.22814862,-1.1988473,-0.41410953,-0.044284012,-0.044207823,-1.2458091,-0.5578202,-1.2026737,0.55230314,-0.40686038,-0.14738634,-0.12687777,0.8471359,-0.20819467,-0.14728026,0.008185777,1.0169638,-0.77451164,0.39730325,0.23330897,0.6605258,0.12743224,0.5199774,0.9266908,0.15108742,-0.8846762,-0.342415,-0.030549387,-0.7336701,0.9322746,-0.84795666,1.2577801,1.3176007,0.84660035,0.8723015,1.2556498,0.16967215,0.4524797,1.3363109,-0.19270355],[0.912354,0.02912939,0.13522843,0.289434,0.53484255,0.8901372,0.26161903,-0.81271064,0.6500958,-0.8093416,0.03560944,-0.7271231,-0.96711385,0.39479598,-0.06174449,-0.22107719,0.29662153,-0.24490163,0.602549,-0.17767736,0.8141111,-0.2690953,0.72518665,0.094169244,0.6119633,0.12922905,0.03458909,0.84929687,-0.23614493,0.5486863,0.22321537,-0.6343059,0.17086238,0.7771783,0.9891194,0.7624829,0.74791235,-0.9319821,-0.97659147,-1.0017958,0.017238954,-0.13637783,-0.9150647,0.27668726,0.1740982,0.57408154,-0.18873851,0.4925105,-0.3901178,-0.79960805,0.59034747,-0.32870182,0.8600252,0.2358188,0.1981565,-0.9917486,-0.7273921,0.6787294,0.6022333,-0.8020484,0.28713006,0.89981633,-0.49064106,0.3527003,-0.060070146],[0.4416076,-0.62546575,-0.23246153,0.91109073,0.17068292,-0.3639264,0.29259372,0.94781744,0.9669496,-0.42008284,0.13792259,-0.4320801,-0.88030785,-0.65590996,0.71867734,-0.9526535,-0.6286665,-0.5695285,-0.24382772,0.8460656,1.0323427,-0.04375214,-0.7933747,-0.43405584,0.34898725,-0.6226943,-0.32914847,0.9477822,0.15138192,-0.70785046,-0.2948807,0.30432805,0.16130742,0.017215801,0.9219137,0.70196694,0.56761646,-0.049366735,-0.5775469,0.43338305,-0.53465354,-0.44802135,0.047442727,0.86407727,0.822156,0.6578823,0.336205,0.5612299,0.87724155,0.9395522,0.0811058,-0.15391022,0.62040603,0.8993889,0.20148276,-0.39787245,-0.45755148,0.43660203,-0.9769332,0.051878933,-0.28212944,-0.5647962,-0.14927265,0.48675522,0.41036123],[-0.14939271,-0.47949213,-0.55284715,0.035809144,0.9936402,0.0350198,-0.580691,-0.54829377,0.71157926,-0.34594783,-1.0434902,0.8809661,0.5176808,0.7301566,-0.47385174,-0.45299765,0.89720356,0.253898,0.9166449,0.51063925,-0.9340438,-0.08389275,0.2780414,-0.32999948,0.11419244,-0.7217763,-0.89426076,-1.0324298,-0.049854558,-0.31555426,-0.70691293,0.17385744,-0.95355237,-0.82038915,0.034448124,-0.010202032,-0.05674192,0.32085398,0.23707636,0.30176565,-0.18584144,-0.4459844,-0.53599757,0.31713158,0.77812135,-0.62868935,0.61763495,-0.4129731,-0.41479564,0.83384544,0.98091,-0.7301057,-0.3556423,-0.71752304,0.1546849,-0.5233241,0.34199765,0.01275919,0.45268142,0.50567394,0.17905016,-0.30636013,-0.4955496,0.13985237,0.9115692],[-0.15066777,0.69292253,0.8743705,-0.86557776,1.22694,1.0189551,0.73725456,-0.86109287,0.5295558,0.89294875,0.19959016,-0.9490189,0.72447985,-0.49917054,-1.1510364,0.10348165,-1.211286,1.461027,-0.34861496,0.36767882,-0.6730504,-0.92805994,0.74607986,-0.26690322,-0.87127674,0.37408638,1.0640522,1.270155,-0.510683,-0.25044805,1.6471909,0.4692968,-0.56116784,0.89371485,0.015559042,-0.07905115,-0.5458117,-1.0005395,0.3242046,-0.6245745,0.26029155,-0.9641323,-0.8959178,-0.07234567,0.022506498,0.6892046,-0.45165184,0.8801517,-0.47976995,-0.34228948,-1.4975139,-0.68441653,-1.0137265,-1.2039407,-1.4152133,-0.28702316,0.05616096,1.2905092,-0.086828746,0.5497563,0.49595368,-0.95438045,-0.2368458,-0.30686215,0.07739897],[-0.7852574,0.5784134,0.7079973,0.7444523,0.9144953,0.28024492,0.6793998,-0.04014239,0.91488427,-0.31778517,-0.04578616,-0.30400068,0.9294999,-0.44058594,0.8787158,-0.29818648,0.55682653,0.47176552,-0.065297574,-0.65151834,0.44603616,0.8554378,-0.5462526,0.4204396,0.1975325,-0.48837855,0.4574966,0.8567284,-0.6437564,-0.2939815,0.9564033,0.7541206,-0.5037084,-0.4621668,0.57334125,-1.0075386,-0.41358203,0.3524716,-0.47053814,0.07974428,0.7000103,-0.18100843,-0.78466123,0.024532301,-0.94714093,0.69411314,0.1770258,-0.7235854,0.7804915,0.15240227,-0.83157545,-0.18403924,0.0063370117,-0.13342194,0.9647049,-0.15728721,0.77674294,-0.8189617,0.9525684,0.4619922,-0.36997488,-0.71416014,-0.03825932,0.93019336,-0.08214677],[-0.06450919,-0.45097288,0.28388783,-0.24726725,0.8726076,0.77425337,0.57160985,0.79877335,-0.17760123,0.641372,-1.016007,-0.61676913,-0.7581817,0.45016888,0.19508368,0.6568915,-0.071623094,0.8731225,-0.30416453,-0.77437025,0.84355533,0.8554945,0.7215542,0.14306633,0.5215203,-0.14261456,0.30615374,0.7457168,-0.7798654,-0.21942759,0.01858511,0.39249477,0.9485705,0.777414,-0.6137731,0.9279576,-0.5322012,0.4951049,-0.5601666,-0.7730399,-0.88907355,-0.40702057,0.3424765,-0.22335218,-0.6846514,0.092562824,0.7022723,0.6218522,0.19352417,-0.90731037,-0.7098434,0.7935318,-0.8975322,0.7472217,0.43313906,0.8371738,-0.10662035,-0.7860548,0.33553788,-0.30157873,-0.026365215,0.053835563,0.90435004,0.6196611,1.005175],[-0.75123215,0.15706378,-0.19107832,-0.0650525,0.48796165,-0.15248533,0.46272507,0.82132643,0.7858951,-0.84339887,0.30907422,0.017581793,-0.6556097,0.8495501,-0.28129968,-0.8119844,-0.14792329,-0.14943533,-0.36457604,-0.6111821,-0.99120194,0.09195272,0.4986024,-0.9180506,0.5524948,-0.63175017,-0.98238844,-0.6722887,-0.49754265,-0.4776577,-0.806335,0.9293278,0.8607608,-0.15739964,-0.65315056,-0.9531785,0.89498025,0.61189234,-0.7260429,0.6651645,-0.55128634,-0.47624594,0.5373011,-0.50829273,-0.72989464,-0.8478722,-0.84108925,0.1657298,-0.36151096,-0.2667533,0.0077167517,0.0996899,-0.6033929,-0.8180868,0.5781378,0.3211373,-0.60862505,-0.39988232,0.26551217,-0.70328987,-0.6221372,-0.24691463,-0.7296775,-0.11940331,-0.36438206],[-0.015347406,0.28908932,-0.79780424,-1.236839,-0.9009985,0.26354802,1.095022,-0.75763017,-0.5588747,-0.6234344,-1.138381,-0.7311571,-0.69082004,0.15278052,0.443883,-0.35308972,0.57221437,0.4907792,-0.40236452,-1.012911,0.38705018,1.3830827,0.48262778,0.18349355,0.4526733,-1.014406,0.29646626,-0.9488892,-0.51022476,0.83555186,0.76244795,-0.6635564,-1.016793,-0.41428983,0.6069048,-0.098632865,0.81979275,1.1806375,0.38856798,0.5404515,-0.20971404,-0.3756129,-1.1908802,-0.16675626,-0.010520915,0.8332053,0.26105237,0.9889566,0.27451086,0.10176446,-0.54110026,-0.08653343,-0.38429782,1.1502472,-0.084399976,0.3992461,0.62474334,-0.8039241,-0.96436393,-0.70968086,-0.17767917,-0.7261698,0.73972815,0.85506815,0.89917386],[0.517134,-0.7434675,0.8588753,-0.17197329,-0.18943278,0.9009065,0.14139746,1.0131856,-0.10845847,-0.44808155,-0.24494094,0.62142414,0.8489824,-0.2525316,0.062655896,-0.7558014,0.051654287,-0.552608,-0.6222246,0.27447337,-0.3930036,0.92962795,-0.54923826,-0.22298369,0.37355652,0.59142745,0.4983872,0.060539424,0.40257207,-0.11993924,-0.12566991,-0.70518476,0.9111638,0.4193273,-0.33696914,-0.14196794,-0.49808162,0.8839883,0.3217251,1.0656573,-0.18205291,-0.8340394,-0.51504374,0.09385666,-0.85988045,-0.0655969,-0.28163862,0.13280872,0.66512674,0.8276789,-0.2426563,-0.095416844,-0.16066235,-0.6995661,-0.34454268,-0.5065028,0.6083843,-0.038850676,0.65129095,0.8153389,-0.07462404,-0.19519962,0.571666,-0.5382522,0.49348292],[-0.51689535,0.83078104,0.8478278,-0.6053448,0.91014385,-0.21556656,0.84884304,0.26440844,-0.50161755,-0.90051985,0.25626448,-0.6207654,0.04480401,-0.67716914,0.67714405,0.0917687,-0.66639245,-0.10465179,1.0013322,0.1216898,0.67448646,0.2968101,-0.27679175,-0.56380624,0.09185159,0.8537406,0.35056314,0.736257,0.42133975,-0.4777017,0.7608669,0.66259277,-0.57741195,0.4138638,-0.81822836,0.3200499,-0.51106215,1.086334,-0.7600117,-0.38308638,-1.6603645,0.04396159,-0.54205924,-0.010571812,0.1105035,0.8424676,-0.7836165,1.019973,-1.3601291,1.2939899,0.8823605,0.84237593,0.13016832,0.87047815,-0.15292339,-0.6243723,0.49124232,0.65179646,-1.1077374,-0.41453862,-0.92906475,-0.8313718,-0.056313682,-0.02536949,-0.33931813],[0.9759954,-0.6198068,-0.08127352,-0.44961518,0.44090328,0.49746528,0.33309367,-0.52952886,-0.58267653,0.7116961,0.6049995,-0.8488931,0.77873904,0.6942615,-0.8884396,-0.12989704,-0.78124857,-0.40256795,-0.36329964,-0.07751172,-0.38816863,0.17730683,-0.81180906,-0.87296903,-0.3667849,-0.15141004,0.0072943373,-0.59148085,-0.87643284,0.789484,-0.2764979,-0.21086605,0.30014807,-0.53455657,-0.5647414,-0.08869883,0.37117442,0.29579824,-0.002169122,0.028233621,0.4454159,-0.2021579,0.35044378,0.23087534,0.38634107,0.5953206,-0.2257629,-0.047784906,-0.20475923,0.057225805,-0.21543936,0.4236167,0.74040484,0.578991,0.11615276,-0.694612,0.31987268,-0.36208948,0.009121752,-0.53058904,-0.78440773,-0.43680063,-0.29599884,-0.78687024,-0.0350127],[0.68109655,-0.8113514,0.5350403,0.45855552,-0.4999509,0.8773354,0.5414876,0.89824533,0.48584104,-0.16027378,0.26939538,0.7479068,-0.050751083,-0.6089816,0.81336564,-0.34317982,-0.26043454,0.40482602,0.086076595,0.4387839,0.100287914,-0.56916195,-0.2667146,0.89192015,-0.44195127,0.5926505,0.5008944,-0.5795898,0.26611578,0.80739194,-0.29809955,-0.3769261,-0.047532223,0.15159431,-0.8649305,0.6061257,0.82434464,-0.74063355,-0.37052473,-0.29095012,0.93880534,0.75389177,0.31261745,-0.18281256,0.5348985,0.15193538,-0.7249018,-0.32881048,0.2062984,0.5426693,0.53755826,0.31496474,-0.5385322,0.03873705,0.35789847,1.0064102,-0.88070226,0.7101456,-0.9865962,-0.09294944,-0.8511007,0.73801905,0.0011190135,-0.48496586,0.8503316],[-0.44412744,-0.3967489,-0.1778102,0.68268657,-1.2488574,-0.8859872,0.5345984,-0.9982219,0.25265312,0.59558725,0.022859491,-0.32605755,1.3826303,1.0208569,-0.57208604,0.33118075,1.0007025,0.35898387,0.88773286,0.01077711,-0.32905316,0.31037006,-1.1095924,-0.50565934,-0.64713126,0.72192365,-0.9164041,0.42428374,0.6050794,0.118816115,0.8130328,0.76849174,1.3899139,0.91316646,-0.08568265,-0.14379042,0.26734197,1.2921455,0.17666213,-0.16064873,-0.98555875,-0.11737118,-0.046655588,-1.061799,-0.5100733,0.26087373,-0.79578596,0.47579738,0.08340461,-0.60021853,0.027078172,0.30990076,0.5662095,0.24296796,-1.1127228,0.514251,-0.05062725,0.85605454,0.0746175,-0.37954,0.26583165,-0.36436543,-0.8013334,-1.3415296,-0.8597221],[1.2252426,-0.9900356,-1.1014454,-0.2853285,0.22845724,0.48607656,-0.47003624,-0.16056006,-0.5641622,-0.6973097,-0.28175282,-0.23521626,0.8134075,-0.04834687,0.5274916,-0.40061414,0.118177645,-0.87777025,-0.6845756,0.13463707,0.85303116,-0.55409694,-0.364406,-0.9492736,0.64403605,-0.93608516,-0.406745,0.69236887,0.23703705,0.6993646,-0.78311896,0.6700161,-0.8561024,-0.84533566,0.6453288,0.5684137,-0.59503084,-0.018040428,-0.45577824,0.8459701,0.011354498,-0.37956455,0.92052,-0.32347617,0.11079504,-0.032246847,-1.0359275,-0.25788853,-0.87064606,-0.7568509,-0.269899,0.36934856,-0.14987367,-0.38520354,-0.53540146,0.59779686,0.06049616,0.74101436,0.18374391,-0.9266584,0.9526553,-0.076371334,1.0592977,0.07968631,-0.76271766],[-0.4383937,0.27031058,1.0393347,1.0788205,-0.57441485,-0.06430388,0.8392012,0.0011800145,-0.5624555,-0.99942744,0.4613475,0.69179827,-0.5509057,-0.26983535,0.6719731,1.1499293,0.15543886,-0.28965586,-0.7525683,-0.4226788,-0.9018663,-0.41512787,-0.654997,0.42043006,-1.1039058,0.67242235,-0.26149148,0.2739072,-0.919914,0.33057335,-0.4832074,-0.4989446,0.611642,0.29889718,-0.71564674,0.73612005,-0.6180597,-0.47909987,0.18359724,-0.92835045,0.84644765,0.44252723,1.0659611,0.08890906,0.69442594,0.3970925,0.55223346,-0.47154272,-0.6394934,0.9233977,-1.0723616,-0.638479,-0.9952793,-0.42741182,0.02359969,-0.056093387,-0.31833014,0.70861745,-0.957608,0.62249875,0.10090908,0.7757183,-0.10102722,0.23947719,-1.0786432],[-0.8426258,0.4779584,-0.90009904,-0.36981517,0.47328413,0.047165807,-0.8771993,0.8607956,-0.65987754,-0.39440295,-0.27589047,0.13176835,0.6419092,-0.8227241,-0.36518767,-0.13229093,0.10429235,0.015847007,-0.72923326,-0.7225221,0.8218919,-0.28357938,0.11953527,0.31302503,-0.9734398,-0.31581402,0.4321562,0.47678077,0.43805942,-1.070058,-0.84774286,0.16521549,0.7970822,0.6986536,-0.6767651,0.14217207,-0.49752185,-0.45654672,-0.27820516,-0.15485528,0.094090015,0.7178437,0.36900967,-0.021031305,0.7417887,0.7774912,0.08833516,0.23525824,0.45249256,-0.51216704,-0.80621463,-0.97114503,0.03534067,0.50315785,0.87319636,-0.5225264,-0.6664553,0.17477973,-1.0042812,0.66578746,-0.10797913,0.6734936,0.19932093,-0.19442475,-0.15839222],[0.9356778,-0.8403384,0.34279,0.620927,-0.16494177,0.4183173,0.3369505,-0.53642356,0.60418385,0.7740312,-0.36358666,-0.4234385,0.63525605,-0.49438384,-0.546137,-0.8344083,0.70911807,-0.44548926,-0.0004061846,-0.7604949,-0.9334148,-0.13804659,-0.51361746,0.11554757,0.4288881,-0.631549,-0.69960207,-0.62688375,-0.22036149,0.4420027,0.3813211,-0.25005284,-0.18195212,0.8341489,0.7988447,0.96304464,-0.0883919,0.50508344,0.81820047,0.59724855,0.51508677,0.024563804,-0.3275959,0.27963546,-0.6167994,-0.060755953,-0.93870085,0.6349192,0.30135944,0.53539616,0.53697515,0.32577118,0.03932423,-0.6896262,0.8150619,1.0094037,0.57531,0.053694673,-0.65471816,0.80961937,0.3086061,0.27568305,-0.46013424,0.831788,0.012286937],[1.195447,1.0849141,0.99985766,-0.45892683,-1.0906475,-0.33691335,-0.6722763,-0.6555357,0.07883145,-0.7216438,0.8466224,-1.1775006,0.6572833,-0.6416302,0.43503454,-0.36970925,0.6957577,0.13733299,-0.69507736,0.42657387,0.3428798,-0.10016282,0.3828274,-0.18570134,0.26660928,0.51233804,0.1727705,-0.8827405,-0.3880902,-0.14138001,-0.5151231,0.67808235,0.6318076,0.07657949,-0.5243282,0.5223044,-0.6171913,-0.597077,0.8625384,-1.0609986,-1.0687642,0.5374523,0.57217693,0.5005557,-0.28573877,-0.661655,-1.067144,0.24355051,0.58552873,0.5427784,0.13882308,0.12090406,-0.15322568,-0.4125099,-0.90327144,-0.2589766,-0.09933836,-0.15579262,0.11267627,-0.018522602,0.72874254,-1.1404929,-0.64410245,-0.031589117,-0.2576821],[-0.5728621,-0.1329267,0.5996074,-0.06603237,0.6882025,1.0353091,-0.8310128,-0.38743085,0.5134013,0.40154406,0.18574773,0.6147016,0.52367634,0.23238066,-0.8285303,0.27386093,-0.5667589,0.8285165,-0.8271659,0.6797078,-0.1973939,0.09801073,-0.25488043,0.7513499,1.1330781,-0.7079762,-0.28346568,0.053291425,1.0151658,-0.3538299,0.31287014,0.7389773,-0.7806913,0.9579778,0.78394866,-0.43708712,0.30656153,-0.8833506,0.2349683,0.0836142,-0.5043946,0.1346871,-0.8091004,0.8814697,0.16597596,0.7429542,0.41004956,-0.06635103,-0.13228482,0.31510186,0.35080695,-0.48433745,0.69950217,1.0375919,0.34683838,0.46222723,-0.5084586,-0.5393781,0.04464686,0.73889637,0.19826744,0.7895589,-0.5953805,-0.27301714,-0.31815752],[0.46085376,-0.033309918,0.24551491,0.5548805,0.8281378,-0.5691587,-0.40763736,-0.8737202,0.95664656,-0.7583906,0.6090103,-1.0567714,-0.20013288,-1.0553765,-0.08621463,0.040623657,0.8457606,-0.4793289,0.4769666,0.82236797,-0.13553496,-0.89853907,0.12010268,0.68880874,-0.09477055,-0.32182467,-1.0035818,-0.35735416,0.31255504,-0.849218,-0.38974246,-0.7178838,-0.33928,0.8710635,-0.7335841,0.64737713,-0.9304932,-0.6393294,-0.4119508,-0.7666604,-0.35707897,-0.47751164,0.44209284,0.8156196,-0.9180958,-0.631056,-0.011866269,1.1759698,-0.19522694,-0.11639711,-0.18527739,-0.94964164,-0.58210963,0.32361892,0.7270131,0.62663007,0.14983147,0.16050981,0.30563396,-0.36848792,-0.41242474,0.94528097,0.5759202,-0.23304048,-0.64971226],[0.5405857,0.7424624,-0.82719964,-0.21801054,0.5654292,-0.38256198,-0.78525245,-0.4080186,0.9357499,0.08069137,-0.62948734,0.13600934,0.6495378,0.841751,-0.8923393,0.73683685,1.0483748,-0.52880347,0.29502687,0.50517815,-0.22492848,0.010493628,-0.120999545,0.8595724,0.68683845,0.21858709,-0.04362539,0.31217575,-0.7979484,0.92397267,0.39088106,-0.7548362,-0.8457984,0.83416116,0.98619026,-0.27023026,-0.66202134,-0.51060224,0.14135304,-0.18998608,0.7590681,-0.0792494,-0.6522374,0.85563904,1.0338492,-0.4613886,-0.7078924,-0.029559601,-0.07233698,-0.35355768,-0.037355967,0.3672944,0.19323198,-0.12950107,0.43795496,-0.74672854,0.7540586,-0.053323023,0.28033513,-0.8069396,0.31869242,0.5335832,0.6907893,-0.32404685,0.90214455],[0.11266341,0.5187486,0.7502239,0.0127743855,-0.9119646,0.76012814,-0.45448196,0.5527531,0.8850535,0.9712435,-0.33132166,0.6798289,0.24733508,0.75420123,-0.65007454,-0.81432366,0.92910534,0.85195076,0.6348024,-0.33353424,0.7275208,-0.37193036,0.35870153,0.40995973,-0.096521445,-0.85853004,0.11849398,0.6400595,-0.7920135,-0.066755466,0.4138984,0.6380075,0.41687566,0.3349881,0.27310377,-0.78517526,-0.36092794,0.76292384,-0.52729166,-0.41981798,1.0052116,-0.13721453,0.30698085,-0.43091884,0.467428,0.84506917,-0.12879269,0.4015927,-0.9044821,0.92626256,-0.762383,-0.17823093,-0.68292105,-0.48083255,0.13341032,-0.8327545,0.9162561,-0.61713666,0.42235327,-0.39476135,0.16296488,-0.5326307,0.6786864,-0.3841214,-0.39463916],[-0.7276161,0.0021877163,-0.68047017,0.41047895,-0.29812294,-0.9191839,-0.9294332,-0.5000876,-0.70365673,0.40646285,-0.65278935,0.051930103,0.46895087,-0.08866358,-1.0408009,-0.9094757,-0.36987108,0.72462565,-0.69280875,-0.3832921,0.3998999,-1.1424855,-0.21161735,0.6099693,0.83813536,0.6059464,-0.18255499,-0.3493508,0.088509314,-0.05665627,-1.0174104,0.21793063,0.21569943,0.58859223,-0.48878053,0.90366864,0.3523778,0.35593718,0.58210856,-0.69690084,-0.6671238,1.0367514,-0.02856256,0.4011588,-0.07933528,0.3562783,-0.013449922,0.4801381,-0.11210872,-0.37848616,-0.5086944,-0.3023042,-0.12767577,-0.04099707,0.9414125,0.5117997,0.031797845,0.25026384,-0.8568953,0.47612408,-0.7019989,0.5407286,0.25277406,0.72027826,-0.42239416],[1.0639902,0.049436145,0.4540471,-0.32064006,-0.69468486,-0.5390462,-0.4545099,-0.4007573,0.6233489,-0.3266456,-0.29974028,-0.72711885,-0.075494714,-0.45406663,-0.63558626,-0.045306217,-0.47927308,0.016134812,0.05406938,0.00745415,0.59000856,-0.89175606,0.2729364,0.32745063,0.4492818,-0.3135891,-0.85420567,0.5547516,0.18343958,-0.03726061,0.087870106,-0.8753208,0.121544935,-0.013655273,-0.2767444,-0.33292937,0.07422963,0.5747918,-0.91680354,-0.6017683,-0.4829984,0.36069137,0.9050288,0.36414355,0.5453857,0.79545027,0.15803209,-0.6784607,-0.81786513,0.555966,0.41789514,0.09666796,-0.7500538,-0.23205641,-0.6309782,-0.57595575,0.07799684,-0.27785516,-0.8558853,0.63131607,0.85955524,-0.88746953,-0.30159384,-0.5810615,0.11175732],[-0.69495004,0.60515356,-0.8481205,0.4302367,0.18136759,0.80651695,0.6366301,1.0672349,-0.5058455,-0.26383492,-0.72266835,-0.24760275,-0.47515553,0.28569183,0.03202888,1.0560411,0.67554826,0.124483265,1.2126437,1.0195749,0.5415928,-0.52459675,0.27888817,-0.760729,0.15129021,-0.62977767,1.1531467,0.5686566,-0.22737254,-0.27762383,-0.16377185,-0.5664185,-0.15153185,0.40355757,0.30495852,-0.6910175,-0.7364256,0.33081645,-0.8969841,-0.12250511,-0.97290903,-0.73552847,0.73970604,0.953319,-0.39964518,0.9107924,0.6411109,-0.2700226,-0.27183962,0.4803199,0.77039486,-0.017762128,0.000007654117,1.0879798,-0.28242204,0.027498579,-0.12797758,-1.2359973,-0.61087996,0.7751913,-0.26843834,0.22706673,-0.53167105,-0.66991425,0.44745106],[0.020066647,-1.0899688,-1.2311126,-0.31913903,0.5393148,0.2843063,0.8769854,0.08074226,0.9833907,-0.3422357,0.577642,0.46799454,0.5862398,0.7898916,-0.37379023,-0.7866987,-0.49961597,1.2131183,0.21719792,0.37442067,0.40395486,-0.18910772,-0.0701154,0.6757072,0.80540025,-0.9524081,-0.6979673,-0.65322816,0.6008988,0.5396424,-1.048245,-0.3024851,-1.0666708,0.09219188,1.0004016,-0.332957,0.58986664,0.3070395,-0.5204286,-0.22869225,0.52777714,-0.8249901,0.18763626,-0.118569404,-0.73528844,-0.31947467,-0.62766576,-0.9564544,0.75921,-0.11708337,-0.54443794,-0.9384424,-0.31122187,0.8222663,1.650059,0.31283012,1.0141736,0.46749792,-0.30706188,-0.26505992,-0.81813526,-0.7748653,0.8592275,1.0258728,-0.008335066],[-0.4583829,-0.1270682,-0.73103845,0.22374097,-0.7763863,-0.6168637,-1.0797669,0.73599035,0.9928695,-0.55639726,-0.35392433,0.6294322,-0.701737,-0.014020265,0.46847242,0.6505754,-0.8940719,-1.0022244,0.21241634,0.47962874,-1.1896594,0.44838193,0.57029957,0.89185846,0.97664714,-0.23419179,0.44362113,-0.16299585,0.19478081,-0.11826684,-0.6335271,0.044120587,1.1350392,0.109364845,0.27278674,-0.17771542,0.05037111,0.3813322,0.17105919,0.44392133,-0.61076576,1.0030358,0.037105285,0.468451,-0.7012914,0.8084934,-0.01327925,-0.6648538,-0.56112784,0.45349708,-0.18730892,0.36626127,0.45527062,-0.91213757,1.0009848,-0.6942369,-0.60147905,-0.80441654,-0.3852566,0.613451,0.11963676,-0.59224844,0.0930267,-0.6766887,-1.0550414],[-0.26674166,0.3816131,0.4141252,-0.45317873,-0.6845417,0.7316963,-0.94863534,1.0755211,0.69343203,0.10676597,0.7520949,0.11307846,0.57030493,-0.76332605,-0.22641037,0.56845546,-0.35500553,-0.60525113,0.31856617,-0.41056958,0.27870625,-0.901938,-0.90785885,-0.48276344,-0.2183403,-0.6681681,-0.6596943,0.78507966,-0.93526703,0.147173,-0.3183546,-0.7030249,0.7189856,-0.94779694,-0.904305,-0.3184818,-0.79078054,0.9570395,-0.71274024,0.118616186,-0.25588346,0.20922881,0.8756737,0.029020824,-1.0209422,0.7303299,-0.08352167,-0.60110295,0.95816135,-0.21594505,0.39224377,0.32809737,0.29884002,0.15388283,-0.5911771,-0.6455335,0.19266601,0.39689785,-0.2810984,0.42803276,-0.822721,-0.26353112,-0.9484742,0.30855307,-1.0065503],[-0.6060673,0.057989858,0.36178294,0.16422984,0.28275368,0.41392744,-0.80148625,-0.46727532,-0.5822659,0.6970552,-0.90540767,0.20059568,0.7903933,0.5715705,-0.35447526,-0.8691226,-0.68047345,-0.92742074,-0.08437102,-0.85386443,0.39943904,-0.44033086,-0.6894233,0.69955397,-0.50569785,-0.8163405,-0.97694033,0.3946055,0.2776923,-0.6333966,0.29245338,-0.90450597,-0.043170046,-0.1548179,0.40898222,-0.7085388,-0.36256692,0.18526866,-0.94181585,0.34610066,-0.88615185,-0.57290727,0.39440462,0.5719661,0.39666906,0.0074669877,0.94531053,-0.010505712,0.09050531,0.5828333,0.48950896,0.10705219,0.7728475,-0.56754535,0.8218093,1.004552,0.974029,0.2747699,-0.41840035,0.17334868,0.48908198,-0.60316795,0.629865,-0.6183036,0.042079486],[0.92953783,-0.6971486,-0.4742365,-0.3542775,0.18877909,-0.24092744,-0.63222325,0.5575679,-0.92810065,-0.4297419,-0.28677943,-0.24535297,1.007485,1.0215894,0.030077148,0.58396417,0.0041940645,-0.6872612,0.20959581,-0.3667508,-0.85851884,0.6275932,0.83486533,-0.1483287,0.5745224,1.136296,-0.21625942,-1.1566541,0.04627711,-0.6124177,-0.002712013,0.860073,-0.28135416,0.03170388,-0.21813671,0.6097283,0.190575,1.2370313,-0.37881246,0.66049194,0.52963716,0.20365581,-0.4823662,0.40798527,-0.94845635,-0.08514358,-0.952504,0.11530709,-0.4222506,-0.21752325,-1.0467101,0.18117583,-1.2546107,0.8023827,0.6564833,0.15917113,0.66164577,-0.8767105,-1.0672712,-0.2625984,-0.83477706,-0.10382322,0.93213576,-0.903117,-0.45428613],[-0.7966282,-0.058841705,-0.47210026,0.21135041,-0.2918635,0.63885975,-0.8539021,0.037739858,-0.9712753,0.7889791,0.4001958,0.38050565,0.566135,0.8390622,-0.037780426,-0.2938062,0.34610897,-0.8034535,-1.0175387,-0.4682847,0.38404492,0.24669255,0.16617335,-0.3355508,0.6297949,-0.8826642,-0.37397188,-0.61324596,0.2666508,-0.049204517,0.48968652,0.19805455,0.5460721,0.4551314,-1.0519439,-0.36905426,-0.09980451,0.5234549,-0.8292505,-0.8456685,0.22959341,0.48712638,-0.26878875,-0.7128827,-0.36676204,0.2654741,-0.98826385,0.71183985,-0.046328902,-0.40367442,0.78466076,-0.26148772,-0.656575,-0.98107666,-0.033239458,0.46527445,0.039370798,0.00002983234,-0.92376155,0.4373446,0.6189177,-0.95633173,0.5354104,-0.14953086,0.4524303],[-0.39067304,-1.1413596,0.1351688,0.6308491,0.098224096,-0.48459545,-1.0357084,0.23003642,-1.1756278,-0.2884925,0.17074189,1.2968178,0.36332917,1.0528505,-0.2833406,0.22287793,-0.3906467,0.100219786,0.14926618,0.5091999,0.96919924,-0.03625097,0.5949517,-0.20802003,0.45153743,-0.4993262,0.17225173,-0.22790511,-0.13845843,-0.5345978,-0.9577399,0.5950118,-0.31274208,-0.05202545,0.8950905,-0.61529636,0.75013775,-0.90771604,0.51009303,-0.5905175,0.2731994,0.45208415,0.923749,0.31031802,-0.5706461,0.021765012,0.98760283,0.34121594,-0.42481104,0.13170247,-0.45286518,0.41601038,0.65510637,0.71273553,-0.32638735,-1.0148884,-0.21934074,0.3667297,-0.11831893,-0.50758183,0.4258054,-0.22406581,0.38994682,0.11306942,0.038811866],[-0.26273572,0.35722822,-0.041556824,-0.1473315,-1.3075343,-0.25687164,0.2742854,-0.5360784,-0.1462708,-0.18071872,-0.36462566,0.24826239,-1.4427836,-1.2432106,-1.2860342,0.54417163,-0.0506489,0.40373427,-1.2811208,0.11963372,0.37107992,-0.69521517,0.25957432,-0.90381426,-0.29030958,-0.3079402,-0.07793246,0.8188165,0.76329386,0.037932143,1.1636747,-0.6720089,-0.554342,-0.7652263,0.5700355,1.0936091,-0.99808186,1.3918173,1.5446073,0.8908158,1.0360434,0.49730128,-0.24130587,-0.26647782,