{"layer_count":4,"input_len":64,"hidden_len":96,"output_len":3,"x":[[1.0,0.92941177,0.9254902,0.8745098,0.70980394,0.57254905,0.59607846,0.6313726,0.79607844,0.8784314,0.8627451,0.6039216,0.5058824,0.5176471,0.48235294,0.40392157,0.6509804,0.91764706,0.91764706,0.5686275,0.3764706,0.40392157,0.3647059,0.35686275,0.54509807,0.72156864,0.69411767,0.56078434,0.41960785,0.42745098,0.39215687,0.4862745,0.45882353,0.5294118,0.52156866,0.52156866,0.5254902,0.5019608,0.52156866,0.6,0.4392157,0.6313726,0.6901961,0.73333335,0.7411765,0.7490196,0.7411765,0.7058824,0.5921569,0.69411767,0.7019608,0.70980394,0.7019608,0.7176471,0.70980394,0.6901961,0.69803923,0.6745098,0.64705884,0.64705884,0.68235296,0.6745098,0.63529414,0.6156863,0.62352943],[1.0,-0.99999917,-0.9990045,-0.99999994,0.99854386,-0.81225306,0.99998987,-0.99997234,-0.9999998,0.99978375,0.90163213,0.5349403,-0.7256569,-0.9998758,0.9998939,0.8181784,0.99673307,-0.9990417,0.88677615,-0.99999946,-0.83319443,0.44533563,-0.99999887,0.9781063,-0.99990636,-0.569358,-0.5738569,0.08201468,0.66033405,-0.02792943,-0.90176487,-0.99989396,0.9517662,0.99983436,-0.5696606,-0.9977954,-0.46741608,-0.9565917,0.19751608,-0.99816823,-0.95192146,0.5669356,-0.9992012,-0.3111936,-0.9999998,0.97177,0.4491753,0.970508,0.99635375,0.9999831,0.9852715,0.98461425,-0.9983803,-0.9995313,0.24687208,-0.9996564,-0.9999228,0.9219805,-0.9993922,-0.26955095,-0.91658694,-0.9962287,-0.6670871,-0.9994056,-0.9972548,0.9993238,0.9903114,-0.9943951,0.93947214,0.9998437,0.9999802,-0.010040244,0.9674792,0.99573475,0.9856589,0.39997968,-0.9999563,-0.9995868,-0.99930435,-0.85522735,-0.9999978,-0.9985282,-0.9971761,0.9831222,0.36666083,-0.9999963,0.9999682,0.97319925,0.9454911,0.46572113,0.99999756,-0.99992454,-0.6841215,-0.99998266,-0.99207443,-0.9987769,-0.93459296],[1.0,1.0,-1.0,0.971372,1.0,-1.0,-0.6911421,-0.9999985,1.0,1.0,1.0,0.9992006,0.9995927,-1.0,-0.9999818,1.0,-1.0,0.9999978,-0.9989795,-0.9748823,1.0,-0.99999523,-1.0,-0.5260168,-1.0,-0.7786485,-0.9999984,-1.0,1.0,-1.0,-1.0,-1.0,-1.0,1.0,1.0,-0.9980517,0.9904337,-0.99999994,0.9999162,-1.0,-0.9999993,0.9995445,-1.0,-1.0,-0.99999946,0.99971026,-1.0,1.0,1.0,0.99871975,1.0,0.9999997,1.0,1.0,-0.99999666,-0.99999976,-0.9821501,-0.9999679,0.9999846,-0.9999998,-0.8525996,-0.9997839,0.9999985,-0.8708463,1.0,1.0,-0.99947953,1.0,0.99999946,-1.0,1.0,-0.9999703,1.0,-0.9998425,-0.38107806,1.0,1.0,-0.8758471,-1.0,-1.0,1.0,-0.99970895,1.0,-1.0,1.0,1.0,-1.0,1.0,0.999996,-0.9999439,0.9830148,1.0,1.0,1.0,-0.9785724,0.97928226,-0.99978685],[1.0,-1.0,-0.999997,-0.99999976,-0.9992765,1.0,-0.9999637,1.0,-0.9717136,-0.99999994,-0.978058,1.0,0.9990914,0.9999991,0.972896,-0.99596065,0.9999877,-0.99999994,0.9999972,0.99999946,1.0,1.0,-1.0,1.0,-0.9999999,-1.0,0.99999154,-0.9996899,1.0,1.0,-0.9970735,-0.9896864,-1.0,-0.99974215,0.99999267,-0.99766433,0.9998793,-1.0,0.7401466,1.0,0.9999784,-0.99999744,0.9999936,1.0,-1.0,1.0,-1.0,0.9953367,-0.7409731,-0.99998695,-1.0,-0.99986523,0.99984515,-0.9986774,-1.0,-0.9998982,1.0,-0.99999803,1.0,1.0,1.0,1.0,0.9999993,1.0,1.0,1.0,0.99998987,0.999728,-0.9999985,-1.0,-1.0,-1.0,-1.0,0.9999915,0.99999976,-1.0,-1.0,0.99994934,0.9999997,-0.9967445,1.0,-1.0,0.9256052,-0.99998915,-1.0,0.9999258,-1.0,-0.49408564,0.99999785,0.99999666,0.99994534,-0.9999938,-1.0,1.0,-1.0,0.99997544,0.9999428]],"w":[[[0.8600879,-0.4881556,-0.6340239,-0.71021914,0.82727504,0.33047676,-0.50460315,0.26835608,-0.1528132,0.0029921532,-0.7197459,0.21944833,0.90787077,-0.63576555,-0.52756834,-0.18508315,0.031300306,0.9158094,-0.5200188,-0.63788676,0.5513997,-0.4239781,0.9118829,-0.95971036,0.9522872,-0.24101806,0.6714201,0.7082503,-0.2834406,-0.10725188,0.6681721,0.1134336,0.91793823,-0.3432088,0.6140981,-0.06881809,0.5088723,-0.9554651,-0.49824858,-0.93946934,0.3713715,-0.5957713,0.56472087,-0.3952074,0.26973462,0.11588073,0.81505466,-0.34919262,0.7074702,-0.9910495,-0.13041353,-0.09657812,0.28773046,-0.67443895,-0.84999514,-0.21431684,0.0042238235,0.97466016,-0.7699845,-0.08575559,-0.1811471,0.54704857,0.3899281,0.09511328,0.08389664],[-0.88097507,-0.15905325,-0.6559195,-0.6922972,0.59115994,0.3468645,-0.82989454,0.20671065,-0.7566215,0.51501226,-0.571405,-0.08303279,-0.52656657,-0.9070568,0.72050834,0.27382046,-0.19668366,-0.8946339,0.19367562,-0.67581004,0.47095037,0.9868076,-0.5700494,-0.8815744,-0.04181801,0.1068355,0.12911797,-0.46786684,-0.8986049,0.24167335,0.47540596,-0.47631308,-0.7749025,-0.25723687,-0.38490888,-0.5936409,0.9873069,0.74455065,0.2611075,-0.41357636,0.06521229,-0.72825176,0.56291425,-0.36927402,0.8452435,-0.12035756,-0.4456395,0.5846602,-0.6793695,-0.15253213,-0.27441305,-0.15187612,-0.4539457,0.8126821,0.64410174,0.0017621745,0.116690144,-0.9034583,-0.2157269,-0.9476092,-0.35841346,-0.89501673,-0.17844978,-0.024462119,-0.9631007],[0.21541415,-0.7166666,-1.8984034,-0.33310255,-0.7850747,-1.1310546,-0.271663,1.4445095,0.45205,-1.9638546,-0.6331262,-0.03758832,0.60028666,-1.3023309,-0.2505485,1.1302447,0.43665433,-1.4311962,0.2965055,-0.3306329,-1.660706,-1.5772153,-0.3333636,0.70255226,-1.3425373,1.3284585,-0.45014113,0.1551296,-1.6779752,1.2071502,1.7307192,1.569606,0.45767492,0.69162697,0.460059,0.12622347,-1.3367704,-0.11211015,0.52823275,0.8106882,-1.272458,1.2484906,0.4746819,-1.1550245,-1.3047441,-0.20153457,-1.1148117,-0.69467604,1.068062,1.5983108,0.29841927,0.74754155,0.26984596,-0.44895834,0.24509317,1.2246388,2.4761627,1.6309367,-0.40688238,-1.4970005,0.44472167,-1.0753576,-0.61042655,-0.88707346,0.2782377],[-0.27776092,0.6661875,-0.6534698,-0.9410183,-0.14580387,0.66400194,0.6721918,-0.16545624,-0.48003095,-0.9958009,0.43697682,-0.99431276,0.2090324,0.60126984,-0.647875,-0.05918203,-0.7191283,-0.8368385,-0.8100817,-0.7612397,0.004617321,-0.69688797,-0.49551916,0.054167006,0.0911421,-0.77662235,-0.5423758,-0.87435,-0.599682,0.49578655,0.06791309,0.20998614,-0.24373563,-0.7554487,0.8970802,-0.5478518,0.29499838,-0.9727019,-0.69848233,0.6697636,0.70348454,-0.2589479,-0.75806326,-0.80467206,0.8152515,-0.028263608,-0.101444595,-0.93648475,-0.44883564,0.38657534,0.07276454,-0.7486548,0.44641575,0.34741956,-0.21432072,-0.55179155,0.98479277,-0.5301822,0.20666727,-0.90236837,-0.21343306,0.5622685,0.18976158,-0.5586892,-0.79505813],[-0.40154022,-0.85050225,-0.63812304,0.44464833,-0.8476981,0.31399253,0.46902612,0.102528,0.4916739,0.29745567,0.6579668,0.77225465,0.63040775,0.26893854,-0.632242,0.82293427,0.86404246,0.3745216,0.24330059,-0.41562164,0.43217203,0.21727039,-1.0348493,0.7230445,-0.94758517,0.07371287,0.23624624,0.9772613,-0.07302124,-0.43909457,-0.042158816,0.42431432,-0.6662259,0.70768565,-0.41872215,0.7000289,0.7270296,-0.13833138,0.28918138,0.7041191,0.59130853,0.33726308,0.5622852,-0.25293183,0.11234083,0.4372151,0.5577721,0.5958681,0.38150918,-0.9739382,-0.27273422,-0.10448767,1.017784,0.48053634,-0.7109693,-1.1574107,0.6768375,-0.18311432,0.6492288,-0.07475676,0.7217157,0.40147677,-1.2061259,-0.9718574,-0.824518],[-0.5105494,-2.054646,1.097329,-0.4841845,-1.0548214,0.08272601,-0.7305582,-1.1925052,-0.58412963,-1.7290192,0.29335815,-0.31434122,0.22139208,-0.9419157,-1.6262727,-0.86809,0.51601493,-1.020493,1.2857964,1.5291488,0.7435138,1.6929426,-0.14160223,0.46258754,1.6043553,-0.8922531,-1.7753272,-2.5396283,-0.98765165,0.12864357,-0.46239498,1.8053752,1.3535275,0.7717323,0.9980595,0.118479766,-2.5765457,2.6615167,-0.42461875,-0.44427568,-0.25605732,1.251112,1.1819609,-0.5375149,-0.4336125,0.82376117,0.43583146,0.62044036,-0.72157013,0.4357816,0.9122456,-2.4792476,0.20591505,1.1056929,-0.08643123,0.8129024,1.2702751,0.23497172,0.7149423,-0.016376257,0.9388334,1.5920585,-1.8457897,0.29104456,-0.15308824],[0.6532862,0.5555967,0.621962,-0.72669834,0.24278443,-0.12815773,0.39118686,0.9244554,-0.05946194,0.5576797,0.753021,-0.8376165,0.25389168,0.6438881,-0.27200183,-0.3604613,-0.15483391,0.665959,-0.74934375,0.57746595,0.54148537,0.16729082,-0.00027638674,0.076474056,-0.42814332,-0.5213994,0.26146743,0.7744363,-0.10013611,-0.73800176,0.9765004,0.5765019,0.8685862,0.99471384,-0.506011,0.53022444,0.3534535,0.9465454,0.17433973,0.004331059,-0.29438302,-0.41833374,0.84460783,-0.5741332,0.102430895,0.088350914,0.49741888,-0.8441447,0.5976254,-0.64543664,0.55161726,0.6954149,-0.47538427,0.19976066,0.70532024,0.4752383,0.06962831,0.15579477,0.50534374,0.29238254,-0.27512962,-0.3826107,-0.5097858,0.577812,-0.8305629],[0.11090362,0.06296985,0.8744914,0.68886477,-0.25377136,0.5721534,0.102543086,-0.93912154,0.34910536,-0.34891072,-0.9382164,-0.31401587,-0.48952115,0.14209644,-0.43737558,-0.7720847,0.5390801,-1.1195564,-0.26529697,-0.35715696,-0.8494891,0.71630013,-0.92864233,-0.85343224,0.20344311,0.80883044,0.21175258,-0.416791,-0.9758248,-0.014333507,0.34623393,0.01447569,0.800395,-0.775065,-0.34433144,-0.33855233,-0.095402315,0.53744715,-0.031201003,-0.35342792,0.7221441,-0.838742,0.21572764,-1.0029979,0.84283817,-0.8483241,-0.4381351,-1.1329931,0.6131165,-0.061242428,-1.0106528,0.7171784,-0.7076423,0.71841866,0.8381068,-1.0820329,-0.07638796,-0.54246765,-0.9681949,-0.00062763575,0.38426262,0.20801675,-0.52764213,0.5492272,-0.9771783],[-0.18798524,-0.21082242,-0.73515797,-0.6091189,-0.67300093,-0.8836481,-0.6053474,0.61789703,0.14378388,0.33198455,0.87545884,-0.2116855,-0.9000495,-0.5237918,-0.8981827,-0.34326094,-0.18259601,-0.5629762,0.22448291,-0.4046107,-0.7782248,-0.6761333,-0.38547292,-0.34156638,0.33352092,-0.859349,0.34579355,0.8176761,-0.9190112,-0.09257473,-0.18690796,-0.34933883,-0.5108081,-0.53174645,0.38142455,-0.564571,-0.48812255,0.8752601,-0.5575574,-0.7079478,0.64599437,0.037345484,0.9316954,0.16438939,-0.94072646,-0.77930677,0.36934477,-0.7606034,0.11470028,0.7951516,-0.32681337,-0.23883922,0.32949138,0.32393318,-0.22451203,-0.95298445,-0.5179101,-0.12824386,0.25056258,0.23233311,-0.47000566,-0.11938333,-0.87817335,-0.86271065,0.019256735],[-0.076439895,1.552948,-1.0266588,-0.5966237,-0.208936,1.16154,1.1685264,1.7045182,0.47289503,0.012531029,1.524856,1.2742535,-2.6032965,-1.147511,-1.1130745,-1.3964869,0.17504893,1.028301,0.5628429,1.1931115,-0.19529986,-0.66370416,-2.3536363,-2.1673076,-0.5508661,3.5835779,1.319431,1.8696057,-0.6643855,-0.805832,-1.278123,0.22874016,-0.47713497,1.127398,-2.211627,0.72194207,0.5614049,-0.31110564,0.4251529,0.8995849,-2.2153196,1.3883897,-0.9173051,-0.40831426,-2.5055552,-1.2484763,-1.0097468,1.0632383,1.5299889,0.55446017,0.8287578,1.7510133,-1.3425846,-1.0794374,0.0036605739,0.030281322,0.9492102,2.3496275,0.854922,0.165738,0.20243064,-1.1909633,-2.107825,-0.8791795,1.5056709],[-0.14071417,-1.8431786,0.040009532,-2.280005,-1.0640746,1.3521994,-0.011241676,0.68526834,-1.387911,1.9843478,1.6303988,-0.97311723,0.7233801,0.5938428,0.4282641,2.5479314,-1.8794681,-0.56919736,1.3096955,1.7204137,0.56031203,2.214837,0.12957841,-0.95068246,-0.28385735,-3.4345071,-2.6427941,0.40712416,-2.9459054,-1.5885323,-0.084662445,-0.6123671,-0.70786065,-0.7166915,-0.42276874,1.5893377,-1.7840521,-0.27726576,-1.8856618,1.0556219,1.5999714,0.11617944,0.901101,1.0768424,-0.029962262,0.9892212,-3.020156,-2.0392113,2.7389865,-0.3462035,0.4479931,0.61324775,-1.0103791,0.6125149,1.5109361,0.95548016,2.8054183,1.0816565,0.6773938,1.6824704,2.7883883,0.2540304,-0.02704153,-2.1288843,0.7332387],[-2.8303113,0.59868,0.024737662,-0.89493436,0.91431206,-0.7149758,0.22605243,-1.095781,-1.2005599,-0.0074193752,0.16175264,-0.20085113,-1.7563125,1.2114453,-0.41204116,1.32822,2.8564246,0.50158,-1.291353,-1.8647858,-0.79647946,-0.41368765,-0.44914532,-0.5401453,1.1101974,0.9718356,-0.2502266,0.058485616,-0.16581737,-0.71761465,-1.4162217,0.41042838,-0.24545315,-1.1318381,-0.27198634,0.946699,-0.6456587,2.406087,0.5213518,-0.56681365,3.0789096,1.5604931,-2.2522156,-0.057636898,-1.2102783,-1.274527,3.4565103,0.1118961,-2.7364602,1.4860165,-0.4620943,0.5366801,0.76656216,1.7331326,-0.6344793,1.1234742,-1.3549829,0.8498486,-0.4429592,0.19026914,0.9524273,1.9123868,-0.50252867,1.9177274,-1.0883387],[1.8444121,1.3825461,-0.66012055,-0.7269441,-0.19918904,-1.537262,1.1459178,-0.9143514,-1.2470247,1.351998,1.0037999,-1.2020507,-1.0428952,-1.4637247,1.0131998,-0.52480435,-1.0045918,1.6834439,-0.14410244,-2.1102908,-1.9444956,-2.0300298,-0.5951797,-1.1172589,1.9918958,1.0913721,-0.0981757,0.22292987,-0.15663667,-0.88129264,1.3054476,1.0214942,3.038245,-0.71859545,-0.83309686,0.0629305,1.4792436,-0.99483085,1.0101154,0.13075809,-0.010046542,1.498416,0.36785844,1.2796918,1.1837794,0.034399696,-0.019776851,0.61392206,0.4672243,-0.7178718,-1.6560091,-0.9330188,-0.6338076,-0.32014373,-0.1493082,-0.8246433,-1.5077878,-1.2371745,0.6711983,-0.5770125,-0.38346702,0.5874282,-0.3691354,-1.0312923,-0.15077715],[-0.32041857,0.4080885,-1.027466,0.59087336,0.35512012,0.058601953,-1.1010567,0.7763139,-2.3240955,1.2455492,-0.5154887,-0.23200512,-0.091224894,1.6737052,-0.12907766,1.3218462,-1.4737239,-0.93212855,0.6561952,0.2764641,-1.2922403,-1.9842598,0.38745454,1.601846,0.86176324,0.53921187,-0.562253,-1.0046291,0.1541145,2.1982682,0.67914766,0.7595437,-0.8090111,1.9135745,-0.19707201,-1.6207627,-0.5867248,-0.32817474,1.5967888,-0.044167742,3.0891356,-1.1456499,1.9236226,-1.3758681,-1.28835,0.8291749,-2.4938862,0.88013875,2.0338178,-0.5269183,0.27995086,0.80401564,-1.6098955,-0.3952025,-1.0567272,0.15873022,-0.007284857,-1.1392425,-0.110681035,-0.4604002,-1.5579158,-0.81181645,-0.072717294,-1.2613896,0.24589716],[2.0102384,1.4249558,0.4518817,0.12277982,-1.2032366,-0.20875159,1.3144397,0.76824445,1.4346809,0.68841505,-1.641739,-2.8018577,-1.5136178,-1.2710037,-1.5529913,-1.0840298,-0.10652793,-0.30474827,-1.8537265,-1.6711217,0.8929126,-0.5663211,-0.64177316,-2.5641654,0.6100885,3.7723725,1.797366,-0.8514812,0.24680427,-0.86048484,0.001533729,-0.20109747,0.2800036,0.21684816,0.47326404,-1.1301565,0.49581683,-0.27646253,1.5615345,-2.0215743,1.1231501,0.7154816,2.7180953,1.6570231,0.36211658,0.37411532,-0.17474312,-0.24600424,-0.11319932,0.78657776,1.9168549,1.0658207,-0.33585155,-0.72746754,-0.2997403,0.013886537,-0.074661784,-0.6765762,-2.0779605,-2.0388875,0.08439548,0.42881706,-0.15863629,1.4095535,2.9684174],[0.71624875,0.7754196,1.2851896,-0.3614849,-2.2437835,0.5088897,0.7846387,1.0048047,1.2984214,0.7546459,1.7242686,-0.43651456,-2.5449734,0.5245496,-1.0306342,0.07927011,-0.7919144,1.5030084,1.0140867,0.15851368,0.04955964,-0.8197762,0.6778361,1.617743,-0.58210194,0.8679549,-1.8435496,-0.854825,-1.0452563,0.5133415,-1.1936809,1.2862394,1.3244399,0.93606806,-0.45249304,0.63972086,-1.2541972,-0.40438962,0.48554754,0.39342237,-1.4193323,0.37769994,1.6536248,0.22694643,-0.9113107,-1.2116584,1.1995769,-0.4759552,-0.376005,-1.9721621,-1.4542037,-0.0063849282,-0.8541673,2.4453022,-1.1648691,-3.083382,-0.62721026,-0.7532234,1.3498169,-0.29551816,1.6950138,1.7551534,-1.7438234,0.21218452,-1.1034329],[-2.726848,-0.7374774,0.9899795,1.253361,2.2021909,1.7519804,0.67576957,1.101389,-1.3989192,0.8327288,0.53161895,-1.2566493,-0.27576366,-0.5765067,0.46043724,0.6820886,-1.0841606,-0.34697512,1.0851464,0.28939465,0.41608328,-1.0876725,0.7159006,-0.34104845,0.072759435,-0.40501237,-1.1355704,0.7928428,-0.29332095,0.6056488,0.5308272,-1.5494713,-1.7703918,-1.3044977,-1.7937791,-0.6068358,1.0614804,-0.97964823,0.65617573,2.0221906,2.1050065,0.18595423,0.032306418,-0.64125514,0.40991,1.354608,0.88547593,0.8977984,-1.1268885,0.8347872,2.1035538,1.6130223,0.4854438,0.3883387,-0.8709456,2.2679398,-2.2122881,-0.075069174,0.0428183,1.2772636,-1.3335029,-2.0281742,-0.46056587,0.53962886,-0.98069596],[-2.7390137,-1.8392248,-0.6850685,-0.7313997,1.217491,0.95501393,0.35044733,-0.24894267,0.12339124,0.3826181,0.61562026,-0.06705671,-0.051081404,-1.0372281,-0.087966576,-0.54124457,1.4305718,-0.29478368,-1.4090668,-0.18801415,2.3058121,-0.948017,0.14053008,-0.060588166,-1.0440446,0.9022541,0.28917643,1.3058512,2.4984255,-0.8456829,0.8725487,0.31498066,0.6388232,0.6925602,1.0085533,0.11477064,1.4892269,-0.8984872,0.30285183,0.8925773,-2.5518656,3.077683,0.9429323,0.08912486,-0.14316902,-1.8664193,-0.7286792,0.4890485,-0.19742112,2.4027703,0.2911794,-0.15375678,0.48783532,-0.6648482,-1.2269404,-1.274068,-0.1785906,1.3173958,-0.43294337,-1.1264629,-0.9788923,-2.9369087,-1.9042441,-0.10068916,1.05561],[-0.89514184,0.99514973,0.6528073,0.042709347,1.0316514,-0.6880006,-1.0592163,-1.1431906,2.429441,-0.8618449,0.20967202,1.0354669,1.0334027,0.5677671,0.54320025,0.98174334,1.5569433,-1.2453735,-2.0105162,-1.4421092,-1.5507939,0.23854513,1.0967194,-0.058861993,0.6827756,-0.31912458,-0.76029015,0.44604522,-0.75546324,0.06590648,0.07449868,-0.7793797,-0.35925716,-0.029188085,1.016966,-0.72186524,-0.39573276,-0.38817474,0.14183137,-0.94525397,0.25935492,0.7130786,-1.188592,-0.52558786,0.3112822,0.49226528,1.4461395,-0.09235764,1.2467556,-0.2819395,-1.2680651,0.93431973,0.83402544,0.7512785,1.5908401,0.5023873,0.32596016,1.2159107,-0.4389212,0.7503505,-0.45080727,-0.5142264,0.46849236,-1.9079653,-1.1340857],[0.21879266,0.0016075373,1.2393527,1.1613055,-0.08696146,1.6709621,-0.19458814,-1.8393886,-1.4085255,0.058941282,2.0036967,1.3132299,0.07559254,1.47776,-0.7961287,-0.13098004,-0.013190551,-0.341426,-1.5891118,1.0957392,1.3264184,-0.13066547,0.89440393,1.4971161,0.7617732,0.15939653,0.53502536,-0.046521228,0.82460445,1.2558244,-2.149676,0.86056644,0.13026986,-0.23488833,0.20454773,0.73413146,-0.77738047,1.6617483,0.2672386,-0.4440602,0.07296358,0.6708429,-1.267424,-0.58507377,-2.3214908,-2.449874,-0.22899702,-2.5153172,1.6156076,-1.6918423,0.4066672,-0.8511494,-2.1177485,0.77222055,-1.510073,-1.9931836,-1.0539862,0.23057978,0.6485278,0.14962433,-1.3440771,-1.0599335,-0.7863085,-0.0692801,-1.7574167],[-0.052096628,1.7933295,0.363527,-0.38279295,-1.7259355,0.9629245,-0.95228803,-1.052846,0.029238846,-0.039686836,-0.6342287,-1.5423255,-1.010354,-0.9012851,-0.36566114,-1.2165093,-1.8154851,0.22588615,-1.5926944,-1.7652415,0.2128818,-0.019798199,-1.0435508,-0.48896667,-0.8447061,0.7494331,0.026838088,0.14857168,-0.10902838,1.2234261,-1.2841231,0.8832315,0.72610205,0.23280041,-0.91478693,0.48988038,0.6391409,0.66449344,-0.24958923,-0.98969954,0.5289423,-0.51807344,0.5246525,-0.9312948,-0.71672213,-0.24020557,0.47755623,-1.837029,0.7762668,1.1236914,1.9470636,0.53044057,0.6519727,-0.6515971,-1.3230963,0.4698036,-0.46646518,3.0694566,2.5893514,0.13396947,0.5321867,1.1118155,0.7811362,1.155499,-1.1740705],[-2.9649084,-3.2949014,0.41884342,-0.0018448372,1.0180665,3.0272832,1.036465,1.0466559,0.29576024,0.18584442,1.9459338,0.9663603,1.4467112,-0.5348952,-1.8167152,-0.5318651,-0.55304503,1.6504929,0.23923208,-2.3665137,0.42729947,-0.21448566,-0.23646963,-0.07049708,-1.6430422,1.0879861,2.1672845,0.24127738,1.1703291,2.6668785,-1.6130892,0.5939545,-1.44916,0.3697152,2.4337146,-0.90885156,-1.791726,-0.54811376,0.083559304,-2.346701,-0.31650814,-0.056102406,-0.019752141,0.63682014,-1.3491844,-2.832909,2.2234664,-1.7101291,-2.2202067,-1.686021,0.22138898,-2.2209537,1.0069214,0.481894,-1.3299162,-1.1355993,0.9404077,2.9510608,1.932848,-0.31777975,-1.1846763,1.3803341,1.1482546,0.30764878,3.2998948],[0.9913908,-1.1089873,-0.63262755,-0.6651977,-0.9984012,0.115917005,-0.40178245,-1.0930947,0.3359867,-0.7700825,-0.43801603,-0.29160738,0.9632887,-1.1384028,-0.6748466,0.7986745,-0.6310014,-0.722288,0.58038193,0.74885225,0.5051113,-0.74898267,-0.046424028,-0.44320342,0.25951955,-0.88284534,-0.5975379,-0.9316575,-0.2844163,-0.4809042,0.18918562,-0.46971464,0.049466625,-0.47486633,0.44707555,0.09675441,0.66124076,-0.9840916,-0.74995387,-0.55229956,-0.8582564,-0.002913314,0.6383339,0.6506524,-0.44369355,-0.4298187,-0.8311057,0.112119146,0.5393752,-0.885179,-1.0398122,1.1763105,0.83202505,0.3554202,1.0107385,0.086309634,0.08233705,0.64681554,-0.5507843,-0.6306946,-0.83097744,-0.9279653,-0.75420356,0.91614205,0.6232936],[-1.215695,1.0647255,-0.14688669,-0.46007264,-0.659898,0.55976844,0.14427331,1.2013525,-1.4008735,-0.6432249,-0.39881745,-0.33426133,-0.3014417,-0.74903864,-0.07189858,1.3504193,0.49568516,0.88293725,-0.76106405,-0.2637977,0.2912612,0.29856473,-0.0053901947,-0.24465926,0.65731114,-1.7494249,-1.4705222,0.025162049,-1.7109263,0.15776114,1.1184236,0.8352226,0.47388116,-0.27315748,-0.31476972,-0.72815496,1.7463251,1.6933866,1.8496143,-0.055624243,-0.15204638,-0.030632017,-0.24377649,-1.2081728,1.2497594,0.3756609,-0.7148745,-1.3520403,-1.5586599,1.7719119,1.1352879,0.34709576,0.42180142,1.0158526,-0.030113166,0.9641001,0.4551607,-0.72452825,-0.92982656,0.84862596,0.0058708447,1.0096215,1.7634107,0.57040244,0.16498443],[-0.25295103,0.5217125,-0.8442187,0.55482465,-0.9805198,0.92496234,0.24465926,-0.8771998,-0.6752799,-0.35902974,-0.96515876,-0.5162091,-0.44554636,0.10058174,-0.54735404,-0.6704386,0.5736021,0.83935714,-0.6411785,-0.70003617,-0.6346074,-0.5556938,0.41292042,-0.4762421,-0.22231075,0.76458687,0.341264,-0.47587013,0.37959138,0.13817295,-0.74099237,-0.58763343,-0.57065666,-0.5868595,0.18161178,0.7655011,-0.5504171,0.6927663,0.5893279,0.11533681,-0.73653734,0.6359485,0.7236473,0.19226593,0.053789865,-0.15733366,-0.751094,-0.49869666,-0.07262904,-0.36516416,-0.966992,0.017434195,0.7608433,0.025131565,-0.43569863,-0.9834767,-0.49290705,0.88092774,-0.730269,0.26657864,-0.39622375,0.7927353,-0.047264352,0.1891195,-0.5577494],[-1.1252915,0.7411136,-0.084504865,-0.9819239,-0.57436675,1.4205418,0.24667914,0.41509023,0.9171564,-0.40342078,-2.1518705,-1.3883251,-0.87520486,0.39324576,1.1409266,-0.4192764,-0.8338536,0.33583054,-1.4013056,0.33652696,0.039829057,2.316765,0.82779217,0.21253864,0.035999533,1.8179908,1.1305693,-0.38445807,1.7867795,1.9564265,0.29864317,1.163014,-0.42425132,1.3936205,0.72931755,-0.4513814,-0.4157811,-0.7927086,0.28158188,1.200442,0.40237603,-0.07284548,-0.8809878,0.37000793,-0.32015526,0.26737985,-0.017021658,-0.24623197,1.5192357,-0.16990812,1.1396854,-0.054485388,-0.18916897,-0.176206,-0.32543585,0.34555373,1.1590306,-0.39848247,-3.0398986,-2.8834703,-1.7628264,-0.24597712,-0.783289,0.33314174,1.722412],[1.7748438,0.1406457,-0.073742114,-1.8002067,-0.62644935,-0.62611586,-0.11748491,-1.4538771,0.03740681,0.96970457,1.3652109,-0.37290743,-1.8243704,-0.9483807,-1.61478,-0.1388213,-1.4111235,-1.4577622,-0.5327077,0.17192249,-1.0276178,-0.53988934,-0.68453103,-0.26729664,-1.6621093,0.26216117,0.24201636,0.3726773,-0.02758728,0.4945426,-0.059525996,-0.6179589,-1.0283952,0.45298317,-0.5512392,1.7864863,0.8745415,0.7442819,-0.100688994,1.5013635,0.81712675,0.042966504,0.5932951,2.100842,-0.37101212,0.68546104,-0.66365707,-0.10697242,-0.07086613,1.1351997,0.97424674,-0.7479055,0.63834584,1.0975738,0.14669469,-2.2791662,-2.6674576,-1.6700522,-1.5992113,2.320501,0.31514725,1.5764947,1.1573129,1.1086937,0.6567436],[0.03206909,-1.9034557,-1.443204,-0.79702866,2.066125,-0.12992257,-2.7279818,0.19621392,0.6262422,1.8833956,0.9059513,0.92854816,0.0631218,1.9894145,-0.41307932,-1.1171014,0.7886719,-0.7899944,-0.44176796,1.0014352,1.0687479,3.0503807,1.7593493,-2.378001,0.6296222,-2.046038,-0.8502987,0.57081157,-0.70976764,1.7269044,0.36250934,-0.99808437,-1.9882913,-0.8115383,-3.5541887,-3.303129,-0.81892216,-2.1623485,-1.5305436,-0.87886125,-0.32610118,1.7028316,0.93079334,1.4510833,2.1571672,2.1095228,0.40200248,0.18118118,1.3208549,0.9919506,0.9999336,1.6780914,-0.90806043,2.5985115,0.45699444,1.8390316,-2.338368,1.6927664,-0.99346983,-2.0795615,-3.298574,0.22321652,2.1116486,-2.2051826,-0.14662762],[-0.75872976,0.17582837,-0.17586333,0.48260677,0.81831974,-0.31791788,0.55079836,-1.2467806,0.1423758,-1.7585608,-0.10124499,0.3299426,0.42785692,1.2199187,0.49106112,-0.18244421,2.2645862,-0.7369572,-0.4045585,-0.46227157,0.9030916,0.83267725,0.25125486,-1.3724326,1.5515969,0.088280685,-0.31585556,0.054590307,-0.73944944,0.9330858,-0.37344843,-1.0877879,2.3058195,0.29935062,0.56894666,-0.90668374,0.39358532,0.3243608,-0.98327845,-0.6153675,0.35277852,0.39279264,0.7502817,-1.34304,1.4503634,0.22072811,-1.0260109,0.97853994,1.0320563,-0.43523702,-0.42002946,-0.9665022,0.5399122,0.16033946,-1.477585,1.2487499,-1.6292508,-1.2240636,0.91776854,-0.6239181,0.8044755,1.2433189,-0.6103553,1.0750656,-0.37963054],[-1.563782,1.9659394,1.8046045,1.7788866,1.4440258,0.10934235,-0.9142814,-1.8325013,0.13817185,0.5699023,-1.6241615,0.6463807,-1.0490283,-1.2189716,0.23257913,-2.220733,2.110249,-2.1000717,-0.42436087,-0.43084577,0.2543235,0.58524865,0.49848562,-0.90443003,-0.018818215,-0.8587283,0.3692666,1.092209,-0.28990546,-0.30444998,-0.31488463,-0.2581167,1.8892641,-0.47054607,0.83572745,1.069223,-0.67084146,-2.535539,0.70940125,-1.6845813,0.8600975,1.9076856,1.1400529,-1.058372,0.34038958,-0.23545864,0.8333262,0.52624434,-1.8564796,0.45317343,-1.3960671,1.3519332,0.4163151,-2.3292873,1.2179834,2.773203,-1.0713403,-1.0502429,-1.7801493,-0.068053246,0.022787679,0.15304397,1.2980661,0.5280625,-0.8199078],[0.5146656,-0.2287818,-1.2471408,-1.0545378,-0.8015524,0.8151115,-1.122401,0.16566117,-1.4671704,0.78849334,-0.5863379,-0.2837689,-0.43898168,1.1847279,1.3821311,1.3563867,-0.4665668,-0.17338143,-0.876351,-0.07995861,1.3088255,1.3373685,-0.4543053,1.6276419,-0.3556973,1.4628395,0.91127104,-1.1402748,0.6407581,0.2745416,-0.7046287,1.4848112,0.46873552,1.5810636,-1.5849777,0.3741812,0.78382784,-0.29869115,-1.7392951,-0.7448333,0.26338637,-0.7509751,-1.06068,0.5286759,0.899156,-0.39567718,-0.62079245,0.199206,0.33466262,1.0432101,0.38544136,0.49674124,-1.0468926,-0.39030814,-1.763902,0.34607592,-0.8048742,-0.24975559,-0.9941172,1.0800761,0.76901096,-0.06199257,-0.6632417,1.072686,0.7108626],[0.25266728,-0.08959728,-0.5781309,-0.091101825,0.056521855,-0.38731977,0.19644205,0.021026868,-1.5052675,-0.012207074,-0.24681322,-0.51536196,0.602618,1.0722686,1.2659533,0.6044829,-1.872041,-1.1968477,-0.023188544,-0.90039945,0.38024536,0.13564512,0.5714155,-0.43719435,-0.50178164,-0.7133258,-0.69141936,-0.90065545,-0.08936659,0.6927659,0.21636695,0.87181824,-0.6015019,0.99950176,-0.48144144,-0.15376286,0.022140143,0.068550274,-0.09883675,1.530415,0.46370813,-0.7029663,0.12941904,-0.0378332,-0.47485414,0.5657714,-0.74644643,-0.2519518,0.30848357,-0.22127442,-0.7350669,-1.782228,-0.6540501,0.8415602,0.7620322,-0.09287122,1.6449617,0.08256933,-1.3029692,-2.157958,-0.1543994,1.2683794,0.013302956,0.010641347,0.96610963],[0.6295033,-0.011374661,-0.77543336,-0.41597897,-0.4217183,2.0451431,0.079184756,0.96697634,0.7797245,0.80182207,2.330673,0.34776917,2.1567163,-0.5362414,-0.1698593,-1.5669034,0.09257896,-0.80514455,-1.2955931,-0.5343127,0.51872134,-1.1141449,0.13231017,0.24791396,-0.7018667,-0.6081394,-1.5204669,-0.61229444,-2.355973,-1.9847522,1.2224439,0.5421487,-0.82486415,0.8897852,1.5031091,0.48772684,-0.85559326,-1.7423012,-0.4862167,1.0391086,-0.39306745,-1.1482927,0.30865252,1.4678298,0.82827115,-2.0744305,-0.55363053,-0.9095452,0.4651816,-0.49378914,1.8785789,-0.95456314,1.7187363,-1.2625734,1.4518117,-0.745096,-0.18794636,-0.42894623,1.5423394,0.07196643,0.013032177,0.11289346,0.9995813,0.72956806,1.5754561],[0.697286,-1.7982849,0.33374473,0.62275624,1.0360183,-0.3265477,-0.8505844,-1.5282801,-0.9016352,3.6128044,0.86154413,0.9433595,1.3577654,0.02109373,-0.5939085,-0.81061834,0.81621295,1.6094474,-0.00871822,0.05748601,-0.6028315,-0.13726415,-1.4298817,-1.3076489,0.07894331,1.1373082,0.6055567,-0.14167093,0.23735327,0.4549519,0.26096287,1.3919059,0.63758177,-0.8396127,-1.230418,-0.91588223,-0.5722949,-1.1551374,-0.08394245,-0.44692564,-0.22925864,0.9140103,-0.69161445,1.6441028,0.80095655,0.0030333826,-0.71773356,-2.1147661,-0.1086709,2.3943715,2.4698746,0.804261,0.7562065,0.15433548,-0.2694621,0.5187076,-2.2441063,0.44917843,-1.9925022,-0.12998763,0.05277942,-0.30107895,0.30192974,-1.8077465,0.8870424],[1.4460088,2.0318475,-0.53348863,-1.6553541,0.44155547,0.94431496,0.2925522,-0.90566957,1.0149987,0.75153357,1.1273686,0.106125176,2.2630248,1.3824075,-2.6645794,-2.2562084,0.5370164,1.1234336,0.076315984,-0.40773362,-2.6689165,-2.582329,-0.2869798,-1.2987596,2.185682,1.4374801,-0.86778665,-0.8894144,1.2485515,-0.51609075,1.8102272,-0.9344569,1.1751763,0.76865727,-0.47049707,0.22693615,0.4110444,-1.8900193,-1.8221298,-1.3338313,-0.7677403,-1.5180858,-1.4903016,0.0888219,-0.009447937,2.9805608,-2.011558,-1.7193365,0.36364338,-0.709563,0.16043985,1.0508823,-1.337802,1.0095309,-1.8341504,-0.7475997,-1.6544693,1.5735749,2.6997542,1.2565696,0.8195357,-0.27799648,-2.2013092,-0.5864154,-0.28797448],[0.46645728,-0.9153086,0.13976718,-1.3762716,-1.5013322,-1.2322876,-1.1028118,0.19792353,-0.66396374,0.46238634,-0.78984493,0.52900434,0.26566595,0.92103666,-0.6535667,-0.123905554,-0.36446846,0.29780218,0.08939635,-2.0852964,-1.0605376,0.00027068026,0.2612623,-0.26631275,0.41466987,-1.9854509,-0.40012553,-1.136977,0.46760464,0.9501391,0.9583162,0.8575071,-0.9560433,-0.13668822,1.041625,-0.37003726,1.0326142,1.4057747,1.3051869,1.2722142,0.42285794,1.0999886,1.3796929,-0.23667267,-0.423365,1.1964815,-0.23941857,1.0851891,1.114483,-0.57927567,0.4835877,-1.2582382,-0.44582495,-0.7651596,1.0554492,0.5476412,0.6640362,-2.2808058,-0.7944372,-0.34936443,0.8086668,0.7552947,-0.93997216,-1.2400926,-0.6849125],[0.3879527,0.3279902,0.01391596,-1.0377423,0.61229324,-0.23334226,0.6807402,-1.027981,-0.5843929,0.38261724,0.97008216,0.7258774,0.0047953674,1.3379294,0.7555814,1.4421154,0.10258192,-0.8112511,-0.38229987,0.89363647,0.13556972,0.25090736,0.5910092,0.4487355,-0.12073737,-1.1707448,0.7824988,0.6695135,1.2770405,0.53598744,1.429646,0.38248447,-0.60801494,0.6846099,0.28260165,-0.04789807,-0.36166742,0.046514172,0.9027961,0.50986177,1.1894408,0.4167444,0.3986765,0.2417147,0.2052198,-0.2474163,0.16816829,0.1507289,1.093119,-0.5567409,-1.0943217,-0.8655522,-1.3262058,-0.7094221,-2.3677917,-0.8467231,-1.1686285,-0.82837665,-0.10041465,-0.00048435395,0.29298365,0.53835386,-1.3650944,0.40981168,-0.9805828],[1.177192,-0.34284565,-1.1676718,-1.8746984,0.3105585,1.1838921,1.0073152,-0.8702611,1.5272123,0.9013597,3.128102,1.862899,1.637829,-1.3849638,-2.0826857,1.8217688,1.6731428,-0.54724854,-0.006146346,-1.3581771,-2.6150436,-1.9103467,-0.047289297,2.601396,0.03260799,-1.2569441,-0.12499501,-1.8793771,-0.35357988,-1.5840427,-0.9400853,-0.9674165,-0.88754165,-1.7797631,3.1565826,-1.308214,2.0683246,2.1897671,1.3539344,-0.7942336,-1.3561577,0.7133612,0.16657296,-0.33388782,-1.1067983,-0.97977334,-1.6830512,-1.8312304,3.0783348,-1.8565363,1.6777489,-2.969687,0.26504004,1.4513192,1.7538655,-0.49111134,-2.1025279,1.0015913,1.2208184,0.9422637,-1.0288823,-0.9658948,-0.7289559,-1.0112226,0.797979],[0.9679443,-1.0610399,-1.2764171,-1.5721507,-1.6004921,-1.83168,0.86154926,0.2069128,1.8340356,-0.8563568,0.5779901,-0.08487143,-0.20377329,-2.287766,-0.7606441,-2.1046307,-0.5458054,0.50846946,0.20910312,0.18462425,0.22331387,-0.36923403,0.72283024,0.58007956,0.39962748,-0.6474056,-1.3323904,-0.24208802,-1.0956924,-1.4355336,-0.2570521,1.5697495,-1.2237879,-2.1666548,-1.6440781,0.40965736,-0.10714358,0.018836118,-0.2966324,2.1016002,-1.1530406,-0.7255393,1.5810456,2.0840335,0.21540433,0.8828502,1.2378378,0.029648341,-0.07277704,0.27716967,0.16676039,0.36151525,-0.8690215,-1.7428571,2.3667908,0.5179798,1.2565777,1.0248984,0.19126059,1.7572325,-0.6147663,0.20058633,1.0815583,0.6308005,0.20818195],[0.48430765,-0.54911137,-1.1197761,-0.01102367,-0.84814745,0.8531334,-1.0454223,0.43087292,-1.465648,-0.77213305,-0.33254966,0.35517678,0.3087317,1.2540617,0.83765596,0.72939914,0.5909069,-1.2869948,-0.036048543,0.94903034,-0.5677461,1.6054045,-0.28572074,0.44001842,-1.027257,1.01115,1.571562,0.24441837,-0.57927704,0.6958372,-0.87377965,-0.6083049,0.3860229,0.65957016,-0.53946376,-0.031660676,-1.1732192,0.0934867,0.653527,0.4272914,-2.7994468,-1.0214436,1.4707843,-0.2159431,-1.4197141,0.5631497,0.4583524,1.4865284,-0.57540154,-0.7031105,-0.21774836,-0.19941366,0.45435977,-0.4166484,-0.86743844,1.8318346,-0.20414284,-0.5190045,1.2752818,-0.47197303,-1.4935613,-0.1341122,-1.295648,1.2821904,-1.5792894],[-1.4438046,0.0031712274,-1.7120253,-0.6240537,-0.96636134,-0.81537557,1.4024047,1.1619611,0.69931483,-0.7462845,0.15968579,-0.14030886,1.9809475,0.8347997,0.44021246,0.10438051,0.864891,-0.75269353,-1.0432421,-0.61509717,-0.4863828,-0.30395687,0.8197664,-0.409061,-0.1996713,-0.40387833,0.4642396,1.6567792,-0.10007978,0.4323361,-0.27698854,-1.5276086,0.8768676,-1.1213197,-3.176328,0.38705528,1.2307966,-0.22332667,2.3287435,-1.3427222,-0.53567094,1.5449618,-0.17181627,0.47058648,-1.5860115,0.38303378,1.2618583,-0.81123483,0.2562397,-0.961561,-1.417811,1.0046465,0.94337213,-0.40169755,1.5849233,-1.29187,0.090019666,0.08362296,1.8530903,2.0808833,0.5706088,0.5305161,-0.6374962,-0.49681,-1.8347504],[0.48994625,0.45991006,-0.108992286,0.079298295,0.89718825,0.49957946,-0.27691206,-0.9939553,-0.85273135,-0.14518054,0.47294697,1.1155429,1.3921407,0.06420205,0.46146667,-1.0825585,-0.7028088,-0.13623852,-1.3469723,1.1488491,0.91246533,0.8093146,-0.7801601,0.68019855,1.6932083,-0.26116514,-0.69551796,1.2559716,-0.5707389,-0.40709385,-1.402707,-1.1935273,-0.6720954,0.7778465,0.92806536,-1.0323031,1.0183297,0.55503476,-0.10189865,-0.010072235,-0.92090154,0.8474467,1.5178802,0.49052638,0.34693548,-0.83795387,-0.8913914,-1.1795427,-0.6698673,-1.7065786,-0.62349117,-0.9163801,0.18039897,0.6756599,0.041405827,-0.26227996,-1.2511561,0.3663345,-0.50592977,0.8457855,0.5466604,0.63708687,0.50527406,1.0813813,0.48408824],[1.9092885,-2.4453113,-0.02885154,-0.30088758,2.01078,1.6264265,0.19016029,-0.5810766,0.19326235,-0.20644933,-0.31600899,0.3989973,-0.40162134,-0.6814749,0.76125133,-0.019225758,0.54351336,-0.51272655,-0.1530946,-0.80426913,-1.9156332,-0.9925861,1.5991839,-0.38970673,-0.6930495,-0.26153275,-1.061512,-1.2385229,-0.69264114,0.13319625,0.4320748,-0.2862245,-0.43364343,1.2241755,-1.199552,-1.6404202,-0.95979273,-2.7587085,-0.6637639,0.44753867,0.7708409,1.4916543,-1.0053023,-0.31039652,0.15007256,-1.1193913,1.8513005,1.5072615,1.4171516,-0.80992717,-2.3607905,-0.7475459,0.21549663,0.13034672,0.34023294,-0.06322633,-1.4918151,-0.23189342,-2.5153136,0.69103634,0.30579025,1.6628948,1.3020675,2.0403662,-0.24230763],[0.16810441,-1.580143,-0.26783693,-1.6730937,-0.03755681,-0.86359346,-0.8878164,0.5090094,2.6192482,0.5054323,-0.856674,0.21605286,0.63149816,-2.1794107,-1.1993864,-0.33741283,1.295129,1.0163937,-1.1308336,1.7901433,1.943621,1.2435914,-0.36791763,0.9449269,-0.0012758904,2.1767225,0.33899269,-0.7711827,0.8346582,2.5198865,0.64810586,0.46163285,-2.9718273,0.29920894,-1.8003519,-0.76379746,1.2100222,0.81072485,-0.3163579,0.5014116,-1.5982242,3.4810486,0.26211587,-0.3361564,0.110188045,0.9524526,0.13341783,0.12189035,-1.0698237,2.5616398,0.007967664,1.4185869,-1.9976906,-0.107035734,-1.1962734,-2.0901313,-2.3010833,-0.3269218,0.81276083,2.3083038,-1.8371783,-0.9241243,-1.4042785,0.6557758,-1.1392403],[-0.5335337,-0.069957115,-0.16208266,-0.84101826,-0.40368277,-0.46281114,-0.77612305,-0.3127218,-0.7051884,-0.7238281,-0.39455932,0.74266064,-0.8556314,-0.92232805,-0.89880306,-0.29096928,-0.8201246,0.959366,0.7213758,0.15222082,-0.6175287,0.69732916,-0.7427868,-0.19446382,0.2815725,0.25342417,-0.95910215,-0.8339217,-0.57240087,-0.25240448,0.05755605,-0.39284536,-0.5035524,0.44880444,0.80171317,0.49375826,-0.7227906,-0.64011306,0.13617405,0.2950163,-0.90418655,-0.80977523,-0.475978,-0.7388747,0.8950522,0.16793178,0.93448335,0.10380455,0.70972484,-0.70221555,-0.30688635,-0.59123474,-0.66833323,-0.24430408,-0.48064557,0.6579271,-0.3350711,-0.2876767,0.40634423,0.47306347,-0.90127945,-0.93827915,0.21093567,0.019415727,-0.16003923],[1.5287274,0.8869129,0.2823877,0.090358876,0.3139943,0.14855416,1.3792502,-0.87579656,1.7220314,-1.0303485,-0.18374443,0.22861554,1.6210692,-0.56502604,-1.784102,0.35442108,-0.69212794,-0.57237434,-2.077237,-0.3920693,-0.19159874,-0.85201955,0.29707804,-0.20008357,-0.8198087,0.6224644,-0.8828056,-2.0437584,-1.1580539,-1.0513215,1.5439595,0.48102212,-0.4986107,2.60356,-2.6450024,-1.0124574,0.6633673,-1.2151018,-0.06131715,-1.3197476,0.22648689,2.6186562,-1.4848033,3.4456697,-0.89974046,-0.0845067,-0.34201473,0.08152161,3.124176,0.6928921,-0.8812696,0.96141255,-0.38051906,-0.35073185,-1.8929149,-2.2458458,1.3391209,1.3474747,0.248044,1.4928887,-0.014545766,0.11476541,0.45238483,0.66085416,1.1775485],[-1.9043047,1.9719284,0.4596376,0.83063793,-0.8221277,-2.4330618,-0.3550921,-1.250764,-0.6940928,2.9050372,2.2403018,0.99338293,-1.4976302,0.26754555,0.20816825,-1.2681818,-0.8022688,1.5194385,1.3453828,-1.0510535,-0.47835773,0.17084697,0.1750733,-0.70860994,-2.2744207,0.8744422,-1.6829263,0.99400157,-0.16524766,-1.8488787,1.830084,-0.4157866,-0.19018266,-1.1970811,-0.28333205,1.439703,1.1939424,0.048742607,2.3328958,0.93418163,1.8262355,1.3253474,-1.4345213,-0.6479434,1.4411134,1.1111201,-0.47799608,-0.43471256,-0.086829424,-0.018880157,-0.028110806,-0.10162161,-2.1968074,0.21999694,1.417142,0.29414323,-0.79066026,-1.364919,-0.046176147,-0.56942505,-0.10469316,-1.8076527,-0.50383806,-0.7382885,-0.35457274],[0.09991429,-1.3003104,-0.94107,0.89170426,0.78184664,-0.29149553,0.75737846,-1.3245732,-1.7124004,0.6982983,-0.3050982,0.34227502,0.41412476,0.19642492,-0.12851006,0.49971694,-0.99611866,0.6140808,-0.6598833,0.059486296,-0.6306982,-0.3958772,0.09307442,0.7139803,-0.04443966,-0.21019113,-1.6661079,-0.32897156,0.54403186,-0.33227038,-1.6253695,-1.3539695,-0.09066671,2.1034362,-0.3770586,-1.0203454,0.474921,1.9413109,0.07775499,-2.779648,1.5151615,0.023312733,1.461312,0.5957731,-0.43018007,2.054156,-0.36764908,-0.45886427,0.5696187,0.34278864,1.6362957,0.19766428,0.41348127,-0.27305225,1.6060228,-0.050874837,-2.3555708,0.17798023,1.4600854,0.75790775,-0.17722088,-0.66127396,1.0381378,1.4371095,0.80803716],[-2.2996418,-0.6683754,-0.29726392,0.6854827,1.0030198,0.8498007,1.0927881,-1.7716213,-0.3083404,0.85449505,1.9092358,1.5913126,-1.9919558,-0.13183615,-0.513474,-0.13926686,-0.7838984,0.8558541,0.56755036,0.9413521,-1.2968107,-2.4264963,-0.29887155,-1.1452034,-1.2361447,-0.040273093,-0.01544846,1.704884,0.6439965,0.5397794,1.0215119,-1.4404174,0.6612963,0.95818543,1.9888223,2.3599389,1.3178126,0.49040884,-0.2859218,0.3330553,0.8595054,0.7917015,0.8306433,-1.2657623,1.9132195,1.8448025,0.74759763,-0.99970835,0.44982347,-1.1427538,-1.051274,-0.47555596,0.8764197,1.2443985,-0.7194614,-0.11231855,-0.748904,-2.1840718,-1.767481,-0.44140118,-0.42659357,-1.3563969,0.5811042,2.94129,-0.97814965],[0.8699114,0.69698983,-0.26790854,-0.100239865,-0.4200612,-0.35126805,-0.17151135,0.8584944,-0.0080931,-0.03410658,0.144767,0.95180494,0.59764826,-0.05968176,0.59175086,0.31539515,0.11999017,0.7164363,-0.7387696,0.7115725,-0.47713256,0.24768467,0.39589036,0.9498567,0.24595024,0.9637792,0.46634692,0.68518746,-0.27257892,-0.03035669,0.65087646,-0.021532502,0.5421263,-0.8254314,0.10753966,0.21813892,0.73361427,-0.67628306,0.37050572,0.5768087,-0.5150832,-0.19478124,0.865012,-0.78451145,0.46167287,0.66591316,-0.68693405,0.5869312,-0.06032178,-0.8884749,-0.68369585,-0.829002,-0.10084714,0.9437523,-0.8074302,0.08650683,-0.66175634,0.11468306,0.27359548,0.5670452,0.95789605,-0.33025914,0.54990387,-0.03147038,0.9139848],[-0.7995143,1.0503839,2.7775176,1.0847254,-1.4768983,0.8928401,-1.9496975,-0.4221225,-3.823997,1.2339642,1.5900471,-0.6829483,2.6912928,2.0410347,0.10376474,-0.07981462,-1.5424892,-0.929744,-0.061738834,0.5197432,1.369205,-0.98321337,1.2261026,2.0660112,-1.0708005,-0.5738846,1.7394588,1.3316376,0.81310374,-0.108240604,-0.42090675,0.11129176,-2.2634418,-0.033326603,1.2997191,0.31648377,0.2712961,-1.019043,0.5526397,0.58981794,-1.1334741,-0.20404139,-2.4647968,-1.2185726,-0.025414072,-1.7096652,0.76875514,-1.0282195,-0.9671568,1.9933022,0.4344684,-0.20324667,-0.7691985,-0.40907875,0.20897213,-0.69877154,2.015225,0.73534137,1.127803,1.3835883,-0.85672694,-0.43212187,1.6028636,1.5444238,-2.1584451],[0.037081126,1.483357,1.3796813,0.6665089,-0.763495,-1.8070012,1.4707779,-2.3303654,1.1116568,-2.4488952,1.3513463,-0.6380751,-2.7780805,-1.136547,-0.8454007,-0.2406327,0.47071847,0.20613459,0.53928095,-0.3818045,1.3342496,-0.6315005,0.34361798,-1.1663581,0.767731,1.2203534,1.5333678,0.11015934,-0.8198801,-2.7443638,-1.4307142,1.8022314,-1.0736091,-0.012682938,-0.26172763,-0.5904619,1.9490813,1.0812136,-1.6887935,0.026773583,3.2018332,-0.18563408,-1.945686,0.7420864,2.6149921,1.2400634,2.62473,0.29988596,-0.083148845,-2.7237186,-1.8580793,-0.80570954,1.6519785,-0.8277452,-3.9108753,-1.567237,2.6622913,0.66005474,1.6255165,-0.6068904,1.8864458,1.7807068,0.8183567,-1.0325078,-1.8333217],[0.45474008,-0.7973917,1.4370373,-0.16369696,-0.03287515,0.5611157,-1.9782003,-0.23810387,-0.8514672,0.70219237,-2.306973,-0.18602966,1.6494145,1.8854128,1.0726675,0.8859517,-1.5122195,-0.6430694,0.4999223,-0.66573,-0.4789763,0.39267552,0.20326257,-0.62638015,-0.39908352,-0.79015976,0.10666535,0.31422633,1.4850199,-1.2995591,2.6602647,0.9195102,-2.1456614,1.4002714,1.7140924,0.17456847,-0.32951874,-1.8013048,-0.41757932,0.59839195,1.7119433,-0.20548023,-0.1558636,-3.840336,-1.5150068,0.6709601,-0.75453764,1.3141763,-1.0454428,2.3004856,1.5051086,-0.6045529,-0.90523237,0.91645974,-0.6904496,1.0342728,-1.6826257,1.2987275,0.5446554,0.373536,-0.51411515,-1.1807249,0.03232817,-1.6482323,-0.90198773],[0.5774344,0.6502805,0.97469777,2.192167,1.4412142,0.80211246,-0.36531675,2.9941776,0.5277053,-1.274729,-0.5537109,-0.5645705,-0.07487981,0.28132197,0.6585788,3.1437466,0.11607505,-1.5587648,-0.5520274,-0.75345325,0.44580582,1.0303967,1.8581375,0.287631,-0.12872095,-1.5405687,-0.857517,-0.003580605,-0.5571638,-1.3208624,-1.421297,0.96870786,-0.93207866,-0.82121164,-2.1147437,0.057217352,0.49203917,0.040197313,-1.4134822,-0.83605736,-1.4025853,-2.5939171,-0.35868216,0.9743595,0.78612965,0.9197719,-1.3907483,-1.8928503,-0.49293235,2.132997,1.0039183,1.8496156,1.864367,-1.9320847,1.6636289,0.58077717,-2.4205768,-3.6704464,-1.2435637,-0.8001472,-0.2496143,-1.3013276,-1.7815495,-1.099254,2.3886456],[0.88565683,-2.1448352,1.0016268,-0.30468073,-2.5950143,-0.9328674,-0.008628778,0.032814175,1.3020201,-0.5745018,-0.3938851,0.55339,-0.5543558,-1.1439601,0.80570054,2.2732687,1.7142764,-2.0701811,-0.6846254,-0.39483082,0.28136486,-0.4870043,-1.8095249,-0.41905448,-1.8704998,-0.53221875,-0.7518527,-1.7410657,0.2547465,-2.0804598,-1.9443976,1.3485861,-2.1503367,1.7961919,1.713392,-0.48851797,0.07503104,-1.6374931,1.6580522,0.35278141,-1.5809336,1.790084,1.0073873,0.5400893,0.71497387,-1.2270695,0.90631044,1.2175426,-1.0143408,-1.5479207,-3.0428407,1.3738971,-0.38422248,0.24371952,3.071036,0.88298756,1.7576895,2.4976144,2.4599621,1.1909091,0.34913722,0.49367473,0.33899733,-1.3496773,-0.36462697],[0.31859067,0.5857024,1.0294145,-0.6859353,-1.2174911,0.45803928,0.9664452,1.1112893,-1.4066135,0.7723715,0.3806229,0.828299,0.8322687,1.5609704,0.9374511,-0.66274095,-1.6291188,-2.3257875,-1.0707004,-0.95600504,0.47980818,1.4428539,-1.7829175,-0.36111248,-2.5479138,-1.4084282,1.195863,0.61437815,0.34824502,-0.72702277,-0.6240683,0.21347773,0.12957889,-1.4547102,0.7868138,1.5683355,1.3290353,-0.5062611,-0.9100235,-0.21471636,1.2775717,0.21366757,-0.20446388,1.2995301,1.5025325,-1.1313572,0.8728846,-2.0038135,1.7109762,-1.5920734,-0.45898798,-0.92854977,-0.00029555403,-1.0449783,1.4084853,-0.701638,-0.66994387,-0.4401979,-0.514814,-0.8475259,0.2615744,-0.37173426,0.8557472,-0.31343868,-0.711793],[0.09044294,0.6137361,-1.390414,-0.5329071,0.9350344,-0.92722744,0.19286874,0.64912045,1.2009171,-0.44051012,-2.3596027,-1.858895,-0.36582568,0.81515384,0.9138322,0.9598603,2.7799146,-0.95636743,-1.2716228,-1.3095167,-0.3854672,-0.044733815,0.55370206,0.06599564,0.35699496,-0.9218169,-0.18576442,-1.0897236,0.29480165,-0.19726011,-0.1000725,1.4302162,-1.1099162,-0.31957266,-0.36253944,-0.18900475,-1.4498193,-0.85654724,-0.29737106,-0.042215623,0.6776513,-0.62154555,-0.809495,0.6109565,-0.25719315,-0.24014397,0.35455725,-0.29683602,-0.10058364,0.91086346,0.55511606,1.1375128,-0.07611925,-0.08076875,0.40515202,1.5727825,-1.7665364,0.016850488,-0.14308572,0.30082777,-1.2915496,0.042933274,0.847886,0.10576767,-0.7905926],[0.4553113,1.0091861,-0.31515014,0.47242022,-0.85719264,0.26913708,-0.28219378,-0.2634241,1.4923594,0.9691661,-0.017443692,-1.4010015,0.26432526,-0.087202705,-0.41982812,0.52564317,-0.45064506,0.16132292,-0.588448,0.020450847,1.1408058,0.8744459,0.65854895,1.2408142,-1.0234096,-0.02719673,1.2406372,0.7493774,-0.565934,-0.3341226,-0.15169917,-0.8980904,-0.48014623,-0.33527204,-0.008451407,-0.6118062,-0.13920088,1.1659619,1.5046613,0.7012916,0.660975,0.7656802,0.9372494,-0.22351949,0.23087272,-0.012049448,-0.2759552,0.5474217,-0.5697405,0.30718195,-0.37484294,0.057912648,0.48048368,-0.66896755,0.34138766,-0.54450643,-0.07118592,-0.42300692,-0.023073435,-1.210813,-1.124049,-0.098602235,-0.39670354,-1.3569211,0.09622318],[0.7874639,0.34266564,-1.0187658,-0.35064122,0.70560133,1.010956,1.7413864,1.6172012,1.7009984,-0.34912038,-1.153583,-1.273375,-1.3184983,-0.2320546,-0.71762633,0.6568486,0.6492363,-0.28904155,0.06372944,-0.93085337,-0.6796935,-0.94465196,-0.7966673,0.21503797,1.5977479,0.6159084,-1.071933,-0.12691654,-1.2336186,-0.3230742,1.1922256,0.6310824,-1.0956658,-1.5820931,-0.6396039,-0.91623694,0.47289696,-1.309705,-0.45892155,0.14430237,-0.6529855,-0.3274097,-0.8239566,1.168886,-0.96556896,0.4617945,-0.83635193,-0.1874415,-0.41550252,1.0882849,1.1722988,0.09902232,0.4455631,-0.22420998,-0.7420979,-0.5922017,-1.594057,0.6563451,0.5292324,-0.96607655,0.34176752,-0.82347864,-0.17156109,0.8257777,-0.98918575],[0.8898716,-1.4092382,-0.2111575,0.77152747,1.329845,-0.44176996,-0.3795918,-1.2599592,0.8303088,0.0071893693,0.8658728,-0.21186882,0.9587484,0.8442149,-1.2889124,-0.16806087,3.6240976,-0.6288907,-1.6075659,-1.3399498,-0.32855812,-0.5072131,0.97379607,-0.01373047,1.2275027,-1.0890372,0.7612136,-1.546205,0.22546703,2.1072745,1.0170057,0.54797107,1.4001462,-0.1746464,0.5602014,-2.098981,-2.6479464,-0.5211366,0.34367207,-0.5661426,0.066684924,-0.4821474,0.2513488,-1.3522459,0.35311338,-1.7201226,-0.1596986,-1.2910486,0.55081123,1.147159,-0.9172235,-1.5555141,1.551158,-0.72772086,1.1980249,1.0192122,-2.87243,1.8408772,2.0374916,1.0349387,1.1820815,-0.614614,-0.6752345,-0.45690694,0.8319737],[1.265873,1.8430252,0.09911312,-0.3669511,-0.17194502,0.43537477,0.97714484,1.2140633,1.5840528,-2.294594,-1.0389938,0.3992498,-0.21003692,1.389701,0.15400845,0.7554644,1.0154645,-0.4904206,-0.04202938,-0.99700326,-0.7014668,-0.09080978,1.8212408,-0.7222142,-2.8994765,1.1285138,-1.1728269,-0.6259946,0.47782356,1.5704253,2.5937884,1.8961622,-0.3613982,2.733606,0.38535893,1.2640716,-0.6831078,1.378172,1.1616051,-0.048347924,-1.1653901,-0.082899876,0.57202804,1.6756562,-1.2784163,1.0986004,-0.24534838,0.18618831,-3.8186455,-1.866206,-1.3234388,-0.75760865,0.8173898,-0.4963588,-1.2784926,-1.9071895,-1.058038,-0.080403365,1.3433784,-1.0145795,2.1650379,0.24362344,-2.3799427,-0.6395496,-3.2535045],[-1.4040877,1.5854723,0.66812897,0.063244976,0.41664273,-0.2555721,-0.77229214,-0.0019626464,-0.88862216,1.0691322,0.6149183,-0.7360232,0.42334855,0.6246765,0.35315174,1.6767616,0.49538603,0.7110563,-0.41305315,-0.066479675,-1.1882776,-0.58334833,1.7276032,-0.4908919,0.4751724,1.2381122,0.6857293,-0.7842204,-1.0727977,0.39826885,1.311381,0.08618041,-0.5599002,-0.5762201,-0.17744738,-0.293281,-0.55320877,-0.23439513,0.40555176,-0.49273086,-0.22102442,-0.18071125,-0.82008344,-0.49952084,-0.15514737,0.45269322,-0.2999533,-1.006747,-0.78869134,-0.20326696,-1.0737014,-0.53901696,-1.6780868,-1.1214403,-1.551878,-0.22419596,-0.7513404,0.934976,-0.49942553,0.42682382,0.11138558,0.8251259,0.84004295,1.1342081,-1.3673204],[-1.3649001,-0.02167422,1.053215,1.5256615,1.4201275,0.5010563,-0.15591796,0.15710297,-2.525548,2.8931324,1.8038135,1.2631952,0.2285271,-1.3071998,0.15707298,-2.3906648,-1.7071859,0.9345179,-1.7534715,1.83676,0.8094855,2.547398,0.40830767,-0.094586864,2.7883203,0.52230775,-1.9058939,-0.5973888,0.06851033,0.29044363,0.23550841,0.8816625,2.1470993,0.21597081,1.6225146,-1.299743,-1.1933634,-1.7973813,1.2874196,-2.514683,-3.0618117,0.6190315,1.9712039,-1.8000737,-1.6343894,-3.1646109,0.9362894,-1.1353103,-0.8103457,0.66086245,-0.27576026,-3.6106331,1.0626353,0.0536907,-0.23950832,-1.5344046,0.7051619,0.43849304,0.5961718,0.55362177,1.8762246,1.4213084,1.2596977,-3.0368562,0.39985272],[1.8254402,-0.2824841,-0.53587097,0.71583706,-0.91777277,1.0545506,0.8983421,0.43050337,-0.7471248,-1.1471542,-1.0210998,1.1612985,-1.3242621,-0.12395802,-0.5704842,-0.32292992,0.7903085,0.7569825,0.36102876,1.166179,-0.9806421,-0.21611749,-0.87400883,-0.508072,-0.010406302,0.35951084,0.81280017,-0.60280323,-1.04133,0.7054523,-0.920513,0.8312738,0.5330914,-0.4094747,-0.6016096,0.8277157,-0.26381916,-0.27414346,0.67770886,0.7853133,0.9497597,-0.22894336,-0.4498105,-0.32742393,-0.50763226,-1.1434424,0.2625217,-0.90893376,0.04514818,-0.2047775,-0.47472933,1.5478333,-0.95336765,-1.0571414,-0.14408791,-1.1404371,-1.1972877,-1.0165365,0.049766596,2.3499348,-1.070475,-1.3117349,-0.20621113,0.35834327,-1.2843845],[1.380542,-4.5156593,-1.3575164,0.36372113,0.27423283,0.26639658,0.36283535,1.8684237,-0.29452738,-2.1127326,1.4093256,1.6359931,0.051776357,-0.03685729,0.5277917,2.0538418,0.3632669,-0.12689808,1.2102903,1.2881557,0.2235765,-3.2586358,-1.225282,1.3405946,-1.1202149,-1.4434904,-1.1586521,0.82163453,2.3265765,-0.051343996,0.69697565,2.4961429,-1.4770209,-0.83208376,-1.0027452,0.88351446,1.1420239,-2.5635078,-1.8253282,-0.11954645,-1.962548,-1.0180106,-1.5540452,1.8991292,2.9829655,0.6688958,-0.608011,0.8443583,-2.3357759,1.7540457,1.1853048,1.0740683,2.5615294,-1.4027483,-1.9260604,-1.4026284,-0.5082704,0.793578,-0.50105125,-0.6711763,-0.89763445,-0.95931464,-1.4404871,-0.3058085,0.92644763],[1.6936446,-0.64665735,1.28014,-0.48985702,0.48790097,0.33524877,-1.4299735,-2.0268662,-1.9758868,1.252541,-0.6058666,-1.6343029,0.47856018,-0.3179493,-1.3044797,-1.4492117,-0.80465394,1.0718755,-1.2388432,-0.4706486,2.0586414,0.42503092,-1.715865,-0.6275127,0.6196301,1.3663797,-0.1265341,0.25670505,1.1709994,-0.2914849,-0.8522385,-2.261552,1.964897,1.7157556,1.1160759,-0.62409914,-0.80921084,-0.7887807,-0.29260054,1.8446008,1.5328723,-1.0294851,1.5054356,-0.0381555,0.86960155,-1.3061504,1.0250709,2.2358668,-1.313381,0.3456262,0.8307627,2.0505893,0.77734375,0.72962856,1.3374531,2.2163084,-1.3426349,-2.1396842,0.57351524,-1.0118854,0.19017138,0.9606307,-0.24815181,0.8178406,-2.167405],[0.22931528,-0.03722858,1.4180659,0.011841185,0.2817239,0.06903142,-0.21748607,-0.73370665,0.008191112,1.342958,-0.39535248,0.6565843,-1.5746887,-1.0489748,0.40427217,-1.2823108,1.2426053,-0.43887094,-0.060328748,1.2231704,-3.0947235,-1.7193922,1.8470145,0.3220866,0.60566545,1.4523323,1.1200073,2.1852703,0.3995112,0.8659978,-0.055800986,1.3472986,1.1893445,-1.4410194,-2.06161,1.5801965,-2.0326355,-0.31943193,1.6222833,1.7306982,0.89316475,0.23825741,-0.99721324,1.6971456,-1.4805102,0.4840381,-0.6946331,-1.5830986,1.244412,-0.7547329,2.1847205,-0.17638478,-0.25976786,-1.0257384,3.336,0.99832296,1.622539,0.98635983,-0.5115113,-2.7030425,-2.0771813,-0.7602015,-0.6354348,-2.8721426,-1.4488341],[-0.033525687,0.89966226,0.5828955,0.64698887,-0.78112584,-0.7479942,-0.34540123,-0.9002037,0.8113893,0.31731328,0.4842469,0.08802093,-0.9953573,0.17752296,-0.3350312,-0.082619585,-0.40180257,-0.5013331,-0.1491602,0.2023683,-0.85666496,-0.46527234,-0.23132609,-0.18331261,0.87264264,-1.0404407,-0.9401742,-0.47495225,-0.21003996,-0.21794291,0.12583515,-0.035054103,1.0169442,-0.5080594,0.46001148,0.32730156,-0.7524657,-1.0007714,0.7758265,0.049649294,0.18427998,0.68800116,-0.07326797,-0.49833024,-0.27255592,0.12452172,0.088387184,-0.691115,-0.7616917,-0.48822132,-0.38073874,-0.11195244,-0.20318474,-0.07163242,0.9018281,0.5575256,0.7255181,-0.15961045,-0.835329,0.97123396,-0.3046458,-0.2853192,-0.40442905,-0.66244304,0.06492665],[-1.4820188,1.6243352,-0.9062743,-1.1614797,-1.0992275,-2.3484664,-1.5945106,0.88500845,1.1411573,-0.8654041,-1.1843241,-0.33728024,0.3486827,0.2738549,2.6972554,-0.55230904,-1.0464232,-0.41532934,0.84125775,0.41578183,-0.21437296,-2.949977,-1.0620832,0.6393144,0.6982858,-0.38096407,1.7648201,-0.1470482,-0.47011515,0.43815055,1.4162033,0.25234848,2.1939025,0.71815616,0.82261246,1.8116504,3.157594,0.80748993,1.3265784,0.76007974,-2.5427322,-1.3477893,0.98046815,-1.8438421,-0.58768195,0.41642284,-1.2504706,0.79161537,0.853501,0.29919598,2.5816793,3.6224208,-0.19234173,-0.5776492,-1.3226745,1.5570631,0.9574029,-0.18477698,0.92368674,1.0418127,-0.15814057,-1.1592299,-2.5103006,-0.90902966,-1.5483052],[-0.22479877,2.7701838,2.2630403,2.3185081,1.1399227,0.2272122,0.8057166,1.3659325,1.5449684,-0.29472232,1.0671068,0.59775156,0.16468976,-0.81189585,-0.18128915,-0.5033734,1.2505922,-2.3510451,0.9143518,-0.28807598,-0.115740374,-1.6454045,-1.0936596,-0.7393744,-1.1192347,-1.7433044,0.5065597,-0.7678959,-0.45593747,1.1894178,3.9172764,0.8345609,-1.1269892,-1.4946457,-1.1859753,0.9791561,-1.3784146,-0.9213314,0.5037934,-1.4858392,-2.5772402,-2.2196696,-0.81302595,0.6447611,2.5475392,1.7325122,-1.3034451,1.9757352,-0.64787793,0.35455602,0.0074782283,0.28106907,1.039914,-0.67503566,0.27475888,2.4430878,-0.099166796,-0.5114818,1.1575338,-0.46391663,-3.2307105,-0.5206812,-1.6417204,-1.0321685,0.5154471],[0.11514367,-0.8907813,1.0675987,-0.00029937853,-0.17038544,0.8125916,1.3622563,0.22951755,-0.422347,0.2724534,0.14081283,0.19884723,-0.32306677,1.2516612,1.070848,-1.4772676,-1.57148,-0.16072008,0.8472871,0.8858941,0.49229893,0.47338918,-0.5498033,0.7074476,-2.242376,-1.3468206,0.819721,0.008526386,0.26654267,-0.07757799,-1.3835992,-0.8256063,-0.5777746,0.51616424,0.04648179,-1.5305423,-0.17850174,1.0236045,-0.09627545,-0.6483285,-0.70675504,1.9037238,2.518752,1.4136965,1.4005796,1.0493946,0.71441674,0.8563719,-1.2851319,0.022701355,1.3794628,2.0198407,1.1865046,1.5012276,1.2430458,0.15913472,-1.2376935,-2.194251,-0.70612574,0.15910868,0.8785518,-1.5554785,0.1910019,-1.1071519,-1.7772098],[-0.048957422,-0.8102832,-1.0942653,-0.5079842,0.006814776,0.59885347,1.3653227,-0.6607662,0.414509,0.30065206,-1.5820808,0.50810784,1.2098615,1.5921644,1.0534348,-1.1945058,0.98285943,0.01598368,0.052561216,-0.7104625,1.1668407,0.8346572,1.4703181,-1.091872,-0.32472187,-0.003483729,0.04706758,-0.8490175,1.6235746,-1.2264583,1.0773147,0.10056156,1.1196809,0.24909681,0.61292136,-0.8083365,0.20003366,-0.017349916,-0.051255576,0.5202031,-1.3797145,-1.1518753,0.39888778,-0.68474144,0.42186478,0.35634205,1.1380541,1.7100922,-1.6819385,-1.1923921,-0.8063845,1.3885769,-1.9647566,-0.9128417,1.113787,1.7995886,-0.42114004,-1.2175686,-0.1882825,0.16961235,0.46581826,-0.37558132,0.6642428,0.028181605,-1.1015801],[-2.26687,0.5927047,-0.9307219,0.26425555,1.1180497,1.4772724,1.2687569,-0.25276995,-0.16980852,-0.02973879,-0.21354432,0.8221489,0.6142253,0.5725796,1.4363669,-0.31111097,1.0367115,0.5257008,0.6135338,1.7057196,1.1307995,1.3226614,0.8104697,-0.611946,-1.2767665,-0.29379186,0.2826177,-0.5708393,1.776127,0.4098355,-1.3253042,0.54569995,0.7036514,-0.6616943,-0.017992679,0.13393165,1.0341785,0.15815404,0.12086839,-1.041402,-0.17932504,-0.4127554,1.5083928,0.28877205,1.1017303,-0.87325805,-0.74719983,0.7536229,-1.9579415,-0.38757494,-1.1284504,-1.142515,-0.24453087,0.56579745,0.6139107,-0.9089287,-1.0533963,0.18680581,-0.62034893,-0.18804769,0.32211292,0.20963524,1.2213386,-1.4974368,0.37275603],[-1.0101582,-0.61147636,-0.45137313,0.17747706,-1.0163426,-0.19657516,-0.31885895,-0.62066954,0.26802662,1.0938601,0.0065362765,-1.0254049,-0.11974844,0.96754515,1.0147102,-0.58352536,1.2512481,-0.11322605,0.6416736,0.039826743,-1.0399019,0.7055945,0.2360411,-0.3989642,-0.04864614,1.539001,0.921675,0.8489368,0.20527348,-0.06994293,-0.7807711,0.0011588231,-0.89875275,-0.66504365,-0.59076047,-0.4030848,0.4261664,-1.1306349,0.42816314,0.67998767,0.59360963,0.26443544,0.8733154,-0.12891696,1.0967354,0.45417318,-0.28694907,0.2472586,-0.31609824,0.039034143,-0.4713343,-0.53124684,-0.06769855,0.25805458,0.5161967,0.7290014,0.5874018,-0.2657985,0.26967445,-0.28302702,0.6003096,0.82928056,-0.5574259,0.48335996,-0.5819115],[-3.042634,3.357021,1.5912081,-0.66445935,-2.7743137,-1.452739,0.62401366,1.3553228,4.184637,0.13986543,0.037213095,1.3376914,-1.1156765,-1.1177646,0.45320192,0.42590544,0.05352446,0.42681384,-0.66840374,0.9609626,0.36707473,2.6483889,-0.61051977,-1.2915168,-0.58232856,-2.9243925,-1.8373743,-0.85919887,-0.026510451,-1.0207344,0.16102193,-0.4211045,0.52269334,-0.9536507,-0.008758763,0.020986237,1.1292268,1.5522424,0.46077168,-1.2251312,2.6576648,0.9187499,0.6808163,1.4917728,1.3728068,0.7602545,-0.943537,-1.8336653,1.8017386,1.7310249,-0.7686798,-0.9720056,-1.7466081,-1.1036149,-0.15992641,-2.152086,1.1552505,0.34466588,1.0295548,0.62762856,0.07855575,1.3991834,0.52181077,-0.77367437,-0.78844666],[0.079144455,-0.92720455,1.4182545,-1.4422759,-0.32052037,-0.4711578,-1.8973674,0.67289984,-0.287709,0.66622376,0.1667025,-0.69678706,-0.82306,-0.7861751,0.16933091,-0.34763157,-0.14310686,0.823353,1.247654,-1.1248854,-1.7337044,-1.1053832,0.87424856,-0.45460048,0.2621552,-0.3715439,-0.17698105,-0.17610087,-1.8940663,-0.7603284,-0.9907533,-0.4622931,0.26738638,-0.4613066,-1.3504806,1.4570532,1.4657024,1.6552116,1.0449991,1.2286534,-1.1331174,-0.12988809,-0.77071655,1.3190929,-0.24830922,2.1210582,0.9747345,-0.7170128,-0.937031,0.67894006,0.79284513,-0.109339304,-0.08313283,2.1133826,2.5854661,-0.40491953,-0.34915817,2.0647857,-1.8041126,-0.6672802,0.87245715,-1.6663896,-0.66499877,-2.0603485,-0.028157897],[1.9495512,-0.85195136,0.14927223,-0.49688613,0.35258162,-1.5243813,-0.2204576,1.0831825,1.7782458,-0.08184494,-0.67563725,-0.40651453,0.18692377,-1.0858704,-0.873158,1.1028032,1.1882069,-0.7258345,-0.47060984,-1.3352125,-0.7171906,-0.8433032,-0.07779796,1.2239255,-0.27135798,-0.35252964,-0.6733375,-0.25020596,-0.3143736,0.38039786,-0.05275398,0.69361925,-0.8609992,-0.119695775,0.2662641,-0.2970013,-0.6846076,-1.1721843,0.03921902,0.37433246,0.063367754,0.7547204,-0.5860855,0.14637214,-0.038655367,-1.1858623,-0.0875888,0.78150785,0.90398693,-1.1199894,-0.878028,-0.09401098,-0.5479306,-1.3610979,-0.5581537,0.8643538,-0.35886243,-0.4612137,-0.2020667,-0.89539886,-0.8747605,0.46768904,-0.16650097,0.12680028,1.2616804],[-0.15097524,-0.19733167,-0.14155112,0.61919916,-0.57372403,-0.4155188,-0.38723394,0.19372998,-0.7221841,0.6408073,0.8101373,0.9236624,0.8282994,-0.73163986,0.794976,0.24443851,-0.76302177,0.8060714,1.112351,-0.7136359,-0.09463629,-0.49405876,-0.8437183,-0.28699112,0.026315557,0.13833876,-0.73640484,-0.5672692,0.95875984,-0.18673928,0.115346424,0.8851756,-0.92135906,-0.9686141,-0.36442602,0.78902066,-0.97691876,-0.139351,-1.0493165,0.35358867,-0.77451015,-0.22943482,-0.7389277,-0.7630183,-0.7465258,-0.6152481,0.5348244,-0.8335913,-0.6763197,0.7218209,0.38286802,-0.46627745,0.98556817,-0.57395387,-0.2524852,-0.8157432,-0.71013176,0.29965255,-0.7502245,-0.37492678,-0.8838674,0.32464933,-0.08978799,0.099421985,0.9480635],[-0.08409006,-0.9490216,-0.93161,-0.53272605,-1.7570497,-1.2835051,-0.40624866,0.80029154,-1.1712822,0.6757083,-1.2348092,1.3540462,1.0249635,-2.2515824,-0.91207767,0.12838477,-0.83879423,-0.55853003,-0.69652486,0.44796443,-0.13934688,1.4870245,1.8547126,-0.004737501,-0.833991,-0.5622136,-0.60011613,-0.17784792,-1.3122475,-0.24685057,0.33188727,1.0002255,-1.8628051,-0.06820261,1.1580507,0.36731964,0.18311729,2.2726164,2.3070626,-0.25955474,-2.2997658,0.7567853,2.6910748,1.3255558,0.78577423,0.095290944,1.4707332,0.4342085,1.5868702,0.5784297,1.4230553,0.18775348,-0.17860684,-1.4605455,-0.20570539,-0.007608882,-0.9671585,-1.2828554,0.2940183,-1.4891347,0.20764811,-1.3845463,-0.24960929,-0.72314286,-1.1009742],[0.01595259,0.07271072,0.36827585,0.49686766,0.8804926,-0.2700396,-0.03319922,0.9413313,-0.96064353,0.86704475,0.58795613,0.43551797,-0.40943375,-0.1208264,0.697494,0.35385144,-0.683306,0.09838414,1.0535755,-0.72580975,-0.062184013,0.43408534,-0.8061252,-1.108816,-0.5860587,1.0337949,-0.240987,-0.17619318,-0.9891381,0.22089474,0.9388762,-1.1687622,0.30323824,0.29061776,-0.42573884,-0.79487115,0.5258282,-0.7426363,-0.3861111,-1.0306731,-0.3842867,-0.48815995,-0.45109755,-0.7126485,-0.664228,-1.4009715,-0.9491484,0.31422994,0.08923881,0.84004766,0.69200575,0.661009,0.30096605,0.56480604,-1.5665193,-0.6639715,0.98992246,-0.9735794,0.87445813,0.47480085,-0.025957067,-0.1419842,0.0971372,0.38998163,-0.95614564],[-0.61889094,0.2406929,-0.39636153,0.84387726,-0.910902,0.78220314,-0.11033921,-0.8363012,-0.55547607,-0.4649006,0.50903744,-0.88334185,-0.70276135,-0.8823333,0.33918855,0.4412277,-0.9268498,-0.4100431,-0.6189555,0.13549763,-0.95570636,-0.32249025,-0.5231712,-0.13166694,0.3703499,-0.39688924,-0.3717612,-0.2271608,0.509962,-0.6231681,0.8627899,0.16010371,-0.5836756,-0.82920253,-0.3647488,0.6030203,0.040390056,-0.76076734,-0.7162336,-0.2559179,-0.6076787,0.35720444,0.6018023,0.09911688,-0.13467205,-0.070916474,0.12260637,0.8414874,0.45711222,0.07443053,-0.869689,-0.57423335,0.07265816,-0.6790045,0.32698745,0.07169703,-0.2111578,-0.5584177,0.8522787,0.6048084,-0.7932414,0.15068471,0.00061140175,-0.57776725,-0.9708527],[0.9023535,-1.0047932,-0.43611518,-0.23166512,-0.14461909,0.5013537,-0.3274444,-0.17596266,-0.26141164,-0.6156823,-1.6380175,0.49040443,-0.7049148,-0.73666865,1.9586009,2.403664,-0.22643635,-0.3865155,-1.4176637,-0.1163303,1.7087014,0.92750657,0.51449436,-0.06890649,0.030878609,0.97732973,-1.5629442,-1.0546223,1.4645897,2.2960038,1.009424,-0.71778774,2.3731332,-0.30315214,-2.2068188,-0.46998274,-1.6425629,-0.7120626,0.869709,0.2294402,0.84524614,0.5466659,0.6063774,0.09688651,-1.4323957,-0.8842416,1.638604,-2.1113563,0.16929795,-0.84928524,0.70649433,-0.3328474,-0.49844763,1.260346,1.650766,-2.4660978,1.1523271,-0.39944586,-0.5640598,-0.48709878,0.054707628,-1.3446541,-0.7560809,-0.3623286,2.6547263],[1.7038296,-1.01194,3.1245637,-0.21370058,0.13781361,1.7402431,1.348699,0.17133564,1.4910545,-1.0603831,-0.9981704,-0.46604583,-1.9909396,-2.2784512,-0.8038614,-0.2864664,-2.2120578,-0.66770184,-1.1727186,1.3820176,-1.0659174,0.3668832,4.040372,0.91246074,-1.2775515,-1.9977536,1.3407431,1.2274516,0.9365701,1.5208058,0.70146435,-0.16447914,-1.0395366,-1.7303065,-0.16123348,-1.2402533,-0.93242353,-1.6182585,-1.289426,1.7612419,0.85625744,-0.20470184,2.2735863,2.0079694,-0.772565,-2.0622115,0.5176617,-1.819984,1.1355404,0.77172834,-0.72125983,1.508738,0.02777615,1.7518733,-2.17988,-3.2558722,-2.1569474,1.7691633,-0.53962356,1.2222657,-0.15745366,0.95676523,0.09387544,-2.100397,-1.6314821],[1.4682318,1.2467262,0.88571346,-0.22028449,-0.5716813,0.4407284,0.76527166,1.0839527,1.7496723,0.53243434,-0.7033318,0.4618989,-0.9655398,0.064874925,-0.038367726,-1.0426239,-0.37257347,-0.38732398,1.0527554,0.58921933,-1.6658133,-1.4547384,0.2263682,0.53587735,-0.6374428,-0.874755,1.169245,0.5144282,-0.8348797,1.2375035,1.3566734,0.40494248,-0.8717131,0.47656152,-0.9951278,0.9548241,0.41211617,0.45582223,0.71964717,-0.03648377,-0.5686758,-0.223892,-2.1822536,-0.3769259,-1.1619973,0.8061234,0.089006566,-0.052959725,-0.7886137,-0.20716792,-1.6228266,-0.62968755,-0.5061935,-1.2169688,1.6887931,0.2562891,1.8486087,0.07610518,0.1409716,0.39879733,-0.9816014,-0.96775526,-0.12117703,0.09893546,0.29302683],[-2.71613,-0.39476457,-0.04613167,-1.8028917,0.36457357,-0.7060597,1.056395,1.3998802,1.9447776,0.12219004,-0.65325505,-1.2716024,0.118999764,1.6709204,-0.5217259,0.7047949,0.31927395,0.032933246,0.79522645,-0.007884058,0.5879661,0.9624463,0.55899155,2.0990977,-1.274919,0.7250224,-0.7522264,-0.4770048,1.5249307,0.19607098,-1.4467882,-1.6204461,0.044357684,0.99049973,1.8656693,-1.4458447,0.9068607,1.4263043,-0.003916508,-0.33098355,2.3566086,-0.68081117,-2.597056,-2.344492,-0.24876659,-0.9215176,0.36128163,-0.20338956,1.3090787,0.9065946,-0.07525667,-0.32396263,-0.50758886,-0.61878073,1.6063548,-0.3494388,-0.20182703,1.2554182,-0.15863636,1.6443934,1.1581266,-0.3839947,0.44500646,-0.1799088,-0.29824686],[-0.8291838,0.19822152,-0.031383883,0.8567441,-0.562945,0.09285961,0.28849313,-0.31554484,-0.48009235,-0.14594534,-0.5881484,-0.09930688,-0.5667322,-0.04335166,-1.0041255,-0.6556536,-0.74689,-0.26463315,-0.11763698,0.12821503,-0.77338254,-0.98360807,0.41293737,0.27019152,0.09155543,0.4726742,-0.99929726,-0.1854759,0.33067217,0.34249726,-0.19265337,0.42424875,-0.37718803,-0.01084252,-0.87830657,-0.81555426,-0.44139245,-0.18506347,-1.0098921,-0.22321412,0.7979714,0.16705486,-0.12981254,0.1574592,0.42127308,-0.62985015,-0.89227796,0.2719562,0.79583675,0.34687182,-0.7337006,-0.7108083,-0.9910148,-0.5902415,-0.8821445,-0.060254276,0.49060604,0.89478445,0.545468,-0.1328377,0.9063578,-0.62200403,-0.6951606,0.23947886,0.32531044],[0.79621154,0.6088745,-0.4768042,-0.28329638,0.12917739,-0.10354318,-0.17065819,-0.15779594,0.78174824,-0.62432754,-0.16578588,0.52024686,-0.027265053,0.88665336,-0.8038429,0.85926527,0.27975214,0.68243563,0.032138463,-0.56578416,-0.29569635,-0.028326223,-0.30651242,0.29723924,0.60706604,0.3131523,0.7598377,-0.020150054,-0.34207925,-0.48842445,0.4590708,-0.37731746,0.9582514,-0.52188265,0.43181807,-0.019388452,-0.052194864,0.45587823,0.35778254,0.4254787,0.4493733,-0.01958776,0.3876929,0.76446384,0.09051321,-0.062483627,-0.45955515,-0.19225724,0.77496713,0.78057253,0.095263645,0.2241769,-0.108591184,-0.21720314,0.34882423,-0.41412085,-0.074242756,1.0472597,0.38485003,-0.048614323,0.15559126,0.46064264,-1.0265205,-0.6553174,0.796117],[-0.6753496,-2.2385545,-1.5183046,-1.4160273,0.39494738,0.3316676,-0.932314,-1.4359958,-0.8504361,-1.6802396,0.08055932,-0.011689589,-0.87834656,0.20538646,1.3200068,1.3047398,0.8498051,1.0752106,-0.26355866,-0.94567436,-1.1630837,-0.043817442,0.32909635,0.5850955,-1.216414,1.6424191,-0.6794455,1.678606,1.2699999,2.1976469,0.9807128,0.21829875,2.7503238,1.1572291,-0.8448866,-0.62229794,1.2311509,-2.853704,-1.2356929,1.7105336,-1.8712524,1.3764497,-1.8759128,-0.43440175,0.9325636,-0.88207847,1.5481204,0.65888315,-3.017834,-2.4657047,1.361901,2.8150587,1.2186935,1.1977813,-0.25047842,-0.3985842,0.07111069,1.4788805,2.8949916,-0.9539521,2.273452,2.462603,-0.63333285,0.09332821,-0.72710854],[1.2702229,0.94884664,1.3211849,0.5059006,-0.3337801,-0.30610415,0.7735386,-1.1651146,-1.172208,1.2876496,-0.57993907,-1.8747563,-0.14763469,1.7568588,-0.29369223,0.86937076,1.2058706,-0.5720918,-0.5515502,-1.4631059,-0.80502063,-2.0469587,-1.3758906,0.08234784,-0.5993755,0.8603253,0.30328876,1.1539994,2.4073071,1.2852973,0.78030205,-1.8700697,-0.26122764,-0.47973335,-0.39719233,-0.18796936,-0.18688431,-1.7211242,1.7261981,-0.43612206,-0.87815726,-1.0433512,0.9795082,0.65925986,-0.7258832,0.5153652,1.4968855,1.1494573,-1.4374093,-0.19333656,-0.39343625,1.5945929,-2.438109,0.064744726,0.045642,0.101923145,-0.36487418,1.5260125,0.6422253,-1.0924475,0.6073744,1.0591677,-1.0003825,-0.8285855,-0.058016367],[0.48272997,-0.3367539,-0.818293,0.022782395,-0.3793136,-1.4348104,0.4078192,1.1841727,-0.22639267,0.17917104,-0.632841,1.1154928,-1.6997637,-2.5429876,0.1183057,0.76171213,1.6726199,-0.22271295,-0.8158506,0.048798427,-1.2703289,-1.4038229,1.4388907,2.5732055,2.622047,-1.0046693,-2.9993794,0.17493704,1.1313679,0.48651513,0.12728204,-1.851129,1.5201933,0.3429529,1.1197132,-1.7898502,0.86147016,1.3495536,-0.19420955,-0.39246464,1.8889335,1.4593407,-1.4323269,3.0100021,1.0170287,1.1818507,0.056976486,-0.6221873,-0.97967273,-0.5316229,-2.056991,0.7842061,1.8495305,-0.8903536,-0.85573846,0.22135974,1.9028907,-0.08149245,-0.64069414,0.14131394,0.23977453,-2.244399,-0.7358877,1.0340542,0.14832479],[0.8878354,0.9411685,0.7334304,0.66991836,-0.12985334,-0.15720527,0.38368648,0.88054675,0.42116874,-0.80652684,0.18765347,0.3675941,-0.22917998,0.4590094,-0.09905896,-0.7474412,0.9422402,0.027994227,0.03176127,-0.016346242,-0.7181205,0.08131715,-0.48688745,0.26127073,0.45075402,1.0102993,-0.7329123,0.12322639,0.9092616,-0.134285,-0.28813267,0.13728859,0.7859704,-0.38927492,0.72650987,0.4573349,0.8027256,0.66580224,-0.637725,-0.23959136,0.74967116,0.67670083,-0.05759952,-0.5052823,-0.08508144,0.43061858,-0.3647289,0.5841812,-0.49516913,-0.06565407,0.1118213,0.7247954,0.35530543,-0.014372971,-0.09736802,0.59773684,-0.1569036,-0.03950274,0.03759504,-0.00005521226,0.9612804,-0.6983894,-0.6226511,0.5693867,-0.6729823],[0.19386446,-0.46587035,-0.24410078,-0.74983335,-0.05683418,-0.8601686,0.87460965,-0.33100817,-0.9478906,-0.1296599,-0.34728315,0.42588067,-0.9264075,0.77895194,-0.93062973,0.74240977,-0.60865885,-0.16522278,-0.63587445,0.91102374,0.86317736,-0.7470178,-0.07968403,-0.7841147,0.36724573,0.006418093,0.91939,-0.8475905,-0.07740762,0.1556874,-0.47783908,0.3480714,0.62763596,-0.85832894,0.22832614,0.45058212,0.9230326,0.6617455,-0.595651,-0.8006863,-0.529224,-0.30193445,-0.8731055,0.47040185,-0.53523046,-0.7220071,-0.25134903,-1.010261,1.0112003,-0.06408186,0.43023247,-0.80850345,0.36001632,0.27148515,-0.77653617,1.0643574,0.52666026,0.57985896,-0.8326602,-0.916305,0.31428546,-0.3683317,0.11173741,0.31483024,-0.92668176],[-0.51187,-0.32829502,-0.08343122,-1.7926425,-0.35277024,-0.6581897,1.5715008,-0.35491064,-1.7788304,1.2384427,-1.5716767,-0.2071849,-0.87969273,-1.3071256,0.20958713,-1.344359,-1.0222236,-1.3957987,1.5139923,0.12494736,-0.4976579,-0.7540949,-0.6569288,-0.89374685,-0.69140166,-2.059463,-0.87949926,0.037934877,0.5069971,-1.844179,0.23281088,-0.13077024,-1.073208,-0.900337,1.6074951,-2.1462872,-0.7734036,-1.8904163,0.51712835,1.0834496,-0.34746814,0.509443,1.8686372,0.51181185,1.2485813,-1.7166824,-1.9508593,0.46883544,-0.31571078,0.42495564,-0.45334107,-0.4172458,1.1477928,0.1703103,0.860468,1.8134923,1.7903303,0.631747,1.1951152,-1.1652726,1.4851655,2.195767,0.96215856,3.2687607,2.6918333],[0.11860994,-0.55737853,0.041547813,-0.66072184,0.42696705,-0.24023145,-0.8954794,0.5009819,-0.23621573,-0.9951828,-0.9068635,0.50665486,-1.104899,-1.1223698,-0.49369523,-0.7643831,-0.36096823,0.9604679,-0.64236504,0.616605,0.19092259,0.682436,-0.370559,-0.6708376,0.005823955,0.39912456,1.1134317,0.2939453,0.29665086,-0.5861031,0.88916826,-0.38184345,0.6920908,0.72368395,0.60865825,-0.86968666,0.35430333,0.5312638,0.24734032,0.6944018,0.14972776,-0.73217905,-0.18505476,-0.4378932,0.6244393,0.37971035,-0.8512302,-0.7109684,-0.6135307,0.5856042,0.20005345,-0.57881856,0.12749511,-0.43141693,-0.25301352,-0.7506478,-0.9230218,-0.6477612,-0.08143079,-0.24032752,-1.1497657,0.16985978,-0.32775992,-0.625278,0.17259555],[0.952988,-0.90580547,-1.1918588,-0.51918334,-1.640138,-1.019134,0.59164333,0.70420074,0.95648706,0.09656562,0.65910023,0.786481,-0.41281337,0.43287665,-0.5935674,0.83540934,0.6092839,0.02428117,1.5296031,1.2403919,1.0326377,1.3171114,-0.48543602,-1.4901464,-0.6857884,0.8590164,-1.1027777,-0.7629383,0.29701233,1.1717995,0.55534065,-1.9585328,-0.4241019,-1.1439778,-1.6336076,-0.89332736,0.49685943,0.6742714,1.2541206,0.9702111,-0.14564829,-1.6991333,-1.7649847,-0.33020818,0.20711723,-1.768314,-0.13743898,-0.9648273,-1.0022029,0.11151013,1.0328228,0.23957376,1.0223384,-1.3086752,0.87173915,1.0225774,0.19948784,-0.41449648,0.80702454,0.46843067,0.307536,-0.8816081,-1.0080576,-0.39796272,-0.112370424],[-1.1762972,-1.7117001,0.8504599,-0.7293021,0.32498553,0.17963988,1.7985212,0.59964085,0.016974278,-0.9242375,-0.02383755,-1.3813436,-1.6643254,1.1442859,-1.0068941,-2.643247,1.214764,0.83135515,-1.671748,1.9388272,0.18740956,2.2211888,-0.88854516,-0.72592413,-0.53860617,0.93040055,-2.0070708,1.5516007,0.17643686,1.3173658,-0.6928468,0.9133493,1.2860421,2.8293474,2.91893,2.6997695,-2.0996928,-0.023405006,-0.59993404,-0.8313378,-0.36226603,0.6612176,1.5130763,0.24034481,-1.2617013,0.14039518,1.0837587,1.30796,-0.68874854,3.2220016,0.9605616,-1.4631809,-0.8913973,0.35887608,0.5564902,0.38085955,-2.3756375,-2.7274709,-1.5295804,0.1126706,-0.72464734,0.23116066,-2.0360377,0.36272776,-4.776486],[0.47235435,1.4642366,-0.5047174,-0.567419,-0.24882725,-0.4184467,0.62129134,-1.2503678,-0.40263125,0.51843935,-0.0165074,0.36938128,-0.51794285,-0.19345242,1.129508,-1.0491508,-0.8191282,0.52191395,0.9770325,0.45638117,-1.4871348,0.15365255,-1.4180954,-1.5029324,-0.95722836,0.8996066,0.50869876,-0.29563358,0.9717105,-0.04678632,0.9504329,0.19537021,-0.36485326,0.6654207,-0.1202646,-0.1488771,-0.36267468,0.9485684,0.14398819,-0.24651967,-0.73642766,0.32128423,-0.9296301,1.8731507,1.3526644,-0.6323214,-0.30719918,-1.4975318,-1.0160843,-0.38890865,0.53234863,0.109425135,-0.5486542,-1.0759158,-1.4918361,-0.12357402,-0.16452347,0.6491556,0.68286353,0.07365556,0.81960917,1.1847881,-1.252752,-1.3167241,-0.8127666]],[[0.5523262,0.5001266,-0.916368,-0.8437121,-0.44358897,0.63666654,0.9563751,0.105942726,0.39780974,-0.047453642,-0.17552805,-0.55920005,-0.11752319,0.4869182,-0.24946237,0.8925369,0.18021822,0.061907053,-0.14355445,0.60559726,-0.8873546,0.01432538,0.19245553,-0.26489067,0.56314087,-0.17606711,0.1173358,0.92255044,0.4013176,0.8858681,0.7685113,-0.42871094,-0.41175413,-0.1837759,-0.58450675,0.45903325,0.47886753,0.822243,0.1168077,0.6531296,0.37673068,-0.21718097,0.7398033,0.51725674,0.5112033,0.35504842,-0.41548467,-0.5057657,-0.7952497,-0.6554332,0.27923632,-0.6297045,-0.7137382,-0.18896747,0.7070432,0.103619576,-0.07940388,-0.26620412,-0.85288715,-0.62135005,-0.7822814,0.38038802,0.84798074,-0.115909815,0.8490522,-0.65403914,0.21948934,-0.7490878,-0.07119036,0.0111444,-0.9540107,-0.16828012,-0.043694735,-0.75922537,-0.48948073,-0.53848505,0.1548953,-0.8843751,0.6331718,-0.37002873,0.8236692,0.150033,0.1269958,0.12793446,-0.37395287,-0.1038661,-0.84532595,-0.9240737,0.99318004,0.60055876,-0.014626503,-0.9994929,0.083776474,-0.12616229,-0.39030528,-0.87251186,-0.932724],[-0.59612286,0.1178074,-0.26452658,0.24527144,0.3853807,-0.9099665,0.5996412,-0.3182154,-0.70749384,-0.22150922,0.6316397,0.028855205,-0.7176862,-0.4113541,-0.33378422,0.8009744,0.47916412,-0.78545856,0.11947309,-1.2806298,-0.5434616,0.6670801,-0.74679524,0.70141524,-1.0675315,-0.84344745,0.41830313,0.020677175,0.78783226,-0.3277103,1.0520992,-0.46519363,-0.25460255,0.19793643,0.3579693,0.11857104,0.77333134,-0.7940348,-0.93791646,-0.49416578,-0.27095821,-0.32090628,0.5007378,-0.8858261,-1.0670466,-0.0663343,-0.009027608,0.9340824,-0.7225112,0.13662949,0.5533853,-0.88389355,-0.44382256,-0.06079646,-0.40039688,-0.24496408,0.5430387,0.6164431,-0.1974691,0.2515506,0.29213136,-0.045161437,-0.23733477,-0.75465935,-0.07799463,-0.61534864,-0.20119607,-0.06782892,-0.1557476,0.54287416,-0.27016386,-0.7502292,0.63142,-0.30198497,0.56890523,-0.79360384,-1.1025159,-0.12204025,-0.2443442,-0.11617698,-0.069345154,0.3169118,-0.5146212,-0.32461238,-0.60844827,-0.24921496,-0.36268052,0.9495226,0.40398982,0.0120673785,1.1505299,0.66085976,0.45609772,0.61265814,0.4174203,0.36992458,-0.70643187],[-0.40967804,0.39150017,0.7609678,-0.16685118,-0.073824,0.80653,0.20092314,1.1237323,0.78717995,0.2314572,-0.26150683,0.6717152,0.28121525,0.28820127,-0.24466461,-0.07623172,-0.707287,0.9262376,-0.94914937,0.82111853,0.28262836,-0.27231315,-0.1623153,-0.019147292,0.17565733,-0.9896151,0.36354062,0.9807351,0.34351858,0.6530409,0.3496391,0.4816222,-0.13939255,0.89632136,1.5066379,0.93911487,0.49434307,-1.0920641,-1.2511225,-0.019284565,-0.734355,0.51849014,-0.23904304,0.14430115,-0.13941616,-0.010877463,0.26225966,-0.60514724,0.9582014,-0.52648,-0.69970727,1.3038797,0.23768865,-0.0031850692,-0.4767175,0.22122453,0.6336878,-1.1664708,-0.36725423,0.6370237,-0.34736562,-0.2274488,0.891032,-0.41699976,-1.324191,0.16033202,-1.2341663,-0.012498189,0.3634822,0.1357686,-0.5408756,0.6613198,0.28220388,-0.60482645,-0.854062,-1.2366287,0.88017195,0.4933285,-0.1312164,0.5883283,-0.57505625,-1.3800383,-0.85370505,-1.1610483,0.047946353,-0.51835,0.7181053,-0.76758415,0.045359194,-0.09044311,0.38014814,-0.28239286,1.1361754,0.28472373,0.2356804,0.65951365,-0.22519742],[-0.08970836,-1.1378742,0.05990679,0.50871885,-0.07265953,-0.95366305,0.016643213,-1.0358764,-0.33439013,-0.19802234,-0.22101033,-0.6257146,0.30008993,0.17359753,-0.32632405,-0.34149146,-1.0669656,-0.26998255,-0.6504184,-0.51550865,0.8927868,0.16547084,-0.38231027,1.174617,-0.8964584,0.28965962,-1.6755167,-0.86740756,-0.88433945,1.0430791,0.6400215,-0.88577455,-0.58166254,-0.35628322,0.88532203,-0.077422,-0.7891091,0.15477973,-0.91742736,0.7173062,0.34722343,0.53313476,0.9045972,-1.596685,0.7447058,0.5427965,1.6421177,-1.16756,0.041090697,0.44735524,0.9157414,-0.06458925,0.45608032,-0.7474462,0.89091384,0.88505673,0.7615877,0.04028881,-1.3080325,-0.18098544,1.298373,-0.6991391,0.32665044,-0.39346734,0.16175553,0.28635633,0.6220508,-0.036333255,1.0251942,-1.0062699,0.02161084,-0.6703974,-0.6323107,-0.050849568,-1.3081253,-0.7182411,-0.18917367,-1.1309417,-0.3729507,-0.31430885,-0.4230324,0.664124,-0.25305375,-0.029027937,-0.36301774,-0.5297768,-0.09925624,0.756357,0.7441758,1.5325059,-0.3542937,0.6494751,-0.6295414,-0.9231162,1.2419009,-0.4115239,0.7497654],[0.065954156,-0.3323587,0.7992227,0.73933953,0.24774016,-0.060443647,-0.6474601,0.16071638,-0.6062781,0.35810688,-0.064614505,1.0066866,0.95389104,-1.0725299,-0.017119724,-0.32055587,0.8678719,-1.2448937,0.59828407,2.2278214,0.55353224,-0.20449801,-0.22196642,1.0431579,-1.0485766,-0.5413489,1.594369,-0.6485132,-0.9372106,-1.2336822,-1.0434825,0.72222805,0.16934222,1.0820843,-1.6195776,0.0077155116,0.051017307,-0.6016431,-0.5787817,-0.1649596,-1.0803077,0.11014667,0.12365834,-0.92905444,-0.8683648,0.7989822,0.5275361,0.03870913,-0.63753927,0.6437128,-0.7522137,0.7929558,-1.0899645,-0.009800446,-1.0602188,-0.6151697,-0.17812926,0.22304103,0.12237201,1.2539912,1.0296729,-0.351122,-1.1253031,0.27238303,-2.1163104,0.579991,0.7606064,0.6040146,-0.72814184,-1.063922,-0.2018011,-0.277948,0.79875535,1.0849875,0.08385797,0.6896649,0.64251983,0.30709603,-0.24458927,0.3409077,-0.89213884,-0.13417026,0.14207655,0.28266248,0.5971844,-0.67810065,0.076196454,-0.7197328,0.5773195,-0.7608243,-0.36048278,0.4613043,-0.45669687,-0.54222727,-1.0091416,-0.9349879,0.37569454],[-0.4728554,0.75728524,0.38460737,-0.24703999,0.58204013,0.35953787,0.7424033,0.3580862,0.711732,0.5464545,-1.3470861,0.14848495,-1.2566108,-0.5813253,-1.9417917,-0.70426345,0.51887816,-0.5606085,0.7095568,0.024548033,0.08151213,0.0257913,-0.40078038,-0.025439646,-0.34326136,-1.4637865,0.28573433,0.6056985,0.8046621,1.5224463,-0.88242793,0.087173685,-1.1088105,-0.36552453,1.0141143,-0.5065761,0.34187886,-1.9264743,-1.3337247,-0.06534978,-0.43361613,-1.1675733,-0.14454663,-0.3710677,-0.2242708,-0.2984684,-0.8863324,-0.8425593,0.104638584,-0.9664359,-0.8544297,-0.1548695,-0.5622636,1.2338989,-1.3468583,0.4923837,-0.12261501,-0.63455963,-0.09168248,0.01359174,0.39144084,-0.24965794,-1.20971,-0.7592164,0.3684428,-1.2102631,0.58841485,0.2868209,-0.87359077,-0.93178433,-0.63066995,-0.635624,-0.24894613,0.18930791,1.8129928,-0.17091724,-0.5059526,0.6144663,0.21809056,-0.15973657,1.1014155,1.4318287,-0.6249411,0.42573717,-0.6673766,0.5782496,-1.2161667,0.0219647,-1.494431,-0.75563806,-0.71310765,0.068562254,-0.15858209,-0.5948333,0.113813825,0.07015322,-0.26831016],[0.32368538,0.5250607,0.45332226,-0.8786443,-0.9906818,0.5073623,-0.11970766,-0.13396241,0.66087884,0.56201804,0.25304493,1.2422038,0.9374675,-0.25770754,0.3697696,-0.14316066,-0.12909065,-0.8720945,-0.48948613,-0.012067596,0.06551272,0.6553131,-0.22064579,0.1047508,0.49253082,-0.5574417,-0.6295118,0.36850324,-0.8235666,0.69399136,0.49333552,-0.7729939,-0.015131874,0.6869267,-0.82866985,-0.4371019,-0.062880345,-1.0191609,0.33977842,0.37512255,-0.9728397,0.73626703,-0.794847,0.012413716,0.68874675,-0.13102594,0.6325567,-0.46501637,0.20804168,-0.23930645,-1.0824796,0.4609841,0.7263906,-0.008681336,0.5549853,-0.062225558,0.6311162,0.11262985,0.016376665,-0.6609941,-0.439903,0.40797684,-0.6621794,-0.24203515,-0.48479784,-0.6684486,-0.7265512,0.82035464,-0.73858327,-0.13966502,0.621229,-0.33267897,-0.8151809,0.4639594,0.8597041,0.8549955,0.61401993,0.22062123,0.6715779,0.52018636,0.7795295,-0.64195687,-0.6801021,-0.006213667,0.9641367,0.056559347,-0.40832224,-0.6588303,0.5865124,-0.6570892,-0.05145817,0.2655553,-0.075639695,-0.36183944,-0.029747488,0.7701252,0.1329831],[-0.88912696,0.06644052,-1.9507837,0.8983463,-0.32858032,-0.41568962,-0.16025837,0.64979976,-0.19798501,0.28099513,0.5877992,1.0384609,0.9272078,-1.2387013,-1.2879161,0.41557047,-0.43708462,-0.08381769,-1.5990871,1.6272914,-0.6972378,-0.9504045,1.5415363,-1.1151623,1.4863565,1.253312,-1.0777023,-2.0574558,-1.8173342,-0.2899397,1.085499,2.0163457,-0.53398347,-2.2349982,-0.7529838,-0.59704894,0.18110636,-2.02167,-1.4348506,-0.34318066,0.033117313,-0.95061105,0.5067121,1.3866994,-0.07697604,0.1550125,0.25593063,-1.6105136,1.9166483,-0.017483003,1.9842007,1.5058346,-0.313746,0.47882617,0.04292872,0.84501463,-0.26824465,0.0565214,-0.4698748,-2.1147978,0.3300759,-1.5870118,-2.9178755,2.0781755,0.34399045,-0.5772803,-1.9271346,-0.008909579,1.1418489,-2.7054272,-0.024147201,0.29301378,0.8126938,-0.7275126,2.4798455,1.6145015,-1.6838232,-0.11947811,-2.2272048,-0.66341585,-0.35739994,1.6889513,1.718115,0.7371303,1.175606,1.4135499,-1.1585107,0.99168026,-0.6116147,-0.7449277,-0.7702542,1.1080271,-0.7397687,0.20203544,-1.0463781,-2.1767004,0.55633926],[0.5582457,0.3579584,-0.67196745,0.6538872,0.23178226,0.85285145,0.8916965,-0.8917287,-0.4211805,0.27082616,0.6564609,0.4763257,-0.6014086,0.41662678,-0.726308,0.12543829,0.61693335,-0.65273917,0.38582227,-0.79357463,-0.26974815,0.5363159,0.04205444,-0.777319,0.10771962,-0.7836676,-0.3204082,0.7805113,0.068587646,-0.3352703,0.48200387,0.5011344,-0.49299437,0.7527028,-0.76321715,-0.4312039,-0.52374053,-0.10716196,-0.93981564,-0.99951345,-0.39135107,0.74538475,-1.087209,0.2669098,-0.9733433,-0.95951265,0.610677,-0.0604219,-0.54368144,-0.24433196,1.0878948,-0.7549799,-0.11274659,0.30867422,0.691597,0.9018304,0.6017575,0.7456531,-0.5193763,0.034802586,-1.0611751,0.8618501,-0.2740459,-0.051637474,0.7406339,0.4724129,0.7956938,-0.1469134,-0.51788,-0.37588388,-0.28357407,-0.497851,1.013777,-0.05402369,0.57177764,0.779803,-0.8757908,0.8806357,-0.5252635,-0.5994219,0.6652537,0.807871,-0.60625553,-0.5324604,0.07105393,-1.019983,0.97226286,0.98764193,0.1607177,0.41203496,0.69170964,-1.0317485,0.7129957,0.2703825,0.9170733,-0.3526564,-0.49080333],[-0.23793875,0.6520847,-0.36184305,-0.92492366,-0.03258964,-0.5306956,0.7868717,-0.666898,0.50239354,-0.64212567,1.1595238,0.60894424,1.0723761,0.72162485,-0.35162696,0.90505284,0.2674218,0.638458,0.4427466,-0.43118715,0.7935295,-0.7505357,-0.7376722,-0.30178997,0.5427843,-0.08211875,-0.95716757,-0.28539068,1.0823858,-0.0907002,0.2595965,0.40192795,0.5617681,-0.18353096,-0.41661745,-0.45305696,0.009286493,-0.7368948,-0.38500357,0.73180217,-0.25304866,-0.78385377,-0.8258526,-0.18046749,-0.20122829,0.35794634,-0.05476807,0.7023889,1.1275743,-0.41077074,0.15647896,-0.5315479,-0.5636403,-0.4517465,-1.0699128,-1.1376404,-0.58083004,0.3154341,0.26210013,0.0130548505,0.59577817,-0.6468266,-0.67256933,-0.7876495,-0.06467924,0.3630517,1.075231,-0.47641107,0.81516236,-0.14632924,-0.37332934,-0.92944,-0.21063486,0.28604522,0.1947787,0.6304085,-0.47669107,-0.18521202,-0.8097781,-0.49583676,0.74186695,-0.092684865,0.078562856,-0.9212034,-0.8342382,-1.0588428,0.90992767,0.4205298,-0.13279171,0.1154685,-0.852629,0.021809457,-1.1614547,0.28904238,-0.56895393,0.12537925,0.43030968],[-0.68482375,0.07569075,-0.37010777,-0.7437303,0.38746542,0.43651083,0.58093494,-0.5828346,-0.03180084,-0.8114025,0.7927981,1.155471,0.5322831,-0.24684978,0.35287115,1.0443615,0.11019546,0.2732697,0.19825102,0.27911064,-0.71450114,-0.7080316,0.14015806,0.516737,-0.20363675,-0.95764136,-0.82910377,0.65361726,0.8827699,0.57741416,0.43233478,0.65815324,0.71908224,-0.2645896,-0.9330185,-0.8125461,-0.008069085,0.47673008,-0.8934763,-0.60415775,0.3176575,-0.099839345,-0.8924196,0.18784565,0.8610532,0.7414596,0.096493416,0.12948969,-0.03418569,0.6830677,0.25364712,-0.3136776,0.48919007,-0.3519879,-0.88972425,0.85691094,-0.63480914,-0.0071943244,0.08110502,0.36475992,0.4507393,-0.9844415,0.7866586,-0.26542586,-0.5471454,-0.642447,0.56985897,-0.10329803,0.66826624,-0.2667679,0.8642815,0.075430706,0.40086612,-0.20384869,0.5333702,-0.25051245,-0.635595,-0.15282655,-1.1029545,-0.17858459,0.08831309,-0.46414727,0.89170736,0.29456225,0.4208836,-0.61279935,-0.789043,0.39409763,0.020384261,1.0319262,-0.17405353,0.046532728,0.37251934,0.67119664,0.5196005,-0.21075997,-0.4392706],[-0.5965953,0.36455104,0.8328012,-0.41121933,-0.04897599,0.6841747,1.061896,-1.0055445,-1.1192344,0.87462866,-0.9191415,0.26745743,-0.08693811,0.0008498481,-1.6283854,-1.322757,-0.27635482,1.4731209,0.11734939,-0.8063645,-0.3692554,0.41037062,0.9561614,-1.7250355,-0.13153262,0.5636743,-0.41588813,-3.0241046,-0.5992008,1.2103184,0.056992143,0.7943907,1.6766676,0.37019914,0.9670186,0.50077057,0.3859662,-0.40183476,0.9218443,-1.4917891,-0.8033522,-0.9559515,-0.83640647,-1.3973743,-0.016535163,0.37010512,-0.5979134,-0.54995644,-0.7748102,-0.484554,2.3305385,0.35107312,-0.61972815,0.9265105,1.1005795,0.99029684,0.10086474,0.9914307,-0.677918,-0.29364744,1.1539514,-1.1896471,-0.3518477,0.35791385,-0.14630863,-0.3841865,-0.06381801,-0.21197285,-1.2203809,1.2235363,0.24187015,0.19847831,0.49863037,-0.5916264,0.5679796,-0.6688098,-0.6934192,-0.31480604,-0.0002507565,-0.3936298,-0.7353424,-0.25276756,-2.017356,0.48266232,-0.16916715,-0.8348135,-0.017043242,0.12679206,-0.41270885,2.998039,-0.0345039,-0.6857371,1.2163973,0.7367242,0.87985873,0.3332038,1.2296512],[0.47404423,-0.76957923,-1.1045973,-0.8265776,1.299113,0.38672587,1.316897,0.29671726,-0.86743426,0.84388465,-0.8048294,1.9647222,0.18384996,1.8404928,-0.80578905,1.1511945,0.32766977,-0.027471462,-1.2521657,-0.67747253,-1.461852,0.096073434,0.18196186,0.16254367,-0.12960498,-1.8215711,0.8058713,-0.23529506,-0.569966,1.4253687,-0.32016465,-0.9033691,-0.35392976,0.21430162,-1.7576087,0.9037565,0.042348377,-0.6977294,-1.2855433,0.031244444,-1.7228394,-0.85913813,0.9281187,0.5139562,-0.3284084,-0.48574725,0.65007335,-0.14972478,-2.030256,0.14745757,-0.54447585,-2.332281,1.3201916,-0.2824213,-0.3076662,0.7787063,0.0398549,-0.44527093,0.21107909,-0.4849135,-1.4725711,-0.55136013,1.2373208,-0.81548417,-0.1252658,0.14840591,0.7345935,-0.5242295,-2.8446977,-1.3674731,0.5893059,-0.91688263,-0.057328865,-0.6784982,-0.5305008,-0.07385853,-0.06949981,-0.13505943,-0.48145384,0.12766637,-0.33496845,1.8717902,0.013376735,-0.014529868,0.28682283,-1.2436284,0.69710076,0.29627484,1.069108,-0.5917221,0.061895534,-0.69115585,-1.2499554,0.22813784,0.31694245,0.6504014,-1.9139365],[0.7272255,0.2551106,0.9255603,0.10290426,-0.33530867,0.79540604,0.3135771,0.6267149,-0.57865995,0.51828635,-1.1080236,-0.46587232,0.03639672,-0.1650106,-0.70815855,-0.14196908,-0.31740168,-0.41361517,0.10025608,-0.1260634,1.0629834,-0.8778079,0.32984942,0.75240815,-0.62576777,0.2721016,-0.4965508,-0.53995574,0.14755526,1.4460992,0.32790652,-0.87470853,-0.73027575,0.73162395,0.55942017,-0.043799553,-0.05046984,-0.5399261,0.53442746,-0.8053766,0.33198482,-0.19915712,0.6529789,0.57941717,0.5211972,0.9477417,-0.086432144,-0.7825017,-1.0559869,-0.5589753,0.7958473,0.9817678,0.72187144,-0.6121872,-0.18194948,1.030799,-0.7021952,-0.70736915,-0.22036631,-0.49525872,-0.43809667,0.73601484,-0.5682868,1.0402839,0.2808953,-0.28901064,-0.53185004,0.6131664,0.021371845,0.30790415,0.49433726,0.6250567,0.067023166,-0.8908175,0.2731107,-0.18795808,-0.2761942,-0.49635825,0.35716334,0.40943015,0.4673053,-0.5890049,0.59091973,0.5502887,-0.6897773,0.078718685,-0.6685391,-0.35689822,0.08488305,0.8317379,-0.31686214,0.7223166,1.0057135,0.275674,0.738912,0.9849731,-0.4677716],[0.55046487,0.6556738,0.4811893,0.39894983,1.0656025,-1.4862951,-0.82918197,-0.27928782,0.12851724,0.13974816,2.2423458,-0.3796586,-1.2180053,0.76986665,1.1587781,-0.7812604,2.4389558,-1.462135,-0.7678334,-1.9127419,3.0598047,-0.5489884,0.65045667,0.60933274,0.40710026,-1.3052093,-0.95667624,2.7706494,-1.009598,-0.2386638,1.1859823,-0.5656044,-0.51298636,0.41707626,-0.610312,-1.3289254,0.43458018,0.26458028,-2.183258,-1.1291797,-0.30052254,0.69040114,2.8368475,-0.68451315,0.30961698,0.6212678,-1.0307065,-0.22154896,1.6719464,-0.924839,-2.7046144,0.7611454,0.50404304,2.3383727,-2.0100312,-1.8280942,0.6532148,-1.1949829,0.9844525,0.15026437,-0.10871384,-0.22614308,-2.1069906,-0.78198177,2.968837,-1.8521736,1.8146518,0.85885036,-1.1486646,-0.5615005,-0.96473104,-2.3908951,-2.0050974,-0.4507513,-1.9902577,-1.8304317,-0.38263372,0.16535267,-3.4731271,0.5479584,-1.002054,-0.6865692,-0.1818795,-0.70989823,-1.2488987,0.05410814,1.0639757,-1.7979002,-0.83207744,0.72828686,0.89027846,0.67748976,-2.706661,-0.49399525,2.2615578,-2.1155474,1.5319383],[-0.8529029,-0.91409266,-0.5640073,-0.37196916,0.6042443,0.47733757,0.22949515,0.30909646,-0.90548384,-0.3582858,1.007471,-0.11169499,0.62611103,0.80132294,-0.5138062,0.05838713,0.93027264,0.019652834,1.105198,-0.6404233,-0.5254331,0.40769282,-0.5358453,1.1345654,-0.14583167,0.14059539,-0.8653708,-0.36597753,1.1547123,-0.15671313,-0.5540313,0.95958406,0.1476523,-0.21894416,1.3139915,0.112557545,0.8431221,-0.7819064,0.21966979,-0.58484006,-0.11735977,-0.15548728,-0.4342344,-0.7190761,-0.85422224,0.84599376,0.48897186,-0.4377992,0.7374857,-0.12835021,0.356155,-0.4472461,-0.7116696,-0.47045586,-0.89445496,-0.02304473,0.89602786,-0.29959184,0.840542,-0.16270344,0.14537394,-1.0219129,-0.10643752,0.2508168,0.0666886,0.5183522,0.091058865,0.93133736,0.39237648,0.4320864,-0.6519403,-0.55338895,-0.18516041,-0.16489431,0.11858001,-0.32373828,0.6805539,-0.0752507,-0.83399713,-0.3275662,0.95736724,0.211222,-0.8207567,-0.120670006,-0.3874387,0.47459742,0.8034561,1.0147554,-0.28023922,0.40328565,0.8522192,0.41318646,-0.12196924,-0.35251218,-0.44708568,-0.586137,0.8632848],[0.10623233,-0.81632507,-0.32321,-0.5906146,-0.9466939,0.34497356,0.8304473,0.21511514,-0.11120915,0.14455625,-0.266701,0.51209986,1.2740802,0.040509257,-0.53983027,-0.3425553,-0.33532658,0.04283526,-1.2004515,-0.3286245,-0.09064495,-0.080930084,1.0613501,-0.07035875,-0.3240826,-0.15815106,-0.37074736,0.36091584,0.26456207,-0.72818816,-0.8121671,-0.4870796,-1.036082,-0.941755,-0.057330426,-0.13931333,0.45773205,0.1424363,-0.31110862,0.80088335,0.61303407,-0.8881626,0.014665953,0.6923496,0.89074886,-0.37550518,-0.8348074,-0.2879588,-0.34514642,-0.5115328,0.07494992,0.13949455,0.5892376,-1.091067,0.40325508,-0.7172622,0.988291,-0.8896375,0.5045091,0.73582006,-0.64924324,1.0865984,-0.7990137,-0.38145298,0.8018992,0.664258,0.9797754,0.18699583,-0.4385025,-0.1820434,0.4693417,-0.43705717,0.3354204,-0.7614869,-0.91089326,-0.18109658,0.3139926,-0.12945214,-0.2071979,0.2989763,-0.61478275,0.548681,-0.42603928,-0.6794355,-0.35525742,0.23065546,0.5635551,0.6215904,-0.020980962,0.17445228,-0.7535985,0.8972261,-0.49831063,1.2696046,-0.30160588,0.88053423,1.1885444],[0.043503072,-0.0817858,-0.19560231,0.3419387,0.40336278,0.5843672,0.017134128,0.92114586,0.83123016,-0.43649226,0.23735811,-1.1975803,0.84288013,-0.86866647,0.78076863,-0.084031545,-0.112644576,1.0295503,1.1087683,0.42919973,-0.76677155,-0.4033528,-0.7795794,0.3421283,-0.54463506,-0.102741875,-0.5391699,0.35397503,-1.0657203,-0.9340208,-0.80691594,0.57902586,-0.30950117,0.4457057,-1.0204748,-0.35396877,0.86500114,0.2123724,-0.25272068,-0.43600672,-0.36816707,0.035943925,-0.8315479,-0.4298704,0.17749754,-0.62906945,-0.16020189,0.5346475,-0.8177834,-0.07429082,-0.35221207,-0.71040094,0.33209094,0.011731657,-0.0687721,-0.24553803,-0.77044404,0.5347481,0.3006483,0.22865072,0.1405313,-0.054150775,0.13912332,0.276107,0.78958344,0.7216699,-0.084556594,-0.9038472,-0.7193188,0.70670766,0.7883562,0.0041736574,-0.3512478,0.4122295,0.18055937,0.91436285,0.6445163,-0.9148685,0.3105284,-0.49442354,-0.67099184,0.85071963,0.1285383,-0.41152978,0.5392177,-1.0417758,-0.5288652,-0.20111956,0.9954153,0.72232634,0.1655626,-0.6405598,-0.5388525,-0.8232397,0.030241774,-0.5413353,-0.8156098],[0.56061083,0.49372736,1.1910967,0.5600962,0.4752188,0.42632082,-0.5055053,-0.40153867,0.9313465,1.5483563,-1.8639293,-1.5762417,1.3766389,-0.042587016,0.16309996,-0.41834834,-0.10886998,0.25308254,0.56573033,-0.64110184,0.5369652,0.61443144,-0.2168361,0.6233218,-0.7710737,-0.69067574,-0.4845894,0.39268097,-0.015819496,1.2283456,-0.6408672,-0.4063552,-1.3056916,-0.6212824,-0.7398963,0.082350396,0.36342233,-0.9848692,1.0268215,0.98981977,0.0011831659,0.06858867,0.7247464,-0.14145252,0.9957682,-0.32477158,-0.5781325,0.20219187,-0.620445,-1.0234809,-0.37582654,-0.12478671,1.209504,0.5013857,-0.7091492,-0.11925555,-1.0636153,-0.20919085,0.62008166,-0.160002,0.09714984,-0.13248673,1.1339976,0.3063449,-0.3568834,0.43427563,0.09714449,0.37684005,1.2241932,-0.3860811,1.3559272,-1.3991002,-0.035127774,-0.57990885,-1.5294472,0.58052886,0.3173685,-0.51832706,-0.29978943,0.52694774,-0.8420502,0.59998643,0.2282074,-0.2490001,-0.21942265,-0.20167173,-0.572964,1.5583735,0.40772417,-0.19675402,-0.8554011,0.22045557,-0.75599396,0.05144396,-0.8236056,-2.1052785,-1.0653327],[0.16643442,-0.9738408,-1.5694566,-0.19478227,0.36797413,-0.9319583,0.6025359,0.54010916,0.6555949,0.22777715,0.29726213,-0.42008775,2.5383651,-0.13360012,1.380685,-0.65531206,-0.26547736,-2.0941837,-0.7256977,-1.2605295,-0.3950381,-0.31636453,-0.8208688,0.062460143,1.1194485,0.5659558,-1.3852022,-0.3631449,1.2701145,1.449434,0.73887736,-0.64207864,0.39188668,-0.4337051,2.822447,0.43330675,1.8882221,-0.39143583,-2.8704646,2.349209,0.32667795,-0.11133264,-1.2825738,-0.9926152,0.48908904,-0.13984351,1.7042403,-0.38791844,-1.1491503,-0.76009357,1.4491756,-0.884147,-0.1086769,0.6634658,-0.34747997,1.2733264,2.6577425,-0.13130271,2.101392,-0.32170776,0.77567184,1.7854142,-1.5091606,-1.9161828,-0.8811436,0.9838927,0.9199015,-0.6023579,-0.021006322,2.8820982,-2.5427964,-0.21082179,-0.2983931,0.67730963,-0.422382,1.3891546,1.2077711,0.08960235,0.87429875,0.11093122,0.35583302,0.3346767,-3.3673797,1.2156509,-2.9588811,-0.0012650462,-0.115503386,-0.04513819,-0.13804573,-3.0099287,0.5099293,-1.0281938,-1.2529505,-0.10870214,2.5238926,-1.2517799,0.818244],[0.5591229,-0.9773858,0.88865817,-0.25302425,-0.47164083,-0.49190074,0.47747,-0.6207546,0.33053404,0.49247706,1.0085778,-0.80681413,0.69310164,0.1847958,-0.5411197,-0.86074823,0.05265809,0.7940524,0.5225815,-1.0600456,0.25534365,-0.6033338,-1.0289341,0.8370678,-0.82619154,-0.5417522,0.7763649,-0.74910575,0.39722234,0.030199656,-1.0911909,0.8020165,0.45562148,0.50413066,-0.6047632,0.7018955,0.024603758,0.631275,-0.796491,0.10952081,0.20979029,-0.5645709,-0.77627,-0.7812833,-0.7501665,-0.2968408,-0.0003110189,0.79181683,-0.2465753,0.060024265,-0.37442783,-0.5006451,0.68440485,0.08358329,-0.5456672,-0.33342054,-0.5615502,-0.04485467,0.8886537,0.5125526,-0.72940105,-0.3538186,-0.17633542,0.3710941,0.43257073,-0.12514763,-0.13508853,-0.106735885,1.05308,0.76198775,-0.34769946,-0.73740965,0.8504502,-0.6271078,0.7669403,0.26481634,0.77848625,0.012143567,0.018909413,-0.4167391,-1.0214896,0.19933148,0.041738715,1.1004727,0.68427217,0.25465944,0.6708143,-0.5426393,-0.17602086,0.8866712,0.83584845,-0.029572435,-0.87851185,-0.6002955,-0.67854583,0.39075327,-0.5383236],[0.4707839,0.86929035,-0.48526976,0.8484717,-0.7775761,0.6426292,-0.84649193,-0.41508332,-0.1587297,-0.20335661,0.30587083,0.23572823,-0.4905938,-0.3619305,0.16653112,-0.48456332,-0.28480038,0.3199097,-0.72184855,-0.62089896,-0.9242965,0.83858496,0.69178665,-0.0019317328,0.48105633,-1.3127795,0.7307127,-0.58217865,0.18132953,0.9843742,0.4030605,-0.49099222,0.76399815,0.7039923,-0.39226934,0.6984682,-0.24770173,-0.67883277,0.34477404,-0.15139712,0.7834797,0.022014588,-0.2828773,-0.023834769,-0.29942125,-0.88544595,-0.30126977,-0.6509653,-1.0930387,0.79169726,-0.7560194,0.5174711,-0.6296503,0.023338836,-0.4162899,-0.004852393,0.21417117,-0.7037322,-0.27269104,-0.5131936,0.10967707,0.016256068,0.48992595,0.5719661,1.6978627,-1.2408328,0.41768909,-0.6878899,0.23219284,-0.35305214,0.8211009,-0.506525,0.06046995,-0.36219278,0.12884398,-0.20054407,-0.2837737,0.7136652,-0.6164087,-0.2679477,0.48119426,-0.02742152,-0.24999684,0.3835733,0.1783617,-0.15590607,-0.45190653,-0.54999995,-0.7321846,-0.23341204,-0.031052634,0.3487884,-0.40352905,-0.78188545,0.29513216,0.42035505,1.0060825],[-0.6744435,0.22821756,0.047245827,0.55897224,-0.77915573,-0.53327173,0.99814945,0.70406836,0.6495663,1.0176421,0.11324707,-0.06844712,0.591228,0.078885525,-0.10061937,-0.5784243,-0.50810987,-0.4449944,0.035321657,0.7856972,-0.72711587,0.13971883,0.43766055,0.70312,0.26406404,-0.87362534,-0.55782515,-0.869289,0.8665137,1.1175214,0.04150878,0.97844195,-0.98326004,0.5137974,-0.804485,-0.7295957,-0.24285963,-0.9843737,0.4921018,-0.027279578,0.36780733,0.16221596,0.8699149,-0.1173034,0.6351796,0.8581161,-0.9655494,-0.6156306,-0.5531342,0.5014056,-0.576668,-0.62798107,-1.0243165,0.26323047,-0.86785614,-0.021413201,0.7494437,-0.5602321,-0.549162,-0.030441167,1.17409,0.8038939,0.69284976,0.04574137,-0.21475095,0.9081655,-0.76568204,-0.053937703,-0.042576108,-0.40027303,-0.16757894,-0.48156345,0.22256367,-0.56195444,-0.5401272,-0.6357521,-0.34535387,0.84979767,0.55514514,-0.5471488,0.8640937,-0.7454422,0.64057267,0.2793868,-0.8302346,-0.8813805,-0.8340086,-0.7828005,1.0682409,-0.45027572,-0.8566334,-0.23880212,0.45485094,-0.029925125,0.6045476,0.6840209,0.12531702],[-0.82782924,1.2747337,0.9337352,0.47910938,-0.30891243,0.37639502,0.5705395,0.6150182,0.90849394,2.0647848,0.12111175,-0.4090999,-0.051438656,0.93655485,-1.2693919,0.5879738,-0.38084581,0.5521812,0.58569896,-0.51611716,-0.16573313,1.9072627,-0.54775167,-0.17546967,1.0425938,0.4575955,-1.053892,-0.375992,-0.58847207,0.5778898,-0.27950895,-0.28279132,-0.4899347,-0.63437474,-1.5825095,-1.2119097,0.30186084,0.809793,-0.34425345,-0.33039322,0.96798116,0.4208267,0.925823,-0.4787514,0.7429556,1.1519635,0.3285126,0.042450376,-0.1674248,-0.5382547,0.65891886,1.17123,-0.6464015,-0.20406778,1.8983053,-0.085892685,-0.26791343,0.217595,-1.0673949,0.315294,1.4730818,-0.66366166,-0.651439,0.97950244,0.68024695,0.18768272,-0.6921612,0.9647445,0.18149517,1.5651128,0.4876128,-0.065427065,-0.586751,-0.45718578,-0.11721191,0.17981339,0.32358834,-0.15967219,-0.77928686,-0.585938,-0.19249325,-0.981094,-0.17175834,0.1607472,-0.7542848,1.1815448,-1.2301496,1.2309052,-1.1205986,0.54719377,0.17257808,0.25789106,-0.88467973,0.6527929,-0.74286723,-0.6847717,-0.5866644],[-0.44121292,0.024874993,1.0065851,-0.59924716,0.76294166,0.90467775,-0.5075447,0.21441904,-0.8120586,-0.8629646,-0.19907756,1.0275621,-0.013637259,-0.9874415,-0.8456754,-1.2428706,-0.8374608,0.24241741,-0.6062783,0.65132785,0.49922258,0.5560646,0.27689695,0.87623715,-0.5233361,1.3591217,0.2651852,-0.109150656,0.051233843,-0.9879707,0.70247865,0.92334443,-0.74089974,0.21248096,-0.8319663,0.7808627,0.9380467,-0.46040896,1.0765783,0.72095025,-0.64402384,-0.53142965,1.4406761,0.49000618,-0.18506005,-0.7010834,-0.6348809,-1.0823848,-0.07716223,0.7210597,-0.97297,-0.31881624,-0.9537774,0.5236038,-0.6425863,0.29664132,0.6541765,-0.719544,-0.43095577,-0.492025,0.099458314,0.12510066,1.1695201,-0.22100058,-0.700319,-0.14928982,0.48067978,0.1982814,-0.09405122,0.5035271,0.14026451,0.5402354,-0.49741554,0.7299321,-1.0683941,-0.18249838,-0.132493,0.7543715,-0.5042518,0.33912006,-0.6387147,-0.17009467,-0.72854894,-0.6206727,0.2037599,0.21713574,-0.90199816,0.18164416,-0.609257,-0.9113429,-0.47754046,-0.11326254,1.3630377,0.5202936,-0.50095785,0.38407508,0.823734],[-0.78628236,0.9166309,-0.49251056,0.05703262,0.09420341,-0.45295915,-0.8516781,1.0475826,0.7719343,0.5510285,0.48985755,0.7661679,-0.8643201,1.7901626,1.1403843,0.08846429,1.6588576,-0.9356714,-1.5020491,0.59262526,0.80732286,-1.3123714,-0.49111053,-0.6003917,0.9028728,1.5761797,-0.35028145,-0.7571388,0.2299837,1.4821315,-1.0397261,-0.8902891,-1.4070395,-1.6899599,1.76836,-0.7843098,-1.5448291,0.16781153,0.12738252,-0.248367,0.41146922,0.03947111,0.016615,2.0586894,1.0249689,1.2417535,-0.2169446,1.4494183,0.45499718,0.5561676,-0.4701789,-0.0572787,-0.6616961,-1.4587401,-0.35791004,-1.4632498,0.81647724,-0.000714938,0.20027322,-0.39399716,-0.32884198,0.20142856,-0.9866939,-0.8789587,-1.3315796,-0.8395439,0.04460303,0.5087466,1.1239192,-1.3882862,0.46405378,-0.23811926,-0.98794055,0.23408344,1.300955,0.8097188,-0.6298072,1.0568498,-0.87550974,-0.30835345,-0.26182514,