{"layer_count":4,"input_len":64,"hidden_len":256,"output_len":3,"x":[[1.0,0.91764706,0.7529412,0.52156866,0.43137255,0.4,0.38039216,0.4745098,0.9529412,0.89411765,0.6862745,0.48235294,0.40784314,0.4,0.3882353,0.41960785,0.8980392,0.827451,0.63529414,0.42745098,0.42352942,0.41568628,0.38431373,0.38039216,0.83137256,0.7529412,0.50980395,0.36862746,0.34509805,0.38039216,0.36078432,0.32156864,0.6862745,0.79607844,0.44313726,0.3019608,0.27058825,0.28627452,0.32156864,0.30588236,0.6392157,0.5254902,0.34117648,0.30588236,0.26666668,0.23921569,0.24313726,0.25490198,0.62352943,0.14901961,0.25882354,0.2784314,0.24705882,0.21176471,0.2,0.23921569,0.5568628,0.09803922,0.19607843,0.23529412,0.21568628,0.1764706,0.17254902,0.19607843,0.4627451],[1.0,0.68252575,-0.9811948,0.9164752,-0.8971107,0.86800003,0.6996504,-0.9514337,0.7420318,0.68802786,0.99284,0.9882314,0.89061445,-0.96269095,0.9485893,-0.99999917,-0.97900784,-0.9972276,0.33312464,-0.9343613,-0.8408588,0.5537937,-0.8150927,-0.9324585,0.86503834,0.69235325,0.6755054,0.99996823,0.22339982,-0.4090183,0.99912447,-0.5560775,-0.99977714,-0.9962305,-0.91379786,-0.99642736,-0.9166328,0.7583524,0.9994849,-0.99874896,0.9579486,0.9218211,-0.8045014,0.98761654,0.32643455,-0.8188729,-0.858065,-0.27335453,-0.5806565,-0.23281765,-0.86736786,-0.7919816,-0.3525287,-0.29451254,-0.043340337,-0.9238502,0.9775825,-0.81838787,-0.81031716,-0.60585666,0.99155706,-0.92510974,0.99988985,0.9157362,0.87195975,0.68530154,0.9046567,-0.92224455,-0.8431607,-0.89028084,0.97327304,0.8450253,-0.9495434,-0.45036706,0.9944088,0.99451625,-0.99666387,0.882031,0.9803229,-0.7874742,0.9843032,0.9980026,-0.99745417,0.21481533,-0.9696533,-0.92270875,-0.99997014,0.09999918,-0.9970048,-0.97156227,-0.9997757,0.6202553,0.5620045,0.9239633,0.29990584,0.9997883,0.99542755,0.984124,-0.9902164,0.9575521,0.9775484,-0.6498424,0.08499721,0.7308377,0.9937602,-0.39687756,-0.9934661,-0.99189025,0.9999225,0.14986232,0.62773424,-0.79518116,0.96522015,-0.9971023,0.87551403,-0.9962632,-0.9286871,0.19773167,0.5802176,-0.9267084,-0.99847215,0.9265529,-0.26108173,-0.9869315,0.91490865,-0.9972505,0.9988986,0.27200958,0.8425597,0.99408996,0.98925,0.47607115,-0.9500256,-0.549917,0.72976494,0.8737484,0.87922907,0.91439223,0.96429837,-0.99972135,-0.9998452,0.9631166,-0.97549975,-0.9999986,-0.9648447,-0.97324085,-0.9999978,0.7853132,0.9201817,-0.9687544,-0.9993034,0.43562236,0.85353595,0.97219247,0.99815136,-0.9996055,-0.9752711,-0.1475734,0.06473348,-0.2940152,-0.46726117,0.99934185,-0.9125855,0.6207101,0.9854568,0.9904514,0.91253686,0.69550884,-0.1988486,0.55067515,-0.99747103,0.7626867,0.9954794,-0.6770376,-0.49982667,0.88634473,-0.74906623,-0.32822496,0.984197,0.5033792,0.89133394,0.9910524,0.993586,-0.3329127,0.84639555,0.010579251,-0.98182946,0.99800533,-0.9910073,-0.78266317,0.9986901,0.17545988,0.99839824,0.3108744,0.981579,-0.2505184,-0.8636451,0.9504793,0.919744,-0.60701585,-0.97028637,-0.9802627,0.9519518,0.3710983,0.1716069,0.999892,-0.9669779,0.0031649328,0.81169605,0.9986107,-0.90462434,0.9949947,0.9839452,0.8472664,-0.9447661,0.99948794,0.76046324,0.95519173,0.3931333,-0.9997598,-0.6829343,0.95786095,0.83019155,0.99744666,0.99939597,0.9996528,0.9412676,0.86291933,-0.97463775,0.98220074,-0.9782015,-0.99024045,0.4025198,0.90145624,-0.79374886,0.9922855,0.9954799,-0.80883974,0.99685323,-0.9995681,-0.9911882,-0.9998092,-0.57234615,-0.7723076,0.79189146,-0.8588064,-0.8372988,-0.9996297,0.99822736,0.93952,-0.99227583,-0.9813769,-0.35509536,0.7824385,0.999873,0.99966806,0.99977565],[1.0,-0.9999399,-1.0,-0.99995565,0.9998371,1.0,-0.99872595,-0.9999934,-1.0,0.9992618,-0.087296456,-0.99996156,-1.0,0.81834066,-0.5811354,1.0,0.99990886,-0.9999728,-0.9997415,0.99764544,0.9871656,1.0,0.53474915,1.0,-0.9876088,1.0,-0.98724586,-0.9999997,0.999994,0.99949443,1.0,-0.9999679,-0.9937169,-0.9999741,1.0,-0.99999994,0.3759287,0.536628,1.0,-1.0,-0.9998918,1.0,-1.0,-0.8558464,0.6215365,0.6985527,-1.0,1.0,-0.9999982,1.0,-0.7796074,-0.59114707,-1.0,-1.0,-1.0,0.9997398,1.0,-0.9999998,0.9988086,-0.9999966,-0.98376787,-1.0,-1.0,-0.99995106,1.0,0.7652182,-0.98729616,0.9999438,0.90997046,-1.0,1.0,0.9999999,-1.0,1.0,-0.99780935,0.9999899,-1.0,-0.99408746,-0.99868035,-0.99999195,-0.99976456,1.0,0.9986135,1.0,0.9975612,-0.99877805,0.9998852,-0.9999023,0.99997807,-0.9989008,0.99984354,0.99999964,-0.9992731,-0.986091,0.99995494,0.99995154,-0.98995936,0.9999954,0.9999816,-0.99999714,0.9942199,-1.0,-0.5696059,-1.0,-0.9999665,-0.9999868,-0.9999999,-0.9111341,-0.99995315,-0.9999667,0.99941796,0.9997582,1.0,-0.9999729,0.9070048,1.0,-0.9999696,-1.0,0.9999854,0.9926041,0.99999946,-0.99999994,-1.0,-1.0,0.9797289,-1.0,-1.0,-0.99996656,0.7995095,0.9864193,0.99673444,-0.99955636,0.99995655,-0.99999994,-0.9995199,1.0,0.673283,-0.9569273,0.9999943,-0.91977364,1.0,1.0,-0.9999857,-0.96842444,-0.999974,-1.0,-0.9468183,0.48612657,-0.98718995,-0.9643317,1.0,0.8252772,-0.998119,0.97879803,-0.9999945,1.0,-0.99889225,-0.9999996,0.9999996,1.0,-0.9999962,-0.8852242,-1.0,-0.9998071,0.9999997,0.9921591,0.9197559,-0.9148887,0.9996755,0.99971116,1.0,0.9706052,0.99999976,-1.0,-0.9981335,0.9999594,-0.99999404,1.0,0.9999967,1.0,-0.99996835,0.99997574,0.999979,-0.99946254,-0.99907017,-0.9978377,-0.89343995,-1.0,1.0,0.86369693,0.99999976,0.9999459,-0.83234125,0.9999945,0.07949835,0.9952827,1.0,-0.9999983,1.0,0.9132469,-0.9999055,-0.84447646,0.9999994,1.0,0.58110595,-0.99997026,0.98143214,1.0,-0.9999984,-0.99999946,1.0,-1.0,0.98522866,-0.9999986,0.0325484,-0.9999871,0.9999998,-1.0,-1.0,-0.94664633,-0.98363024,-0.99248403,-1.0,-0.998717,1.0,0.9999992,0.067414396,-0.99994475,-1.0,-0.99984586,0.9999282,0.83727056,-0.99999976,-0.98901623,-0.9999969,-0.9999999,-0.90297323,0.9999859,1.0,1.0,-0.9995547,0.9990574,-1.0,-0.6518783,0.99100983,0.99999976,1.0,-0.9999997,0.99997336,-1.0,0.999524,-0.99999994,-0.9876238,-0.999359,-0.57639545,-0.99997336,-1.0],[1.0,-1.0,0.99999994,1.0,1.0,-0.9342158,-1.0,-0.9994073,-1.0,0.9999995,1.0,-0.8833836,-1.0,0.99993557,-0.9997452,0.8008473,-1.0,0.011357594,0.9993084,-1.0,0.11914756,-0.9972739,0.42969492,-0.9430388,1.0,0.99999666,-0.99999875,-0.9999446,0.72418416,-0.99947935,-0.9999994,-0.9372734,-0.6756484,-0.99324566,-1.0,-0.9771263,-1.0,-1.0,-1.0,-0.9672803,1.0,0.30789176,-1.0,-0.9999473,1.0,-1.0,0.9999489,-0.69627285,0.9982777,-1.0,-1.0,0.97592366,-0.99998826,0.99999994,-1.0,1.0,-0.9999906,-0.99999994,-1.0,-1.0,0.3963661,-1.0,0.9921348,-1.0,-0.6117833,0.7558285,0.9999999,-0.9983278,1.0,-1.0,0.9993115,-0.99871814,-1.0,-1.0,0.9999677,0.9999988,0.06696695,-1.0,0.99914485,-1.0,-1.0,1.0,-0.9999997,0.9999996,-0.9999877,0.99998546,-0.9999976,-1.0,0.9999939,0.6534438,1.0,0.9964945,0.9887731,-0.9999997,-0.99999994,-0.99969125,-0.33632976,0.9976496,-0.9398269,-0.9971875,1.0,-0.88507915,1.0,-1.0,0.99999994,0.3769238,0.99995273,-0.535808,0.14427358,1.0,-0.9999703,0.99999774,-0.9999994,-1.0,-0.9682623,-1.0,-0.8795043,-1.0,-0.99999976,0.85179394,-1.0,-0.98077714,-0.99999994,-0.9999995,-0.9999959,-0.9999999,-1.0,1.0,0.99999994,-0.99998367,1.0,-0.9999999,0.9999998,0.5775149,-1.0,0.99999964,0.9999961,0.9071374,-0.9999705,-1.0,0.99998516,0.9999953,0.70473415,1.0,1.0,0.8223194,-1.0,-0.5002722,-1.0,-0.9996312,1.0,1.0,0.99999994,1.0,0.9999802,-1.0,0.99997514,-1.0,-0.9999999,-1.0,0.9986822,-0.50529575,-0.99999934,-0.99999785,0.99887383,-0.9439952,1.0,-1.0,0.99817914,0.90053636,1.0,0.9822883,1.0,-1.0,0.9999999,-1.0,-0.99999964,0.99999547,-0.999806,0.99999535,-0.9999986,-0.99999994,-0.9998392,0.9697181,0.9785839,0.99990624,0.7098063,0.17842364,-0.5370746,0.75486326,0.99997216,-1.0,0.99999994,1.0,1.0,0.99999124,-1.0,0.999997,-0.63547707,1.0,-0.14799525,0.9978752,-0.9996412,1.0,0.9984431,-0.99999654,-0.9986129,1.0,0.99945194,0.99745905,0.51947296,-0.99989957,1.0,-1.0,-0.9927483,-0.99761957,-0.99999535,0.9921716,-1.0,1.0,-0.99999756,0.30350584,-0.17966133,1.0,1.0,0.9999707,-0.99999994,-1.0,1.0,-1.0,1.0,1.0,-1.0,-1.0,1.0,-0.99317425,1.0,-0.9999999,0.9999777,1.0,-0.99975514,-0.9998565,1.0,-0.99048823,-0.40212512,1.0,1.0,-1.0,-1.0,-1.0,-1.0,0.99999976,1.0,-0.99995404,1.0,-1.0,-1.0]],"w":[[[-0.48904014,0.004750967,0.3822105,-0.4225719,0.9198141,0.89948106,-0.61976814,0.01064229,-0.27771115,-0.9127195,0.3114071,0.090242624,0.057252884,-0.5139773,0.32086754,0.9305785,-0.8120005,-0.23336387,-0.8877733,0.58253646,-0.49365354,0.68454456,0.46510744,0.024580717,-0.26052117,-0.5082307,-0.3572681,-0.83957577,-0.78788424,-0.937289,-0.08732414,0.73291826,-0.5760846,-0.42998028,-0.8602259,0.6826949,0.80430055,-0.6834519,0.697536,0.16117287,0.11969972,-0.5809593,-0.63996553,-0.101857185,0.13444161,0.85267305,-0.4292078,-0.80293584,-0.23926783,0.013981342,0.9060075,-0.50407696,0.042381525,0.4491229,0.57273436,0.09170318,0.8586669,0.39698267,-0.06698775,-0.7986784,0.28424788,-0.012941599,-0.33023858,0.9032321,-0.42208672],[0.73008794,0.13888337,0.013744412,0.7106959,1.01191,0.6310092,0.34803474,0.94311464,0.5258049,-0.69649565,-0.65267485,0.7112177,-0.3747974,-0.52999276,-0.5642925,0.66748947,-0.4351772,-0.85954654,0.7317278,0.14919752,0.1975211,-0.09511497,-0.85649073,0.4901338,0.73562056,-0.81728375,0.24285907,-0.71559083,-0.58018625,0.6738539,0.24494097,0.5070244,0.5190064,-0.4739116,0.8282793,0.2971658,-0.98614633,-0.88507986,-0.62368774,-0.5981968,-0.9899105,-0.23804855,0.52494025,0.024997003,-0.05442467,0.3475001,0.6912632,0.34859547,0.4250674,-0.64352506,0.12839015,-0.3986963,-0.36287698,0.9010488,-0.36869773,0.26997384,0.69880456,0.17561819,0.109862916,-0.0251669,-0.18711877,-0.534387,-0.34478,0.24407955,-0.82187283],[-0.6541233,-0.2939203,0.9942308,-0.17642245,0.783174,0.38824433,-0.8495579,0.44445625,-0.68167967,0.08551464,-0.3988501,-0.8388445,0.20975193,-0.6854343,0.1068912,-0.4940023,-0.40857106,-0.92187136,0.48846608,-0.35555083,0.71246684,0.9482944,0.8313267,-0.27509037,-0.05921138,0.87948656,-0.5184723,0.8671506,-0.11298348,-0.8033077,-0.12560862,-0.46028462,-0.18202704,-0.14767863,-0.4328582,0.19058076,0.9737762,-0.44342315,0.5049507,0.6808916,-0.19467993,0.62327987,-0.4664864,-0.4433986,-0.30249864,0.140547,-0.46692,-0.188624,0.17390466,-0.89188385,-0.7059466,-0.12995863,-0.5761827,-0.35681966,0.8224221,0.04154589,0.08975028,-0.7203536,-0.6657556,0.48485363,-0.9504484,-0.7737681,-0.6242741,0.43424267,-0.10422017],[0.22601233,-0.36071557,0.041389093,-0.684257,-0.2388107,0.764517,0.4859899,0.7582817,0.76482344,-0.6628072,-0.046966154,0.802441,-0.7174714,0.062125396,0.01243089,0.77920574,0.049575157,0.2621548,0.6593848,-0.203526,0.25474682,-0.8882623,-0.30172402,0.68585956,-0.5974188,0.3438154,0.8578621,0.42687348,-1.0145524,0.60336804,-0.85920006,-0.9941095,0.15270302,0.89711064,-0.3357832,0.2380776,-0.6347899,0.12933809,0.17805839,-0.21540546,1.1133014,0.9715239,-1.0181144,-0.5685055,-0.9443049,-0.88448703,-0.5308935,-0.19329321,0.5739185,0.8038513,0.50758785,-0.4521044,0.42511356,0.731608,-0.6528022,-0.625607,-0.11156134,-0.94901955,-0.3644906,0.5334761,-0.05211312,-1.1634115,0.83344376,-0.6370351,-0.4555411],[-0.3667726,0.08532481,0.43241882,0.39092484,0.95634645,-0.45306227,0.3558859,-0.12799631,0.23781717,-0.5181673,0.3174061,0.061875697,-0.22789338,-0.5898471,0.9592627,-0.5279087,-0.9230267,-0.54519147,0.23831688,0.10666914,0.08634136,-0.046333756,-0.78303874,-0.032403495,-0.7626278,1.088339,-0.39102405,0.37799573,-1.0256082,-0.7344359,0.29320773,0.12066303,0.7805515,-0.69987124,0.5063641,-0.9117754,-0.941107,0.76219875,-0.98282814,0.47484377,-0.87490535,0.86134845,0.15191138,0.6577401,-0.8463177,0.4187206,0.5932624,-0.5306973,-0.46222436,0.7414996,-0.58642983,0.31189066,0.37551022,-0.26685855,-0.4045006,-0.69316787,0.32513896,0.4858123,-0.11138093,-0.6224815,-0.30356416,-0.6991404,0.9430192,0.52225363,1.0186437],[0.53374803,0.70700914,1.0450251,0.22730522,-0.6303376,-0.68020934,0.0310086,-0.08183438,0.049031436,-0.33947957,0.34469953,-0.28918093,0.72182786,-0.75715613,-0.6003731,0.5193706,0.70383507,0.50035334,0.40261313,0.22788107,-0.647891,-0.513778,-1.0084481,0.19369261,-0.57907814,0.98620117,0.13875462,-0.27778673,-0.4459821,-0.5102973,-0.8207811,0.10704469,-0.13393252,-0.45916346,0.74984115,0.7111493,0.45027485,0.6999355,-0.9812364,-0.95442253,-0.87992626,-0.28451437,-0.5537027,0.4457492,-0.6299053,-0.7251244,0.42727196,0.39570752,-0.2931808,0.2405992,-0.9256823,0.4411459,0.7968768,0.33119094,0.3228407,0.93056303,-0.6964244,0.50415766,0.5061472,0.38572326,0.8449035,0.9501469,0.43632638,0.19754349,0.57289225],[0.3571924,0.6670947,0.25324124,-0.23126587,-0.5154324,0.56018716,-0.8871134,-0.23833387,-0.16742973,0.9665344,0.3506707,0.59869003,0.07196067,-0.29779875,-0.40630585,-0.9204982,0.7622078,-0.31521577,-0.33883062,-0.23373188,-0.5153985,-0.33030012,-0.79080564,-0.26832584,0.5576172,0.15839386,-0.17453407,-0.0010193331,-0.81641847,-0.35367924,-0.32092726,-0.29997438,-0.41968536,-0.8073015,-0.20211884,0.6970638,0.039204292,0.509294,-0.48782384,-0.47999787,0.11289181,-0.30949306,0.46133575,-0.3899967,-0.110661745,0.07169424,0.5833844,-0.18010001,0.59776396,0.6189623,-0.7823998,-0.47985914,0.34429514,0.8928149,0.6243046,0.8464618,0.40391207,-0.37544337,0.61016726,0.35201848,-0.10072832,0.3837746,0.3228141,0.3441262,0.2151927],[-0.32476804,0.9586327,-0.65249926,-0.96637064,-0.75660634,-0.04977814,-0.7843618,-0.34227818,0.61027247,0.18354557,0.852783,-0.04508725,-0.84162617,-0.9634477,0.29433927,-0.93895096,-0.07279779,0.26380855,-0.053438157,-0.24999626,-0.3434082,0.5636372,0.113382846,-0.24269925,0.7699279,-0.43480942,-0.04131965,0.0694133,0.7998587,-0.44091922,-0.5926296,0.03427525,0.00892729,-0.62155396,0.2475795,-0.46224928,-0.75824577,0.08402991,-0.1997552,-0.71816117,-0.14635825,0.90948725,-0.82832927,0.69348913,0.11594451,-0.8432205,0.47188547,0.22975598,0.4865094,-0.5530083,-0.41495612,-0.9662723,-0.302099,0.22455148,-0.6066569,0.37163383,-0.9972189,0.7493912,0.32051525,0.8409066,0.077250525,0.22105797,0.42620954,-0.920618,-0.044018704],[0.16068102,-0.04521372,-0.083032124,-0.54206824,0.54161346,0.45602894,0.2042569,-0.86421597,0.35569742,0.786818,0.030629186,0.03214656,0.81972545,0.7819891,0.08934592,0.655128,-0.78396547,-0.6901136,0.62292117,0.38896143,0.5064048,0.30091998,1.0440359,0.12632938,0.13429822,-0.5111996,-0.384217,-0.58197325,-0.8710654,0.9323628,-0.12805592,-0.26866198,0.9032334,-0.5784804,-0.5817133,-0.09150029,-0.10939954,0.065722056,0.06445806,0.660067,-0.3137323,-0.16322285,0.5284889,-0.7012591,0.3632914,0.16475634,0.65868706,0.048664425,-0.7115369,0.6784823,0.05782746,-0.39150703,-0.29982597,-0.72549134,0.10762193,-0.46164015,0.69186157,-0.6866866,1.0246154,-0.17836297,-0.9155065,0.79292506,-0.7392854,-0.41987443,0.47047526],[0.44129157,-0.45986685,0.33974135,0.7621514,-0.05367094,-0.1454663,-0.59196407,-0.630185,-0.70063955,0.89946043,-0.6361673,0.008038635,-0.1733298,0.5923263,0.74692106,0.6420925,0.5116487,-0.98389983,0.3719881,0.78896874,-0.8290438,0.89881605,0.29803276,0.6978754,-0.9517691,-0.25948727,1.0130652,0.57546115,0.8748188,-0.042385735,0.16425024,-0.6499923,-0.4394229,0.23470984,0.36580777,0.19735135,-0.032527085,0.8758615,0.45220175,0.07591095,0.06027514,-0.5097386,0.16954237,-0.35114983,0.31941006,0.118476786,0.9713607,-0.55426204,-0.07874734,0.6604556,0.4818275,-0.05458474,-0.6127875,0.56415784,-0.4109572,-0.49545684,-0.645414,-0.805585,-0.66468346,0.6639069,-0.51923436,0.18349853,0.0032302805,-0.46896183,0.12645127],[0.003487543,-0.45701286,-0.012961164,0.25888073,-0.4229307,0.4607174,0.932679,0.12525067,0.93955487,0.13926479,0.30999804,0.047920763,-0.47273487,0.34530798,0.9931947,0.622048,-0.1863676,0.06586766,-0.821493,0.65205085,0.93088156,0.4910682,-0.5615711,0.9882664,-0.9384041,0.028109008,0.93985504,0.005507695,-0.8600803,0.34465712,-0.46081585,-0.2375217,0.11813702,0.6094655,-0.8181008,0.30661505,-0.7629416,-0.35244745,0.27081436,0.7433752,0.61267686,0.20195723,0.6686357,0.669489,0.04783239,-0.69132787,-0.54190445,-0.5528831,0.38223112,-0.14834967,-0.7509049,0.64409894,0.7242011,-0.47259933,0.8307287,0.34770352,-0.041997273,0.72164685,-0.39816353,0.7339114,-0.48892742,0.47032663,0.98327553,-0.32266048,-0.94883156],[-0.53079504,0.35179722,0.17095335,-0.22247584,-0.72501314,-0.067748755,-0.53619593,0.59457844,-0.44204542,-0.31581634,-0.010038063,0.8886668,0.5865478,0.5341686,0.28244925,0.2757714,-0.22876622,0.039243937,-0.8895131,-0.043588378,-0.87121034,0.9138416,0.14500917,0.98401487,0.39552933,0.15017378,0.20571885,-0.14820515,-0.11393739,-0.22546595,0.73550856,-0.884515,0.89099497,0.2778605,0.32717037,-0.8150414,-0.9927293,0.912331,0.5010082,-0.42353863,0.71798027,0.09216836,0.93472683,0.44300616,-0.36020738,-0.6415609,0.33525822,-0.62870175,0.7785877,-0.05068419,-0.9476473,0.31854182,0.9203,0.58464414,0.20255296,-0.6777969,0.91023266,0.9873739,-0.49518532,0.064486586,-0.19280851,-0.43944362,0.58762616,-0.9356542,0.7185991],[-0.02275057,-0.8429062,-0.31906936,-0.7225081,0.30301487,-0.026772272,0.72092474,0.9548327,0.4015193,0.62116313,0.9752286,-0.03406368,0.11766765,-0.36470369,0.7353824,-0.6382276,-0.63075566,0.24211842,1.0657191,0.38525727,0.5511339,-0.2703022,0.13939667,-0.74869925,0.56754446,0.47441643,-0.80854505,0.9366462,0.86950564,1.035668,-0.749601,0.07442728,-0.82113594,-0.20038357,0.3079099,-0.6060012,-0.19720747,0.21236208,-0.17252988,-0.73199093,1.0361887,0.43735045,0.98083806,-0.95003784,0.86424553,-0.718475,0.40751535,-0.93549,0.40518415,-0.06794643,-0.39609867,-0.35273618,-0.67596936,0.85300654,-0.86940914,0.5913894,0.010146688,-0.9720819,-0.03730551,-0.71857667,-0.116978996,0.34329504,-0.95000035,-1.0065621,-0.73427194],[0.9376901,-0.2963125,-0.2422128,-0.10708965,0.42965758,-0.5437697,0.6644715,0.72156596,-0.42472926,-0.06875205,0.097873956,0.38836384,0.8656048,-0.6199032,-0.24869452,0.85904205,0.20103943,-0.71588004,-0.522784,-0.8440781,0.50408113,-0.61333096,0.8772695,0.8168782,-0.5572579,-0.64689434,0.16963768,0.23521559,0.29665938,-0.7247151,-0.91980875,-0.5926628,0.015319196,-0.890623,1.0437819,-0.29390725,-0.74143577,0.13350472,-0.058459137,-0.6097142,-0.19510506,0.08606577,-0.38668373,0.5471367,-0.45846623,-0.07094315,-0.54407823,0.3934531,-0.9078399,-0.56068957,-0.2869588,-0.37652627,0.45648208,0.4476012,-0.3096539,1.0072794,0.5056551,-0.5038098,0.8214362,-0.7836161,0.17945507,-0.43213356,0.9181993,0.5016934,-0.51064104],[0.7776077,-0.32585895,-0.6378849,-0.2834258,0.8558097,0.6607332,0.6161349,-0.73581487,0.9685791,0.66226864,-0.6373521,0.2775267,-0.06480597,0.5274479,0.6020446,0.09960283,0.012207754,0.96643245,0.9096394,0.8677366,-0.14698847,1.0212425,0.47965947,-0.33383274,-0.6986728,0.3798133,-0.36326247,-1.0071121,0.10857104,-0.9423928,-0.523799,-0.21383034,-0.7111788,0.51230764,-0.4378008,-0.3873206,-0.34059012,-1.0231876,0.73977834,0.5587388,0.027648257,-0.1781772,-0.04320156,-0.6801874,-0.042035945,0.84467405,0.051360503,-0.7817261,0.21756707,0.6936958,0.39346364,0.3675553,-0.0446958,0.5223768,0.123182274,-0.36951852,-0.2712699,-0.3722598,-0.44926867,-0.5116996,-0.76088744,-0.73959184,-0.965975,-0.8695867,0.515731],[0.8376859,-0.6915902,-0.6219422,-0.92930835,-0.98425126,-0.44066957,-0.16772348,-0.7658394,-0.6484502,-0.52990115,-0.5656301,-0.448341,-0.11074974,-0.28269514,-0.62681973,0.5348641,-0.18009616,-0.9848337,-0.7882522,-0.9037391,-0.63745517,-0.93802744,0.8716024,0.6781762,-0.77171814,-0.038578987,-0.5080265,-0.48694918,0.07661293,-0.76222265,0.7177474,0.3375652,0.9500601,-0.8643761,-0.38280195,0.16215162,-0.43228602,0.16135973,0.7375254,-0.6948503,0.1381693,0.60422266,-0.25394568,-0.82430243,-0.27765852,0.36950806,-0.6869877,0.37765157,0.7949534,-0.58961284,-0.8717609,-0.32816702,0.72780514,-0.73190653,0.67333335,0.71582955,-0.0024926572,-0.24045321,-0.015528843,-0.32565147,-0.69514406,-0.5180018,-0.6894281,-0.7257704,-0.8470044],[0.02712679,-0.8659749,0.58988494,0.7130982,0.95696557,-0.12326605,0.5472301,-0.46989194,-0.95411456,-0.57147586,0.32816422,-0.12436421,-0.70423317,0.33038035,-0.9481428,-0.7294127,0.20188159,0.11144573,0.9768173,0.25460768,-0.34155798,-0.017406046,0.14678752,0.77410096,-0.97341895,0.76361275,-0.29210663,-0.9052661,0.8879835,-0.95074123,-0.061582107,-0.3500551,0.119015664,0.40142572,0.37349698,-0.8516595,-0.79974896,0.12888701,-0.19700983,0.4803673,0.6168998,-0.8666519,0.21740232,-0.7874174,-0.47511822,-0.5950754,-0.3805558,0.36107686,0.14789954,-0.22849959,0.09915503,0.111982554,0.7772643,-0.108828,-0.83875096,-0.99385226,-0.6318793,-0.2324759,0.71880233,0.28698015,0.74800074,-0.785374,0.16821694,-0.35943812,-0.62896395],[0.27156195,-0.8123175,-0.22801235,0.3098252,-0.87401056,0.2722952,0.7557967,0.7792135,-0.7912198,-0.905334,0.45893165,-0.43462908,-0.23309788,-0.7758876,-0.97160256,-0.2567039,-0.9036422,0.5186336,0.4089904,0.70423055,-0.32020995,-0.4836718,0.85861325,0.4415207,-0.9575058,-0.70664567,-0.931711,0.24798973,0.50577205,0.42575708,0.30956766,0.062409095,0.8395844,0.3566371,0.8356601,-0.3147906,-0.5706575,-0.8980674,-0.10571504,0.8698591,0.4158845,-0.76437473,-0.940493,0.076190986,0.7423571,-0.81986237,0.2546517,0.11213338,0.012377008,-0.38016048,-0.5462069,0.378473,-0.12173968,-0.41815963,-0.05823221,0.23998158,0.6707394,-0.28330788,-1.0057052,-0.29779375,0.2882472,-0.8584033,0.6893658,-0.43230075,-0.91481173],[0.92390746,-1.0249089,-0.7933054,-0.2728843,-0.2842838,-0.1481195,0.97944736,-0.8886257,0.6897292,0.4309794,0.29297173,0.7373233,0.5776017,-0.6744496,-0.8248133,-0.4045465,-0.5500381,-0.3170895,0.5322292,0.31204796,0.45864192,0.6756015,-0.7210156,0.6663906,0.8045973,-0.30529502,-0.13610844,-1.0666014,0.5546686,0.05936662,0.7633674,-0.00034218316,-0.15952598,-0.21727967,0.46480906,0.2544275,0.90086925,0.28264,0.2316572,-0.058134396,-0.45917353,-0.48358646,0.5670855,0.62362504,-0.7549918,-0.05285448,0.5712393,-0.6713954,0.86017716,-0.07591445,-0.52016103,0.08168648,0.16449694,-0.4090488,-0.21939935,-0.49974555,-0.23416132,0.8111304,-0.9864081,-0.19683602,-0.85145056,0.36120212,-0.79790545,-0.3352553,0.13836095],[-0.48899597,0.19700995,-0.8508506,0.35454112,-0.115674496,0.47497743,0.494739,0.031872723,-0.0029078068,0.30950472,0.59375274,-0.9810207,-0.54703164,0.1889361,-0.31806847,0.035189062,-0.13588756,0.015216618,-0.61152333,-0.27117467,0.46235752,-0.35842645,-0.45997104,0.029549161,0.97953,-1.042165,0.40185323,-0.5613192,-0.4575411,0.19752626,0.2283837,-0.56624955,-0.1721798,0.009609455,-0.07626605,-0.63309896,0.72487026,-0.8486865,0.77307427,-0.9696325,-0.63060236,-0.789979,0.17289518,0.7995305,0.63080466,0.96182203,-0.9388282,0.073360935,-0.19646113,0.33885577,0.46490088,0.7278002,0.59892696,0.848285,-0.5907502,-0.6388331,-0.5559008,0.42023903,-0.7805016,0.94988,-0.060190752,0.047388013,-0.8066106,0.38555562,0.8189383],[-0.55996895,-0.20800863,0.65929997,0.8119256,0.7989565,0.14249544,1.0500855,0.8651695,-0.75651354,-0.9767831,-0.9122786,0.56607044,-0.3270047,0.88857657,-0.40000364,-0.006344128,0.22510768,-0.6540843,0.4108412,0.70895016,-0.6026309,0.03089043,-0.5217878,-0.8520392,0.7877938,-0.08406763,0.5915501,0.4855266,0.43690106,-0.43339494,0.07857548,-0.106148235,-0.11613709,-0.88814515,0.49372116,-0.64468163,0.11154934,0.8444703,0.777315,0.6894047,0.5514572,-0.03743841,0.28396502,-0.93746114,0.54023063,1.0172932,0.09530689,-0.78626496,-0.3742724,-0.7355046,-1.0458765,-0.3276941,-0.27439216,0.42126265,-0.49604166,-0.9139984,0.38786432,-0.5074121,0.4645946,0.21760926,-0.89078313,-0.64248574,-0.4163154,-0.8353569,-0.6940773],[0.27341044,-0.729321,0.31085753,0.18624166,-0.99569637,0.8482735,-0.1875175,-0.50801986,0.4798392,-0.39664996,0.26952785,0.28600055,-1.0509453,0.37296277,-0.6383402,-0.18487407,0.37340057,-0.41424096,-0.8970809,0.29342246,-0.7262631,0.90343815,0.47529262,0.5721205,-0.60907245,0.35065928,0.2848964,0.714081,-0.077967785,-0.9859364,-0.21067952,0.077219054,0.4798118,-0.7570337,0.26029214,0.58420616,-0.5458275,0.92045116,-0.13401069,-0.19373189,0.8240946,-0.28815717,-0.5385104,0.28636485,0.49703658,0.6025504,0.9665279,0.8114196,0.25448298,0.9541258,1.0094132,0.49969602,-0.60830843,-0.3403789,0.03536896,0.9550178,0.7402404,0.70917165,-0.0057256524,-0.40924683,-0.92214465,-0.30966678,-0.23839287,0.5268951,-0.85547614],[-0.9016168,-0.4623672,-0.0012071839,-1.0967982,0.19965413,-0.22569616,0.6907278,0.10125548,0.32029435,-0.740675,0.5776228,-0.7120453,0.70824873,-0.38588235,-0.5795428,-0.31603494,0.31596398,-0.46977666,0.64064306,-0.78070456,0.48323894,0.6570482,-0.9499059,-1.0956457,0.5525904,-0.092164524,0.422716,-0.5907674,0.34334344,-0.28342107,0.66269267,0.41238156,-0.6237539,-0.4886482,0.5096637,-0.6199042,0.045385852,0.0658044,0.6795486,0.7366355,-0.28720602,-0.08200532,0.82561505,0.8632551,-0.3092055,0.8480847,0.9235101,0.89046603,0.7044684,0.46947852,0.22095421,-0.38612366,0.41011927,-0.5169024,0.3443528,-0.6404393,-0.19454694,-0.041917857,0.46607465,-0.26938543,-0.06041208,-1.047912,0.4652166,0.43205303,-0.6343933],[0.7566864,-0.9230589,-0.6235644,0.25295964,-0.40926284,0.9659099,-0.8059068,-0.735886,0.18833153,-0.5169951,-0.73920786,-0.09803104,-0.58517677,-0.8724103,-0.5821586,-0.5170468,0.6544038,-0.30515334,0.64068663,0.8975781,0.28680778,-0.8523884,-0.9059313,0.7923261,0.69851744,-0.45969206,0.074457996,0.4059138,-0.04439437,-0.1994575,0.69078416,0.65088016,0.697314,0.30639482,-0.5894384,-0.03299796,0.40094575,-0.43991148,0.4369127,-0.4393785,-0.44001567,-0.3408222,0.34654605,-0.39914128,-0.73883027,0.77165353,0.8921916,0.11904935,-0.43526873,-0.30155513,-0.78325474,0.77001876,-0.6224467,0.56307787,0.44651824,0.85991347,-0.4201079,-0.113318294,-0.27758858,-0.8404299,-0.47530958,-0.45049825,-0.7289323,0.94611716,-0.25441805],[-0.76467454,-0.19886665,0.055147335,0.4984334,0.75268424,-0.055189203,-0.49889225,0.9490293,-0.074519694,-0.57250667,-0.38550895,-0.7471159,-0.8309617,-0.5593907,-0.1229994,0.89770967,0.4493609,0.4805934,-0.39192805,1.0373735,0.27636397,-0.71642244,-0.21939361,0.60382414,0.9128523,0.2250337,0.86188567,-0.47216174,0.6924882,-0.9296299,0.8704986,0.4259473,0.2516857,0.7096106,-0.11391591,0.5666122,-0.42607072,0.58379704,-0.673532,-0.92224,0.7812311,-1.0346694,0.8571042,-0.6243119,0.08309669,0.24330917,0.35844684,1.0267298,-0.030415976,-0.18357797,-0.35305998,-0.49215788,0.092449896,-0.23102987,-0.6484783,0.82173645,0.31370512,-0.2000602,-0.26808056,-0.8519354,0.45287296,-0.9163907,0.57450706,0.692975,-0.84298015],[0.8722123,-0.88213706,-0.7084218,-0.2153686,0.11705544,-0.5070602,0.88116646,-0.93032223,0.047939178,0.9675024,0.9275071,0.46365595,-0.41591918,-0.9684386,0.28495678,0.6486299,0.50602776,0.7812299,0.18434519,0.21487641,0.26258743,0.5148938,-0.5744746,-0.6974843,-0.9848579,-0.93004155,-0.22626066,0.15102361,0.62387586,0.30650476,0.35899454,-0.9664939,0.35016435,-0.17047912,-0.19309515,0.79247844,-0.6448391,0.009617513,0.097992845,0.16258426,0.32122406,0.49062902,-0.401818,-0.048579156,0.4402524,-0.06003726,0.2084362,0.4238892,-0.7486588,0.93463826,-0.38314745,-0.19063644,-0.5341562,-0.6744336,-0.490891,0.71771914,0.125364,0.55742455,-0.25382486,0.6305079,-0.13714191,-0.27464548,0.31998718,-0.264721,0.36397654],[0.7183535,0.20547377,-0.6670097,-0.65174985,0.8991095,0.85417235,-0.6227772,-0.31228486,-0.7601584,-0.96841687,-0.8273203,-0.49565208,-0.20883247,0.044751257,0.33024898,0.46212432,0.4626157,0.5903828,0.35937142,-0.047746155,0.37174517,0.028004041,0.6353603,0.8151006,-0.017234318,-0.53285664,-0.038774632,-0.7750911,0.41192487,0.61842096,0.16835822,0.25914615,-0.49441615,0.4051887,0.10409322,0.44497743,-1.0528297,-0.61726373,-0.23405142,0.09165424,0.128884,0.6890555,0.92777205,-0.34001383,-0.19083211,0.011425219,0.73233557,-0.44784793,0.9244764,0.44703,0.80859816,0.07019018,0.012586335,-0.53216803,-0.7051117,-0.9078841,-0.49990687,-0.18914372,0.6744513,0.22314776,-0.5247007,0.99238235,0.018329067,0.23403622,0.4054662],[-0.6411951,0.819302,0.6715332,0.7894424,0.20450607,0.6875659,0.50594336,0.67605984,0.37482604,0.9181037,0.6877739,0.16590258,-0.46039534,-0.6886211,-0.3448821,0.8613822,-0.3537452,0.751509,-0.08766482,0.876848,0.3496539,0.5610778,0.68841386,0.62931514,0.07958097,-0.35824123,0.8714337,0.21853891,0.10798946,0.90511274,-0.7047182,0.2393545,-0.45502624,-0.20426019,0.070251055,0.8030852,-0.23326017,-0.45226443,0.2066893,-0.33081013,0.9719725,0.70753247,-0.9725053,-0.027727861,0.007828608,0.33514053,-0.054106332,0.9232115,-0.24349862,-0.3628576,-0.71356165,0.03381454,-0.25170404,-0.8557232,-0.30471793,-0.5692117,-0.045269474,0.23657747,0.65468436,-0.97313136,0.96936256,0.72771305,0.6576865,0.6019424,-0.17665441],[-0.20251255,0.116044275,-0.7378372,-0.5302462,0.8245081,0.8840377,0.51543975,-0.82927376,-0.17547522,0.4844953,0.99779975,0.44323254,-0.2674528,-0.71646035,-0.49672207,0.31035665,0.96574664,0.50415945,0.2545649,0.25165457,0.14702949,0.28781617,-0.5028403,-0.4426002,0.521189,-0.46804872,-0.061762623,-0.3955361,-0.1374578,-0.63752764,0.7649917,0.6635749,-0.54420733,-0.82939714,0.17454138,-0.6247937,-0.9916177,-0.45357326,-0.3249161,-0.8349466,0.0010550471,-0.96311295,-0.57750934,-0.72405154,-0.06986699,-0.43450657,0.53003055,0.55793,0.7752421,-0.19115926,0.40243983,-0.044013273,0.17087388,0.90822244,0.42928034,-0.82216305,0.91827327,0.9415063,0.51600933,-0.7623189,0.8150234,-0.5071762,0.5545939,0.42242572,-0.69607496],[0.58915234,-0.6552555,0.10960974,-0.954623,-0.04711252,-0.057882592,0.20163898,-0.16301437,0.09378358,-0.21842319,-0.24047488,-0.629403,0.7599043,0.19181874,-0.26822978,0.65292585,0.2392221,0.75540906,-0.6733825,0.37868974,-0.25883615,0.5207621,-0.38874164,0.8426864,-0.48099947,-0.8052931,0.92710024,0.013235172,-0.85713774,0.86998636,0.737879,0.24477528,-0.96115315,0.5051658,0.2564876,0.64239466,0.94952077,-0.9194966,-0.058466654,0.35459006,-0.10905346,-0.6189373,-0.6580862,-0.72462887,0.23606308,0.25651437,0.18868302,0.17722018,-0.5804225,-0.33069766,0.0621398,-0.4820199,-0.20159392,0.13698603,0.36015975,0.66199386,-0.7365281,0.8057773,0.3466039,0.41489583,0.8687348,0.27178612,-0.6344409,0.28192326,0.32051727],[0.2649839,0.3380197,0.46628416,0.4552146,0.7778929,-0.03280417,0.77835727,0.61922336,0.65616167,-0.2937097,0.0042888895,-0.122018464,0.88850915,0.4069684,0.5870997,0.5167466,0.75167775,0.68625706,0.4740756,0.6260176,-0.5122708,0.49947497,-0.16738075,0.28093386,0.5810175,-0.7951375,-0.16672969,-0.83126444,0.35433602,0.4516954,-0.5248744,-0.3629019,0.43582213,0.21996015,-0.47972408,0.10936274,0.45577565,-0.2966464,0.065443315,0.87863934,-0.66611624,-0.4423606,-0.22435549,-0.06500879,-0.9825791,-0.50915956,0.50260067,0.47213376,0.48651809,-0.5977685,-0.030650612,-0.8291871,-0.73395514,0.035812244,-0.6815233,0.68400186,-0.4023569,-0.62895375,0.42080456,0.5610031,-0.70140404,-0.014962486,-0.12545091,0.44561496,-0.4502735],[-0.017665884,0.8479532,-0.4812128,0.25665596,0.34259334,-0.91987264,-0.21555375,-0.52380824,0.15367833,-0.6622667,-0.34159973,0.8532764,0.9805083,0.71868,-0.39233938,0.7298692,-0.4331308,0.3064716,0.82201624,0.09191083,-0.6690452,-0.49430618,-0.48193723,0.85202146,0.19927478,0.25655124,-0.9022325,0.7560112,-0.63431364,-0.023152707,0.41594827,0.31372598,-0.23504195,-0.3404641,-0.9634191,-0.23627841,0.5735833,-0.75734156,0.416167,-0.4979525,0.286434,-0.85493934,-0.59614867,-0.39436015,0.4809448,-0.00495243,-0.69432807,0.71044695,-0.3236216,0.36382115,0.021238202,-0.13131909,-0.8309928,-1.0087436,0.68376493,0.3372625,0.9439706,-0.045553476,0.4075531,-0.6820749,-0.29254812,0.29235628,0.5141087,0.50959605,-0.5061875],[0.84272754,-0.035128795,0.080254935,0.8500421,0.58059525,-0.44691786,0.27310264,-0.37362927,-0.05478745,-0.3306244,-0.3539654,-0.73141146,-0.84331363,-0.13185795,-0.5517614,-0.25969633,-0.26031575,-0.37597477,-0.6591001,-0.058126412,-0.28933397,0.5733245,0.008133468,-0.47866166,-0.6858745,0.6311135,0.08706977,0.37429786,-0.39719468,0.5316547,-0.47710913,-0.9852818,-0.9312931,0.087237224,0.055510554,-0.67110425,0.45519373,-0.1635956,0.26812014,-0.8755476,-0.37658656,-0.27387035,-0.8570784,0.43504128,-0.4706808,-0.8480214,-0.09470279,-0.020128073,-0.9771439,0.43596828,-0.8789737,0.92268866,-0.5113713,-0.9284886,-0.0075421575,-0.5922075,0.32692504,-0.2572958,0.25970927,-0.9528727,-0.26928622,0.17517763,0.2970031,-0.019934949,-0.17544445],[-0.53394526,-0.61433583,-0.23165922,-0.14446285,0.8014588,-0.0005734331,-0.6801349,-0.8028895,0.38846308,-0.20828009,0.15199062,0.5102824,-0.3137771,-0.31129307,0.7818794,-0.37782863,-0.64205074,-0.331619,-0.56511396,-0.0080384035,-0.0041189627,-0.37617078,0.509527,-0.61653286,-0.4070386,-0.39463797,-0.5327045,0.7406873,-0.32734266,-0.4577054,-0.86614615,0.6010141,0.9404789,-0.47583917,-0.3774354,0.09332399,-0.024722418,0.81200194,0.67801046,-0.10737205,-0.3054688,-0.72431445,0.9052545,-0.50653,0.45249626,0.3962805,0.6165859,0.4774045,-0.9399922,0.65417266,-0.39470682,0.54532695,0.45274958,0.5081095,-0.37848142,0.08119006,0.5224087,-0.30478385,-0.4999633,0.78916407,0.41529316,0.15307544,-0.45633766,0.045490045,-0.41910836],[0.44129455,-0.8128114,0.7061472,-0.9475631,0.3875352,-0.103099786,-0.8841544,0.9440917,-0.8387982,-0.68847954,0.3300795,-0.078746416,-0.08929029,-0.72799045,-0.38205832,-1.0214772,0.3560338,0.84562004,-0.9294807,0.65480226,-0.07580335,0.29774085,0.81001896,0.36520925,0.8047087,-0.37942448,0.28597674,-0.29777306,-0.80591947,0.6001857,-0.89637506,-0.18643327,-0.76291925,0.7645022,0.6356118,-0.22886087,0.07499054,-0.052297186,-0.06951021,-0.7044737,0.3436925,-0.76969004,0.03487459,0.6529866,0.41955748,-0.7513274,0.0947757,0.2688122,-0.32067972,-0.61778516,0.4612451,0.60431296,0.16216259,-0.015875237,0.85409445,-0.2495091,-0.71018225,-0.32917014,-0.2532841,-0.38582873,-0.91705585,0.84538907,-0.866799,0.7303276,-0.5672405],[-0.833147,-0.82455856,0.019559946,-0.6758668,-0.8909958,0.3282565,-0.14394431,0.93248624,0.036785576,-0.033261888,0.5466046,-0.44194955,0.07749421,0.37882507,-0.5560513,0.10942318,0.43115246,-0.7723271,-0.5432067,0.8403947,-0.29285684,0.005657504,0.9624233,-0.01282858,-0.5040311,-0.41317213,-0.28710946,0.36645308,0.973668,0.0009076512,0.74327093,0.41729698,-0.202144,-0.3416094,-0.90878403,-0.9549293,0.81894535,0.15271345,0.048678897,0.8939185,-0.70765525,0.6870305,0.12329261,-0.8225736,-0.3307164,-0.7710366,-0.9211545,0.6783481,-0.6023513,0.28779536,-0.121316426,0.40425888,-0.4532185,0.17940299,-0.20559643,-0.057211425,0.044345267,0.20483232,-0.25339562,-0.64186496,0.844256,0.90280473,-0.29820785,0.92748004,-0.6849318],[-0.46385172,-0.5307494,0.84464484,0.32527053,0.026547462,-0.37921116,-0.51208353,0.93078375,0.16435276,-0.76380974,-0.51912427,0.42975476,-0.09304902,0.21263462,-0.2435864,0.02085872,0.54921615,-0.38656846,-0.6719237,0.09341275,-0.041416414,0.4290259,-0.9741342,-0.9667221,-0.439621,0.040998437,-0.04592466,-0.22259834,-0.5969059,-0.16106185,-0.73482275,0.39415267,-0.048137765,-0.1491906,0.7959572,0.894412,0.014720351,-0.33608392,-0.5349179,0.29885057,-0.80936974,0.5517731,0.45475453,0.34278303,0.5549714,-0.9127955,0.6720665,-0.19584005,0.3679471,-0.58244187,0.67318237,-1.0141834,0.8433703,0.90483236,-0.8493188,-0.080510646,0.43730488,0.5213224,0.21466057,0.008348071,-0.22907229,-0.4904181,-0.135129,-0.911959,0.4449295],[-0.28777012,-0.42061982,0.18519749,-0.29355896,0.030553652,0.96229297,-0.6835709,0.63998544,-0.36352614,0.34715608,-0.605776,-0.09991166,0.45331454,0.8447691,-0.9556286,0.96052897,0.09536799,0.714155,-0.8227427,-0.6575668,-0.6079897,0.48776582,0.8219615,0.9480407,0.7475291,-0.4701638,-0.48268297,0.31136873,-0.6151992,0.9708238,0.6428522,-0.61647063,-0.45131537,-0.7455303,0.44742098,-0.79439795,-0.06449335,0.853055,0.8239349,0.041613355,0.6744828,0.6541325,-0.09212647,0.41061008,-0.78861916,0.46069795,0.2275418,-0.7517155,-0.7310798,-0.36755508,0.21404974,0.59926087,-0.56332594,-0.8020042,0.7861831,0.043999597,0.6770709,0.5766881,0.39533302,-0.21494529,-0.49420846,-0.9808097,0.79931056,-0.88806754,0.9819457],[0.6703382,-0.46487615,0.7496405,0.14932044,-0.17177598,-0.02657729,0.16956979,-0.9671473,0.99141043,-0.56553656,0.12501535,0.25659737,-0.47911692,0.4715035,-0.97900087,-0.18652004,0.130361,0.96415395,0.43102905,0.6270762,0.39856452,0.34086597,0.8221033,0.32709265,0.8731479,0.16916944,0.90035915,-0.40031922,-0.81802946,0.57090324,-0.15336701,0.047314163,0.57373726,0.33645535,-0.9589883,0.43579173,-0.90791935,0.5600162,0.94752073,-0.46535355,-0.7322421,0.5516765,0.9897166,0.4385005,0.23226152,-0.26135534,-0.33905458,0.2832392,-0.39743966,-0.3654836,0.29781047,0.9189118,-0.6113599,-0.69196886,-0.16869378,-0.6417852,-0.51129866,-0.2039152,0.90283275,-0.697007,-0.64381665,0.818327,0.65505683,-0.28905585,0.49806267],[-0.19837283,-0.5714995,-0.7237363,0.101781644,-0.93616706,0.2595356,0.18370016,0.38474604,-0.37683904,-0.4020243,-0.6064224,0.8363782,-0.7001498,-0.38830927,0.0017080803,-0.122315206,-0.13260187,-0.75537986,0.2958202,-0.6335846,0.46108165,0.63653886,0.60824984,-0.24156234,0.21663724,0.30046546,0.32501274,-0.51870364,0.20370686,0.0030552028,0.96189183,0.8649393,-0.37311321,-0.7036637,-0.6369044,-1.0196158,0.34144673,-0.83831465,0.9594693,0.81659657,-0.6955347,-0.36384708,-0.13105941,0.08946181,0.3030975,-0.11069511,0.0050424766,0.36397284,0.20392172,-0.7928146,-0.10006046,-0.3357297,0.8869241,0.5590008,0.595317,-0.67719156,-0.5689894,-0.5405563,-0.6895961,-0.6602858,-0.29111052,-0.23474742,-0.85122395,-0.9731605,0.78504866],[0.3081289,-0.752653,0.9754469,-0.000073232506,-0.7721923,-0.23800993,-0.44696677,-0.18306153,-0.44341448,0.6400912,0.5977263,-0.27787364,0.8499984,-0.14117903,0.68070763,0.7835743,0.8995973,0.47483522,-0.4595735,-0.51037776,0.8793714,-0.18016224,-0.25445795,-0.13696949,0.7973105,-0.68845457,0.83036304,0.07282139,0.040518906,-0.39246672,-0.5783393,0.59317476,0.42323545,-0.24136811,-0.61961496,-0.5327331,-0.028225623,-0.5628228,0.7464021,-0.5584325,0.04246315,-0.21068677,0.62180716,-0.78636926,-0.9820998,0.46172312,0.46625057,0.45960963,-0.86988205,0.9722229,0.6707719,0.0689041,0.38752055,-0.09555572,-0.31305543,-0.10438385,0.6364739,-0.9660989,0.6055194,0.45887536,0.8161239,-0.09668074,0.13835873,0.0051230164,-0.68967676],[0.40921295,-0.44722968,0.7137399,-0.01305187,-0.21630704,-0.62785023,0.36370257,0.34943616,0.2005979,-0.6975389,0.29279584,-1.0764358,0.6080177,-0.34818563,-0.5935443,-0.14782543,-0.27214274,0.91957915,0.056815565,-0.85552764,-0.26507002,0.40599158,-0.6143453,-0.85506314,0.31843725,1.0296456,-0.0046641147,0.029882235,-0.60032946,0.9742085,0.45558727,0.8791142,0.3608937,0.73176,0.3067171,-0.60957515,-0.519431,0.26591262,0.69828814,0.32103425,0.14606763,0.7798501,0.19164899,0.79585874,-0.609588,-0.3164635,0.1561032,-0.9728195,0.30205676,0.85036874,-0.091201,-0.095170856,-0.3053201,0.07970994,-0.5847579,-0.24838471,-0.4440725,-0.079289265,-0.783961,-0.20896204,-0.99273163,0.067937426,-0.25332004,-0.59284717,0.19707048],[0.9920175,-0.18111908,0.69498116,-0.17213242,-0.43801472,0.947603,-0.5459177,0.40417853,-0.27150565,-0.6940328,0.47152516,0.6207053,0.9376621,-0.939232,-0.048283912,-0.49906498,0.53839344,-0.89929056,-0.71368843,-1.0240052,-0.2717444,-0.8665263,0.54140687,0.5287004,-0.77584606,-0.2148254,0.69791174,0.7507692,-0.21626133,-0.97986966,0.30536914,-0.89602816,0.31294054,-1.0466499,0.78836465,-0.5256967,0.018372519,-0.32884264,0.4502809,0.9577655,0.91758955,0.3149199,0.30819222,-0.045619097,-0.041806016,-0.34342122,0.6686748,0.33737978,0.48639724,-0.26923347,-0.91081697,-0.6136396,-0.5856168,-0.8318308,-0.23564465,0.68402195,-0.7276788,-0.78799444,-0.70850724,-0.5015439,-0.092055164,0.8560182,-0.80504984,0.8342781,-0.08132072],[0.07487378,0.69855833,-0.1798698,-0.81658626,0.4574842,-0.4286586,-0.27234364,0.60824835,0.98903984,0.04841642,-0.20926681,0.022455877,-0.86294866,-0.6716257,0.26498687,-0.8350373,0.9320266,-0.34232756,-0.14013624,-0.8251179,-0.38985506,0.81817526,-0.20879194,0.55725354,-0.17792286,0.112708196,-0.19870096,-0.5293582,0.38310635,0.867919,0.47296306,-0.31529996,-0.7931013,0.4851762,0.61518675,-0.5403414,0.07544455,-0.6581078,0.74977493,-0.8395742,-0.5299952,0.52933204,0.59285355,0.21245393,0.972138,0.12900633,0.85497683,0.83665293,0.5416222,-0.38417077,-0.16646981,0.62455744,-0.32461452,0.36144173,-0.20124304,0.84448373,-0.3984499,-0.15332769,0.27061796,0.2306794,0.8324457,-0.26051718,0.9348584,0.04797375,0.3636339],[0.5085403,-0.049261853,-0.55889565,0.77294695,0.793805,-0.6935346,-0.04085103,-0.036501415,1.1127481,0.7837695,-0.832559,0.13619566,0.4521902,0.7820255,-0.081669666,0.12209314,0.17208388,-0.60373706,0.9345202,0.33433264,-1.0220872,0.35664028,-0.8363724,0.16527125,-0.6302993,0.5696588,-0.38332045,-0.86910725,-0.73734015,-0.11021192,-0.9077064,-0.21597552,0.44566455,-0.2621796,0.26557696,0.07260053,0.91916114,-0.8560402,-0.9573826,-0.2601787,0.51605636,-0.37481955,-0.9194003,0.60641557,0.10740935,0.75966513,0.8792006,-0.3265337,-0.59686667,-0.61688405,-0.13663432,0.8139875,-0.3670557,0.37042224,0.21708304,-0.21778306,-0.12029829,-0.27032298,-0.28142038,-0.009410339,0.26262522,-0.6492447,0.26211056,0.89997643,-0.8063283],[0.012750833,0.6681966,-0.55358833,-0.37855873,-0.6678956,0.9761007,-0.040110957,0.17042461,-0.64857996,-0.7706118,-0.27043033,0.1581128,0.3809295,0.81071603,-0.061386783,0.62109935,-0.029513128,0.6838454,-0.67175215,-0.59211695,0.1006054,-0.23904562,-0.7146379,-0.19484368,-0.71454406,0.7529907,-0.65310454,-0.35182574,0.02591949,0.64876664,0.23936915,0.45755485,-0.91742533,-0.05369066,0.19925274,0.79860234,0.56632674,-0.037340906,-0.43590856,0.0032195132,0.502627,0.7178041,-0.34369886,-0.5301334,0.778078,0.1690351,0.74786687,0.08768547,0.7123076,0.346324,0.7878388,-0.79478675,-0.360436,-0.90406847,-0.72918147,-0.2830795,-0.7415894,0.7191546,-0.20266321,-0.25327754,-0.9184457,0.7141004,-0.18457481,0.28604895,-0.24372305],[-0.143376,-0.8637972,-0.2871803,0.4350698,0.3821563,0.22885726,-0.06081651,-0.5632178,0.25627953,0.56184113,0.2379851,0.48380795,-0.4547656,-0.591923,0.20844421,0.3767967,0.7461684,-0.25672272,-0.8489216,-0.8359973,-0.4534099,-0.4464345,0.13863839,-0.25084004,0.98576736,-0.43233824,-0.16869517,-0.042894542,-0.6538796,-0.7434192,-0.96031237,0.87891656,-0.18307886,-0.12173704,0.6280528,0.42162463,0.40193164,-0.80187947,-0.1920086,0.29557562,-0.011924254,0.5888302,-0.71857893,0.86420435,0.44286656,-0.66556966,0.17505848,-0.7251133,-0.3999434,0.36098832,-0.34034097,-0.26929355,0.0065802136,0.22377932,-0.19626136,-0.5489187,-0.95311505,-0.19302468,0.21575627,0.54261065,0.70316607,-0.34363297,0.31852472,0.30486563,0.3841172],[0.72608376,-0.5260688,0.098936364,-0.25203595,-0.04052893,0.54772794,-0.80671936,-0.9610337,-0.28009126,0.6894846,-0.07963846,-0.8344059,0.09501049,-1.1231765,0.93243706,0.4990842,-0.8771257,0.41479975,0.012375345,-0.77247924,-0.4151394,0.10005175,0.20759603,0.76439136,0.078875676,0.9561343,-0.66961503,-0.0061289794,-0.5117472,0.8989522,-0.21184638,0.4126194,-0.115752816,0.14394048,0.5848635,-0.1164314,-0.9532133,-0.51338637,-0.065876335,-0.11187519,-0.62920994,-0.29087785,0.01690232,0.53191924,-0.45122665,0.5224101,-0.8013821,0.038310707,0.7155651,0.16291474,0.27473718,0.08789044,0.9699968,-0.23521177,0.41127637,0.7321302,-0.9038654,-0.28865665,0.9127692,-0.1055775,-0.94336826,0.5128845,-0.48258948,-0.055111308,0.53491557],[-0.6473166,-0.78512543,0.33469108,-0.3488169,0.86039925,-0.6335396,-0.8203117,0.82536757,0.28301498,-0.91084874,0.45016497,0.22339138,0.3196224,0.2004583,-0.11348456,-0.18163247,-0.67536837,-0.45473352,-0.16271271,-0.76586056,0.79306436,0.9340221,-0.07678083,0.51206535,0.54095495,0.56418705,0.053600162,-0.2137208,-0.099519946,-0.51654106,1.0637454,-0.7530155,0.5524846,0.49363428,-0.49797416,0.29259235,0.1800564,0.014145926,-0.84987414,0.1663205,-0.39148584,0.33651197,0.3831151,0.28198957,-0.7023283,-0.9346674,0.868563,-0.7533788,-0.5878544,-0.39427856,0.5819407,0.9169887,-1.074258,-0.71629107,-0.8263826,0.78655505,0.31783605,-0.8363303,-0.026954424,0.18818653,-0.28947094,0.44415823,0.3720293,0.095709495,0.4831458],[-0.8730718,0.12367784,-0.7644411,-0.21979281,0.99073714,0.34941807,-0.6192413,0.03124659,0.43690774,-0.95822257,-0.7885815,0.3667955,-0.09508505,0.22240199,-0.53340197,0.47973496,0.42258698,0.9148665,-0.9927362,0.8416427,-0.96750987,0.8828583,0.23654966,-0.361304,-0.9623487,-0.17877752,0.19736384,0.89288867,0.8831724,0.8855309,-0.55560905,-0.4588639,0.35616836,0.6519973,0.44215664,0.39477447,-0.15730791,0.33642995,0.7743935,0.028479386,-0.31933784,-0.33577868,0.9904571,0.32410705,0.5625737,-0.051569458,-0.933925,-0.46966442,-0.85274917,0.51925,-0.25123972,0.965711,0.8852419,-0.87899786,0.18279694,-0.78445333,0.7764911,-0.3326644,0.28338212,-0.6836414,-0.23292994,-0.6286625,-0.37005496,-0.4317472,0.45001355],[-0.07361241,0.8215957,0.14850119,0.20446847,0.71126354,0.11436156,0.6341636,-0.959928,-0.3117565,0.9810705,-0.72852546,-0.19939935,0.39420944,-0.015498979,-0.96697706,0.2208138,-0.79139435,-0.25939903,-0.7948485,-1.0386178,-0.9925237,-1.0625538,-0.53141505,0.83563244,-0.92506176,0.41040382,-0.51228267,-0.24189377,0.5602273,-0.4874763,-0.15567216,0.59030163,0.15866758,-0.027276987,0.82285774,0.56362635,0.26178703,0.8009643,0.64345574,0.62940145,-0.83766717,0.05591717,-0.39097393,0.8544155,0.8605944,0.051762935,0.79834145,-0.8089412,0.4279738,-0.79510444,-0.051258903,0.38568196,-0.076914616,-0.92387426,-0.24948312,-0.120743975,0.06099255,0.62419945,-0.4712903,-0.11585607,0.9805526,-0.2666645,-0.44163486,-0.5917961,0.013642939],[0.93809354,0.30393547,-0.76758295,0.39564553,-0.35368195,-0.049799517,0.78056693,-0.34661755,-0.48185265,-0.7588951,0.70509464,-0.71314865,-0.95901227,-0.9891658,0.3282181,0.33725068,-0.74079984,-0.10094994,0.6040302,-0.7528226,0.9209264,-0.5823686,-0.77458465,0.62016577,0.0076622795,0.9312585,0.73514175,-0.8252535,0.23030092,0.28163707,0.9084662,-0.2137291,0.7128764,-0.60568815,-0.575248,0.21356721,-0.7348932,0.7348425,-0.113461986,0.57592666,-0.9268508,0.039213754,-0.70098805,-0.52917284,0.030791987,0.28550586,0.122609966,0.08274544,0.3706293,-0.8594664,0.028533973,0.56172603,-0.27176446,-0.41021794,0.12659769,0.74175274,0.008756646,0.3996851,-0.41177148,-0.9495515,-0.023481552,0.8476595,0.4619995,-0.018122733,-0.83848006],[-0.49663666,0.5588563,-0.05535822,-0.9220818,0.44209358,0.04645504,0.85838974,-0.7700489,0.93245625,-0.34982088,-0.1818602,0.5968143,-0.6538211,-0.10429759,0.89650667,-0.69666237,-0.8042224,-0.45603877,0.40262118,-0.13725854,-0.36734265,0.36241686,-0.20624712,-0.10406894,0.3913943,0.045915574,0.63812506,-0.8944088,0.66705096,-0.012289582,0.56632394,-0.86452466,0.49521005,0.004137917,0.40079024,0.43380612,-0.5134157,-0.98684055,0.39366007,-0.48570952,-0.7157441,0.4230897,-0.31228557,-0.89519256,0.9302672,-0.5442549,0.38380155,-0.60475373,0.97296345,0.53273547,-0.39985073,0.4988283,-0.35797876,0.8868881,0.87695277,0.3263568,-0.6544065,0.28134722,0.71961373,-0.8290559,-0.8914099,-0.36567754,-0.5474811,-0.41801587,0.21652229],[0.7241028,0.89848244,0.7248758,-0.63244027,-0.29173258,-0.60928357,0.4322886,-0.92123014,-0.40641648,-0.7696297,0.0025979704,-0.98937386,-0.75553644,-0.45634106,0.7058084,0.69293225,0.426094,0.583893,-0.9099769,1.0410476,0.41038856,0.081439875,0.29812726,0.8788813,0.23663583,0.54671735,-0.68850315,-0.6779971,-0.19397302,0.30019516,-0.28976244,0.7620135,-0.6635574,0.20862846,-0.88228524,-0.3093689,-0.83584243,-0.18134056,-0.43923607,0.30113977,-0.9398807,-0.49079755,0.62061846,0.6102887,-0.011037533,-0.23614612,0.5289975,0.359361,0.34899646,-0.38382253,-0.39730448,0.14412828,0.40470558,-0.40709952,-0.49503797,-0.3743908,-0.5031402,0.5294384,-0.22321223,0.15934059,0.9602937,1.1081429,-0.3624638,0.3705043,-0.5061057],[-0.63577956,0.4838202,0.5801936,0.6796192,-0.28712875,-0.21515867,0.0994347,-0.3795878,0.37341988,0.040053915,-0.1609449,-0.96891415,0.07079918,0.45634896,0.33878383,-0.20366251,0.4350357,-0.109749675,-0.3696616,-0.5612176,-1.0331477,-0.11678769,0.10373304,-0.8035098,0.024511289,-0.6111988,0.29579568,0.6450864,0.97887605,0.4255735,-0.32119307,-0.07130054,0.1731927,-0.14060457,-0.922266,0.025268106,-0.8386176,-0.80486906,0.3930643,0.36388168,0.50739694,0.9197162,0.42899916,-0.87479186,0.19113168,-0.47572538,-0.286351,-0.19292085,-0.37134528,-0.24824186,0.8693539,-0.4622739,-0.85237074,0.36822322,0.032211874,-0.19316524,0.48537594,-0.21921392,0.39194533,-0.30698472,0.18144673,0.19881749,0.2435545,0.2340505,0.6334966],[0.6803606,0.58948934,0.93750334,0.039439183,-0.8030426,-0.75670433,-0.08105521,-0.6282206,-0.7357627,-0.8718229,-0.8318541,0.59888816,-0.6821994,-0.6672738,0.8575376,-0.073407,0.27499145,-1.0142475,-0.00088504935,0.56644213,-0.32985604,-0.5199789,0.53430194,-0.9550141,0.8650601,-0.060017012,0.09027816,-0.86002547,0.27919516,-0.20813614,0.5838262,-0.7957255,-0.4936189,0.31273323,0.8397223,0.23765625,-0.67545766,0.8970814,-0.47452366,0.68088126,0.66109633,-0.037472103,-0.761006,0.43162286,0.77797294,0.23563075,0.7516032,0.40443113,-0.91316193,-0.62099606,-0.8417633,0.28733578,-0.79125595,0.3575554,0.15511474,0.16056111,-0.83390146,0.75491244,-0.71450275,-0.6749488,0.7678906,0.8186618,0.5058337,0.32575604,-0.6909942],[0.42605248,0.51018465,-0.44088137,0.5671101,-0.29342085,0.39260718,-0.23829637,0.68821007,0.4662043,-0.03576877,-0.6123224,-0.385976,0.53800523,0.37603763,0.7771253,0.9131564,0.24183568,0.43764377,-0.5538535,0.0035323577,-0.021053836,-0.9018902,0.5570685,-0.75791425,-0.78243613,0.45366848,0.28210658,-0.3330586,-0.828655,-0.8826863,0.13021182,0.5260615,-0.6147592,0.5198706,0.1003641,-0.33661458,-0.3206148,-0.6572429,0.28266767,-0.3172726,-0.922772,0.45910498,0.63186413,-0.22602484,-0.15639389,-0.9051494,0.54411167,0.8465567,0.7161397,0.22543848,-0.5041443,0.41731164,0.87018996,-0.5555918,0.01581888,0.6302967,0.8797157,-0.40963542,0.9110901,0.37321484,0.65487874,-0.26494366,0.8607359,0.78128576,-0.4182351],[0.5940823,-0.7888374,0.21952678,-0.17007649,-0.606368,0.2403783,0.10119918,0.5895287,0.6040474,-0.735438,0.44244435,-0.8894343,0.7577514,-0.07324552,-0.27112234,0.7330743,0.8026627,-0.98858637,0.26966375,0.49214408,-0.06902603,-0.46407863,-0.42548633,0.67755723,-0.68932396,0.75217587,-0.64324373,0.27705926,-0.19943914,-0.88520944,-0.3527951,-0.83293104,0.22135165,-0.04740779,0.8239874,-0.6058229,0.7642651,-0.9744835,-0.35602194,-0.81451946,0.9351284,-0.47685078,-0.011232722,-0.3475824,-0.09448163,0.66537666,0.1253993,-0.104964994,-0.36560363,0.03605231,-0.19354582,-0.9890973,-0.29442722,0.58436304,-0.46602523,-0.2711629,0.5955243,0.22149208,-0.25195116,-0.87313735,-0.30118698,-0.8021417,-0.7015823,-0.020869594,0.0073226457],[0.7660247,-0.95238936,0.5287662,0.06470616,0.032112904,0.68244624,-0.71762097,-0.045305554,-0.4954899,-0.5421639,-0.89486694,-0.56353545,0.8927635,0.6527763,-0.79300314,-0.73317736,0.56119287,-0.31215334,-0.5783106,-0.060372926,0.3497891,-0.4093946,0.1383382,1.0505189,-0.14715868,1.0510598,-0.14061514,0.21140584,0.38726482,-0.04287504,-0.32998183,0.35037205,-0.053530093,-0.14958215,-0.42374575,0.33905724,0.5555619,0.33047655,0.36952904,-0.7377701,-1.0922316,-0.77522135,0.50833577,-0.49706337,-0.30929875,0.1391004,-0.12186323,0.31641164,0.63720566,-0.42634782,0.29220286,0.6732811,0.2611587,0.48062894,0.31708974,0.6868119,0.24518497,-0.49724513,0.114941396,-0.65127224,0.46718985,-0.5458339,-0.8067704,-0.8883834,-0.2897795],[0.70982134,-0.7005674,-1.0085472,-0.18602455,-0.88183707,0.06361054,0.17598726,-0.5361572,0.14414741,-0.4547189,0.45148832,0.29573005,0.03806662,-1.0004996,-0.9286049,-0.0076227267,-0.99029523,0.11384667,0.2561451,0.7875612,0.76418805,0.6966714,0.33302274,-0.91985786,0.61176205,-0.90490586,0.0009551264,-0.94246507,-0.35443062,0.35683554,-0.6133775,0.2814733,0.23698594,1.1237208,0.10428564,0.28051615,-0.2394525,0.63501686,0.32533234,-0.31951076,-0.06415937,0.692253,-0.70892084,0.25911203,0.7274685,-0.749017,-0.33382055,-1.0008483,0.29396608,0.55109864,0.57509124,0.4067809,-0.03824781,-0.57678956,0.9485621,0.5804589,-0.46184596,1.1030234,-0.21842803,-0.46085057,-0.18490101,0.4467924,0.72037137,-0.034183156,0.010028912],[0.7916463,0.71154255,0.010974313,-0.7975171,0.0036204285,-0.9552028,-0.31695288,0.6772096,0.30352095,0.33770278,0.14759982,0.48272035,-0.49579343,0.87356114,-0.58352435,-0.8407748,-0.13231574,0.37634686,0.6222769,0.17041898,-0.4253282,-0.5472304,-0.30001828,0.8337983,0.3593953,0.5102853,-0.017440561,-0.5312298,0.4760874,-0.12351939,-0.49991816,0.1436396,0.34653074,-0.6764156,-0.09861573,-0.26575232,-0.19641301,0.4197812,0.4662074,0.8129948,0.14850612,-0.15422407,-0.46309787,-0.8100155,0.8348909,-0.1017579,0.67709243,-0.08543303,-0.3101465,-0.06930023,0.8896389,0.92827976,-0.72758585,-0.05734294,-0.12519127,-0.23209862,0.34292188,-0.034798853,0.2933834,0.4435956,-0.33242905,-0.09540735,-0.32839668,0.4600502,0.36219448],[0.6270059,-0.3974564,0.12622783,-0.520897,0.5218156,0.2359403,-0.7856939,-0.5033786,-0.30321583,0.28366628,-0.6604464,-0.7863534,0.7218424,0.20159909,-0.92615974,0.0038786998,-0.9156579,-0.94199306,0.37428778,-0.9428736,0.7429391,0.7382504,-0.33957133,-0.50619775,0.22368881,0.40779626,0.8609746,0.3096045,0.25014344,-0.87700456,0.62907666,-0.30697978,0.27682102,0.39290988,0.45858133,-0.40126294,-0.7289171,0.29487187,-0.19720206,0.25630963,-0.0756816,-0.5252633,0.21528459,0.24268398,0.8935092,0.07110099,-0.13377877,-0.42215452,0.5088053,-0.6254709,-0.14414155,-0.10044285,0.19103909,0.4417564,-0.62267476,-0.80857694,-0.24565195,-0.51148057,0.035857297,0.8536311,-0.27818832,-0.9322034,-0.53630555,-0.5528455,-0.21816613],[-0.10360183,0.5193436,0.94346696,-0.83924186,0.4601446,0.82772875,0.9475693,-0.17594391,-0.81273216,-0.60716975,0.721686,0.014094444,0.6316073,-0.9108768,-0.6615454,-0.4632356,0.17747824,0.95374167,-0.042352635,0.23772876,0.8046307,0.67086136,0.73292595,0.85772455,0.49375296,0.21518499,0.11854504,0.40045488,0.7843625,-0.43257287,0.2060736,-0.79525346,0.95290065,0.17879993,0.8190357,0.61800015,0.0028835824,-0.8524551,0.6576589,0.47044533,0.5644157,0.5443252,0.32867512,-0.12161029,0.75451076,-0.61605155,-0.7549139,0.07075327,0.06534696,0.263133,0.6734921,-0.3312622,-0.009665102,0.42932326,0.6553333,-0.7876526,-0.28478903,0.87418884,-0.44753006,0.4347819,-0.5352728,0.56145734,-0.60399014,0.32286397,-0.5993676],[-0.13987285,0.94951355,-0.557752,-0.27373207,0.28120112,-0.1297846,0.18471481,0.093580864,0.4422429,-0.7105088,0.23355258,-0.4515711,0.649849,-0.6560977,-0.4690414,-0.7017736,0.8627277,-0.79353446,-0.028002337,-0.2280158,-0.7093421,-0.21025151,-0.35173145,0.26998898,0.85984915,0.58423525,0.3616894,0.4419219,-0.3821847,1.0035528,-0.8895335,0.93225455,-0.8118395,-0.12773792,-0.6194227,-0.018373732,0.37805805,0.80016094,-0.6895696,0.46527228,0.6751316,0.090803415,0.58876836,0.55973095,-0.6729047,-0.1924657,0.5263989,-0.56395143,0.91515344,0.6421003,-0.28295258,-0.86966443,-0.48608544,0.08667638,-0.711568,-0.23458742,0.40324864,0.6247787,-0.5046418,0.77092576,0.31578964,-0.89775866,0.45855927,-0.15177664,0.73460644],[-0.55971944,0.057367466,0.5770058,-0.2413044,0.2493898,-0.3577264,-0.3058114,-0.37777385,0.66061515,0.70850563,-0.30840778,0.26094276,0.07370666,0.20608099,0.68097496,-0.88392675,-0.011541305,0.791937,-0.9891919,0.8815325,0.52549845,0.40476167,0.2846355,-0.9814698,0.78023684,-0.2348688,-0.36613902,0.68431634,-0.41565877,-0.6417519,0.013104242,0.97345454,0.6807329,-0.77012223,0.91571236,0.5362248,-0.03736606,0.8186162,-0.31605613,-0.13189276,0.9086712,-0.6698225,-0.58373886,-0.52275795,-0.86840075,-0.81535095,-0.9541393,-0.07259979,0.37969422,-0.55737686,0.03842915,0.35492676,0.14266479,-0.039438967,-0.39210987,0.88335115,-1.1406777,-0.5411223,-0.66124964,0.5543543,0.107162416,0.0910371,0.71089107,-0.02935312,0.24243554],[0.42057163,0.1807329,0.007319624,-0.21153033,-0.5312604,-0.54887635,-0.28297022,-0.6256168,-0.26436305,0.09635769,-0.31862292,-0.15864737,0.7469764,0.7764283,0.43740198,-0.44701234,-1.0405729,0.9170232,0.09182213,0.94388187,-0.35299665,-0.31794766,0.32235307,0.19214548,-0.7269728,0.4459825,-0.24592623,-0.63239264,0.1021308,-0.1661273,-0.19350137,0.21933335,-0.009910201,0.0010096709,0.28180525,0.59816647,0.6504126,0.002485627,0.7109316,-0.54728746,0.69915086,0.4061536,0.31111416,0.07043738,-0.23014164,0.66304374,0.7331617,0.86167383,0.7568293,-0.762885,-0.39650875,-0.6983127,-0.19484311,-0.35173097,-0.38313013,-0.6823939,0.617681,0.3386305,-0.13333464,0.05205567,-0.932348,0.2793971,0.29001528,0.4648618,-0.74531585],[0.15172039,-0.79791033,0.29692405,0.70478827,-0.7057314,0.6939031,0.20862266,0.9801196,0.6980591,-0.3401136,0.38826093,-0.9409041,-0.93038225,0.115563154,0.86011076,0.82177645,0.1555719,0.19078583,1.0573367,0.6534777,0.21693848,-0.96330696,0.78641236,0.7119393,-0.8594217,-0.5747148,-0.35438064,-0.31327793,-0.25467664,0.71790135,-0.8632426,-0.0798261,0.8870321,-0.2253153,0.8450458,0.0077985637,-0.35548657,0.23713858,0.048561618,-0.7580358,0.40783453,-0.24907014,0.100775115,-0.8238028,-0.2574119,-0.3058333,-0.76620877,0.63089484,-0.47094408,-0.7139067,0.11409211,0.6824521,-0.4984953,0.31844816,-0.38126516,0.6278335,0.49826947,-0.8562171,0.80377704,-0.105232745,0.35326457,-0.6071972,-0.65236425,-0.25806478,0.5520061],[-0.04445527,0.69285536,-0.76349586,0.16071935,-0.48474935,0.44150677,0.39406064,-0.86575186,-0.18950602,-0.39221123,-0.37903485,-0.9664342,-0.46337822,0.28172594,-0.003910215,-0.109640904,-0.62852186,-0.72798765,0.8766676,-1.002241,-0.30639568,-0.50647223,-0.4694438,0.2175419,-0.22733317,0.9408116,-0.22315733,-0.17116655,0.40257388,-0.86053234,0.41979522,-0.8710667,0.061414037,0.20184948,0.4366714,0.5016854,-0.15796281,0.44983062,-0.66849184,0.4657472,0.8327466,-0.4033132,0.20517664,0.40413725,-0.9640558,0.15885603,-0.83909094,0.74824244,0.48973638,0.035106577,0.325667,-0.4611822,0.13907373,0.7302724,-0.9121392,-0.9757338,0.55120087,-0.3587395,0.71398276,0.26385707,-0.6111706,-0.5232053,-0.9195796,0.37616763,0.80828285],[-0.85931396,-0.85218066,-0.52106535,-0.4782063,0.6205143,0.11655915,-0.6697463,0.7361351,-0.35666874,0.22254834,-0.29310942,0.6397602,0.97962236,0.2104602,-0.22429445,0.104744785,0.3384792,0.32837924,0.38876796,0.621356,0.3758288,0.3008037,-0.2404507,-0.5936698,-0.7410895,0.4376401,0.052481513,0.3569223,0.7437501,-0.19917892,-0.3230549,-0.43628678,0.30031505,-0.667193,-0.6764175,0.8483419,0.288946,0.56969386,-0.43980065,-0.07896138,-0.48296434,-0.6522804,0.63060164,-0.4576164,0.61693245,0.30702955,0.47797933,-0.33925706,-0.96684265,-0.080555506,-0.156881,-0.26440048,0.10695993,-0.97909725,0.82143074,0.393448,0.842801,-0.9171146,-0.3291831,0.8537375,0.8934444,-0.3343688,-0.7197038,0.13378426,0.18739633],[-0.117990926,-0.85460466,-0.38281757,0.46889365,-0.9824548,0.35453057,-0.79156023,-0.043876138,-0.8690753,-0.8353409,0.7886193,-0.5933766,0.72858787,-0.7170764,0.009636685,-0.7716597,0.04818582,-0.68227726,0.009740545,0.040809836,0.61218935,0.6787667,-0.7830602,-0.23124708,1.0318729,0.0063393107,-0.74616665,0.80707544,-0.84677994,0.7767044,0.31753874,-0.47704685,0.07445658,0.6090559,0.7868903,0.032465056,-0.91105556,0.032427423,-0.7149635,-0.06676801,0.7084479,0.18507777,-0.7191123,0.75005424,-0.7853898,0.11023105,0.9823602,-0.79227895,0.83470905,0.7019967,-0.28532127,0.11543174,-0.39586726,-0.2544324,-0.9009343,0.58194596,0.8361155,-0.62009794,-0.5911957,-0.88983136,0.7052569,-0.40437695,-0.34820956,-0.32225522,0.29109538],[0.75025326,0.20157535,-0.53801167,0.69601804,-0.081878036,-0.40888667,-0.009633683,0.10090298,0.9748493,0.19275106,-0.1988823,-0.32191175,-0.51576084,-1.013608,0.38008192,-0.64079577,0.19870299,0.48417756,-0.3731279,0.010568457,0.74143857,0.22280422,-0.009998576,-0.81226856,-0.9579971,-0.6369535,0.41645634,0.014505381,0.09889847,-0.6337337,0.5510264,-0.53541225,0.7452839,0.79122776,0.8881679,0.096900694,0.7740576,-0.91152793,0.20424958,1.0491052,-0.83942586,-0.7604409,-0.0804923,0.73047006,0.031732198,0.65206146,0.43549213,-0.07238814,0.8557536,-0.109452136,0.07238924,0.23094831,0.6848994,-0.27443662,-0.49947494,0.95788985,-0.22339866,-0.15429822,-0.18157502,0.34462196,-0.07488294,-0.8443704,0.098627105,0.34408307,0.13265945],[-0.027977193,-0.9721088,0.9808134,0.25285673,-0.9277778,0.55350447,-0.17994125,0.120158285,0.31110436,0.62406176,-0.41570508,-0.78404075,0.6963651,-0.81853735,0.68858004,-0.89143544,-0.36619836,0.16452138,0.50532925,0.6966283,0.45488852,0.7392555,0.07114137,0.62721854,-0.36652425,0.83763874,-0.04454492,-0.90694433,-0.34461007,-0.08776081,-0.96288854,0.22279672,0.81008583,0.82062113,-0.92206794,0.26633626,-0.3847847,0.5814862,-0.69487923,-0.6455653,-0.30791113,-0.10292408,-0.94517523,0.030981235,0.4382021,0.7847995,-0.7330574,0.051178396,0.52776814,0.64630765,0.24874713,0.6034124,-1.053205,0.35209244,-0.68148124,-1.0473907,-0.7157762,0.081950754,0.46886536,-0.33370852,0.91889775,-0.37364513,0.32331365,1.0581204,1.0871232],[-0.28850755,-0.7934027,0.4089765,0.9840453,0.038030032,-0.14535578,-0.79053384,0.4553056,0.53733003,-0.65643525,-0.045129485,0.73565924,-0.4416714,-0.0076647676,0.89317906,-0.42928955,-0.56214947,0.6610002,-0.53699285,0.3239988,0.015534756,0.8434936,-0.3799454,1.0167009,-0.4322829,-0.8791476,-0.7394368,0.19845065,-0.0070000202,0.459334,-0.2628767,0.16035697,0.5165213,-0.030186845,-0.536706,0.81188893,0.5827021,0.23160723,0.055405833,-0.32691655,-0.5415724,0.39292085,-0.38236156,0.695725,0.08735172,-0.73726475,0.038663752,-0.51428336,0.65406644,-0.5561349,0.031542342,-0.802234,-0.8398832,-0.63852984,-0.53318655,0.18796729,-0.7100576,0.18805933,-0.6124253,0.41986454,-0.10454294,0.7305628,0.042912208,-0.61220133,-0.92344767],[0.654811,0.65639454,0.39166072,0.26060697,-0.4861165,-0.35764396,-0.8204855,0.9059088,0.6648993,0.7590719,0.066297315,0.45638496,-0.31114414,0.47485453,-0.8646306,-0.9498172,0.3461447,-0.69764674,-0.13893542,0.17268576,-0.96448,0.84975344,-0.093238585,-0.7902537,-0.95704615,-0.29872197,-0.84131134,-0.72700226,-0.8768646,-0.08226131,-0.75580394,0.85004795,-0.85709536,-0.5630414,0.49598563,0.01989191,0.32824248,0.72340715,-0.55174494,-0.046986766,0.34120452,0.96472704,0.46590394,-0.15819949,0.83338165,-0.35131583,-0.031291027,-0.32997903,-0.7396435,-0.2977265,-1.0121363,-0.96783257,0.62777823,-0.58694047,0.041568156,-0.14417021,0.47387233,1.0183349,0.1489023,-0.079274684,-0.34576818,0.012523504,0.9953966,0.062725894,0.53855115],[-0.08289365,0.58556014,0.8093124,0.2967555,-0.75770706,-0.30553597,-0.35113332,0.38013637,0.5857795,0.9363789,-0.75041914,0.9153005,-0.75550765,0.1723688,-0.88050485,0.16775599,0.12982975,0.8436367,-0.6427827,-0.6262947,0.7744216,-0.3424179,0.2287017,0.18142542,-0.24481905,0.54559135,0.88546425,0.94604903,0.90913963,0.631055,-0.64545155,0.26748052,0.8968015,-0.9562357,-0.6580896,0.05103076,0.37309006,0.59484947,-0.79671896,0.19573538,-0.113435194,0.61977845,-0.21684559,-0.9472258,0.49976906,0.6725216,-0.5999699,-0.060639597,0.5770697,0.006666606,-0.30021128,-0.8967718,-1.0034586,-0.6982223,0.3377843,0.018031945,-0.5715698,-0.3578369,-0.6885201,0.86038953,-0.19501244,-0.34893334,0.41358063,0.6725407,0.46878976],[-0.25476316,0.20559315,-0.90212697,-0.27101877,0.63488156,-0.9526289,0.5366855,0.26105013,0.81819075,0.20944734,0.35823736,0.9735302,-0.5646811,0.8525208,0.7200831,0.7529741,0.11290215,0.2920187,-0.6756053,-0.013264028,0.026416576,0.1798613,0.83410454,0.34648272,-0.511777,0.32343727,0.04862373,-0.7609616,-0.6680908,-0.058416042,0.62204915,-0.38197967,-0.15300494,0.6228095,-0.77956533,0.4107506,-0.45475996,0.4797721,-0.8530313,-0.06968062,0.95218784,0.48788345,0.28915688,0.2248749,0.5117868,-0.094528414,-0.45280534,-0.6224313,0.31319976,-0.09832266,0.08316092,0.7819827,-0.32972994,-0.843516,0.53256845,-0.6471186,-0.27995333,-0.015072993,0.90427655,0.6970782,-0.5779942,0.042560697,0.8087824,-0.00046648493,0.6146501],[0.06245581,-0.19556567,-0.9963755,-0.1377442,0.3004294,-0.9950966,0.48721224,-0.18597691,-0.638861,0.4958403,-0.6097235,-0.06634967,-0.40780374,0.17247067,-0.9695115,-0.34601468,-0.74187267,-0.31468952,0.426578,0.051664267,0.35377854,-0.43173355,0.10556633,0.15305644,-0.16595492,0.20144539,0.47780696,0.0004348228,0.33830518,0.9598331,-0.8172568,-0.5955264,-0.9573691,0.95054233,0.6387157,-0.48530057,0.7806126,-0.59312254,0.5410934,-0.9542078,0.33637294,-0.91907096,-0.31019062,0.6938605,-0.84416205,0.68789786,-0.2582631,0.29915556,-0.7838025,-0.5049351,0.081632584,0.94510216,-0.07018916,-0.3736556,-0.18637858,0.038428675,0.8864288,0.47244155,-0.95439935,0.15077823,-0.7016423,-0.32744703,-0.2831506,-0.38404766,-0.30777377],[0.84724104,0.90705085,0.73228383,-0.5570038,0.5163558,-0.11254063,-0.9086919,0.20988224,-0.9282091,-0.58418775,0.9305334,0.04813116,0.13239112,0.114460774,0.79757553,0.58144337,0.87471116,0.9187757,-0.68952006,-0.19288792,0.7521466,0.41748938,-0.71594393,-0.64385325,-0.62224966,0.6662847,-0.053867638,0.55323637,0.48539168,-0.58483124,0.5671791,-1.0738891,-0.84321,0.015520976,0.90141416,-0.26516327,0.48370314,1.0001175,1.0272131,0.4336553,-0.37970224,-0.93363553,0.70332175,0.018918868,-0.653965,-0.9902948,0.6510509,-0.92094165,-0.5407553,-0.7983926,0.13227288,0.20304808,-0.32191524,0.58041,-0.9673532,0.29025877,-0.92757946,-0.08899894,-0.1579491,-0.908002,-0.46323717,-0.28150013,0.17688723,-0.08784029,0.72656715],[-0.18038622,-0.018498117,0.48697472,0.5574409,-0.9775455,-0.5852351,-0.27465308,-0.49054453,0.37379342,-1.0317892,0.27228636,-0.5055134,-0.7965488,-0.8374095,-0.90255165,0.5143036,0.24721736,0.6764603,-0.2916658,-0.05942931,0.18786892,1.0156307,1.0854014,1.1109046,0.84742874,0.5775008,0.109741665,-0.7305635,-0.27304238,0.5834037,1.0601584,-0.28736818,0.093188666,-0.1666849,0.5308086,-0.8126252,0.45171428,0.2904603,0.46100336,0.9463875,0.95771486,0.17277728,-0.0914911,0.69645995,-0.8023112,-0.9160162,0.34170437,-0.3680057,0.09162197,0.17417537,-0.86045235,-0.42021275,0.009509234,0.203036,-0.46330202,0.7169409,-0.40403658,-0.27960485,-0.45385396,0.45259625,-0.1654127,-0.5772581,0.50211227,0.21098258,0.80363244],[0.504223,0.61596,-0.24771707,0.5682199,0.3276625,0.80807567,0.27122092,0.12132479,0.6397543,-0.6232879,-0.90375215,0.5678826,0.52758074,-0.40577444,-0.6864678,0.16306733,-0.81321853,0.6823228,-0.7753254,0.19567603,-0.016781393,-0.7183485,-0.4047248,0.7034564,0.07402094,-0.62736654,0.3359025,-0.6182781,-0.30902502,-0.67689824,-0.5208011,-0.3747267,-0.568998,-0.23520125,0.14422402,0.074297205,-0.11107119,-0.6488576,-0.5733861,0.22236647,0.5438203,-0.40914753,-0.47956997,-0.35001478,-0.07622964,1.0292804,-0.2803729,0.33050266,0.84749544,0.56143504,-0.09839975,-0.8724601,-0.76572365,-0.09257008,-0.23136884,-0.21249406,0.42678306,0.84892076,0.051327076,0.024519023,0.39908782,0.6930747,-0.563659,-0.8490263,-0.2623836],[0.11401259,-0.28272596,0.36649695,0.6521685,-0.695544,0.57315075,-0.23319474,0.3096744,0.8298344,-0.047864083,0.3366153,-1.0428374,-0.36704686,0.8223726,-0.38603318,-0.45293313,0.76027346,1.0373783,0.46391058,-0.21745153,-0.89420146,0.0023534193,0.8152266,-0.072763965,0.57433015,-0.6938581,-0.27924323,-0.6766324,0.59250283,-0.63694155,-0.28243166,-0.79012823,0.6901723,0.8725646,0.03349466,-0.2256132,0.5192251,-0.6328032,-0.7863429,-0.13969202,0.649916,-1.0416465,-0.43007514,0.81732297,0.72112167,0.52909356,0.76214516,-0.18166351,-0.3266307,0.26634073,-0.6151835,0.25111765,0.8440025,0.7888049,-0.78720176,-0.72937334,-0.8235437,-0.5616951,-0.123335645,0.06362277,0.5157558,-0.31886053,-0.14505441,-0.4663667,0.890698],[0.43539262,0.6825291,-0.20633931,0.12338641,-0.83433604,0.1671139,0.9386905,0.16543625,0.19063681,-0.5326291,0.7304893,0.9118839,-0.56937873,0.8426018,0.23860808,0.05529757,-0.38917142,0.8055319,0.41270894,0.90111196,-0.79611427,0.4405698,-0.9393483,0.7110871,0.84703946,-0.053634923,0.42606315,0.7367055,-0.12547171,0.50165474,0.9544286,-0.12899603,-1.008087,0.38910797,0.58009815,0.2444909,0.2535348,-0.5028495,0.5244792,-0.9100213,-0.12042767,0.35663196,-0.9861811,0.5755668,-0.026090022,0.40888163,0.5610561,-0.5429378,0.26106498,-0.4926095,-0.684849,-0.8579182,-0.42564335,-0.33733347,-0.0052887355,-0.72908634,-0.66703475,0.50253457,0.016917115,0.56661004,-0.4972317,0.8353334,-0.59562874,0.38011974,0.43319267],[0.244404,-0.1346915,-0.92250943,-0.557063,-0.8602417,0.4374986,-0.091170214,0.0983198,-0.57253516,0.52879876,-0.9111293,-0.6758886,1.0165962,-0.68102473,-0.18153925,-0.62204844,-0.94726276,0.21638453,-0.24309331,0.33807966,0.06470475,0.63014555,1.0380046,-0.14785923,0.1536128,0.25426298,-0.2694215,0.8374922,0.7630871,0.7984015,0.14828843,-0.19246535,-0.54227245,-0.21301052,0.22679399,-0.52859294,0.96296906,-0.22962509,0.59775054,-0.26399484,0.46422496,-0.80797136,-0.43921503,-0.4913448,-0.7705457,-0.90207237,0.36995506,-0.32073432,-0.9668257,-0.3572858,-0.0756447,-0.90595824,0.15550369,0.42662823,0.37170202,0.29123688,-0.7665143,0.2114095,-0.8005083,-0.80043405,-0.33423874,0.6581266,0.39135042,0.014896757,0.7720336],[0.9102217,-0.8534311,0.15719481,-0.89453757,0.69860065,0.419305,-0.5046529,0.13554846,0.5289131,-0.39580613,0.23094767,-0.43994728,0.38130254,0.835946,-0.058574405,0.3495284,-1.0849363,0.93269414,0.29618704,0.29911304,-0.4150088,0.21858625,-0.7647168,-0.70460176,-0.11086575,0.5173139,-0.643792,0.9678331,1.0523577,-0.20308238,-0.33649835,0.0988702,0.026688468,-0.44694316,-0.073695734,-0.6009135,-0.58676744,-1.0112628,-1.0019493,0.49440074,0.7761821,-0.24815603,-0.46274698,-0.82340723,-1.0092067,0.81415457,0.52854615,0.8420748,0.7237499,-0.55796885,-0.5521548,0.28824973,-0.3496634,-0.18491909,-0.9007224,-0.3982738,0.92381024,0.61994827,-0.965264,0.2456888,0.7977221,-0.43913454,0.5148571,0.2735201,-0.5195523],[-0.8158882,-0.34721234,0.86175424,-0.25434813,0.57864845,0.31512773,0.11776744,0.7762688,0.13161986,0.943792,-0.98644805,-0.10905923,-0.1843734,0.9753143,-0.53974515,-0.9712712,-0.9978071,-0.96823967,0.051539596,0.833358,-0.717006,0.19021128,0.46520588,-0.8363287,-0.88621736,0.56589776,-0.2475926,0.32007694,1.078145,-0.044793494,-0.75999266,0.48329106,-0.21162398,-0.017635817,0.3789243,0.70360523,-0.58955306,-0.6076603,-0.9381486,0.43313488,-0.55210984,-0.8542275,-0.3722813,-0.21106231,-0.6147382,0.23459707,-0.031212626,-0.2276207,0.2433933,-0.21456334,0.97735393,0.9450372,-0.36508644,0.5481159,-0.20566936,0.2563315,0.08250573,-0.36939576,0.35894313,0.6784767,0.13945287,-0.9712151,1.029907,0.43325993,-0.07401534],[0.9776752,-0.08445092,0.7278455,-0.88458276,-0.32198894,0.19138719,-0.6037087,-0.5741245,-1.0098602,0.28406885,0.17310092,-0.2234907,0.08624798,-0.52276427,-0.79999954,-0.3516627,-0.7995072,-0.27080896,0.6710528,0.8315875,0.44434986,0.25634372,-0.6710216,0.24163473,-0.54525214,0.6465744,0.5847994,0.59537107,-0.5906229,-0.21487716,-0.56361246,-0.5935677,-0.6040487,0.5339151,0.6141539,0.47231486,-0.50238174,-0.29235837,0.47619915,0.60054755,-0.22182849,-0.08049818,-0.7693748,-0.14650035,0.8171902,0.2313798,0.4341277,-0.37542486,-0.6824564,-0.9236263,0.67413795,-0.49151206,0.089504264,0.4822198,0.2788873,-0.3089422,-0.31857935,-0.13554442,-0.4019456,-0.42053416,0.62079054,-0.22024575,-0.22653058,0.27251798,-0.42239],[-0.8503808,-0.051129658,-0.4271923,-0.3276081,-0.014121723,0.008781986,0.4799,0.86491585,-0.8562613,0.6217737,-0.7220837,-0.7136495,-0.38018402,-0.19279392,0.22927798,-0.2071699,-0.8836061,-0.7921478,-0.28558066,-0.24993314,-0.030203132,0.7952557,-0.56068796,-0.5907599,-0.5492799,-0.5811979,0.50316364,0.023511054,-0.32029697,0.81005543,-0.6662865,0.38018134,-0.70641756,0.03954671,-0.16354467,0.9218657,0.9494445,-0.7437621,0.25720492,-0.31347746,0.122787334,0.12009971,-0.5577047,0.1705391,0.19493052,0.59234506,-0.27993456,-0.73474514,-0.74374133,-0.21730451,-0.3070709,0.39841908,-0.18102188,0.35077217,-0.6964223,-0.86822224,0.8977566,0.83678615,0.77826166,-0.414707,-0.7085311,-0.42954722,-0.42796573,-0.6421972,-0.36656258],[0.8949999,0.99245614,-0.83888936,-1.1102632,-0.33964235,-0.2860675,-0.35990137,0.17296836,0.55223626,-0.119972154,-0.8279731,-0.59268427,-0.55097514,-0.610065,-0.09254417,-0.54731244,0.72572273,-0.5140271,-0.5041311,-0.014540801,-0.14682867,-0.106304035,0.87907004,0.8092408,0.3164862,0.37575516,0.9706802,-0.32408446,0.6604286,0.016313577,-0.5291545,0.5342275,-0.23913623,-0.6035666,-0.045132868,-0.7037135,-0.8666463,0.037053104,0.7472195,0.99488056,-0.20028116,-0.5711888,-0.8487239,1.0470313,1.033038,-0.22735341,-0.37523332,0.78952134,-0.9711762,-0.27250934,0.66592467,-0.37396187,0.19341505,0.9705674,0.93067795,0.7952696,-0.26393145,-0.79909694,0.04458181,-0.12174536,0.80997187,0.06232379,-0.3930968,-0.10131718,0.28767174],[-0.63221973,-0.74155843,-0.6593458,0.022172948,-0.8028356,-0.6443182,-0.23332135,0.2750959,0.63641214,-0.77058756,0.37969926,0.04048061,0.87433904,-0.7153606,-0.38515803,0.7772208,-0.2966191,0.35824662,0.58794945,0.50184065,-0.9504414,-0.637899,-0.50137514,-0.783779,-0.36596167,-0.018526174,0.16492593,0.81138635,0.64274424,-0.3812627,-0.39067483,-0.83109826,0.239048,0.8902109,-0.6658741,0.23513606,-0.41838148,0.066017345,0.27959666,-0.7151903,-0.64629275,-0.22203211,0.84748554,-0.7191326,-0.92902946,0.44181892,-0.8928205,0.16837618,0.10860816,-0.55565614,-0.7732462,-0.03154527,-0.12627217,0.20602831,0.1172589,-0.48841193,0.6832043,-0.8063106,0.67076343,-0.7340597,-0.07008673,-0.07155867,0.49844688,-0.9617665,-0.0057421024],[-0.45733783,0.21559325,-0.060318064,-0.016078062,-0.5289611,-0.31403568,-0.33470136,0.11133748,0.6765666,0.56121016,0.7282524,-0.8885124,-0.7725796,-0.67559713,-0.8330988,0.6469697,-0.40747234,0.86159265,-0.2626358,0.1076815,-0.81970435,-0.41545865,-0.28628528,-0.20063841,-0.96183914,0.0965412,0.9556666,-0.4991321,-0.30887964,0.3476522,-0.9425186,-0.36981273,0.49439323,-0.09857065,0.54573697,0.36656356,-0.82033336,-0.52945167,-0.9778931,-0.6567075,-0.913401,-0.42577046,0.4984624,0.35237914,0.49824178,0.21970642,0.5069916,0.09460471,0.63513607,0.22295167,0.1974929,-0.36706597,0.21624193,0.9887706,-0.47971296,-0.5779549,-0.66579854,-0.8695588,0.032897286,0.8178519,-0.575055,-0.43333748,0.3023118,-0.92072713,0.06595602],[-0.32372797,0.16927972,-0.008017244,-0.44030008,-0.20531528,-0.53785014,-0.8946573,0.3489226,0.86395675,-0.4118205,-0.05926216,-0.9114882,0.8983827,-0.9043018,0.14206332,-0.38883802,-0.79712826,-0.85280395,-0.18903862,0.14143382,0.34420177,-0.629141,-0.21351738,-0.183538,0.729896,-0.87303716,-0.46717414,0.5430042,0.12472826,0.027447345,-0.74256766,0.8754914,-0.23285246,0.034777667,-0.86766285,0.23746976,-0.2319412,-0.3081113,0.1477188,-0.3379676,-0.5733912,-0.9098725,-0.37816715,-0.9446633,0.19873129,0.9512185,0.25653043,-0.4377835,-0.3788422,0.2634142,-0.15580527,0.8937157,-0.4716365,-0.57690537,0.11446952,0.9021188,0.71361953,-0.70123667,-0.00017241495,-0.9872907,-0.1278037,0.34809265,0.12814339,0.68028885,-0.82253164],[0.17792079,-0.3830457,0.011406611,-0.83467317,-0.82970095,0.5914712,0.4141813,-0.21179086,0.30157942,-0.2422045,0.54774946,0.029967044,0.63938826,0.42681116,-0.108529784,0.54218704,-0.94025767,-0.7287286,-0.6610418,0.6383123,0.53625876,0.30689666,-0.12349905,-0.30176204,0.99381447,-0.8388,0.90229,0.1813377,-0.53963923,0.70675665,0.70119023,-0.16349043,-0.32403448,0.5151823,-0.23672406,-0.3390034,0.125701,-0.540959,-0.2647879,0.44722188,0.516961,0.98800445,-0.13650088,0.5057936,-0.5519023,-0.11572822,-0.6712689,0.0258955,-0.49764258,0.31997064,0.9924564,-0.61649615,0.18599318,0.027742134,-0.2753447,-0.4080773,0.39627132,-0.79217803,0.4008697,0.5979815,-0.101198524,0.5782159,0.87846076,-0.30677325,-0.18109384],[-0.8524679,0.3101674,0.1251939,0.60486215,0.64411086,-0.046728276,-0.16023168,-0.42066336,0.75063026,0.3614537,0.21739712,-0.15724495,0.6046744,-0.8667682,0.022855792,-0.43689126,-0.72137964,-0.14353377,-0.96867305,0.16315673,0.8802008,-0.39810678,0.34041303,-0.5362023,-0.7641242,-0.66293555,0.45467627,-0.82333046,0.8564941,-0.30016872,0.17612685,0.6878041,0.68256885,-0.31496644,-0.8380308,0.11832126,0.02084839,0.6347567,0.652098,-0.09769194,-0.61457807,0.8172935,0.7774171,0.888337,-0.334782,0.63752663,0.8451676,-0.13622302,-0.07221659,-0.012532858,-0.43930307,0.5138434,0.8833956,0.4563808,0.5613373,0.7733498,0.12483649,0.78508794,-0.3657461,0.94740474,0.3737922,-0.49412248,0.633414,0.8167466,-0.72596383],[-0.64874214,-0.81824696,-0.81018233,0.48823553,0.72748,0.7074201,0.5699373,-0.9949788,0.42608383,-0.15159547,0.4764247,0.744342,0.86158335,-0.07288378,-0.84376293,0.28741696,0.6939543,-0.2512713,-0.08142427,-0.37941322,0.2142963,0.14107977,0.14156415,-0.7327855,0.8008706,-0.9043354,-0.5249311,-0.6994239,0.8850692,-0.0056505958,0.25651953,-0.13111353,-0.33343658,0.7819184,0.5626171,0.92619294,0.97790354,-0.36348552,0.50273097,-0.15190671,0.91847724,-0.86117625,0.02442541,-0.90845984,-0.81038135,0.81853247,0.36016527,0.75257164,0.91160136,-0.03787757,-0.57429093,-0.3291515,0.104294196,-0.40354672,0.2341925,0.46164358,0.94662434,0.016608866,-0.11175469,-0.7986764,-0.058410764,-0.96416867,0.21587715,0.023734884,0.20962888],[0.6048534,0.630039,-0.061800912,0.97356194,0.39353552,0.922405,0.30336866,-0.008471101,0.21562608,0.7242095,0.69633424,-0.22658901,-0.22691387,0.48773235,-0.8280105,-0.5260371,-0.062001467,-0.71295464,0.19604628,0.3365725,-0.010929786,-0.9215153,-0.3429753,0.87593687,-0.27716458,0.51054096,-0.79136777,-0.28345758,-0.08826551,0.01615027,-0.10572723,-0.4052221,-0.2730035,-0.19071212,-0.75865203,-0.32807222,-0.38591146,0.47066736,-0.79918134,0.49309587,0.015027102,-0.3088566,-0.2914856,-0.23637722,1.0479125,0.5825747,-0.57177305,-0.16056329,0.6011102,0.12488403,-0.362974,0.11437182,0.27737135,-0.8884086,-0.9140724,-0.9440983,-0.8017525,-0.66924685,0.40517783,-0.06354403,0.14642072,-1.0831435,-1.0359861,0.16350226,0.4970198],[0.6882448,-0.9795215,-0.30978018,0.9299171,0.9012356,0.10123716,0.12133976,0.7240543,0.98463905,0.7105805,1.0039638,-0.49455398,0.13700409,0.59456027,-0.5633038,-0.26960036,-0.52968866,0.5051871,-0.38217083,0.2070037,0.42585814,-0.83376586,0.62779075,0.5180809,0.08627862,0.9706913,-0.9017781,0.16887015,0.3418105,0.5663505,0.046559017,-0.6402219,-0.51296526,0.9765904,-0.30183762,0.46884406,-0.78431463,0.41367292,0.15077445,0.32448283,0.21460466,0.74906987,-0.7477748,-0.75027585,-0.9462659,0.36722004,-0.49169546,-0.36692506,-0.5607542,0.83435833,0.9055864,-0.56605834,0.23789123,0.8060816,0.42732018,0.5324465,0.8581846,-0.8688373,-0.2293793,-0.3889703,0.30946502,0.23264371,0.8782984,-0.644229,0.60979885],[0.97515744,-0.6428644,0.37356406,0.53130376,0.46077627,-0.9958806,0.3458665,0.73435324,0.013995816,0.67338717,-0.9518091,0.49452034,0.6517408,0.7207381,0.7880118,-0.33454,0.760609,0.5612156,-0.071331084,0.5144602,-0.30003712,0.58176583,0.9475256,-0.6928892,-0.5335951,-0.25959396,0.7772365,-0.17417055,-0.21309677,-0.08332629,-0.9512807,-0.50479877,-0.0036654037,-0.5382117,0.06539223,-0.32487178,0.42724332,0.65851307,0.7918615,0.7203481,-0.45026484,0.73284435,0.5158729,-0.2540005,-0.24897438,-0.27620378,-0.38580585,0.13631846,-0.90933555,0.9297566,-0.16435312,0.7384256,0.015478479,0.17551704,0.8268086,-0.5346019,-0.34596035,-0.1731073,0.13328524,0.76181626,0.78016603,-0.4175076,0.015956804,0.67091,-0.09847285],[0.008411279,-0.18275057,0.27448633,-0.4229157,0.798134,-0.9093215,-0.4655396,0.9052065,0.5769742,-0.0012759506,0.34059033,-0.67782414,-0.7210962,-0.4212808,0.2581133,-0.8085931,0.96036667,-0.35074118,0.8968397,0.5637435,-0.3791532,-0.13512166,0.87227875,0.65300286,-0.21328214,-0.024013706,0.2511488,-0.7014888,0.7970552,-0.16504714,-0.9514846,0.5102454,0.16399604,-0.08889487,-0.84048176,-0.15104538,0.78356093,-0.16548967,0.87133676,0.07194947,0.5866837,0.8601687,-0.46676,0.78094155,0.69551075,-0.8839135,-0.6391887,0.48507333,0.05850929,-0.10487742,-0.21759535,0.36867195,0.7251593,-0.64449424,-0.011167959,0.9207168,-0.08181239,0.15986003,0.8824726,0.12639871,0.03302882,0.17055404,-0.48061424,0.61816734,-0.80441463],[-0.37069124,-0.45795998,0.36053538,0.8892816,0.475912,0.7658071,-0.94811237,-0.14787638,-0.98695135,-0.07042279,0.14959475,-0.7533056,0.652679,-0.6276708,-0.38246086,-0.8587039,-0.22647771,0.5060582,-0.73238945,-0.014247747,-0.9305856,-0.020316696,0.7120556,-0.79415506,-0.11569211,-0.78683984,0.80754966,0.38801202,-0.31585136,-0.4948222,0.7539313,0.13937438,-0.35956067,0.07658767,0.42955154,0.09014574,-0.013868782,0.41955242,-0.74999136,-0.5349091,0.90317374,-0.21613441,-0.4551932,0.59833163,-0.1319315,0.87775016,-0.7876422,-0.65292794,0.8262706,0.70470434,-0.83247083,-0.2504886,0.08589631,-0.20643021,-0.33712804,-0.34540743,0.47867173,-0.05930421,-0.89220876,-0.7520319,-0.92935973,-0.6548083,-0.9146425,-0.16479103,0.5609209],[-0.03007264,-0.28330562,0.9214101,-0.5506522,-0.7179191,0.21451159,0.36640203,0.7896591,0.19414747,0.16171627,0.747415,0.21559617,-0.41864064,0.60882306,0.19480251,0.7254546,0.38723108,0.8229762,-0.7710065,-0.0926535,0.11832626,-0.416037,0.5943688,0.48086932,-0.84155625,-0.19745539,-0.116161875,-0.41987532,-0.93566906,-0.92517257,0.75340396,0.9618755,1.0076294,-0.04438608,0.73213786,0.12506679,0.5107637,0.642141,-0.9642424,-0.88256115,-0.26600936,-0.22184893,0.8345918,-0.13394898,-0.61119825,-0.9506,0.20724055,-0.42762536,-0.5558844,-0.55916774,-0.9613356,-0.68719107,0.70293957,0.38239947,0.6050948,0.8041065,0.60486823,0.449971,-0.3392236,0.6965943,-0.4531722,0.791359,-0.7163784,-0.46176106,0.44335783],[-0.19868839,-0.32695633,0.11003811,-0.6638475,0.32561436,0.68529344,-0.20939976,-0.22253664,-0.46740377,-0.10626252,-0.30285633,0.7019232,-0.8574048,-0.826547,0.18324286,0.89119565,0.75005,0.27208737,0.2862863,0.58379203,0.90764254,0.8726961,0.22935107,0.6513559,-0.38829947,-0.22495525,-0.5125181,-0.9804884,-0.0041163214,0.26611874,0.5551511,-0.5030513,0.92818505,0.8286291,-0.34136605,0.9228963,0.57564723,-0.22030947,0.4146117,-0.8303179,-0.12497883,-0.077269435,-0.45589793,-0.2025917,0.73430127,0.38816607,0.92208654,-0.5868462,-0.38799304,-0.017604323,0.52208894,0.67339355,-0.15595484,0.7379697,-0.47795275,0.5736907,-0.3257729,0.85709924,0.58825856,0.042068176,0.72048134,-0.1072069,0.6852045,0.07407818,0.05238184],[-0.5748013,-0.11796813,-0.6114818,0.8510338,0.8361381,0.7815051,0.37156394,0.28208005,0.60441184,-0.6529281,0.23245758,-0.8506309,0.3752236,-0.14408514,-0.118490234,0.4599322,-0.91302025,-0.790704,-0.041886546,-0.4699434,-0.44723895,-0.41897747,0.7633328,0.4164833,-0.19414026,-0.13104121,0.97460455,-0.00751924,-0.94508344,-0.22319123,-0.18973307,-0.3994428,0.39350757,0.5766027,-0.5336457,0.16527535,0.5677248,-0.6529608,-0.40317696,-0.22664052,0.0119892955,0.4504603,0.258872,-0.10989408,-0.72300553,0.71083695,-0.9416688,-0.9671937,0.12254812,-0.362571,-0.08614347,-0.6910812,0.860127,0.9571326,0.18192254,0.6735187,0.20205651,0.16835439,0.42804733,0.3793849,0.3687119,-0.6390672,-0.5344923,1.020384,0.1544739],[0.43750763,-0.01727197,-0.5219083,0.97197753,0.060602393,0.81954896,0.7563907,0.7833038,0.064588904,-0.6799487,0.2972556,-0.1976279,-0.05402101,-0.49124008,-0.57778114,-0.9939601,-0.27798158,0.5994223,0.38852784,-0.39711207,-0.798991,-0.67398995,0.22260699,-0.39348856,-0.9435252,0.5084391,1.0205789,-0.7431729,0.88648015,1.1166801,-0.119156204,-0.87432027,-0.10958656,0.84640723,0.17409219,-0.5195802,0.5855666,-0.76940876,-0.76310986,0.8856755,-0.1315995,-0.6107147,0.09791729,0.16661952,-0.40593827,0.08773706,0.9145355,-0.5792411,-0.69198793,0.06496146,-0.21782272,-0.25659385,-0.57572395,0.82840186,0.7003337,-0.13508993,-0.7015571,-0.2741703,0.336551,0.108617835,0.6317393,0.7097551,-0.38125917,-0.1799872,0.7924556],[0.3968529,0.96338516,-0.74653435,0.6957981,-0.8688278,-0.2122752,0.60761714,-0.34270903,-0.042497914,-0.3680129,0.3566655,-0.75035524,0.16803718,0.33443192,0.74177134,0.22417994,-0.96206445,-0.22988756,-0.9008507,0.7392089,-0.020916576,-0.3740645,0.056370113,0.8344621,0.6985074,0.5515711,-0.38164368,0.7193729,-0.23259157,-0.31472358,0.34698182,-0.7559478,0.8954607,-0.5625112,-0.82683754,0.1513858,0.9135373,0.8881585,0.0794441,-0.8820547,0.14352444,0.28142843,0.509024,0.40658733,-0.02382173,0.87887883,-0.2875012,-0.62179136,0.66709703,-0.889427,-0.5205272,-0.060338274,-0.20129035,-0.39432368,-0.7337528,-0.5464122,-0.57018626,-0.5758402,0.11276271,-0.03657959,-0.20800915,-0.7657172,0.6671875,0.91635257,0.9453818],[0.7763956,-0.60793436,0.39379492,-0.89268637,-0.65594155,0.14515835,-0.7186146,0.32315212,0.13344216,0.49119732,0.2593042,0.7456114,-0.24317338,0.18600447,-0.0114846835,0.91266817,-0.029588144,0.9071307,0.69245845,-0.64856714,-0.79695135,0.53042513,0.11942319,-0.48072752,0.7235664,0.95300776,0.09693433,-0.47952288,-0.71912605,-0.40774485,-0.77764595,-0.038383856,-0.8438606,0.26762837,-0.19460452,0.7403288,0.50981873,0.89453936,-0.2378816,0.76626736,0.57269657,-0.009472295,-0.19937909,-0.15521184,-0.7713526,-1.055868,0.64177775,-0.045439985,0.74752593,-0.8280495,0.23915294,0.6385549,-0.2933226,0.7434502,-0.87728417,-0.17244951,-0.19335008,-0.16823696,-0.61481655,-0.63768685,0.09977355,-1.0839008,0.56136054,-0.42783296,0.9483451],[0.055021867,-0.00010020352,0.51152605,-0.55691296,0.4982713,0.28041008,0.066306345,0.4600819,0.39763916,0.61391205,-0.08499065,-0.11765273,0.3310609,-0.96285903,0.35306954,-0.90032965,0.74584097,0.6818512,0.19659032,1.0019845,0.09731577,0.19786623,0.70087266,-0.8854036,-0.86835325,0.08416923,-0.95178866,-0.4649414,-0.6657773,0.32419297,0.15067303,0.7508959,-0.81634545,-0.91166794,-0.75609833,0.5729942,0.68742484,-0.19052967,-0.68294704,-0.23847704,0.7056731,0.030355614,-0.9052776,0.49294275,0.07396448,0.50477403,0.18072581,-0.59884894,-0.18548842,-0.7813891,0.2539745,-0.8119916,-0.61127216,0.33885285,-0.17434472,-0.768812,-0.6466525,-0.9026587,0.54748285,0.5524079,1.0368998,-0.9071759,0.34998745,-0.20211032,-0.20246975],[0.8605132,-0.19084007,0.6224252,-0.55630857,-0.51585484,-0.95976216,-0.90846676,-0.81983477,-0.8341284,0.1898135,-0.6114568,0.10306398,0.3174918,0.86451274,-0.48182467,-0.9187086,0.52470076,-0.7627175,0.34716323,-1.0105447,-0.9597018,0.46474063,-0.5329234,0.81772476,-0.1381349,-0.2595788,-0.6492444,0.39101765,0.69538176,-0.4103778,0.8559038,-0.136118,0.5157717,-0.9902742,-0.23026323,0.85321325,-0.9000109,0.5891707,-0.7116036,0.93744206,-0.24358027,-0.33434582,0.31311873,0.6767299,-0.8439136,-0.7769227,-0.44213435,-0.35633478,0.23777801,-0.39015955,0.37708724,-0.27192461,-0.79212326,-0.3467834,0.262489,0.98544216,0.56248266,0.2312893,-0.21449775,0.933725,0.5336073,0.15259033,0.17793998,-0.7817875,-0.8769468],[0.5948121,-0.31670353,-0.19558066,-1.0128387,0.6145813,0.42777574,0.6727992,-0.9344751,0.12379332,0.39859146,-0.9831977,0.020137832,0.9265735,0.56522393,0.652199,0.44461045,0.703297,-0.37595937,0.568696,-0.78875124,-0.0042361235,-0.6210207,0.08934083,-0.299978,0.014889385,-0.37958,-0.57050407,-0.6073431,0.06307456,-0.21181026,-0.046839558,0.5531551,-0.36990657,-0.74087745,-0.25216895,-0.50191915,0.21145418,0.04516656,-0.5916573,0.04637008,-0.18330698,-0.4545626,-0.16395366,-0.8076097,0.39625916,-0.34513912,-0.61064655,0.50543314,-0.8033884,0.13970986,0.2545778,-0.22130515,-0.9458085,0.88281107,0.34374475,-0.039893255,-0.064655475,-0.018791446,-0.7519438,-0.83629215,-0.43973216,-0.9206117,-0.25446334,0.42355344,0.28245342],[0.79445505,0.35487872,0.07776351,0.20123419,0.38209406,-0.019454291,0.8405139,0.9088967,-0.6930785,-0.22548474,0.9934516,-0.71602345,0.38121894,-0.5776209,0.79270464,-0.8362564,0.05507092,-0.089923315,-0.33189946,-0.46068606,0.30853626,0.29681718,-0.76760674,-0.5989948,0.39451385,0.8018457,0.893732,-0.8979121,0.41453663,0.5205028,0.97433573,0.7835021,0.5253753,0.8303168,-0.192827,-0.9251174,-0.9838405,0.79967904,0.18572415,0.31886768,-0.0983511,0.8318657,0.7234399,0.5425341,0.04638828,-0.17363395,0.17594822,-0.19214222,0.8485554,-0.050602082,0.06990677,-0.664171,0.30994067,0.7007735,0.3878388,0.020166703,0.43575487,0.79601115,-0.34442607,0.98964596,-0.2061017,-0.6769209,0.49267584,-0.6208866,-0.52560663],[-0.7226456,0.40179133,-0.034540016,0.18158132,0.5466206,-0.6556767,-0.24936499,-0.5830872,0.31036007,0.93021894,-0.44751608,0.30916002,0.011520743,0.4167229,0.50292766,-0.99461496,-0.8909564,-0.29801878,0.64431673,0.041271262,0.20297046,0.080832615,-0.300079,-0.47203285,-0.50267774,-0.19921468,0.69950974,0.5117897,-0.23619425,-0.041717988,-0.6916851,-0.97258514,0.4697961,-0.39976293,-0.12372314,-0.4682035,-0.123888165,-0.7451349,0.91157466,0.63441265,0.5476149,0.29718962,-0.790662,-0.2925581,0.66560626,0.029885579,0.040062375,-0.13684985,-0.61548287,0.7858151,-0.8660386,-0.21305153,0.6311627,-1.0330216,-0.28086522,0.87712234,0.49213642,0.7586329,0.42277262,0.714145,0.6532604,0.9925886,0.5196754,0.83210176,0.7112507],[0.061453585,0.20619634,0.3764983,-0.46167248,-0.090638444,0.015616344,-0.64079916,0.27716273,0.06499502,-0.1652225,-0.48387113,-0.56003714,-0.11157346,-0.29208544,1.0440536,-0.01611002,0.3187459,-0.659513,0.7213346,0.25424376,-0.6602656,-0.6448736,0.436755,0.34831855,0.99219877,0.5399003,0.40653792,-0.4191106,0.7332568,0.71470594,-0.31328288,-0.8283861,-0.28649947,-0.47306997,0.19731839,0.19581503,0.033404272,-0.47634667,-0.5777013,0.77171916,-0.92486674,-0.51966363,0.1427428,-0.07209824,-0.011159449,0.5086514,-0.783536,0.96277755,0.7617982,-0.55507284,-1.0748038,-0.9707031,0.010832321,0.7358505,0.5748731,-0.5759113,0.6556494,-0.69239706,-0.24132834,0.38937423,0.09752031,-0.14183483,-1.0021472,0.65786296,0.96371114],[0.078482956,-1.0423286,-0.0833537,-0.38938266,0.6560985,-0.5308318,0.27038392,-0.27101928,-0.19750847,-0.46716326,-0.46893537,0.45065513,-0.39274785,-0.7494156,0.3083874,-0.676737,0.9292087,0.16636199,0.7196179,-0.76200753,0.95904475,-0.5031092,0.22026443,0.17564166,-0.3756758,-0.40672967,-0.77270263,0.42759243,0.47442234,-0.6616131,0.77758,0.12143015,-0.1483377,-0.23552893,0.7897708,-0.5702003,-0.3736988,0.20537798,0.9459548,0.18313478,-0.3156939,0.27965847,0.17493427,1.1076106,0.88789845,-0.9707903,-0.2049943,0.8006583,-0.59186643,-0.57997954,-0.87980944,0.24121684,-0.84356636,-0.58787835,-0.34687895,0.8550768,0.90042275,-0.36306176,0.42800203,0.10521431,0.12678191,0.18478258,0.6231583,-0.5718728,-0.012227018],[0.8634715,0.84782344,-0.13410617,0.7540492,-0.32930148,0.326024,0.7308468,0.5398752,-0.89436656,0.60384536,0.5200293,1.0098764,0.46747208,-0.6257431,-0.16346192,-0.66025054,0.85001826,-0.8081214,-0.5132915,-0.21679501,0.23254907,0.723011,0.6287669,-0.4191043,0.34147665,-0.047454834,-0.3223774,-0.63577515,-0.9881376,0.5421667,0.43602106,-0.76548123,-0.64381444,0.70014054,-0.38791528,-0.4006612,-0.6393834,-1.011033,-0.5037514,0.057655703,0.50932366,0.20467243,-0.06503277,0.6280005,0.6443826,-0.40192845,-0.816985,0.58563834,0.5474001,-0.6676145,-0.35947865,-0.79643816,0.6361563,1.0263028,0.22571236,-0.054124095,0.25525144,-0.35325086,-0.737212,-0.19806667,-0.24921173,-0.52165127,-0.29703337,-0.9138521,-0.15710658],[-0.009013113,0.024907477,-0.51206076,-0.48356164,-0.13636455,-0.2667844,0.7272005,0.35413814,0.71703506,-0.54014254,-0.23561747,-0.5000114,-0.7068474,-0.40158746,0.40156445,-0.265036,0.32586503,-0.26456288,-0.7806294,-0.9386244,-0.34988955,-0.7406259,0.039414175,0.11798836,-0.675624,-0.5076075,0.64608437,-0.643786,0.23405057,0.21830107,-0.14172481,0.4281161,0.81459904,-0.45178857,0.51513416,0.06901531,-0.2841893,-0.08912268,0.93792456,-0.2652181,0.68900114,0.47630382,-0.788582,-0.11917485,0.3531362,0.80846596,0.23267603,0.33583772,-0.84916574,-0.6321387,0.82401484,0.33479014,-0.2910025,-0.93752843,-0.74403167,0.42692158,-0.91537213,0.21100365,0.20863527,-0.6872593,-0.71240675,-0.48340204,-0.15974823,-0.061214622,-0.7652564],[0.7537157,-0.8624261,0.6192933,-0.5056978,-0.16776419,0.6288366,0.15912181,0.6149965,0.42961842,0.7286817,0.15455818,-0.19518942,-0.8495559,0.7188533,-0.9745714,-0.42215982,-0.40504405,-0.013554749,0.28378344,-0.33434814,-0.121307224,-0.3859937,-0.08192142,0.72877914,0.90813386,-0.16753593,-0.8768175,0.8385439,-0.24613334,-0.06853798,-0.11675261,-0.04356315,0.124920174,-0.29621446,0.61584085,0.8423593,-0.10980356,0.39349404,0.1011822,-0.6260008,-0.54457694,0.020995049,0.45185208,-0.16731368,0.4041609,0.90283114,-0.48739275,-0.30293918,0.7219303,-0.5481536,-0.49537757,0.838099,-0.74083185,0.8275568,0.61943835,-1.0098406,-0.4255287,-0.64876145,0.07065839,-0.22807224,-0.11242439,0.50254774,0.8967845,0.7584515,-0.8415683],[0.28318706,-0.6739921,0.96685183,-0.068367854,0.43682396,0.68136716,-0.10402371,-0.90035266,-0.2146547,-0.8611513,-0.46040586,-1.0018384,-0.91212237,0.82034665,0.15726611,-0.6820494,0.43168053,-0.9421904,0.28881243,-0.07247367,-0.57371956,-0.044701386,0.5338218,-0.39673245,0.56694984,-0.394114,0.490597,0.041730825,-0.6255117,0.4776349,-0.7601767,-0.6238609,-0.9975748,0.8880032,-0.35039017,-0.7260007,0.26266384,-0.24423632,-0.78474444,-0.805805,0.57745516,0.4483406,-0.7242923,0.43739197,0.19792643,0.6577122,0.6964375,0.06319493,-0.64376205,0.21369667,0.6058123,-0.18094492,-0.54818404,-0.50347847,-0.8453186,0.13410948,-0.6007012,0.5100956,-0.45066056,-0.7877667,0.30970776,-0.7310311,0.19575511,-0.28267136,0.6785898],[-0.5915263,-0.11472072,-0.47186422,-0.9535894,-0.038107358,-0.644773,0.6154078,0.009713667,0.557288,0.3895557,-0.90627,-0.031009208,-0.6688528,-0.08993642,-0.98382413,0.31120998,-0.9849574,-0.27425954,0.1994383,0.5662105,-0.23553139,0.456876,0.19218232,0.051201064,0.7560771,0.24055895,-0.2910538,-0.46972165,0.30228248,-0.84283626,0.038138,0.6000757,-0.10643254,0.5158145,0.1896426,-0.12375584,0.14374056,-0.79944646,-0.038867947,-0.6762576,0.48600096,0.38915494,0.82649887,-0.09314776,0.70671314,0.9743358,0.16435099,-0.76317006,-0.5906452,-0.60728735,-0.34878072,-0.029636668,-0.6454746,-0.23022783,-0.8226751,-0.89631057,-0.10278323,-0.4161788,-0.8391212,0.9033073,0.7322867,0.6491979,-0.38437152,-0.64297223,0.9475671],[-0.015879577,0.6878314,-0.42239398,-0.63613236,0.8189521,0.17286478,-0.46243638,0.4182291,-0.26972806,-0.9157182,0.014309461,0.74202305,0.15180993,0.4457184,0.69335,-0.2170066,-0.58650607,-0.6848564,0.55991167,-0.13384287,0.74843264,0.36105615,0.78658015,0.8555758,-0.22074673,-0.96605694,-0.481453,-0.4713022,0.1934164,-0.28058246,0.49825957,-0.72913164,0.8515055,-0.6746682,-0.88725257,0.24007379,-0.8516348,0.9060713,0.034253206,0.66785955,-0.17808011,0.066460535,-0.3487568,0.36491752,0.3473819,0.60422826,-0.8760616,0.79541695,0.5897559,0.90238386,-0.5550753,-0.16041505,0.6922274,0.9326097,-0.34928367,0.37285948,0.6417647,-0.34594828,0.73328185,-0.39133462,-0.71753323,-0.6921546,-0.21951386,0.41144884,0.5407576],[-0.45410818,-0.49552852,0.52349013,0.24465472,0.052380607,0.6060097,-0.11500688,-0.5036778,-0.3600007,0.349555,-0.108527355,-0.78305405,0.5067443,-0.27859706,0.9229123,0.21087311,0.8299721,-0.6627602,-0.62474483,-1.0110788,0.97259754,0.44050062,-0.59250236,0.10219336,-0.13966307,0.41664606,-0.31131512,0.99606663,0.9296108,-0.14340134,-0.2675091,-0.4944336,-0.33862075,0.9297314,0.7251447,0.1463663,0.8539807,-0.6000226,-0.7692726,-0.36428976,-0.9038578,0.8704698,-0.9572799,-0.2931752,-0.12791477,-0.7714119,0.8941189,0.8174906,0.51831377,-0.11652225,0.9956234,0.9047801,0.12168342,-0.68550205,-0.30389577,-0.5254182,-0.33537677,0.010781752,-0.1841341,0.20185696,0.714195,0.48747098,0.34864107,0.06903674,-0.17333086],[0.72704005,-0.51252526,-0.4117228,-0.49186173,-0.51073766,-0.21674864,-0.5446312,0.4119353,0.26691476,-0.096031144,-0.6801367,0.658159,-0.28390726,-0.29222053,0.70854115,-0.90358233,0.42415655,-0.87138015,0.33011907,-0.7051308,-0.22033802,-0.33348346,-0.34436044,-0.9147072,-0.34969017,0.97279507,0.48799673,0.6287558,0.20581722,-0.8314671,-0.38383663,-0.801622,-1.0064874,0.9136782,-0.498583,-0.45321092,-0.41244483,0.36655858,-0.44596207,-0.9188849,0.012505155,-0.47799408,0.6060941,0.7184919,0.13301049,-0.6195181,0.15341586,0.6450644,0.3098477,-0.42699474,0.07439235,0.45691535,-0.68895936,0.9098147,-0.72381157,-0.96024394,0.32834202,-0.09381109,0.99959207,0.45357653,0.726419,0.29501465,0.54811275,-0.27831954,0.0120694665],[0.14913866,-0.8442952,-0.98784006,0.86077654,0.7620525,0.31529102,0.88368964,0.63329357,-0.6308058,-0.3531082,0.05406654,-0.15341708,-1.011999,-0.109890044,-0.050507344,-0.79414064,-0.8042741,0.7834713,-0.7939977,-0.7947541,0.19447565,-0.52245903,0.4596814,0.3355762,0.2616082,-0.94687086,-0.41189054,-0.36630738,1.0278512,0.5239869,0.41520956,-0.6557009,-0.4720514,-0.9348111,0.6661413,0.6608151,-0.5994814,0.0280662,0.97906023,0.96591055,0.29608163,-0.560315,-0.88575447,-0.5812544,-0.3575213,0.61414176,-0.79683787,-0.9540011,-0.32838997,-0.2600162,0.19317135,0.9869817,-0.5456977,-0.913981,0.53755563,-0.4115118,-0.4112154,0.15514185,0.4052987,0.5722172,0.35044447,-0.34766707,-0.61009055,0.27869833,0.9985518],[0.3463887,0.8385709,-0.5657065,-0.86696965,0.072465315,0.11528988,-1.0059687,-0.3751685,0.48466927,-0.9062273,-0.1318857,0.1528227,0.74459106,-0.7357892,0.96261364,0.7641774,-0.016079243,-1.0383431,-0.7848309,0.58208865,-0.5052321,-0.30188644,0.09247875,0.7124214,-0.5730034,0.5638531,0.7139207,-0.30495355,0.3119372,0.62206167,0.3289635,0.83449197,0.086732425,0.8147689,-0.3359924,-0.43873855,-0.33841112,0.6670499,0.34513238,-0.03751625,-0.91832036,0.9116959,0.623759,0.32439724,-0.010091004,-0.050174464,-0.7533073,0.541623,0.09796025,0.18896878,0.6096857,0.7256206,0.24844788,-0.68484694,-0.40720224,0.5699149,0.14868195,0.22222601,-0.686856,0.88668627,-0.13231874,0.021504788,-0.9478014,0.7494412,0.9470769],[0.029660132,-0.66891164,-0.3637963,-0.1374963,0.6908662,0.6000213,-0.0019359983,1.0011423,0.2079162,-0.16997737,0.29247424,0.81025636,-0.66856796,0.5001948,0.98964036,-0.078731276,0.06049328,0.32563862,-0.80465305,-0.3648114,0.23605342,0.4745323,-0.8193263,-0.09788288,0.5602472,0.30066454,-0.7708958,0.04584049,-0.87385,-0.79731387,-0.97608274,0.0860098,-0.746206,-0.8352023,-0.3013628,-0.18161662,-0.6316952,1.0294343,0.6484337,0.27563745,0.8672668,0.7735174,-0.8224164,0.9856362,0.8004647,-0.49025849,0.23718886,-0.18896872,0.4401272,-1.0002763,-0.5541943,-0.935109,-0.12801686,0.12883025,-0.8872097,-0.7799032,0.21150473,0.96513456,-1.0287075,-0.48931524,-0.7897635,0.0048798183,0.007342577,0.89163536,0.7593649],[-0.26136056,-0.77654743,-0.7198995,0.43834674,-0.52351123,-0.1583968,-0.29364663,0.44328395,-1.0240659,0.82012355,0.9451002,-0.48975274,-0.6541936,0.957526,0.8645779,0.7604753,-0.37310418,0.26956758,-1.0773057,0.038932372,-1.1101589,-0.9652746,0.87106544,-0.19433318,-0.83145815,0.010746499,-0.56120944,0.15326175,0.20814283,-0.03200475,0.4059005,-0.6705826,0.8251254,-1.0189013,-0.68493325,0.7428345,-0.037987377,0.3508152,0.45027503,0.32984522,0.5008351,0.16927665,-0.999623,0.23348506,0.8033991,0.15304536,0.06810553,-0.71281093,-0.9833328,-0.4927014,-0.43120974,0.63486075,0.23237516,1.0388727,-0.5427629,0.76403147,0.6984026,0.44041646,0.6432854,-0.09508827,-0.838598,0.72941154,0.118704624,-0.3544917,-0.13841593],[-0.82182175,-0.34209165,0.25403023,-0.8706494,0.735025,0.4718278,0.3169312,-0.3645988,0.028102148,0.2964644,0.3204486,0.5097449,-0.74372727,-0.7346622,0.97198945,-0.063850835,-0.6885327,1.0278088,-0.07018708,-0.07285963,-0.79845774,0.6346945,0.92835474,-0.97894096,-0.33624887,0.15459721,0.39068013,-0.17034574,0.61075664,0.91904515,-0.85277456,0.03265215,0.7077274,0.73601973,-0.32481703,0.7249641,0.6990674,0.8117469,-0.5090405,-0.3339243,-0.31156248,-0.12928468,0.25241986,-0.5542095,0.38844612,0.5316706,0.3950141,0.5207953,0.8264676,0.283949,-0.65530115,0.31070185,0.01278843,-0.37969735,0.23703153,0.83082205,-0.88253397,0.83001405,-0.26120052,-0.1659696,-0.5768007,0.6248072,0.3634899,0.23670712,0.083614685],[-0.46649185,-0.8519945,-0.19585471,-0.086105965,0.040258586,-0.9742908,-0.6350195,-0.8247271,0.36391872,0.6189384,0.2768419,-0.15437476,-0.22140993,-0.7888149,0.60498935,-0.37497976,0.07548363,-0.2975623,-0.4152308,-0.84506786,-0.4787481,-0.37114823,-0.85878736,0.11598386,-0.46851286,-0.85008615,-0.7987734,0.70724255,0.035658706,0.4725986,-0.17897747,0.10636938,-0.0436983,0.08164634,0.3022527,0.030805975,0.63372606,-0.8529454,-0.4166803,0.16869183,0.26929623,0.6323265,0.14864358,0.51025975,0.27553955,0.7609899,-0.11606519,-0.4626,0.6673171,0.04529791,-0.7868145,0.95775384,-0.5661905,-0.87969416,0.12727904,-0.6506815,0.21993972,-0.5926686,0.0027755413,0.12841836,-0.09650052,-0.081181556,-0.2759338,0.60069585,-0.16891237],[0.4752128,0.3400246,0.33840916,0.99474686,0.044022273,0.46012157,-0.028743582,0.009337881,-0.9351072,-0.11749567,0.16049181,0.3086691,0.051855356,0.74789566,-0.520341,0.5760186,0.23991264,0.8572755,-0.4576998,-0.25625253,0.1861989,-0.7397403,0.15445949,0.833013,0.9711583,0.36252886,-0.45260766,0.9883819,0.13570222,0.61530524,0.21875703,0.6855621,-0.6491885,0.14585142,0.60296845,-0.26661268,0.46428075,0.73969674,0.9665809,0.6681082,0.059107497,-0.6813373,-0.67170805,-0.672088,0.22501966,0.2758355,-0.5401613,