{"layer_count":6,"input_len":192,"hidden_len":192,"output_len":3,"x":[[1.0,0.8627451,0.92941177,0.9254902,0.90588236,0.96862745,0.9647059,0.8666667,0.9254902,0.91764706,0.7137255,0.7647059,0.78039217,0.9098039,0.9764706,0.9764706,0.9372549,1.0,1.0,0.9098039,1.0,1.0,0.89411765,0.99607843,0.99607843,0.52156866,0.54901963,0.41960785,0.44313726,0.45490196,0.47058824,0.4,0.39607844,0.42745098,0.34901962,0.33333334,0.39607844,0.5882353,0.61960787,0.6666667,0.89411765,0.91764706,0.92156863,0.92156863,0.9764706,0.972549,0.92156863,0.99607843,0.99607843,0.57254905,0.6,0.3647059,0.47843137,0.4392157,0.39215687,0.3647059,0.3254902,0.34117648,0.42352942,0.37254903,0.40392157,0.47058824,0.40784314,0.41960785,0.5411765,0.52156866,0.5568628,0.90588236,0.9098039,0.90588236,0.9647059,1.0,1.0,0.3254902,0.25490198,0.21568628,0.35686275,0.25882354,0.2509804,0.47058824,0.38039216,0.34509805,0.47058824,0.40784314,0.3764706,0.4627451,0.39215687,0.4,0.5764706,0.5411765,0.56078434,0.88235295,0.8901961,0.8862745,0.95686275,0.96862745,0.95686275,0.27058825,0.22745098,0.24313726,0.3764706,0.34901962,0.3882353,0.2901961,0.24313726,0.2901961,0.34901962,0.28235295,0.29411766,0.42745098,0.34117648,0.30980393,0.41568628,0.33333334,0.3372549,0.47058824,0.40784314,0.41568628,0.80784315,0.7921569,0.7607843,0.5058824,0.4509804,0.3764706,0.47843137,0.4627451,0.44705883,0.36862746,0.3529412,0.35686275,0.32156864,0.29803923,0.30588236,0.5058824,0.4509804,0.3647059,0.4392157,0.38039216,0.36078432,0.47843137,0.4745098,0.5058824,0.6862745,0.7372549,0.78431374,0.2784314,0.1764706,0.16862746,0.4509804,0.34901962,0.2784314,0.47058824,0.39215687,0.3137255,0.3372549,0.27058825,0.22352941,0.3254902,0.23529412,0.23137255,0.45490196,0.3647059,0.3529412,0.49803922,0.45490196,0.4,0.5529412,0.5411765,0.5019608,0.20392157,0.14901961,0.12941177,0.24705882,0.16862746,0.16078432,0.20392157,0.15294118,0.17254902,0.21960784,0.14509805,0.15294118,0.3137255,0.22745098,0.21568628,0.3137255,0.23137255,0.27450982,0.31764707,0.21960784,0.23137255,0.5058824,0.48235294,0.36078432],[1.0,-0.9996697,0.9359528,0.99921495,-0.99999976,0.7832067,0.9999065,0.9999957,-0.9999995,0.9999488,-0.9993908,-0.99103117,-1.0,1.0,-0.9998976,-0.9989353,0.99998623,-0.99978745,0.9999952,-0.99999505,-0.9983586,0.9999315,-0.9999972,1.0,-0.9989204,0.99439883,0.99999833,-0.9840497,-1.0,0.9999995,-1.0,0.9999325,0.99991506,-0.9999444,-0.99997956,0.9996906,0.99925894,-0.9251817,-0.9985873,-1.0,0.99999994,0.99941367,-0.9999778,0.94493246,-0.99997616,-0.94993806,0.99994546,-0.91315377,-0.9999994,0.98806953,0.99994344,-0.9984746,-0.9998439,-0.999941,1.0,-0.99999994,-0.97184366,-1.0,-1.0,0.99997914,-0.99999994,0.9856206,-0.9901577,0.99910146,-1.0,0.9998956,-0.99577725,0.7350509,-0.9928127,1.0,0.9999999,-0.57303214,-0.99999964,-0.9999878,0.76206875,-1.0,-0.99737984,-0.9999999,0.9979462,0.99999976,0.99179167,-0.99811,0.9999579,-1.0,-0.9925282,0.98748356,-0.9999886,0.9999998,0.9999822,-1.0,-0.12288674,0.98786235,0.99999994,-0.99999964,0.99985385,1.0,-0.9999998,0.9986538,0.9978835,-0.99938124,0.9999799,0.99999213,0.99999833,-0.9992278,0.99999994,0.99891496,-0.99992156,0.9093219,-0.99889994,0.9999969,0.9999999,-0.999999,-0.48138654,-0.99045575,-0.99997807,1.0,0.999962,1.0,-0.99963796,0.9475579,0.9999621,-0.9999779,0.99988943,1.0,-0.99989593,0.8149575,0.9999288,-1.0,-0.9986455,-0.9999807,-0.9999999,0.999991,0.9998317,0.9999766,-0.9997013,-0.9989077,0.9999796,0.9999996,0.998067,0.9997658,0.9999984,-0.9413289,-0.9986069,0.99771065,0.99983245,-0.9937183,-0.80621624,-0.95974433,-0.9997969,-0.9999996,1.0,0.81678104,-0.9999982,0.9999997,-0.9999901,-0.9999977,-0.9999988,0.99999124,0.99999464,-0.9984299,-0.8996421,-0.9998755,0.9999986,-0.30450252,0.99999666,0.9999846,0.99995065,0.9999962,0.9996389,0.99790865,-0.8157395,0.99999946,-1.0,-0.99994045,0.9725703,-0.99999905,0.99998736,-1.0,0.92253387,-0.9996921,-0.9985218,-0.9999997,-0.99999833,0.99999994,-0.9999984,0.99999845,-0.9999982,-0.99999994,0.9999997,-1.0,0.9999999,-0.9995699,0.99999124],[1.0,-0.9999969,0.9999998,-0.9999792,-1.0,-0.99999994,-1.0,-1.0,-1.0,-1.0,-0.99998903,-0.9998998,0.98855233,-0.98233366,-0.9991969,1.0,0.99999857,0.9999811,0.9999854,-1.0,1.0,-1.0,-1.0,-1.0,-1.0,1.0,0.99999976,0.81643355,1.0,1.0,-1.0,0.999967,-0.99981564,0.99999994,0.99999994,-0.9999135,-0.9999996,-0.9999999,-1.0,0.99701285,-0.99998325,0.99999976,0.99999857,-1.0,0.9999848,-1.0,-1.0,-1.0,1.0,1.0,-1.0,-0.9333652,-1.0,-1.0,0.9999911,0.9999198,1.0,-1.0,-0.99998987,0.738737,-0.99999994,-0.99992144,-1.0,0.9999978,-1.0,-0.99999994,-0.9999996,-1.0,1.0,-1.0,1.0,-1.0,1.0,-1.0,-1.0,-1.0,-0.99999225,-0.99999964,-1.0,1.0,1.0,1.0,1.0,-0.99999654,0.99999845,-1.0,0.9999897,0.9999856,-1.0,-0.99999666,-0.99999994,-1.0,0.9999999,-0.9989979,1.0,1.0,-0.9999933,-0.9999863,1.0,1.0,0.999986,0.99999964,0.9999997,0.9996063,1.0,-1.0,-0.9999984,1.0,1.0,-1.0,0.9998341,-0.99274755,-0.9998416,1.0,-0.9999996,-1.0,1.0,-0.99999416,-1.0,0.99999344,0.9991426,-1.0,-1.0,1.0,-1.0,0.9999998,-1.0,-1.0,1.0,0.99999875,1.0,0.9999998,0.9999998,-0.9985243,-1.0,0.99999976,-1.0,0.99999994,1.0,-0.9999998,-0.9999976,1.0,-1.0,-0.9999987,1.0,1.0,0.999999,1.0,-0.9753008,-0.9992973,1.0,0.9999886,-0.9999999,-0.9999985,1.0,1.0,-1.0,-1.0,-1.0,0.9999605,1.0,-1.0,1.0,0.9999984,1.0,-1.0,0.9999905,1.0,1.0,-1.0,0.99977386,1.0,1.0,0.99985206,-1.0,1.0,-1.0,0.9999922,0.9957025,-0.9515275,-0.9999993,1.0,-0.9999986,1.0,-1.0,-0.99999857,1.0,-0.9999999,1.0,-1.0,-1.0,-1.0,-1.0],[1.0,0.9998774,-0.9997171,1.0,-0.9999997,1.0,0.99999833,1.0,1.0,1.0,-0.9998758,-0.9999862,0.99710965,-0.9999693,1.0,0.99999994,1.0,0.99999994,0.9999986,1.0,-1.0,0.99996763,-1.0,0.9999984,-1.0,1.0,0.99997115,-0.9999905,0.99992865,-0.99999994,-0.9999999,0.99998724,-1.0,0.9982798,-0.9666149,0.999993,1.0,0.9999907,1.0,-1.0,-0.9999989,-1.0,0.9999993,0.99999666,-1.0,1.0,1.0,1.0,0.9999843,0.99787414,0.9999927,0.9999991,1.0,-0.9986785,0.54502255,1.0,-0.9999985,0.99999976,-0.30694732,0.9999997,-0.8996541,-1.0,-1.0,-0.99999523,-0.99671257,-0.9999898,-0.99999994,-1.0,-1.0,-0.99999106,0.99999875,0.9869179,-1.0,1.0,-0.99999994,-0.999999,0.99999994,-1.0,-1.0,0.9999991,0.9999998,1.0,1.0,-1.0,-1.0,0.99999946,-0.9999915,0.99991316,-1.0,0.99999994,-0.9999962,0.9997505,-1.0,1.0,0.9986263,-1.0,0.939066,0.99992704,0.9991748,1.0,0.9989247,-0.9999868,0.9999401,1.0,1.0,-1.0,1.0,-0.99999994,0.9999994,0.9999743,1.0,0.99999994,-0.99961495,-1.0,-1.0,0.99999964,0.9999979,-0.99999994,1.0,1.0,0.99999994,-0.9987388,-1.0,1.0,0.9966937,0.99998575,1.0,0.9999998,1.0,-0.99999493,1.0,-0.97255784,-0.99987835,-1.0,1.0,-1.0,0.9999993,1.0,-0.99999946,-0.99851346,1.0,1.0,1.0,-0.99997973,-0.9999991,-0.99959564,1.0,1.0,0.9999382,1.0,0.9999997,-1.0,0.9999998,-1.0,-1.0,-0.9999035,0.9999999,0.9999926,0.9999918,-0.99981046,0.9999976,1.0,-0.9972963,1.0,0.99987495,-1.0,-1.0,1.0,1.0,0.99999994,1.0,-1.0,0.99999946,1.0,-0.99998957,-0.99999005,1.0,0.9999808,1.0,1.0,-1.0,-1.0,-1.0,-0.99999994,0.9972886,1.0,0.99996215,0.9927842,0.99999964,1.0,-1.0,-0.9996671,0.99999654],[1.0,0.99999094,1.0,1.0,-0.9998369,-0.9999999,-1.0,1.0,0.9999299,1.0,-1.0,-1.0,-1.0,1.0,-1.0,1.0,0.9983965,-0.9999071,-0.99999815,-1.0,-0.9999999,-1.0,-1.0,1.0,0.995597,-0.993722,-1.0,-0.99999994,0.9999958,0.99979544,-0.9998329,0.9999994,-0.99965864,1.0,-0.99999994,0.99995416,-0.99950075,-0.9999642,-0.99999493,0.9999997,-0.9999999,0.9999865,1.0,-0.99999946,0.9994714,-0.9999968,-0.99999994,-0.9999298,1.0,0.9998073,0.999943,-0.9999975,-0.99999994,-0.9999673,0.9999999,0.9999561,-0.9999965,-1.0,-1.0,1.0,-0.9999591,-0.9999026,-1.0,-0.99998355,0.999963,-1.0,-0.9999989,1.0,-0.99999756,1.0,0.99999994,0.99794686,-0.99999976,-0.9999999,-0.99929476,0.9565891,-1.0,-0.9999999,1.0,1.0,0.99774903,-1.0,1.0,-0.9999998,0.9998908,1.0,0.99951845,1.0,1.0,1.0,1.0,0.99999946,-1.0,-0.89400196,0.9999999,-1.0,0.9999996,0.9999352,-0.9999994,1.0,-0.99999505,-0.99998325,-0.9999998,0.99999994,-1.0,-1.0,-0.82417953,1.0,1.0,1.0,-1.0,-0.99998754,-1.0,0.99848753,-1.0,-0.9990263,1.0,0.99977845,1.0,-1.0,-0.9999877,1.0,-0.99608076,0.9998507,0.99998045,-0.9999807,0.9999224,-0.99932307,0.99833626,1.0,0.9996406,-0.9999663,0.99993575,-0.9999916,0.99999905,0.9956643,0.99999994,1.0,-0.893245,0.94557285,0.9999773,1.0,-0.99965084,1.0,-1.0,-0.99849445,-0.9999998,0.99999785,1.0,1.0,-1.0,1.0,1.0,-0.99999493,-0.9999993,-0.9999993,1.0,1.0,0.99994415,0.9999871,-0.99668294,0.9999993,-0.9999999,-0.9917585,-0.9999901,-0.9999275,0.999951,-0.9999717,-1.0,-0.99999994,0.99999875,-0.599042,0.999995,-0.99999994,-1.0,-0.9999932,-0.99998456,0.99979216,-0.9996679,0.9999986,1.0,0.9999987,1.0,-1.0,1.0,-0.9975539,1.0,0.9999978,-0.9936987,0.99999416,1.0,-1.0,-0.9999991],[1.0,1.0,1.0,-0.9999999,-0.98928183,-0.9997129,1.0,-0.99060297,-0.9999993,1.0,1.0,-1.0,0.38183594,1.0,-1.0,-0.97854406,0.99376947,-0.999927,0.9999998,-1.0,-0.99397475,-1.0,0.99999905,0.9999846,-1.0,0.99953586,-1.0,-0.9988926,0.99999994,-1.0,-0.9999599,0.99568415,1.0,-0.9999998,-1.0,0.9995048,-0.99161184,-1.0,-0.999995,-0.9981115,-1.0,0.99999994,1.0,0.9999999,0.9999698,0.9987426,0.9992301,1.0,-0.9999993,-0.826797,-0.9993167,-0.99999726,-0.999962,1.0,1.0,-0.9999626,0.9999864,-0.9999947,-0.99999744,-0.9994734,-0.99999577,0.99999547,-0.9753284,0.9999992,0.9999971,-0.99999046,0.99169976,-0.69956106,-0.99999946,-1.0,0.2930753,-1.0,0.9993533,0.99554855,-0.9885783,1.0,0.9999997,-1.0,-0.99924093,-0.99809456,-0.99948215,-0.99999976,-0.99972975,-0.99999994,-0.9998736,1.0,0.9999284,0.9999997,0.9999213,0.99881727,1.0,1.0,0.9996461,-0.8948411,-1.0,0.99984705,-0.99999994,-1.0,0.99974453,0.9950472,0.99179465,0.993853,1.0,-1.0,1.0,-0.99999994,-0.99999994,1.0,1.0,0.9999994,-1.0,1.0,-0.9999954,-0.9997911,-0.9999382,0.999173,1.0,1.0,0.9999997,-1.0,-0.99989706,1.0,-0.81859994,-1.0,1.0,-0.99999344,-0.9999985,-1.0,-0.38994044,-0.9996417,1.0,-1.0,0.9999873,-0.9999997,-1.0,-0.9694736,-0.9999998,-0.9999998,0.994118,-1.0,0.999998,0.9995321,0.9999998,0.99999696,1.0,0.9992795,-0.99991685,0.9998484,-0.9401443,0.9999684,0.9999999,0.9870186,0.99961287,0.84211916,0.993379,-0.99314415,-0.99928325,0.9999884,1.0,-0.9999912,1.0,0.9013758,0.99996555,-0.9999255,1.0,0.999983,-1.0,0.9998876,0.99991554,0.99997115,1.0,1.0,-0.9115936,-0.99999994,0.9857118,1.0,-1.0,1.0,1.0,1.0,0.9967936,0.99993545,-0.9961148,0.99999994,1.0,-0.999306,-0.095224544,-1.0,1.0,-0.9999977,0.99913096,1.0,-0.989823]],"w":[[[-0.73987913,0.52083397,0.8662262,0.5009458,-0.6585705,0.8847201,0.38395333,0.4469216,-0.51120067,0.5360589,0.56375647,0.10417724,-0.34126663,-0.07075262,-0.8871834,0.13039923,-0.5345967,-0.031965256,-0.81851816,-0.047115564,-0.68706393,-0.25503373,-0.5750699,-0.321316,-0.13661313,0.21163797,-0.6027348,0.36769342,0.4289868,-0.008751869,0.4958706,-0.9084852,0.25474572,-0.5949607,-0.27275324,-0.9652128,-0.3984077,0.27312732,-0.9179187,0.05749297,-0.11826849,-0.7441714,0.2150948,-0.09010482,-0.023985863,0.14045477,0.19350052,-0.71525645,0.14829111,-0.773525,-0.0939939,0.9049642,-0.64092755,-0.96007085,0.23135424,-0.29913807,0.62384963,0.29784822,-0.44305897,-0.8363054,0.6855717,-0.8506248,-0.87598276,-0.7091539,-0.7352309,-0.18765736,0.09609604,-0.98511887,-0.69721437,0.84716964,-0.94864964,-0.91194296,-0.62317276,-0.7023361,0.40119314,-0.30590177,0.4477098,-0.81879234,-0.607002,-0.9138856,-0.9563029,0.124712706,0.49388075,0.8982444,-0.2102108,0.9883988,-0.57084084,0.8463173,0.43173003,0.8297317,-0.24846888,0.027659893,-0.17721081,-0.16814399,-0.29008198,0.30987167,-0.9750409,0.49712706,0.4074607,-0.6251571,0.047844887,-0.76083565,0.06292915,0.50668,-0.51019144,-0.43775082,0.38291478,0.22200465,0.6489177,-0.4169855,0.718863,0.4188354,0.1834414,-0.42596602,-0.9566119,0.14409304,0.9339647,-0.8839195,-0.38898444,-0.5304165,-0.7698457,0.3531103,-0.10230994,0.17084217,0.07258344,-0.19735456,0.391073,0.43263388,-0.4464848,0.56335545,0.97563744,-0.7068746,-0.8440347,-0.81329775,0.80052924,-0.4368782,-0.08594394,0.75575066,-0.2929914,0.056646824,-0.1689434,-0.046979427,0.31863213,-0.12659931,0.54914904,-0.23837566,0.002821684,0.19907045,0.23981547,-0.7646966,-0.78590345,-0.6841581,0.093316555,0.3853252,0.9291656,0.69162464,-0.98138905,-0.79170704,0.44965792,0.04655409,0.18759799,0.5421641,-0.24462605,-0.13182592,-0.45933247,0.16039085,0.46223068,-0.8611667,-0.97252536,0.93465686,-0.103773594,0.18002796,0.11084819,-0.24258709,0.9445782,0.8488786,-0.67006135,0.50006914,0.22014904,0.30711627,0.9944036,0.93943524,0.27670836,0.5255437,0.28417087,-0.6357298,-0.7682226,-0.92911863,0.06667161,-0.41505265,-0.7104664,0.62384033,-0.48729348],[-0.16014445,0.049613208,0.12908284,0.7581047,-0.661963,0.92883337,-0.21834499,0.751396,0.3824132,-0.86960256,0.87602395,-0.65111125,-0.1620545,0.5205668,0.89072555,-0.37537313,0.88315004,-0.5993107,-0.32806772,0.9016891,-0.5285836,0.52474684,-0.4134917,-0.10993877,-0.4271525,0.76875776,-0.4017708,-0.8608955,0.9620928,0.98730075,0.7092627,-0.26402748,0.3742008,0.63664895,0.23746614,0.5302741,-0.54216665,-0.36449292,0.4397615,-0.913618,0.3827682,0.12499884,-0.49400738,0.3482751,-0.80653256,-0.5573873,-0.62601954,0.05922869,-0.89501,-0.94939905,-0.13051048,0.31499666,0.69642085,0.5741227,-0.85154843,-0.7500236,-0.30674496,-0.7152383,0.18931963,0.07929074,0.7832669,-0.15106574,-0.57772607,0.5054097,0.82246643,-0.501493,0.9143186,0.10552994,-0.7926444,-0.92005813,-0.9788444,-0.9492435,0.89277303,-0.009506373,-0.4163465,0.14832641,-0.3612672,-0.76423085,0.3287941,-0.44362757,0.3508367,0.30428874,0.454651,0.535338,-0.04689136,0.32341543,-0.15058278,-0.56803304,0.884075,-0.92269593,0.8821927,-0.424105,0.07480633,-0.9852548,-0.095649526,-1.0314642,-0.034439676,0.32517102,-0.036199886,-0.8568117,-0.41566288,-0.8278035,-0.42545107,-0.3524666,0.5406601,-0.30387124,-0.10549015,0.697918,0.8686018,0.2906506,0.5590289,0.76154125,0.611729,0.89992374,0.43589264,0.23701254,-0.5079886,-0.5504859,0.34374925,-0.6721621,0.36255193,-0.5489837,0.4134825,-0.10660606,0.2544965,0.9100573,-0.57086176,-0.8040652,-0.8448001,0.074570954,-0.603534,0.5077371,-0.84971136,0.99625784,0.82457304,0.8873739,0.28705627,0.8848391,0.4445185,-0.7708158,-0.6694417,-0.57269853,-0.03684977,0.46931192,-0.32021576,-0.42671585,0.79190296,0.3058287,0.21439801,-0.7159041,-0.5454552,0.91858673,-0.62341714,0.674726,-0.61487734,0.42103478,0.26798695,-0.9647049,-0.095888175,-0.60854006,-0.89070547,-0.86261755,0.08325066,0.66556853,0.3847435,-0.039145716,-0.7359768,-0.78404444,0.49137175,0.10640637,0.53139234,0.3826024,0.09743075,0.592813,-0.5902242,-0.7615755,0.4975434,0.61853856,0.7690804,0.45361584,0.8392262,-0.28299466,-0.09381938,0.43180737,-0.7393139,0.60692984,-0.7451921,0.8649947,0.4595257,-0.22104521,-0.66307646,-0.35120907,-0.44434103],[-0.32138637,-0.8596929,-0.78683406,0.4246933,-0.5081757,-0.026657678,-0.46348253,-0.4244771,-0.93953747,0.9757223,0.083469234,0.21740815,0.02927576,-0.6449325,-0.21041088,-0.1894035,-0.019218968,-0.35463947,0.59574586,-0.61860955,-0.7108835,0.61175525,0.53759116,0.8410676,0.3741784,1.0292456,-0.44486073,-0.9346683,0.1456557,-0.5773364,0.97127384,0.68481433,-0.5377708,0.36310443,-0.5907747,-0.6762036,-0.6064189,0.4916668,-0.06258218,1.0177552,0.76780874,0.17523831,-0.8036132,-0.051846165,-0.3988083,-0.65574884,0.3391568,0.09468499,-0.8145993,0.5869013,-0.5126534,1.0333341,-0.45717394,0.13713202,-0.88731694,-0.17768306,0.21266118,0.9450675,0.2838659,-0.40392748,-0.17902845,-0.486517,-0.3736771,-0.5772256,0.77526575,-0.0071700914,0.5000993,0.01118532,0.96839535,0.93670416,0.8301689,-0.55072916,0.7101425,0.052061625,0.9093028,0.36009356,0.33630452,-0.5110135,-0.19041187,0.54770917,-0.6421108,0.57122606,0.55661404,0.13297772,0.6765526,-0.6300547,0.073044345,0.8595468,-0.69937015,-0.013480415,-0.9032412,-0.21096028,-0.67957944,0.33946684,-0.2568314,-0.8232814,-0.594336,0.099498495,0.8648658,0.9405951,0.13697521,0.9987688,-0.033384934,-0.24718581,0.9763979,0.16744414,0.5082272,0.9744383,-0.6375404,0.32651845,0.7836159,-0.8768549,1.0449175,-0.94258887,0.7142552,0.35350466,-0.83779645,0.31820253,0.48792046,-0.13116367,-0.658185,-0.3795904,0.5920051,-0.92756873,0.39481863,0.40567267,-0.77160627,0.33982778,0.11211993,0.07546939,-0.64624524,-0.022248963,0.099878006,0.30198509,0.8866802,-0.3358541,-0.13139045,-0.73703516,0.021652592,0.36930755,-0.32869405,0.0027628457,-0.6604701,0.7384192,-0.55403,0.19866507,0.12057377,-0.58070767,0.4873496,-0.5925799,-0.10690365,0.8261141,-0.31985334,-0.16700816,-0.50376755,-0.56534654,-0.5844818,0.6195223,0.36441156,0.88650286,0.9813305,-0.37710974,0.5666552,0.33788005,-0.9140987,0.9026355,-0.07183755,0.54701203,0.66801864,1.0266218,0.542934,-0.38717943,0.117379464,0.694919,0.7473126,0.9455232,0.09533148,-0.2473148,0.3648951,0.16537924,0.06986114,-0.76787055,-0.06928563,0.71412784,-0.66133744,0.7320661,0.05519018,-0.7108011,-0.45463875,0.16301925,0.66510755,0.14268157,0.78913534],[0.007768033,0.682016,-0.054660805,-0.4790725,-0.7692423,-0.065833405,0.7293066,-0.045533516,0.11753837,0.37803993,0.8704734,-0.4840339,-0.18212274,0.38244072,-0.059426483,0.3067994,-0.33599213,0.15615849,-0.96172833,-0.16334003,-0.08772546,1.0262269,-0.10582556,1.0177184,-0.77484584,0.37614197,0.52682364,0.98368627,0.28232467,-0.93041694,0.33447737,-0.16855574,0.17998062,0.23010427,0.13619648,-0.74631566,0.9094423,0.84844977,0.09925154,0.1178256,0.18762685,0.12003457,0.49132258,1.0240053,0.57795787,0.98655576,-0.8938724,-0.43090868,0.6142158,0.1638879,0.6373921,-0.5851591,0.2942823,0.23355174,-0.031619493,0.21417637,-0.5629114,-0.14123766,-0.46729323,-0.04921037,0.10082009,-0.3078926,-0.33357093,-0.5338446,0.0797032,-0.41687867,0.24833646,-0.18901059,-0.8321584,-0.24585208,-0.9206123,-0.17350908,0.11563291,0.7147172,0.711972,-0.73750824,0.50848716,-0.6016386,-0.0064693596,-0.300958,0.28249532,0.8827869,-0.5336151,-0.53854275,-0.118816815,-0.7005906,0.5977494,-0.8811027,-0.5364244,0.51544607,-0.26433447,0.83010995,0.32320824,0.9727389,-0.93592453,-0.8041474,-0.3034958,0.9458184,0.9150484,0.36183378,0.21088062,0.4066491,-0.8325066,0.5759684,0.57807446,-0.8570407,0.96852577,0.47552633,-0.20292367,-0.5862624,-0.19531734,0.7975994,-0.83425754,0.59840125,0.15485375,-0.7084043,-0.5106864,0.6135795,-0.8428864,-0.64624494,0.9470249,-0.86532646,0.915677,-0.77153844,-0.5230336,0.028423544,0.9228628,0.57761997,-0.7074982,-0.9076897,-0.94085544,0.9270742,-0.73485374,0.75549,0.17911205,0.8151263,0.6871606,-0.15014848,-0.086530715,0.13061203,0.5049533,-0.31658027,0.5393337,-0.4671263,0.11352257,0.73898,0.28377903,0.61132777,-0.33365953,-0.70581865,0.7892898,0.1970857,0.08686103,-0.05029209,0.3943667,-0.46626323,-0.32414687,0.6951043,0.11370507,-0.6437305,-0.4083034,0.82386327,-0.07703949,-0.11684085,-0.7648684,-0.9228698,0.82382417,-0.24832894,0.41070715,0.6845393,0.9151862,-0.017739201,0.014050139,-0.5874092,-0.1280559,-0.5731532,-0.49810123,-0.03385633,0.44039047,-0.7368763,-0.1707307,0.30841303,0.8454382,-0.6767435,0.31493717,-0.19187643,0.13072261,0.62924397,0.38917947,-0.33281872,0.97927296,0.8891446,-0.17596133],[-0.43905273,-0.63275784,-0.9679661,-0.7546333,-0.93714565,0.5816385,-0.13705564,-0.81294405,-0.7344283,-0.52751756,-0.6594389,-0.2801753,-0.3206049,-0.99964863,-1.0035129,0.76283526,0.36700636,-0.4155867,0.21006075,0.24822286,0.7062792,-0.6020522,0.13591413,0.87452555,0.6400285,0.74702793,-0.99836916,-0.08038036,0.8732809,0.70935917,-0.4298461,-0.8464143,0.33517784,-0.60631585,0.8033675,0.7205561,0.72322416,0.13534449,0.22489992,-0.14510874,0.7626109,-0.85543567,0.7937177,-0.6741158,0.5009706,-0.23599686,0.13220583,0.09153153,-0.29838455,0.36916608,-0.09656833,-0.8502109,-0.87574095,-0.57850575,-0.43344635,0.3804889,-0.8246915,-0.76469755,0.8328437,-0.5728299,-0.058223695,0.5792571,-0.076090135,-0.37442446,-0.21337192,-0.4437885,0.010626164,-0.07366754,0.34912115,0.05282409,-0.19260244,-0.24048679,-0.7229045,-0.58267534,-0.280065,0.7983778,0.93027925,0.5742253,-0.15074365,0.39126086,0.8743714,-0.0407913,0.66615695,0.47307622,0.34081006,-0.57502276,-0.2880565,-0.82760924,-0.72086954,-0.9819698,0.06000573,-0.9077146,-0.6125036,-0.47068167,-0.9252953,0.13618225,-0.82564104,-0.053164277,0.17833288,0.3303708,0.33142558,-0.13215223,0.95151025,0.5366253,0.36373368,-0.60425717,0.29963297,0.35466504,-0.036634825,-0.35439327,0.2387875,0.2580392,-0.019008012,-0.14030541,0.5659848,-0.1346172,-0.36583605,0.3100441,-0.57302296,0.2068555,0.64299643,0.6679922,-0.44728252,-0.8746009,0.38248777,-0.8511535,0.11676829,0.28372163,0.15576267,-0.6822874,0.2926415,0.9310853,0.11586901,0.3526038,-0.53301543,0.6632613,-0.45107466,-0.051013034,0.5138138,-0.28684604,0.67470896,0.47795922,-0.9709776,-0.76980805,-0.13420111,-0.3447983,0.41979915,0.42849302,0.63237906,-0.80438906,0.10690177,-0.1739788,-0.56985575,0.43409953,0.73617584,-0.63674897,0.7363676,-0.72676796,-0.5607035,0.3325962,0.67219436,0.25582954,0.4482806,0.5683657,0.65909624,-0.80721354,-0.3144221,-0.66562164,0.29648829,0.4738345,0.9874568,-0.69771177,0.109853774,0.5924397,0.27457154,0.80540895,0.6664723,0.7114031,-0.45005804,0.8015905,0.9518071,-0.4698669,0.083143435,0.31604925,0.2508271,0.50458777,-0.036094896,-0.09919356,-0.51709986,-0.23844023,0.41936743,0.4135131,-0.16495344],[0.83662164,-0.11952752,-0.6361297,-0.97311246,-1.0077072,-0.93365675,-0.46356133,0.9042836,0.33588448,0.6075791,-0.05780013,1.0103686,-0.028060235,-0.6767251,-0.09103295,-0.14536104,-0.43761688,0.3106891,-0.19882888,0.04138949,-0.09910528,-0.7320137,0.73645395,0.48336893,0.6577764,-0.9152206,-0.5109497,0.21537378,0.58222675,-0.8836372,0.14490837,-0.95441365,-0.024181014,0.05090981,0.12011245,0.72584796,-0.7806991,-0.13355245,-0.5644426,0.88035446,-0.045037847,0.90671945,-0.30610165,-0.949542,-0.4668001,0.07815242,0.548923,-0.8164129,-0.8055969,0.6469153,-0.4039405,0.9246082,-0.13560818,0.058167096,0.26034224,0.0069174124,0.7159597,0.96385586,0.49666718,0.46444926,0.9429534,-0.29231063,0.29966486,-0.9281715,0.65932244,0.51454794,-0.51351154,0.2861168,-0.34424743,0.96274644,0.5276784,0.6491491,0.33071536,1.0148308,-0.67650926,0.20815113,-0.9027797,0.8673417,-0.24895863,-0.3832699,0.21523869,0.34201416,0.66604817,0.15807159,0.699374,-0.05705916,-0.62359333,0.56310266,0.5519424,-0.10470493,0.96208316,-0.28017193,0.23225684,0.040824052,-0.8463442,0.74356,0.5576651,-0.43484375,-0.9249977,0.86271465,0.5402614,-0.5642172,0.2476632,-0.9231749,0.3522385,-0.90715134,0.44364303,0.22494808,0.24928445,-0.8732605,0.7434919,0.31445056,-0.46399406,-0.060943533,0.8090591,-0.65183216,0.3560444,-0.9624516,-0.94250417,0.27179056,0.27419138,0.81742907,-0.7729034,0.395492,0.3315426,0.60062414,-0.56654793,0.28965187,-0.9119468,-0.6773554,0.8060797,-0.34368145,0.45420313,-0.08098371,-0.48723835,-0.6931837,-0.39418146,-0.8409169,-0.24757619,0.5845764,-0.8904489,-0.9947458,-0.57953936,0.19911936,0.38476956,-0.50247437,-0.34846234,0.2948582,-0.68195015,-0.3875527,0.014097874,0.0028377243,-0.010461884,0.13928124,-0.17090572,-0.34699547,0.32063955,0.07617137,-0.28370255,-0.11080214,-0.30202177,0.4303266,0.6926877,0.41576126,0.9323565,0.7205606,0.75401896,0.814591,-0.5292092,-0.49386847,-0.6723873,0.5422105,0.75763965,0.49663675,-0.577481,0.3573557,-0.5402937,0.508191,-0.29419255,-0.14818847,0.49052244,0.8122609,0.7286287,-0.10643331,0.034372367,0.8321398,0.8164055,-0.73330444,-0.39354455,-0.77042323,-0.6756864,0.76334053,-1.0098627],[0.3598393,0.7522592,0.0783467,0.045721985,0.78752244,0.0969798,-0.47713292,-0.13441932,-0.60777676,-0.07113231,-0.98108655,0.3760833,0.6145128,0.81897146,-0.28251946,0.0668619,0.6888473,-0.64885473,-0.8207636,-0.84349144,0.5151478,0.2906375,0.41222152,0.18993613,0.9538401,0.39685157,0.49957636,0.12867382,-0.052112658,0.7330986,-0.22795546,-0.6147349,-0.9135141,-0.20745403,-0.49097204,0.26768225,0.97231835,-0.12672989,0.06407692,0.7595981,0.83139074,0.8604946,0.17112513,0.29744667,-0.40352312,0.34969035,-0.598389,-0.38396692,0.9289894,-0.28539836,0.8525543,0.45165056,-0.93735594,-0.8113437,0.31157932,0.3965533,0.5721973,-0.5499848,0.36685866,0.42600617,-0.3289275,0.755079,0.8762235,-0.47205073,0.35466084,0.90348977,0.02284613,0.9292944,-0.024146948,-0.5632971,-0.36563155,0.4156459,0.7870826,0.27927536,-0.63312894,0.8704732,0.7506639,0.62078243,-0.45936203,0.5907549,0.009288382,-0.17945994,-0.23244621,0.45636833,0.04430448,-0.32768422,-0.11876077,0.8222443,0.37720135,0.39817107,-0.26847735,-0.033963114,-0.42357218,-0.59132886,-0.61950743,0.81122243,-0.87666935,-0.48150995,-0.49521175,-0.79570305,0.88549614,-0.33342844,-0.5882035,-0.17919618,0.6225084,-0.15457028,0.94515574,0.16277725,0.10755423,-0.12953748,-0.26142663,-0.75001943,0.6144077,0.0049731093,0.8734258,-0.8452186,0.101946525,0.20220096,0.54153776,0.10749452,0.40932605,-0.1286573,0.725571,0.84386796,-0.5176182,-0.17125416,-0.717105,-0.4554822,0.88393253,-0.048073046,0.7110144,-0.8280458,-0.8415187,-0.29153544,-0.9132243,0.17869908,-0.28270474,0.4694312,-0.62166125,0.31973264,-0.7463246,-0.48074874,-0.022211244,-0.78793913,0.73442674,-0.33453247,-0.59691286,0.92529595,0.44917172,-0.850639,-0.76194614,-0.03301029,-0.08036275,-0.80436915,0.36109564,0.8801163,-0.51684296,0.2715962,-0.7932617,0.9133731,-0.766779,-0.9035056,0.7571514,-0.5062923,0.73511624,-0.073801175,-0.9451896,-0.2816435,-0.76535594,-0.65421325,-0.34017658,-0.9154213,0.92233723,0.10870273,-0.86102337,0.7806947,0.7539318,1.0116242,0.61285305,0.11181373,-0.63255847,0.5297475,0.23446943,-0.69876176,-0.96763915,0.4089238,0.3877105,0.13368374,0.20621768,0.382274,-0.0063635097,-0.05865986,0.041106265],[-0.038505245,-0.6125329,-0.40843153,-0.010608102,-0.9067348,-0.44072706,0.7216567,0.1149224,-0.8692122,0.5645121,-0.3904745,0.32532892,-0.88146746,0.09285548,0.47494924,-0.6041378,0.008686001,-0.78203076,0.8619444,0.13763732,0.97019625,0.87173647,-0.33294728,0.20988218,0.55354404,-0.09825236,0.15495543,0.57093495,-0.2901916,-0.41012552,0.33889705,-0.70968837,0.84358346,-0.16147396,0.594541,0.2886258,0.45371243,0.81979936,0.7296352,0.3001762,-0.10817523,-0.1485431,-0.24438138,-0.51219535,0.09094635,-0.6118246,-0.5603015,-0.09161682,0.92143977,0.31116092,0.7448389,-0.902001,0.1494492,-0.08585421,1.0514342,0.8637461,-0.92180777,0.2302945,0.08993908,0.85565734,-0.22533123,0.7210026,-0.24966641,0.5100007,-0.39179936,0.0312071,0.82496816,-0.37578833,1.0391275,0.70836055,-0.9074143,-0.5238602,-0.41494858,-0.6352898,0.050950818,0.5263169,0.9083897,0.70767635,-0.5676377,-0.14892477,0.2693971,0.37720418,0.9758744,-0.5478152,-0.035453595,0.97614527,0.5455525,0.98795056,0.42381138,-0.14909424,0.7187443,0.41685328,0.91401094,-0.30906898,0.38243806,0.14246836,0.8786321,-0.8322224,-0.77354395,0.8848463,0.21249056,0.9944517,-0.10252186,0.8669099,0.25478205,0.44475275,0.10547745,0.9254482,0.15464444,-0.88690794,0.56262076,0.69424516,0.16288076,-0.19343865,0.96661353,0.8150356,0.54475296,0.75892943,-0.922812,-0.04694245,-0.9555579,0.36624154,0.9686317,0.04771622,-0.35413584,-0.97336584,-0.71228975,-0.59620804,-0.0017358153,-0.69236976,-0.65510726,0.9265932,0.51038533,-0.26246214,-0.7509536,0.44703746,0.77939934,0.53210574,-0.22694609,-0.7609437,0.68990535,-0.6845807,0.20879906,0.2318668,0.54955304,-0.2146627,0.5823915,-0.5707099,0.9533556,0.14593484,-0.91986126,-0.8656803,0.63958,-0.44179332,-0.11446135,-0.11033073,0.7234368,-0.20462945,-0.21334086,0.32824096,0.9315952,-0.83098876,-0.902863,-0.4427316,-0.13416287,-0.45804265,0.26941282,-0.8079668,-0.25411695,0.9543368,-0.37539807,-0.3151417,0.7658193,-0.67108005,-0.75406075,-0.30466226,-0.89633995,-0.65026283,0.8314809,0.06542661,-0.7868337,0.7256443,0.98429656,0.05614304,-0.9392506,-0.64661556,0.5274399,0.04072589,-0.6203232,0.5290687,0.96346307,-0.6448438,0.9442701],[-0.48683283,0.3742471,0.17731671,0.08699652,0.44404107,-0.53073275,-0.075998016,0.20057656,-0.8685624,-1.0787206,0.16688651,-0.7551253,0.77999765,-0.53917724,0.05541789,-0.23213851,0.5161816,-0.3944105,-0.3880568,0.5305564,0.20963925,-0.04296228,0.04837329,-0.41241917,-0.47810698,0.76864123,-0.57575786,-0.36520016,0.47204682,0.7237864,0.72982866,-0.3848491,-0.16436815,-1.0615079,0.5403002,0.23135865,-0.62603086,-0.836412,0.77875704,-0.65693384,-0.44034484,-0.84129083,0.8115244,0.8282215,-0.6241233,-0.36618394,-0.60625505,-0.19918118,-0.050888617,-0.14405622,0.715711,0.29386887,0.21496762,-1.0622189,0.0032479917,0.43100017,-0.7899677,0.91109824,0.32426664,-0.80049324,0.063338205,-0.96049243,-0.034945466,-0.7316791,-0.084134966,-0.16213256,-0.59272003,-0.696507,0.29803756,-1.0678228,-0.56758124,0.21574076,0.32232556,0.47659695,-0.8905543,-1.0362881,-0.39597043,-0.025759628,-0.35292703,0.49025172,-0.76999766,0.23133573,-0.16375382,0.2411457,-0.60054076,-0.38770783,-0.83075815,-0.5782151,-0.6007027,-0.4614004,-0.005666057,-0.05037324,0.6631266,0.82353234,-1.0004883,0.6998698,-0.076151274,0.27631977,-0.9619217,-0.100525446,-0.8138024,-0.9033911,0.31003526,-0.41748264,-0.7591688,-0.6528392,0.5883721,-0.8462332,0.6901033,0.7305988,0.32882687,0.75825423,0.29994193,-0.5427847,0.5886885,0.70576894,-1.0660298,-0.26278523,-0.44165313,0.587004,0.62511295,-0.3058437,-0.5849291,0.5457273,0.19880545,0.89585274,-0.40330094,0.22177826,0.7096324,-0.718863,-1.0320448,-0.65777254,-0.7979897,0.7325512,0.30101365,-0.8766011,0.8243335,-0.9251564,-0.18258144,0.8222634,-0.5598874,0.6281893,-0.58082324,0.78629863,-0.07385889,-0.67574775,-0.5113826,0.7468941,0.47199562,0.70097584,0.2801564,0.9093829,-0.14070205,-0.3418593,0.5154855,0.5636207,-0.00060973485,-0.63987285,0.30614015,0.5629447,0.25843528,-0.09027818,-0.5942561,0.38757122,0.39241812,-0.801678,0.7882353,-0.8187457,-0.86508745,-0.17829458,-0.08747189,0.61362684,-0.87052,0.08639318,0.22777535,-0.5077103,0.7257514,0.37223986,0.6225479,0.42527255,-0.2012893,-0.39843205,-0.23044907,-0.8495542,-0.58209527,0.86545205,0.39627632,0.023374638,0.83519256,-0.3494918,-0.6366031,0.29103053,-0.49357426],[0.997349,-0.95844805,0.65181977,0.82687664,0.6837233,-0.39723724,0.9687263,-0.0117436135,0.38670534,-0.12748207,0.9450402,0.2985966,-0.2754405,-0.95041376,0.5739644,-0.16068861,-0.336132,0.6308219,-0.28832787,-0.27794385,0.12116131,-0.5274809,0.193956,0.029845834,-0.27561358,-0.28840896,0.34598136,-0.6344662,-0.46604562,0.08996506,-0.37119517,-0.6042506,-0.3734802,0.6245956,0.17093566,-0.59713066,0.85515344,0.18987069,0.27742362,-0.1335883,-0.27770606,-0.87535185,0.57646674,0.12855566,0.51293415,0.78932154,-0.19969656,-0.84904987,-0.8607236,-0.7419441,-0.4162533,0.3836635,0.15176243,0.5694766,0.25020513,-0.8455535,-0.16787878,0.45529377,-0.5823839,0.4797216,-0.25424013,-0.24916038,-0.44969264,-0.25074595,0.3993661,0.6784282,0.6559626,0.100944564,-0.035211466,-0.2976423,0.46726736,-0.7454171,0.1291117,-0.17915078,-0.89895684,0.5824084,0.5998671,0.7206099,0.37392727,0.052802756,0.8114353,0.8616729,0.9029403,-0.15555814,0.81836396,-0.638265,0.98103637,0.830436,0.2296533,0.36973128,-0.46838582,0.43368304,-0.55442,0.69907826,-0.8652579,-0.16708972,0.65650755,-0.7420237,0.97139823,0.6095226,-0.88277394,0.076756194,0.9131926,0.39319637,-0.55584204,0.28792915,-0.7870736,-0.2527749,-0.62279755,-0.14974344,0.98842436,0.5041252,-0.9174667,0.08249739,-0.19577801,0.92070866,-0.14527531,-0.4169609,-0.9184851,-0.33533496,-0.0085366275,-0.26642329,0.9578354,0.3709514,0.8867096,0.026343856,0.015133437,0.25960857,-0.12786473,0.8132035,0.3665673,-0.8107785,-0.21074489,0.17241234,0.9152071,-0.50145453,-0.22094323,0.8047874,-0.5732637,-0.8353482,-0.7781653,0.23153554,0.85821855,0.95836854,0.6467421,-0.58896434,-0.24027942,0.7219029,0.8268282,0.445209,0.9034712,0.052292023,0.7526606,-0.027344275,-0.09722907,0.15820098,-0.45179838,-0.2564584,-0.9175889,0.50949734,0.62209296,-0.80974144,0.31333125,-0.92813915,-0.20581983,-0.10576155,-0.7894351,-0.023933075,-0.84327155,-0.19470593,0.29180545,-0.6715515,0.63639826,0.4020355,-0.97037405,0.1841063,0.43690342,0.4208448,1.0125208,0.5990465,-0.43780863,-0.8989224,-0.058510706,-0.6284594,0.21660177,0.9156237,0.83477616,0.47749877,0.73738724,0.20875184,0.6601835,0.6369738,-0.2571348],[0.86869764,-0.7633819,-0.47763622,-0.5592146,0.15639584,0.123228334,0.2649211,-0.62090504,0.26337725,0.79406387,-0.41658857,-0.08894977,0.27047512,0.7365816,-0.8022704,0.7463424,-0.19881402,0.7153429,-0.12805994,-0.6226753,0.42591825,-0.17751336,-0.75833875,0.87895715,0.29093048,0.84537363,0.2091257,0.5514552,0.8542309,-0.20997253,-0.4612042,-0.014149023,0.21178183,-0.83948624,-0.85639805,0.8404177,0.15361315,-0.3427771,-0.6860308,0.6603556,-0.01878394,-0.45358747,-0.1696078,-0.70596594,0.6849779,-0.6406546,0.27127504,-0.29665944,-0.67409194,-0.0957309,-0.23336041,0.79255754,-0.23191383,0.5734065,0.2942465,-0.13411316,-0.4472068,-0.9306642,-0.9247373,0.1556296,0.30985853,-0.19943582,-0.65225255,-0.012907206,-0.7205716,0.603265,-0.6661853,-0.71903396,0.52479655,-0.65663546,0.7787842,-0.04498187,0.8403229,0.91236615,0.51684916,-0.45432267,-0.7071763,-0.02204243,0.84300405,-0.9668904,-0.3714446,0.65408105,-0.95113575,0.15897278,-0.9744308,-0.3255523,-0.10960754,-0.074703895,0.8609806,0.6460357,-0.17847067,0.66923535,0.5746972,-0.06753867,-0.86117274,-0.19886726,-0.576038,-1.0021473,-0.48413625,-0.9536578,0.010873588,0.75584507,0.15043573,0.44492263,0.4381285,-0.71084404,-0.6418467,-0.6144271,-0.18822728,0.15172784,0.8787146,-0.6565153,0.5378812,-0.47177702,0.00058810896,0.51292354,-0.8460048,-0.22782665,0.63539594,0.90071553,0.48235866,0.9244658,0.8315527,0.024811856,0.2583088,-0.73259807,-0.65604776,-0.8580342,-0.7847641,-0.7843508,0.073140755,0.71198714,-0.16169298,-0.111906104,0.883587,0.29892805,0.9736171,-0.047268644,-0.9221098,-0.8543963,-0.13355766,-0.59375024,0.07312563,-0.8186329,-0.6719312,-0.39227667,-0.9989454,-0.5477945,0.4588268,-0.65145755,-0.40371764,-0.8974667,0.655203,-0.81654173,-0.9801055,-0.09136504,-0.9455624,-0.012358731,-0.88251483,0.16681889,0.5243293,-0.12208818,0.7639108,-0.49482003,-0.63265556,-0.97420263,0.80181277,-0.16398498,-0.870786,-0.27304605,0.1775294,-0.15998428,0.8010654,-0.7548779,-0.5625957,-0.75458866,0.32498163,-0.85545015,0.58851147,-0.41717148,0.05816624,-0.69929606,-0.55133796,0.6714812,0.24780166,0.34765765,-0.20545402,-0.008846565,-0.38667452,0.88332075,0.5741867,0.87051576,-0.1869208],[0.5952998,0.0037023225,-0.89591104,-0.22439331,-0.6902704,0.06890393,-0.026075661,-0.32723007,-0.9408294,-0.5771598,-0.66880876,-0.97231513,0.4522005,0.7705253,0.36094266,0.7572737,0.32603616,0.8976791,0.34993985,-0.3313901,0.7018931,-0.41358256,-0.90432703,-1.0350126,0.19862762,0.34644577,0.13715896,0.552704,-0.54387313,0.010114752,-0.40932512,-0.45794716,0.4519116,0.91334563,0.28716403,0.796919,0.4520875,0.8144082,-0.3318825,0.21767187,-0.4774342,0.92123383,0.75387573,0.2321097,-0.51200485,0.20539045,0.11491766,-0.47659642,-0.48176658,-0.8839542,0.5540337,0.8201686,0.9285462,0.6366182,0.1861938,-0.34051955,0.78127223,-0.84628886,-0.9155524,-0.7977651,-0.53896636,0.37072697,0.7769324,-0.25579035,-0.6465967,0.49396682,-0.5855763,0.22042367,-1.0130733,-0.3908652,0.6429358,0.8498733,0.43757898,-1.0093293,-0.9257588,-0.20693232,-0.08045404,-0.89910555,-0.51801306,-0.25206178,0.22241694,0.81321543,0.6147931,-0.43965816,-0.103025295,-0.7648883,-0.41925004,-0.26699677,0.5066296,0.12404067,0.3599034,-0.15082489,-0.58092785,0.940009,-0.67510873,-0.07148466,0.45795768,0.40072763,-0.48703557,-0.6835784,0.43754423,-0.86945415,0.1703795,-0.5215505,0.15633501,0.69608355,0.30963847,-0.9868084,0.15124889,0.24760394,0.16882832,-0.61014545,0.7197132,-0.0031240084,-0.34616107,-0.19410369,-0.9105204,-0.6027726,0.6765454,-0.07971132,-0.47903138,-0.992667,0.8901523,-0.11822567,0.18266352,-0.64333934,-0.9624565,0.7758384,0.2606343,-0.36187357,-0.73543185,0.42859766,-0.24314752,-0.1917951,-1.0088474,-0.20728588,-0.073209494,-0.541333,-0.6802601,0.5222843,0.92870295,0.47947836,0.0075997305,-0.94521046,0.86258817,-0.75301754,0.6307223,0.12512699,0.8901832,-0.20061849,-0.23259681,-0.04418435,-0.050440066,0.80174816,-0.2471989,-0.8989147,0.8477015,-0.038942628,-0.75012803,-0.5037062,0.70495594,0.93078995,0.626792,0.5051805,0.86814654,-0.082675956,-0.84061,-0.8904651,-0.21420568,0.7547976,-0.98179346,-0.5500503,0.06326094,0.5626975,-0.19714615,-0.29908577,-0.6886615,-0.42529383,-0.57095915,-0.6365557,-0.9912836,-0.20245297,-0.70173556,-0.5626983,0.45695645,0.2482374,0.3681517,-0.15192139,0.86077505,-0.7954832,-0.45851213,0.33681217,-0.6590722],[0.6050835,0.41180852,-0.17376088,-0.26291406,-0.4598383,0.14479633,-0.49591008,-0.207012,0.07152342,-0.3602069,0.847946,-0.1533093,-0.46307287,-0.39455414,0.2846637,0.11495331,-0.34114888,-0.32300225,0.47577804,-0.37495565,-0.45291743,0.3222632,-0.3192,-0.15417312,0.8643058,-0.9014992,-0.7798119,0.68580174,-0.698416,0.33808503,-0.86851454,0.7050585,0.26507607,0.25367826,-0.38415995,0.05265102,-0.72082907,0.2276266,-0.008969877,-0.59059334,-0.11501217,-0.08372296,-0.35925457,-0.81405914,0.516459,-0.30014107,-0.034827508,0.11104672,0.6336071,-0.46079126,-0.88932824,0.47087383,-0.9996267,0.08553455,-0.9215456,-0.7052716,-0.9870614,0.029155629,0.035602134,-0.11282341,-0.9550674,0.9877537,-0.72321934,0.71199125,-0.43026984,-0.50750625,0.7744917,-0.24255598,0.8406912,0.3891978,-0.8134468,-0.86525226,0.7310889,-0.9174921,0.84579664,0.3227473,0.41878355,-0.453597,0.94252145,0.8734588,-0.006846425,-0.4409903,0.5885052,-0.64999187,-0.56429476,-0.1526371,-0.74817324,-0.47494575,0.42195302,-0.058575314,-0.41923454,0.8439983,-0.0022922617,0.53042895,-0.3550534,-0.51703984,-0.35903895,-0.7270096,0.10677816,-0.10973164,0.41158164,-0.19898006,-0.531167,-0.23745635,-0.8269261,0.25536373,0.2983611,-0.76495713,-0.6734403,0.47817245,-0.17775643,-0.6571001,0.29309815,-0.6163862,0.7312174,-0.42876217,-0.20210393,0.5946224,0.8376521,-0.66405034,-0.7030441,-0.50309736,-0.9052874,-0.50558394,-0.38026497,-0.73622733,-0.90412736,0.15676638,0.55125433,-0.56486297,0.20823346,0.6115704,-0.5636801,-0.805376,-0.11216081,-0.636137,0.08154817,-0.06905678,-0.4908337,-0.7665516,0.6384527,-0.9834951,-0.01951799,0.85374105,-0.41207504,-0.3114065,-0.4377705,0.0056714527,0.7744144,0.77044815,0.82208437,0.891143,-0.9729615,-0.17568274,-0.12898,0.7495784,0.72448224,-0.115599275,0.47659886,-0.39124715,0.69012654,-0.41588438,0.33785638,-0.92370135,0.13325429,0.030472094,-0.07194218,-0.93249947,-0.7741532,-0.17058083,0.14771672,0.76180416,-0.4721186,0.5043115,-0.41298267,0.059396055,-0.66478294,0.36693853,0.23769921,0.25472444,0.37146088,-0.8254447,0.08559629,0.3036418,0.3481507,-0.9111093,-0.54751354,0.6471852,-0.42832416,0.26189157,-0.6749329,0.28722972,-0.20451592],[-0.4247848,0.48655003,-0.25014555,-0.4621512,0.33908102,0.22120866,-0.30504143,-0.73955303,1.0803016,0.25070298,0.7372572,0.6132815,0.49243242,0.7844948,-0.25319466,-0.63896346,-0.7075154,0.82949275,-0.18725339,0.6468628,0.07253851,0.700509,-0.13777544,0.8572693,-0.3346407,-0.8874247,0.7623587,1.088396,0.5945913,-0.58837175,0.34282205,-0.22640137,0.13510408,0.7607221,-0.5703294,0.5500389,-0.7558545,-0.40188962,0.5535488,0.87437576,0.6095396,-0.497935,0.06831881,-0.71817374,-0.3266009,-0.7987408,0.756978,0.53057736,-0.103393614,0.5017199,0.7162587,-0.6786019,0.4250227,0.4943177,-0.38863283,-0.42948276,0.8518795,0.03275773,-0.52199423,-0.50483835,-0.3056135,-0.6784358,-0.6430091,0.29437405,-0.9626018,0.2816943,-0.8440469,0.45816523,0.2708005,-0.004753238,0.6194969,-0.2167472,1.0360204,-0.11743986,0.6857158,0.23231238,0.049948666,-0.08459023,-0.72868353,0.86437047,0.62142956,0.40574273,0.70906305,-0.18983452,-0.2862562,0.4379981,0.5073922,0.70708275,-0.703577,0.85848737,0.21033478,0.06842281,-0.91856194,0.45821527,0.2508446,0.21625547,0.28034297,-0.5550802,-0.12470378,-0.2587433,0.51407844,0.9189787,-0.8351994,-0.5041383,-0.74004805,0.7630116,0.47551876,-0.0208078,0.83162344,0.2836939,0.67064303,-0.18966882,0.54994607,0.23890227,0.09196901,0.9815777,-0.4080295,0.34314424,-0.32483518,-0.30843154,0.78370965,0.031386133,0.17919202,-0.9565356,0.040095057,-0.3256173,0.15507665,0.0121930605,-0.44339055,-0.9495989,0.18859471,0.15847796,0.9877086,0.19884953,0.229402,-0.95339197,0.9144708,-0.826403,0.9615135,0.5895957,-0.62081414,0.2574586,-0.24176642,0.8505234,-0.50010115,-0.6315219,0.56511056,0.48315772,0.7615876,-0.45597735,-0.9109014,0.22934064,-0.44726327,0.9572701,0.5404485,-0.3868145,-0.41398078,-0.09789431,-0.26834264,0.6383103,-0.9069314,-0.043903325,-0.2887409,-0.36781493,0.47003928,-0.29222298,0.60962677,0.67679393,0.021354813,-0.15859756,-0.5114924,0.17788729,0.47083884,-0.84027636,-0.09638411,0.31770235,0.025596665,0.2942779,-0.0098575875,0.065005235,0.15500699,-0.43868518,0.13044912,-0.2773507,0.13476035,-0.2163374,0.3942264,-0.08883273,-0.17995718,0.6743137,0.9426306,0.62036055,-0.8703047],[-0.40539044,0.8970512,-0.32438993,-0.37733564,-0.13103881,0.3892972,-0.10741676,0.8378068,-0.8048356,0.748939,0.16392791,0.8934219,0.7460158,-0.4310826,-0.9537332,0.34698048,-0.53345525,-0.88863736,-0.7779922,-0.472869,0.53829163,0.30793002,-0.603057,-0.6700357,-0.55554444,-0.6157507,0.6493518,-0.8123399,-0.56580895,0.5270334,-0.8914925,-0.136554,0.45923635,-0.9528684,-0.17924322,-0.15859224,0.24946769,0.42888573,-0.7790355,-0.79036474,0.27076325,0.7623595,0.0527854,-0.9722642,-0.3138147,0.8391718,-0.8462178,-0.14652303,0.3554567,0.7817667,-0.1790425,0.59605956,-0.20616418,0.55680186,0.6667821,0.65383047,0.7790215,0.074149184,0.43761232,0.6331539,-0.85173154,0.37990624,-0.7529476,0.33407027,-0.58197546,-0.32826492,0.9189153,-0.063156724,-0.43596706,0.7700165,-0.69908464,-0.20297422,-0.49847856,0.1697541,0.95185465,-0.43122846,-0.80364865,-0.9241717,-0.6102992,0.8842125,-0.59493804,0.8392298,-0.485036,0.9131084,0.35346606,0.9244687,0.0891453,-0.2646701,-0.13938093,0.28871012,0.02538161,-0.8119517,0.47044563,-0.1436171,0.4867489,0.19904053,0.4327579,-0.39212555,-0.5296176,0.32311398,-0.42549926,-0.69169635,0.00013532733,-1.0186214,-0.37896153,0.524705,-0.66342074,-0.53840077,-0.04958247,0.17800912,-0.54668194,0.17443813,-0.37777883,-0.9283322,-0.043305982,0.2902907,0.16144192,-0.94359916,0.70108944,-0.67857915,0.3484754,-0.7876608,-0.38833928,0.83737063,-0.39761317,0.36855984,0.12479803,-0.5597607,-0.8087455,0.02719862,-0.7591788,-0.058476884,-0.84985155,-0.5227131,0.6181155,-0.4368315,0.41626403,0.33626732,-1.0020751,0.2637991,0.57139975,0.18019515,0.7829323,-0.024965461,-0.8765252,-0.60785234,-0.7842085,0.1282766,0.73241013,0.30880514,-0.8293747,0.18673843,-0.020731471,-0.99959487,-0.14439121,-0.44341326,0.46924084,0.74590725,0.030622398,0.47780386,-0.6219227,0.09607479,-0.8702498,0.42099023,-0.114006564,0.6248936,-0.59347105,-0.827057,0.29564083,-0.8158221,0.11605361,0.46223187,0.551076,0.69034433,0.1508717,0.8483978,-0.16595596,-0.35668463,0.6657905,0.7803454,-0.9412881,0.5278227,0.117376044,-0.14902914,0.24806012,-0.57149416,-0.173474,-0.64895386,0.63775486,-0.04337576,0.9556832,0.95180875,-0.7124675],[0.4675532,0.57517815,0.5963408,0.45696795,-0.4706765,0.8537184,0.2227334,0.62639695,0.18313548,-0.1563673,0.35565668,-0.9425131,0.011237459,-0.5062886,0.15144163,-0.62905306,-0.51471525,0.82425463,-0.60439545,-0.6487441,-0.9646581,-0.43909547,0.8066716,-0.056902934,-0.7135323,0.96636146,0.8472603,-0.9314323,-0.40454784,0.3089922,-0.87695104,-0.945782,-0.15870692,-0.31473342,0.27428848,0.1486617,-0.034280665,-0.82973343,0.7379095,-0.023002509,-0.49235365,-0.055011667,0.12994593,-0.4898201,-0.209245,-0.715947,-0.11828842,-0.12744842,0.14965558,0.26654425,0.7497559,-0.91909915,0.31161562,0.5689734,-0.75307477,-0.52712435,0.17353223,0.17074363,0.6185936,-0.7520439,-0.85917073,0.58940434,0.005503675,0.569822,0.6392242,-0.0057966104,0.60345334,0.2852918,-0.77471626,0.05613846,-0.21996866,0.5106904,-0.11370147,-0.23162642,0.8851506,-0.42252848,0.59872484,0.5560429,-0.9439654,0.8433364,0.59629154,0.050979823,-0.3960246,-0.44016698,-1.0105497,-0.10618259,-0.033549424,-0.79705656,0.09475851,-0.30047733,0.4979679,0.19168505,-0.18863773,0.37437937,0.55583173,0.79881185,-0.41505903,0.21883193,0.23108217,-1.0037936,-0.73422104,0.97151136,-0.19613835,0.6312834,0.5573393,-0.024269648,0.54987574,0.8957953,-0.09022791,-0.50323945,0.903996,-0.015550046,0.7660745,0.5472802,0.430091,-0.31454873,-0.30796233,0.7607314,-0.91899276,0.27147004,-0.29256633,-0.7635407,-0.6239177,-0.60353404,0.2949083,-0.0993801,-0.29983565,0.9746845,0.8010816,0.48489505,-0.55995256,-0.5283578,-0.98204875,0.65712714,-0.33737585,0.15411727,-0.1896027,-0.6451696,0.2077258,-0.9121804,-0.19156025,0.9155798,-0.96577126,0.6928683,0.31146017,0.76885706,0.13180491,-0.13953464,-0.8671742,-0.5252622,-0.87764174,0.19453543,-0.52119,-0.9076118,-1.0005286,-0.8670121,0.35107562,0.461726,-0.2518771,-0.26783553,0.029709935,0.2651267,0.59221494,-0.18093279,0.60969555,-0.71947956,-0.8823813,-0.60952973,0.07712875,-0.8092412,-0.64873594,0.91378945,-0.21458384,-0.93762547,-0.4830391,-0.36915746,0.69526154,-0.725079,0.5007515,0.0075838524,0.5166259,-0.9225046,-0.8683303,-0.22367507,-0.8616792,-0.39109898,-0.9350978,-0.60866225,0.7301868,0.86466974,-0.0012697139,0.38794518,0.67237777],[-0.64585775,-0.91989756,-0.91602117,-0.65988827,0.08831986,0.5222509,-0.3996076,-0.27211154,0.5137862,-0.14707986,-0.049157765,-0.5049741,0.005936583,0.47738618,0.015820444,0.7249522,0.5735379,0.9032939,-0.023290358,0.3962271,0.73708117,-0.63811934,0.4134277,-0.6553735,0.32408044,0.73912644,0.11608211,-0.0956762,-0.44226754,0.58308434,0.96673024,-0.019502565,-0.92324543,-0.8668544,-0.7571244,0.4648636,0.30534625,1.0122309,0.733565,0.24317226,-0.7289868,0.28521335,0.6628754,0.5086994,-0.17557248,-0.51209664,0.051058933,0.060662344,0.3147077,-0.43039915,0.16948527,0.67157906,0.31283438,0.5544886,-0.258344,0.9730686,0.545882,0.61969316,-0.31897065,0.979363,0.32950008,-0.36006925,0.8339659,-0.8852129,0.67326933,-0.16347262,0.51193213,0.23487538,-0.67656136,0.5708798,0.6827561,0.9318465,-0.7593987,0.45536622,-0.08003045,-0.55582964,0.109988,0.37156594,-0.6835698,-0.59033364,-0.030819442,0.34825036,0.5601664,-0.57589275,-0.13308407,-0.9391045,-0.5507417,-0.39661816,-0.11240936,0.725605,-0.942097,-0.15288474,0.578391,-0.03237741,0.26711553,-0.53533304,-0.81891274,0.31370017,-0.20894842,0.83882964,0.5265945,-0.55722606,0.65154964,-0.33180854,0.11262239,-0.010310539,-0.3124996,-0.6908945,0.5408817,0.75114584,0.47025827,0.05508742,-0.8377034,-0.6820498,-0.8453474,-0.36689228,-0.48629695,0.6384523,0.55973953,0.5878768,0.8276956,0.6169362,-0.8552109,-0.49973845,-0.43472138,-0.5409412,-0.58119047,0.98104876,-0.07006251,0.0556436,-0.06758553,-0.6540456,0.63570344,-0.7000827,0.639784,-0.37770757,0.29644334,-0.9437875,-0.42122614,-0.7079558,-0.84843385,0.25041178,0.8474091,0.036295895,0.9244845,-0.052622687,0.13828543,0.7753925,0.5128944,0.25589573,0.41653275,-0.28044426,-0.1447043,0.017386952,0.69472665,-0.6989228,-0.26117802,-0.7605475,-0.36962712,-0.053970404,0.5788951,0.39323777,0.005116542,0.20309217,-0.06971694,0.5520521,0.7885172,-0.0783112,0.75698704,-0.22758302,-0.33226088,-0.7269409,0.10304035,0.2674959,0.6690969,0.80429333,-0.7266305,0.5301805,-0.30237538,0.08906691,-0.26650828,-0.036496043,-0.314466,0.7353409,-0.18861854,0.7367734,0.05006923,0.7386501,0.096938856,-0.40020365,0.121717624,-0.11041732,1.0427628],[0.39073014,-0.59200734,-0.51220256,0.29904467,0.4403762,0.25094637,-0.42069098,0.44366178,0.51027495,-0.047948077,-0.40332305,0.35307002,-0.9268799,0.74651885,-0.4593672,-0.2773127,-0.2550902,-0.06688865,-0.96822345,0.2774956,0.34495595,0.5669261,0.48108348,0.4795395,-0.4529939,-0.85801893,-0.11371629,0.8333733,-0.09936041,-0.0859985,-0.078234315,0.99243504,-0.8469644,0.12753706,0.14459461,-0.001807733,0.07859488,-0.029912533,-0.25212854,0.54941523,-0.2685027,-0.09828293,-0.77910596,0.062580995,-0.5906911,-0.46756217,-0.5066836,0.22058165,-0.062792,0.4167771,-0.7951448,0.3791755,0.6428808,-0.75734174,-0.4293725,0.44456488,0.39552766,-0.1832938,-0.3818127,-0.70223373,-0.24983047,-0.90402097,0.021845477,0.74789304,-0.9241581,-0.6296742,-0.54948014,-0.59690046,0.30204678,0.07619545,-0.10510294,-0.035517644,-0.17185587,0.8099443,0.78909564,-0.32664505,-0.8685658,-0.9867555,-0.7348131,0.109096915,0.9540242,-0.8915243,-0.846545,-0.5528461,0.7896094,0.7387778,-0.14755102,-0.3016938,0.12039893,0.112283155,-0.42066875,-0.39705333,-0.672059,-0.43576267,-0.13017972,-0.2964919,-0.15488866,-0.61955,0.5706379,0.57689327,-0.20210043,-0.02389375,0.56158286,0.93770766,0.7496361,-0.45849067,-0.7272254,0.12099297,0.6330718,-0.840352,0.60506064,-0.7890356,-0.744563,0.14284135,-0.38551703,0.7810044,0.38029402,-0.08554646,-0.2155257,-0.3090846,-0.111838,0.08816534,0.9107194,0.62891346,0.532997,-0.34535167,0.05062187,0.6154027,0.92281085,0.76887316,0.86932427,-0.5432319,-0.4835413,-0.28177464,0.13532181,0.9917936,-0.47471392,-0.8488398,0.7263497,0.09915376,0.67669374,-0.08450359,0.724984,-0.0049320455,-0.4176955,-0.58460647,-0.90078914,-0.7574287,-0.4330763,0.41114148,0.35942507,0.64428854,-0.35857946,0.91157717,0.07564867,-0.43802857,-0.46922088,-0.3381168,0.9390819,0.8878569,-0.7193389,0.050932873,0.39040375,-0.91254216,0.41046616,0.20096262,0.8119974,-0.05120022,-0.0037109933,0.014027974,-0.83803725,-0.4629626,0.6734893,0.78201056,0.20314741,0.81551564,-0.666202,-0.35135284,-0.015217022,0.0802572,0.28895992,0.7153329,-0.72046405,0.883076,0.38230884,-0.5376879,-0.5129363,0.10685859,-0.2564992,-0.6951306,0.6390291,-0.84099746,-0.0048366357],[0.9944855,0.95810807,0.17198221,0.9057572,0.03963248,-0.84384084,-0.50274676,-0.29629096,0.83076,-0.34482276,0.2935629,0.34979212,0.45782363,0.9050067,-0.5615466,-0.3943602,-0.7030334,-0.20349948,0.9479762,0.31747827,0.03765374,0.16072835,0.21355616,0.7196837,0.3798228,0.30191654,0.7810973,-0.8097178,-0.08008023,-0.17463738,-0.14094083,0.9791494,0.7305834,0.70263755,0.09141692,0.32949448,-0.32386932,-0.047215838,-0.44780445,0.060156103,-0.69084156,0.3289784,0.1461595,-0.66221374,-0.17903872,0.004032848,-0.8129114,-0.048802067,-0.9333292,-0.2627453,0.5853469,0.5501718,0.77378535,-0.5079484,-0.6094438,0.9045736,0.4320664,0.10989207,-0.11463532,0.86840904,-0.8422018,0.45347863,0.2837159,0.8474854,0.17811574,0.8284512,0.22872171,0.4995944,0.47782338,-0.89097077,-0.4375386,0.70526934,0.56835806,-0.15661718,-0.37311012,0.14312695,0.16648059,0.34052575,-0.8986925,-0.0018561659,0.6251601,0.17838122,0.7372484,0.26085937,-0.8898563,-0.3680121,-0.6244957,-0.7255712,-0.5620854,0.5606341,-0.31381062,0.6630571,0.9671616,0.8957115,-0.08338211,0.793352,-0.14761983,0.8495369,0.102885984,0.099277504,0.3696771,0.9032266,-0.4054807,0.09139834,0.6990279,0.7257734,-0.15430579,-0.26585847,-0.9424289,-0.6602166,-0.07359942,-0.53701985,-0.24758697,0.6390382,-0.6448492,-0.5208455,-0.770752,-0.0149824815,-0.5137295,0.6580191,0.9145752,-0.773111,0.30558622,-0.087313235,-0.8739148,-0.5961438,0.42957285,0.9377295,0.44435143,-0.6663744,0.66854495,0.16662052,-0.77093315,-0.91009194,0.96415997,0.5834721,0.70655626,-0.0725657,-0.40179145,-0.6277074,0.38202238,0.62482125,0.725143,-0.97013545,-0.96563554,-0.25023064,0.7779699,-0.7727686,0.558039,-0.7576343,0.5401267,0.55794126,-0.9450202,0.3957232,-0.86919904,0.91911215,-0.30029577,0.7011284,0.86867774,0.011587666,0.9208147,0.3652934,0.20937571,0.75826156,-0.8064651,-0.48190123,-0.47226462,-0.54586154,0.377079,-0.87908053,0.36658534,-0.09832187,0.8396371,-0.08606424,0.073947124,-0.79276896,-0.7503355,-0.9492465,-0.1404701,-0.46987465,0.76858354,0.23182233,-0.17719395,-0.8048946,0.11335405,-0.94804484,-0.45689648,0.9070463,0.3660648,-0.6352631,-0.68322015,-0.3838261,0.6577261],[-0.90140176,0.115109175,-0.123705074,0.22457197,-0.55825573,-0.72170514,-0.7923609,0.9639659,-0.713117,0.91226256,-0.64580184,-0.5206061,-0.0105046425,0.24740285,-0.47088268,0.3563282,0.53842473,0.6423232,0.28477845,-0.40011188,0.20115383,0.605836,-0.096941434,1.0246371,-0.15626793,0.028731093,-0.94732165,0.020917766,-0.6516485,0.74049723,0.7461716,-0.34881994,0.8078676,0.5359702,0.61887854,0.5884895,0.9081767,-0.9771696,-0.65165496,-0.20223777,0.35330355,-0.5331333,-0.67470235,-0.685744,-0.75821185,-0.4248025,0.44309804,-0.08473711,-0.7562148,-0.35963473,-0.5567029,-0.65340304,-0.7210777,0.6858027,0.09955808,0.6537227,-0.6863671,0.77950776,0.6990195,0.31010538,0.07044576,-0.41581327,0.3998391,-0.4873893,-0.09361808,-0.2793245,-0.6955921,-0.6670927,-0.64498484,-0.023141395,0.08359294,0.02901432,0.9753013,0.64722365,0.40983856,-0.68705416,0.18911576,0.8164741,0.621562,0.42890358,-0.9828513,0.5130283,0.59779507,0.45534745,-0.72831243,-0.2172069,0.6232043,-0.39818585,-0.5891161,-0.25001386,0.13380206,0.9312779,-0.6930263,-0.024944037,-0.30607796,-0.5455372,-0.7847607,0.5921528,-0.7757113,0.665826,-0.44336197,0.7054887,-0.4239402,-0.8581919,-0.080726355,0.8971082,-0.12609571,0.39984033,-0.11819675,-0.042573392,0.39154726,-0.2635146,0.23093054,0.96416473,0.9144852,0.16657577,-0.45385322,-0.9242448,-0.34937018,-0.8735956,-0.8999723,-0.7583024,0.24044693,-0.8737244,0.5015,-0.27302915,0.9055955,0.7396979,0.16657937,0.21367048,0.6691171,0.12945272,0.30854127,0.38271916,0.77804923,0.47736636,-0.18687107,-0.5024976,0.04766255,-0.85794055,-0.7063342,-0.40083057,0.21844439,0.7955682,0.2592629,0.48467168,-0.98275876,-0.58058614,-0.8094632,-0.76144874,0.67622656,-0.59428644,-0.89614356,-0.61503077,-0.5115306,0.90736216,0.6086952,-0.24792562,0.8237474,0.97286016,-0.14562882,0.8968315,0.29402894,0.22021054,0.14023295,-0.69330484,0.05264347,-0.7888708,-0.49018657,-0.11147238,0.45669842,-0.0120260995,-0.51487315,0.98230344,0.65364397,-0.232241,-0.7296624,-0.81915706,-0.19263975,-0.80107635,0.9222506,0.094087355,0.54500216,-0.97415656,0.23269977,-0.54755116,0.28454742,0.11875821,-0.6384343,-0.5350924,-0.33526567,0.55496323,0.20666803],[-0.004820176,0.6191642,-0.97298425,-0.6068771,0.7812737,0.036630463,-0.06538732,-0.9558771,0.9276404,-0.50459534,0.6174265,0.2055005,0.898794,0.55859345,0.7875617,0.22811656,-0.021485085,0.15820374,-0.9555877,-0.901015,0.1888255,0.042920157,0.5176446,0.1697534,-0.22945571,-0.7972274,0.14895108,0.600382,0.39002907,-0.9632892,0.24528465,-0.7896113,0.7021958,0.15110105,-0.74254036,-0.7461203,0.60910445,-0.92401844,-0.38877618,0.7185971,0.06087939,-0.17359562,-0.7521494,0.66201663,-0.73426414,-0.5674985,-0.25349408,-0.35483468,0.80244106,-0.9393477,0.50548625,0.3803385,0.80143845,0.89286184,0.41563934,-0.45090187,-0.39973775,0.44914153,-0.44865486,0.25580063,-0.39808932,-0.21820399,0.63573307,-1.0078901,0.22589864,-0.66149706,0.82740176,-0.20766175,0.24930839,0.8115993,0.5514285,-0.85297716,-0.6197366,-0.24337341,-0.43517855,-0.9110642,-0.0962091,-0.20500873,-0.2987872,0.48463562,-0.47906938,-0.4845869,-0.19360086,-0.6084907,0.2027344,0.945969,-0.87053955,-0.6571436,0.5008157,0.83337045,-0.26293775,0.9618544,0.06948863,0.3127975,-0.91287506,0.6810848,-0.911915,-0.28483108,-0.67856663,0.09926023,-0.13301827,-1.0208336,-0.2992044,-0.4327128,-0.98124045,-0.6879987,0.76761615,-0.71669066,-0.7754947,-0.1789221,0.31436723,0.7745072,-0.821572,0.68104315,-0.6060559,-0.79272634,-0.33805862,-0.44114482,-0.07030041,-0.6851111,0.43668148,0.13343845,-0.74149835,-0.7426474,0.16187963,0.9261089,-0.71211576,-0.09164432,-0.69516,0.75583327,-0.47969776,-0.6301749,0.08821369,-0.8805658,-0.82787883,-0.18090737,-0.36073464,0.86094266,0.42237774,0.8105616,-0.98976165,-0.18542266,-0.20122927,-0.14388327,0.3438022,-0.8695917,-0.6627185,0.2472366,-0.33761302,0.90436673,-0.8751672,-0.4408335,0.61445606,-0.05992201,-0.428843,-0.05807065,0.35780552,0.3366595,0.97055644,-0.30710322,-0.6155111,0.55037814,-0.927273,-0.20514652,0.41019887,0.9236674,0.9466926,0.8179131,0.3675776,0.26380026,0.37973577,-0.7953524,0.08519454,-0.21607466,-0.8989998,-0.76810306,-0.1519606,-0.5011992,0.94904685,0.35560444,0.55841243,0.08211079,-0.2507004,0.030195536,0.88043684,-0.21620145,-0.092955105,0.61972016,-0.74187857,0.46004596,0.6253086,-0.4599504,0.11407145],[-0.3131867,0.03150967,-0.44363412,0.58940685,-0.37006128,0.5924598,0.66884995,0.9475591,-0.5729909,0.9787805,-0.8135117,-0.57408196,-0.4539473,0.44207543,0.70000666,-0.3863965,-0.6272038,0.239757,0.35769132,0.04849648,-0.9647258,-0.92959636,0.09075891,-0.2944142,0.66073555,-0.4016958,0.30924177,0.88738436,-0.0050113294,-0.21710756,0.7492641,-0.26511863,-0.8208778,0.0051890872,-0.27325797,-0.11979195,-0.03864716,-0.7989404,-0.2548039,0.011208881,0.68275243,-0.6623388,0.10969405,0.3902114,0.57153505,0.4201653,0.47719014,-0.43257752,-0.066308424,-0.24743727,0.14345035,0.75964224,0.62709194,0.76045126,0.42715666,-0.49557525,0.5947401,-0.2011013,0.43302476,0.92237425,0.8179054,0.32690603,-0.68789816,0.047744185,0.050116792,0.77526987,0.43002328,-0.04784337,-0.2649466,0.059140816,-0.5712649,0.9756577,0.55219334,0.7433689,0.66798276,-0.2576088,0.51625216,-0.72187835,-0.5183062,0.08097581,-0.3916407,0.9861908,0.7505996,0.7739223,0.45612076,0.62663203,0.7549118,0.75348735,-0.7807182,0.28287748,0.09814157,0.579342,0.9379864,0.73550975,-0.86704147,-0.15649435,-0.081849195,0.808356,-0.45108944,0.423981,-0.48830953,-0.84826016,0.0058922246,-0.3970999,-0.48342335,-0.8662869,-0.67571545,-0.9590611,0.32035753,0.9839178,0.91679645,-0.22966613,0.68730366,-0.9250868,-0.73870254,-0.9731178,0.30981043,0.096535586,0.07390024,-0.6714,-0.30001184,-0.48869407,-0.66730237,0.009205089,-0.559053,-0.0831359,-0.12271902,0.9869698,-0.57658887,-0.9279451,-0.92947346,-0.9148965,0.04651118,-0.15197086,0.06163244,-0.36666092,-0.038001876,0.36764643,0.89891833,0.7390762,-0.13871737,0.7654923,-0.18246385,0.9882531,0.5636245,-0.68162894,0.62364763,-0.37162897,-0.43721074,0.4017453,0.83180255,-0.5703548,0.353198,0.76020086,0.1349054,-0.260121,-0.18503298,0.61934876,0.5455795,-0.6696627,-0.6694474,0.8373064,-0.8501688,-0.6434184,0.84366846,0.83324474,0.7918084,-0.8080302,-0.38978618,0.695638,0.31944934,0.20312664,0.82905996,-0.28808537,-0.6341035,-0.5593079,0.19486542,0.57552266,0.93917614,-0.33882937,0.6129889,-0.22223581,0.1320402,0.07201663,0.19507942,-0.7470488,0.2757867,-0.7259747,-0.6940851,0.6238436,-0.44841486,-0.89110744,0.5081611],[-1.0212226,-0.48194477,0.88631094,-0.57355034,-0.47924185,-0.6646574,-0.5964894,0.042937737,0.8247907,-0.16467945,0.5351036,-0.6363344,-1.0778842,0.16935723,-0.6203041,-0.96343756,0.9240457,-0.58992773,0.025240794,0.9126425,-0.3927229,0.751516,0.70870996,-1.0481045,0.46044832,-0.28891912,0.45603657,-0.28976604,-0.339067,-0.21277289,0.4215785,0.16522478,-0.5577486,0.09283743,-0.472209,0.5765899,0.8384034,-0.7891075,0.5235479,0.8508757,0.7969725,0.29719496,-0.12677911,0.778673,-0.9936076,0.6728572,-0.9220669,0.16940641,0.8489365,-0.6319396,-0.7766302,-1.0772853,0.39247936,0.7146405,-1.0992651,0.39768055,0.6328357,-0.10028861,0.6824177,-0.1785934,0.16920568,-0.78634053,-0.56251556,0.392356,-0.45832232,0.10487987,0.5909682,0.27817526,-0.064267844,-0.3716444,-0.8946442,-0.66723233,-0.18070185,-0.7411144,0.4574938,-0.68187964,-0.73274004,0.70660144,-0.03958295,0.39029026,-0.5679637,-0.61951,-0.1587453,-1.0552291,-0.06331995,-0.498557,-0.6077577,0.20579402,-0.120793626,0.75737214,0.09268896,0.54949224,-0.15787663,0.33797586,-0.7333046,-1.0755725,-0.3878254,-0.6364911,-0.20071027,0.8480793,-0.5422182,0.12272813,-0.40176547,0.0366798,0.6110755,0.1608745,-0.9445257,-0.08540144,-0.1771289,0.11500093,0.2648462,-0.50838894,0.23793486,-0.14414315,-0.6243228,-0.095444895,-0.07568662,0.84041077,-0.2267282,0.80296123,0.45422256,0.09392223,-0.84163016,-0.018563667,0.5777726,0.85444033,-0.20655206,-0.29523608,-0.7207814,0.81173265,0.33276924,-0.70435935,-0.56210047,0.23393978,-0.71366936,0.0740014,0.82119954,0.5750314,-0.1820662,-0.1506949,-0.37207013,-1.0641602,0.7452292,0.07240425,-0.670277,0.2634645,0.19548683,0.24407035,0.8144461,-0.14589018,-0.14880267,-0.20445295,0.7123635,-0.039666202,-0.28742936,0.34202993,-0.51210034,-0.97003883,-0.32799742,0.12549837,0.06049168,-0.19302236,-0.9647332,-0.9922745,-0.2761698,0.5585967,0.4589197,0.120990366,0.10302113,0.159478,-0.5202952,0.049879298,-1.0264677,-0.47952932,-0.13102297,0.8111537,-0.15888634,-0.16142277,-0.1019714,0.24337639,-0.29936874,0.7294669,0.6569196,-0.33790186,0.28808627,-0.7341752,0.33995682,0.27421772,-0.800856,-0.27727154,0.4308931,0.4062901,-0.96198684],[-0.64241743,0.59585357,0.071831286,-0.45215264,0.39684403,-0.7667847,0.90077925,0.88170695,-0.08700907,-0.33923873,0.64345264,0.39011243,-0.44787413,-0.3730121,-0.007507268,-0.3281337,0.41920695,0.6058957,0.14336471,-0.79623705,0.33930022,0.15248102,0.71199,-0.1470757,0.7242955,0.21374312,-0.19191884,0.5875489,0.8255249,-0.7160956,-0.55272484,0.7074494,-0.24352103,-0.2593544,-0.009428922,0.7476222,-0.17210492,0.67230433,0.5790812,0.13708861,-0.2228806,-0.7201967,0.85031116,0.14410041,0.6264911,0.9697417,0.9959437,-0.5647507,-0.9198529,-0.82116145,0.028652718,0.7597253,-0.10837776,-0.75134236,-0.17209636,0.42442498,0.8130223,1.0503122,0.98776114,0.16917601,-0.45170736,-0.353808,0.5385234,0.5500771,0.12687382,-0.010790373,0.539294,0.57471615,-0.6488588,0.56090164,0.74324924,0.3960126,-0.70577645,-0.77373546,-0.23066667,-0.29832563,-0.10752817,0.38865528,0.14429165,-0.72846067,-0.53060484,-0.6912789,-0.46647543,-0.27208692,-0.5325957,-0.7267377,-0.1162768,-0.11606621,-0.20109813,0.61300606,-0.24927936,-0.91048604,-0.052966107,-0.23967372,0.9624873,0.69503593,-0.5612215,-0.41542783,0.16999066,-0.3898391,-0.83063453,-0.7168081,0.32948986,0.9245365,0.88812196,0.013308348,-0.44326657,0.99339086,0.064000964,0.8820913,-0.91561866,1.0339748,-0.8325104,-0.32005477,0.2765402,0.78342754,-0.20199063,-0.909789,0.08160215,0.67267525,0.58740985,-0.77544385,-0.60558045,-0.3567175,0.8654946,0.07060791,1.0017613,-0.07117974,0.74820673,-0.6294984,0.878783,0.39885777,0.50201404,0.05739611,0.0052872594,-0.5938932,-0.1806192,0.5023664,0.5207328,0.9020346,-0.7203214,0.5759888,0.89766556,-0.4791039,0.9433083,0.47055575,0.5336706,0.26108015,-0.5884932,-0.8470041,0.116741955,0.7976717,-0.71835923,-0.85649335,0.90620023,0.7255282,1.0323064,1.0018264,-0.23206975,0.26638663,-0.83779186,0.7439233,-0.5314711,0.63399243,-0.9361238,0.945274,-0.045965064,0.8510897,0.6003974,-0.67606354,-0.62724304,0.9046446,0.33317125,-0.92445946,0.6161196,0.26156586,0.418638,0.1329362,0.6156011,-0.7563336,-0.6095906,0.7880079,-0.10022035,-0.45585942,-0.7506726,0.89101636,1.0040311,-0.9157223,-0.611047,-0.65680045,0.6685344,0.76811713,-0.3637262],[0.044807468,0.051603746,0.8575471,-0.8197211,-0.999048,0.4306478,0.06816241,-0.73189473,-0.37933105,0.8011699,0.8078699,0.8008276,0.7207856,0.37233442,-0.5023119,0.07876707,0.06324252,-0.7618156,0.40292314,-0.93090653,-0.6428867,-0.94101506,0.41547322,0.7272579,-0.5741464,0.24120525,-0.7854313,-0.7248939,0.8807851,0.38231155,-0.56959414,0.10039987,-0.8805989,-0.07501066,0.10840598,0.45445806,-0.32628086,0.6793609,-0.2534717,-0.6838225,0.6630839,-0.6874662,0.9072729,0.8181541,-0.8986146,-1.0020028,0.5893073,0.15169421,-0.9205416,-0.9146616,-0.23603727,0.56842685,-1.0305256,0.52579814,-0.717989,-0.34152788,0.016556997,-0.20961224,-0.6393964,0.4218343,0.6375233,-0.31093296,-0.9788389,0.210863,-0.0023528934,-0.057483606,0.91842496,0.67881,-0.47758344,-0.7005786,0.83056927,-0.81762695,0.86651635,0.44078416,-0.28921273,-0.8831563,-0.13011058,0.22201,-0.8685287,-0.64492446,-0.24251625,-0.5947725,0.12841964,-0.47009614,-0.15868925,0.81547225,-0.24849749,-0.40127477,0.59550196,0.77816224,-0.46656466,0.0959762,0.6129165,0.05217837,-0.67783856,-0.22631726,-0.46763727,0.19672097,0.5377987,0.9383067,0.5299405,-0.08366029,-0.7853288,-0.28008154,-0.618046,0.53079194,-1.0030817,0.5898187,-0.35726625,-0.2265834,0.4197968,-0.13504401,-0.7838192,0.55431426,0.58077693,0.60159457,0.19838655,-0.13539553,0.09853659,-0.12819035,0.85562974,-0.19176456,-0.2242749,0.9041584,0.904419,-0.10964736,-0.72348976,0.023439853,-0.70985985,-0.5125336,-0.15500873,0.08258638,0.70897454,-0.22326276,-0.98440975,0.069476835,0.71623695,-0.6326279,0.46145257,0.864457,-0.054424137,-0.32714128,0.24174741,0.77979547,-0.49292627,0.17772447,0.46762484,-0.33504722,0.40250605,0.4294406,-0.106100015,-0.16991155,-0.8814339,0.920892,-0.78602815,0.7187278,-0.9565611,0.13169965,0.76984644,-0.31543565,0.1603833,0.8510276,0.92431474,0.8774032,-0.5316712,-1.0112168,-0.6736533,0.127859,-0.40023872,-0.28773147,0.5807975,-0.23705152,-0.38154125,0.34270012,-0.0000033121698,-0.3102797,0.090359434,-0.650606,-0.18499623,-0.018054688,-0.18713443,-0.43926024,0.9303564,-1.008754,-0.6250031,0.60159075,0.7503703,-0.20286062,-0.8175509,-0.67874104,0.4110713,-0.74716806,-0.07213283],[0.89165807,-0.7737222,-0.5434836,0.1843742,-0.39846182,0.20004973,-0.5199172,0.77001095,0.9966789,-0.55729836,-0.5899546,0.3450429,0.07993646,-0.8848918,-0.54887223,0.7216136,0.53733855,0.04013883,0.5032747,-0.62381667,1.0078572,0.5811922,-0.0030444951,0.67424965,-0.5758754,0.5727287,-0.7543608,0.21428712,0.5455768,-0.7718327,0.10850315,-0.25014207,-0.830836,0.0026719787,0.13872612,0.036336675,0.4389801,-0.7526267,0.17795691,-0.319801,0.3431427,-0.56210476,-0.20782067,-0.74976754,0.095270716,0.6758013,-0.6322303,0.2883096,0.21381684,1.0042646,0.7318421,0.4341522,-0.76116693,0.10348308,-0.16384502,-0.5376599,0.9331938,0.25134405,0.8209071,-0.64721346,0.99279386,0.15926427,-0.86104023,-0.88325834,-0.18569998,0.50582725,0.061128758,-0.70286673,-0.49101093,-0.18864143,0.8103519,-0.641753,0.16695227,0.38443542,-0.81735545,-0.75803286,-0.55983853,0.24049385,0.59259796,0.16516714,0.8698224,-0.9931802,-0.61058044,0.81724894,0.98009753,0.25281644,0.45592812,-0.7597272,-0.14022297,0.23934609,-0.97261626,0.43844828,0.5249124,0.42805198,0.8703897,-0.3835851,0.44197193,0.424749,0.9003789,0.4148437,-0.5749227,0.890959,0.34126487,-0.34890574,0.4876481,0.07374008,-0.6598205,0.36087146,0.61398166,0.041200783,0.3429738,-0.25438097,0.21230912,0.6725374,0.93516475,-0.87155044,0.58502436,-0.74502975,-0.78950495,0.27304426,0.4162703,0.23161067,0.5692745,-0.33435023,0.74789745,0.26355186,-0.90799093,-0.16891074,0.9326203,-0.8147198,0.64933693,-0.7017212,-0.3429746,0.7054131,0.5861217,0.90033096,0.39074448,-0.22277912,-0.61431515,-0.929307,0.108853035,-0.1860672,-0.7126337,0.15659668,-0.9200273,0.6943655,0.31496194,0.11927167,0.66329116,0.4447998,-0.17745717,0.20602746,-0.55594397,-0.88581055,0.37141067,-0.15068185,-0.12730196,-0.17414786,-0.6081475,-0.9125933,-0.96219116,0.60444903,-0.70415384,0.80842733,0.6938632,0.7247235,-0.8116951,-0.90473443,-0.54835737,-0.24110952,-0.51406574,0.27695432,-0.36708337,0.7330201,0.4825955,0.4937835,-0.83711445,-0.17013791,-0.020273684,0.85361105,0.86740565,0.29042104,-0.970036,-0.22404274,0.9762962,-0.30760294,0.52114576,0.010969484,0.65800357,0.89673007,-0.13566886,0.7414197,-0.19456246],[0.43531054,-0.88005453,0.963125,0.6320204,-0.65315336,0.9594876,0.8020269,-0.6099491,0.16800751,0.43345678,0.77014786,-0.34288833,-0.7301071,0.54300857,-0.21957031,-0.44461742,0.72568244,-0.018805357,0.7747236,0.9670019,-0.12919898,-0.53649193,0.26727304,-0.11747679,-0.38536274,-0.4492023,-0.9019991,-0.6823986,0.70007145,0.10809266,1.069271,0.27512816,0.024676349,0.19764823,-0.1096258,0.16455874,-0.2641336,0.4046102,-0.46833265,0.63337123,0.08660475,0.07319109,0.22023731,-0.1363033,-0.041937407,-0.835713,0.6754688,0.46648118,0.40590486,0.28671035,0.18668656,-0.16928169,0.4537413,0.04441802,0.048026424,-0.91941756,0.059780624,0.25201213,0.9156683,0.17473342,-0.32092902,-0.70476764,-0.12121122,-0.4163329,0.75376225,-0.76348746,-0.6383966,0.15265328,0.38862094,-0.5032936,0.7996594,-0.8462917,-0.23456079,0.7106053,-0.7513453,0.28906792,0.66839814,0.41804463,0.76774484,-0.76590425,-0.29459426,0.16369934,0.5825355,0.50884473,-0.6393777,-0.6878453,1.028678,-0.55255586,0.88589853,-0.85230166,1.0014596,0.86128694,-0.74267054,0.015916701,-0.80689687,-0.81875974,0.92816764,-0.7320415,0.14540668,-0.7122033,-0.52202964,0.096135795,-0.78447425,0.50854903,0.9577854,0.3180741,0.9768195,0.10844771,-0.25164637,-0.24279441,-0.6299836,-0.36495766,0.9710679,0.33015507,-0.33302566,0.9147193,0.52334094,0.81763947,-0.7492304,-0.10397383,0.73331445,-0.15428698,0.19362386,-0.77089906,0.72221565,0.8506843,-0.36151707,-0.35271633,0.19853915,0.21780142,0.90489143,-0.6596687,-0.19288518,0.02345829,0.07802314,-0.5477426,-0.90363884,-0.24656776,0.25532535,0.8551221,-0.8637516,0.96295524,0.53820044,0.61342,1.0152276,0.41116467,-0.5061835,0.87586457,0.8398182,0.14127752,0.86110806,0.7763332,-0.28786933,-0.8324876,-0.2829245,-0.6829599,-0.34990224,-0.60499626,0.22754453,0.34218153,-0.22736426,-0.14851245,-0.45105243,0.20614852,-0.8070937,-0.30395246,0.76641876,-0.12620458,0.8543021,0.8972972,0.69768876,-0.4049918,-0.8673863,-0.62285066,0.03949167,-0.33720118,-0.8970402,0.89113164,-0.8160185,0.34106204,0.23279957,-0.4863988,-0.96216375,-0.5508443,0.79313713,-0.184735,-0.5768177,-0.030876178,0.49527484,-0.49465287,-0.15969642,0.6141745,0.20818575],[0.24813905,-0.3844319,0.43265462,-0.40280747,0.21638429,0.53860986,0.044805296,-0.5021532,0.13694121,0.03386031,-0.11011591,0.07826061,-0.88296115,0.0035634465,-0.7920398,-0.91322696,0.38283026,-0.43117303,0.45964333,0.75066894,-0.8631351,0.07043699,-0.9532178,-0.3109366,-0.19659285,0.6212728,-0.53692806,0.34304208,-0.9186114,0.62838304,-0.69689286,-0.45387495,-0.5215467,0.47281045,-0.341273,0.18866982,-0.22358188,0.98148733,0.7734598,0.056540333,-0.13413422,-0.7513245,-0.46839282,-0.9063212,0.5351505,0.58889204,0.39461607,-0.68761295,-0.0070308116,-0.55030555,-0.79801023,0.26321924,0.63315785,-0.15028699,0.37867385,-0.0050309733,-0.08475501,0.006855967,0.8576048,0.06193071,0.26119882,0.25131908,-0.41634196,0.4487498,0.7327843,0.81461376,0.74108285,-0.47381338,0.35958272,-0.63652545,0.37548685,0.5772736,0.68838954,-0.37393644,-0.54996365,-0.611315,-0.102181494,-0.05540851,0.81068504,-0.473123,0.2648638,-0.30287924,0.57042235,-0.6880212,-0.31127194,-0.298699,0.77391535,0.58482456,-0.9930187,-0.7762343,0.93103904,0.45778626,0.55182767,-0.96847034,-0.12537606,0.9325178,-0.7586294,-0.252372,-0.6681431,-0.57665116,-0.3585439,-0.80743957,0.73298275,0.6428765,-0.251699,0.47931233,-0.68193287,-0.07011327,-0.8550923,-0.884245,0.46406135,-0.6935049,0.31125396,-0.33940133,0.10032223,0.12948604,-0.8021352,-0.872275,-0.7859345,-0.20662929,0.215059,-0.24539863,0.96179056,0.08663562,0.6473443,0.34811446,0.13710824,0.16458683,0.9835959,-0.5989135,-0.58165556,0.08986177,-0.21840768,-0.14583819,0.4884271,-0.9037123,0.08642257,0.9758851,-0.86163497,-0.89717406,0.9062653,-0.008524465,0.2719633,0.73768055,0.72438604,0.13001963,-0.6694387,-0.81782466,-0.03524727,0.70254576,-0.8485378,-0.05292675,0.8654656,0.26369992,0.3053174,-0.2058486,-0.8996832,-0.39595798,-0.38056028,-0.5101235,-0.5467235,0.8808071,-0.8100412,-0.23274618,0.7472467,0.5196538,-0.49242797,0.18196161,0.62311625,0.10667215,0.9899877,-0.5139601,0.6388187,0.8362746,0.3080373,-0.5991239,-0.73661745,-0.19715267,-0.27710772,-0.95533466,-0.68825746,-0.4708359,-0.97357464,0.6881645,0.0021731178,-0.021678805,-0.95011777,-0.0481629,-0.9909551,0.7824749,0.05695903,0.43083662,0.6989417],[-0.18706073,0.46627748,-0.5908484,-0.26676494,-0.85427445,-0.14449877,0.3174735,0.60125023,0.8445357,0.20009318,0.5392212,-0.6739346,-0.79575795,0.3643548,0.35625005,-0.6083005,-0.022019122,0.90580684,-0.4103586,-0.2795345,-0.44790992,-0.8296842,0.6096901,0.5087909,-0.18258147,0.12101416,-0.5495022,0.16846405,-0.15792349,-0.9472769,-0.8015987,-0.83887064,-0.53904635,0.39422336,0.79153216,-0.9412075,-0.29559433,-0.57469636,0.56427974,0.45161274,-0.36705896,-0.6870784,0.45940027,-0.11554428,0.83096147,-0.3614473,0.28538918,0.41752353,-0.28833547,0.056322943,-0.66467756,-0.36241254,-0.42591843,-0.41433725,0.2775009,-0.8217895,-0.9597135,-0.52307004,-0.72414863,0.9753474,0.56614596,-0.2208226,-0.72306335,0.46512797,-0.23396154,-0.7544532,-1.0155543,-0.75755876,-0.70162773,0.68453896,-0.22854282,-0.85164136,-0.39995977,-0.4133892,-0.68123275,-0.2985216,0.203379,-0.61036295,-0.22024849,0.3585949,-0.5140203,-0.5381371,0.6411957,0.84109324,-0.85408,-0.80467886,0.54508245,-0.9666818,0.428717,-0.9478459,-0.8265844,-0.18678446,0.01572712,0.49540907,-0.45015886,0.87282413,0.57228446,-0.0014187096,-0.9657152,-0.67254615,0.2003893,-0.91925997,-0.9134549,0.007785332,0.11883938,-0.9943449,-0.9389286,-0.5685741,0.27640352,-0.76189387,-0.5164995,0.29275233,-0.5475431,-0.7622117,0.7303871,-0.04603601,0.52941084,0.11354218,-1.0545082,-0.1584488,-0.25502518,-0.3032783,-0.992285,-0.43581483,-0.052782707,-0.48242116,-0.83457977,0.07229667,-0.20905988,0.27283874,0.61545485,-0.6090122,-0.48402888,-0.32378092,0.243689,0.939354,-0.6314467,0.6865947,0.04084645,0.70182496,0.8052864,0.39672145,0.34121192,-0.22605877,0.8853367,0.2436141,-0.8352103,-0.39978948,0.597704,-0.62336314,-0.11585111,-0.38890046,-0.45355392,-0.21836728,0.66750574,-0.7410395,-0.5517473,-0.2450369,0.21066351,0.9474635,0.42764997,0.9216088,-0.86383605,-0.5692314,-0.65791667,0.29502732,0.36475533,0.5896435,0.30631033,0.08505375,0.20316048,-0.6974735,0.20556602,0.16831654,0.36221945,0.3879485,-0.7267341,-0.28991637,-0.10081685,-0.04719238,0.10184737,0.7099053,0.3850367,-0.41810846,-0.9044808,-0.44276163,-0.27784652,-0.14828114,-0.32684687,0.69182116,-0.9429099,0.28705466,0.32006162],[0.22168425,-0.8536568,0.05709048,0.7111467,0.2649484,0.875416,0.6479452,0.3486523,0.8250329,0.7904041,0.44317603,0.9525745,0.26488447,0.1730106,0.41528216,0.52975863,0.8601532,0.7711874,0.79666156,0.9204565,-0.94944996,0.00832852,0.23427032,-0.618175,1.0006726,0.070835285,0.16627061,-0.7899001,0.40671095,-0.49121404,-0.7205817,0.41003934,-0.10173092,0.1258209,-0.51493394,-0.280536,0.21226755,-0.3451758,-0.43271655,0.7584319,-0.7019319,-0.11954447,-0.96246463,-0.04808362,0.5235414,-0.57036614,-0.30937138,-0.30725712,0.27722582,-0.4075616,-0.23526496,0.00456154,0.7550765,-0.1580479,0.1527906,-0.50029016,-0.10295677,-0.8014156,0.8209634,-0.80160797,0.5125687,0.08058295,-0.8698051,-0.7123364,0.66360295,0.6805774,0.89184207,0.57596177,-0.17944095,0.84735227,0.096084714,0.15624115,-0.9724883,-0.14805302,-0.26773164,0.2699564,0.38728926,0.50145805,-0.28689772,-0.6771094,0.80384743,0.5923866,0.47139934,-0.4910603,-0.9579507,0.09854022,-0.28013846,-0.48605046,0.1892424,0.8395275,-0.41806182,-0.45652443,0.8073816,-0.55868965,0.5058903,0.7967268,0.65894175,0.6828522,-0.9442195,-0.5654664,0.7383598,0.35048842,0.91996413,-0.28286502,0.75480926,0.26794744,-0.8683537,0.06186966,-0.10090444,0.6794865,-0.023704113,-0.49959457,-0.38305393,-0.51111454,0.82174087,-0.6560038,-0.55144316,-0.571961,-0.43815863,-0.97761583,0.75809896,-0.6836503,-0.044096075,-0.7728504,-0.3185981,-0.8009424,0.5706165,-0.31867275,0.43445998,-0.6741986,-0.49373373,-0.35586756,0.94126064,-0.3464938,0.34552243,-0.19049338,-0.6264747,0.68841743,-0.613806,0.18141043,0.47739467,-0.30878347,-0.0058633056,0.84918076,0.6362747,-0.04382823,-0.69654715,0.9700909,-0.059055228,-0.37145534,-0.9667413,0.10222975,-0.9097618,-0.46379164,0.026727105,0.53228503,0.75760657,0.5553791,-0.8595951,-0.05633181,1.0010498,-0.70294553,0.8107065,-0.75434566,-0.95956594,-0.040956482,-0.35278988,0.38461524,-0.8605584,0.7682486,0.30533215,-0.5848329,-0.47510278,0.7022256,-0.28634688,0.64246875,-0.4419904,-0.34335405,-0.99401367,0.98118156,0.66044986,-0.03276814,0.65901345,-0.13226609,0.9529973,-0.084896095,0.054440957,0.38650817,0.44790763,0.04509122,0.7902189,0.078931004,-0.31622052],[0.2940764,0.5522824,-0.33104795,0.67927516,-0.75216115,0.5303718,-1.0435774,0.16023608,0.52721786,0.4084696,-0.24910711,-0.7866069,0.2676943,-0.7403004,0.80665326,-0.8644154,-0.84945995,-0.012349909,-0.8688893,0.5417787,-0.8952136,-0.4449647,-0.4481635,-0.892598,0.6552626,-0.5029527,-0.5659743,0.84614426,0.4330192,0.23787136,0.12737142,-0.51133114,-0.5236961,-0.8152341,0.32957354,0.4573171,-0.030597428,0.003720394,0.23393236,-1.0329479,0.34184608,-0.8726883,0.7398587,0.79309374,0.7361897,-0.34484988,-1.0242361,0.44088027,-0.30299103,0.846177,0.383268,-0.9440924,0.48983532,-0.03511622,0.07484388,0.46690652,0.8141036,0.31653064,0.51643735,-0.9590406,0.6169108,-0.90428007,-0.9070973,-1.0090766,-0.17868845,-0.22171113,0.42950103,-0.29126382,0.6854808,-0.81776047,-1.0391688,-0.91611993,0.1452025,-0.098466,-0.017035736,0.35491687,0.38333216,0.1369037,-0.50970274,-0.21451108,0.25368354,-0.016793847,0.7849712,0.69777006,0.4703417,-0.6621809,-0.91759986,-0.1869653,0.22720854,-0.42734593,0.31962848,0.116880655,-0.5111702,0.95324534,-0.61393017,0.7024288,0.44956416,0.46755177,-0.050163116,-0.88774276,0.9207013,-0.53414005,0.87332416,0.08125953,0.17397992,-0.012290381,-0.9979639,-0.3829047,0.1498436,0.20730242,-0.10916392,-0.68279254,-0.16449806,-0.89014316,-0.5923025,-0.9343387,-0.33176532,-0.41691518,-0.24975297,-0.8927295,-0.6901585,-0.9176671,0.5102334,-0.6746439,0.3339188,0.43584043,-0.8208003,0.2575567,0.46510416,-0.2534461,0.35244614,0.13261172,-0.61921936,0.81191194,-0.53377396,0.5685819,-0.29811907,0.5124186,-0.49832875,0.07471214,0.11690984,-0.11307954,-0.91941226,-0.2108762,0.19498542,0.11164949,-0.775146,0.6832063,0.67378616,-0.61324793,-0.5071656,0.6138072,-0.710447,-0.650144,0.0081734685,-1.0318704,0.22872722,-0.49085748,0.3513934,0.52669996,0.21732172,-0.38923502,-0.64850307,0.90495634,-1.0102297,-0.07189644,0.553875,0.7722867,-0.3765035,0.17699547,-0.010100413,0.15674624,-0.72312194,-0.8658243,-0.8681612,-0.18835327,0.63604003,-0.5576238,0.7318114,-0.6740664,0.51303256,-0.8546458,0.0026763766,-0.1392689,0.09729538,0.5256122,-0.7336699,-0.88229823,-0.11238249,0.67681587,-0.10652553,0.7343733,-0.3515173],[0.6758734,1.0413105,0.5620445,-0.5845803,-0.9175032,-0.73144495,0.2698292,0.9789257,-0.48890224,0.17771481,-0.6494817,0.27822092,-0.32027632,0.04531408,-0.016237052,0.1786199,0.4562611,0.95002913,0.18229643,-0.018245734,0.6467497,-0.42168507,-0.04258136,1.0272149,0.6371154,-0.6899216,-0.52103305,0.27889,-0.90059876,0.41286975,-0.9043749,0.931314,0.75344276,-0.021957226,0.6655344,0.36548656,0.3948781,0.19515748,0.71928185,-0.36848477,0.1870631,-0.35829085,0.5902491,-0.92203784,0.2015722,0.60811245,0.24279583,-0.61632425,-0.5297026,0.7198769,-0.49099928,-0.28138733,-0.35912678,0.59237105,0.2966708,-0.38511676,-0.8040695,0.38046136,-0.79173154,0.0009624591,-0.7663237,-0.3325888,-0.9738552,0.93136996,0.67953926,0.84185594,-0.6434518,0.010588819,-0.6369778,0.7318001,-0.013491722,-0.12980677,0.14947751,-0.91889155,0.92583907,0.59959525,-0.45817003,0.8737566,-0.30524465,0.38858408,-0.8152168,0.48430493,0.71966285,-0.4342244,-0.15972161,-1.005868,0.6143343,0.44187653,-0.9060979,0.55267674,0.18218286,0.2776845,-0.23857686,0.89480305,0.07173108,-0.79072946,-0.2103099,-0.19477087,-0.21443465,-0.057711672,0.059126575,0.19054455,0.16222642,0.15360054,-0.6290886,-0.3279948,0.7695299,0.07936443,0.957993,0.20033236,0.7510143,-0.75142765,-0.57232463,0.029659659,-0.057393156,-0.3362419,-0.11256446,-0.18831468,0.4628207,0.98331076,-0.3774689,-0.9720878,-0.919369,-0.07375816,-0.43971968,0.29114082,-0.6100401,0.4941688,0.3480272,0.8260168,0.6506544,-0.43738315,0.5014628,0.07544229,0.7291888,0.8523556,0.9689913,0.12727791,-0.13349299,-0.6035989,-0.21355672,0.8740221,0.18674226,-0.09411339,0.351487,-0.5925963,0.41433364,0.81039125,0.44318485,0.7803394,-0.1545717,-0.87545484,-0.0062349522,0.67539054,-0.7313546,-0.1493825,0.87683207,0.07749448,-0.31356576,0.58057743,-0.4719902,-0.18716344,-0.39395893,-0.7665439,0.0948785,1.0355331,0.050789133,0.121328376,0.024710013,-0.6635371,0.83280146,0.9734332,-0.046836413,0.49257058,-0.58982694,0.90770674,-0.35638103,-0.59356695,0.79114777,-0.9538807,0.5681625,0.63188446,0.7644436,0.92956656,0.26717052,0.32151264,0.3577724,0.4240757,-0.80832,-0.51030946,-0.62555194,-0.8161779,-0.7036135],[-0.24151346,0.7579631,0.6793527,-0.6387665,0.7950874,0.24478433,0.8572883,-0.1275844,0.38837317,-0.29363123,-0.6596091,0.12329311,-0.567038,0.5938326,-0.27158907,-0.5618523,-0.89042026,0.081790514,0.7739072,-0.73851484,0.88297033,0.14061713,0.9454732,-0.65426946,1.0301818,0.870434,0.18912065,0.58531696,0.32884568,-0.86332,-0.46415088,0.02384107,0.82819116,0.8738316,0.8038565,0.38199306,0.37500066,-0.3852318,0.76419383,-0.09836495,-0.7989876,-0.2225646,-0.7986617,-0.00059328275,0.007224762,0.82854474,0.49285877,0.4025765,-0.62576395,0.7567419,-0.29190752,0.124582335,0.14758101,-0.2056631,0.97046024,0.7216201,0.6567861,-0.602676,0.78990734,-0.71171176,0.8757627,-0.46377152,-0.6140639,-0.34522063,0.052548636,0.23979428,0.39170346,-0.7613817,0.18994659,0.059185304,-0.29398233,0.6821584,-0.4738112,-0.19335616,0.50443745,-0.53528476,-0.77669746,-0.8826335,0.15212724,0.11718868,-0.50179225,-0.6216627,0.43399295,0.885316,0.7325684,-0.8084064,0.45930356,-0.76291126,0.10601268,0.0072214957,0.31043905,0.99222046,-0.6819588,-0.8746851,-0.13201916,0.3801213,0.807164,0.6835644,-0.07124932,0.29256916,-0.23974293,0.27303135,0.14996248,-0.7699743,0.60778236,-0.23111463,-0.90972835,0.56447446,0.3160749,-0.73584,-0.97705054,0.89689875,-0.23025835,-0.4895042,0.07175379,-0.9432866,0.053931776,0.23228814,-0.8711501,-0.49778166,-0.09747586,-0.42993525,-0.31286055,-0.9215333,0.76239926,-0.31464943,0.43302104,-0.15850018,0.82717,0.13080288,0.77950764,-0.24639112,0.20613222,-0.3907904,0.5193411,0.017415643,0.69252944,-0.06313223,0.10986295,0.18861683,0.9320324,1.009105,-0.049641866,0.4228076,-0.19696106,0.3859081,0.6297137,-0.16024676,0.1097947,0.17398728,-0.35620606,-0.15366,0.5682118,-0.6712708,-0.3530593,-0.19672616,0.9358082,0.30180234,-0.60759807,0.20754834,0.5155462,-0.8122439,-0.38014144,-0.08046212,-0.25441465,-0.24488464,-0.20053841,-0.42234284,0.45802546,0.8856315,0.8715555,-0.5061915,0.09792778,0.8636686,0.4861975,0.7181689,-0.91057825,0.41104314,0.4892827,-0.7320495,0.61752546,0.04128579,0.47866368,0.81660014,0.90956134,-0.90921664,0.6147319,-0.11969354,0.5435841,-0.5427119,-0.20063618,0.51315993,-0.94860744],[-0.00021100642,0.44776782,-0.12586184,-0.23426466,-0.99548274,-0.24210055,-0.64711094,-0.44599977,0.8363136,0.4135885,-0.9469873,-0.09750522,-0.662035,0.5400673,-0.26677793,-0.44425368,0.39090827,0.381092,-0.42446166,0.46055886,0.9866282,-0.10461704,0.2948318,0.07120958,-0.23223685,-0.06449981,-0.53310746,-0.74504334,0.15270248,-0.83241695,-0.85842335,0.8929355,-0.9361819,0.41042283,-0.45406127,0.0659993,-0.19969478,0.6251127,0.68640727,0.71963215,-0.0719735,0.025118968,-0.8356241,-0.8788424,-0.5143778,-0.13610539,0.14232913,-0.0206566,0.75514126,0.6965395,0.50380504,0.5948508,-0.26884922,0.14244562,-0.14326842,0.2685926,-0.5198448,0.7376019,-0.6111167,-0.7386521,-0.099383496,-0.76926094,-0.7200894,-0.22719362,0.73001325,-0.95057887,-0.63553894,-0.44715595,-0.24065317,-0.96665615,0.98013335,-0.17985022,-0.17494261,-0.550258,0.99657494,0.8230196,0.30530876,-0.37170503,-0.72445995,0.69877243,0.03886352,0.1934219,0.17925131,0.3105062,-0.0024462312,-0.3284316,-0.7275777,0.7420546,-0.8353253,-0.37953454,0.47528994,-0.32548806,0.05189791,0.45753896,0.122363746,-0.43405277,-0.77613413,0.77767324,0.9720234,-0.9983858,-0.699959,-0.8511027,-0.36590633,-0.2727839,-0.4609285,0.16268604,-0.85220516,0.7140185,0.58121604,-0.15443656,-0.8248789,0.49660322,0.6563018,-0.3971825,0.5723344,-0.64235437,0.6738172,0.019879445,-0.057721812,-0.5023473,0.1756685,-0.20244749,-0.750893,0.39109248,0.7682584,-0.708753,0.8775998,0.19601904,-0.3598871,0.19830126,-0.19857487,0.19106175,-0.47942176,0.941889,-0.98599154,0.98531455,-0.22590289,0.94398916,-0.5839734,0.15260275,-0.542271,0.21488251,-0.71767765,0.59666514,0.9486938,0.18640494,0.988116,0.2845721,0.24257435,0.47556385,0.773356,-0.93960947,-0.81076247,-0.5189165,0.6277993,-0.9159885,-0.34515938,0.5611147,-0.20349896,-0.53224343,0.62811077,0.14396271,-0.5973067,-0.19293454,-0.6018783,-0.47291443,0.24304314,0.695056,0.7127172,-0.47332156,-0.9235552,-0.026074218,-0.021112995,-0.970199,0.6819451,-0.08404106,0.97219425,0.60242724,0.70827836,0.96441656,-0.8474235,-0.8426088,-0.8839901,-0.33308643,-0.97030896,0.19634861,-0.7719068,-0.85719347,0.37866282,0.9982192,0.06507002,-0.65799123,0.2866241],[-0.710374,0.44990516,-0.94890857,-0.34179804,0.8483073,0.23423505,-0.12196086,-0.19474511,-0.54302555,-0.047979414,-0.45652106,0.39415425,-0.65716714,0.14353967,0.17618753,-0.81120795,0.096079096,-0.27786595,-0.53231853,0.023070144,0.6567019,0.9028536,-0.7937825,-0.7945448,-0.38562235,0.69237965,-0.11538047,-0.23580582,0.7555573,-0.4002451,-0.7958615,-0.6572028,-0.2994247,0.32283938,0.31294826,0.922478,-0.6776679,0.87671983,0.9329491,-0.3387464,0.20262593,-0.6876302,0.38627887,0.7889117,0.5961084,0.15150928,-0.5485131,0.2964569,-0.31749243,0.521756,-0.080452256,-0.67576784,-0.9275199,-1.0375258,-0.51609534,0.11348716,-0.13019848,0.7978632,0.8583334,0.08544868,-0.5390389,0.12161352,-0.003226627,-0.24504532,0.20228505,0.22045828,-0.6506183,-0.095982715,-0.717908,0.0727859,0.20250612,-0.84158844,-0.4944345,0.93883896,0.8428693,0.12159691,-0.5266482,-0.807137,-0.1615207,0.676969,0.61481375,0.6736835,-0.9314472,0.818423,0.7233629,0.64348006,-0.9298657,0.21125966,0.26116645,-0.39686263,0.83107233,-0.71607685,-0.88556147,0.2374522,0.5872861,-0.33031344,0.068495385,0.7912635,0.454486,0.35442203,0.33955577,0.7132091,0.0741942,-0.3783487,-0.5245591,-0.8190713,-0.18934876,-0.7120347,0.27854174,-0.4402968,-0.17119001,0.6024743,0.17931281,-0.74384755,-0.6760362,0.13981783,0.18549569,-0.23494726,-0.69802296,0.14916629,-0.34144014,-0.2011998,0.9071347,0.26284343,0.24531935,0.8786954,-0.2596454,-0.6214081,0.7952566,0.4890344,0.85164034,0.1538802,0.27480927,-0.20136094,-0.42570236,-0.44525322,-0.9345289,-0.08721898,0.029432083,0.9196241,-0.32730705,-0.6746051,-0.66200876,-0.5453237,0.27792612,-0.33908483,0.8068303,-0.1816404,0.860901,0.86369675,-0.023751585,-0.8269649,-0.92904884,-0.14472356,-0.5962872,-0.55998164,-0.595809,0.2213096,0.83952457,0.21218987,-0.7963218,-0.44477475,-0.7786312,0.12044363,-0.11971271,0.055493724,0.5762178,0.6049739,0.124083124,-0.83376837,0.45737514,-0.6519922,0.34276995,-0.7546278,-0.08200003,-0.7476059,-0.41533574,0.26571974,-0.20388618,-0.2145653,-0.9975588,0.47344106,-0.492977,-0.7996404,0.7716816,0.1968233,0.61287737,0.75044197,-0.2576358,0.6138903,0.031839415,-0.33489484,-0.7398867],[0.47145918,0.78684026,-0.11020623,-0.5218577,0.8165273,0.9596492,0.5111464,0.6475411,-0.877023,-0.106437735,-0.7475284,-0.28148636,0.87153023,0.19891874,-0.7528416,0.88547766,0.7904979,0.9167701,0.8183249,-0.8397192,-0.20123814,0.5863861,-0.49065858,0.962767,0.20599101,0.87892896,0.15195891,-0.2451047,0.9081702,-0.94002485,0.26346943,0.58859724,-0.33621114,0.5689695,-0.3299954,-0.43326667,0.8272244,-0.07088869,0.15243775,0.3246783,-0.23983814,-0.41254514,-0.8600783,-0.72165954,0.552564,0.6707098,-0.65907454,-0.87335795,-0.9000576,0.19970344,-0.27324814,0.7163029,-0.14182864,-0.45703334,0.4863192,-0.10689342,0.8935102,-0.37324306,0.6372691,-0.60988325,-0.4695139,0.94093204,0.6928272,0.20603438,0.7730503,-0.8074096,-0.97911793,-0.5950878,-0.8201754,-0.05362245,0.44638214,-0.6225935,0.7667362,-0.99138373,-0.5757227,0.36196297,0.41943136,0.64163613,-0.22236034,0.73721874,0.5041075,0.5463869,-0.4604392,0.095367774,0.35133672,0.76981294,-0.83586085,0.948668,-0.67857784,-0.41201752,-0.00425791,0.2525165,-0.060969044,0.0034353205,0.5918388,-0.17139052,-0.6612793,-0.31222576,-0.5924326,0.9227883,-0.59440404,0.6355984,0.7501325,0.51538146,0.9577251,-0.1503617,0.35394514,-0.9917277,0.865337,0.05138688,0.16289954,0.47846133,-0.96151376,0.87460995,-0.03566179,0.1501116,0.6296878,0.66619265,0.7592978,0.15652516,-0.6074496,0.82848334,-0.5800432,-0.6162793,0.8503975,-0.6132121,-0.7545805,0.62488884,-0.20257275,0.33974168,-0.08026843,-0.3728037,-0.24942656,-0.16537578,0.28977323,0.027312232,-0.0068697277,-0.95849663,0.83107203,0.25200707,-0.7292012,-0.014820598,-0.7875935,-0.65484065,0.8062741,-0.80143934,0.61041707,0.33944795,0.07793449,-0.9719496,0.76006,0.123371884,-0.2908719,-0.058270007,-0.9725114,-0.18497688,0.7637372,-0.057850573,-0.6722528,0.3684115,0.94885796,-0.1041563,0.22478648,-0.38184258,0.47665587,0.08363451,0.7457944,0.7276105,-0.8107708,0.9283795,-0.52834564,-0.2965164,-0.5461798,-0.013051965,-0.035878833,0.9529408,0.70251477,0.05130418,0.87984604,-0.4225365,0.5748194,0.060078595,0.16401953,0.46155983,-0.3378168,0.72885734,-0.36567634,-0.05019258,-0.5242081,0.117997944,-0.8536668,-0.95949537,0.58530855],[-0.88218653,0.057923373,-0.67633504,0.73913205,1.0170245,-0.40185222,-0.15044224,-0.7146495,-0.18936606,-0.5150402,0.30758578,0.1552391,0.04702371,0.09054663,0.65657556,-0.007264512,0.08989795,0.29247683,-0.93589675,0.05813643,0.02262394,-0.7517628,-0.8954052,-0.66661733,-0.08474801,0.4240615,0.008433046,0.6053033,0.6476919,0.34320536,-0.38825288,0.5175829,0.19671363,0.8121776,0.54905766,-0.90312696,0.7898045,0.004175108,0.99923223,-0.3785462,0.34184408,-0.13200794,-0.41996545,-0.077998884,-0.6868344,0.5395286,-0.022336777,-0.7474081,0.47704878,0.9775286,-0.059506126,0.7555793,0.8086476,-0.45877418,0.24736238,-0.20296064,0.28518888,0.12750867,-0.2842112,-0.22822359,0.2039158,-0.09059707,0.6252403,0.8563098,0.5693573,-0.39960736,0.555203,0.41632712,0.61056775,0.043552462,-0.2996675,0.1439579,0.44167697,-0.93003273,-0.38003016,0.20866089,1.0002329,-0.77850646,0.6894088,0.68261546,0.04659513,0.14794709,0.10885145,-0.28720707,-0.8970548,-0.25915447,0.6596333,0.7983583,0.022428732,-0.17181206,0.31144917,0.9849621,0.020568248,-0.8910802,0.60015273,0.45574653,-0.4557623,-0.35096052,-0.04333993,0.8433574,0.12413075,-0.9012172,-0.46726495,0.63946307,0.049443323,-0.23742558,-0.3595845,0.71037424,0.13125512,0.4048373,0.99575,0.23052217,0.27290073,0.58022547,0.1064232,0.931799,0.39999577,0.35566142,0.24241145,-0.50157475,-0.65505034,-0.4456543,0.30819148,-0.27206516,-0.28477046,0.3310811,-0.89214313,0.8294633,0.31952816,-0.4965399,0.7738874,0.98235744,-0.3432871,0.59667265,-0.06650494,0.8038506,-0.4958618,-0.6172085,0.30237922,0.31291655,-0.82843155,0.41747156,0.11233214,-0.20869817,-0.034416538,0.9885052,-0.6895659,0.13355789,-0.55887556,-0.7740164,-0.36580387,-0.2331598,-0.45953125,-0.14996114,0.487388,-0.08205286,-0.1039792,-0.5252496,-0.7259338,-0.655209,-0.0038175283,0.5271945,-0.64715993,0.1123682,-0.4865413,0.8096462,-0.0027499518,0.78514034,0.11100347,-0.91227746,0.9347661,0.3054128,-0.55095315,-0.9183868,-0.8110014,0.0030822842,0.038290437,-0.09992358,0.9396607,-0.6473232,-0.13451844,0.79070944,-0.6655329,0.33143622,0.4860876,-0.30475125,0.23967426,0.81872773,0.8889449,-0.9098873,0.7294544,0.6901643,0.5173164],[-0.20941682,-0.5346096,-0.7101117,-0.43052217,-0.95396423,-0.68525946,0.29710525,-0.97840333,-0.11415451,-0.376215,-0.22923382,-0.79238486,0.1703577,0.7298862,-0.9228463,-0.9424791,0.5092156,-0.19456686,-0.46916962,0.6100448,-0.4868669,0.8454283,0.32221648,0.4648249,0.40154192,0.8465212,-0.14311852,-0.87243474,0.7086789,0.27893618,-0.86536914,0.9821214,0.6693881,0.6098834,-0.92936534,0.5069309,-0.101246014,-0.30345607,-0.2885804,0.46013057,0.051444534,0.77287847,-0.90680313,0.9676347,-0.14517857,-0.51795805,-0.858291,0.050165012,-0.053861227,0.08498199,0.40108022,-0.50025856,-0.5002516,0.060768697,0.17955968,-0.5236164,-0.8812307,-0.77293366,0.2877113,-0.84050936,-0.9593452,-0.891886,0.42023262,-0.81993055,0.2708428,-0.22684753,0.018085694,0.92064345,-0.43063495,-0.5524621,-0.27407664,0.27295986,0.09828468,-0.21553646,0.1534521,0.9311731,0.14370526,0.17283571,0.4307727,-1.005031,-0.85936916,0.35642686,0.31154487,-0.0809403,-0.5099396,0.294008,0.95768756,-0.14473279,0.20297942,-0.29331362,-0.01935527,-0.14487915,0.604213,0.05187287,0.6433902,0.9122897,0.9376311,0.4434607,0.86444694,-0.13661833,-0.6021924,-0.40154582,0.013828506,-0.9606862,-0.43436283,-0.2761309,-0.20820524,0.55831355,0.3475205,0.6391779,-0.49412134,-0.6665388,0.55720687,-0.7821718,0.4561082,0.026985087,0.6059759,0.3135658,0.83829963,0.1444037,-0.57478034,0.39065135,-0.27148098,0.5057491,0.22446533,-0.57395965,-0.53017366,0.824072,-0.46071398,0.757439,-0.9135665,-0.33933687,-0.60821754,-0.4931389,0.64142776,-0.15837252,-0.12840989,0.73895454,0.25638896,-0.1712351,-0.43410584,-0.5558737,-0.13436592,-0.8716443,-0.208414,-0.66981995,-0.5371851,0.7291797,-0.15751825,-0.32838798,0.393375,-0.0017689996,0.35032701,0.6552906,0.942341,-0.91815627,-0.96072453,-0.014928436,-0.89925677,0.46672958,0.74406844,-0.5114959,0.76344293,0.27515975,0.28436568,0.5612266,0.8979692,0.80807483,0.97579604,-0.9436647,-0.7121791,-0.6097814,0.48149624,0.2275236,-0.10132594,-0.60299456,-0.39192992,0.039673254,-0.43986663,0.41690215,0.17675896,0.563285,0.26444793,-0.62143433,-0.2224959,0.35170013,-0.44025788,0.6404909,0.5196898,-0.50094056,0.58065563,0.022428337,0.7290811],[0.28677315,-0.49119416,0.0840989,-0.16395715,0.42671987,-0.34210646,0.707405,-0.1840578,0.8843877,-0.3910181,0.4369047,-0.9839813,0.6724632,-0.682549,0.7556062,-0.07825032,0.53120536,0.27777395,-0.8930045,0.9111616,-0.34196642,0.11272745,0.9229831,0.14592418,-0.52530813,-0.3687967,-0.8526894,0.6733909,0.38346803,-0.32783535,0.46442902,-0.28556058,0.730502,0.7016985,0.35609874,0.34046528,-0.899356,-0.8757281,0.7366658,-0.83742553,-0.8490757,0.8735423,-0.42230222,-0.46718484,-0.98803747,-0.82821697,0.408649,-0.020793179,-0.62214446,0.71229553,-0.83923155,0.4119589,-0.61837214,-0.54364336,-0.28630987,0.28922847,-0.600701,0.19588624,-0.3613316,-0.7401684,0.57662284,-0.34961796,0.039392438,0.41259256,-0.012881144,0.7855131,-0.582324,0.020146778,-0.30435365,-0.55032074,0.4341719,0.97392964,-0.7551999,-0.38554528,-0.4172577,-0.72992724,-0.14421469,0.41957396,-0.3373878,-0.98446554,-0.97090924,-0.27661535,0.0626342,-0.25378326,0.59733003,0.010305481,0.121895745,0.3753863,-0.69168425,-0.86296153,-0.6401016,0.01146392,0.027559752,0.33014846,-0.14697546,0.97286725,0.43879405,-0.47653154,0.06885385,0.7885476,-0.6809676,0.57280487,-0.3971981,-0.49058473,0.014598586,-0.40565205,-0.014744989,0.04927965,-0.32310653,0.01632793,0.14039138,-0.9688133,0.35330686,0.20958394,0.9439016,-0.8462015,0.5597841,-0.15556741,-0.76181513,-0.92661107,0.32128662,-0.5773644,-0.011713451,-0.5305523,0.55173403,0.927177,0.93672454,0.2335475,0.07907395,0.71459275,-0.45258328,-0.8133399,0.87894654,0.5679487,-0.6532282,0.73893505,0.4935457,-0.13402715,0.45427975,0.76478314,-0.4072352,0.7867805,-0.21466106,0.30356374,-0.3748437,-0.7138788,-0.16352849,0.3042404,-0.06499645,-0.1366495,0.17644069,0.5775525,-0.15790407,-0.7275876,0.35739034,-0.5629382,-0.010073894,0.6709778,-0.4182739,0.06036569,-0.09053454,-0.62344754,-0.34589309,0.040292855,0.60186034,-0.19459301,0.8805935,-0.915788,0.6104378,-0.61188346,0.37375402,-0.9690635,-0.67278796,-0.07312456,0.594075,-0.39555794,0.05260424,0.22903751,-0.31115526,0.3941704,-0.91581416,0.5711312,-0.15529639,0.8734374,0.23948266,-0.83064705,-0.99818784,-0.3210857,-0.9050272,-0.517053,-0.9154011,0.8268714,-0.2313004],[-0.5928715,0.12791334,0.28699678,0.2581201,-0.9179748,-0.8921592,0.32207423,-0.98912305,0.66682684,-0.7491353,-0.023886966,0.37725493,0.03566762,-0.4400528,-0.025328008,-0.36575735,0.48017758,-0.9009154,0.0033464953,0.37028635,0.29868165,0.059498265,0.18808278,0.060552403,-0.46325606,0.05911333,0.4879937,-0.2351096,-0.15134124,0.3744909,-0.120919526,-0.21278475,0.44292566,0.46737066,-0.34530774,-0.5554107,-0.7610214,-0.9793741,-0.5168658,-0.2550724,-1.0459821,-0.66493994,0.02198237,0.6514335,-0.43101108,0.2912717,0.5572386,-1.0100652,-0.9639198,-0.28549537,-0.12416825,-0.043701462,0.07899469,-0.5745471,-0.11390127,-0.8292449,-0.287192,-0.88243794,0.09271773,0.886769,0.5212414,-0.38415638,-0.9597478,-0.7327694,-0.42655843,0.41711676,-0.33715546,-0.0784208,0.88813615,0.17243105,0.115731955,0.28620878,-0.40647712,-0.09377703,-1.065367,-0.4375937,0.5638384,-0.64493895,0.42872474,-0.7116898,0.67760694,-0.83437085,0.32495233,-0.60213345,0.46482497,-0.5273038,0.1610154,-0.56709933,-0.7609778,-0.40376574,-0.56454766,-0.86944157,0.56377995,-0.2509331,0.68799514,-0.51981634,0.91813326,-0.6850977,0.44045663,-0.10462487,0.41956207,0.09857975,-0.1731597,0.5932132,0.22756667,-0.74559206,-0.15585808,0.31165388,0.79219806,-0.3035563,0.7031886,0.6217393,0.2219259,0.8831535,0.87270325,0.11431146,-0.79218155,-0.19534056,-0.45510265,-0.20440078,-0.967023,0.7134977,-0.58159727,-0.873045,-0.94063425,0.71303755,-0.6411578,0.56938887,-0.64657706,-0.5352956,-0.04101904,0.29500857,0.16899154,0.73976266,-0.85840356,0.0007613734,0.5986954,-0.612085,-0.85908353,-0.19251885,-0.98918676,-0.6927578,-0.41183755,0.972974,0.32323176,-0.5460436,0.8201082,0.772159,-0.014124866,-0.2395472,-0.77378845,0.633649,-0.103979856,0.14262259,-0.7762063,-0.5130872,-0.19818856,0.5382244,0.30215028,0.33553353,-0.16682504,-0.6479823,-0.44038758,-0.49823624,-0.8898501,-0.8282694,-1.0152893,-0.22085334,-0.75987387,0.72452086,-0.5152595,0.62980276,0.45267883,-0.36983776,-0.169164,0.32009798,-0.631037,-0.5809309,0.39573717,-0.4016133,0.6488234,-0.5020972,0.68201816,-0.48971298,0.6872756,-0.81693876,-0.59998184,0.5397447,0.53961015,-0.41763377,0.83360714,-0.7446499,0.9012558],[-0.12095796,-0.021728896,0.44423857,-0.60446227,0.7468363,-0.35930315,-0.32478437,-0.16269091,0.6299189,0.78428924,-0.60712045,-0.6342453,0.29473558,0.8980991,0.99767214,0.37088388,0.9424171,-0.03170735,0.62540823,-0.049586397,0.9227773,0.36318144,0.5259219,-0.9195176,-0.41479927,-0.4116017,-0.9991742,-0.099055335,0.4562493,0.7144645,0.5550582,0.08415759,0.502297,0.16426985,0.14444079,0.95760596,0.53113186,0.90860116,-0.1002597,0.28023568,0.030646665,0.6117915,0.7779735,0.108372875,0.6007508,0.89860433,0.48050416,0.14098528,-0.59969145,-0.6518373,-0.59430766,-0.7690295,-0.6770518,0.091473185,0.4360971,-0.86333585,0.82752603,-0.35262573,0.28596774,-0.9568969,0.33423898,0.13393243,0.8855385,-0.564257,0.019742977,-0.32157087,0.62380636,-0.15082219,0.26330858,-0.7111971,-0.99369365,0.4142669,0.6465436,-0.29399484,-0.7881593,0.274353,0.33221233,0.67230237,-0.018765783,0.22784738,0.3128697,0.40375593,0.5592445,-0.34741846,-0.7050399,0.023600921,-0.809089,0.8182155,0.9976708,0.09795856,-0.34409404,-0.56604195,-0.5656729,0.69680387,0.11948796,0.35737076,0.82483417,0.3568873,0.7182441,0.6748893,-0.44450137,-0.23857011,-0.5292167,0.9480968,-0.58684826,-0.09064591,-0.43942842,-0.19148591,0.4782034,0.5221395,-0.4041933,0.32809693,0.9425197,-0.7425284,0.23194316,0.96730727,0.9606466,-0.41296804,-0.11057652,0.21345198,-0.5784333,0.51887447,-0.8710968,-0.26346672,-0.85373,0.2209802,0.070119105,-0.97185785,0.5661692,-0.36746967,0.843001,0.25723255,0.516737,-0.28834176,0.4952589,0.077840336,0.53648466,-0.6099083,-0.8061292,0.86753213,0.2752201,0.38999772,0.40039846,0.5194042,-0.33795518,0.60169464,-0.41925046,-0.12817915,-0.89100415,0.69488084,-0.5717103,0.50880414,-0.83277,-0.20732322,-0.7515814,0.67977643,0.5508705,-0.10831648,-0.1652541,-0.22827388,0.42870453,-0.07728104,-0.8094926,-0.56452775,-0.44049537,-0.15457988,-0.3872373,-0.07335343,0.9988951,0.5812471,0.881454,-0.18902192,-0.5569855,0.046904135,-0.33698833,-0.75809824,0.48017216,-0.44690704,0.10004192,-0.58822125,0.5262936,0.21816988,-0.6304844,0.11979324,-0.3094208,-0.3196809,0.8473272,0.69018865,0.38436097,0.07272274,-0.39179602,-0.99803114,0.3565486],[-0.31738317,0.35933757,-0.37796277,0.82303536,-0.72694165,0.3109462,0.7486171,-0.4468036,0.8069288,-0.6721839,0.85874695,0.91061336,0.3148135,0.40966544,-0.852585,0.7872727,0.5156422,-0.7218771,-0.054200646,0.16251478,-0.56116587,0.7894672,-0.82943964,0.40572834,-0.42434156,0.05556897,0.9004804,-0.85392016,0.85785955,-0.3971566,0.98234284,0.02329143,-0.06274051,-0.63030607,-0.18428127,0.14729977,0.59549946,-0.294163,-0.8691797,-0.81205755,0.47435376,-0.25655773,1.0927758,0.21933647,0.7718817,0.7005791,-0.47887436,0.911845,-0.6680401,0.9802957,-0.025917724,0.65128314,0.2079184,0.19349031,-0.68041223,0.24359396,-0.18240619,-0.32806784,0.4565207,0.78919405,0.50514543,0.13590622,0.044469424,0.5868231,0.88306075,1.0271581,-0.31997204,-0.13998486,-0.4850431,0.85702395,-0.4638525,0.6118258,0.40493977,0.10423272,-0.5939515,0.94494206,-0.9729729,0.15652423,1.0431672,-0.40888166,-0.43420893,-0.8220964,-0.32854918,-0.7793935,-0.5265178,0.028475923,-0.8442784,0.1675199,-0.5943163,0.2337627,-0.38390532,0.10092668,0.39208162,-0.4496025,0.06397884,-0.7903992,0.24827433,-0.68658584,0.63509697,-0.04772367,0.5792966,-0.66493297,0.0027842023,-0.4361735,0.89935786,0.5764283,-0.3138869,-0.5289171,0.91323423,0.12609592,0.5247153,0.9015273,-0.47440514,-0.7253007,-0.92038167,-0.022297258,0.16730753,-0.5616013,-0.20130715,-0.0023142279,0.41651097,0.52635056,0.50045294,-0.53259915,-0.40487733,0.14180273,-0.9570017,-0.09908832,-0.59176266,-0.4100368,0.4623837,-0.8447679,-0.23868518,0.25058532,-0.61295986,-0.1962216,0.6461415,0.95531493,0.5075631,0.56373787,0.09251194,-0.8329089,-0.08141628,0.15981506,0.6095088,-0.45942348,0.8540847,-0.02850453,-0.69798845,0.19322683,-0.8436464,0.7142084,