{"layer_count":6,"input_len":64,"hidden_len":96,"output_len":3,"x":[[1.0,0.91764706,0.7529412,0.52156866,0.43137255,0.4,0.38039216,0.4745098,0.9529412,0.89411765,0.6862745,0.48235294,0.40784314,0.4,0.3882353,0.41960785,0.8980392,0.827451,0.63529414,0.42745098,0.42352942,0.41568628,0.38431373,0.38039216,0.83137256,0.7529412,0.50980395,0.36862746,0.34509805,0.38039216,0.36078432,0.32156864,0.6862745,0.79607844,0.44313726,0.3019608,0.27058825,0.28627452,0.32156864,0.30588236,0.6392157,0.5254902,0.34117648,0.30588236,0.26666668,0.23921569,0.24313726,0.25490198,0.62352943,0.14901961,0.25882354,0.2784314,0.24705882,0.21176471,0.2,0.23921569,0.5568628,0.09803922,0.19607843,0.23529412,0.21568628,0.1764706,0.17254902,0.19607843,0.4627451],[1.0,-0.6428388,-0.9846469,-0.9820757,-0.99489796,0.5351627,0.98521894,-0.9625021,-0.99954295,0.6721209,-0.9547023,0.5527085,-0.8528905,0.9527248,0.9904182,-0.90613765,0.99998516,-0.8224299,-0.99964255,0.9982115,0.029004497,0.87479264,0.9032163,0.99995434,-0.96959776,-0.9918448,0.79626787,-0.96371055,0.99741614,0.95133626,-0.8083913,0.6928992,0.9644955,-0.04748615,0.9268973,-0.98103726,0.47586793,-0.7301683,0.9979847,0.9980967,-0.98977685,0.66764534,-0.8901868,-0.23736492,0.8469586,-0.9054961,0.9935981,-0.9245797,0.9872198,-0.9826641,0.95270425,-0.9979326,-0.7568289,-0.9449632,0.93728316,-0.99951756,-0.70338476,0.99998635,0.99970245,0.6421941,-0.9978159,0.75268227,-0.019403853,0.9900485,-0.995298,0.8786962,-0.65083665,-0.9790116,-0.87357104,0.9984204,0.8746343,0.89497197,0.99727017,0.99954087,0.9997328,-0.99733925,-0.99528635,0.9313738,0.9984353,-0.99981415,-0.8653314,-0.7531366,0.8855572,-0.99341416,0.99868315,-0.85702366,0.9868691,0.9921463,-0.9990098,-0.9980717,0.23670264,0.912045,0.98522186,0.4901245,0.99981916,0.32643434,-0.5816931],[1.0,-0.99992454,-0.854261,0.51312035,0.99696046,-0.99305737,-0.9843473,-0.99999535,0.9999985,0.99993235,0.9788212,0.99999964,0.9999999,-0.9999169,0.9999995,0.99994075,-0.9999912,0.9999981,-0.99934095,-0.9999876,0.9984671,0.9999897,0.99877906,-0.99999744,0.9983412,0.9994529,-0.9951097,-0.9691724,0.260964,-0.9999991,0.72453797,0.9999998,-0.99957645,0.99998534,-0.9999185,0.99579304,-0.89042515,0.99999964,-0.992195,0.99995846,-0.9999998,0.93416095,0.9999972,-0.99579525,0.95107454,0.9996215,0.97813183,-0.99974316,0.9805317,-0.8956388,-0.9999968,-0.99886626,-0.99999803,0.9999703,0.79637504,-0.99978626,-0.99835175,-0.999541,0.9944495,0.99999976,-0.99999964,0.99999946,0.99981534,0.42841583,0.88535106,0.99954015,-0.99967813,0.99994564,-0.99999034,-0.9999988,1.0,-0.9999995,0.99453706,0.9998319,-0.98674166,-0.99999464,-0.9991474,0.9996957,-0.9058284,-0.99869287,0.9999842,0.99836457,0.99999934,0.68543464,0.99948263,-1.0,0.98945844,0.9986565,-0.99999726,0.99968284,-0.99975103,-0.8956457,0.060883347,0.9999893,0.99838406,0.9999999,0.99998397],[1.0,-0.99999946,0.99999946,-1.0,-0.5849636,-0.99999946,0.9999923,-0.9999995,0.9993977,-0.99998945,0.9959738,-0.9999991,0.9843159,-0.9999947,-0.999979,1.0,-0.99995947,-0.99972355,0.99974334,-1.0,-0.9998575,0.9999561,-0.9999996,-0.99275154,0.999953,0.9998273,0.9945734,-1.0,0.9996792,0.9999999,0.9755866,-0.9999419,0.9993878,-0.9675653,-0.9991487,0.84553444,0.91937375,-0.9998062,-1.0,-0.999971,0.99979657,-0.99865186,-0.87597317,0.993778,0.7558922,-0.9987671,-0.9999997,-0.99999946,-0.9999789,-0.9811148,0.9999996,-0.7873937,-1.0,-0.9999986,1.0,-0.98925924,-0.9999838,0.9998825,-0.99938124,0.99999595,0.9999477,-0.99999905,-0.9998381,0.9998496,-1.0,0.99999964,-1.0,0.37479115,-0.9990499,0.99960077,0.99999976,-0.64178884,0.6919495,-0.59443367,0.9999998,-0.02244465,0.99898916,-0.9955639,0.9913504,1.0,0.9999946,-1.0,-0.9999239,1.0,-0.18354785,0.9999997,0.99999964,0.99936587,0.548885,0.6652376,0.9476777,-0.9989859,0.99406606,-0.99999994,0.9994572,0.9999906,0.9874302],[1.0,-0.96656066,-0.9999982,-0.99597263,0.99999946,-0.9996979,-0.9999998,1.0,-0.22508061,0.9999943,-0.9999982,-0.927,0.9999999,0.9999953,-1.0,0.9999748,-0.52276266,0.999979,0.9995832,0.9999968,-0.99857146,-0.9997129,-1.0,0.98915875,0.9999169,-0.9996394,0.99999815,0.9987489,-0.99999774,0.9997977,-1.0,0.94486517,-0.9972209,0.9999971,0.9999984,0.9999567,-0.99987364,-0.99998647,1.0,0.9847258,0.99995226,1.0,-0.99963254,0.99715775,-0.9999999,0.6631952,0.99998087,0.9999751,0.99999994,-0.99999475,-0.9968294,-0.99918056,0.7639284,0.9999659,-0.9999999,-0.9988247,-0.9999332,-0.99293786,-0.9999997,0.99986434,0.99999666,-1.0,0.99990636,-0.9998178,0.9990574,-0.99829197,-0.99996847,0.99992937,-0.9961068,0.9997739,-0.99999994,0.99999917,0.99998707,-0.9641851,0.63813186,-1.0,-1.0,-0.9999999,0.88223565,-0.99874914,0.9999969,-0.99932426,-1.0,-0.99999493,-0.99999964,0.49057487,-0.9999867,-0.999961,-0.9996671,0.9999907,-0.99992836,-0.9999659,-0.9993786,0.9908147,-0.99967194,0.9996963,-0.9987038],[1.0,-0.84757787,-0.9999997,1.0,-0.34107426,0.9771839,0.9999616,0.80935454,0.99988675,0.9999973,-0.99998355,0.78686184,0.99999833,0.99997586,-0.9980281,-0.9637594,-0.9999991,-0.99995077,-0.99842346,-0.9976606,-0.9999998,-0.5995027,-0.9999946,-0.9972767,-0.9999802,0.9965995,-0.98386693,-0.999888,1.0,0.99999535,-0.99998045,0.9997994,0.93936324,-0.9928061,0.99999946,0.18913199,-0.99999994,1.0,0.8003334,0.86719906,-0.98650706,0.9999999,0.999841,-0.99991554,0.8131831,-0.9996935,-0.99999756,-0.99402225,-1.0,-0.9994324,-0.99908316,0.9994947,0.99932617,-1.0,0.9999079,0.99977046,0.98473686,-0.99754316,-1.0,-0.9999868,-0.9999551,-0.99963725,-0.9887164,0.9999883,-0.9999959,-0.9942237,-0.99603343,0.9997323,-0.992067,0.9999804,0.98832375,-0.99998623,-0.99976677,0.9999999,0.9999984,0.9994637,-0.951496,-0.99944377,0.9980877,0.9999996,0.9964363,0.9011178,-0.97580314,0.9999498,0.99984,-1.0,0.9986458,-0.99923974,0.30864823,-1.0,0.99999994,0.99087197,0.9999786,0.99999833,0.999961,-0.9999988,0.99999815]],"w":[[[-0.26879597,0.6510081,-0.70147324,0.98001695,-0.08689213,-0.29432106,0.8071394,0.03639865,-0.10551357,0.7258978,-0.19833851,0.16197157,-0.44960976,-0.26134944,0.19655728,-0.7060578,0.66740584,-0.2587216,-0.24041033,0.6833031,-0.001437664,-0.4474752,0.96719694,0.24669147,-0.96982193,-0.09063101,-0.77676606,0.57136655,0.7025199,-0.36869764,0.2439928,0.70426345,0.8595698,-0.9747176,0.5398295,-0.3827319,-0.9414754,0.97458553,0.7844081,-0.19971848,0.4698577,0.6376858,0.13285017,-0.9917958,-0.8184812,0.49254847,0.21645594,0.701071,-0.6422241,-0.9081347,0.9751227,-0.65798354,-0.47936344,-0.5439801,0.8195753,-0.94272256,0.19092655,0.857805,0.5565512,0.23032784,0.7780125,0.2942686,-0.46079922,-0.23272252,-0.98556614],[-0.6534735,0.16925566,0.7053335,-1.0737405,0.02089392,-0.956223,0.32899594,0.57840353,0.8113482,-0.36215085,-0.58550775,-0.6501791,-0.48679823,-0.027744018,0.9734523,-0.89089733,0.55490446,0.29122326,-0.08968991,1.1384301,0.06721948,0.83167166,-0.68676364,-0.8819068,-0.8099094,-0.8602083,0.9678625,-0.09810096,0.43061316,-0.77219206,0.8819969,-0.79250944,-0.0021383213,0.35625222,-0.27287483,0.43390715,0.5018971,-0.67629755,0.39211926,-0.10343674,-0.36407915,0.54867405,-0.8355316,0.37461737,0.32345927,0.020758132,0.97613716,-0.66879874,0.42759123,0.6095733,0.12123493,-0.6495205,-0.4637939,-0.089398496,-0.97906023,0.69713014,0.22341393,-0.76478535,-0.56495106,-0.85165745,0.4433082,0.643107,-0.4908704,-1.0347617,0.28980464],[0.11452271,0.3915343,-0.3856884,0.37597337,-0.514976,-0.9581138,-0.27139854,0.9032366,0.71254516,-0.40698165,-0.7871362,-0.35788786,-0.3113913,0.789497,-0.8123487,0.8472274,0.29030764,-0.23978181,0.910155,0.75626874,-1.004384,-0.47576168,-0.4756988,0.5524961,-0.37566444,-0.8589381,-0.52051747,-0.18150136,0.121911116,0.8383859,0.604889,0.23069258,-0.09877819,-1.0186849,-0.6753768,0.6573731,-0.89000773,-0.43406504,0.89312726,-0.31614077,-0.8407679,0.6788176,-0.16611448,1.0480124,-0.7519389,-0.3654626,-0.6376823,0.35139477,-0.73088276,-0.014349668,0.9316228,-0.6526591,0.5129164,-0.22095773,-0.7752531,-0.44640988,-0.2291654,-0.29096815,0.88496983,-0.72014105,0.529204,0.78726923,0.29839048,-0.26570612,-0.40493286],[0.35125908,-0.2964031,0.9074603,-0.7255213,0.51296204,-0.63189113,0.4869009,-0.9210472,0.3198435,-0.6887439,0.6844195,0.070753805,0.15823998,-0.49988046,-0.19803874,-0.22184533,0.51480573,-0.4628861,-0.6415506,0.12001468,-0.96193707,0.60720634,-0.30492592,-0.8067507,0.3404176,0.99155146,-0.20926663,0.48604745,-0.8294499,-0.98911804,-0.2284944,0.33386335,0.66592634,-0.88848466,-0.37591532,0.6355135,1.0013556,0.52351034,-0.39048097,0.37717614,-0.80767524,-0.032632563,-0.1680698,-0.5500213,-0.22465537,-0.2709994,-0.7353743,0.55822045,0.469472,-0.95034367,0.4449409,0.6593138,-0.5043921,-0.3717627,0.69444525,-0.1621387,-0.8284628,0.1835889,-0.81413,-0.5450462,-0.92375433,-0.84168655,0.48036748,-0.90857905,-0.8369716],[-0.7738925,-0.9610723,-0.792909,0.40487316,-0.74264723,-0.6388995,-0.19240387,-0.46606237,0.013191667,-0.14958078,-0.49102512,-0.21446414,-0.69729215,-0.14646277,0.67189425,-0.84623194,0.10356971,0.8722617,-0.4820049,-0.5501084,0.48826328,-0.7493395,0.040238336,0.859751,0.73638994,0.003127359,-0.28507924,0.8041954,-0.9897063,-0.27057642,-0.013023341,-0.19723095,-0.07260957,-0.27190268,0.886727,0.13199808,0.09270341,-0.46281508,-0.89187026,0.6095439,0.18216008,0.010990999,-0.393332,-0.5208823,-0.9685801,0.62073237,-0.47700927,0.7526231,0.4565368,0.6009679,0.10367731,-0.4208978,-0.48995432,0.5546805,0.50111824,-0.02292906,0.19382964,-0.6226378,0.51812714,-0.8847694,-0.18933769,-0.2733939,0.95689744,0.33805582,-0.10608704],[0.50733435,0.5891284,0.14495806,-0.14514272,-0.44311902,-0.8324027,0.12530263,-0.19491294,-0.8603778,0.30960914,-0.7866054,0.5865015,0.8959284,-0.14304182,-1.2520403,-0.4211604,0.7331005,-0.29457456,-0.4513612,0.9689279,0.22983077,-0.4934598,-1.0274258,0.7900401,0.17625694,-0.66082245,-1.2129968,-0.536616,-0.2130366,0.63381064,0.27115455,0.1362807,-0.83218044,0.706642,0.7763205,-0.27969995,0.43854174,0.82628536,0.42495143,0.44121733,0.96159536,-0.7062957,-0.2006815,0.6923704,-0.3339267,0.7451199,0.55523866,0.51101637,-0.64511645,-0.73427486,0.436591,0.09774166,0.9210871,1.1383325,0.29464546,-0.49215582,-0.4921852,-0.580205,-0.64200693,0.59651375,0.5049779,-0.44433123,-0.62706,1.0158203,0.6377821],[-0.51718277,0.6335215,0.023888674,0.4936068,0.17359594,0.19185781,-0.7345919,0.43752453,-0.6948823,0.25371072,0.5429173,0.90807647,0.2442466,0.4000494,0.13563746,-0.81292725,0.43412548,0.2408806,-0.1428307,-0.9644198,0.7912132,-0.023131398,0.32389924,0.7385551,-0.11262859,-0.7507404,-0.71485317,0.08750684,0.5849538,-0.70229083,0.34084478,0.06894723,-0.50686306,0.30950746,0.9565361,-0.28424346,-0.34120506,0.2492694,0.21791498,-0.051906392,-0.67602533,0.10444685,0.9388184,-0.29586244,0.6104772,0.58345217,-0.2680979,0.5670708,0.88656354,0.5263784,0.3727563,0.67142475,0.123400405,0.38655484,-0.2016916,0.7338579,-0.7189238,-0.8443251,0.783115,0.5388515,0.22168513,0.3435131,0.38674206,-0.91027015,0.687383],[-0.06526695,-1.0121279,-0.7639652,-0.4593177,-0.42824063,-0.39986745,-0.9265894,-0.93354833,-0.00054016465,0.53793335,-0.9655331,-0.87036914,-0.9731005,0.9614025,-0.3390961,0.6663117,0.6636836,-0.56067187,0.6781838,0.88564855,0.80109334,0.27392474,0.7869119,-0.48436096,0.14620283,0.86689174,-0.8999354,0.48665592,0.678339,0.07341092,-0.8844078,0.9745256,0.21275596,0.26288778,-0.68597,0.6273029,-0.059905734,-0.7953535,0.25597852,-0.8141289,0.46668032,-0.23141907,-0.09326307,0.19979243,-0.4569772,-0.018800862,-0.43167773,0.8260676,-0.2364468,0.49721122,-0.53003883,-0.45347974,0.8113472,0.6396189,-0.5572395,0.21761437,-0.6437251,0.48848966,-0.29266202,0.6294531,0.9873706,-0.083396144,-0.38331935,-0.7521988,-1.1829385],[-0.86623275,-0.8618068,-0.6992962,-0.9446347,0.8576376,0.102731325,-0.7081655,0.5855866,-0.8901957,-0.68739825,-0.9081578,-0.26514938,-0.65006375,-0.32599476,-0.63595617,0.14075582,0.89684254,-0.55127156,-0.3169664,-0.045954943,0.5647456,-0.18777113,-0.13142571,0.083356634,-0.7960793,-0.29966125,0.4211051,0.036033098,0.13472408,-0.5881904,0.979067,-0.3075798,-0.26746038,0.2969763,-0.027758267,0.14215238,-0.48095927,-0.088385545,0.5780461,0.9767934,0.8146299,0.93947,0.87353694,0.52867615,-0.5758739,0.10147199,-0.68989265,0.47094926,-0.33236736,-0.85866237,-0.6821294,0.74701494,-0.759386,0.29532748,-1.0328054,-0.20368369,-0.2845027,0.05815073,0.90068394,0.06036284,0.6718612,-0.8443932,-0.7542797,-0.70339155,0.82664925],[0.26624745,-0.95350003,0.6437148,0.37074998,0.9355912,0.4971267,-0.055802982,0.11050254,-0.77684766,0.15085901,-0.24852939,-0.7024101,-0.69440556,-0.9302534,0.50033057,-1.0777189,1.1546781,0.69956416,0.9367066,0.17330208,0.9595014,0.0721435,0.42993292,-0.3329316,-0.33027548,-0.523102,0.7429072,-0.39156502,0.82289934,-0.7129948,-1.1997759,0.956146,-0.7092312,0.893413,-1.1733165,0.4633437,0.3583479,-0.15484723,-0.37841332,-0.11936643,-1.0513122,-0.52416784,-0.75966084,-0.14511622,0.4932398,0.60490084,0.5291351,0.6277409,0.42459887,-0.10699297,-0.6632035,-0.18008326,0.15888853,0.2233727,1.1003971,0.8942812,0.484381,0.23751493,0.25268182,-0.94766235,0.101067,0.5800511,-0.37648773,-0.23802675,0.41921932],[-0.48230243,0.40498593,0.6899717,0.5007186,-0.72949153,0.32504007,-0.5679389,-0.3828059,0.28902444,-0.578249,0.3105229,-0.25845626,-0.40059826,-0.24314897,-0.37490988,-0.31842703,0.64192647,-1.0215038,0.4989952,-0.38150287,-0.64429224,0.5576039,-0.9263541,0.18249863,0.85772306,-0.5279269,-0.07590782,0.5766269,-0.54204226,0.12407256,-0.68486285,0.14766547,0.9821254,-0.5849354,-0.18200785,-0.4616001,-0.7264131,0.30572882,0.41928455,-0.34758553,0.38367438,0.35623547,0.24195316,-0.43915135,0.81467885,-0.059580535,-0.21882303,-0.34758285,-0.73397434,-0.7410665,0.6901116,-0.8527865,-0.6142711,0.727688,-0.54103625,-0.31802943,-0.6246154,0.83602136,0.45276508,-0.41161957,0.8082351,-0.051310405,0.6968424,-0.4656272,-0.962906],[0.9160201,-0.33826053,0.008767533,1.0003145,0.9007834,-0.8370293,1.0432999,0.00044872088,0.5977742,-0.26735184,-0.2361321,0.60146976,-0.24549787,0.2027001,-0.27910182,-0.3482029,0.023247056,-0.00009665438,0.59914786,-0.5454099,-0.12724508,-0.63288957,-0.2666217,-0.6081346,-0.26733705,0.04504268,-0.38150442,1.0473446,-0.8109213,-0.3415353,-0.58141434,-0.4653416,1.0447,0.36337885,-0.27178633,0.36632773,0.5733452,-0.8368144,1.0234288,-1.0088937,-0.746416,-0.7137461,1.1167567,0.5342688,0.8864414,-0.99556774,0.0013657038,0.7934989,-0.7632981,0.240386,-0.7524462,0.1737395,0.49500173,-0.15218224,-0.6361655,-0.96320385,-0.8852734,-0.025323085,1.0955782,0.7053099,0.87805593,0.9288457,-0.05335018,0.95243585,-0.6200495],[0.09778219,0.13077986,0.6440823,0.8053942,0.0724745,-0.8397178,0.29747263,-0.8278298,-1.3465161,-0.13046706,-0.3803682,0.59452444,-0.88824654,0.54125077,1.0738461,0.30250546,-1.0726135,-0.5678591,0.13206898,0.5620647,1.0001423,-0.37101942,0.063911594,0.1391624,0.3484179,-0.38590127,0.39097127,0.46645832,-0.44259664,0.69882816,-0.7256975,-0.45288873,-0.29560348,-0.50128067,-0.65026057,-0.14960209,0.97421986,-0.8107053,-0.9670527,-0.48705778,-0.05516453,0.7643607,0.52665603,0.37291092,-0.48570475,0.96738005,-0.9481217,0.6629936,-0.6948966,-0.08738926,-0.5691993,0.86009294,0.22674233,0.42119887,0.5391523,-0.6619001,-0.25106674,0.08425864,0.91944313,0.81326437,0.13777624,-0.5600075,0.8795538,0.61632264,0.7259168],[-0.059297524,-0.32187292,0.18158779,0.12545145,0.45860052,0.52224,-0.46317035,0.26609787,-0.017030597,-0.55674005,0.5444778,0.24797167,-0.52142704,-0.4436923,0.5342871,0.60259914,-0.038624894,0.3108909,0.6613679,0.3508942,-0.1196542,-0.3444895,-0.8730464,0.20533797,-0.38354483,-0.3243902,0.6234274,-0.3837108,-0.42981282,-0.84251803,0.060848936,-0.8070609,0.5413553,0.6927092,0.76641107,0.7989482,-0.40270674,-0.5241442,0.8858853,0.6968265,0.2791833,0.15584895,-0.5051695,-0.26347297,0.19717121,-0.9215904,0.8791654,-0.9362269,0.5859644,0.58303183,-0.9975945,0.9831534,0.018851666,-0.14304002,0.4696458,-0.19843502,0.17779776,-0.7015034,-0.8385652,-0.20018904,0.70697296,0.8962723,-0.7399563,0.5508084,0.43807426],[0.70563483,1.0674744,0.83865607,-0.16786627,0.47416908,-0.15519711,0.36638546,-0.77632326,-0.6930932,0.49161246,0.37066066,-0.24302652,0.24695511,-0.21460173,0.09213183,0.390397,0.8751978,0.4905388,1.2083194,-0.92099226,-1.0395399,-0.7740638,0.32404634,-0.11238759,0.5337688,0.3203017,-0.17549475,0.50401443,-0.41443828,0.41782513,-0.4968192,-0.9975636,-0.83274263,-0.47299293,-0.8819164,-0.93151176,1.0249765,0.54695094,-0.5328777,0.021592192,0.7482267,-0.07293205,-0.47794247,0.33666104,-0.21050358,-0.33560005,0.109069735,-0.5193845,-0.33364508,0.381712,-1.0340945,0.66913337,0.5172627,0.6108998,-0.8510963,0.11378437,0.06870022,0.71995074,0.6081481,0.7557931,-0.10740892,0.5941402,0.15940605,-0.36551154,0.21701302],[0.15521064,-0.3921276,-0.66241044,-0.76616764,-0.61938494,-0.046529617,0.59207606,-0.89290184,-0.3530527,0.631763,-0.1864427,0.07515473,-0.06477025,0.6172415,0.5774887,-0.38147235,0.5354755,-0.63884526,-0.9430947,-0.6489332,0.24755363,0.7770676,0.32664925,-0.0942517,-1.0286567,-0.60097826,1.1949848,0.13571627,0.12134139,0.3886918,0.8253736,-0.8127703,-0.22994944,-0.5881958,0.51729345,0.7612956,0.85248977,0.3190423,0.18350278,1.0498017,0.75353616,-0.75716376,-1.4157517,-0.8608647,-0.083838746,-1.2310284,0.7908863,0.6568502,-0.479226,-0.08749644,0.49454138,-0.7696818,0.5293299,0.3534316,-0.44966802,-0.06320618,0.9563217,-0.69383806,-0.30903637,0.28919005,0.12967567,1.0388806,-0.54150903,0.29377288,0.48422715],[0.6068173,0.7728958,0.5765364,0.5581387,0.32342392,0.9456994,-0.13752529,0.9671573,0.014015553,0.095405124,-0.63177204,-0.006648304,0.8673131,-0.21048655,0.46564245,-0.9867886,0.9205359,-0.607191,0.7003441,0.45886478,0.6759474,-0.48199338,0.85491717,0.27731842,0.48124883,-0.18270847,0.42625406,0.6382192,-0.6685074,0.4300501,-0.667772,-0.57961804,-0.87513226,-0.38876262,0.5439415,-0.624692,0.48406193,0.34587348,0.09320719,-0.04092005,0.3399323,0.5309559,0.34601787,0.53448564,0.9446176,-0.6642206,-0.53744686,0.9196796,0.62034917,0.5970225,0.33254668,-0.48846757,-0.17244308,-0.2898317,0.7153878,0.81151825,0.8262086,0.86098194,0.6331004,-0.58985174,-0.8988864,-0.91186905,0.35832667,-0.45659667,0.78772753],[0.688064,0.036634922,-1.1137257,-0.13575569,0.6085265,0.5981096,0.49541813,-1.186783,-0.11483329,-0.12626202,0.5087511,-0.44678655,0.12997639,0.28307113,0.57314885,-0.29446006,0.124638155,0.13241959,0.22317567,0.2058459,0.4147107,0.88748324,0.05446608,-0.64386743,-0.78712195,-0.98204607,-0.036729157,-0.48458898,-0.13937363,0.84506285,-0.53780276,-0.66641283,-0.43707806,-0.4922403,0.059074413,0.5001039,0.5327829,-0.27867353,-0.864425,0.30256227,-0.43011057,-0.15790236,-0.27559102,-0.92025775,-0.3354962,-0.59439725,-1.0151908,1.0692323,0.5342198,-0.21419694,0.60494375,-0.1560951,0.2965358,0.18840033,-0.6582971,0.70887417,0.5067657,0.1933955,-0.069799826,-0.34403634,1.0292946,0.7470482,-0.4652521,-1.048392,0.88449204],[0.3548987,0.07570134,0.9985359,-0.28528917,-0.4078112,0.28741357,0.14585362,-0.50342625,-0.49332172,-0.12552503,-0.7182168,-0.7443233,0.04765993,-0.26218262,0.4382866,-0.17188893,-0.58518785,-0.7723369,-0.37386152,-0.93500376,-0.2862099,-0.8821707,-0.61735064,0.26193625,0.03026548,-0.83726895,0.950155,-0.32310522,0.30795306,0.27840683,-0.021512596,-0.1131742,0.47023356,-0.1782354,-0.17200859,-0.18540293,-0.29390696,-0.02358043,-0.67308146,0.66182965,-0.7023424,-0.17828932,-0.95570034,0.10215664,-0.8212428,0.5672006,0.025112836,0.15343471,-0.08531102,0.36616346,0.17392042,0.4139647,0.9630193,0.834223,-0.92346734,0.15035334,-0.84057844,1.0063655,-0.8388282,-0.46277386,0.73388475,-0.038868237,-0.08722468,0.08241815,-0.4040113],[0.23537125,0.25877023,-0.3183512,0.6500634,0.4093733,-0.9706643,0.9410225,0.73562294,-0.29553324,0.85590017,-0.92313594,0.1778583,0.87897706,0.2975606,-0.8127362,-0.55727834,-0.19543904,0.91414165,0.661135,-0.8460421,0.19672336,-0.45893547,-0.053160947,0.68602014,0.4662442,-0.4588891,-0.47748792,0.7660745,-0.48613653,0.046890732,0.87742996,-0.26204184,0.3465536,0.07939655,1.0005742,0.50719285,0.10173752,-0.075100034,-0.48530155,-0.6126839,-0.4247043,-0.6455349,0.28843737,-0.099303015,0.9057073,-0.8366319,0.8532936,0.60733515,-0.33627123,0.30016816,0.76468384,-0.33788174,0.16392642,0.9614827,0.010611261,0.97451156,0.30312142,0.5285394,-0.2347139,0.77844715,-0.41904497,0.73500544,0.67057747,0.71592724,0.3228336],[0.093487926,0.2946433,0.5031585,-0.67090863,0.8169241,-0.008562797,-0.16910116,1.111402,-0.44815382,-0.44033486,-0.13079573,0.4687824,-0.16062179,-0.20392352,0.0670431,0.31482962,1.1345919,0.68145204,-0.9972465,-1.0741329,-0.7375305,0.31718028,-0.3473072,-0.093897074,0.08345739,0.9631286,-0.61920655,0.3222853,-1.023778,-0.21476737,0.5840431,0.6075293,-0.928933,-1.0212531,0.19116569,-0.15003166,-0.79618376,-0.12193832,0.12103781,-0.5741849,-0.105976924,-0.44420752,-0.67079395,-0.12487275,0.87609255,1.3341986,0.46312404,0.90525585,0.24626644,0.6134002,0.69284976,0.48633248,1.1539112,0.81760925,-0.05326203,-0.55171067,-0.74559647,0.73699826,0.02645719,-0.27436808,-0.06629495,-0.08360096,-1.048897,-0.72022444,0.29589227],[-0.31311756,0.008178001,-0.86897624,-1.0093833,0.58709806,0.6606778,0.0910625,-0.3503624,-0.0026123903,0.7878759,0.14023437,-0.43812823,-0.9342034,0.6334236,0.7504607,-0.70514584,0.72211725,0.17406502,-1.0595211,-0.1640556,-0.48870164,-0.7656118,-0.3925968,0.30697095,1.1654893,0.520615,0.47073883,0.6616596,0.08691123,-0.8089534,0.02056037,0.90021485,0.4043063,-0.37710056,0.31096256,0.23480253,-0.5344211,-0.5146084,0.1347364,0.8573678,0.27113628,-1.1860514,0.9461984,0.65702504,-0.23791926,0.41654193,0.20476721,0.97457767,0.1264745,-0.3787499,-0.20051031,-0.35701665,-0.69226646,-0.07296804,-0.8726778,0.72893244,0.59187454,0.0026844137,0.92891705,-0.37809986,-0.3500696,0.6065848,0.38315243,0.705604,-0.66224515],[-0.77347875,-0.4027044,-0.33704084,0.17961793,-0.27936533,0.77257615,-0.46022198,-0.117640235,0.6917684,-0.0975939,-0.66587675,0.68604076,0.061940998,-0.69221145,0.3326011,0.81448257,0.17617452,-0.14985424,0.6614345,0.27834693,0.65916854,-0.49088603,-0.6382121,0.77921695,0.89165276,-0.5213706,-0.008257894,0.54016405,-0.17562522,0.1561989,-0.23023345,0.87442213,0.15630436,0.24625412,0.94869345,0.31011948,0.1679181,0.18448293,-0.19614628,0.32057953,0.31710318,-0.6442277,0.48015967,0.031608645,0.98107165,-0.23427396,-0.9177882,-0.62200433,-0.00081263017,-0.28960636,0.33453578,-0.25893041,-0.5081571,-0.2867378,-0.08371297,-0.8847865,0.3182271,-0.27756703,1.0330157,0.107791044,0.027833816,-0.3326159,-0.28758168,-0.72159255,0.49078125],[0.9319948,0.8255178,0.85553825,-0.8626751,0.23107848,0.5948052,0.7639301,-0.2839347,-0.52034575,0.7350658,0.80534226,0.17825173,-0.44478065,0.4734445,-0.44834793,0.7802445,-0.7390349,-0.34239087,0.8101217,0.5867826,0.087754175,-0.101042345,-0.77669126,0.91789067,0.26689637,-0.62969023,0.9609164,0.5169657,-0.99352473,0.5355888,0.3821333,-0.78185594,0.6235364,-0.92695576,0.9252978,0.3075203,-0.8808357,-0.2566816,-0.92104375,-0.04167584,0.97361827,0.01333809,0.27680627,0.833871,0.8980209,-0.31102344,-0.7819451,0.59015936,0.71218723,0.567087,0.98134154,-0.44174942,0.011757015,0.13306883,-0.30321094,-0.33649746,0.8061248,-0.09066099,0.51318866,0.7628551,-0.51406115,-0.6919071,0.36596552,-0.39818606,0.5772248],[0.9307072,0.26689675,-0.120468974,-0.351315,-0.67711073,-0.098488726,0.27842948,-0.5575795,-0.5185316,0.15211746,0.92473763,0.17434274,0.36158615,-0.81597537,-0.7275507,0.14397593,-0.91289455,-0.7586959,0.44785163,-0.4332911,0.30386147,-0.1804292,-0.6895468,0.60962766,0.5691333,-0.4118529,-0.44974306,-0.9758286,-0.27756375,0.31295627,0.6479376,0.13759048,-0.6543321,-0.79717296,-0.51921326,0.14524175,0.33670616,-0.63352334,0.96118253,0.047298413,-0.31461596,-0.10003146,0.7157911,-0.028039627,-0.72396874,-0.9284479,-0.97475827,-0.38785452,0.9623575,0.16792457,-0.27546617,-0.47736514,0.33376017,0.6639411,-0.88574404,0.8521021,0.057178564,0.81836146,-0.18535608,0.6910281,-1.007919,-0.27239946,0.5282024,-0.64342517,0.41678318],[-0.91788447,-0.4923094,-0.7480008,-0.5800439,0.637559,0.043900844,-0.47069493,-0.24959248,0.18220623,-0.20515023,-0.46261424,0.21032338,-0.62157625,0.8078788,0.036274735,0.60328114,-0.100930296,0.9488429,0.27993166,-0.35087827,-0.4229473,0.40257677,-0.0082091,0.988525,-0.04931575,0.37580648,-0.6556145,0.6171571,-0.9913259,0.03015813,-0.9901906,0.14577739,-0.84948665,-0.548371,0.16079843,-0.4461837,-0.21750331,0.5877236,0.8757897,-0.024081226,0.08770069,-0.1968917,0.5841851,-0.32362786,-0.34156862,-0.098245725,0.045146633,-0.29510763,-0.3182375,-0.15925485,-0.9406754,-0.9341587,0.5989583,-0.28981265,-0.19223271,0.15820894,0.14991781,0.64076686,-0.08413925,-0.61133015,0.93182087,-0.9009998,0.6577846,0.30963522,0.14120232],[-0.081341356,1.0040854,0.46774033,-0.5719883,0.6248688,-0.58925706,1.0604724,0.66148096,0.56321883,-0.7700106,-0.92190355,-0.33957633,0.27713338,0.9954388,-0.2593107,-1.0680598,0.94398665,-0.9588172,-0.46374536,0.9862916,-0.85827893,-0.75812566,0.042144667,-0.92495,0.13734476,-0.4698839,0.84208363,0.08057318,0.4782653,0.41499224,0.13169841,0.68548536,0.8402423,-0.22860108,0.4014558,-0.6875193,0.016156144,0.6963103,0.21075103,0.7588632,-0.28532526,0.2578817,-0.4736671,0.63198215,-0.33120474,-0.27438608,0.054579638,-0.5584,0.1724444,0.67393106,-0.5268619,-0.35519904,0.10763566,0.71388966,0.033469792,0.12159238,-0.41900766,0.82706434,0.38922226,0.7810218,0.5513799,0.009128259,0.030030914,-1.002553,-0.73839724],[-0.8355974,-0.47372475,-0.25058138,0.295625,-0.27504307,0.59119385,-0.6715497,0.45259976,-0.6632429,-0.4085559,1.0237999,0.037435435,0.20838787,0.28646123,0.68537116,0.22454053,-0.80945355,0.3971896,0.03511392,-0.53919715,0.19948834,-0.67019355,0.50807315,0.40424785,0.3677808,0.5390984,0.86621934,0.6560595,-0.59161127,0.20552728,-0.005588444,-0.3736679,-0.5284874,0.14923316,0.74685967,0.48268422,0.83284867,-0.6227135,-0.68717426,0.02895837,-0.07343823,-0.7131173,-0.038352422,0.62106603,0.83264726,-0.51155275,-0.831341,-0.48129833,-0.08682309,0.38299897,-0.90513545,0.42763,0.5546849,-0.00902113,0.5684641,-0.45109928,-0.4698965,-1.0092896,-0.8331613,-0.073641345,-0.9296039,-1.1027149,-0.034626998,-0.6767377,-0.6439342],[-0.6582183,0.867509,-0.5601852,0.4844126,-0.52446645,-0.7024377,0.95623696,0.695386,0.9891917,-0.43370157,0.8822664,0.830189,-0.31444505,0.67365694,0.9663679,-0.27594364,-0.6632663,-0.7657624,-0.02412652,-0.25468564,0.6638334,0.3552065,-0.33178023,-0.33416662,-0.00009133933,-0.11727921,-0.10688214,-0.36102292,0.32905778,0.3053806,-0.4095316,0.70493865,0.25333863,0.05669781,0.5797574,-0.1463451,0.9648948,1.0118058,0.15112515,0.10995263,0.51067173,0.8117419,0.31726465,0.08457833,-0.1461416,0.6511107,0.82634,0.485812,0.2045108,0.8970796,0.12195457,-0.3487179,0.22531123,0.86130583,-0.78994256,0.4002988,-0.82130814,-0.5121347,0.9857605,-0.5666746,0.060796376,-0.9430427,-0.57314664,0.9625327,0.21910666],[0.65650713,0.54256266,0.87599826,-0.5763442,0.6289075,-0.010777914,0.42589778,-0.9577216,-0.5788503,0.8077972,0.73631334,-0.5248555,0.7367243,-0.76854396,1.0562176,0.085789375,-0.2220811,-0.44063798,-0.4726178,0.45055705,-0.39598384,0.26839474,-0.7494858,0.23187487,-0.27523166,0.82965016,0.114334576,0.019103106,-0.7809756,-0.18993194,-0.1917249,-0.4429769,0.7125509,-0.12937407,0.63063043,0.7043193,-0.17461815,0.48147687,0.49826008,-0.51477623,-0.8581542,0.90841955,-0.93097687,0.8619101,0.802905,0.5020731,0.18686283,0.64792883,-0.94520056,-0.18308666,0.1626474,-0.7171187,0.045329615,0.03816817,-0.36771268,0.5750153,-0.58928794,-0.0569537,0.78787225,0.038171604,-0.99990743,-0.3140735,-0.10189049,-0.37625077,0.7525364],[0.008820737,0.42123058,0.5638162,-0.33233282,0.7635635,0.6816854,-0.378801,-0.18951702,-0.57028437,0.11218152,0.32009232,0.55645865,0.03679852,-0.019065328,-0.7603887,-0.9400804,-0.5403362,-0.65412426,0.989881,-0.21269676,0.49206445,-0.3631183,0.6396986,-0.1059209,0.27555314,-0.95839345,0.6638782,-0.69864905,0.7774186,-0.5392775,-0.7367293,-0.7138659,-0.42509523,-0.46399254,0.087502465,0.7419607,0.17565535,0.015558678,1.2129356,0.8892163,-0.10913037,-0.6294249,0.1494847,-0.45483994,-0.8865766,0.088364355,-0.36239693,0.66733664,-0.46900034,-0.96869457,0.012533213,1.1919211,0.23636897,0.3793285,0.31209084,0.67187583,-0.017189022,0.79319954,-1.2459563,-0.5962737,1.1084286,-0.17662965,-0.06866702,-0.064721145,-0.54278946],[-0.7800347,0.5048279,0.77916557,0.36402753,-0.91045487,0.5306794,0.14645578,-0.5208614,1.1386567,-0.18125187,-0.8340436,-1.0549992,-1.0570385,-0.50732845,0.57163954,-0.051455062,0.09658993,0.42432123,0.30489138,-1.2977071,0.64900136,0.49230748,0.64930147,0.70066655,0.30059358,0.028617864,0.4819744,-0.8999022,-0.26195276,0.5369886,-1.0589327,0.27707738,-0.9056716,-0.23565596,0.64006174,0.5882644,-0.11978837,1.3934938,-0.8086424,-0.0091938265,-0.89068043,-0.5788555,-0.14895335,0.59738415,0.8398091,0.5259259,-0.7170721,-0.30218944,0.562387,0.19878031,0.8175899,-0.23676054,-0.25125456,0.005539955,-0.7795858,0.64910084,0.9187302,-0.39987645,0.037403233,-0.8182922,1.0307497,0.7064983,0.35264814,0.176679,-0.06013392],[-1.1467154,0.68406034,0.7019158,1.0361854,-0.9872114,0.20568644,0.03756221,-0.560816,0.063424475,0.7484651,0.46829304,0.96754897,0.9719746,-0.3863792,0.0868979,0.89564806,-0.6370229,-0.9378183,0.42664263,-0.22737895,1.0940915,-0.7763036,0.41471842,-0.3123924,0.18268153,-0.94673085,-0.052134655,0.34901184,0.016958445,0.827952,0.052694675,-0.4121869,0.65345883,0.8196389,0.21325968,-0.7453163,-0.3827402,-0.78946537,0.8702783,-0.9289726,-0.18727234,0.78292793,0.25733912,-0.813064,-0.15332898,-0.123263136,-0.07253139,0.04628986,0.37541547,-0.9857838,-0.058814403,-0.80105275,0.14158092,0.7266961,0.27609584,-0.117625065,0.14358233,0.31059483,0.3007303,0.6177287,0.22679712,0.23049738,0.29163086,-0.2879769,-0.05747113],[0.3934277,0.32203448,-0.8063655,0.3938589,0.27497542,0.6281498,0.4940147,0.17049341,0.33871368,-0.32631144,0.63741654,0.66943586,0.29390627,0.66408753,-0.12171627,-0.6255627,-0.46704203,0.41980892,-0.35415798,0.5921733,-1.0837704,-0.3510553,0.13576871,-0.61678493,-0.6642303,-0.6412892,-0.94406945,0.5640334,-0.15543762,-0.84096086,0.005239681,0.43979633,0.18261473,-0.11076227,0.1021372,0.8236634,-0.75667787,0.60789293,-0.05369431,0.4038431,0.23223051,0.1790892,0.100315616,-0.31385016,0.6758317,-0.5576427,0.064539775,0.77342355,0.20490383,0.5073968,-0.7277902,-0.8549505,0.014889377,0.39619058,0.65947735,-1.2868857,-0.7199731,0.33544225,0.2202394,0.26975232,-0.72371334,-0.20436569,0.513337,0.72931075,0.46609315],[-0.42734754,0.40478307,-0.37504682,-0.3119366,-0.7347856,0.881491,0.46460757,-0.88932985,0.21569127,-0.36848933,0.8407544,0.14534204,0.7227256,-0.39699036,-0.6363206,-0.71281916,0.8196873,-0.07932284,-0.06622579,0.7765971,-0.16803242,-0.064940155,0.7474069,-0.6735182,0.054209016,0.8693657,0.938849,-0.8502303,-0.9734056,0.50892514,0.910245,-0.023626909,-0.15220019,0.447896,0.54110426,-0.4118532,-0.7308036,-0.75986916,0.5902522,-0.40122995,-0.949627,1.1871964,0.38591427,0.04355262,-0.5858151,0.2539861,0.64989424,-0.20728244,-0.10325193,0.16595137,-0.9834441,-0.476569,0.5036367,-0.29386804,0.06618809,-0.3674238,-0.042018402,0.90900767,0.42061725,0.29704827,0.76057726,0.5386306,0.59818363,-0.87521094,0.29527882],[0.09353094,0.42356554,-0.8925603,-0.6988983,0.82000947,0.5136597,-0.59452623,-0.5719891,-0.6268509,-0.9673811,-0.8685053,-0.16183834,-0.05458316,-0.7776563,0.54588526,-0.053340655,0.3998812,0.14647792,-0.23727445,0.7101572,0.6287226,-0.9829392,0.8474661,0.7820614,0.23915948,-0.09733217,0.28304353,-0.13096741,0.7385245,-0.64779174,0.18327056,-0.35775754,0.54586935,0.60957825,-0.3380277,0.6668825,-0.45567244,0.42395818,-0.042876083,-0.9427934,-0.93836707,-0.48786947,-0.46008927,-0.33333254,-0.28486094,-0.9697022,-0.5366964,-0.7857959,0.37356135,-0.741803,-0.06668766,-0.018988203,-0.7114216,0.9321113,0.2621891,-0.29162717,0.65359056,-0.9995492,0.81250405,-0.836559,0.3835085,-0.03305239,0.4002718,-0.6908769,-0.093408465],[0.6495766,-0.27820277,0.57640535,-0.49926886,-0.07643426,0.057996694,0.3442529,-0.44663727,0.36877894,-0.7759735,0.5150675,0.33521932,-0.24970429,0.8220056,0.8290261,-0.023565277,0.64080673,0.93835795,-0.5078821,-0.34121916,-0.09238882,0.5899771,-0.3374159,-1.0697875,0.39397177,-0.94291055,-0.72915274,-0.42515612,-0.39421403,-0.9466227,0.4690266,0.6475129,-0.76090455,0.8715977,0.3271236,-0.28529462,-0.4697658,0.38864803,-0.9298291,-0.90070295,0.2504653,0.66588396,0.24524593,0.2763324,0.52931964,-1.0083213,0.70700544,-1.013076,0.58271444,0.8477324,-0.20756602,-0.85729057,-0.83493114,-0.79199904,0.33126375,-0.15562166,0.25607708,-0.47624704,-0.9758809,-0.25804618,0.40251833,-0.7246584,-0.0015705014,0.5723064,-0.20207204],[-0.41036835,-0.46158078,0.027092272,0.863639,-0.83234704,0.08383161,-0.75763917,-0.13108279,-0.5310467,-1.0525708,-0.84374857,-0.37586242,0.4573406,0.00588463,-0.27025422,0.23699932,-0.062185995,-0.6510421,0.5353746,0.0041487413,0.6659211,-0.60725194,-0.07053167,0.80986834,0.71579856,0.5386527,-0.58842,-0.24242721,-0.09924044,-0.97502637,0.26860505,0.5507888,0.13342768,1.2115021,-0.59939414,0.8549054,0.3003353,0.4802399,0.36112073,-0.8255376,0.696927,-0.2842623,0.06669545,-0.15548259,0.846731,-0.04706673,-0.36251283,0.13075137,-0.9345294,0.8143969,-0.03830112,0.66717726,0.23220703,-0.034744374,-0.90326285,-0.19372651,0.53892666,-0.889685,-0.4354484,-0.31500748,-0.18546328,0.32004267,-0.02125152,-0.095950365,0.97046816],[-0.22266647,-0.4826146,0.9430435,-0.7248944,0.9331469,0.74540377,0.3280567,-0.087245956,0.74748665,0.78750634,0.7121545,-0.47106314,-0.45614016,-0.85326135,0.7052364,-0.6077951,0.08405259,0.4650741,0.73687786,0.5781809,0.8567067,0.12475807,0.28103083,-0.7560553,0.7674601,-0.4002607,0.1748367,0.6883393,-0.6255943,-1.101908,0.96452016,0.6994587,0.06964322,0.93022454,-0.09869381,0.11113005,0.7673292,-1.0114487,-0.16704029,0.78090525,-0.9300701,0.7664258,0.81374663,0.8948917,0.09569107,-0.09930544,-0.8495893,-0.7175085,0.98953635,-0.8280082,-0.619016,0.683296,-0.7906481,0.063918956,-0.60462576,-0.59645325,-0.7626443,0.23705223,-0.26913255,-0.19810875,-0.034582872,-0.4306714,-0.6569252,-0.98698574,-0.51601595],[-0.31414962,0.08442298,-0.11564471,0.005625613,-0.5665831,0.55853546,0.1421288,0.48666176,0.6853394,0.7476393,0.42156902,0.9768099,-0.3428794,-1.0061123,0.9060205,0.8970443,-0.73653334,-0.9215866,-0.7203557,0.6900299,0.9818366,0.71260124,0.9888653,0.6107732,-0.34486464,0.7648852,-0.43629172,0.42345676,0.5475356,0.67646354,-0.7367784,0.80261534,-0.7661761,0.23756659,0.91106457,0.5925423,0.8384849,0.39215404,0.2027768,0.26552555,0.950967,-0.07297308,-0.34362748,0.21141955,0.21262576,0.21529658,-0.26034948,-0.70485014,0.023637792,-0.7969156,0.8925271,0.81478316,0.66106737,0.44871524,-0.54090255,0.21374676,-0.8231115,-0.7143349,-0.13986023,0.5743986,-0.33450878,-0.7669593,0.72403467,0.25633684,-0.7520279],[-0.21522897,-0.13917737,0.2009715,-0.8548754,0.54756474,-0.8792833,0.27873796,-0.06442055,0.6183708,0.4331637,-0.31755957,-0.6708714,-0.21989071,0.32324326,-0.0071549406,-0.44247773,0.19370687,0.39929646,-0.27279806,-0.20537587,0.6163352,-0.9613148,-0.24602403,-0.8006165,-0.836412,-0.5218412,-0.63576406,0.9166221,0.18112959,0.19387242,-0.34589803,-0.25494128,-0.6221961,0.63485414,-0.18085545,-0.8154101,0.46018672,0.09825928,-0.101636484,-0.30493978,0.6327536,0.12313146,-0.8484033,-0.3790451,0.11728987,-0.6161626,0.6743019,0.16145493,-0.8857817,0.96585023,0.37289742,-0.42012087,-0.2930611,0.56257993,0.3828143,-0.16820939,0.06469297,-0.29371268,0.5442477,-0.87479514,-0.068743765,-0.29956394,0.03598753,-0.5996869,-0.2582945],[0.5715016,0.80530775,0.66070443,-0.6209576,-0.60967577,0.23918092,0.26016945,-0.09170523,-0.221102,-1.0903157,0.6182386,0.64046633,-0.11287198,-0.6751556,0.20650713,0.9338919,0.6150737,-0.5622584,0.08534963,-0.09479528,-0.9055415,0.77975494,-0.20372559,0.48240215,-0.1511668,0.032877322,-0.49913207,0.63477206,-0.56880933,0.06813211,0.5624103,0.008182904,-0.19514294,0.62418467,0.45911863,-0.6670346,-0.06015196,0.60265183,-0.8115953,-0.20427212,-0.11634683,-0.38931504,0.8813904,-0.7942111,-0.9852504,0.14360064,0.20516713,-0.26815373,0.054308668,-0.6797091,0.25229126,0.28628036,-0.9147301,-0.65968096,0.87347275,-0.46967322,0.5663959,-0.066085435,0.8924293,0.15001239,-0.9201808,0.24999213,0.6844084,0.68156344,-0.97315735],[0.2145134,0.6233233,-0.34533295,0.39130288,0.116087295,-0.752956,0.055795204,0.3681782,0.3949521,-0.875967,0.30192885,0.6155266,0.094334014,-0.10701851,0.11936843,-0.3073358,-0.19324128,0.9400494,-0.31971732,-0.9845375,-0.47118872,0.4073309,0.7755661,0.92085093,-0.66340274,0.35285136,-0.424577,-0.1938089,-0.8731305,-0.52795124,0.4566304,0.8440545,-0.64551044,-0.97132444,0.7881033,-0.99048656,-0.32572585,0.46532688,0.3187576,0.1494106,0.79882425,-0.06785606,0.19032694,-0.93245834,0.46943942,-0.038738202,-0.7344553,-0.6805232,1.0045258,-0.54638004,0.46271357,-0.23380922,-0.7486955,-0.4641192,-0.9538615,-0.7658504,-0.35157663,-0.023191633,-0.0037368324,-0.87635744,-0.31674552,-0.8822648,-1.0020982,-0.51942384,-0.32759142],[-0.52776146,1.0191296,-0.7127026,-0.72643363,-0.92447364,-1.0307364,0.11240847,0.18910114,-0.78901994,0.13361698,0.19801392,0.16434927,1.0770181,-0.26201567,-0.93549556,0.24851745,-0.9072242,-1.0979552,1.3006638,-0.18801343,-0.54024523,-0.99887574,1.1131852,1.2201754,0.86094147,-0.68964547,0.72478235,0.8371534,-0.032483757,0.32434386,-0.73220265,0.37198883,-0.10562491,1.079329,0.9434382,-0.9033684,-0.9013103,0.44221506,-0.10426455,-0.76882005,0.4444132,-0.7856482,-0.6016659,-0.75127083,0.72358507,-0.4996349,0.9892898,-0.7370957,0.25967857,0.47016665,-0.93032384,0.912383,0.9300671,-0.95573056,0.5988896,-0.074709944,0.7119093,-0.7335713,0.34935609,0.36451605,0.5052712,0.6232164,-0.4834486,-0.96854275,0.57553744],[0.21765406,0.81966215,-0.5499258,0.64610004,-0.914016,0.41136256,-0.78787017,-0.16344833,0.8633524,-0.37986982,0.010939121,-0.069654934,0.8103882,-0.9275593,-0.8613979,-0.18649587,0.7495221,-0.6644494,-0.6094713,1.0512518,0.4824951,-0.18983313,0.99729013,0.42147416,0.17174476,-0.7669356,0.47819072,-0.82364005,0.16735765,0.20484799,-0.5098405,-0.19680628,-0.8107437,0.43762872,0.7432092,-0.7077777,-0.029312853,0.37030452,0.4734596,0.1624828,-0.2627919,-0.031548414,-1.1536521,0.44052565,-0.40875247,-0.5474706,0.9502019,-0.5835873,0.7803709,0.39040565,-0.30690414,0.43544596,0.17394622,-0.21206452,0.6797191,0.98753786,-0.3710481,0.80401534,0.108563684,-1.0003024,0.41575426,0.03462612,0.762446,1.1323808,0.078771584],[-0.30174598,0.65339833,-0.09124092,0.55612063,0.35860437,-0.4238252,-0.41266182,-0.8869947,0.41271055,0.31973195,-0.8171655,0.4190604,-0.16683635,-0.80655485,0.07330726,1.0255058,-0.13287383,-0.51550734,0.65252656,-0.6069634,0.12608412,0.3444507,-0.1833417,0.14801505,-0.5098239,-0.8111326,-0.48582456,-0.14413616,1.2373539,0.9067922,0.25303897,0.018934045,-0.73438483,0.12233476,0.21040955,0.54185313,0.03719176,-0.09974455,-0.46102703,-0.5728269,0.510324,-0.11285742,0.5515056,-0.7529898,-0.79443747,0.17732401,-0.55196494,-0.2365893,-0.37777284,0.3129929,0.37038139,0.38911992,-0.6160279,0.2735258,0.10445288,-0.5437325,-0.5644037,0.60635626,0.16732171,-0.7814768,0.17104211,-0.8724886,0.7462535,0.7740362,-0.17523311],[-0.58980227,0.1572324,-0.867829,-0.40518156,0.99970424,-0.21398602,-0.16979197,-0.26187506,-0.6283886,0.29973862,0.9748751,-0.7506367,0.97618574,0.65159994,0.82435805,-0.1418107,0.009667707,-0.11707041,-0.863541,0.9683973,-0.7537321,-0.57072395,-0.9460038,0.07249237,0.6541041,0.8562596,0.70819366,-0.7916608,-0.56485045,0.29369065,0.43063432,-0.119870335,0.6144772,0.49403802,0.9196326,0.64647657,-0.8575848,-0.72063506,0.30659735,0.7774353,-0.085571356,0.9372299,-0.4581095,0.811841,0.6014449,-0.10569487,0.8206151,-0.2879239,0.56243443,0.36206833,0.6788387,-0.7079921,0.47522575,-0.11865775,0.751582,0.5404126,0.23545985,0.6574027,0.69160455,-0.17590098,0.7956742,-0.56195456,0.2171803,-0.9278126,-0.27485877],[-0.22997555,-0.0027105394,1.0220801,-0.71465105,0.71951926,-0.65580773,-0.83688843,-0.9102234,0.6707547,-0.3555349,0.6441526,-0.8267209,-0.18654485,-0.3533961,-0.43725166,-0.539215,-0.42050344,0.28617713,-0.38229007,0.9162648,0.78925616,-0.5551082,-0.10221088,-0.1709914,-0.31819,0.98832583,0.3100165,-0.5589429,-0.31816158,0.5748763,-0.739362,-0.89450604,-0.0030530358,-0.46983227,-0.35507816,0.5530605,-0.94517857,0.023791943,-0.93646145,-0.10172918,0.89095825,-0.864646,0.078667656,-0.7666168,-0.40824506,0.25246602,-0.92201936,0.34925833,-0.46532828,-0.75916624,0.27907774,0.61216027,0.7998395,0.49321967,-0.63560027,0.73638475,0.53651327,0.7813493,-0.68561816,-0.9124434,0.40485096,0.9719907,-0.3315218,0.3125035,-0.1774755],[-0.008025877,0.527591,1.1367427,0.852275,-0.59532243,0.14182869,-0.25771856,-0.64289045,1.0995699,-0.7883798,0.23896924,0.021644332,0.77637166,-0.911351,-0.978816,-0.4142081,-0.00037404487,-0.39545614,0.5394588,-0.4978918,-0.7535958,0.4016502,0.54645115,0.77851015,-0.42372024,-0.6667267,0.5322029,-0.30290103,0.3872061,-0.3311911,-0.0010722536,-0.76984286,0.6622228,0.3203322,0.47926113,0.6994391,-0.035338145,0.6256155,-0.6275177,-0.5719974,0.80957186,-0.9869657,-0.3083318,-0.728269,-0.13036115,0.7668811,0.4823858,-0.008745665,0.8852385,-0.7947253,-0.03363913,0.68033755,-0.4564954,0.8839773,0.14690365,0.49585843,0.076349,-0.8182439,0.59580463,0.21979988,0.91642284,0.44133908,0.7781176,0.36080438,-0.20661193],[-0.6709634,-0.46007082,-0.730752,0.84689695,-0.16769794,-1.1060241,-0.9951794,0.54469424,0.14773639,0.7910914,0.7595769,-0.6159787,0.74581283,-0.20529222,0.26806143,-0.8596691,0.57187575,-0.7463254,-0.8335225,0.33347937,0.4215107,0.15552339,0.83918023,-0.12234225,-0.30569017,-0.17162123,-0.2602569,0.1346422,-0.30666533,0.58300793,0.23446637,0.53849155,-0.7841959,-0.118704945,-0.040079046,-0.11917184,-0.34354508,-0.14087987,0.74975634,-0.7589175,-0.49922806,-0.8059796,-0.19545005,-0.6959268,0.63390064,-0.2667882,0.7663584,0.42706382,0.25080273,-0.35791308,0.37623557,0.7319856,-0.19021742,-0.123412386,0.18138333,0.40504363,0.15137158,-0.48335794,-0.83590573,-0.5235317,-0.23009014,-0.7090642,0.98510695,-0.26747343,-0.49850842],[1.1567054,0.114493035,0.06826623,0.16590205,0.030757185,-0.51089895,0.49915388,0.17682123,-0.49448165,-0.8075222,0.325866,-0.17415312,-0.93394226,0.8050907,0.022615707,-0.49958596,0.8942052,-0.6324021,0.714702,-0.72715884,-0.18957467,-0.62886035,1.2037306,-0.25055787,1.2774937,0.16477875,1.1058042,-0.08126288,-0.34249642,-0.63236254,0.19644853,-0.47603258,-0.2845832,-0.26140925,0.5732585,-0.3568315,-0.85671604,-1.0069416,0.9552359,-0.4689427,-0.50863034,-0.493221,0.6576856,0.49378487,0.22154495,0.91224223,0.3552132,-0.2031856,0.0783206,-0.7226552,-0.36780435,0.2714653,0.97279,-0.8417759,-0.467784,-0.46560547,0.5527658,-0.10606505,-0.5757364,0.8408207,1.0561553,0.6844706,-1.0212846,-1.110485,0.77463156],[0.03465813,-0.6495393,-0.85867304,-0.7868397,0.7326459,0.54680943,-0.07174793,0.2177693,0.070931666,0.8191425,-0.8811114,-0.7571589,0.6224284,0.30457678,0.29285604,-0.9337969,-0.7197173,-0.70003897,0.74173135,-0.7801174,-0.67353666,0.010221698,-0.93039584,-0.6384252,-0.9409769,-0.18840323,0.58525807,-0.5296414,-0.19248766,-0.19269074,0.3605732,-0.6291376,0.7039937,0.21080026,-0.85189116,0.07397423,-0.650274,-1.0533983,0.72992,0.77311796,0.25013536,0.35036397,0.051733904,-0.50530845,-0.9552966,0.58790404,0.5730432,0.009812077,-0.43276647,0.29821157,-0.80684596,0.80702466,0.738169,0.61185557,1.0613949,0.409108,-0.328515,0.91003,0.450018,-0.21066733,-0.6578337,0.7902862,0.6845622,-0.19501525,-0.67842925],[-0.8948267,-0.06638158,-0.28214937,-1.0136769,0.0072716936,-0.19362475,0.68248224,-0.6207438,-0.78537774,-1.2643807,-0.3184747,-0.12218019,-0.7162392,0.110283755,0.535561,0.45560548,-0.48417145,-0.21563879,0.6112872,0.99534464,-0.44641092,1.1856605,-0.17190637,-0.0018687475,0.5656752,0.43463743,1.1955602,0.4960567,-0.4824518,0.34681863,1.024583,0.9577345,0.2857645,-0.05196375,-0.25635597,0.03533003,-0.9728282,-0.35455838,0.47229937,0.789733,0.40568295,0.74511075,-0.28617096,0.85806316,-0.9350192,0.82679784,-0.7189769,0.07859741,0.8803187,0.14778133,0.41877168,0.7943508,0.20891325,0.7710253,-0.47115108,-0.6149804,-0.7322115,-1.1873379,-0.80514747,-0.22113404,-0.19647448,-0.30158788,0.01529581,-0.6995797,-0.96725345],[-0.863043,-0.38094527,-0.5755402,-0.37165087,-0.47091448,-0.14153618,0.6679564,0.3970224,0.3475222,1.1140766,0.66967654,-0.41372764,-0.036930498,0.9333796,-0.61845887,-0.027441293,-0.93058246,0.49799398,-0.44460595,-0.7051497,-0.6470089,-0.35825303,0.97316355,0.357557,-0.43988988,0.250016,-0.007905196,-0.65209883,-0.34077647,0.1393467,0.07926692,-1.0083017,0.5546476,-0.7222941,-0.46539965,-0.7295073,-0.762128,0.073178455,-0.87278956,0.29386818,-0.7429856,-0.4751713,0.073053285,0.34793782,1.032209,0.64111775,0.49258322,-0.021618005,0.7261281,0.6460598,0.22664452,-0.05874244,-0.12618017,-0.6875095,0.10240232,0.8072582,-0.82654536,-0.23482235,-0.5957937,1.1517949,0.031393014,0.91718477,0.4735635,0.8259005,0.47358584],[-0.54168385,0.31367385,-0.48107827,0.60564774,-0.40566814,1.118668,0.6633452,0.046507124,0.25102335,-0.13044684,-0.83701855,-0.91678905,0.03785142,-0.88026273,0.5708109,-0.16702613,0.5462857,0.7868344,-0.72079027,0.6058749,0.6002178,-0.51267755,0.03142806,0.9365731,0.7240432,0.47384787,-0.45072266,0.026024338,-0.13805357,-0.028484112,0.64092165,-0.47829407,-0.3128748,0.8948193,-0.42141846,0.027139954,-0.384323,-0.9460219,0.6513979,-0.1398255,0.49601474,-0.44579226,-0.1419401,-0.6487485,-0.2718908,0.0688645,0.28733677,0.31205457,0.1299959,0.25674194,0.6019591,0.9922373,-0.21747656,0.493647,-0.8474234,-0.35340157,0.0045562484,1.0713679,-0.6016112,0.45420697,0.8693013,-0.26808885,0.76745725,-0.10680186,-0.6451219],[-0.34792843,-0.6404479,-0.703213,-0.10735573,-0.19857998,-0.64296955,0.5724483,0.7155972,-0.364808,0.5107288,-0.5722365,0.41745344,-0.48039418,-0.5021568,0.009962478,0.47419694,0.6101693,-0.66881377,0.04921229,0.94702274,-0.896484,-0.7949205,-0.44907105,-0.5058671,-0.93092394,0.44904718,0.7047724,0.30760187,0.8219388,0.55277926,-0.19365607,-0.3160946,-0.5029836,0.5287764,-0.41039315,0.8812358,0.11563502,-0.6038112,-0.57381964,-0.84677607,-0.78059494,-0.96614057,-0.059020083,0.060078904,0.15293294,0.06452988,0.7257297,-0.6665384,-0.7484403,0.8735616,-1.009638,0.7443869,-0.62140906,-0.18325588,-0.5476745,-0.09332302,0.046243787,-0.45980284,0.6071999,-0.62948966,-0.16658784,-0.9489961,-0.4454027,-0.4531677,0.4460437],[-0.6341431,-0.37147567,1.150269,-0.0359704,-0.010122792,0.67425966,-0.32907033,-0.34025452,-0.78925115,0.8005115,-0.82587576,0.48358086,-0.8555549,-0.7861687,0.1884726,0.5829666,-0.85717845,-0.35659957,0.4688225,-0.837507,-0.3745532,0.96455306,0.27885,0.27967462,0.045071743,0.6237397,0.34143203,0.5419325,0.9587106,0.9492206,0.3964589,-0.3553325,-0.29257232,0.36951473,0.18784592,0.12665303,-0.1431291,-0.84367883,0.5142118,1.0269496,0.13828866,0.117539585,-0.1322933,-0.5373177,-0.2514587,0.6499563,-0.17345598,0.45270148,-0.8293863,-0.7484946,0.4289314,-0.65168476,-0.06480441,-0.38346756,-0.9549555,-1.4218966,0.62647706,0.8714523,-0.8792232,-0.36242664,-0.7011352,-0.42398492,-0.020551845,0.0013685718,-0.16906781],[0.42097357,-0.8564,0.71648693,0.47475153,0.66854817,0.80590487,0.7419606,-0.9607772,-0.65859383,0.62632567,0.97566015,-0.6906481,0.10896998,-0.7448879,0.37419343,0.21770747,0.6718965,-0.0011754232,-0.46416232,-0.7789745,0.34711015,0.97760487,0.84887516,0.55517745,0.77772593,0.822042,0.33207384,0.30614406,0.1896071,0.9630785,0.18056473,0.947753,0.5179477,-0.09783655,0.4927893,0.9914108,0.32963932,0.11642117,0.5403572,-0.26096117,-0.3232485,0.8229325,-0.9233435,-0.95720446,0.29375675,-0.028109647,0.43413147,-0.6287584,0.013141557,-0.32541382,0.1730568,0.34520054,0.29706076,0.021943081,0.14916456,-0.5751077,0.83387524,-0.90785396,0.21321294,-0.41558206,-0.09238595,0.34109968,0.4840442,-0.13312095,0.6222013],[0.35011932,0.34903514,0.5783825,0.8237811,0.8971721,-0.24004701,-0.7200288,-0.71333677,0.7345464,0.79784155,-0.29544714,0.80602187,0.6049814,-0.25267586,0.3927659,0.6312851,0.034816373,-0.38299116,-0.7523213,0.8017858,-0.62248987,0.68884593,0.86333066,-0.57773477,0.7150259,0.8192044,0.25343895,-0.8469376,-0.46613672,0.6747555,-0.78457516,-0.21133119,-0.19972426,0.40864775,0.58302665,-0.80660456,-0.17443544,-0.1314334,-0.9984164,0.7619675,0.89407337,-0.971988,0.10719181,0.8061305,0.1997149,0.5108944,-0.8367341,0.079089865,-0.17043051,-0.95769626,-0.37865114,0.9995021,0.23463175,-0.13729355,-0.9648988,0.6518951,-0.8315858,-0.22198552,0.54356194,0.42970923,0.024181955,0.8746127,-0.0643989,0.29709864,0.7000191],[-0.35798633,-0.9741564,-0.97304875,0.15756625,0.72389036,-0.1490215,-0.21588087,0.52630514,-0.6470961,-0.707439,0.24498211,-0.012431643,-0.23297,0.626885,1.0522183,-0.21824273,-0.2500509,0.12961538,0.82359886,-0.45125076,-0.86463356,-0.39591533,0.13804531,0.5528601,-0.05583022,-0.22695306,0.44031873,0.37838775,0.6044084,0.105941884,-0.20221958,0.8154419,0.09240099,0.6903305,-0.34427467,0.74575037,0.20655085,0.9160761,0.4915611,-0.5782979,0.5771891,-0.28183788,-0.032886308,0.49163356,-0.6848843,-0.2289703,0.23166741,0.9211589,0.06554666,-0.6473073,-0.056349643,0.38918546,0.47889662,0.86356074,-0.8731812,-0.33786055,1.0190159,-0.6429002,0.5820424,0.9730434,-0.4236476,0.54708755,-0.587544,0.088074155,0.1660666],[-0.15311036,-0.52010477,-0.24226862,-0.85315764,-0.75919276,-0.9927554,-1.1513698,-0.427827,0.31130323,0.61939794,0.66295296,0.47672683,0.019486276,0.1726371,0.08009267,0.9436026,-0.73252076,-0.86568254,0.5864344,0.45244408,0.2105509,-0.98871505,-0.5841456,0.71289617,-0.99315107,0.29204082,-0.42951295,-0.8136708,-0.43260792,-0.78958523,-0.83195186,-0.24268048,-0.47232854,-0.97244966,0.34895444,-0.26094297,-0.8711135,0.8574145,0.35794362,0.95662194,-0.91821194,1.1389925,0.92463374,0.37464738,0.67315537,0.14599672,-0.45236176,-0.6431113,0.565474,1.0317401,1.0181248,0.36271372,-0.2991349,0.6484842,0.60646325,0.34351313,-1.0018858,0.030018162,-0.02158742,0.4326991,-0.7626828,0.5549879,0.6977432,-0.60955745,-0.3919043],[0.64574856,-0.4633906,0.6566578,0.72596556,-0.32864413,0.6500131,-0.0046892227,0.89818543,-0.7834401,0.43257058,0.27934924,0.8372251,-0.6394035,0.871329,0.69650304,0.21354625,0.765835,-0.6213522,-0.27848572,0.8130328,-0.4463445,0.13933252,0.86496973,-1.0348574,-0.07225932,-0.46886456,0.44610342,0.22861132,0.46888852,0.6532949,-0.61433,0.9977711,-0.24465051,0.57085633,-0.3251782,-0.7101569,-0.10672564,0.21855395,-0.76846296,-0.6239507,-0.92832804,0.76604545,-0.9115735,0.8873285,-0.54311,0.3079855,-0.010809661,0.8988337,-0.36508894,-0.82064164,-0.9070308,-0.31173226,-0.2716833,-0.35082993,0.3834762,-0.7702539,-0.85302746,1.0166578,0.5387435,0.57312423,0.31077528,-0.51209164,0.10213241,-0.12611544,-0.56938404],[0.394497,0.28638947,0.5460586,-1.3229223,-1.1048678,-0.31980634,0.4966764,-0.576571,-0.7482496,-0.58306533,0.5361955,-0.24547282,0.015672188,-0.11024129,-0.17635319,-0.05058121,0.7472943,0.64151573,-0.7022065,0.07659314,1.0117186,-0.878753,0.40197128,0.6787696,-0.61922854,-0.89290196,-0.3352536,-0.3823143,1.0830967,0.6828316,0.39674783,-0.66261476,0.3180067,0.15803269,0.2336043,0.2904325,0.06705017,-0.69287443,0.5454598,0.52831364,0.8121407,-0.30102566,0.48450625,0.22636463,-0.033082828,-0.85198814,-0.6472312,-0.94617766,0.48339552,0.6830854,0.6885173,0.5326882,0.7671582,-0.6715714,0.05677027,-0.07336156,-0.11256491,-0.91529906,0.6832438,0.5233051,-0.51922613,-0.41719803,-0.89190245,-0.023142114,-0.2882926],[0.22961682,0.19817705,-0.6490585,-0.12335664,-0.53214246,-0.5600203,0.93851256,0.36526912,0.27788657,0.8666064,-0.75499785,0.8987882,0.23586275,0.95263404,-0.19041194,0.36849967,0.42495292,-0.1279438,0.6821414,0.23905118,-0.29723662,-0.54885465,0.22959884,0.40731114,0.9872452,-0.40381047,-0.07284812,-0.67672116,0.85409147,-0.8732909,0.70520264,0.96071315,-0.08801831,-0.22741777,0.20964447,-0.17061314,-0.09552078,-0.56518024,-0.74079514,-0.31321746,-0.76564145,-0.39880565,0.07491247,-0.7971371,0.46168268,0.9286152,-0.7420923,0.55123514,0.81852436,-0.37984505,0.9670171,0.05559279,0.86753887,0.27975148,-0.5820739,0.0759699,-0.3949054,0.3148241,0.3940151,0.42492598,-0.43162808,0.30689257,-0.4407125,0.09135907,0.6311651],[-0.91095215,-0.26903966,-0.2770535,0.022626668,-0.95717245,0.23934363,0.42583472,-0.26512736,-0.9040274,-0.7523873,-0.837513,0.76973104,-0.32672995,-0.85487413,0.80186945,-0.94471145,0.2575219,0.9298133,0.3617005,0.14370215,-0.26820815,0.6887912,0.10289414,0.3802205,0.51755244,0.11334864,-0.608951,-0.6521934,0.48806223,0.1075923,-0.9908501,0.47057414,0.4318593,-0.428488,-0.021897232,-0.5049384,-0.026769996,0.57365274,0.08868642,-0.056098375,0.07551764,-0.02946822,-0.72073984,0.5651407,-0.7231128,-0.51043165,-0.49747634,-0.15709434,0.33639708,-0.3438679,0.40765378,-0.82078284,-0.120908074,-0.034660373,-0.7207794,0.9740738,0.7278505,-0.68131286,-0.9712091,0.53581196,-0.9867971,-0.49455118,0.6332205,-0.5568875,-0.46436742],[0.8649557,0.104188874,-0.13948195,-0.6611096,0.4416465,0.14971372,0.4121585,0.12129546,-0.41054583,0.3008141,0.24332885,0.030376356,0.41108266,0.8892965,0.33219025,0.41745922,-0.1927277,-0.11688267,0.8440599,-0.12575212,-0.42851365,-0.7083359,0.8118692,0.88414377,0.53590876,0.5608542,0.90670854,-0.27123576,0.56181484,0.030741896,0.74236625,-0.839726,0.32331944,-0.9235995,-0.4904439,-0.0252075,-0.74711764,-0.21856219,-0.6410846,-0.6942283,-0.57781714,0.21732698,-1.0817466,-0.21689107,0.34543008,-0.4090498,-0.9119314,-1.2405564,0.8543087,0.48090672,0.09921913,0.25773823,0.24142124,-0.3401111,0.80242246,-0.3321402,-0.41846478,0.73624206,-0.5886618,-0.7108694,0.6071742,-0.02616391,-1.0435205,1.0991799,-0.31080505],[-0.8745685,0.93626064,-0.75626904,-0.38118434,0.6106618,0.2732162,0.4749116,0.30220824,-0.5687205,0.6096755,-0.52599823,-0.539378,0.22683346,0.5288274,0.44774908,-0.33789492,0.7426356,-0.43059623,0.7189246,-0.7474434,-0.7299752,-0.79138803,0.016721057,0.94611955,0.0077854684,-0.5029009,0.7117583,-0.96165794,0.23368144,1.001706,-0.3723906,0.48611972,-0.48292306,-0.20633873,-0.705155,-0.16237482,0.39642456,0.37973312,-0.49317223,0.9516932,-0.10963037,-0.34937334,0.07633348,-0.18266824,1.1523399,0.07336472,0.47792724,-0.77969444,-0.8585806,0.3864778,-0.1701396,-0.29786164,0.64823693,0.65505004,0.20388749,-0.35160723,-0.5608002,0.8398109,-0.37156227,0.32733598,0.2691024,0.5072932,0.113133006,1.0006406,0.12480733],[0.4907872,0.7974063,-0.765687,0.81519794,-0.4939393,-0.4373727,0.2325145,-0.29927254,-1.0159752,0.42664057,-0.60418314,-1.1209424,0.20235565,0.07348306,-0.41218066,1.075864,-0.4773034,-0.4171816,-0.81366295,0.4352489,0.41992885,-0.14235133,-0.5072344,-0.81611377,-1.2543942,0.09793362,-0.80865437,1.0174502,-0.2576979,-0.9210361,1.0166632,0.38264903,-0.75298816,0.023311976,0.40090966,0.07648316,-0.6048894,-0.20128158,-0.06032625,0.23983228,0.4456455,0.13734709,0.52214664,0.50065887,-0.8134936,-0.49727243,0.4228718,0.72925127,-0.861712,-0.5280545,-0.09273516,-0.14831796,0.39147523,0.91488236,-0.95396465,0.5545341,0.81522495,0.50227195,0.6343427,0.47677162,0.8848637,1.0387613,-0.79264396,1.0617099,-0.49633187],[-0.94280696,-0.17743215,-0.23339029,-0.7001022,0.279151,0.43307737,-0.90594137,-0.45366925,-0.17673476,0.52053607,-0.23044239,0.8815,0.2804856,-0.65852034,-0.63403624,0.6706485,0.28034487,0.45401162,0.8847931,0.30404386,0.75659204,-0.6775051,0.42086768,-0.19246413,-0.26539278,-0.64786595,0.17014311,-1.2246761,-0.81308955,-0.16675927,0.29041478,-0.8304651,0.103576206,-0.7532301,-0.19312936,1.0708494,-0.2372444,0.90043545,-0.4878742,0.91463125,-0.7090215,0.4217746,0.7438719,-0.27574334,0.74464834,0.8942073,0.090616114,0.41490707,1.0656943,-0.5564755,-0.6740719,0.45355892,0.6307494,1.0293689,0.7059047,-0.8204907,-0.68463457,-0.70789766,-0.40145785,-1.0157202,-0.6241742,-0.07354946,-0.34456825,0.5649327,-0.52767456],[0.8370189,0.18086998,0.9070056,-0.9850349,0.11736677,-0.7245645,0.57359993,0.94083685,0.5900472,0.933413,-0.034674514,-0.31615883,0.7622437,0.8831918,0.5074318,0.55385023,-0.93172324,0.95027643,-0.0702651,-0.4483261,-0.3442419,0.581943,-0.2032255,-0.6069772,-0.2788984,0.2961308,-0.5925154,-1.0286192,0.19917579,-0.80997026,-0.27690855,-0.35635146,-0.16384791,0.045424536,0.7478466,-0.63190144,0.124598965,0.7252539,0.36448464,0.3201771,-0.14356364,0.9542951,0.5411012,0.30299288,0.26128158,-0.4969712,0.5526566,-0.63972276,-0.3891676,0.9376843,-0.3008426,-0.8030811,0.060853984,0.052167077,-0.3782142,0.46037817,0.45497966,0.014150025,0.019822843,0.7597313,0.5662217,-0.33602342,-0.533495,0.61563605,-0.025010465],[0.9304396,-0.5990024,-0.57237893,-0.33942667,-0.94205195,-0.7797614,-0.96412474,0.03853702,0.8260464,-0.12379297,0.44301203,-0.3940446,-0.46652904,0.8601065,-0.2850172,0.165163,-1.1253864,-1.2031628,0.79969734,-0.42632142,0.34640232,0.7667589,0.13281989,-0.9182775,0.4400929,0.6310334,0.8693174,0.8541491,0.042561483,1.0227935,-0.085054725,-0.45274484,-0.160005,-0.77682495,-0.31091207,-0.30319855,-0.65695375,0.561804,-0.4495241,-0.090636194,0.97121584,0.99018395,0.9690261,-0.377503,-0.39636096,-0.69025385,0.8679564,0.26986966,1.1696038,-0.14580996,0.012067316,-0.75864094,0.41593915,-0.9049444,-0.0633129,0.736876,0.93222845,-0.9921286,0.2223356,-0.16553646,0.50301987,-0.26138678,0.18404518,-0.3780345,0.4128207],[0.29270384,0.6565434,0.24673127,-0.12340668,-0.29891372,-0.09584271,0.29154354,-0.31289148,0.5490085,-0.02636758,0.2288132,0.32534954,-1.0121034,-0.44939625,-0.30681673,-0.9172334,0.17211126,-0.4175043,0.024777804,-0.82838565,0.80244654,-0.9835312,0.34332752,0.8157995,-0.2833828,-0.1573432,0.48422188,0.35666046,0.5206735,-0.55433744,-0.8392005,0.030794194,-0.43458948,-0.4303854,0.72671,0.7702549,0.07671841,0.17054696,0.6135983,0.9568615,-0.890082,0.5641094,0.91966534,-0.2626939,0.76074666,-0.8079211,0.8091659,1.0310038,-0.548829,-0.6068374,0.11914709,0.9023852,0.69333524,0.53245735,-0.35755095,0.8414756,-0.41855916,0.5629702,1.0367728,-0.067138486,-0.15488435,-0.6637943,-0.5871862,0.69277084,0.6766617],[-0.48966613,0.77442163,0.35875478,0.21454819,-0.4930054,0.9633474,0.09039843,0.6535675,-0.28733638,-0.7430156,0.43154985,0.17064247,0.4497325,0.8268176,0.37979466,0.47470498,0.3453643,0.6612436,1.0482554,0.30355236,-0.7736032,0.43642914,-0.06119077,0.18243162,0.23113427,0.08777548,0.026577802,-1.0360177,0.015529539,-0.291901,-0.08938549,-0.37083206,0.5593264,-0.13546939,0.72436106,-0.90082926,-0.84657496,-0.04275071,-1.0008942,0.14478719,1.1496671,0.7255114,0.2664672,-0.2096187,0.6217588,0.7355983,0.88909906,0.6564223,-0.67111003,0.04536351,-0.5001211,0.37870347,-0.22370005,0.36761358,-0.4883814,-0.35313678,0.8561577,-0.9120073,-0.3824744,-0.3291406,0.63366205,-0.8545358,-0.97890836,-0.34632677,-0.80390936],[0.871245,0.23470595,-0.39814994,-0.19765395,0.9964079,-0.28985476,-0.8979781,0.23431404,-0.778864,-0.22190036,0.9497019,0.5807063,-0.5871243,-0.008230879,0.75059867,0.95535433,-0.63290155,0.4229268,-0.3225203,0.83687925,0.3747168,0.60880417,0.23304515,0.7779292,0.86815345,0.5007858,0.55699676,-0.4226979,0.3678063,0.747583,0.0019421738,-0.8283647,-0.35479084,-0.103604816,-0.6075011,-0.7520652,0.65230817,-0.22163998,-0.4699765,-0.279954,0.83107746,0.7094287,0.42240933,0.85594785,-0.83187383,-0.1673354,-0.54124135,0.6508035,0.65520024,0.25000188,-0.7178937,-0.89904344,0.8629426,0.17103456,0.51776475,0.084547035,0.53390366,0.5205748,0.84807247,0.79543924,-0.9379608,-0.2334076,-0.6027683,-0.6309799,0.27527595],[0.7169101,0.5088167,0.47830582,0.17451775,0.88823664,0.8165804,-0.7880481,-0.51860076,0.25754207,0.5831522,0.45090377,0.45933667,0.3791922,1.0089774,-0.8348631,0.2711919,-0.018508581,-0.65803653,0.91263634,0.23992904,-0.65545976,-0.28460452,0.8089436,0.71876717,-0.43731338,0.33754045,0.19920023,-0.722076,0.44844422,-0.31628025,-0.4688258,0.46745923,0.8285524,0.89926696,0.7021175,-0.8416512,0.8453919,-0.77246046,0.9564518,0.2656481,0.13838972,-0.82212645,0.90126455,0.15467402,-0.91273737,-0.30683756,0.49950153,0.09247564,-0.34908354,-0.07847935,-0.63483256,0.61540705,0.4512734,0.3760239,0.5373115,0.11130072,-0.14930347,-0.1349917,-0.7508712,0.5580823,-0.9463638,0.42672902,-0.45287764,0.22729622,-0.95349926],[-0.13145642,-0.6156449,0.8677953,0.379197,-0.6779244,0.75992537,1.1163814,0.8215649,-0.6276243,-0.025602791,-0.60872,-0.1737087,0.74042946,0.46163487,-0.48469758,-0.79181427,-0.7552789,0.28055423,0.8652657,-0.6575972,0.4535124,-0.49659657,0.40027943,-0.6747381,0.7367878,-0.9254676,0.49217215,0.022050207,0.98542076,0.32222474,0.23016627,-0.7150977,0.4528782,-1.1020033,-0.8737275,-1.0384558,-0.12547879,-0.87927663,-0.28425106,-0.8835098,-0.18658128,-0.92947,-0.9526754,-0.84020585,0.17079706,0.77491283,-0.73938686,-0.9457363,-0.12505157,0.48478937,-0.9636808,-0.13593692,0.4766724,0.7549888,0.54079115,0.19209631,0.43658042,0.453159,0.2950535,0.03182862,0.14996588,-0.46191156,-0.52650577,-0.50241196,-0.6259625],[-0.7299062,0.029586874,-0.7174722,0.45632526,0.9178146,0.40761817,0.034059037,0.8642266,-0.36008182,-0.3522043,0.3474406,0.41679543,-0.25683364,-1.0856661,-0.60303736,0.27336264,-0.49678275,0.12213241,0.46945035,0.09940544,-0.8239099,-0.15433522,-0.27325472,0.18261884,-0.60399634,0.48575714,-0.047959954,0.7296914,0.12411441,-0.99159724,-0.6223063,-0.82464427,-0.6307142,-0.8878294,0.6642777,0.5973011,0.12325749,-0.7470692,-0.9249742,-0.25392726,-0.44604263,0.53650194,0.70654845,-0.7807764,0.20926034,-0.6092429,0.09430181,0.67264694,0.8685089,0.0063675786,0.95130694,-0.50907,-0.8121391,-0.63305706,-0.94101036,-0.046610206,-0.34723237,-0.14496407,0.6954663,-0.8576122,0.012350843,0.76620823,-0.0666048,1.0832886,-0.036383823],[0.42772976,-0.52259785,-0.93193436,-0.20650801,0.5972975,-0.30719572,-0.588347,-0.7959382,-0.96212316,-0.48425707,-0.06694733,-0.9798542,0.7989686,0.16953212,-0.8049998,0.7689264,0.51164854,1.6024805,1.0674969,-0.14825271,-0.87984693,0.7678865,-0.01120391,-0.84783626,-0.29650167,0.7844953,0.3956195,0.23593518,0.74511915,0.6057084,1.0945517,0.70248246,0.9425782,0.4872741,-0.66486776,-1.1348696,-0.63745886,0.025435265,0.2749426,-0.9112268,1.2059665,1.0737288,-0.7578307,0.4433717,0.4826478,0.805976,-0.6789668,0.5161969,0.37185615,-0.7254863,-0.03131463,0.9145085,0.06424012,-0.4088715,-0.5109532,0.42583635,-1.1857322,0.35917437,0.48777413,-0.2549578,-0.76196915,-0.18902597,-1.0129707,0.2705188,-0.5023134],[-0.40459892,0.71388394,0.89177185,-0.4758173,0.24946697,-0.79802644,-0.1367692,0.12160996,0.036432847,0.63943535,0.20709734,0.9646287,0.021868728,0.981382,0.77955896,-0.06931243,0.46094343,-0.5068068,0.71949524,1.0240536,0.053277347,0.6450737,0.53258586,-0.73015994,0.47181198,-0.00024067517,0.1223195,-0.22381139,-0.4805003,-0.077721834,-0.053000253,0.51035285,0.5157667,0.32814193,-0.0037769165,-0.66968167,-0.543009,-0.23429172,-0.16277221,-0.64831036,0.5930554,-0.47529256,-0.036370248,0.5764789,0.44186458,-0.88898766,0.40278658,0.20320924,-0.8491131,0.98396206,0.86911094,-0.3600188,-0.38465157,-0.019252976,-0.31723627,-0.8557705,0.72807777,0.9083134,-0.07155866,-0.6153823,-1.0405447,0.50503474,-0.46266612,0.96715677,-0.40780735],[0.01799928,-0.46486273,0.45797327,0.8643334,-0.2566993,0.28501803,-0.26817936,-0.51771665,-0.48853457,-0.55654585,-0.06356017,-0.1638857,-0.52167505,-0.5682998,0.28602332,0.3919558,-0.06622176,-0.08452438,-0.4486903,-0.24168323,-0.5934703,-0.6161577,-0.6935918,0.82372963,-0.5728415,0.26936483,0.12764633,-0.589144,-0.75217617,-0.5838859,-0.5527814,-0.45313916,-1.0105475,-0.20836116,-0.96316165,-0.591996,0.19987406,0.43672052,-0.5863244,0.577689,-0.96661514,-0.2512831,-0.038259678,0.98885465,-0.3087507,0.39884773,-0.13011892,0.8882057,-0.087423876,-0.0053151557,-0.33900723,0.9673958,-0.6195769,-0.10066419,0.4644622,0.73554635,0.7648988,0.7590494,0.3009862,0.37073526,-0.0015553283,0.915141,-0.8204557,-0.6418183,-0.89480776],[0.8106587,-1.2494587,-0.52522045,-0.9255483,0.539643,0.6384239,-0.23067713,0.61185205,-0.4125573,0.6798571,-0.71440846,0.15204029,0.056344394,-1.0853899,-0.21001895,-0.033493172,0.80887926,-0.03225761,-0.54889613,-0.115990475,-0.27700248,0.16684875,0.31962666,0.5229797,0.84592783,-0.6438845,-0.32447952,-0.14895375,-0.13973477,-0.32025054,0.6433569,-0.7838961,-0.5114407,-0.7811294,-0.07202655,0.7493077,0.77001506,0.027262896,-0.75838387,-0.31910524,-0.20078526,0.21726546,0.43384612,0.40082425,0.40293363,0.8913415,0.47659096,0.7853474,0.5724103,0.05059303,-0.7141177,0.33891284,0.7568754,-0.6466707,0.2489244,-0.17690262,-0.8597147,0.2907046,-0.7557766,-0.7700862,0.75276554,-1.060979,-0.04514512,0.24000219,-0.04510602],[-0.65704566,0.7894852,-0.07105301,0.8527292,-0.8418256,-0.119435824,0.78070015,-0.10116144,1.2743568,-0.66409284,0.41643736,-0.86701626,-0.8417158,0.2726419,-0.3282253,0.42387888,-0.47520387,-0.9000972,0.3572498,-0.11767353,-0.13482893,-0.05000152,-0.3593513,-0.683988,0.57349205,-0.8366497,-0.88634396,0.035546973,0.19380485,0.9847657,-0.41335872,-0.46354577,0.122869395,-0.2066694,0.122963466,0.26591808,-0.7794085,-0.45859757,-1.0565752,0.5174283,0.06301753,-0.48255476,0.5231945,0.6814865,0.67040026,-0.6780001,0.9543009,-0.90122944,-0.6561942,-0.30685824,-0.34135178,0.28676745,0.82058483,0.17407143,-0.043689217,0.15980923,0.9308428,0.41723418,0.2375572,0.20645022,0.7030107,-0.5378144,0.7414836,-0.15693061,0.002024621],[-0.2759498,0.7249973,0.9032129,0.74201006,0.77221984,0.89346385,0.14601225,0.24990915,0.7985289,-0.18762921,0.17386924,0.3925392,-0.9204117,0.3001418,-0.08958562,0.052104983,-0.91118115,0.6222945,-0.87769634,-0.22030453,0.731195,-0.7680368,1.3334637,-0.45128375,-0.998201,0.8875779,0.36232248,-0.6424052,-0.36934912,0.32919803,-0.32579526,0.44624,0.7759127,0.39774635,-0.68465656,0.30626816,0.39172167,-0.73532146,0.5882779,0.80932707,-0.06738943,0.66697806,-0.0885398,-0.383468,-0.29796234,-0.6898357,-0.30175266,0.8574854,-1.0608073,-0.59389377,-0.5849857,0.78138626,-0.5695418,0.57056683,-0.21537301,0.7007104,-0.9946828,-0.59369963,0.18336238,-0.6215522,0.58870023,-0.15308762,-0.36340138,-0.493118,-0.8859083],[-0.41781142,-0.6124052,-0.029870274,-0.63708854,-0.18518509,0.51817423,-0.9499039,-0.6676466,-0.64898026,-0.10020858,-0.6778179,0.95928484,0.13809337,0.39646322,-0.649797,0.7043392,-0.09803895,0.3527594,0.70833933,-0.40785474,-0.28610316,0.30779698,-0.89227146,-0.15310477,0.46474966,-0.7530518,0.8612949,0.76620764,-0.034017082,-0.9999677,-0.11314601,-0.45330647,-0.15405458,0.88966876,0.15744612,-0.7488122,0.39761657,-0.08492527,0.04531592,0.4939723,-0.06037733,-0.8918048,-0.7791103,-0.6930395,0.74856925,0.099500336,-0.85575,-0.26072365,-0.877554,-0.79493624,-0.04798061,0.5610063,0.018316515,-0.5288297,0.51231945,0.8756203,-0.17463869,1.0102195,0.9939838,0.7304068,-0.082292795,-0.60162306,-0.29098144,-0.43610197,-0.035798144],[0.07795058,-0.34345585,-0.1845497,0.8911819,-0.81886923,-0.16191572,-0.4284356,0.8002435,0.51358944,0.698476,0.18105054,0.924003,-0.6816162,0.20274098,-0.060997766,-0.29527026,-0.02002154,0.12688868,-0.09271818,-0.4303554,0.25556827,-0.8095106,0.69737566,-0.34520176,0.6972741,0.6443806,1.0017644,0.08064134,0.54365784,0.43115127,-0.09026067,0.41370404,-0.5643971,0.769901,-0.4804489,0.18402547,0.62102234,-0.3880525,-0.93695265,-0.55353963,-0.85748106,0.78995025,0.30629903,0.95274097,0.631291,-0.8334471,-0.33684576,-0.80219716,0.8859066,0.97242314,0.94900525,-0.11618245,-0.9335714,0.19403663,-0.21967103,0.85214734,0.94920385,0.09840245,-0.7044181,-0.82354856,-0.25382054,0.99089134,-0.5407111,0.3798701,-0.3521092],[-0.415133,0.17105329,-0.045961175,0.08911747,-0.018123839,-0.23455563,-0.9241314,1.029997,-0.8148341,0.07583238,0.100826725,-0.68976724,-0.6482191,-0.5050891,-1.1626574,0.38521108,-0.13288908,-0.075354815,0.17527865,-0.30666253,0.88025427,0.40842095,-0.813556,0.79234093,-0.33891162,-0.31456903,0.22626367,0.08824767,-0.06531793,-0.576283,-0.32305285,0.94623744,0.16933148,-0.63317645,-0.7793262,0.32997233,1.1459066,0.2115714,0.061449274,-0.17472278,0.6918353,0.3564044,0.18558253,0.20266978,0.03064594,-0.8692774,0.23379505,0.28095314,-0.017723566,0.5646163,-0.6884596,-0.31631476,-0.48913288,-0.14628363,-0.5861306,-0.26960257,0.49496454,-0.15922533,0.71701187,1.052494,-0.35017595,0.029231466,0.55687004,-0.38059852,0.6318158],[-0.33363536,1.0474343,-0.64446294,0.48039275,-0.019510042,-0.18575828,-1.0428765,0.08637392,0.56834924,-0.7458309,0.1849164,-0.81141436,0.14450163,0.37714332,-0.049112607,-0.913195,0.0858561,0.70169806,1.0391885,-0.13607945,-0.7281513,-0.11401752,-0.55028087,0.10030873,0.9475453,-0.44598997,-0.36445165,0.47000486,-0.13086565,0.61224025,-0.64433885,0.85279673,0.46154395,0.22830664,1.0541595,0.48935902,0.4852269,-0.04601038,-0.7372824,0.9304939,-0.75576574,0.25337812,0.9393565,-0.3002351,0.26035324,0.31978735,1.08468,0.12352183,0.62708557,0.9310057,-0.23974378,-0.7281119,-0.34770346,-0.0084306,-0.8351219,-0.63121533,0.4684523,-0.9590374,0.4550216,0.9369384,-0.45125908,0.086606875,0.6208587,0.57404745,-0.72264063],[1.0642025,0.3758113,0.6056429,0.42209798,-0.20737827,0.51597977,-0.83727974,-0.28753915,-0.6928507,-0.2394376,0.91350454,-0.20950033,-0.66924596,-0.08261995,-0.6410046,0.011061511,-0.3658703,0.024644785,0.5767352,0.28504276,-0.8526551,-0.06464544,0.064694166,-0.67034984,0.7832606,-0.18438105,-0.3391328,0.9754878,0.9178917,-0.5523485,1.0302805,0.49462634,-0.3617555,-0.12384182,0.21046759,-0.62109226,0.27337235,0.9976813,-0.6410001,-0.16744825,0.68090516,-0.15563281,-0.09545055,1.1034247,-0.589658,0.31939086,0.21413498,0.93061084,0.16033946,0.8147223,-0.007964602,0.213081,-0.26497027,0.9146315,0.4142629,0.8914021,0.7294885,0.6599906,-0.6820623,-0.61749506,-0.36932462,-0.9533714,0.41435507,0.06583401,-0.51495194],[-0.33714628,0.35652146,-0.3063515,-0.90585023,-0.06940008,-0.18263191,-0.7701044,0.5513603,-0.26942688,0.5281431,-0.25517192,-0.46048677,0.49053752,0.2064145,-0.6598735,0.82036316,-0.81912243,-0.11985198,-0.043872133,-0.76906914,0.4112623,-0.97800404,0.5366845,0.0501405,-0.024152476,0.56861573,0.5079028,0.47401813,-0.6352861,-0.70265067,0.24111097,-0.07521731,-0.7749989,-0.9975893,0.16856864,-0.3017165,-0.08815607,-0.990034,0.08941777,-0.9273353,-0.3539999,-0.28176737,-0.8339587,0.5156945,-0.4361015,-0.9674104,-0.48941678,-0.20033239,0.28681237,0.5536885,0.3930821,0.6025239,0.2703698,0.95402175,0.91831553,-0.021060973,-0.7299945,0.040331785,-0.3380875,-0.58489287,0.7881732,-0.07092686,-0.34916547,0.9579606,-0.21522905],[0.54815745,-0.01068349,-0.06780602,-0.8752377,-0.9859042,-0.23769206,0.20232709,0.1395844,0.4354934,-0.45207337,0.16644064,-0.9144848,0.09869917,-0.1546355,-0.9411372,-0.22431017,0.21958067,-0.71082175,-0.036276966,0.64761555,0.8918284,-0.2841627,-0.3778267,0.5696427,-0.67555976,-0.9759554,0.17864847,0.0052092294,-1.0054895,0.119011685,-0.4886097,-0.6080459,0.9704063,-0.034198903,-0.68512845,-0.6188676,0.3918878,-0.9769427,0.43166792,-0.87077403,-0.22170252,0.20763525,-0.17938553,-0.4224687,-0.293976,-0.00094735133,-0.30830145,-0.77624047,0.6650528,-0.78697926,-0.89110744,0.13207595,0.6998779,-0.8964911,-0.88816845,0.709491,-0.8758767,0.49034685,0.29688957,-0.060991883,0.69356364,0.50685334,-0.8107489,0.64075124,0.37772772],[0.37900785,-0.8756212,-0.04213618,0.32223272,-0.6222659,-0.7164438,0.81945884,-0.36991674,0.122294426,0.88631505,0.8652169,-0.7969949,0.82680357,1.0691626,0.46741325,-0.8261872,0.58221245,-0.7521274,-0.015686339,-0.8592467,0.25647172,1.0283617,0.65427595,-0.24113522,-0.5463402,-0.67510885,-1.0837612,-0.09424288,0.92760545,-0.119361416,0.50635636,-1.043828,0.5510771,0.6436258,-0.039918933,0.9024802,0.99456495,-0.477871,0.93343645,-0.73467755,-1.0167848,-0.96857923,-0.32665876,0.021578303,1.0137249,0.8609359,0.64344245,-0.63343495,-0.19631606,-0.8191312,-0.61180574,0.56545275,0.8618568,0.82281125,0.44969586,0.062384482,-0.81907403,0.6998143,-1.1924552,0.13165608,-0.31040436,0.855007,0.76998997,0.17662792,-0.062995695],[-0.3710972,0.9596,0.88379186,-0.67458004,-0.34647778,-0.5993437,0.9039984,0.28959334,-0.6023174,-0.2526969,-0.66835326,-0.25299776,0.208398,0.8586819,0.51956165,-0.5324222,0.3443151,0.11850648,0.60117024,0.4693795,-0.17983314,0.8934848,0.8261039,-0.7844078,1.0336168,-0.56344163,0.4865052,-0.29917642,0.40811893,0.14066462,-0.033592876,0.20079726,0.24099116,0.4155245,-0.23556161,0.2446435,0.9753731,0.5568592,-0.43701798,-0.8911229,-0.43724155,-0.5082039,-0.6263691,0.06893111,0.7765476,-1.0312597,0.49914446,0.910792,-0.13477787,-0.5499244,0.75373137,-0.9436763,0.15518509,0.7639027,0.91195357,-0.3751695,-0.65904015,-0.024068642,0.053524856,-0.1727629,0.30878288,0.16103773,-0.19149654,0.21514234,-0.73461664],[0.3641875,-0.8232036,-0.45873314,0.576188,0.26383114,0.89053166,1.0288005,0.08167972,0.7009423,0.9812588,-0.57437414,0.7018547,-0.9209388,0.6000735,0.3679665,-0.11007761,0.51727295,0.3386017,-0.07376088,-0.32904968,-0.21112452,0.7342065,0.5583513,-0.2837872,-0.6332632,-0.4991415,0.31900793,0.9112869,0.5008433,0.108841635,0.9530303,-0.63343006,-0.67242116,0.30258748,0.5657639,0.6956993,-0.82950926,-0.20148699,-0.18475845,0.38289315,0.5792889,0.65203995,-0.17582367,-0.7731036,-0.54439056,-0.0046506426,0.21503882,0.74603486,-0.42153198,0.755757,-0.6865832,-0.38492858,-0.26819867,-0.52910775,-0.9724562,-0.605412,0.3110074,0.76444083,-0.18084426,0.9891427,-0.1765177,-0.34643114,0.38671997,0.8422565,-0.9695713],[-0.3037786,-0.76422197,1.1061536,0.19652423,-0.21197373,1.0018294,1.13892,-0.08606003,-0.43886256,0.07216592,0.7764157,-0.6476773,-0.5869777,-0.19281767,0.88937014,-0.8064485,-0.5940834,0.32983696,1.0773363,-0.44732976,0.41961616,0.20384105,0.78944236,0.05673322,0.113575816,0.16150934,0.25339395,-0.18549411,0.43010804,1.0128617,-0.14198203,-0.8191568,0.9154337,-0.9775818,-0.9704483,0.18915471,-0.7957978,0.23933871,-0.9398776,0.010822519,-0.31828508,1.055009,1.0171223,0.18380658,-0.5427882,-0.79908997,-0.2942617,0.8539201,-0.45316514,-0.5210134,-0.9220412,-0.5985449,-0.47901666,-0.67981285,-1.1394157,0.31398115,0.7721857,0.82417786,0.3280199,-0.1904843,-0.2729156,-0.8387289,-0.6505186,0.75945413,0.5529941],[-0.3218015,0.7337259,-0.08399003,0.7148339,0.8426705,0.8017008,-0.18658704,0.8920193,-0.37706688,0.029829085,0.121235214,0.0405688,0.90807694,0.18240474,-0.7107989,0.87807703,0.6259245,-0.7685002,0.3707324,0.59009326,0.4000278,-0.14634687,-0.83002496,-0.5301456,0.93894035,-0.099001,-0.7269336,-0.96999896,0.18565738,0.3210888,0.14439507,-0.7542713,0.5894502,0.7263801,0.030776335,-0.86890286,-0.28722683,-0.091449864,0.8797994,0.65402883,0.5534401,1.013545,0.7776621,-0.05899384,-0.67805356,0.93353134,-0.9652204,-0.40261623,0.84986156,-0.14108996,-0.87061954,-0.063673265,0.8369219,-0.26212,-0.49239314,0.2883141,0.76131874,0.326793,0.18179952,-0.84791034,-0.7851898,0.368554,0.055303745,0.840157,-0.054552022],[-0.06865569,0.3828204,0.7474312,-0.43559447,-0.31239706,-0.751148,-0.3992973,-0.4505207,0.035061914,0.558035,-1.130777,-0.36522922,0.39379305,0.6288234,-0.87256515,0.5943451,0.21072431,-0.009814219,0.8460698,-0.83631444,-0.555744,0.9245315,-0.53324765,1.3964975,0.3347176,-0.58858824,-0.47587392,-0.062980175,-0.8090936,-0.8173963,-0.7349489,0.9092941,0.5688521,0.88144106,-0.38575277,-0.2881929,0.16961999,-0.2479259,-0.63167125,-0.5592188,-0.3376306,0.61037415,-0.27596536,-0.21610637,-0.8109514,0.794351,0.3266488,-0.25846827,0.72038877,-0.96843624,0.14388356,0.21118498,-0.7458412,-0.48320365,0.71805197,0.98756623,0.44506627,1.0582455,0.66326916,-0.9038145,-0.0394909,-0.96969205,-0.39844543,0.9381534,-0.6260932],[0.24978311,0.6809617,-0.5583762,0.015759,-0.27497867,-0.33850193,-0.78111327,0.9476722,-0.28832462,0.34480825,-0.7266771,-0.5941195,-0.5180167,0.79031706,-0.35716602,-0.39310166,-0.0087861,-0.785882,-0.5935092,0.39922312,-0.044570528,-0.5900544,0.19524738,0.5083505,0.28291172,0.31278476,0.8651058,-0.7339741,0.17662679,-0.13485214,1.1242604,-1.086304,0.10911723,0.37411323,0.6202179,-0.44865268,0.518884,0.020546138,0.8635213,0.42710364,-0.36009294,0.24642481,0.69175243,0.43154576,-0.92995054,0.7037217,-0.9186169,0.38175175,-0.83010125,-0.20906407,-0.6235614,0.7481218,0.6650613,0.9059012,0.561981,-0.70328665,-0.5832656,-0.3030793,-0.35813004,-1.0628005,-0.8767341,-0.66534203,0.4980691,0.6303821,-0.16717753]],[[-0.8045988,0.14482689,0.6033797,-0.13046813,0.72564936,-0.36246347,-0.9920397,-0.12254906,0.5905392,-0.1839273,-0.13713026,0.7522268,-0.03860855,0.7102425,0.11099386,0.80490375,0.6603973,-0.1446929,0.20748687,0.6258886,-0.37026668,-0.67780685,-0.80903435,-0.74200964,-0.61730075,0.35912132,-0.3048408,0.2724738,0.3614092,0.11320853,0.49291015,0.22446704,-0.1546681,0.19884992,0.45231938,-0.16395235,-0.13459826,-0.7953892,-0.29705954,-0.019770622,0.69136405,-0.37011456,-0.38520432,-0.6976507,-0.06418204,0.57634807,-0.4877038,-0.010027647,0.6909971,-0.8607273,-0.05609083,0.5324578,-0.5680511,0.27627563,0.3838582,-0.3290429,0.3349824,-0.8178029,0.1848557,-0.08645415,-0.19001889,-0.770138,-0.29690313,0.2932217,0.59671855,-0.10839224,-0.8663471,-0.72529626,-0.820456,-0.4465015,0.010900497,0.15623236,-0.17284775,-0.5912893,-0.87595487,-0.3495798,0.3468268,0.39290905,-0.41947436,-0.26066113,-0.7837653,-0.23728871,-0.40887237,0.79502463,-0.43152165,-0.12763,-0.20837355,-0.038223505,0.6496756,-0.8560381,0.8419988,-0.14792204,-0.2323432,-0.52078676,0.27004337,-0.7877369,-0.39698887],[-0.63221866,0.5568113,-0.18016131,0.038281962,-0.07809524,-0.74463665,-0.9013856,-0.5260681,-0.28784472,0.6636964,0.68152577,0.9716306,0.64260167,-0.34296986,-0.65745956,0.24456607,0.2740341,-0.20867643,-0.7303065,0.2475289,0.29124185,-0.23655555,-0.6452357,-0.5391371,-0.44679502,-0.8717867,-0.36695936,0.8971409,-0.50576764,-0.7635904,-0.3590267,-0.61964065,0.4687717,-0.731562,0.49666062,-0.73491406,0.35108078,0.49859965,-0.34994018,0.75764924,0.8912242,-0.014948803,-0.58991766,-0.4654512,0.9393215,0.27438408,-0.8539876,0.17999773,-0.5418446,-0.1499409,0.9412081,-0.7476929,0.953528,-0.097307794,-0.94534385,-0.95306927,-0.042202298,0.7387435,0.59925777,-0.021100678,0.40470296,-0.24985528,-0.0982014,-0.5979319,0.40478358,-0.5628829,-0.08583227,0.15753466,-0.42880756,-0.33478907,-0.78780055,-0.36202282,-0.8352519,0.13296244,-0.8997077,0.6627517,-0.48359877,-1.0911028,0.5772832,-0.85972184,-0.5554499,-0.1670578,-0.02553638,0.3985083,-0.46757692,-0.19795737,0.82032317,0.1876246,-0.17660253,0.70294833,-0.39636165,-0.45162132,0.12490823,-0.4472514,-0.1471534,-0.19360106,-0.8171586],[0.33248177,-0.54068846,0.29348543,0.9626283,-0.09355009,0.72466993,-0.6164296,-0.8527691,-0.44096872,-0.28156748,-0.17046534,0.42049405,0.99847513,0.8614245,-0.2066241,-0.37562427,-0.7437826,-0.14204347,0.6768932,0.08324757,1.1787173,-0.14417922,-0.43202826,0.82589346,-0.24137788,0.88538736,0.14873382,-0.51426995,-0.43166414,0.9939949,-0.5250936,-1.0200049,-0.7997098,-0.18964279,-1.0630679,0.22197519,0.53012174,-1.050251,-0.78756315,-0.9636137,0.21953742,-0.3606723,-0.298459,0.37335244,0.31539702,-0.8450926,0.31613666,0.9158418,0.5228796,-0.4799229,-0.5887859,0.92695,0.02107283,-0.4422492,-0.13083579,0.66191727,-0.79696274,-0.017482746,-0.9768711,-0.85667354,-0.39807934,0.09229386,0.78853387,-0.83573467,0.1749454,-0.71941566,-0.29336858,0.13134362,-0.98083115,-0.77834284,-0.25428855,-0.048193138,0.35721576,-0.3361173,0.8154934,0.47088557,-0.051792376,1.1940188,0.5616679,-0.68851155,0.47410247,0.46182752,0.77673846,-0.37328765,0.45798916,-0.036054697,-0.3017397,0.5411326,0.3538934,-0.6828706,-0.34003118,-0.06474048,0.2884936,0.76045185,-0.076861024,-0.0026263888,0.71921104],[0.43216366,-0.94276685,0.064886466,0.80761385,0.6624709,-0.35604903,-0.88995296,-0.7878444,-0.9643997,-0.88352996,0.012885181,0.15171975,-0.66753525,-0.44998482,-0.10023925,-0.721259,0.3377829,1.4566661,0.016925698,0.3548543,-1.1014411,0.5484932,0.4780602,-0.8407852,0.4939392,-0.102330774,-1.0328496,-0.13961485,-0.5773462,0.5690304,0.06699253,0.39877445,-0.909884,0.69935673,-0.680009,-0.01975773,0.06279528,-0.60043216,-1.3441975,0.80453426,-0.7788452,0.03234386,0.49952826,0.18599232,-0.031883325,0.8694918,-0.5508741,0.89879304,0.23684604,-0.009306742,-0.60794216,-0.19183803,1.2191898,0.70552266,1.0220516,-0.63803744,0.08994424,0.94447315,-0.020069825,-0.35813498,-0.05285964,0.11705235,-1.2017754,-0.6778804,-0.8345753,-0.67687255,0.5495151,-0.28573447,0.5519406,-0.82661134,-0.5694537,0.6109506,0.5470844,0.18028735,0.9598806,-0.7738271,0.027224643,0.9632687,0.5285959,-0.70477355,0.19435993,0.31740162,-0.7268401,-0.3617058,-0.29310867,-0.73329204,0.40148184,-0.8852843,-0.29707855,0.26951227,-0.25168616,0.47483113,0.34509328,0.25711903,0.9138839,1.0332572,-0.57592773],[0.45346177,-0.33202082,0.84857845,0.15643963,0.8912148,-0.45516297,-0.9256133,-0.2057469,-0.18161584,-0.18981543,-0.8327969,-0.34022465,0.62688863,0.7299866,-0.8151869,0.6248344,-0.28477767,-0.63600725,-0.89274895,-0.5017336,0.21356402,0.22191508,-0.23950699,0.28635383,-1.0691711,-0.66547996,0.48860458,0.7797887,0.9056286,0.34430552,0.54230833,-0.833626,0.23354378,0.6294534,-0.5064023,0.855583,-0.2831619,-1.048296,0.7436173,-0.32010725,0.0059245466,-0.3517539,0.07546149,-0.6067674,0.10726153,-0.55001396,0.617673,0.10263214,0.29092285,0.548504,-0.9644442,-0.76912564,-0.7744014,-0.4325693,-0.35448796,0.008480778,-0.0027739191,0.0052152267,0.96448255,0.017633243,0.7993273,0.046696607,0.24464794,1.0531651,-0.6277818,0.47824824,-0.54105914,0.3272182,-0.06659517,-0.8400162,0.11198747,-0.3068741,-0.07288485,-0.4079189,0.43212286,-0.78165483,0.82044023,0.003545598,0.9597143,-0.923806,-0.5545122,0.07840994,-0.38720345,0.92198694,1.001328,-0.7811413,-0.060854867,-0.3857596,-1.0023679,0.85250854,0.73694396,-0.42610404,-0.76534706,-0.52608824,-0.44746342,-0.4355488,-0.81966317],[0.7882034,0.8397733,0.77725977,0.19331136,0.29789725,0.7348947,0.14661416,0.59218115,-0.03781212,0.51060927,-0.05786833,-0.5766679,0.06423097,-0.7815856,-0.6732188,-1.0167079,0.0012814514,0.46922603,-0.48298788,0.7828197,0.8647081,-0.4118989,0.1956078,0.8985233,0.76434374,0.13100149,0.12200264,0.09410773,-0.7795351,0.017074412,0.21624765,0.2787811,-0.00077442324,-0.15834804,-0.35774702,-0.024196602,0.11569077,0.8554519,-0.78476125,0.84648675,-0.5335608,0.73766315,0.121505864,-0.3965018,-0.57090366,0.5244808,-0.23727602,0.7808608,0.7318816,-0.45170143,0.11086371,-0.9489131,-0.5123294,0.07475473,-0.086921886,0.14020865,-0.7063702,-0.61718696,0.74238265,-0.10803236,-0.8248817,-0.67260355,0.47510839,0.05585156,0.021261603,-0.7573007,0.21794389,-0.50829947,0.9405191,-0.8833126,-0.3350355,-1.0240096,0.96222746,0.07101664,-0.8965753,-0.8678746,0.6687712,0.9015176,0.07157787,-0.5439518,0.661998,0.7815056,0.56004304,0.72981346,-0.6910776,-0.30739665,0.7838068,-0.13593535,-0.5250348,0.5435117,-0.97056,-0.9865733,0.81491476,0.9741397,0.034653906,0.19739711,0.8406435],[-0.29638693,0.27802855,-0.8574254,0.58499914,-0.76108503,0.5643888,-0.32689646,0.023925312,-0.16781302,0.3212818,0.7903815,1.3589387,0.6346856,-0.6761006,0.5579072,0.85259694,0.7324493,-0.0014984413,-0.40390965,-0.33567432,-0.07340988,0.02819292,-0.7217744,-0.32485977,0.4705264,0.5072372,0.29719433,0.38148722,0.70828885,0.6749945,0.033221096,0.8172342,-0.24065167,-0.98129773,-0.0905401,-0.21383701,-0.13463363,0.5901779,0.4435054,0.50830936,0.90154785,0.4081927,1.119426,-1.0325855,0.035360523,-0.74624795,-0.6054231,-0.2334708,-0.3496304,0.8263059,0.68483293,-0.8258594,0.46455175,-1.2419969,-0.76034313,0.8625179,0.77120143,0.29979062,0.019118909,-0.5361123,-0.020880999,-0.48232582,-0.12923639,-0.7093993,0.06777932,0.7259822,-0.29556584,-1.2671349,0.8461621,0.637584,0.46511242,-0.55582654,-0.21722086,0.30253536,0.009858487,0.035626817,-0.40254214,-0.5002757,-0.059748773,0.34664845,0.32509726,0.59745854,-0.7813214,-0.020234311,0.060900033,1.0478345,0.3955305,0.7286577,0.21938021,-0.68137485,-0.4411416,0.5857019,-0.2401044,-0.020830903,0.10142725,-0.81235605,1.0371141],[0.122952335,-0.71008,0.5663703,0.64686215,0.38551843,0.025704512,0.9254459,0.86312556,-0.46735674,-0.89538234,0.9813595,-0.6013889,0.5154292,-0.8237308,-0.9820281,0.12185001,-0.89606315,0.13090691,0.10783858,-0.9106231,-0.5513375,0.55928475,0.6029493,-0.9612169,-0.8511998,-0.73209095,0.72108805,-0.2668366,-0.3262109,-0.16965362,0.26229548,-0.62349194,0.77138925,-0.4652257,-0.9083449,-0.5593689,0.7710294,0.8035571,0.58888274,-0.2615848,-0.432491,0.1329914,0.4039486,-0.20365842,-0.27873924,-0.99932075,-0.26802865,-0.6593845,-0.40993842,0.70503443,-0.6111197,-0.25776058,0.20305696,-0.7366491,-0.2149369,-0.17581317,0.8351687,-0.077281,0.3511236,-0.21824138,-0.13084672,0.7290475,0.46972895,-0.23486474,0.43419403,0.6855921,-0.44859818,0.6705992,-0.7680907,0.46499306,-0.20994543,-0.24053076,0.91443974,-0.76813775,0.082563825,0.37219608,0.52394664,0.39612052,0.799621,-0.2932353,-0.7530087,-0.09682782,0.31066614,-0.088842444,-0.37606576,0.5446139,-0.4215865,-0.7213761,0.028184436,0.50238496,-0.6746557,-0.026386812,-0.50463223,-0.51586026,-0.87178475,0.80643535,0.7092752],[0.68532026,0.6914848,-0.756778,0.57729906,-0.4561167,0.86927974,-0.6636589,-0.6347689,-0.5371647,0.37682578,-0.69445115,0.36459333,0.5898226,0.7739502,0.40487063,-0.16204712,0.5688438,0.7428102,0.079972565,-0.9312818,0.7104787,-0.7236362,0.4098622,-0.13866538,0.022046661,-0.7888314,-0.04314788,-0.31763944,0.027970716,0.16349007,-0.94550073,-0.29822317,0.8403949,0.24955791,-0.1418306,-0.054694586,-0.9471321,-0.44622433,-0.07935596,0.69292146,-0.67374617,0.7133961,-0.7781406,0.8307789,0.7583067,-0.2012714,-0.4784638,0.3326589,0.86819,-0.53262705,0.13534191,-0.36658776,-0.5226367,0.5085122,0.28760067,-0.16612841,0.74231523,-0.9408903,0.7481033,-0.05016958,0.27224976,-0.46549848,-0.6694152,-0.71905637,0.6459523,0.39167264,-0.5311931,-0.75574845,0.505454,-0.2218769,-0.39695525,0.60056674,0.9694262,-0.24479455,-0.35422432,-0.179421,-0.5093304,-0.2740226,-0.5150493,-0.91368985,-0.20603946,0.86801624,-0.4817772,0.9714562,-0.6872777,-0.7875689,0.8867414,-0.5239882,0.9504571,-0.18986142,0.7716415,-0.25116953,0.3847228,-0.473313,0.8714197,0.65540415,0.82540375],[0.67454237,-0.49811187,-0.72161114,-0.70956004,0.42688802,0.6933023,-0.539331,0.25369158,-0.6042845,-0.95467764,-0.3476898,-0.7782999,0.89457625,0.67138195,0.10519458,0.3192674,0.6809097,-0.66198415,-0.7144535,0.27794534,-0.29156396,0.34198692,0.93969417,-0.80761445,0.113592,-0.73606926,-0.0062511973,0.073207654,-0.45931143,0.12010708,-0.600174,-0.60629094,0.008070674,0.18741207,0.40964836,0.12939985,-0.40745273,0.9919792,-0.642654,0.8521589,-0.5467419,0.29596204,0.73361003,0.61571175,0.90949863,-0.5512445,-0.27234945,-0.715656,0.28071317,-0.7437459,0.2606407,-0.9850095,0.20912352,-0.031660788,-0.6187146,0.72447515,0.6841824,0.89865434,0.32287276,-0.061585035,-0.26857027,0.50923055,0.3058686,-0.6700903,-0.6930524,-0.5675439,0.8773994,0.6121568,0.58748037,0.47394872,-1.0011879,-0.47062662,0.5746121,0.35601488,0.9045734,0.77956927,-0.21972024,-0.24425481,-0.20228398,0.60476726,-0.16247402,0.48228163,0.39045578,-0.87973464,0.021191621,0.41586465,-0.29865137,-0.5085244,-0.6483398,0.16266917,-0.74565965,-0.89298165,0.019108362,0.4913846,0.8549531,0.74910873,0.11697664],[-0.55832994,0.86897904,0.03599591,-0.95358557,0.7432156,-0.42576984,0.51260775,-0.4006413,-0.69711494,1.2977036,0.5618835,0.73439413,0.34528473,-0.96754646,-0.60390127,-0.35620472,-0.85400486,-0.7396228,0.49320903,0.45400828,-0.12955393,-0.2157253,-0.41391116,-0.7114523,-0.20292343,-0.14418396,0.7739692,-0.81535536,-0.124179535,0.15477346,-1.4084933,1.159195,0.4100741,1.0322393,-0.6919944,-0.9428154,0.83095324,0.33641538,-0.4309149,0.67840725,-0.62750083,1.0899578,-0.64309853,-1.1587204,0.34925574,-0.6114631,-0.34792066,0.022276351,-0.7652252,-0.58018976,0.016945167,0.58886164,1.1322556,-0.24035506,0.5788508,-0.13752142,1.0155562,-0.8851381,-0.443002,-0.6344325,0.8434957,0.94164896,-0.14006612,0.19134654,-0.47845924,0.3435631,0.5802601,-0.75151277,0.40875846,-0.23565845,-0.5732297,0.2007713,0.5989991,-0.22060588,0.3326151,0.7344488,0.7897313,1.3436496,0.15545668,-0.2314575,-0.46168756,-0.79968905,-1.0675198,0.03553798,-0.74259424,0.24675263,-0.15151845,0.8509297,0.8248462,-0.37525153,-1.17463,-0.20671384,0.18802516,-0.03520152,0.097213306,0.4193289,0.7539433],[0.21043618,-0.46780604,-0.96611995,-0.23804547,0.9611319,-0.8056275,-0.5978974,-0.26164633,0.9127391,-0.17221951,0.37143084,-0.87951946,0.18269695,0.97280943,0.78429884,-0.028036186,0.38494405,0.1139636,0.8252424,0.6413677,0.6614593,0.78059167,-0.9693659,0.033862382,0.8093507,-0.11042532,-0.047255,0.17378296,0.66239804,0.6815951,0.4820341,0.45104033,0.61376375,0.69471604,0.7799407,-0.72722757,-0.5963602,-0.97037476,-0.09997946,0.9206639,-0.2388698,0.4256918,-0.7309032,0.6871479,0.014350294,-0.31529906,-0.8694356,-0.29314798,-0.9190668,-0.8225424,0.9064448,0.26179048,-0.6840552,-0.56544185,-0.6208741,0.0039686803,0.0026703964,-0.92140055,-0.36721075,-0.40946156,0.8933875,-0.40225473,-0.20677428,-0.20307381,-0.21117362,-0.9167035,-0.20276637,-0.7598793,-0.84360635,-0.37689096,0.7208153,0.8423051,0.39963636,0.41213167,0.1989789,-0.015788144,-0.9339509,0.8511276,-0.16615385,0.108622395,0.75211114,0.19835576,1.0031948,-0.29719585,0.65193933,-0.5956209,-0.34711042,0.85552675,0.8529973,-0.9574627,0.61865854,-0.5180969,-0.96331495,0.8786876,0.20167966,0.80169964,0.84873813],[-0.95488834,0.58033067,-0.6076352,-0.7050635,-0.18810886,-0.11804614,-0.8041378,0.71364975,0.97765726,-0.1898378,-0.90854365,-0.9745563,-0.76605046,1.0711979,-0.563061,-0.051432848,0.17347157,-0.79783523,0.30139866,0.038811468,-0.32100207,0.9242415,-0.21153705,0.4713402,0.07870574,-0.27774978,-0.554732,-0.88916796,0.07062613,0.24050692,-0.09315313,0.8846876,0.5124537,-0.7230407,0.69547886,-0.06264277,-0.88670516,-0.21458974,0.94666505,0.080840915,0.577609,-0.70049787,-0.64781237,0.06205649,-0.3823725,0.531233,-0.6323339,-0.25166863,-0.24941345,0.24954022,-0.046635747,-0.27446127,-0.7826858,0.39173856,-0.8451386,0.47938126,0.91447836,0.8105328,0.9575694,-0.5981335,0.5665721,-0.80615693,0.285193,0.37934905,0.24184898,0.9655125,-0.5813159,0.4917319,-0.22199394,0.49034378,0.2344223,0.81275,-0.16185975,-0.47685912,0.58358353,-0.15071104,-0.02459804,0.23761587,-0.7455834,-0.4616279,-0.98656934,0.22476862,-0.8332451,-0.5111621,0.8807882,0.3080179,0.71089715,1.0164372,-0.942234,-0.91105694,-0.9326011,0.3984581,-0.14169098,-0.83524454,0.6856063,-0.7335587,-0.6869936],[0.6991874,0.83765185,0.98089933,-0.14955476,-0.0968469,-0.34205207,0.47041216,-0.54877615,0.7718632,0.8940946,0.54135674,-0.73123556,0.6536585,-0.98317194,0.695016,0.04592336,-0.85531217,-0.50744593,0.9741681,-0.86019313,0.7840006,-0.74719286,-0.115142554,0.30582917,-0.61481756,-0.8525186,-0.51655376,0.8181679,0.22149582,0.8951053,-0.3925701,-0.7449154,-0.66637444,-0.18116823,0.05281577,0.9556218,0.51988786,0.7670079,-0.6579592,0.6782994,0.3329385,0.059463933,-0.69222397,-0.3545236,-0.66386396,0.09970688,-0.87207025,0.9202145,-0.43174466,0.86025035,0.22800457,0.5195535,-0.49398923,-0.93217736,-0.98016924,-0.4789085,0.8439981,0.3880226,-0.4111417,-0.06563239,0.26573184,-0.6094991,0.32836685,-0.024150485,0.3413247,-0.16604203,0.15124287,0.72072583,0.58729666,0.3040952,0.50554645,-0.8340056,0.792489,0.92043465,0.83782226,-0.22451745,0.87634903,-0.37948146,0.6182031,0.05038348,0.99521667,-0.663532,0.4513924,-0.6813603,0.54248166,-0.4932979,0.7590563,-1.0848681,-0.4448803,-0.83023965,0.8758536,-0.7206111,0.88916874,0.45831966,-0.022580586,0.60702574,-0.714702],[-0.68294495,-0.00030117983,0.25892603,-0.8881816,-1.0056285,0.5220211,0.44024083,0.5940215,0.29791108,-0.5698971,0.33601305,0.8310045,-0.7748568,-0.40991282,-0.28125972,0.71405715,-0.95118403,0.36807653,0.72558886,0.27192277,0.8843468,0.9093476,1.0517561,-0.54553455,-0.062033925,-0.12307804,-0.22719298,-0.75470567,0.7496491,-0.7361639,-0.70844597,-0.049064685,0.18372865,-0.3336293,-0.25336504,0.5114609,-0.18070929,-0.7082887,0.2612484,-0.7926466,-0.20801501,0.4033287,0.5857037,0.8816619,0.56394935,-0.074682906,-0.7333483,0.010013489,0.77344805,0.6302648,0.33984536,0.8225204,-0.52746296,0.769927,1.0203961,0.23936495,-0.6793362,-0.70596147,0.6176215,0.5467334,0.270617,0.73985845,0.78391707,-0.5634568,0.47340956,0.5566663,0.37506044,-0.08127594,0.8956168,0.35381848,-0.074739076,0.3495747,0.55289096,0.6659472,0.32669282,-1.0111513,-0.66825104,0.69482934,-0.29658282,-0.47643882,-0.5576726,0.68478966,0.47816125,0.23034981,0.70660186,-0.69638747,0.50677776,0.59899735,0.20774205,0.010850504,0.92525685,0.76440984,0.012453993,0.69796354,-0.031149356,0.40354976,-0.12730432],[-0.489813,0.15589838,0.6854554,-0.74759585,0.7394853,0.26751107,-0.65166044,-0.79848194,-0.93165684,0.52640796,0.30224288,0.5848725,-0.8078568,0.45779356,0.81435806,-0.27626678,0.10429434,0.0670706,-0.23789008,0.5792063,0.7000595,-0.35106057,1.0691926,0.9633964,0.88534534,0.43952549,-0.66422516,-0.39866406,-0.21857212,0.26785493,0.12067499,0.5762027,0.059066452,-0.5752445,-0.4718355,-0.017062549,-0.86701554,0.95306087,0.6566365,0.5984094,-0.5241823,-0.21526356,0.6011456,0.79719424,-0.3309465,0.25518656,0.33527026,0.33887166,-0.0139996335,0.4111244,-0.52818936,-0.5879751,0.6806701,-0.5848057,0.24905731,0.8620204,-0.42969382,-0.85447234,-0.9247901,0.6805259,0.19548537,-0.65872794,-0.1997244,0.9426484,0.29097793,0.03727395,0.27531946,-0.63816804,0.0028576185,-0.80407774,0.9094396,0.58826005,0.29135326,0.63311493,-0.1728234,0.16742454,0.8363905,-0.6296331,0.7584709,-0.88220346,0.82254976,0.17790025,-1.0187681,-0.8642412,-0.51368153,-0.50422436,0.6260191,0.8489681,-0.45966837,-0.73741907,-0.74915415,-0.39574578,0.90870774,1.1344454,0.27873993,-0.7390262,0.15821412],[0.43096232,-0.8549571,-0.07225668,0.016752366,-0.33100694,0.3139819,-0.39423698,-0.84320366,-0.55185086,0.30449206,0.024330905,-0.34408164,0.8336196,0.6831623,-0.8045452,0.059362497,-0.23637109,-0.7348174,-0.4907122,-0.6179774,-0.56047046,0.7182687,0.7645351,-0.6232232,0.6126746,1.0199444,0.7459963,-0.042817503,-0.14597994,-0.77223366,0.31831187,-0.9015742,0.5360488,0.17404433,0.4058787,0.27991578,-0.83570236,0.28663132,-0.098865606,-0.78858054,0.688449,0.26202095,0.9188477,0.95762765,0.20982803,0.19017723,-0.07561788,-0.027937476,-0.9619662,0.30914748,-0.75802726,-0.10265611,0.16132443,0.4327106,-0.3957728,0.96802276,-0.8432607,-0.6421475,0.69312745,0.60873896,-0.3219976,0.48806623,0.05764609,-0.19674502,-0.18040587,0.08172291,-0.14205302,0.26490244,-0.011162982,-0.099838346,0.35528633,-0.6893111,-0.6479485,-0.5290409,0.2738259,0.28801033,0.3581142,-0.8045026,-0.07970637,-0.88193595,0.027518654,-0.44499543,-0.3019717,0.58796555,0.4065095,0.35946354,0.6320226,-0.40592474,-0.2715067,-0.58685404,-0.8946644,0.29450902,-0.89372754,0.57156885,0.5354063,0.8334494,0.59101266],[0.86647433,-0.08179846,-0.6207971,0.5655682,-0.66407245,-0.55329335,-0.5300342,0.6586296,-0.87581354,0.20962323,-0.00020881814,-0.7735727,-0.06612723,0.53048193,-0.73477113,-0.93348503,-0.74759716,0.86190146,-0.57227516,-0.8104028,0.16624053,0.9752334,-0.9989648,0.5045802,-0.011892923,-0.48832288,0.765373,0.31449118,-0.35383365,0.49161056,-0.03291346,0.24723408,0.96174574,-0.85874486,0.6926229,-0.4071362,-0.82178223,0.22020961,0.61651754,-0.7317963,-0.9690723,0.48890513,0.44480008,-0.027070584,0.090656325,0.23604786,0.5229821,0.07618934,0.9448497,0.36179549,-0.9696728,0.5232922,0.4524112,0.16054714,-0.7920213,0.12750798,-0.07297909,0.35263038,-0.67522126,-0.061064605,-0.94985265,-0.78930616,-0.16278614,0.66107434,0.74956656,-0.9565539,-0.19795132,-0.8512635,-0.56842875,0.58728504,-0.93188995,0.843302,-0.08222917,0.51833975,0.2526084,0.4999773,0.31519902,0.65706325,0.8385321,-0.742034,-0.30906042,-0.05714118,-0.5668321,-0.72620165,-0.38286906,-0.7836347,0.10774731,0.11671525,-0.25638312,-0.07268898,-0.40446746,0.7760302,-0.42808872,-0.3580279,0.36227867,0.01992665,-0.6198834],[0.28271303,-0.46531624,-0.13014247,0.36424717,-0.8433327,0.27687782,-0.17342533,-0.7184491,0.9114659,-0.3531943,0.1897585,0.1596559,0.123366535,0.1710369,0.79118747,-0.9909554,-0.15664966,-0.8057817,-0.30664214,-0.6075947,-0.4445501,-0.8680205,-0.67082804,0.83087,0.11168831,-0.9622158,0.25695732,-0.67870015,0.22670172,-1.0454324,0.1445223,-0.38862598,0.10203137,0.104317985,0.36476156,-0.9690446,-0.52362794,0.04461822,-0.100950554,0.0006234913,0.79130805,-0.396303,0.32517862,-0.0889943,0.21195304,-0.99986476,0.07565788,0.92025465,0.13304201,-0.18680719,-0.12796773,0.17154269,-0.6712335,-0.5678772,-0.8203136,0.24865209,0.69583696,-0.9251912,0.7324206,-0.34078822,1.0350314,-0.21198605,-0.82828987,-0.5036591,-0.27134493,-0.7500303,0.46904445,0.5510361,-0.91562366,-0.5388635,-0.6330883,0.10653125,-0.014381626,0.6679641,-0.69510734,0.9411401,0.10066208,-0.08749516,-0.24490148,-0.2816879,0.605823,0.29606688,-0.36651483,-0.9058169,0.2582203,-0.6866372,-0.23681146,-0.4129128,-0.04087428,0.36747545,-0.87384564,0.28684253,-0.83854383,-0.85429937,-0.63373816,0.47958717,-0.816718],[0.8564313,-0.043317873,0.7912178,0.12702276,0.7095982,-0.8272166,0.4758971,0.21270159,-0.55764425,0.34920198,-0.8146295,-0.5690538,0.26405925,-0.41055587,0.646719,0.5612206,-0.10639007,-0.67703986,0.16238904,-0.29831818,-0.5508899,-0.5646841,-0.05743442,-0.5390299,0.59234047,-0.4169244,-0.6967977,-0.27376068,-0.3056101,-0.6019641,-0.9514945,-0.4348657,0.48390192,0.13460147,-0.2894223,-0.115445174,0.77782124,0.8336843,0.3233111,-0.17858204,0.6293227,-0.31945917,-0.097419485,0.56741995,0.34297782,-0.15505107,0.33025366,0.29186428,-0.73006845,0.7192873,-0.4928675,0.44504952,0.35342488,0.6382565,-0.055816405,-0.3717662,0.9995444,0.15922771,0.7823655,-0.8876524,0.43917313,-0.054078978,0.7436059,0.11902921,-0.91471946,-0.30081797,-0.85375744,-0.8895659,-0.67654437,0.40388855,-0.9447378,0.047995675,-0.54121953,-0.32455218,0.83202016,0.41820136,-0.43810952,-0.19688487,-0.8512119,-0.62802625,0.8176605,0.14937326,0.022065127,-0.40305918,-0.14603584,-0.55244225,-0.6348468,-0.04637836,0.58780986,0.42003894,0.82932276,-0.5579112,0.10202257,-0.07520066,-0.25399762,-0.49374813,-0.76152045],[-0.15282331,-0.093724735,-0.71093184,-0.4892498,-0.534309,-0.5905707,-0.3034608,0.3034094,0.76847845,0.30254078,0.5551665,0.18025082,0.47906306,-0.63521445,0.008110891,-0.39476684,-0.21655206,-0.46647495,0.0002416157,-0.18724842,-0.81355727,-0.96151954,0.5851629,0.83245814,0.1447142,-0.9484907,-0.09483423,-0.7587314,-0.93168086,0.8348581,0.17713055,-0.13347532,0.8096745,0.074236885,0.7895433,0.9760696,-0.95882756,-0.9722066,-0.93289083,0.18564886,-0.51318735,-0.16688175,0.22739996,-0.9528358,-0.7111869,0.06526003,0.12237264,-0.43330076,0.044798657,0.71593916,-0.9050457,-0.79182404,-0.38672155,0.46287817,-0.3129516,-0.40032172,-0.48023406,0.6561916,-0.5653446,0.6168103,0.24097155,0.5519538,0.14297767,0.9869892,0.6386676,0.20367812,0.13033813,0.9777615,0.22784533,0.37307063,-0.8553419,0.9192262,-0.42262164,0.79592806,0.60288495,-0.8867305,0.36358064,0.6107006,0.1592227,-0.2293317,-0.025278227,0.53257006,-0.6544337,0.71893996,0.96317923,-0.8747142,-0.7445759,0.29309598,-0.46335605,0.44766387,0.61948633,-0.6487026,0.5527086,0.79967535,0.7401442,-0.30906418,0.922906],[0.8687165,-0.37806997,-0.12695542,0.72260624,-0.04835838,-0.32985246,-0.7110742,0.7173074,-0.7480941,0.82849646,-0.22696964,0.04988325,0.13405469,-0.11935008,-0.7894567,0.2518524,0.6270023,0.53015834,-0.7172443,0.53934014,-0.016469134,-0.7629653,0.736081,0.5414289,-0.25003386,-0.2720278,0.4486896,-0.938634,-0.19334476,0.8198994,-0.87786293,0.0042783874,0.84316105,-0.9448231,-0.44027767,0.63115734,-0.0201178,0.38659853,0.98141927,0.94627196,-1.0074921,0.4421082,-0.44524437,-0.73266226,0.056107923,-0.07152769,-0.96101165,-0.9435854,0.3925927,0.2898967,0.5123552,0.35249993,0.61266655,0.026909601,-0.70701915,0.24963807,0.53399956,0.6420079,0.2420085,0.26568547,0.6463803,-0.4377118,0.8809924,-0.3707272,0.57263714,-0.46408933,0.5506544,0.6956625,-0.4250923,-0.78776777,-0.031124856,0.71691793,-0.7043876,-0.7838394,-0.48519897,0.58393455,0.15277605,0.1493223,0.926118,-0.57578737,-0.9587812,-0.7876894,-0.30157366,0.19256935,0.6637806,0.53026617,-0.9269721,0.2131548,0.0048054038,-0.61749667,0.65208393,0.6806428,0.4098449,0.8735118,-0.11027756,0.7604563,-0.436888],[-0.7824334,-1.0212723,0.7113233,0.92182934,-0.43970603,0.5761546,-0.11531615,0.4967758,-0.38670632,0.6803687,-0.4262877,-0.85699826,0.13654645,0.47662532,-0.5176673,-0.9378311,0.32638252,-0.7824735,-0.7037214,0.7388617,0.628016,0.35702777,0.39156017,0.104163595,0.087608255,-0.54351074,-0.12541804,0.10359139,0.5200421,