{"layer_count":3,"input_len":64,"hidden_len":192,"output_len":3,"x":[[1.0,0.15294118,0.14117648,0.1254902,0.11764706,0.105882354,0.1254902,0.14509805,0.15294118,0.19215687,0.18039216,0.19215687,0.21960784,0.3764706,0.2784314,0.20784314,0.21960784,0.22352941,0.2901961,0.60784316,0.6666667,0.6901961,0.49803922,0.3137255,0.30588236,0.40392157,0.54901963,0.6901961,0.6627451,0.5058824,0.40784314,0.5921569,0.57254905,0.75686276,0.60784316,0.42745098,0.3882353,0.47843137,0.38039216,0.56078434,0.79607844,0.7921569,0.6509804,0.6509804,0.5686275,0.69411767,0.627451,0.5764706,0.7647059,0.48235294,0.54901963,0.6431373,0.69411767,0.6313726,0.4392157,0.5921569,0.65882355,0.18431373,0.49411765,0.44313726,0.6392157,0.6039216,0.5882353,0.6156863,0.62352943],[1.0,0.41631815,-0.9999512,0.69140625,-0.39395928,-0.89575946,-0.9063119,-0.9955276,-0.8803507,-0.9998323,0.99362123,-0.9051407,0.86015064,-0.9998977,0.98216,0.9866226,0.254655,-0.98273534,0.99990696,-0.9069189,0.98852557,0.97865254,0.944651,0.7670063,0.1025328,-0.9940114,0.95640606,0.9997563,0.17783318,-0.9625142,0.89726335,0.97841394,-0.9999602,0.8866783,-0.9998626,0.9644798,-0.7745285,-0.9990943,-0.99879795,0.998835,0.88567936,0.97632396,0.98962426,0.9807573,0.99995106,-0.7758658,-0.7385107,0.49011603,0.99955064,0.33099404,-0.99572533,0.6959622,0.95597774,0.72981185,-0.41548213,0.9563883,0.80677027,0.9856498,-0.97294754,-0.40330535,-0.67035335,-0.9356961,-0.9320523,-0.7189374,-0.9953139,0.9990177,0.9913766,-0.1877478,-0.6740309,-0.8967064,-0.9872799,-0.99983215,-0.29367056,-0.6734773,0.99202454,-0.8190819,-0.99988997,-0.9994955,-0.9651387,0.9883339,0.9976174,-0.5815198,0.475581,-0.99502885,-0.9999372,-0.19046262,-0.59379417,0.9925348,-0.24312136,-0.9976701,-0.56167036,0.995075,0.6698751,0.9781745,0.9622499,-0.9904581,0.99813205,0.9999954,-0.82084846,0.9329782,-0.8226708,-0.72447115,0.58625203,0.17072935,-0.98098576,0.9936654,0.99897194,0.7438572,0.47302642,0.9967076,-0.9975997,-0.98410344,-0.48990837,0.5140262,0.99092954,0.9964749,0.99964154,0.9968071,0.99930495,0.96257037,0.9820306,0.999022,0.6067878,-0.8388342,-0.9950326,0.89601874,0.97733015,-0.9547975,-0.20111483,-0.79964644,-0.9736817,-0.90545744,-0.51634896,-0.93582404,-0.89670086,-0.9841051,0.3691373,0.99845386,0.9999798,0.9996533,-0.5147983,-0.4891851,0.999882,-0.99899715,0.5849477,0.9981372,-0.7839949,0.8636507,0.98807746,-0.9999977,0.9989699,0.9730685,0.7131768,0.03932591,0.9610746,-0.88988507,-0.9783431,0.9998097,-0.9446335,-0.99808717,-0.9111538,-0.7290504,0.06392835,-0.9959449,0.29369035,-0.93849164,0.99905074,0.9984871,-0.97679704,-0.8964321,-0.32849285,-0.24520175,-0.9569592,-0.31001574,-0.9675412,-0.9984111,-0.93615055,-0.9428352,-0.9996071,-0.98482466,-0.9885113,0.9839261,0.98470026,-0.90620524,-0.8845139,0.3730255,0.09261949,0.93166,0.615902,-0.84486806,0.9999999,-0.99721354,-0.72442025],[1.0,-0.99999994,1.0,-0.99774927,-0.9999999,-0.9999949,0.9992644,-1.0,-0.99534255,0.99059474,0.9943337,-0.99998575,0.99843186,-0.9628594,-0.9808657,1.0,1.0,1.0,0.99998355,1.0,1.0,-0.99788064,-0.99999994,0.99999624,-0.9987478,0.99856347,0.82078075,-0.059483733,0.99999857,0.99991995,0.99953073,0.9999999,-0.9998277,1.0,-0.20671141,0.9999167,-1.0,-1.0,0.999642,1.0,0.9997972,-0.99975985,-0.9999918,0.99998444,1.0,-1.0,-1.0,0.99974614,0.99997115,0.9995067,0.9999886,0.025720451,0.9996167,-1.0,-0.9878194,-0.9999955,1.0,-0.9735188,-0.63944435,0.99998903,-0.99290586,1.0,1.0,0.7355323,1.0,0.99999183,-0.9999104,-0.999992,0.99999845,-0.99766207,0.9999618,0.99999946,-0.9999213,-0.9797852,-0.9999953,1.0,0.99999994,-0.999995,-0.94729996,0.9997588,-1.0,0.99999994,-1.0,0.9999956,1.0,1.0,0.9999993,-0.99988216,-0.9999309,-0.030670438,0.98621345,-0.99998957,0.66077197,-1.0,0.99977547,0.9999983,-0.98155445,-1.0,0.9999971,0.985051,-1.0,-0.99995947,0.9999993,-0.72380275,-0.39999992,-1.0,-1.0,-0.9999381,1.0,0.32855934,1.0,-0.9999998,0.9999136,0.997448,0.9999809,-0.99999976,-0.94823146,-0.9999813,-1.0,-1.0,0.99999994,0.9999999,0.9999406,-0.9999724,0.99999535,-0.81804615,-0.9999999,0.99991846,-0.99999726,0.9999978,-1.0,-0.6084219,0.84212077,-0.9999997,0.9999991,0.3968865,-1.0,-1.0,-0.9999999,1.0,-0.99998885,1.0,-0.9035149,-1.0,0.9989442,-1.0,0.99999726,-0.9998661,1.0,0.9999999,1.0,-0.80829763,0.99999917,1.0,0.22812144,-0.9999837,-0.9999998,0.9994562,0.9999984,-0.91740495,0.06701807,0.1214954,0.9979482,0.98335636,-0.9978573,0.96255547,1.0,-0.9999869,-0.99999,0.99553096,-1.0,1.0,-0.9076381,-0.51691556,0.9999761,-1.0,-0.99999994,0.590902,0.9987204,-0.92265505,-0.9996785,-0.6313977,-0.9956392,-1.0,0.9999975,-0.99999416,-0.90546024,0.46694368,-1.0,-0.9997736,-1.0,0.9997121,-0.9739505]],"w":[[[-0.9804776,0.34155893,-0.18065023,0.1349864,0.314569,-0.1725874,-0.54015183,0.93271947,0.56466246,0.40955877,-0.8417475,-0.6981709,-0.5639484,-0.72780013,0.23072433,-0.43705297,-0.5725479,-0.30255008,-0.012088776,-0.4086182,0.200176,-0.31530595,0.55362725,0.4073274,-0.85991144,0.41471028,0.65182424,-0.6818917,-0.8764539,0.69222665,-0.4465797,-0.4043548,0.7844596,-0.9930289,-0.14846659,-0.11849022,0.14057589,0.81031203,-0.770118,-0.42272568,-0.868423,-0.39650035,-0.2975607,0.47001433,-0.78663635,0.0031266212,0.39313006,-0.16271186,-0.3604946,-0.7780473,-0.45947194,0.25411057,0.8059921,-0.790406,0.6789031,0.3322332,-0.7688632,0.79807305,-0.9363551,-0.24582744,-0.29314756,0.48064756,-0.58443403,0.046032667,-0.6358874],[0.76542014,-0.3542333,0.5679686,0.079905726,-0.78186816,-0.47547826,-0.5659638,-0.24516162,-0.918553,-0.20392719,0.739373,-0.51422143,-0.20913258,-0.6102815,0.0063130963,0.5827812,0.5520932,0.25769064,0.9267186,-0.84969276,-0.8153677,0.76922196,-0.38425887,0.09909555,-0.19456527,-0.885544,-0.7032434,0.9370987,-0.1744528,0.56763965,0.47890925,-1.0143309,-0.80362517,-0.61907905,-0.34854496,-1.1022068,-0.26211876,0.694545,-0.65619016,-0.9196376,0.7767766,1.1554332,-0.31626973,-0.12228826,-0.40086272,0.26260576,0.43448764,0.40137598,-0.6420282,0.9125871,0.6525682,0.46683362,-0.5259196,-0.6534438,0.9449238,0.8775679,0.3134711,-0.096032366,-0.032328054,0.57387257,0.17860202,0.36903086,-0.39592385,-0.34982198,0.28837693],[-0.5488457,0.011238141,0.3050344,0.4393557,-0.84893817,-0.19696337,-0.9409253,0.35634485,-0.0485916,0.6691596,-0.24030785,-0.22390497,-0.7258198,-0.06973262,-0.84231,-0.90560216,0.554838,-0.88728356,-0.7442506,-0.7900877,0.08741453,-0.06348499,0.8859627,-0.6401849,0.1433173,0.20398714,0.6453965,-0.1129688,0.71303594,0.57799697,0.9007756,-0.36013886,-0.42295492,-0.087454125,0.043167423,0.11242621,0.4864049,-0.43743291,0.90922356,-0.7583326,0.34209058,-0.83887184,-0.635709,0.049001668,0.16004702,-0.8385294,0.31730643,0.8285167,-0.7483068,0.5279876,0.6929967,-0.8629029,-0.8739415,-0.46088928,-0.64188164,0.82637995,-0.92148733,0.92165947,-0.83870155,-0.656258,-0.7816287,-0.99055994,-0.34146655,-0.4298759,-0.15129435],[-1.1334637,-0.8781352,0.30824852,0.3292054,0.83684134,0.88195217,-1.0256816,-0.43142846,-0.252189,-1.0007023,-0.3718235,0.5963678,0.26642767,0.1846818,0.6163382,0.8189104,-0.14764252,-0.84228843,-0.82914495,-0.45958853,-0.67447853,0.6581285,0.5115635,0.3248226,-0.23123255,1.1664848,0.30645248,-0.91415304,0.26702026,0.16994144,0.5349716,-0.071447276,-0.33588034,-0.09296227,-0.8697098,-0.46648926,0.6928253,0.89594805,0.18395051,-0.3742089,0.3689391,0.844078,-1.4057992,0.17169641,0.38121682,0.9298337,0.889506,0.5493726,-0.71663153,0.04401609,0.78110564,-0.1902531,-0.3662541,-0.71657604,0.31751335,-0.9633922,1.2276944,0.028805133,0.86323196,-0.69994366,0.28948703,0.83810085,0.520022,-0.25585014,-0.20161887],[0.55754787,-0.295702,0.32091084,-0.74384016,-0.050599676,0.9627458,0.90164506,0.75838137,0.34961912,0.27623805,0.06650534,0.7852652,-0.7171348,-0.50519997,0.12887757,-0.27084354,-0.770297,0.7339349,-0.100125544,0.4812261,-0.6952761,0.045180358,0.15933548,-0.5068143,-0.49190378,0.5233581,0.31520087,-0.4849135,-0.6591611,1.1716166,-0.309732,0.8592238,-0.29992542,0.6293757,-0.30871925,0.35493276,-0.081114635,-0.16004859,-0.3007256,0.90691215,0.4708675,-0.006035277,-0.657211,-0.4369488,-0.5486691,0.12833802,-0.8791338,-0.20915937,0.014508509,0.31965694,0.3761709,0.27014175,-0.24136108,-0.4555644,0.8375008,0.6362493,-1.2707075,-0.365749,-0.34100756,0.7371584,-0.8880301,-0.5099007,0.5137039,0.17613237,-0.36306825],[1.2385627,0.92651296,-0.20111193,0.05069461,-0.54612905,0.62180287,-0.0858975,0.09161061,-0.2162852,0.020723121,0.46914452,0.04800061,-0.36443934,0.2893795,0.78830546,-0.5432576,1.0000315,0.17189866,0.75630057,-0.35990918,-0.7942001,-0.38917562,0.225109,0.72307223,-0.15273102,0.7919812,-0.3942008,-0.8110594,0.6034307,-0.6702511,-0.3410766,0.4435328,0.74593323,-0.5169884,0.9451753,0.36190304,-0.28041837,-0.06685649,0.49940455,0.5390747,-0.71030796,-0.8129556,-0.6982175,0.71792746,-0.959918,-0.6781649,-0.764976,0.694425,0.40004337,0.7124444,0.63086075,-0.53605175,-1.0597789,0.2516886,-0.055602588,-0.16638006,-0.7105623,0.032186147,0.016146263,0.63223284,-0.87668806,-0.18457808,-0.6965666,-0.5108351,0.48303258],[-0.12731548,-0.23048095,-0.07005502,0.0053063254,0.64561224,-0.031546228,0.094199166,0.0653813,-0.63681924,0.8463372,-0.7486593,0.21124442,0.4048175,0.899653,-0.37508455,-0.1640161,0.8329298,-0.34232268,-0.074174285,-0.479332,-0.85568786,-0.80820215,0.7471623,0.06688543,-0.18402813,0.009259544,-0.26576105,-1.1613239,0.82185346,1.0750108,-1.1215413,-0.8230503,-0.50597113,-0.85313755,-0.60075676,0.44944012,-0.77909666,0.1447142,-0.031231146,-0.36168653,1.0168952,-0.6519972,0.27448857,0.121961296,1.0734694,0.4742635,-0.24914628,0.8789675,-0.5017624,0.95673126,0.74193084,-0.5310283,-0.8988318,0.82285744,-0.9833157,-0.12071327,-0.049301654,0.46149942,-0.5689449,0.8188911,0.31930026,0.3482296,-0.970304,-0.04460794,0.5427591],[-0.1535502,-0.9380482,-0.23994477,-0.18238004,0.6287181,0.7716279,0.40068465,-0.06330203,-0.5937396,-0.61271846,0.60565263,1.1602087,0.31486446,0.5395064,0.8226343,-0.85562855,0.9899782,-0.48896784,0.14295149,-0.927242,-0.39750144,-0.84832454,0.70721805,1.1633042,0.8228685,-0.2449434,-1.02855,-0.51374966,0.8991984,-0.005866602,0.27202997,-0.6783538,-0.20196576,0.16472079,-0.62621325,-0.48547173,-1.0307218,-0.8992134,-0.15601656,0.7138912,-0.36163026,-0.003632915,-0.2290344,-0.32648626,-1.033794,0.8029364,0.83124405,0.5132812,-1.033649,0.49334514,-0.7079391,0.26683852,0.48566365,-0.54004985,0.04666257,-0.5892619,-0.4658394,0.3672844,-0.50690866,-0.56461096,-0.019534688,0.71527267,0.12401174,-0.58984643,0.50932443],[0.2538404,0.045406953,-0.33184183,-0.20315833,0.6423772,0.8764277,-0.50998676,0.41928086,-0.5788355,0.7542334,-0.1300949,0.05332093,0.5688399,0.76772296,-0.30158097,0.9933814,0.6476494,-0.1409028,0.56304735,0.8210484,-1.0043906,-0.24399686,0.5917033,0.03000926,-0.31083518,-0.874124,0.65854466,0.41852993,-0.97659874,0.313755,-0.52354914,-0.17886499,-0.39925963,-0.51282674,0.5368112,-0.74709207,-0.36357567,-0.8068014,0.43418986,0.11306068,-0.8903223,-0.264604,-0.18189028,0.06173968,0.62437814,0.922423,0.92098373,0.46751907,-0.76959825,0.24701387,-0.81605697,0.52816135,-0.863904,-0.95486546,-0.5779603,-0.023766477,0.67403775,-0.5712372,-0.20462468,0.59631544,-1.1861099,-1.0696876,1.3973048,0.55384445,-0.15148495],[-0.68562454,0.5027259,0.8277228,0.67799294,0.17874491,0.33483618,0.3643547,0.3130952,0.2867572,-0.45257232,0.6755484,0.56340945,1.0196621,-0.7527089,0.31669417,-0.6517868,0.9277475,-0.41668028,-0.8377889,0.49490222,-0.9037865,-0.069545224,0.82684314,-0.06960038,0.78334147,-0.11364064,-0.24719936,0.22430642,-0.33870283,0.0039630886,0.15784983,-1.0239419,-0.7361862,0.05857093,-0.0656343,0.24612379,0.12023628,-0.70061177,1.2502836,0.6101769,0.5309805,-0.56847394,-0.9144632,-0.613492,0.083001465,0.46262625,0.28178972,-0.45858565,-0.34402323,-0.29032722,0.38207078,-1.1320987,-0.07436477,-0.6493703,-0.3463584,-0.78926176,0.65858924,-1.0837156,-1.1538774,-0.4997361,-1.0489839,0.5044144,-0.40171894,0.20412184,-0.49663168],[-0.4514636,0.8310061,0.63443166,-0.415418,0.60138625,-0.9217304,0.5313642,0.5602409,0.962115,0.24006543,-0.5761682,0.124998786,-0.39977798,-0.78102845,0.3328855,0.5536288,-0.80099285,-0.57783425,-0.013616324,-0.12611406,-0.622889,-0.804673,0.9063275,0.54068387,0.5660119,0.927977,-0.40066308,0.671838,-0.7893613,0.44369352,0.097844526,0.5500375,0.85172,-0.37787235,0.8466898,0.9676097,-0.4566607,-0.60684586,0.62717754,0.74726236,0.21589044,0.5807459,-0.94137686,-0.5392271,-0.11684328,-0.21327694,0.8725218,0.33253935,0.89964235,0.26765645,-0.11051097,-0.4907436,0.56328714,0.6280106,0.3211887,-0.6089133,0.5720467,0.13034493,0.6827442,-0.610987,-0.631148,0.9590534,-0.810497,0.45173347,0.015261721],[-0.53803146,-0.6137688,0.03855935,-0.9008441,-0.8480582,-0.17720515,0.16857955,-1.0379303,0.32267684,0.7574872,-0.80591524,-0.2533242,0.18495955,0.08637663,0.6449474,0.25059336,0.7908707,1.154303,0.91549444,0.77093107,0.30618095,-0.78927433,0.7127233,0.04363835,0.111853875,-0.07760735,-1.1268191,-0.12731437,-0.5198941,0.12368432,-0.9052111,-0.6050076,-0.92143494,-0.5611527,0.8048993,-0.45141116,-0.020069227,0.17363636,0.92976797,-0.2868007,-0.4179654,-0.7095096,0.04906225,-0.08037407,-0.67237747,-0.2661319,0.22286247,0.21801957,-0.5602825,0.5896705,0.61354136,-0.5807625,0.6826249,0.14202529,0.26747656,0.4353646,0.28658172,-0.3981282,0.9963898,0.4814741,-0.18277282,0.19783957,-1.0034348,0.86457926,-0.35023734],[0.75011337,0.6337515,-0.38208833,0.86458254,-1.0698063,0.35645676,-0.3283606,-0.33915436,-0.41825035,-0.2626795,-1.2906412,0.13164285,0.9085487,0.77310246,-0.77533853,-1.0840514,-0.6939931,0.8296002,0.316768,0.1944106,0.14094727,-0.011561038,0.7446845,0.112309806,0.67065465,0.36721507,0.44104025,-0.64605224,1.4802471,-0.8080882,-1.2826896,-1.0138503,0.058882885,-0.74449116,0.22052893,0.14432862,0.27383307,0.44614366,-0.61723506,0.57097155,0.55929536,0.7896275,-0.4312674,0.8699165,0.017680464,0.5667167,-0.8453636,0.52730453,-0.7652516,-0.40930793,-0.6653767,-0.5810175,-0.17712888,0.009419445,0.666195,-0.99161965,0.3753881,0.62822765,0.72036004,0.62902546,-0.850305,0.5357514,-0.95125335,0.35118547,0.6480563],[-0.7650225,0.8748959,0.41721648,0.53917843,0.766321,0.29062203,-1.0500743,0.69361466,-0.67561436,0.15848123,0.5901451,0.05246378,0.55004275,-0.71876353,-0.84129006,-0.9961603,-0.89987975,0.26285133,-0.8291375,0.3258273,-0.34295982,0.8208215,-0.48496866,-0.7644919,0.47440746,-0.25165156,-0.5390936,0.9079313,0.16641243,0.16372547,0.70455426,-0.45022386,-0.35695374,-0.9010392,-0.6111974,-0.217594,-0.5898699,0.09778036,0.16126303,0.68566203,-0.43438727,-0.6292541,0.11763998,-0.6983031,-0.5694818,-0.71363926,-0.85447794,-0.68496203,-0.3948971,0.43744788,-0.13926192,0.44652724,-0.6134824,0.09084939,0.07691442,0.84758806,-0.32424077,0.51381904,-0.14565785,-0.25639126,-0.28145224,0.716046,-0.102237105,0.09831086,-0.66846913],[0.57296884,1.1273376,-1.3030596,-0.47352207,0.49381575,-0.7056979,-0.52411884,0.9362742,-0.111652255,1.0124501,-0.7822849,-0.38406765,0.041529853,-0.010619039,-0.10010644,-0.9323128,0.50457156,0.20761141,-0.4928264,0.76789033,0.9215658,-0.69407266,-0.45853063,-0.1881209,0.3712765,-0.3661201,0.8837137,0.58241373,-0.65722173,0.3378537,0.53983575,0.16087155,-0.61396587,0.21201609,-0.8172125,-0.14967936,-0.15730153,0.57803285,0.48465285,-0.46576568,0.11602429,-0.16256954,-0.44218227,-0.11064762,0.75850904,-0.11247987,-0.12199749,0.3654594,0.6021358,0.050857376,-0.9037795,-0.48574245,0.47815937,0.5215449,-0.06816843,0.16788363,0.19494258,-0.4122448,-0.4093724,0.12095778,-0.05442171,0.69335085,-0.12693267,0.25925073,0.9038744],[0.52804744,-0.71373653,0.45032546,0.4443093,0.17675598,-0.78640217,0.5124362,0.28431582,-0.33830053,0.888699,0.77305806,-0.9591175,-0.33156273,0.30203503,0.75677174,-0.05429294,0.41361046,-0.4267736,0.6002568,-0.7791173,0.55189306,-1.0593518,0.16541575,-0.05861355,0.45373842,-0.090418845,0.0045585902,-0.7059166,0.33053112,0.3214675,-0.03264677,0.5880218,-0.11096364,-0.260805,-0.28186104,-0.97287714,-0.24282993,-0.26035672,0.57635075,0.24308844,-0.41620564,0.3098902,-0.32331228,-1.0987566,-0.8541763,0.3025834,0.28307158,-0.08275682,0.4361967,0.31784987,0.71237195,0.78720754,0.8544791,-0.014227142,-0.8357373,0.67799145,0.8367923,0.39782897,0.4425307,0.36331812,0.3835637,0.014040667,-0.44910938,0.3156818,0.8843221],[-0.34205136,0.21065861,-0.9244295,-0.9324039,-0.77797735,0.67004496,0.6849804,-0.70793015,-0.9588081,0.11317663,-0.70130175,0.80361384,-0.13930625,-0.622887,0.020274833,0.13440731,-0.99612606,0.97839344,-0.8674344,0.70237017,-0.624031,-0.6191558,0.96292245,-0.8250487,0.42110112,0.095105454,-0.3209821,-0.0088258805,-0.06472409,0.9342429,1.050641,-0.40082684,0.4632472,0.035361648,-0.1553883,1.1027513,0.12773748,-0.41654292,-0.15968922,-0.5351882,-0.9992343,0.32250664,0.7226076,0.30841213,-0.40463182,-0.4561053,0.2309466,0.5551768,0.63798714,0.6726248,-1.0037723,-0.60697925,-0.36499545,0.7318941,0.11953731,-0.29428917,-0.028817322,0.21256939,0.019248877,0.56299675,0.62987477,0.8664112,-0.8388836,0.94666713,-0.6973542],[0.15021886,-1.0092824,-0.41481733,-0.37412947,0.5168024,0.016929496,0.8736829,0.96737576,-0.43131968,0.82711744,0.07265977,1.1721481,0.8133862,-0.38856247,0.681376,0.16564977,-0.8007211,-0.9241025,0.2071992,0.36142623,0.06645242,0.0819048,-0.29522187,-0.6575148,0.93202,0.7914597,-0.82199764,-1.291524,0.19264121,-0.64251286,-0.9183861,0.15476725,0.48030016,-0.67375976,-0.7111598,-0.77210474,0.88019127,-0.8004067,0.85868675,-0.10557461,0.6947834,1.1770233,-0.3159933,0.7602072,-0.669962,-0.7249468,0.3052447,0.22016506,-0.5498657,0.93027204,-0.21091129,0.6258905,-0.10834582,-0.060617197,-0.6762917,-0.24247819,0.029635372,-0.5979481,0.5209774,-0.5373552,-0.82708156,-0.098200224,-1.0155231,0.19217122,-1.0418481],[0.6739044,0.58988035,-0.028490867,0.07067462,0.17972356,0.92253846,0.74288607,0.59567827,-0.68875885,-0.52206105,-0.15285414,0.7257879,0.23804358,-0.021365914,-0.8713433,-0.7121324,0.17944944,0.99205613,-0.07542318,0.77645105,-0.7014785,0.43603244,0.5867605,0.45818624,-0.3869933,0.5903634,0.7378505,0.58373755,0.80429536,0.59347844,0.20877135,-0.56317466,0.24811344,-0.938931,-0.62390965,-0.45481592,-0.6496663,-0.7355605,-0.30616263,0.2227537,0.71227455,0.595097,0.23311733,-0.19530326,-0.4699514,-0.7959865,0.98565537,0.29917732,0.56071323,0.1147621,0.35672957,-0.017032877,0.16985877,0.53589046,-0.34888768,-0.59248185,0.6603336,-0.9313961,0.5375374,0.76067483,0.15930922,0.78187126,-0.11432262,-0.018661745,0.9431768],[-0.44406468,0.07058083,-0.47888848,-1.0466968,-0.30408958,1.033024,0.62569946,0.18670854,0.5758881,-0.08558083,-0.09050309,0.0061845463,-0.16226357,1.4080833,1.37477,0.781858,-0.11477982,0.16042484,-0.18623686,0.4499904,-0.025994472,-0.5605061,0.7776846,0.999988,0.92274547,-0.83396876,-0.80738544,-1.2842782,0.85414666,-0.058902822,-0.6158639,-0.67992264,-0.0035206268,-0.8470907,0.8063809,0.46821547,0.26674336,0.49144617,-0.22823212,-0.7206074,-0.10186115,-0.4551033,-0.8887168,-0.8198356,-0.2399127,0.20315412,-0.83215946,-0.35901645,0.024222841,0.035449058,-0.5511502,0.1734281,0.12387261,-0.12298993,-0.51780355,0.6686379,-0.10170213,-0.4771224,0.69555205,0.1818391,0.8162896,0.85004556,-0.5123377,0.06700937,0.22353332],[1.1492177,-0.41229448,0.56698847,-0.62313193,0.11877537,-0.5432035,-0.621632,-0.63866526,-0.3567643,-0.19382404,0.8419157,0.18349633,0.14753576,-0.4996999,-0.7191819,0.9771451,0.1369915,-0.9510324,0.7090916,0.64521456,0.46368414,-0.46607396,0.68800145,0.28420013,0.66535485,0.56250775,-0.13383208,-0.006317665,-0.70695204,0.5229097,0.5088632,1.0236577,-0.642584,-0.8736741,-0.8947152,-0.27589765,-0.32517532,0.43812835,-0.0783145,0.6838174,1.1979048,0.064224124,-0.6739328,-0.1471525,-0.39936382,-0.47145605,0.12127846,-0.17552948,-0.3268543,-0.9142764,-0.5445547,0.25843924,0.67474985,0.7110452,0.62942106,-0.1950865,-1.1386003,0.60203475,0.5768726,0.71990645,0.26183638,0.24947946,0.7404756,0.118004724,0.45165008],[0.5452243,-0.006884126,0.6757025,-0.34036678,0.09727189,0.6696281,-0.6828782,0.56324834,-0.22237322,-0.96275973,-0.27058583,0.34379193,-0.5828229,-0.753906,-0.68564844,-0.3314825,-0.13386297,0.5838521,-0.70112103,-0.09028141,-1.0247906,-0.10963839,0.3624522,0.8003222,0.7754768,-0.8487327,1.1178263,0.06816198,0.34994796,0.80514413,-0.68100035,-0.17199807,-0.93983537,-0.27973944,-0.62752444,-0.78045255,0.5238319,0.48484197,-0.5120649,0.5918402,0.37446326,0.8473556,0.59261084,-0.46791607,-0.95565146,-0.016662305,-0.888475,0.99052703,-0.2450427,-0.65262705,-0.11055137,0.9310265,0.21567975,0.80343974,1.1319791,0.12741886,-0.7367925,0.56510913,0.32444173,1.0474733,-0.76025194,0.8705395,1.2612559,0.91956,-0.5464885],[0.97528297,-1.0167029,-0.7941307,0.9013431,0.673083,0.65148914,0.4575577,-0.5864074,0.12772682,-0.6818906,-0.04340497,-0.49470267,-0.7578944,-0.04340582,0.72105724,-0.4691565,0.35657206,-0.65126806,-0.4945514,-0.3531986,0.59849375,0.08489002,0.9388054,0.49468535,-0.24839278,-0.8443262,-0.6830296,-0.9068812,-0.6922696,0.46685493,-0.053120106,0.881345,-0.47922915,1.0111332,0.71554524,-0.20169319,-0.6559859,0.5050282,-0.65321225,0.2996484,0.24940532,1.121173,0.75151956,-0.95567,0.23545198,0.6711393,-0.6907805,0.6630747,0.47061405,0.5031975,0.17659236,0.7458726,0.66063684,0.0766557,-0.5663924,-0.8545792,0.31959596,0.5809974,-0.17346448,-0.32399294,-1.0439091,-0.15805283,-0.22824995,-0.22168143,-0.9896192],[0.5875543,0.18088199,-0.36140367,0.818848,0.2814351,0.08954809,0.7405978,0.49987113,0.28584296,-0.8077694,0.23735952,-0.9083117,-0.17424183,0.23386039,0.4077206,-0.36788347,0.6621149,-0.0808757,0.90292126,0.7555625,0.98957205,-0.3092172,0.027390447,-0.7071926,0.5510946,1.0145808,-0.9812912,-0.62581295,0.13724439,-0.41873914,-0.13978334,-0.58575296,-0.14196277,0.711669,0.18557063,-0.9210716,-0.79646355,-0.046913445,-0.5608388,-0.8127215,0.4240806,-0.90963733,-0.82780737,-0.45787778,0.26972702,0.053618815,0.9223803,0.60067356,0.19290039,0.25309196,0.8700842,0.5885569,-1.0238805,0.8664166,0.9873184,0.8838614,-0.4459415,0.6407594,0.9289382,-0.6815867,-0.50115776,-0.60847986,-0.19427991,0.86298454,-0.92423975],[0.72936165,0.6540489,-0.43289196,0.9971523,0.06569775,-0.4408508,0.9641472,-1.2061919,-1.0838473,0.19167347,-0.17407766,-0.6546143,-0.7843408,0.7092164,0.74283874,-0.9081136,0.55335754,-0.8297446,0.16490608,-0.64971733,0.0070662955,-0.9946648,-0.35276678,-0.7841498,0.64858407,-0.39841443,0.028028993,0.68883485,0.71134484,0.35574636,-0.4837331,0.46276885,1.0736337,0.8378958,-0.42331076,0.13850978,-0.6224582,0.51364195,-1.1783324,-0.66178966,-0.21457905,-0.4645126,-0.7351219,0.44992465,-0.61841077,0.34112006,-0.8232571,-0.78392047,0.13647215,0.06324393,0.8354692,0.751527,0.7272535,-0.5676792,-0.7179007,0.31222802,0.2454462,-1.0369852,-0.09352126,0.8129032,-0.7782049,0.351124,0.99995184,-0.67711616,0.06853406],[0.0146314725,-0.0029272344,-0.028637214,-0.74824023,-0.8729485,-0.788542,-0.0103324875,0.4878872,-0.26829332,-0.6732863,0.32070506,0.57436526,0.9774152,-0.050849985,-0.055149198,0.8120324,-0.5304785,0.2695014,0.03516158,-0.68984354,0.6214063,-0.6182644,0.42827186,-0.14521275,-0.6664329,0.6278008,-0.9097507,-0.8962749,0.31048307,0.9388902,-0.34778225,-0.70413417,-0.5918133,-0.46629456,0.90416974,-0.6389285,-0.57452,-0.92235184,-0.7110692,0.58002824,0.58533436,-0.7709828,-0.02813611,-0.8936899,0.9306732,0.36524424,0.2872861,-0.72651696,0.61589605,0.9735611,0.9619464,-0.37524098,-0.5830435,-0.8051999,0.9593088,-0.19604929,-0.82318336,-0.24935897,-0.8333407,-0.09187552,0.41991028,-0.7575054,-0.37517777,0.32112324,0.10419241],[0.15647447,0.383579,-0.14270695,0.1465566,-0.3062002,-0.52670485,0.84992844,-0.19852312,0.46675467,0.9721271,0.06561919,-0.84233266,-0.050688814,-0.9700255,-0.14210784,0.13519686,0.6460323,-0.29116148,0.53142637,-0.8728788,0.078872815,-0.54478234,-0.54204744,-0.6796028,-0.064367704,1.0588747,0.41116858,0.9651889,-0.77124333,-0.7668594,-0.08145969,0.44836503,0.3756914,0.4666948,0.745885,-0.6638169,-0.16493456,0.7364544,0.83300585,-0.26866424,-0.78201514,0.40544167,0.2345394,-0.054732803,-0.19663979,-0.81910306,0.7527054,0.09463356,-0.0045451717,-0.740073,-0.34685737,0.18039684,-0.031228663,-0.17943273,0.26667458,0.23248492,0.85203534,-0.49828866,0.8456466,0.52642375,0.48416212,0.7883441,0.15609792,-0.80974877,0.6673591],[0.48791295,-0.932076,-0.335115,0.37870938,0.035465263,0.74909747,0.64727014,-0.65554833,0.92406815,0.18506508,0.6841463,0.8905514,-0.9140081,0.60775995,0.97051346,-0.6060971,-0.37354332,0.9869409,-0.6731407,0.5589867,0.9395377,-0.045866903,-0.78436834,-0.86885095,0.012901646,1.0030724,0.79184574,-0.36128053,0.7852232,-0.003296839,-0.4364813,-0.64719695,0.21507904,-0.6290364,-0.69733506,0.20931047,-0.22400449,-0.12887307,-0.088638686,0.7486175,0.8241914,-0.20321521,-0.9356473,0.34463903,0.5856252,-0.031925965,0.8103255,-0.6051115,0.35151076,0.95897937,0.24606694,-0.14476138,0.94524544,-0.56719494,0.36354518,0.08640724,0.39965615,-0.9296764,0.75113654,-0.053602964,0.7132322,0.81539893,0.9590306,-0.56492645,-0.5393219],[-0.6824589,-1.0647451,0.95927536,-0.44552597,0.6802053,0.79526895,0.7771547,-0.5192039,-0.30055058,0.72431624,-0.37693122,-0.54699373,-1.1337454,0.38289154,0.57932323,-0.10402687,-0.2694186,0.5310076,1.2107697,0.9385883,-0.49481818,-0.42895365,-0.9337535,0.77401835,-0.2439483,0.124152824,0.2602537,0.37071294,-0.036146667,0.015632465,-0.7261575,-0.6315196,-0.3350871,-0.72501636,0.591805,-0.32738578,0.30415857,-0.8042575,-0.2171169,0.3076546,-0.019770285,0.083320916,0.8443868,-0.19561145,-0.30710548,-0.31725782,-0.19433351,-0.6266326,0.3079659,-0.23583612,-0.5014966,0.6851376,-1.0609751,0.29730928,0.47759745,0.5798403,0.42852923,0.4050807,-0.29371586,0.46198532,0.4686736,0.46924403,0.4356118,0.15125503,0.7143174],[-0.4404888,-0.1406105,-0.9717399,0.49685472,0.46615338,-0.59636444,0.9156718,-0.45868352,-0.1379082,-0.7593732,0.17407669,-0.29739693,0.5102322,0.76390487,0.20011438,0.1609125,-0.26732016,-0.7280418,0.34601602,0.57260674,-0.89313215,-0.79286295,-0.44135088,0.022095658,0.99271864,0.032753512,0.80453354,0.8454811,0.66637236,-0.6479421,0.6904279,0.50559735,-0.42134663,1.0797493,0.51565444,0.54399,-0.9529988,-0.8572475,-0.7912895,0.04128095,0.14773329,-0.008776582,-0.8324381,-0.35827735,0.38669583,-0.7050019,-0.057360053,0.2930891,-0.6174513,-0.07855625,-1.0563958,-0.8558307,-0.02993869,0.1836647,0.1143161,0.31471515,-0.33724996,-0.41622245,-0.8045402,0.8921967,-0.08534857,-0.27421257,-0.19319347,0.3114887,-0.31742713],[0.21030611,0.058775607,-0.85314584,0.7255925,0.69589114,0.53239733,-0.39591056,-0.38843653,-0.2600548,0.81410766,-0.37129384,0.58769834,0.09839339,0.7215691,-0.19791451,-0.63568676,0.48409405,0.20841509,-0.53750014,0.6061239,0.30216187,0.36338487,-0.37909606,0.87877697,0.35004178,0.37689462,-0.44110334,0.18744402,-0.88627946,0.75257826,0.755634,0.38694683,0.10428447,-0.900803,0.20744115,0.083665445,-1.1018412,0.26700374,-0.47993714,0.7658676,0.73540163,-0.04414988,-0.734768,-0.43407154,0.47653228,0.15644081,-0.5769738,0.9635096,-0.47744542,0.45506296,-1.1773919,0.16930683,0.80680186,0.6312253,-0.37665606,0.8166748,-0.37031183,-0.019752868,-0.42137796,-0.47670007,-0.15402363,0.30237484,0.40373042,-0.24089997,-0.58289915],[0.12695485,0.6215156,-0.5515599,0.21698606,0.8856703,-0.8484186,-0.81147116,-0.09719218,-0.28991914,-0.1969511,-0.37407807,0.17582838,-0.2876825,0.013920364,-0.49364987,-0.3200085,0.23975174,-0.068569414,1.0290127,-0.29348153,0.3202653,0.38387492,-0.82796425,-0.19634086,-0.039169576,0.42723528,0.62835735,0.80365795,1.0581412,-0.14719352,-0.02277464,0.1661672,-0.118238516,-0.6571914,0.25634146,0.48417312,0.088594414,0.24586195,-0.10248016,0.3611928,-0.14390098,0.25201562,-0.4971859,-0.092662916,-0.9052104,-0.24660759,-0.034647536,0.2828427,-0.15890318,0.8863131,0.37851351,-0.9349228,0.66837394,0.7225789,0.7004439,1.0949072,0.88335025,0.7122649,-0.6383151,0.42812195,0.17149372,-0.41619337,-0.15731657,-0.42377105,-0.8373221],[-0.16620055,0.42288035,0.54558176,-0.71745473,-0.3096812,0.03299828,-0.9348072,-0.31794798,-0.9245781,-0.05088204,-0.5891092,-0.48238808,-0.47720256,-0.93533844,-0.7393834,-0.2752101,-0.5548721,-0.55355006,-0.48297787,-0.34128594,-0.21276185,0.6695845,-0.49779922,0.16363569,-0.9464331,-0.71866965,0.16342862,-0.27385065,0.2673949,0.00689338,-0.55275023,-0.54393595,-0.27568987,0.28746122,-0.59566057,0.8818077,-0.28040373,-0.93259096,0.9741134,0.89201593,-0.4175701,-0.9035477,-0.95651543,-0.9838877,0.83857596,-0.72879994,-0.9246647,0.70862085,-0.12630725,-0.42593986,-0.0023118516,0.06585313,-0.067703664,0.9907862,-0.9335723,-0.13611911,0.33557805,-0.39179438,-0.7315787,0.9036835,-0.6058617,0.5723627,-0.015781311,-0.68223447,0.09908955],[-0.18693498,0.7050887,-0.80638736,0.15663035,0.12890047,0.18519753,0.20895077,0.38024744,-0.9939624,0.029245542,-0.21484372,0.5569287,0.5616573,0.2530488,0.13504416,0.70301354,-0.9936861,-0.63215494,0.89408094,0.9873878,0.6318382,0.6005701,0.58899516,0.049924433,0.29347107,-0.25222352,0.61613744,-0.8568972,-0.76893586,-0.5018723,0.0649183,-0.7466046,-0.5272948,-0.7878841,-0.33850694,0.71357536,-0.5898628,-0.9389708,-1.1237501,0.75500715,-0.11991194,0.9827108,0.5938478,-0.8512233,-0.058606483,-1.1365821,-0.7019399,0.10329011,0.2570962,0.35624748,0.42595673,-0.28939885,0.31143522,1.1065315,1.2166927,-0.22777554,0.6288958,-0.130685,0.05914517,0.90599823,-0.6460001,0.35106876,0.43873686,0.72675353,0.08264498],[-0.54896414,0.7261172,0.9044266,0.45673555,-0.6765811,-0.9127259,-0.1622592,-0.5524168,-0.9448072,0.31608918,-0.33985543,-0.07720081,0.706805,-0.8123719,-0.83975285,-0.9177335,0.65584195,0.5419768,-0.8637493,0.31558853,-0.4118406,-0.7303463,-0.95437574,-0.45673582,-0.72126323,-0.2049216,-0.20336533,0.9940432,-0.22567625,-0.23887634,-0.8506996,-0.8810699,0.89418054,-0.9648327,-0.26932895,-0.08122338,-0.5804944,0.84515005,-0.25451228,0.26625547,-0.8623055,-0.91095865,-0.5179985,0.0045419703,0.56571984,0.85307515,0.29456884,-0.6627578,-0.7133768,0.022553802,-0.5967308,0.48282266,0.44002956,0.9382498,0.10783579,0.74675393,-0.44094428,-0.2972796,-0.11734584,0.24418473,0.6632568,-0.5579006,-0.1734529,-0.78451073,-0.4822223],[-0.52297294,-0.63538986,0.4099414,0.61930275,0.9836451,0.49263722,-0.5591564,-0.038135994,-0.7322828,-0.8249781,0.48524088,0.5722632,0.7915783,0.7547098,0.13723509,0.53552455,-1.0360413,0.5085794,0.87651384,0.7883091,0.63260037,-0.4420073,-0.47992787,0.3033388,0.49984622,-0.5547937,-0.20340091,-0.5019929,-0.3001008,0.6713422,0.90956986,0.13596824,0.8703925,-0.49782705,-0.7904249,0.7145744,0.78226537,-0.90156865,0.7828858,0.7171782,0.11359908,-0.15716952,-0.7704565,-0.05663389,0.48550838,-0.29611978,0.84887326,-0.3158815,-0.4493176,-0.68005013,-0.7939554,0.16353388,-0.025912188,0.08444844,-0.17982289,0.7361473,0.53279495,-0.76288754,0.87646174,0.051895928,0.6966701,-0.16340853,-0.4853227,0.8622651,0.30968472],[-0.31325316,0.09694545,0.7955133,-0.95175034,0.20691656,0.48716292,1.0791943,-0.43232754,0.590079,-0.386926,0.21265678,0.44182327,0.85221195,0.15136531,-1.2453879,0.58167845,0.23450556,0.09155392,-1.2676227,-0.43367758,0.08509045,-0.72057164,-0.57700056,-1.2433692,0.059137173,0.36067393,-0.16248284,-0.32183346,-0.68424517,0.6536544,0.82169163,-0.8649361,0.38263562,0.7628626,0.72577226,-1.3718646,-0.5537116,-0.15637042,0.8857755,0.50021183,0.31641683,-1.0320296,-0.4216424,0.43180603,-0.59802365,0.78919965,0.60858387,-0.065194316,-0.50145054,0.10207528,0.8199263,1.0059475,-0.9642996,0.6673349,0.59431463,-0.45081413,0.34018382,-0.46832502,-0.99580866,0.5934988,0.7961055,-0.7312515,0.59978485,-1.0698733,-0.09310391],[0.8890245,-0.59064317,-0.093117125,-0.030930925,-0.48514178,-0.27939162,0.8328502,0.36040455,-0.025349723,-0.55408293,-0.9392151,0.017079778,-0.35670173,-0.92963386,0.19834192,0.91515577,-0.8036922,0.6662856,0.24354553,0.2845341,-0.36730486,-0.677706,-0.3892689,-0.37848648,-0.8398774,0.3394097,0.5347924,-0.9345993,-0.7657884,0.8887857,0.5260293,-0.5661622,0.01991456,-0.9704397,0.24380367,-0.7672447,0.05537863,0.41471788,-0.5311158,-0.12768964,-0.022777671,-0.4642388,-0.7601346,-0.36621112,0.914554,-0.060465094,0.52438855,-0.03190755,-1.021147,-0.20018607,0.14268602,-0.32335433,-0.9588104,0.63381785,0.538423,-0.51236564,-0.97774845,-0.11216542,-0.37384102,0.027629513,0.47357592,-0.16861035,0.32020256,0.53441495,-0.060622487],[0.32119793,0.35455367,0.17421207,0.13520761,-0.098396,0.07728194,0.43673664,0.20736483,-0.85284954,0.6647327,0.92495704,-0.41266242,-0.19951385,-0.9418074,-0.70936245,-0.6282815,0.93616843,-0.836925,-0.36795056,-0.2902566,0.7926451,0.04208743,0.34563857,0.7007795,0.88411963,-0.8799538,-0.40328762,-0.61305046,-0.71959215,0.3805065,-0.797283,-0.51002806,-0.12725267,0.07949304,-0.5664552,-0.559036,0.2215503,-0.28045145,-0.24213523,0.48397747,0.5101093,-0.5000826,0.06336696,0.033614825,0.21553925,-0.88499016,-1.008594,0.013465602,-1.1538429,-0.7736219,0.63857526,0.6444579,0.7523066,-0.9332728,-0.42621508,0.7647368,0.3585897,0.6198048,-0.5308589,-0.7102263,-0.8192602,0.64128774,-0.77636856,0.31332585,-0.2910972],[-0.121309176,-0.81527233,-0.0921618,-0.20237929,-0.7938834,0.52930796,-0.83030295,-0.17989841,0.779427,0.8482021,0.65518385,-0.733344,1.0333213,0.80052435,-0.38678962,1.0655088,0.35877207,-0.053189784,0.62626565,0.062155005,0.61117315,0.19698678,-0.19125438,-0.065031976,-0.7872827,-0.45159125,0.750535,0.9460069,0.0492182,0.04631644,0.63947326,0.40575415,-0.048609506,-0.08063416,0.90616196,0.90612775,0.8373203,0.091364354,-0.61212814,0.88561535,0.6872037,0.64690226,-0.63394415,-0.12948789,0.5056966,-0.49767232,-0.95755523,0.043424733,-0.50093716,-0.8072034,0.040440038,-0.59933996,-0.77671117,0.8621645,-0.96031785,-0.07282832,0.48699927,-0.7712919,0.39834443,0.9999162,0.16234936,-0.24020828,-0.10778141,0.8318128,0.5130264],[-0.19139993,0.05615379,-0.25676376,-0.31552395,0.38937452,-0.51418924,0.8003099,0.20364949,-0.54271436,-0.11669424,0.52409834,-1.1327304,-0.17470057,-0.22795638,0.29795668,-0.54257673,-0.44773662,0.005379525,-0.121409394,-1.2051351,-0.97485965,0.8537325,0.73975545,-1.0613066,-0.59925395,0.51460844,1.2862445,0.88313687,0.3011439,0.39984256,-0.17099829,0.14015575,0.6887138,0.28552243,0.85645515,0.46734717,-0.16427585,-0.4130596,-0.41095424,0.7270111,0.6392217,-0.27060708,-0.38264704,-0.1261008,0.15818349,-0.16973871,0.6126589,-0.36275512,1.072138,0.49160418,-0.2667643,0.3474044,-0.33057055,0.7439929,-0.1977474,0.23903126,0.3460954,-0.58297825,-0.41719973,0.15186879,-0.5804137,0.29550746,-0.6571937,-0.7736929,-1.1717229],[0.41784745,-0.9539416,-0.794166,0.5296295,0.7458514,0.65369725,0.5520235,-0.6214855,-0.56671786,-0.8449955,0.07627146,0.92928517,0.4760843,0.9253762,-0.5274571,-0.3887546,-0.48150438,-0.05472363,0.26194572,0.39092097,-0.0038635507,0.048435766,-0.16704272,0.661695,-0.72150123,-0.9155491,-0.20902875,0.15721051,-0.41864178,1.083702,0.50751877,-0.8211196,-0.02201301,0.044043425,-0.34253925,-0.43583098,-0.005177833,0.45319802,0.3377797,-0.46733493,0.3309764,0.9544888,-0.03261649,-0.09120531,0.9718892,-0.6913064,0.5311215,-0.96830773,0.77822757,-0.7433755,0.8354066,0.15057829,-0.013627238,-0.43167397,0.26467776,-0.13649921,0.35508052,0.06273717,-0.5786187,0.035139095,-0.7016566,0.033359196,0.9649688,0.53580046,0.72430223],[-0.57206446,0.776211,0.8562058,0.48114124,-0.68644565,-0.18551749,-0.6437043,-0.7559549,0.6959956,0.19048996,0.2836637,-0.40737116,0.9878153,0.84833306,-0.0867229,-0.9469571,-0.96964973,0.6414936,0.7407974,0.92850053,-0.6725442,0.21386804,-0.65205115,0.9383343,1.0429119,-0.037322596,-1.0193721,0.17604908,0.7432993,0.8781627,-0.15401006,-0.5724551,0.8701754,0.6630361,-0.88092744,0.1364559,0.20254219,0.17450665,-0.54266226,-0.65076935,0.45240983,0.8723624,-0.28678638,0.19011068,0.092812546,-0.41583505,0.70923024,0.8592813,0.612871,-0.8805351,-0.5112337,-0.925249,0.10630446,-0.28645056,0.9365452,0.9958448,-0.8531898,-0.18844357,0.8586012,-0.5925347,1.0162632,-0.17366806,-0.2763781,0.67999524,-0.40736964],[0.46076995,0.9536259,0.32343358,-0.89033955,0.6745202,-0.966319,-0.53125024,-0.013849982,0.18847695,-0.42951867,-0.3548847,-0.00027302274,0.51500636,0.49646,-0.24240848,1.0054436,0.04111152,0.045191873,0.16232497,-0.9682781,0.39108795,0.0102638565,0.3744472,0.5493355,0.6809087,-0.18901035,0.56044674,0.9710889,0.18871872,-0.6302898,-0.78473896,0.37266505,0.8077792,-0.6876928,0.5044793,0.98127836,0.4140158,0.8613228,0.96632683,-0.30449983,-0.15138733,0.09696303,0.86127573,0.20943275,0.6900323,-0.21952116,-0.650732,-0.8902817,-0.36127388,0.92722017,-0.30735773,-0.5678879,-0.5548641,-0.5205276,0.1626334,0.38678053,0.5202747,0.37247133,0.22184639,-0.32062486,-0.21901882,0.34953138,-0.8365231,0.23264898,-0.17803659],[-0.60488176,0.031982675,-0.42949453,-0.31276393,0.3580616,-0.021145338,-1.0289793,-0.39324972,0.5834201,0.75717485,0.91185653,0.12148163,-0.06718015,0.7272547,-0.6833607,0.22013645,0.020311717,-0.8466473,-0.69195414,-0.12762295,0.57269293,0.78834915,-0.015581712,0.3359412,-0.26984242,-0.7869071,0.3479666,0.30453515,0.46620584,-0.29002187,-0.48105043,-0.8011161,-0.11627664,0.6314282,0.15192981,-0.48590404,0.8153319,-0.3162174,-0.053027853,0.932016,0.5927769,-0.6153177,0.78115,0.8927442,0.50959927,0.9493585,-0.54675484,-0.9046344,0.9405154,0.50284034,0.7161944,0.13862164,0.43916965,0.57666296,0.2386072,-0.7627276,0.789782,0.080353126,0.6524166,0.84815633,-0.31836262,0.92206377,-0.058623325,-0.60790724,0.8007335],[-0.50360715,-1.0227641,0.7538886,0.5532865,0.5356429,0.84920037,0.53216636,0.38801193,0.7323194,-0.59542745,0.8566158,0.4563162,-0.59779423,0.18831271,-0.39111516,-0.8916159,0.026222266,-0.4066342,-0.63960093,0.77119225,0.51191217,-1.0255502,-0.30983394,0.76272905,0.687997,0.852101,0.32440272,-0.61419845,-0.27950767,-0.33731318,-0.63592833,0.36774895,-0.22832516,0.35539973,0.9304082,0.87158144,-0.97483313,-0.31216332,0.2125429,0.8300967,-1.2036043,0.12548368,0.48894274,-0.8821352,0.6321915,-0.27528828,-0.9034771,0.8220047,-0.9504535,0.6055523,0.5044895,0.45460284,-0.12112238,0.63497305,-0.2617268,0.46179587,-0.090709865,-0.7510884,-0.63667756,-0.666754,-0.009101518,-0.79703325,0.1641317,-0.22894205,0.21586773],[0.5760529,0.8317385,0.76235265,0.5072312,0.9904064,1.1717508,-0.6990169,0.049395118,0.36721244,-0.10419552,-0.16440298,0.41300917,0.5484075,0.32612103,-0.0055215457,-0.7531411,-0.4410301,-0.22413918,-0.71562177,0.35475904,-0.53982115,-0.428629,-0.21869688,0.87240756,0.07340001,-0.6551287,-0.8870228,-0.7536399,0.16120945,0.16863938,-0.412464,-0.6270322,-0.8532666,0.36584577,-0.53547513,0.8644758,0.9975439,-0.37381056,0.7701546,0.8689614,0.2680024,0.354358,1.0390238,-0.6727054,-0.3525134,0.4075686,-0.36269593,-0.026774561,-0.6478229,0.617296,-0.9359248,0.3444653,-0.32369342,1.1985245,0.08890661,-1.1445841,0.009758564,-1.2440875,-0.3610559,0.49087188,0.5796524,-0.54252166,-0.57956046,0.77960926,-1.1559421],[-0.95692515,-0.25319102,-1.0449165,-0.23775037,0.19406843,-0.41271695,-0.6146683,0.2961342,1.1002102,-0.3104923,0.02943265,-0.857242,-0.28294772,-0.5114524,-0.641242,-0.7272711,0.01430389,0.41718876,-0.0860723,0.41450956,0.9634184,0.89363146,0.53135103,0.64966667,-0.44661254,0.0893331,0.9690215,-0.03557471,0.5970847,-0.8121588,0.79702705,-0.5121321,-0.6495196,-0.3687822,-0.047676254,0.99150234,0.5095396,0.79136115,0.123163946,-0.27834556,-0.96079314,-0.23621441,-0.82998663,0.19967693,0.59427464,0.5249901,-0.6221693,0.6028639,0.3245574,-0.8259119,0.57578653,-0.56140167,-0.3475321,-0.8976126,-0.06184133,1.0230904,0.46874636,1.1496372,-0.015558615,-0.5781883,0.8272733,0.18123548,-0.32582894,-0.4356939,0.6672182],[0.3253781,-0.48816034,0.73178566,-0.045249395,0.09731451,0.71612465,0.7669003,0.30811673,0.65793645,0.69713944,0.9177908,-0.061215743,0.24353439,-0.3029174,-0.8784396,0.12370263,0.7079317,0.055576324,0.3798715,-0.6067801,0.60919166,0.9837112,0.8385828,-0.046992507,0.02679305,0.3661906,-0.46356544,0.5165216,-0.84849495,0.17841698,0.45933604,0.13550249,0.4868588,0.4446643,-0.7961878,-0.70722896,0.9030521,0.11589853,0.98407227,-0.62180805,0.42140064,-0.44122878,-0.21077423,0.36795273,-0.96608764,0.3077937,0.42023993,-0.13368273,0.154459,0.81942856,0.81297296,0.41410774,-0.05274544,-0.2518475,0.5078393,0.6389331,-0.8693115,-0.7413852,0.85680693,-0.35466513,0.6890432,0.7590573,0.5342904,0.008968608,-0.87130874],[-0.2523423,0.34223083,-0.31618124,-0.903916,-0.6341997,0.34536028,-0.57691264,-0.75006527,0.019399822,-0.8080155,-0.49292266,-0.56336457,0.34638113,-0.26402256,0.09973342,-0.4107233,-0.09895916,-0.17514516,-0.47899222,0.8325428,-0.8421462,0.10686642,0.04349456,0.28489706,0.6126127,-1.0336945,0.64083815,-0.9170529,-1.1645077,-0.21098417,0.46509534,-0.5011978,-0.089088954,-0.030016512,0.5308358,0.20138706,-0.760197,1.03895,0.32023737,0.6354448,-0.11702898,0.53294516,-0.23571981,0.11756444,0.083539635,-0.34715953,0.59664273,0.8862301,-0.73168296,0.8016856,0.5429702,-0.5746945,0.15211105,0.17165679,0.37134433,0.4245863,0.4441122,-0.4854237,0.37480724,0.7007094,0.22184391,0.7586261,-0.25141433,-0.43434647,-0.49333647],[0.4528434,0.34238186,0.38664106,-0.60894156,-0.9366944,-0.39082152,0.17819959,0.18160518,-0.04617866,0.4511992,-0.16457984,-0.64033955,0.28397292,0.4508,-0.7942806,0.0835056,0.85819787,0.6141108,0.14991823,0.86184865,0.20243366,0.5651729,0.65514165,-0.67503506,0.31690463,-0.13582675,0.7502444,-0.73719156,-0.87155604,-0.38523474,0.8514082,0.17886893,-0.91973543,-0.28014228,-0.69549745,-0.7926069,0.14850557,-0.360594,-0.8321164,-0.0022635867,-0.5489169,-0.3230971,-0.60143083,0.6739865,-0.04132973,-0.6904952,-1.0211408,1.0320271,0.17281808,0.028104523,0.42081538,0.14601918,-0.8038792,-0.7658417,-0.16572805,-0.55806786,0.6911263,0.05700337,0.5010038,-0.83706415,0.6568829,-0.60249007,0.68881154,-0.8656759,-1.1814603],[0.11384908,0.26627198,0.50184643,-0.015771631,0.35129732,-0.16535982,-0.24758905,-1.2008164,-0.98184246,1.2916933,1.0560222,0.7495162,-0.69900274,-0.29591447,-0.48133278,-0.07458702,0.20118445,-0.14065243,-0.05102516,0.1676744,-0.58821285,-0.7960503,0.99113226,-0.5637947,0.7885127,-0.774026,0.43564537,0.75422484,0.598951,0.055898935,0.031111527,-0.8233352,-0.7268604,0.3409166,-0.21308775,0.66950417,0.0045216405,-0.41539,-0.43365824,0.93904567,-0.8001421,0.86696786,-0.81390285,0.8095439,-0.57274103,-0.00153828,0.39754674,-0.30474395,0.34263813,0.019654585,0.8045485,0.12723908,0.26456437,0.5534447,0.685011,-0.8447784,-1.1312853,0.48518464,0.32405722,0.4224857,0.45431828,-0.12644349,0.37313804,0.2695205,-1.1085078],[0.54085344,0.8395172,0.43410173,0.26205486,0.40449733,-0.5436468,0.66670644,-0.3677168,0.90729296,0.3248648,-0.6796658,-0.57970166,-0.33740103,0.40305668,0.83580023,0.583039,0.89122987,0.9796073,0.5621596,0.583923,-0.73283696,0.42571798,-0.046469003,-0.7249727,0.5482057,-0.3385788,0.54575396,-0.082149655,-0.24872258,-0.10967654,0.67460907,-0.7725146,0.8228355,0.09225001,-0.055209655,0.66455156,-0.7383719,0.20170945,0.93501097,-0.56960833,-0.37940004,0.5059648,-0.48317587,-0.6024131,-0.48563585,-0.93983436,-0.17882453,1.0275476,0.9434023,-0.2555929,0.65242565,-0.53045225,0.39457107,-0.034191027,0.16627398,-0.14750546,0.8413488,0.7337098,-0.7270583,-0.08089857,-0.6434111,0.3721095,0.04097676,-0.7185268,0.37180915],[-0.943635,-0.21052897,-0.7627003,0.54248536,0.3273919,0.26204848,-0.72760195,-0.580938,0.4768898,0.9559575,0.5297792,0.6293762,0.8086477,0.5624474,0.47308072,1.1511168,0.9061746,-1.0789089,-0.4993885,-0.85721433,-0.95189947,-0.16527344,0.43461892,0.8032963,0.3857569,0.76010144,-0.4857204,0.76685333,-0.68601686,-0.070517965,-0.16254243,0.577676,0.875852,0.8827194,0.17025016,0.17029925,0.5860552,0.9971374,0.85028327,-0.3907734,0.32686737,0.5182757,-0.15536934,-0.17275755,-0.7216973,0.06498582,0.5037411,-0.7445602,-0.34058535,-0.5961169,-0.3926597,0.07700611,0.66655844,0.17495666,0.40155786,0.64626634,-0.10322151,-0.8215578,-0.47397304,-0.7550186,0.81000715,-0.65257066,0.2794309,-0.732149,-0.42627135],[-0.61230844,-0.31125325,0.22032627,-0.3890536,0.33866504,-0.10056394,-0.44382158,-0.8166508,-0.42693624,-0.75139046,0.4826879,-0.078340665,-0.3280017,0.66084206,-0.78879166,0.54614294,0.63793874,-0.63118154,0.60433227,-0.24629149,1.0750926,0.93306065,-0.4743241,0.14289059,-0.9007933,0.051655512,0.048804175,0.020857388,0.3323178,-0.3638865,-0.69668764,0.12140065,0.7724305,0.70492524,-0.15473571,0.3329849,0.8195973,0.24548858,0.59862065,0.054632213,-0.40113857,0.51553804,0.739047,-0.5036429,-0.7729388,0.89560646,-0.6249651,-0.03822563,-0.47291157,0.39211875,-0.65515727,-0.15923801,-1.1625876,-0.7056072,-0.08746705,-0.124755464,-0.001781457,-0.021802327,-0.22182204,0.32437575,-0.33796608,0.52811474,-0.08747501,0.44127262,-0.7025048],[1.1677119,0.73470587,-0.15626608,-0.2965062,-0.0334173,-0.47982398,-0.16688523,-0.47312507,-0.04979965,0.52589136,-0.21851447,-0.16713858,0.16287999,-1.1896152,0.099287175,0.2875756,-0.31158847,0.10359369,-0.80756885,-1.0031693,-0.9744103,0.63573813,-0.17739531,0.61903495,0.33077896,-0.21397552,1.0374802,0.36834347,-0.16961367,-0.47675893,-0.17976181,-0.99487805,-0.17139961,0.6079359,0.02867539,-0.1855093,0.9446694,1.0260726,-0.539065,-0.3898766,-0.11377432,0.63888377,0.24602407,-0.17662467,1.2676237,0.72796005,-0.08931047,-0.8740993,0.49349964,-0.18749216,0.10956523,-0.8212607,-0.7487826,0.2763301,0.6035541,0.5370749,0.16810271,-0.8274458,0.20252049,0.95319235,0.27616158,0.6852842,-0.0064015784,-0.65743273,-0.44969887],[-0.18858586,0.32233325,0.6046712,-0.096140236,0.66428393,0.34931633,0.8754784,-0.5511335,0.45634967,-1.0611616,-0.51826984,-0.26135942,-0.49769413,-0.68438846,-0.26837498,-0.11605453,0.11366467,-0.63176715,-0.28315404,0.696656,-0.1482149,-0.43643177,-0.51628816,-1.0039048,0.10641397,0.74767953,-0.37024614,0.2517076,0.74035054,-0.18262129,0.2156571,0.29479006,0.80531555,-0.20089646,-0.81743866,0.32080007,0.34693238,0.26763788,0.30325842,-1.1351182,0.070416614,0.9859748,0.90529716,0.10317539,0.41506645,0.16294946,0.713712,0.46346322,0.3452326,-0.5074163,0.74505985,0.47674847,0.2834533,-0.73248166,-0.711353,0.19997844,-0.16960391,-0.5705465,-1.1305176,-0.08758616,0.076436274,0.47390118,0.63652164,-0.9109787,-0.47220603],[-0.27898932,-0.7601849,0.22233327,-0.3827268,0.05236573,-0.6935609,0.76037294,0.4083753,-0.88831824,-0.24495023,0.94933873,1.1071589,-0.0075195637,0.460177,1.1981761,-0.67586666,0.6212909,-1.0708703,-0.04545817,-0.46614102,-0.86812395,0.028849285,-0.82419413,-0.2401652,0.089925215,0.55237156,0.5762588,0.35717407,-0.747392,0.061598655,-0.22863077,0.984099,0.799718,-0.44846186,0.9242844,0.8376296,-0.13837974,0.89809966,-0.38783836,-0.3137746,1.137526,-0.03516494,0.5059554,0.58422667,0.7855343,1.0110766,0.810162,0.6675799,-0.8941972,0.37094587,-0.63759214,0.17124921,-0.21558124,-0.5588609,-0.44837895,0.7415482,-0.5077116,-0.43143046,0.64369845,-1.2638801,0.25804392,-0.3847566,-0.47324562,0.84398556,-0.64729017],[-0.9644508,1.0523168,0.06266333,0.044002865,0.6848839,-0.8161505,-0.69936085,-0.42601168,0.9322735,0.7698398,-0.6341415,0.32198176,-0.46177727,0.20823099,-0.21982417,0.19931181,0.44971073,-0.52135724,0.1938864,0.367295,0.84615767,-0.75939876,0.9630533,-0.15151162,0.47864863,-0.60330886,-0.31880742,0.3982484,0.54957837,-0.38612342,-0.82471615,0.2722891,-0.84335345,0.92741835,-0.33487576,-0.72067267,0.03273357,0.33935267,-0.76315606,0.1929477,0.12217034,-0.4531172,0.011945834,0.35615,0.21764997,0.31609124,-0.7884543,-0.72386175,-0.9189087,-0.7826604,-0.78796905,-0.33294377,0.8065061,0.8819718,0.8268807,0.15416946,-0.6592791,-0.6000824,-0.18280773,-0.214287,-0.3298142,0.9323973,-0.49177018,-0.06598946,-0.5956334],[-0.36967272,-0.7619543,-0.027834695,0.70324516,0.87048185,-0.2872415,0.7270257,-1.0451256,-1.1264595,0.30287203,1.0340242,-0.5295862,-0.46371254,-0.8155079,0.85087025,-0.89702636,0.32991192,-1.0320729,0.18182847,-0.65505886,0.24952532,-0.12579107,0.815338,-0.4866897,-0.2657907,0.10973176,-0.35280988,0.8366549,0.88165945,-0.19097684,-0.01371217,0.4546369,-0.0565157,-0.034220643,-0.17010535,0.053665925,0.14486459,-0.52509177,0.028530749,0.2821399,0.6679104,0.9851174,0.44476604,-0.4271853,-0.114900194,-0.4416058,-0.62597185,-0.9296804,-0.66612685,0.8338232,0.035220046,0.0076117455,0.14026591,-0.9161842,0.06949924,-1.200569,0.030262653,-0.62345415,-0.6771404,-0.18863072,0.41836405,0.6553207,-0.2367408,0.54952675,0.7378132],[0.6994368,0.6976964,-0.6748125,0.15842336,0.69907147,0.66937226,-0.12716594,-0.36569953,-0.32761014,0.37899542,1.0257813,0.9999953,0.042964347,-0.32969734,0.95054835,0.8349723,-0.5392449,-0.6293989,1.0153167,-0.6057481,-0.31964824,0.17873847,0.474157,0.97534096,-0.8534983,0.0027173723,0.7070911,-0.09573701,0.0064659063,0.21750396,-0.896077,-0.8192275,0.24804443,-0.58546853,0.17194599,0.7735763,-0.69712234,-0.15074763,-0.9468681,-0.8839395,1.016942,-0.5128998,-0.89703155,0.40338138,-0.4970158,-0.16227894,-0.44527817,0.89679587,0.75840545,-0.14366312,-0.7625287,-0.80050397,-0.119126104,-0.30982068,-0.6240418,-0.86786664,0.58654606,0.6699964,-0.9877335,0.5619145,-0.38851961,0.12613498,0.47200102,-0.19901757,0.9307022],[1.0617827,0.08185291,-0.26630047,0.18784931,-0.41360223,0.3000521,0.27351797,0.1636945,-0.7941139,0.91966736,0.35865763,0.06462883,-0.7455318,-0.2708527,-0.7164798,-0.028218666,-0.01015388,-0.43169302,0.28502947,-0.5645808,-1.1554598,0.6206199,-1.0169806,0.62495136,0.18522555,-0.8509419,-0.49953213,-0.31510246,-0.5185541,-0.5326663,0.72120655,0.15132345,0.2933073,-0.9498032,-0.16083884,-0.7488783,-0.150324,0.23170839,0.096227184,0.683558,-1.2474064,-0.4548671,0.8073273,-0.88031125,-0.5862421,1.0050524,0.18695149,0.39737853,0.51864374,0.0373727,0.12037512,0.706916,-0.5845226,0.2940753,0.84159887,-0.81537306,-0.3416923,-0.67336154,-0.37802362,-0.70163214,0.8913603,-0.4818403,-0.3590579,0.60844296,0.87226737],[0.5483488,0.5925433,-0.06095612,-0.83531517,0.12663965,0.59665924,-0.8907949,-0.51345634,0.69398695,0.08638981,-0.5803194,0.7516876,-0.54169536,-0.6964525,-0.658,-0.695745,-0.7872224,0.095649816,0.20150913,0.95684904,0.17746453,0.61848074,0.21036117,0.5702152,-0.8286223,-0.76563805,0.0044040573,-0.7758062,-0.7240259,-0.12105135,-0.5855361,-0.55789024,0.45300668,-0.93913436,-0.21876664,-0.051108126,0.74839735,-0.03020399,0.62951934,0.2850983,0.38276425,-0.49875495,0.14818588,-0.6414191,0.346451,-0.28540725,0.7884386,0.9317459,0.22895038,-0.68103904,-0.5669964,0.09522125,0.7923317,-0.84865344,-0.86000824,-0.036704026,-0.5096158,-0.44957253,0.90390944,-0.04774419,0.016286986,-0.1065978,-0.5088289,-0.2217846,-0.11676143],[0.5934288,-0.61709154,-0.53955436,0.021379132,-0.28004828,0.70766467,0.9118137,-0.94876283,0.031096075,-0.1565981,-0.6382667,0.7577821,-0.04598237,-0.6057496,-0.8904194,0.26094848,-0.7644586,-1.113579,0.63594174,-0.61002,-0.6667769,0.41127715,-0.27941778,-0.23154166,0.20051943,-0.40758142,-0.62265754,0.062693864,0.61056685,0.6025848,-0.6482516,-0.25005808,0.91473734,-0.8720786,0.09511819,0.04005881,-0.8886167,-0.046825327,-0.28900895,0.0447313,0.47505495,-0.28465182,-0.09203516,0.60609365,0.37658107,0.7209737,-1.0449095,-0.8010452,0.08415965,0.35838664,0.77547336,0.47336447,0.37496814,0.06318065,-0.36188933,-0.9089113,-0.1307384,0.9611016,-0.65560436,-0.25672793,0.5101236,-0.050083924,-0.015798707,0.8128189,-0.68044204],[0.27855322,-0.25917035,-0.6848732,-0.7653077,0.18870492,0.8491966,-0.15444335,-0.05510715,0.2940823,-0.20049459,-0.09369246,0.91521865,-0.8256154,-0.3724701,0.20282996,1.0416273,-0.32527366,0.41353694,-0.5026801,-0.50384635,-0.8621198,0.12884429,-0.22962372,0.5160188,0.868405,-0.17748623,-1.0169631,0.8960973,-0.2602184,-0.07560568,0.94302034,0.48859215,0.3077548,-0.08469189,0.9058308,0.17114751,-0.11097934,-0.11842493,0.21423006,0.8617802,-0.43103543,-0.4662784,-0.7024139,0.21951179,-0.48019087,-0.5745563,0.09117184,-1.1593081,-0.8190868,0.062287763,0.10601724,0.9212108,-0.3908587,0.4337414,-0.4195457,-0.99443877,0.25485885,0.7955183,-0.47389334,-0.19785494,-0.6165661,-0.74429196,-0.36864415,0.4234812,-0.7865542],[-0.4045794,-0.22239906,0.15238364,-0.8239508,0.36698171,0.84043866,-0.40929678,0.28711662,-0.4142999,0.82622504,0.6070383,0.26334658,0.03584601,0.29464585,0.7614886,-0.1554356,0.5525495,0.99199444,0.4926445,-0.22564049,-0.8976373,0.61697125,-0.20347825,0.16556598,-0.03629936,0.9982157,-0.09935825,-0.07441405,0.9583078,-0.18713689,0.85455465,0.86425805,-0.10616162,0.6582538,0.8909041,-0.69844,-0.66532177,0.05999167,-0.87936276,0.5359979,0.2603238,0.04517752,0.97948354,0.6637076,0.78531086,0.33591932,-0.9496622,0.96763426,-0.7147215,0.25464806,0.6351121,-0.7893599,0.8259772,0.31691676,-0.017081605,-0.21980283,0.43416932,-0.41733837,-0.5593454,-0.4549568,-0.46676102,-0.48363933,0.557882,0.8349675,-0.91083837],[1.0393007,0.3143239,-0.4620856,0.52371716,-0.29711735,0.5792077,-0.8982707,-0.7949717,0.29829746,-0.86274135,-1.2425554,-0.6801588,-0.0807446,0.14276421,-0.7733732,-0.6179627,-0.4439116,0.5597353,-0.6594586,-0.77210015,-1.0198321,-0.49934784,-0.21755253,0.10278201,0.3060393,0.8926016,0.29123685,0.48108917,0.58828276,1.2854394,-1.0868344,0.117159635,0.31421676,-0.23858911,-0.8445768,0.18564337,1.2895036,0.68267673,0.1640203,-0.41944382,-0.85210705,-0.23610838,-0.024140833,0.37130174,-0.13844714,0.45614377,-0.8094867,-0.9704133,0.9652687,-0.15350586,0.7166506,0.26440594,-0.32439578,1.0016334,1.0729005,0.68726295,0.41776985,-0.6490849,0.7918342,-0.6761312,0.10489718,0.9200084,1.0022979,0.7049253,-0.67115486],[-0.4818724,-0.21565275,-0.8667632,-0.3404568,0.055326045,-0.878355,-0.99082696,0.7200932,-0.5282815,0.46277758,0.3472833,-0.5012517,-0.32062203,0.32079947,-0.17841244,0.63715786,-0.032210138,-0.3957394,-0.75627726,0.21835743,0.21620302,0.13427867,0.17397907,-0.2860745,-0.5904679,-0.45965627,-0.47902712,0.31928566,0.1037426,-0.83058083,0.76830274,-0.94669694,0.48030162,0.3919664,0.5665931,-0.9125381,-1.0219313,-0.12619415,0.7764067,0.75965995,-0.9226295,0.32866848,0.3089132,0.9378729,0.28130913,0.42105213,-0.6685751,0.91008276,0.541927,0.08190023,0.7277126,0.022882152,0.3549932,0.13287291,-0.7861404,0.7643345,-0.811514,-0.8571217,-0.8810434,-0.5408576,-0.8275624,-0.009254669,0.64676845,0.87806684,-0.90590405],[-0.9383235,0.5443808,-0.5066443,0.52034134,-0.26786137,-0.980738,-0.9221321,0.59882534,-1.0307746,-0.39067397,0.36431587,-0.99164647,-0.04568595,0.17041501,-0.903784,0.43235168,0.2648283,-0.548818,0.85695696,0.8028017,-0.8009093,-0.51843303,-0.05786713,0.52056164,-0.94123185,-0.10751185,-0.15771791,-0.78067976,-0.539762,-0.239911,-0.6268488,0.37442088,0.62018627,0.874263,0.08586615,0.6773424,-0.0081924,0.47831511,0.46055612,0.7020088,-0.72626173,0.4315731,0.6165997,-0.38365668,0.034805506,-0.6013418,0.59776026,-0.09590777,-0.18591054,-0.4698273,-0.57400334,0.69141626,-0.8831939,-0.86821306,0.75336945,-0.55161124,-0.109872945,-0.23240116,0.9023667,-0.35025045,0.1438189,0.88503975,0.5731949,0.31772125,0.4787001],[0.35207495,-0.54514074,-0.5446363,0.46089375,-0.631951,-0.98316866,0.82921654,0.837183,0.6188818,-0.0008869157,0.3514266,0.2793762,-0.91364074,-0.5375132,0.24938668,0.057648063,-0.3693336,-0.19102795,-0.25495276,-1.1549038,0.539045,-0.19750403,-0.5300814,-0.22617109,0.8203889,1.189615,-1.0024039,-0.12916,0.6636122,0.3138403,-0.068382464,1.2567799,0.19416127,-0.3987375,0.41403988,-0.89016354,0.8359382,-0.56504816,0.24345817,0.45194387,-0.44684687,-0.32553706,-0.43882966,-0.6103269,-0.877571,-0.8399769,-1.0100687,0.38162804,0.47018006,-0.16502143,-0.74332064,0.3029211,0.6900006,0.34195763,-0.5349555,-0.52321947,0.88754,-0.33492252,-0.787449,0.123101614,0.1289798,0.34415135,-0.31235972,-0.37674767,0.63318557],[-0.68947417,-0.3361628,-0.22978489,-0.2065253,-0.4990271,-0.18831383,-1.0028996,-0.31719065,0.74970466,0.33185694,-0.038332712,0.3978625,-0.95252514,0.54987365,-0.042609002,0.12980245,0.74144197,-0.92369646,0.024606995,-0.9659045,0.91975904,-0.36091712,-0.34813938,-0.65212804,0.21397907,0.47833553,-0.30012837,-0.4551474,-0.39079043,0.03702755,-0.977528,-0.1820385,0.7084139,-0.9065173,-0.5458948,0.41603222,-0.3635186,0.017628664,0.32588914,0.90097827,0.6317442,0.21530926,0.7832324,0.057321057,-0.9058936,-0.88292164,0.4513482,-0.25585923,0.24754746,-0.4556796,0.38738266,0.11991667,-0.23143567,-0.10566391,0.2711367,0.15674748,-0.5063008,-0.8963726,-0.000926735,-0.09819288,-0.74933004,-0.9086369,0.67393285,0.20543145,0.6110293],[-0.8968936,-0.037432276,0.30973443,-0.46590206,0.27159682,-0.3356852,-0.86004347,0.5561047,-0.24621405,0.39283934,-0.90204924,0.41533494,-0.07418467,-0.44232222,-0.024612134,-0.31100953,0.3839645,0.20525649,0.4980833,-0.5401488,-0.4586519,-0.1243525,0.13394454,-0.62420386,-0.047677383,-0.12201257,0.582602,-0.020906216,0.8448635,-0.13439354,-0.73986083,0.042531207,-0.70515764,0.9372069,0.4163542,-0.000019622883,-0.41111445,0.16128255,0.35890326,0.33466232,-0.03163593,-0.21152799,-0.8463244,-0.3937508,-0.4987515,-0.53568643,-0.4720893,-0.13883816,-0.6814657,-0.05669958,-0.99699944,-0.17021203,0.48107395,-0.50686824,0.03184577,0.32765532,-0.60121226,0.7938462,-0.71424115,-0.5567248,-0.52947694,0.68866634,0.6567061,-0.19078726,-0.97823983],[-0.11116789,0.14002857,0.83330864,-0.7370927,-0.9211183,0.12499236,-0.1616213,0.005724394,-0.7811951,-0.20222712,0.44874662,0.0094723115,-0.0119856475,-0.35397196,-0.3469658,-0.9270607,-0.9758401,-0.06505936,0.7050624,0.37972444,0.8877253,0.41581947,0.64333016,0.14660549,-0.5047191,-1.007685,-0.18746245,0.884855,0.06736619,0.2622758,0.8939041,-1.1654876,-0.8573406,0.3432095,-0.71993786,0.3271263,-0.35638443,-0.014910679,-0.38809523,0.4951475,0.683483,0.34663022,-0.48997408,-1.0145979,0.543908,-0.89479905,0.44095477,-0.7258554,0.29074612,-0.31449467,-1.0002391,-0.3829495,-0.22693264,0.8348027,0.6757414,0.7586024,-0.101521194,-0.82822067,0.8711968,0.8417099,-0.18066837,-0.5235709,0.27556998,-0.018028261,-0.6541965],[-0.69589186,0.92187506,-0.31921613,1.2073679,0.9244568,0.3771727,0.35184652,-0.8637553,-0.67184657,0.3541516,0.0777598,-1.1593704,-1.0811679,-0.8742866,-0.8297162,-0.4141333,-0.14656131,0.12737954,0.26048005,0.9570421,0.78172916,0.39342293,-0.7303093,-0.51430684,0.6523037,-0.5959456,-0.73762906,-0.23621517,0.58958375,-0.6065342,-0.7833086,-0.56561637,0.7616442,-0.9244869,-1.12872,0.5783861,-0.44922572,-0.8990679,-0.37249717,-1.0113949,-0.8991019,-0.46739137,0.37553364,0.50189763,-0.9549585,0.1164839,0.7485432,0.57384187,0.83434826,0.16943608,0.8903946,0.1436947,-0.8548294,0.8603647,0.13017814,-0.8747663,-0.49911603,0.6494646,1.1721772,0.6263198,0.6150012,0.8547021,0.10233288,0.32858887,0.8538021],[-0.46394396,-0.6008655,0.103181034,-0.6936552,0.87487954,-0.008503675,-0.38792127,0.9200849,0.5316015,-0.7891747,-0.1148684,0.72712064,-0.8241626,0.058316234,-0.50846165,-0.725757,-0.6101699,0.7774849,-0.9147035,-0.93964946,0.6516456,-0.40806437,0.81086695,1.1112931,-0.59379,-0.38649186,0.83536875,-0.78302985,0.55244297,-0.11488482,0.31593892,-0.12146213,0.5443102,0.8121509,0.14492784,-0.33811328,-0.81242865,0.6821866,0.61605054,-0.13909896,-0.83643174,-0.33602583,0.5003738,0.82711154,-0.7274185,0.3130105,0.0028068305,-0.3476986,-0.8633048,0.77195495,0.6078002,0.5402329,0.778729,-0.60246855,0.6328653,0.90512425,0.72850406,0.98548687,-0.12963316,0.967429,-0.42828652,0.6599203,0.5580662,0.048598472,0.1600486],[-0.09759429,0.66792333,0.62823635,0.723564,0.24986942,0.1882897,-0.2875507,-0.34991908,-0.22986123,0.62503844,-1.0491887,-0.028816996,0.2655793,-0.52413917,-0.729383,-0.8784552,-0.7187735,0.12186822,-0.003479776,-0.045529705,-0.1605554,0.62452286,-0.16600248,0.13089845,0.93889743,-0.45260075,0.2555468,-0.3930209,0.22343661,0.57299566,-0.21570627,-0.60288376,-0.30210963,-1.1649183,-0.70164305,-0.79007787,-0.24714814,1.1632531,-0.24572155,0.23639822,0.88079834,-1.0788317,-0.90752214,-0.042229693,0.07475536,-0.3962177,0.016190274,0.79090685,-0.38457036,0.3539433,1.1387656,0.29995385,0.11957695,-0.92655486,-0.76453304,0.21061338,0.5969425,0.5818491,-0.68202806,-0.06292628,0.76686764,-0.2286731,0.3792126,0.8780214,-0.21056706],[-0.45178497,-0.23111843,0.40739104,0.67868066,-0.50651145,-0.7233641,-0.55932254,0.55597687,0.7566873,0.7427564,0.057239834,0.06785868,0.67261416,-0.9577248,-0.44177383,0.23142928,0.23352951,-0.5162293,-0.9687951,0.024835302,-0.74902695,-0.74712116,-0.2702574,0.94585073,0.7832427,-0.45236412,-0.751204,-0.14376038,-0.85698694,-0.5138019,0.21418776,-0.55541486,-0.2978356,0.14428927,0.037948985,-0.33312872,-0.005591116,-1.0414008,0.6199811,-0.49061167,0.9989139,-0.29536256,0.8219376,0.9215562,0.27674177,0.81595635,-0.6937541,-0.38348502,-0.5960341,-0.85314023,0.3939023,-0.35463625,-0.25182095,-0.8313255,-0.69767463,0.16545479,-0.24696201,-0.49038786,0.77050734,-0.005491577,-0.41475314,0.3332566,-0.35941687,-0.77944195,-0.5557779],[-0.6353319,0.85868675,-0.63381743,-0.3652325,0.8092783,-0.097973995,-0.92702913,-0.67620933,0.001845015,-0.43900955,0.6392807,0.546953,-0.02240271,-0.9302006,-0.68533117,-0.82998043,0.39168602,-0.8577133,-0.99009037,0.45085,0.5727706,0.34684077,0.24795815,0.5855397,0.19073708,0.83173484,-0.037741292,0.82376355,0.54170007,-0.20962806,0.66089654,-0.12415873,-0.59476334,1.0265839,-0.70228523,0.9498144,0.6350034,0.7504546,-0.88160264,0.53654945,-0.73519725,-0.46722993,-0.27405688,-0.47370487,-0.5426862,-0.557475,-0.9712801,0.3359016,0.7880573,0.048668034,-0.24903461,-0.3971475,-0.989456,0.07878123,-0.61865157,-0.7409894,-0.8780601,-0.23116513,-0.79966015,-0.44001383,-0.44425994,0.20434234,0.41710597,-0.95838076,-0.954372],[0.049369305,-0.6026695,0.62547916,0.5838936,0.4662086,0.984299,-0.8571564,-0.35783356,-0.7375123,-0.8545299,-0.3348228,0.064209975,0.7099248,0.83538437,0.18848345,0.3959246,-0.77696747,0.6658833,-0.4475282,0.79042476,-0.32660893,0.08920665,-0.6810753,-0.27310172,1.0200078,-0.11462779,-0.23312151,-1.0285037,0.29236534,0.053188387,-0.816579,-0.8103781,0.69993097,0.63235086,-0.39921322,-0.4868935,0.03557752,-0.9431592,-0.5579043,-0.52231085,-0.9271296,-0.9923799,0.74478936,-0.34665403,0.35207027,0.5856895,0.5568937,0.41292602,0.41291487,1.0213467,-0.45664543,0.865058,0.6729512,-0.59812737,-0.57558376,-0.7213584,0.72411084,0.28308547,-0.81372637,-0.008533562,-1.093241,0.6399284,-0.4414829,0.072277635,-0.8538246],[0.1367947,0.21530454,0.83054173,-0.808516,-0.1075972,-0.12267051,0.647882,0.80308133,0.2983327,-0.12027037,-0.8237027,0.6807861,0.20193534,0.51399624,0.81645715,-0.730907,0.6125162,0.91211754,0.75571483,0.64406383,-0.50591093,-0.438301,0.6413007,-0.66598076,0.9216489,-0.78740484,1.0067233,0.86573875,-0.008886445,-0.56047046,-0.11971683,0.67832524,-0.68585914,-0.5128816,0.42430857,-0.29588452,0.2247284,-0.45500958,0.052493755,-0.19133669,0.73014003,0.5255956,-0.6499422,0.1044082,-0.7130135,-0.16642395,0.6629486,-0.013588585,-0.7901874,-0.35382417,0.4939085,-0.039803103,0.7840101,0.1721813,0.31586394,0.7544306,-0.96643573,-0.8275064,0.69776493,0.2809128,0.2544254,-0.020572955,-0.64696497,-0.09768233,0.85816365],[-0.07650315,0.61876214,-0.7719195,0.24110402,-0.4772836,-0.53527194,-0.21822692,-0.74935484,0.860939,0.96188766,0.072249286,-0.78297496,-0.25842598,-0.55222046,0.9130531,0.25842616,-0.4252816,0.6607599,-0.2936444,-0.103762306,-0.32905015,0.13798217,0.20839137,0.92905766,0.38667467,0.56563836,0.924641,-0.9961299,0.7211877,0.34468356,-0.06573289,0.7864195,0.9248538,0.00039895345,0.47283733,0.5688724,0.52247226,0.5994227,-0.8178694,0.5975631,-0.42200837,0.87107956,0.8361551,-0.5284827,0.39348105,-0.37079886,-0.7179146,0.92144364,0.05154133,-0.615826,-0.36873445,-0.03708432,0.20357259,0.4778614,-0.70034784,0.9551423,-0.6443127,-0.6761668,0.8952679,-0.84415275,-0.2400913,0.1647583,-0.07042361,1.0984883,-0.76174915],[-0.42965278,-0.731311,-0.18618329,-0.050378293,0.073916204,0.64981127,-0.96698624,0.7490155,0.23466407,-0.113970794,0.54706764,0.79753786,-0.9520641,-1.0113158,-0.03551769,0.638752,-0.68105704,-0.602265,-0.38223377,0.19086596,-0.34428945,0.606499,-0.27382264,0.7052622,0.38164583,0.5117827,-0.20483963,-0.16239683,-0.1113126,-0.19478756,-0.7769583,-0.60830367,-1.0278654,0.5992197,-0.19484085,0.11975323,-0.07315601,0.18772034,0.15991251,0.1258116,0.25318298,-0.6462563,-0.021331284,-0.6024064,1.013422,-0.6066914,0.8960366,-0.0016415188,-1.259382,-0.5619278,-0.38653663,0.76600254,0.30622497,-0.37401798,1.2512289,0.7275639,0.12706327,-0.21234594,0.43853858,0.00015840538,-0.21724503,0.7105614,-0.9943206,0.52187,0.833088],[-0.14971428,0.8990631,-0.8170822,-0.2987958,0.83246326,-0.34760433,-0.8877811,-0.30118334,0.11105319,1.0096785,0.7793614,0.37173536,1.2320055,-0.21941367,0.5327241,-0.07448172,-0.73452175,-0.77894515,0.34179327,0.43484795,-0.44935,0.78529346,-0.5739595,0.8626743,-0.00039268038,0.4284096,-0.5297484,-0.1614836,0.025081387,0.7213661,1.0576825,0.20316766,-0.17987938,0.43425494,-0.59251535,-0.30444187,-1.0925121,0.24772824,-0.7134048,-0.5362242,-0.5058872,-0.016817112,-0.8339541,0.17889668,-0.52583945,-0.53525,0.8310736,-0.95250946,-0.10700942,0.0030022608,0.07655569,0.74481606,-0.7266492,-1.0759299,-0.08491796,0.77758604,0.5157466,0.6220371,-0.1253045,0.08882527,1.091926,0.7015546,0.5329406,0.029652394,0.3060795],[1.080741,0.20074026,-0.062010743,-0.7360085,0.11730833,0.73780113,-0.82173264,-0.2753266,0.5485588,0.44683805,-0.0057247556,0.9996633,-0.44504508,0.61230266,-1.0677711,-0.004430247,0.60284746,-0.7234001,-0.24176025,-1.1431929,-0.4281025,-1.0838436,-0.28967783,0.27831736,0.54632044,0.4674413,0.49226677,0.65682673,-0.5199705,-0.8107336,-0.5221914,0.6445793,-0.68696,-0.08416133,0.23112623,-0.8171846,-0.57439584,-1.0801294,0.6543872,0.354084,-0.91050845,-0.17754872,-0.638472,0.78273153,-0.5158907,-0.33929482,-0.08390778,-0.9739223,-0.71627,0.09467711,-0.26144132,0.592615,0.810805,-0.37005118,0.8398139,-1.0716805,-0.11429404,0.41909218,-0.65123206,0.73982555,0.21512501,0.07667073,-0.7778092,0.8220153,0.11651037],[0.26678377,-0.2808224,0.71825135,0.61564314,-0.38815975,0.29534897,0.25352576,-0.02625796,-0.5289051,-0.5470939,-0.30093756,-0.47804496,0.044913206,0.10766463,0.11798479,-0.46251705,-0.5538184,0.65551263,-0.44238114,-0.6458284,-0.665738,-0.9759105,0.6518525,-0.25170198,0.29595315,0.4182006,0.8679122,-0.14124954,0.9596842,-0.2567464,-0.97300506,-0.38163862,0.36980495,-0.54093343,0.23476931,-0.69231105,0.33436555,0.5669597,-0.43133023,-0.5190007,-0.9918602,-1.0188639,0.41349608,0.9678666,-0.5290041,-0.30299333,-0.24715762,-0.002726634,-0.4382703,0.09578886,-0.43851966,-0.29302907,-0.028264279,-0.1011702,-0.7214978,-0.123466425,0.038892444,-0.6728309,-0.7554777,-0.6190931,-0.47126555,0.10364666,-0.101694696,-0.6135801,-0.040217448],[0.477372,-0.6739713,-0.5368218,0.22435579,-0.63648814,0.003993694,-0.5796037,0.5562313,0.7719313,-0.7718888,-0.23491123,0.08077253,0.988775,0.33072898,0.73268765,0.82540053,0.86108893,0.04722164,-0.038855113,0.53746456,0.7206045,-0.22644882,0.7639304,0.5836704,-0.8256308,-0.368911,0.16911088,0.4025811,-0.2434641,0.4236551,-0.5942263,-0.74060744,0.5499325,0.32754877,-0.30132174,-0.7649297,-0.43203765,0.71629226,-0.7781877,0.07982203,-0.16897133,0.93357646,0.95597637,-0.5693317,0.32929865,-0.8868316,0.002626846,0.77077544,0.124590576,-0.3622351,0.2036705,-0.79425424,-0.88150436,0.6881584,0.28807962,-0.86273336,-0.30166462,0.38239127,-0.25539333,-0.25068504,-1.0969362,-1.0400051,-0.8842197,1.0682374,-0.17703561],[0.84443974,-0.54838204,-0.3355867,-0.07186326,-0.27543408,0.32241863,-0.64675057,-0.46759173,-0.57989657,0.60232437,-0.9951265,-0.1670154,0.57408255,0.9778983,0.8964464,-0.23239608,0.4868562,0.15685621,-0.6554524,0.16598932,-0.91261965,-0.78538054,-0.50886726,-0.9298756,-0.024072513,0.7574956,0.7528135,-0.6782779,1.3084668,1.1597296,0.08855821,0.5070004,0.48696586,-0.37233505,0.66899097,0.4155998,0.37972015,0.6981735,1.0686408,0.3442522,-0.56362,-0.854275,-0.08208091,-0.8952793,-0.61798245,-1.2357801,-0.6546045,-1.2057724,-0.4261628,-0.47861454,0.10391588,0.839359,0.44052577,-0.14675099,0.55285656,-0.68272763,-0.33558476,-0.96799064,-0.41143227,-0.15002134,0.12088313,0.8628327,0.5645259,0.02018026,-0.14976305],[-0.7834742,0.20869912,-0.124949835,-0.88485146,-0.6922111,-0.40556192,0.37876564,0.5856121,-0.30596763,-0.024975605,-0.4822576,0.9549731,0.6529469,0.5048543,0.3697765,-0.1828562,0.7703737,-0.58555454,0.7123554,0.3688399,0.9104887,0.220032,-0.19554667,0.6840383,-0.8482909,0.43124494,0.2433964,-0.13986935,-0.6164155,0.467477,0.62792104,0.097637415,-0.2670384,-0.038863447,-0.3336527,0.60186106,0.69182503,-0.9052649,0.9622698,0.2808134,0.36112243,-1.0064901,0.5862649,0.33607665,0.28377736,0.30956975,-0.44102085,-0.13977543,-0.9313329,0.11159414,0.8594528,-0.117035314,0.56961495,-0.49493262,-0.61696684,0.43159783,0.34337825,0.22891307,0.6109444,-0.0671107,0.67437965,0.47105718,0.04891597,0.71131146,-0.13784456],[0.7156841,0.46685475,0.2698966,-0.46627292,-0.5823121,-0.5042378,0.064109854,1.1216689,-0.7544778,0.21454304,0.5032814,-0.78160614,-0.6735813,0.16543555,-0.82556087,0.6024832,-0.406749,-0.37195054,-0.037083812,-0.7809058,-0.03192948,-0.87799436,0.7912627,0.23305036,0.86500186,0.8956664,-1.129811,0.17531198,-0.20082457,0.53960043,-1.1713126,0.1356456,1.0658337,0.22674479,-0.19399232,-0.98957115,0.9337431,0.34722623,-1.2284644,-1.0410066,-0.37651676,-0.38902697,-0.9768135,-0.93131965,0.17758757,-0.34716207,0.49995503,0.46461958,1.0905237,0.846554,0.23399775,0.67050135,0.7894029,0.26947576,-0.6795797,0.14810202,0.8894233,-0.45379993,-0.032218322,-0.6904012,-0.80404747,1.0772107,-0.89169204,0.34452313,-0.6660532],[-0.20231415,-0.6607215,0.20485598,0.79394794,-0.3030432,-0.73870075,0.8258178,-0.575188,0.6271797,0.13639502,0.3273587,0.25416535,-0.021403296,-0.26969755,-0.39148113,-0.016730389,0.34994268,0.1957886,0.04377359,0.9014172,0.15847917,-0.04364594,0.4473097,-0.99578595,-0.5267009,0.690425,-0.031880762,0.97713786,0.05433639,-1.0229366,0.8833401,0.18207514,-0.7368296,-0.9321814,-1.1325147,-0.23261917,-0.31398675,0.03419104,-0.92036027,-1.0666492,-0.9765743,0.32032666,-0.08939419,0.50265783,0.6550357,-0.5033091,-0.77552545,0.7085912,0.45406583,-0.8302427,0.6148922,-0.74544066,-0.48583955,-0.75221866,0.26246935,-0.1448247,-0.5753277,-0.34936377,0.29972824,0.4096722,0.51436305,-0.8415355,-0.7902869,0.98048764,-0.2202985],[0.294232,-0.8302821,0.5049263,0.28652105,0.9013506,0.7080641,1.010215,-0.48797256,-0.8251186,0.33413547,0.50104547,0.13259228,-0.19535969,-0.018049756,0.311466,0.2003416,0.8156696,-0.32346347,0.71886474,-0.42939606,-0.6346085,-0.045953397,0.9551416,0.17873721,0.20075715,-0.73411316,-0.056448743,0.24959844,0.29795045,0.044862214,-0.2663856,-0.9294308,-0.43743348,-0.53140604,-0.17945327,0.07018942,0.04173807,-0.5918824,-0.04875195,0.5942363,0.01262885,-0.4681028,-0.38590828,0.27491072,0.6766628,-0.073000856,-0.5899294,1.0068191,-0.31980503,0.84993845,-0.38194993,-0.068154834,-0.40785915,0.21899101,-0.19539952,-0.40649524,0.45864502,0.09788381,0.9605764,-1.0348206,0.63112885,-1.012756,0.17308106,-0.7921249,0.82107884],[-0.22417055,0.9135511,0.32582238,0.26227677,-0.58299685,-0.5877918,0.41407323,-0.30474976,-0.039868064,0.75812775,-0.34725472,0.46156085,0.8490347,0.9594551,-0.6903734,0.75873864,-0.33345744,0.2134663,-0.8990996,-0.29691926,0.39104027,0.8341362,0.47951376,-0.08301335,-0.027250065,0.026266038,0.81741893,-0.3337598,0.2976401,-0.7028218,0.40415928,-0.6219513,0.786062,0.16109769,0.11708364,0.68340224,0.84823114,0.5751771,0.1969655,0.85233283,0.35570017,-0.13620822,-0.7515184,0.39326176,0.6438759,-0.4067247,-0.052823704,0.725221,-0.95500934,0.0028887263,-0.49699867,0.065402776,-0.54339665,-0.48761836,0.8601321,0.8209809,-0.089045,-0.028894767,-0.06025314,-0.41666391,0.0785545,-0.06381312,-0.10420345,0.24630037,0.7448349],[0.4991655,1.0066081,0.80819833,-0.8011713,0.54353344,-0.067618266,0.5958585,0.43138105,-1.0387142,-0.22612602,0.7548272,0.63072026,-0.7528196,-0.24355419,-0.6167397,-0.52388954,0.8820933,-1.087498,0.12017135,-0.8397335,0.4889993,-1.2253878,-0.41159227,1.0710027,0.3286558,0.21891747,-0.77613807,-0.30698973,0.4776014,0.6871005,0.42103946,-0.25768247,0.9544254,-0.79958785,-0.0707484,0.7209135,-0.6659534,0.82802075,-0.8766846,-0.159316,0.35398647,0.3367059,1.0663857,0.592323,-0.7064751,-0.5774331,0.04529852,0.70409507,-0.33335784,-1.1002685,-0.80075175,-0.22732197,-0.7430979,0.63446456,0.52727765,0.8124665,-0.0024539141,-0.7724209,-0.1282653,0.31218866,-0.96602494,0.52814764,1.0666637,0.16222925,0.5527154],[-0.30122098,-0.80310893,0.10812003,0.32596064,1.054065,0.6979557,-0.46316653,-0.18553938,0.5047134,0.17757332,0.6294849,0.03760394,-0.6117709,-0.38670525,-0.64853734,0.08028496,0.26171923,-0.44485968,0.81077874,0.38189736,-0.2195802,0.20251863,0.041123793,0.49313188,0.55913,-0.21849918,0.26175246,-0.097192675,0.2926327,0.46567616,-0.9231091,0.94487125,0.032649055,0.6729963,-0.03871303,0.9477141,-0.5028576,-0.12708408,0.8354254,0.90234697,-0.011462804,-0.91861606,0.7348801,-0.5522887,-0.7912022,0.53019816,0.9709,0.74303657,0.8164436,0.5183964,-0.072000794,0.8735345,-0.617226,-0.4890735,-0.63080627,-0.9849084,-0.048707396,0.5468969,-0.110155106,0.69706845,-0.6788345,0.064152695,-0.3087864,-0.865726,0.8444876],[-0.7051831,0.36630672,-0.041052226,-0.74045795,0.02563576,-0.039684985,0.16353323,-0.5267951,0.8380492,-0.98069257,0.47822607,0.60708296,0.2551458,-0.23698469,-0.04971094,-0.38447508,-0.033368457,0.17406581,0.19924517,0.9606871,0.7326708,-0.48833233,-0.8422197,-0.45662904,0.4169272,0.4041807,-0.100416414,1.0361288,-0.0043732976,0.68881416,-0.46545413,0.27338624,-0.32031193,-1.0147873,1.009083,-0.24883556,1.254579,0.86235994,-0.13655947,0.6044069,-0.49491444,0.40610093,0.050982144,1.0370567,0.08858468,-0.88961524,-0.17300768,-0.4153609,0.9184475,-0.6617752,-0.13518658,0.31471106,0.9591791,0.400538,0.025102608,-0.11208201,-0.029739166,1.0301248,0.17911474,0.3065114,-0.91240335,0.88393867,-0.70179266,-0.5109017,-0.35490975],[-0.25495502,0.11899249,0.3578669,-0.27856258,-0.18926257,0.6195658,0.944724,0.48709738,-0.8077314,-0.5374879,0.27540034,0.8191689,0.32579368,-0.8690369,-0.4590221,-0.60392386,0.2213456,-0.76348716,0.5275924,0.9956238,-0.7870472,0.71409315,0.42422533,0.80780065,-0.37514898,-0.11919054,0.55075544,0.09573122,0.7008328,-0.7061138,0.76534843,0.23923118,0.44197464,1.0105994,-0.7790552,0.78255874,-0.7003463,-0.93713504,-0.27615824,-0.461332,-0.70831084,0.36813033,-0.88494116,-1.1288636,-0.7682446,0.40443537,-0.59078205,-0.36808652,0.8729244,-0.49399185,-0.3348483,-0.0878212,-0.7388529,-0.41379863,-0.06003858,0.054267548,0.5146212,-0.18741117,-0.31139195,-0.09072317,-1.052511,-0.13443945,-0.13000824,0.44090724,-0.69502234],[-0.8092585,-0.6374386,-0.625031,0.0060648704,-0.32887843,-0.078722656,-0.082832284,0.726559,1.0554646,-0.25179633,-0.18565984,-0.81295305,-0.83020306,0.13694844,0.62010103,0.38541666,0.96607137,0.89539933,0.45886174,0.7091721,-0.057049625,0.434095,0.42896837,0.23433425,0.6145071,-0.83833945,-0.25253424,-0.43855467,0.3345166,0.2503697,0.6986859,-0.16632932,0.06187306,0.6046526,-0.8406282,0.4346498,0.761302,-1.0496582,-0.1382765,0.11067714,0.05352701,0.71069103,0.34621093,0.5424246,-0.040113933,0.72533256,0.29270458,0.11307357,0.78466994,-0.25747994,-0.2582987,-0.07460888,-0.57848257,0.72854245,-0.30049056,1.0162895,-0.14961632,0.10034247,-0.15377626,-0.5180029,0.865315,-0.8422506,0.41693857,0.29065385,0.22240019],[0.6224132,0.91303074,-0.48982623,-0.95430624,-0.7030783,-0.5288216,0.92307377,-0.8123318,-0.14808354,0.86958593,0.7879025,-0.05614064,0.6615581,0.06359219,-0.40976387,-0.084022716,1.0013422,-0.9682029,-0.73589563,0.8072826,-0.44780016,-0.9785109,0.03373791,0.06657505,0.24025176,0.60042155,0.4313804,0.32740453,-0.58276397,0.037182767,0.03678261,0.5941637,0.014444647,-0.31765866,0.74428713,0.6205609,0.103533864,0.8200196,0.2756412,-0.6164764,0.61037135,0.55616146,-0.3970906,0.3262759,0.68836313,0.27822718,0.059447497,0.56952333,0.8031806,0.6473811,0.39863974,0.6934724,0.6533271,0.652545,0.7523223,-0.14565514,-0.6489035,-0.6952559,0.9352735,0.7795646,-0.01001306,-0.6092945,0.5206099,0.54452515,-0.16528256],[0.87494254,-0.4426294,-0.2280106,1.2295434,0.3013024,1.0810212,-0.20788847,-0.3338386,-0.3041948,-0.9690134,0.15040687,0.907078,0.19582759,0.041037977,-0.27163056,-0.6934716,-0.67257094,0.6649206,-0.833674,1.0180527,-0.57293534,0.16240546,-0.5965196,-0.80875444,-0.016563224,0.21075079,-0.20793916,-0.2224909,-0.29205784,-0.45749572,1.0221916,1.1077808,-0.48614618,-0.2749514,-1.2620833,-0.8566375,0.5225628,-0.1316974,-0.7139207,-0.7764868,-0.5007336,0.3379793,-0.2023447,-0.4089869,1.2209045,-0.6543951,0.6247786,0.7830287,0.5224306,-0.5769883,-0.11323147,0.20011051,-0.35740042,-0.3194858,-0.2570532,0.0619316,0.68874854,0.34119046,-0.10700361,0.82227963,0.052306835,-0.5956674,0.60377824,-1.0961981,-0.3213384],[-0.2268586,-0.63255656,-0.38532335,-0.14080828,-0.5050064,-0.66929394,-0.63567144,-0.40525785,-0.053548936,-0.10931408,-0.1449819,-0.22098446,0.8219387,-0.7828476,-0.034591332,0.21092308,0.08629673,-0.34010583,0.35742182,-0.09523788,0.8859514,-0.484095,-0.6911989,0.92207336,1.1397368,-0.44681087,-0.98545593,0.12256445,0.48585677,0.9472722,-0.38477802,-0.13358755,0.80065393,0.41260904,-0.49670815,0.29708892,-0.03562359,0.7867282,1.1725907,-0.27870804,0.77310544,-0.7859998,0.24835096,-1.1090732,-0.3819149,0.22569521,-0.35805786,0.28341612,-0.7170148,-0.64748245,-0.56134325,0.44562393,0.9354353,-0.20268445,0.43549532,0.8632615,-0.9659951,-1.171915,0.5061044,-0.6295041,0.88903445,1.0637734,0.7289548,1.0502827,-0.39964584],[0.632845,0.19946511,-0.34739974,-0.40556362,0.6310955,-1.0212147,-0.28636298,-0.99838316,0.48957035,-1.034134,0.61624885,0.7502748,0.16810432,-0.1904338,0.71425396,0.17411447,-0.93061876,0.02001012,0.15723486,0.63392437,-0.80227166,0.32739064,-0.2341693,-0.8371631,-0.80637646,0.65701836,-0.7825044,-0.57410127,0.75198513,-0.66155535,-0.13518603,0.104986586,-0.6644726,-0.05634297,-0.52246565,-0.09813624,0.5531244,0.47496915,0.703093,-0.5722912,-0.43266264,0.26415834,-1.0292302,-0.604178,-0.7590902,0.22198378,0.096994124,0.54860824,0.8489497,0.3669632,0.75499016,-0.7816557,0.15895246,-0.009226382,0.4998833,-0.36052692,-0.512001,-0.8027227,-0.8367408,-0.5649447,-0.07961745,0.73426056,-0.36337638,0.47501442,0.91452724],[-0.4015948,-0.6919606,-0.39124918,0.13910173,0.8384457,-0.7086246,0.640032,-0.55999935,-0.8140061,0.50947773,0.13786489,-0.70744777,0.9039818,0.6970286,0.90939796,-0.1503403,0.3198417,0.6396211,-0.033280842,0.84425855,0.41139588,-0.8056358,-0.34145486,0.2701975,0.8937045,-0.31729484,1.1973679,0.5122103,-0.5457088,-0.90799767,-1.247945,-0.23004997,-0.95696926,-0.69968605,0.08654608,1.0125481,0.12793957,1.1883409,-0.25177866,-0.5648022,0.5950944,-0.85689354,0.074596085,0.63531095,-0.43952885,-0.63565606,-0.4593766,-0.18303375,-0.53745544,-0.7196478,0.68571544,-0.26172137,-0.36381885,-0.115052335,1.1918744,0.3197913,-0.43340465,0.9977566,-1.0432497,0.47568545,0.87489563,0.6063319,-0.49994442,-0.11491536,0.38962644],[-0.37747297,-0.7594116,-0.75368106,-0.4534678,0.5674956,-0.26079348,-0.43296888,-0.5292665,0.71544623,-0.6226657,-0.07520566,0.63192266,0.22997694,0.8024151,-0.671955,0.39654836,0.090972245,0.9945124,0.09334152,-0.20953766,0.59194773,-1.0775383,1.0948392,1.137798,0.074261054,0.60887355,0.4572315,0.7088506,-1.0326505,-0.7223476,-0.7907431,0.5044242,0.19535153,-1.0146278,1.0165269,0.62155604,-0.53329176,-0.85368955,0.009686198,0.5360525,-0.5099646,0.73275423,-0.22493666,-0.15354472,0.72154325,-0.6622973,-0.019929854,-0.67569345,0.95182157,-0.3041971,1.0619485,0.6489876,0.069947444,0.078251384,-0.18310973,0.2563247,-0.23561822,0.19286253,-0.9570047,0.67256373,-0.294197,-0.6547734,-0.52284116,1.0000006,-0.20711093],[-0.45325935,0.2073108,-0.5720577,-0.021879042,-0.41080454,-0.9464399,-0.6211122,-0.7183625,-0.08673555,0.497392,0.93225646,0.6817441,-1.0573512,-0.9745807,-0.32502148,-0.4690238,-0.2986614,-0.40887958,0.49677515,0.7191313,0.6452183,0.3059436,-0.06443122,-0.53133255,0.73247343,-0.38991308,0.05469252,-0.4249346,0.0064978776,1.0513449,-0.08777947,-1.1064477,0.78126234,0.39444992,-0.42292488,-0.5264951,0.5295306,-0.2751151,1.2103904,0.7917481,-0.25596455,0.3801157,0.022152305,0.47386804,0.36464298,0.06003056,-0.022336507,-0.36010358,0.31362334,-0.39241487,0.19151299,-0.29710257,0.4333875,0.21608847,0.49483335,-0.87692565,-0.47257847,-1.0163226,0.12877907,0.49522626,-0.66789395,-0.3944134,0.19824593,0.5989297,-0.7952386],[-0.4699903,0.69974226,-0.58883244,-0.052637246,0.35107738,-0.7786744,0.7509176,0.16384408,0.19010237,-1.1389254,-0.41226178,-0.86344534,1.13299,-0.3419044,-0.20254903,0.81376857,0.06672247,-0.1528902,0.0062081097,-0.095800914,0.30542755,0.99134326,0.16992451,0.021060456,0.40210217,-0.4637326,0.82387227,1.0165386,-0.030980151,-0.19726208,0.012152764,0.3860947,-0.427123,-0.41371885,-0.78720665,0.2247205,0.91072077,-0.4556438,-0.23383981,-1.0466068,-0.7174738,0.11404333,-0.053090353,0.23488611,0.15013602,0.3662245,-0.953798,-0.35714436,0.51345223,-0.76920134,0.29236785,-0.9011799,-0.6205106,-0.49139532,-0.48030117,0.4775437,0.5733794,-0.79519063,0.19072466,-0.37726644,0.1762201,0.09988054,-0.69078135,-0.099880174,-0.5535236],[0.98377264,0.40630513,0.5127683,0.52921635,-0.022816714,-0.14789948,-0.15149586,-0.95253366,-0.101735614,-0.31175193,0.18695505,0.41943714,0.7391645,-1.0619532,-0.07258676,-0.14019105,-0.56420517,-0.31952074,0.711031,-0.82165915,0.28716204,0.72510344,-0.6532225,-0.720669,0.28491095,-0.7862016,0.19974317,0.0017927905,0.5670699,0.8979187,0.35386238,-0.52506685,-0.85380036,-0.021958131,-0.7093388,0.9054631,-0.86007726,0.9622946,0.8145579,-0.82223725,-0.15087399,0.59336656,0.37554896,0.9969641,0.911487,0.76657903,0.78533196,-0.18344404,-0.77355784,-0.33063242,0.64005387,0.4984567,0.19378681,-0.6215303,0.9120976,1.0310606,-0.5760377,0.31365815,0.02161475,0.111135975,-0.88255364,0.07040374,-0.37465745,-0.26074383,0.48483977],[0.7771549,0.1713414,-0.56255865,-0.17902021,0.19434954,0.92083466,-0.8758847,0.18117528,-0.16062702,-0.92611057,-0.083055474,-0.7893104,-0.44900253,-0.25887084,0.015973793,-0.415795,-0.5924064,0.28317246,0.48757842,0.7576075,-0.94416267,-0.5539446,0.8152178,0.21448687,0.28817493,-0.5910091,0.31216463,0.8300245,0.5823628,-0.6495933,0.21604526,0.5212085,0.032577716,0.17508107,-0.6596907,0.014194163,0.89565694,0.24757625,-0.35753915,0.86192685,-0.4939161,0.92124575,-0.65806746,0.6349429,0.58402705,-0.731257,0.48250797,-0.8004418,0.62082416,0.80132973,0.6138186,0.2690277,-0.14551322,-0.8393553,0.76710075,0.45681104,0.9587638,0.37360257,0.61297506,-0.93366426,0.44235283,-0.74215025,-0.85081756,0.7220217,0.605706],[-0.23937704,-0.0042537614,0.1543632,0.103837505,-0.7843321,-0.18199803,-0.32364264,0.4619113,0.16647539,0.040300123,-0.38019168,-0.18758456,-0.7023749,-1.0072646,-0.5355623,-0.23133132,-0.08991633,-0.70801324,-0.539673,-0.5454055,0.22631036,0.39013213,0.14777105,-0.052061938,-0.8886927,-0.024264503,1.0000445,-0.4844619,0.5951046,-0.51731503,0.34982198,0.837497,-0.9843567,-0.9137595,0.5519354,-0.24921885,0.6585653,-0.4756603,0.7556933,0.5725739,-0.5342075,0.39238676,0.53021395,-0.2872647,0.16295137,0.22983147,-0.91669434,0.6980987,-0.28460646,0.73798853,-0.7976163,-0.7568925,-0.055603907,0.99108577,1.0736693,-0.013554359,0.6632128,1.2201653,-0.37886196,0.46951935,1.0284883,-0.23961292,0.77610034,0.24782376,-0.42752552],[0.93166864,1.2379084,-0.6420794,-0.24359001,0.24543804,-0.7954937,-0.62679654,-0.25974068,0.3183989,0.39744404,0.16442847,-0.8511118,0.24854577,0.4427568,-0.18322796,0.34329712,0.4593127,-0.80002326,-1.0382898,-0.34198517,-0.15060814,-0.71003425,-0.34894595,-0.4657939,-0.009977152,0.83420914,-0.75049984,-0.57114756,-0.2298817,0.95004505,1.164398,0.76463634,-0.9955967,0.7831225,1.0749615,1.2916315,0.927979,-0.54997283,-0.5504979,0.5718343,-0.3610588,-0.7232858,0.24251299,0.31153145,0.3290766,0.20087977,-0.4880875,0.037881773,0.7824667,-0.51166934,0.54525405,-0.6667572,-0.8480314,-1.055208,-0.4070002,-0.3983181,-0.67050123,0.58207035,-0.08760934,0.062274788,0.6270522,-0.5606427,-0.14802237,1.0112022,0.6219067],[0.8004016,-0.47602773,0.14757523,1.0039515,0.860841,-0.68070155,-0.11325728,0.06166071,0.44811848,0.6876449,-0.70267564,0.44304416,0.34439492,0.3271028,-0.63867116,-0.5867271,-0.37056774,-0.8831215,0.4714533,1.1095529,-0.72686434,0.24416558,-0.1579461,-0.39908195,0.15464102,0.1977679,-0.16327424,1.0894017,0.5471921,0.9461693,0.08063122,-0.3567307,0.31060138,0.5256084,-0.8561622,0.89577174,0.39449757,-0.6785088,0.03373981,-0.331303,0.44860905,-0.65569496,0.09403355,0.44500396,0.94352674,0.83588445,0.15808961,-0.6976445,0.5088679,0.10984813,-0.805105,0.7821465,0.6741349,-0.26401156,-0.8203306,0.3291426,-0.55997604,-0.6138227,0.80512303,-0.6463646,-0.17399135,-0.45659852,-0.7404734,-0.3617077,0.74310344],[-0.13665354,0.3182451,-0.7047133,-0.0052658124,-0.8091949,-0.660015,0.6154294,0.18541487,-0.49715537,-0.22201602,0.20189229,-0.7603085,-0.7333098,-0.21494752,-0.67764336,-0.7272904,0.85769135,-0.36399826,-0.74357027,0.14676872,0.78472006,-0.87680113,0.08211977,0.21179546,-0.5987017,-0.6532647,0.20071933,0.5324281,-0.57052547,0.16381319,0.24848148,0.5484806,0.56282586,0.48476127,-0.7187355,-0.5949866,-0.9299214,-0.15049411,0.20017232,0.034102056,0.3672032,-0.9001601,0.21578927,-0.95913255,-0.8128872,0.839633,0.64617616,-0.6422922,-0.92576236,0.29881483,-0.6911971,0.42180407,-0.05852338,-0.2426355,0.82609564,-0.31340036,-0.01951559,-0.88704133,0.8640293,0.4120296,-0.6591161,-0.70093405,-0.8785866,-0.29577073,0.66964936],[0.22935614,0.7127665,-0.9034029,0.59156746,0.84119445,0.7824958,0.23290078,0.9461086,-0.9510237,0.8610942,-0.5473045,-1.0212977,-0.77711993,-0.7254141,0.37736207,0.8770864,-0.061930433,-0.6996523,-0.16243543,-0.9143956,0.48831666,-0.5789195,-0.5754617,0.2040661,0.18911901,0.32798967,0.40799853,-0.97432905,-0.27033237,0.67476964,-1.1213324,-0.8738791,-1.0559913,-0.5192755,-0.01791119,0.21977021,-0.7476632,-0.488654,0.08449963,-0.39323375,0.24571195,0.24987705,-0.28019342,0.4531687,0.5590861,0.98692083,0.28619102,0.40223083,0.38644567,-0.71116734,-0.21863383,-0.2451926,-0.9818549,0.5317071,-0.0847637,0.8485122,0.2476222,0.05989601,-0.43811774,-0.22978447,-0.98669666,0.30784744,-0.40057042,-0.10763613,0.5260142],[-0.17134951,0.35378027,0.8712251,1.1210389,-0.97659844,-1.0927927,0.2826437,0.52666306,0.119689725,0.25883895,0.49098787,0.25651315,0.19370365,0.9865266,0.3875432,-0.025551012,-0.2886651,-0.3313526,-0.9238673,0.3122206,0.7843924,1.1761519,0.98244107,0.42575845,-0.4092445,-0.5306128,0.0048941327,-0.1792606,0.07861443,-0.4844791,-0.5675301,-0.4595741,-0.99269783,0.91910017,-0.7198978,0.50792825,-0.22488649,-0.4832824,0.010626115,0.802496,0.37329286,0.19643936,0.083909355,-0.8155677,-0.029662672,0.122602485,-0.73021346,0.5873716,-0.041147158,0.75319505,-0.3060125,0.022679204,-0.25750023,0.23095514,1.0590739,-0.47934666,-0.7576167,-0.7762341,-0.8180319,-0.9384755,0.6809425,-1.016441,-0.16243047,-0.35122764,-0.34062326],[0.5547911,0.727215,0.44750276,0.76662385,-0.47767875,-0.7116004,0.33409077,-1.0506924,-1.2934023,0.4310281,0.04042332,1.0226431,0.8054897,-0.7801305,0.80311257,0.04445444,-0.7577128,0.9987312,-0.93782574,0.37377375,0.63011587,-0.33631423,-0.70033854,0.93459564,0.020510903,-0.45326236,0.001578487,0.57330424,0.74627155,0.19350955,0.11933681,0.09735933,1.0936075,1.2548132,0.6471876,0.021890363,-0.49595785,0.6335774,-0.7649174,-0.97079587,-0.3533929,-0.6832956,-0.04222717,0.39948595,0.63156444,-0.12519081,-0.26341757,0.5237369,-0.22576006,-0.784328,-0.79209095,0.53559536,0.12866887,0.59012353,0.74210113,-0.26911733,-0.7797563,-0.92025566,-1.0798941,0.23462857,-0.545745,-0.45199504,0.22065419,-0.9367517,-0.25791574],[-0.5019818,0.10763856,0.12866703,0.7005564,0.5391596,-0.037208114,0.7565345,0.6604298,0.36296654,0.27181354,-0.18644503,-0.8462633,0.69227886,0.36681795,-0.046250694,0.9339491,0.21297537,0.6870731,-1.0167129,0.03750324,-0.62575823,-0.044580646,-0.6559275,-0.5961685,-0.82142615,0.86349064,0.76577985,0.89162326,0.49019748,-0.57804734,0.319116,-0.5084204,-0.1829286,-0.68752134,-0.20410264,0.4896222,0.015881017,-0.46399084,-0.533061,0.34322608,-0.73468626,-0.73418766,0.5270944,0.46412137,0.4566899,-0.5968855,0.68021286,0.93188465,0.36502478,-0.6268077,0.95054805,0.09954363,0.83797,-0.013438155,0.5643268,-0.15239802,0.28541085,-0.61578715,0.6769805,-0.06311999,0.9730883,0.9603086,0.61857015,-0.28674716,-0.16897006],[0.9284553,-0.5000239,-0.81992424,-0.9730303,-0.36336598,0.9079662,0.7489837,0.7820586,0.703505,0.48093,0.69219637,0.8574051,-0.31831723,-0.8510077,-0.8336603,0.20373508,-0.18731979,-0.5499051,0.5288502,-0.9765418,0.55826294,0.5373445,0.90785444,-0.3951389,-0.28908667,0.46707484,0.06833736,0.7795892,-0.74820644,0.61818564,0.6515358,-0.96745,0.9544679,-0.10529689,0.4107548,-1.0085055,0.5976201,-0.46155557,0.94319046,0.84425825,0.6099164,-0.87877613,0.8812982,-0.6162896,0.147473,0.18501963,0.40691087,0.14669068,0.65893656,0.9275007,0.02380291,-0.57075906,-0.2712813,0.9304042,0.05214463,0.8546919,-0.27987888,-1.0482005,0.2156753,0.13237888,-0.55918235,0.23716953,-0.7062927,-1.0345585,0.06924434],[0.171902,-0.4511407,0.7983153,-0.14296405,-0.30708152,0.6291571,-0.05247477,-0.5057848,0.19456992,0.110031426,-0.4355169,-0.9549083,0.85887825,-0.011682145,0.10079877,-1.0023806,-0.5871776,-0.18393807,0.99999785,0.5858917,0.18524085,-0.15173979,0.3665474,0.8365349,-0.43644089,-0.12920065,-0.3684645,0.5619478,-0.3560283,0.05594368,0.91110975,0.15609306,0.99853295,-0.01850082,-0.04980205,-0.46886653,-0.9910499,0.6731503,0.49437422,0.62100416,-0.37124735,0.6118982,0.6538427,0.024156692,-0.6871384,0.014568528,0.8701062,-0.25256523,0.58684653,-0.07099347,-0.7731395,0.8291709,0.96657807,-0.2362877,0.15559924,0.8298494,0.80750865,0.015061285,0.34234324,-0.7497157,1.0034009,0.35358328,-0.8196237,-0.05257047,-0.94905],[-0.60183704,-0.09693997,0.6752447,0.2672394,-0.29604217,-0.772986,0.62970865,0.2640334,-0.66613346,0.758321,0.8221221,0.36326697,1.1493108,0.33751553,-0.740204,-0.56851554,-0.9458262,0.016525242,0.08204854,-0.619783,0.41370523,0.38265756,-0.33779702,-0.1256627,-0.39734724,0.13808256,-0.6254091,0.5750579,-0.49011156,0.23659307,0.20228052,0.61915684,-0.80269665,-0.5051703,-0.05352305,0.7113381,-0.39854744,-0.80157834,-0.88515604,0.08519517,1.0284644,0.48703018,1.1010873,0.6634943,0.7379165,0.28185558,0.8138261,-0.12665734,-0.785582,0.3918143,0.9192046,-0.19710265,0.10490072,0.92134774,0.42426524,1.0555954,-0.52182335,0.11011246,0.6832501,0.22031897,-0.7585638,-0.851085,0.54508734,-0.20468846,1.0166997],[0.10161061,0.2897543,0.7909636,-0.030286718,-0.40735066,-0.73412806,-0.4618023,0.12033397,0.73227566,0.5635959,-0.20594054,0.24744312,-0.35239947,0.6902613,0.90794915,-0.5444283,-0.48546126,-0.2636499,-0.39891228,0.4835877,0.0013017039,-0.2934904,0.8159142,0.22475,0.99423176,0.19156875,0.8401761,-0.4197843,0.8585655,-0.54381335,0.03170478,0.97085476,-0.25880975,0.24628079,0.21064958,0.70993763,-0.70851386,0.3583434,0.3873398,0.91528857,0.4788952,-0.90054303,0.54127985,0.08060789,0.47019982,-0.40904728,0.17064917,0.70295525,0.13915905,-0.7973647,0.22325395,-0.8037373,-0.42590886,-0.28358728,-0.40907788,0.30792096,0.56272644,0.15551472,0.53439176,0.28858882,0.33855852,0.17340936,0.2143388,0.59942096,-0.70422536],[0.6830922,-0.75618434,-0.30853078,0.65658736,-0.0004837933,-0.35089573,-0.40214613,-0.12514475,0.42284948,0.5887471,-0.1518071,-0.5921663,0.59272623,-0.39062697,-0.40537944,0.24666221,0.6853446,0.64650893,-0.30038947,-0.34160268,0.67628986,0.43178752,0.12590206,-0.15725318,0.025928974,0.3304648,0.20223561,0.8290162,-0.6526651,0.005672855,0.5218189,0.47772145,-0.14574322,0.9239239,-0.5706893,1.0813462,-0.8791472,0.8341352,0.11099738,0.6361812,-0.12994139,0.49234384,-0.42240983,0.013619656,-0.37575063,0.18487136,0.7223798,-0.909025,0.33611274,0.0021588171,-0.27639863,-0.9225553,0.5979451,-0.50706106,-0.0598952,0.773853,-0.622542,-0.67175037,-0.8670693,0.4372872,-0.08581984,-0.6000126,0.6433553,0.29087138,-0.95536715],[0.39973015,0.5684345,0.11048592,0.971224,0.8450195,0.18921107,-0.5828612,-0.52492154,0.6721376,0.8910752,0.70537585,-0.6772111,0.53459597,0.5790065,-0.48770443,0.5485193,0.25815615,0.5503742,0.37963918,0.6900794,-0.11658739,-0.2528927,-0.078989774,-0.20475511,0.9396916,0.14139031,0.46651322,0.47687778,-0.49116075,-0.045734484,-0.78601336,-0.26716414,0.42123318,-0.19451873,-0.2722283,-0.32058346,0.83425516,0.5863099,-0.7028397,0.51248133,-0.36820152,-0.9237499,0.85653013,0.6965253,0.73645777,-0.2599337,0.2799587,0.17260142,-0.018459797,-0.4079957,-0.24406305,-0.5581879,0.666941,0.24018826,-0.36635837,0.12155779,0.7967908,0.39842546,0.12351518,-0.26003972,-0.30207753,-0.94606787,0.36667243,0.081348576,-0.10598268],[0.0084633855,-0.88018686,0.5785133,0.665083,0.834432,0.21181956,-0.72964525,-0.4945152,-0.6653256,0.29684743,0.7842558,0.4571011,0.03371408,-0.08680399,0.908669,-0.22278248,0.9705958,-0.4203845,0.6462598,-0.52969086,0.691502,0.40411547,0.75483286,1.0138174,-0.43193802,0.7548244,-0.2666407,0.061992332,-0.035908386,-0.7028651,0.8680148,0.18928145,0.6226807,0.39636588,-0.5961671,0.16980548,0.68046504,0.3073195,0.6290515,-0.81487143,0.62542915,0.38709128,-0.46183825,0.46594355,-0.8538717,0.0037821643,0.066137075,0.18477009,0.6915721,0.8350349,0.012843357,-0.50523883,0.58422744,0.047463775,-0.36522546,0.76129377,-0.8920583,-0.9426681,0.785317,0.9669405,-0.598268,-0.10220405,0.070555076,-0.91316605,0.6609386],[0.80197823,-0.29596785,0.51529783,0.44381747,0.3955925,-0.5445415,0.042031456,0.46304426,0.3432632,-0.19853249,-0.31107438,0.46309796,-0.39558637,0.9057689,-0.4942749,-0.3514371,0.71514887,-0.33446482,0.08678501,0.15523596,-0.26062208,0.45670792,-0.46082154,0.7336692,0.3735905,0.9955553,-0.13285068,-0.3904257,-0.91101116,0.5824633,0.22948413,1.0731874,-0.47484076,-0.98466754,0.7103379,-1.1229122,0.62411064,-0.73905665,-1.0624527,-0.8203012,0.25944364,-0.27509165,0.3411562,-0.294918,-0.0639044,-0.20328642,0.11332256,0.601411,0.79497814,0.26273963,0.52663696,0.9247353,0.2401733,-0.1870375,-0.4018799,-0.555168,0.47417966,-0.08602326,-0.5948519,-0.53901416,-0.8130022,-0.29796046,0.86719453,-0.46539286,0.0975451],[-0.48438078,-0.40584087,-0.3502835,0.22177678,-0.72095346,-0.610994,0.55110973,0.48515555,0.42810118,0.4531494,1.1094334,0.3921192,0.020860218,-0.055969365,-1.1964855,-1.1382345,0.61588943,0.1508887,0.9149636,0.26954585,0.2144373,0.61528665,-0.3083511,0.15187484,0.26710805,0.39825115,0.41425017,-0.63418514,-0.9944099,0.62483495,0.49703324,0.6542746,0.28906918,-0.6177573,0.71350795,-0.3560678,-0.36623362,0.94192463,-0.0772778,-0.117232375,0.3149736,0.1682144,-0.58041644,-0.64403445,-0.21981855,-0.32414034,-0.22927278,0.3313247,0.09236871,-0.43414217,0.6272641,-0.83866894,-0.96098095,-0.7646635,0.8995241,0.11715239,-0.5407948,-1.1548979,0.7769278,1.0087466,-0.8260058,0.37056944,0.2574866,0.13574342,-0.7551172],[0.2668856,-0.39115953,-0.97452563,0.013113212,-0.17581922,0.5763247,-0.7702527,-0.32163656,0.48003262,-0.462195,-0.512273,0.4381703,-0.12625247,-0.14561322,-0.78300095,0.82322854,-0.5255982,-0.609552,-0.41947928,0.36310974,0.6548575,-0.2935569,0.7793331,-0.67218435,0.3966282,-0.029556144,-0.63120514,-0.8088599,-0.75486654,-0.6280146,-0.9668666,0.14061168,-0.68136996,0.3044578,-0.004265474,-0.975751,-0.5486183,-0.6913963,0.13687097,0.74705684,0.72818834,0.3631728,0.1982883,-0.2129599,-0.052913733,-0.548154,0.888663,-0.5339835,0.09946926,-0.044896852,0.006810607,-0.6115893,-0.3566123,-0.7554124,0.08130451,0.034103777,-0.4988656,0.61967087,-0.6938623,-0.5162381,-0.43040484,-0.38445997,0.83393884,0.89655536,0.10075747],[0.11473053,-0.5650642,0.47593933,1.0407327,0.5046635,-0.9392666,0.2761319,1.019304,-0.6130705,-0.08541198,-0.9694454,0.51938736,-0.7115454,0.98379415,0.11963429,1.1923186,0.0998601,-1.0881165,-0.43345782,0.5857309,0.24051484,-1.0193812,0.35034883,-0.1305287,-1.0384912,1.0669652,0.0007714789,-0.6125538,0.3686677,0.11541089,0.08617425,0.8882794,-1.0552986,0.48362643,-0.19165514,0.18041809,0.5264577,-0.6922153,-0.067772746,-0.55510634,-0.24809515,-0.19465211,0.8081183,0.983896,-0.64608175,-0.2027459,0.195044,-0.78264964,-0.85850394,0.6984514,0.2670514,-0.9669639,-0.60079014,0.85721815,-0.25984067,0.20594896,0.4189202,-0.39028934,-0.21401839,0.6343205,0.034875635,0.99979657,0.803951,0.43517506,0.4794901],[-0.91993254,0.7518413,-1.0713992,0.38980973,0.024519915,-0.06130977,0.9506129,0.33539373,0.7378803,-0.5815782,0.30406362,-0.161074,0.96033686,-0.29881775,-0.731073,-0.64178425,-0.8410764,-0.6889932,-0.43426198,-0.053208206,-0.92173123,-0.9016751,0.76495945,-0.25982344,-0.32971206,-0.21420106,0.19028191,0.019946424,0.342675,-0.7274372,-0.61948985,0.7523771,-1.2705547,0.5055103,-0.6371341,0.7971133,1.3032438,0.075710356,0.6255865,-0.17713054,1.0431664,0.30391175,0.78157324,0.94415116,0.17858413,0.7899466,0.5025227,-0.33342382,-0.21507822,-0.4531906,-0.9477427,0.74134034,-0.15094866,0.5356077,0.44587135,0.32089856,-0.18458901,0.7148918,0.82034147,-0.7021984,-0.38288477,0.5002016,-0.3166181,1.0788766,0.88692075],[0.14571707,0.55912524,-1.150425,0.32587877,0.6757211,0.5639959,0.39316818,0.7407911,0.59464025,-0.5760919,0.15107037,-0.13986471,-0.4876356,0.40829054,-0.36791396,-0.50423735,0.30902034,-0.10710528,1.1128322,0.7467313,-0.42743275,0.3572937,-0.9498485,-1.1421824,-0.75229853,-0.24610783,-0.87322223,-0.5074632,-0.101288065,-0.9896886,-0.6205523,0.15674038,0.37557077,0.35771868,-0.090115584,0.8049663,-0.021544022,-0.22409067,0.40582916,0.4225364,-0.12078076,-0.3825772,-0.6472229,-0.20830603,-0.96056515,-0.04740384,0.24824722,-0.31694424,-0.075204,0.49144143,0.509062,0.89378476,-0.12559363,-0.46389592,0.18415754,-0.91504395,-1.1225717,0.30337065,-0.3685682,-0.5780138,1.0681835,0.4242963,-0.6079985,0.22850795,0.8747401],[-0.101120755,0.37924194,0.21652953,-0.33547658,0.20790209,0.5803668,0.24136154,-0.4006678,0.60928977,0.4332657,0.84199065,0.8321853,0.19507681,-0.5637578,-0.22691494,-0.39776245,-0.8190759,-0.6894131,1.2020276,0.8722645,0.64645255,0.57981527,0.6999723,-1.1614333,-0.6387266,-0.44979963,0.3579158,-0.8510219,-0.5117823,-0.43697992,-0.50197923,-0.9293373,0.6511708,0.8022124,0.61347216,0.51857847,-1.1636354,-0.48940006,-0.409785,0.63262653,-0.84058166,0.7142885,1.1346272,0.63850915,1.0866898,0.22472295,-1.2658627,0.76672536,0.44610953,0.18923077,0.4877649,-1.1311992,-0.9125645,0.028503615,-0.804692,-1.0643102,0.6154489,-0.69591165,0.4293931,0.21127795,-1.1575029,-0.58357906,0.64114255,-0.9151341,0.16743547],[-0.73071444,0.28504315,-0.7975205,0.6641877,-0.6289634,0.8220119,-0.87235516,-0.3320634,0.60072464,-0.95246506,-0.18937103,-0.9494265,-0.59772456,-0.13724676,0.5343827,0.20259112,-0.013090256,-0.2074331,-0.53297746,0.8052221,-0.63611364,0.18943417,-1.1058527,0.74741966,-0.15367915,0.62294436,-0.057161674,-0.75251746,-0.5198922,0.49224895,-0.88504153,0.112920895,-0.49589977,0.980133,0.1715909,0.6006905,0.66055036,0.6457756,-0.56363666,0.43344203,-0.37221375,0.81812316,0.7538442,-0.6104998,0.14601515,-0.389156,-0.67826,-0.99129885,-0.19323002,0.513936,-1.1671196,0.57212794,-0.22719598,0.04352117,0.6692274,-1.0128758,-0.6695606,0.960651,-0.3324453,0.22255735,0.7310798,0.26921284,0.26238757,0.70179945,0.27439258],[-0.23989518,0.71774566,0.120412916,0.082072906,-0.07839631,-0.18005621,0.2421055,-0.051306795,-0.32806936,-0.4087405,-0.36870202,0.11501475,0.1882322,1.1014957,0.03435584,0.25907782,0.67638326,0.0044228476,-1.1603832,-0.36813432,-0.38342836,0.46611506,0.43905872,-0.0034056928,-0.6754285,0.62363994,-1.0290736,-1.4197438,-1.3229022,-0.28609535,0.7038319,-0.2621101,0.4029968,-0.58042264,-0.12339368,-1.0100855,0.33049005,0.46931714,-0.96420735,-0.29464737,-0.6574924,-0.136744,-0.10137521,0.57316923,0.4939393,0.29821143,0.0602257,-0.18043017,-0.44356376,0.35348162,0.006360099,-0.050190765,0.6085338,-0.15056998,-0.8431836,-0.8462242,0.33398348,0.84850717,0.0062803323,0.89331996,0.7678232,0.3930705,0.057819556,0.42983025,-0.2301348],[1.1460112,-0.7084512,0.1528507,0.37016022,-0.1992969,0.1538927,-0.4862977,0.5805648,0.13258374,-0.15044942,0.4251372,-0.058835898,0.20108715,-1.1052656,0.83686084,0.121971175,-0.11759444,-0.76792,0.5801523,0.71752816,0.295118,-0.43228784,-0.80183446,-0.10400488,0.29776973,0.34565926,0.69861984,-0.15569912,0.06333747,-0.40782422,-0.29142967,-0.34433997,-0.26766497,-0.47485507,-1.1127532,-0.39969084,0.7388969,-0.9564308,0.08161447,0.23721385,0.14436893,0.28682798,-0.8624404,-0.3122101,0.5572865,0.45705748,0.42656174,0.12856425,-0.3259024,-0.2350378,0.49467698,-0.989475,-0.5168187,0.46665335,-0.13529408,0.27275497,0.47882852,-1.3031068,0.589833,-1.0546603,