{"layer_count":4,"input_len":64,"hidden_len":96,"output_len":3,"x":[[1.0,0.4627451,0.4745098,0.5058824,0.34509805,0.30588236,0.40784314,0.3529412,0.29803923,0.6156863,0.59607846,0.6392157,0.32941177,0.29803923,0.53333336,0.4627451,0.39607844,0.8,0.78431374,0.78431374,0.3254902,0.27450982,0.6627451,0.59607846,0.5137255,0.8980392,0.9137255,0.9137255,0.3764706,0.20392157,0.7058824,0.69411767,0.6117647,0.7372549,0.77254903,0.75686276,0.38039216,0.21568628,0.6313726,0.56078434,0.5176471,0.4745098,0.47058824,0.4745098,0.38039216,0.36078432,0.44705883,0.40392157,0.32156864,0.21176471,0.22352941,0.26666668,0.23529412,0.23529412,0.21568628,0.20784314,0.17254902,0.16470589,0.15686275,0.18039216,0.20784314,0.21568628,0.14509805,0.14117648,0.15686275],[1.0,-0.58544207,-0.5546205,-0.7449076,-0.995806,0.45427707,0.5363834,0.5241614,-0.3383569,-0.25766852,-0.85359895,-0.9131456,-0.6504048,0.8871637,0.98036253,-0.6467828,0.9663423,-0.31747872,0.9942405,0.87575454,-0.98471993,-0.98770696,0.3551189,0.8980578,-0.97619784,-0.025934944,0.9994113,-0.99900347,-0.40963715,0.8657511,0.24135934,0.9589377,-0.93548393,-0.99604213,-0.9698233,0.95692354,-0.99808705,-0.49141914,0.14378008,-0.5410331,-0.27607784,0.73968434,-0.43713835,0.8087741,0.9976042,0.55647177,0.9994286,0.9999921,-0.41167524,-0.94816417,-0.94111687,0.9912535,-0.8501749,-0.87699217,0.8818959,-0.9545212,0.6599692,-0.9185493,0.19572677,0.99996036,0.9784758,0.919393,-0.8977031,0.975036,-0.78724414,-0.9937859,-0.18676442,0.9704982,-0.9983498,-0.44945574,0.78146887,-0.9695161,0.79994917,0.9992883,-0.4782376,0.99063766,-0.47166067,-0.990869,-0.9948284,-0.15236746,0.99849707,0.06793273,-0.98146546,-0.99655014,-0.7923149,0.986179,-0.97931725,-0.023994377,-0.9981667,-0.9275097,0.17778115,0.20027803,0.8356403,-0.99999344,0.9833873,0.9912687,-0.7930343],[1.0,0.9281438,-0.9999779,-0.9954788,-0.9711747,-0.85930216,0.98408157,-0.99980104,0.99986804,0.9128007,-1.0,0.9668039,-0.8022276,0.9999854,-0.9908416,1.0,0.9931474,0.99838895,-0.832068,-0.9885366,-0.1080912,-0.9996709,0.84821475,-0.7051555,-0.9999957,-0.9999966,-0.34207374,0.99999917,1.0,0.9868843,0.9377036,0.2294219,0.5609498,-0.9987816,-1.0,-0.999993,0.7767316,-0.9994087,0.99999684,-0.99999285,-0.9934289,-0.9953017,0.9983887,-0.99995315,0.98749125,0.66071886,-0.9999979,0.9999844,-0.9983245,-0.9999998,-0.91884345,0.9968933,-0.99401754,0.9999977,-0.39257127,-0.8634337,0.99948937,-0.9999045,0.8810956,0.99999934,-0.99999994,0.99957263,1.0,0.9728281,0.3122471,-0.74897814,0.99652773,0.9999985,-1.0,0.999991,0.99857557,-0.99963033,-0.9999993,-0.99918777,0.99999994,-0.7686644,-0.99837047,0.7686626,0.99942064,0.9999995,-0.99999505,-0.9999971,-0.9999834,-0.9958547,0.99998146,0.99992114,-0.99830544,0.98148024,0.9999739,-0.6465266,0.9999786,-0.49082285,0.97035325,-0.77601135,-0.9999297,0.16058052,-0.9999834],[1.0,-0.99994284,0.99995357,-0.9999938,-0.99735963,-0.9171837,0.9617971,1.0,-0.99999994,0.9999827,0.99999934,-0.9323451,-0.94419754,-0.9200984,-0.9931255,-0.9996822,-0.99999964,-0.9955643,0.9999994,0.7531175,0.8869378,0.99990875,-0.99770933,0.9998584,0.9999902,0.99999994,0.9999984,-0.94004726,-0.99975973,0.99634606,-1.0,-0.99999905,-1.0,0.9937286,-0.9897272,-0.99983186,-0.9967773,0.99889654,0.66575056,-0.99956673,-0.9993645,1.0,0.9999999,-0.99929327,0.9999428,-0.99999994,0.99680895,-0.9999993,0.99855554,-0.35847652,-0.9998105,0.9670302,0.9992219,-0.9999979,-0.99999964,0.99081826,0.9999819,-0.9999967,1.0,-0.99962395,-1.0,1.0,1.0,0.99999994,0.9722914,0.9998785,-0.9999999,0.51163834,-1.0,0.99778944,-0.9995978,0.99999994,-0.19824697,0.9940855,-0.9999935,-0.89940214,-0.9999829,0.95021266,0.99999666,1.0,-0.99586445,1.0,-1.0,0.98986465,-1.0,-0.7407114,0.9992978,0.14887367,0.9999937,0.99999994,-0.99844813,0.99988556,-0.99999994,-0.9952221,-0.97368675,0.99999946,0.999969]],"w":[[[0.23013258,-0.5512562,0.54950714,-0.48634195,0.16886187,0.11316466,-0.631372,-0.6377382,-0.2625606,0.36863852,0.84844613,0.21956134,0.2272954,-0.3547492,-0.58308434,-0.7328813,-0.33754373,-0.31307268,0.19694734,0.01973319,0.52791667,-0.28922367,0.88017845,0.22699642,-0.08890629,0.45714545,-0.15937448,-0.93209577,0.7991562,-0.70974946,-0.12113428,-0.9161277,0.5785773,-0.9743254,0.10875273,0.20636463,-0.5487609,-0.36847472,0.09191084,0.4456725,-0.35775352,-0.87927246,0.90990067,0.2837112,0.6280978,0.050039053,0.65974426,-0.8663871,-0.30103683,-0.78852224,-0.6703017,0.9024184,-0.8834598,-0.79582834,-0.52475095,0.5490072,-0.29960012,-0.14253497,0.9489682,0.9679644,-0.6496525,-0.46518326,0.6944003,0.3706379,0.30449247],[-0.59229183,0.3278913,-0.6418752,0.9424556,0.5309316,0.7289814,0.50236726,0.31331843,0.29069272,0.24032478,0.42044264,0.87721354,0.98662204,0.7670467,-0.15856999,-0.70435053,-0.510357,-0.9446171,-0.13574314,0.048437458,-0.6140494,-0.470986,0.49646923,0.5807293,-0.86638165,-0.88147575,-0.12533148,-0.9808642,-0.6522219,-0.21041138,0.5990809,0.14382906,0.9501237,0.78390306,-0.27433214,-0.7706261,0.37255698,0.87389195,0.026120251,-0.7421303,-0.25508687,-0.052994374,-0.29887447,0.6354094,0.38585284,-0.2276213,-0.065583475,0.1214894,0.17149845,0.5656488,0.13138153,-0.16181684,0.5931579,-0.97847784,0.032729723,0.29217294,-0.9834473,-0.33753467,-0.15734906,-0.004383562,0.3849819,0.2922479,-0.9539029,0.6012616,0.13230118],[0.7637036,-0.27833366,-0.388006,-0.6457658,-0.72394645,0.69112146,-0.39123,0.33956122,0.37012434,-0.6515524,-0.7819318,-0.48005053,-0.17711551,0.37065926,-0.2740587,-0.17983562,-0.08676476,-0.30820584,-0.37501165,0.23293348,0.74156445,-0.576067,-0.73985565,-0.10649341,-0.35731816,-0.3550658,0.6776245,-0.21235652,0.211139,0.6317368,0.3278646,0.8129394,0.3559903,-0.28171307,0.50437844,0.096193165,-0.63894784,0.39431426,-0.08175451,0.8809623,-0.06465902,-0.89567375,-0.108551495,-0.915951,0.18348606,0.364141,0.0810885,0.7193129,-0.710315,0.71064675,-0.5242717,-0.38892254,0.57893366,0.15043761,-0.10909507,0.59507775,0.65570223,0.95996356,-0.25442943,0.5431509,-0.4798211,0.20218484,-0.94459414,-0.38327786,0.7047525],[0.5083586,0.06910544,0.41744378,-0.9869944,0.6248349,0.9519557,-0.08568303,0.10636989,-0.939276,-0.67085934,0.6365893,-0.015939161,0.14024775,0.9204912,0.7168697,0.9203517,-0.6098809,-0.840371,-0.9564685,0.20689924,0.8047784,0.55149126,-0.9488473,-0.070878915,-0.49896494,-0.589334,-0.26456016,-0.07898198,-0.38406405,0.30867636,-0.82149357,0.17604038,0.17745815,0.036966346,0.14399529,0.9988016,-0.41407475,-0.15515281,-0.9870488,-0.166417,0.6527842,0.25259057,0.63917124,0.11128289,-0.6509987,-0.2617647,0.46813214,0.018943923,-0.9740483,-0.51118153,0.20967251,0.34410462,-0.31864285,0.62929225,-0.103854954,0.5720789,0.4258727,0.24706757,0.5981875,0.0013169053,-0.42456055,-0.1829218,0.7540158,0.17429717,0.0017147172],[-0.27290168,-0.4098213,-0.4164043,-1.0359819,-0.6406568,0.30320236,-0.9780597,-0.733329,0.26743394,0.34751529,0.45092228,0.23044103,0.023453692,-0.14314958,-0.0061700926,-0.563935,-0.6207296,-0.058298443,-0.1890848,-0.97746384,-0.343206,0.37112466,0.10736478,-0.39939013,-0.36003697,-0.72064376,0.8407218,-0.77957493,0.9651178,0.74394065,-0.028986504,-0.3304226,-1.0015672,0.19835682,-0.3862282,-0.46200976,0.7324851,0.16594183,-0.24358255,0.67395264,0.050238494,0.68226135,-0.2392815,-0.11656966,-0.021467961,-0.94633174,0.72841555,0.70667905,0.31380016,0.79367405,0.10991491,-0.26500878,-0.52019477,0.753891,-0.34040383,0.2589476,-0.9837433,0.8523554,0.6615076,0.7062975,-0.34327263,-0.5600763,0.6829429,0.2692089,0.6371667],[0.7155087,-0.73825145,-0.1148846,0.26439694,0.07060183,0.21730405,0.14768791,0.30110586,-0.15180442,-0.3635635,0.69077945,0.5959679,0.17083408,0.9025184,0.0026336007,-0.1830147,0.04940855,-0.45969975,-0.1972605,-0.74470717,0.3825384,0.77053684,0.28978318,-0.57524294,0.6883402,-0.46695057,0.5339289,0.7108505,-0.92096955,0.57391083,0.035937697,-0.4549821,0.2862783,-0.12609899,-0.8341636,-0.878059,0.8794204,0.3649293,-0.43539068,0.59249,0.27314305,-0.7132992,0.28073454,0.86284333,-0.32605043,-0.48180613,0.7790026,-0.958135,-0.049102355,-0.108659,0.35075814,0.3201593,-0.7600869,-0.90863013,-0.27713445,0.045465734,-0.120134406,0.9636286,0.10440048,-0.02194618,0.76175857,0.5963386,0.6828056,-0.5693669,-0.16203947],[0.9009207,-0.9723458,0.5389582,-0.49358788,0.43012697,-0.516466,-0.9204952,-0.53628534,0.9449324,-0.769678,-0.742875,0.53085357,0.9111878,-0.84605926,0.9061549,0.5712283,-0.22622883,0.6157232,0.02822652,0.16558644,0.74310726,0.67464185,0.41900957,-0.39850578,0.33974782,-0.23279507,0.29808298,-0.64584875,-0.37876335,-0.14691691,-0.21664022,0.34391457,0.45932806,0.7433987,-0.5237193,-0.22794332,-0.9934009,0.6938137,-0.3872646,-0.34548268,-0.09764563,0.58356315,0.47758484,0.22706914,0.2703211,0.29213583,-0.34289834,0.15178487,0.1522552,-0.89456105,-0.5292438,-0.5425905,0.45410147,-0.9247994,0.95028025,0.81270754,-1.0201727,-0.22123976,-0.28587183,-0.08746027,-0.15438038,-0.3874432,-0.90307194,0.70037204,-0.4212524],[-0.92920417,0.48010755,-0.516384,-0.20073949,0.10750823,0.29655606,1.0163324,-0.12084267,0.6087778,-0.70492303,0.24831022,0.45693135,0.31578314,0.51019377,-0.5524704,0.347696,0.48280662,-0.062448055,-0.83498466,0.35822386,-0.19163187,-0.84343183,0.324437,0.10641208,0.65870374,0.11414813,0.17891061,0.098240666,0.59387004,-0.2199835,-0.5242629,0.85348344,0.27858415,-0.049905922,-0.52827084,-0.013610943,-0.96559733,0.021134047,0.7560753,0.6095501,0.37967968,-0.06606437,0.00062904693,-0.38515767,-0.4136282,-0.09546824,-0.2876299,-0.6348654,0.3758116,0.93248236,-0.077538796,0.09149289,-0.42671955,0.97287357,0.39467213,0.76528096,0.35920602,0.47917864,-0.6097986,-0.3209106,-0.6799811,0.006212058,0.41943693,-0.7833606,-0.6006251],[-0.7604908,-0.8812325,0.8499874,-0.97577673,-0.013498337,0.57591677,-0.7486946,0.118841596,-0.5278283,0.60151416,0.88252264,0.5396455,-0.18689567,0.767006,0.35581583,0.20558803,0.80800337,-0.59717125,0.5161647,0.6786092,-0.104721166,0.41767967,0.71517694,-0.91595984,0.14791532,-0.81327444,-0.8048991,-0.30735666,-0.53169197,0.32619795,-0.256723,0.49745777,-0.9953906,0.2720337,0.6867604,0.5416248,0.75061166,-0.97388244,0.04631359,-0.21001653,-0.09167923,-0.9985535,-0.41182876,0.20969425,0.3065571,0.36951563,-0.02622413,0.37432942,0.52674276,0.52552867,0.96184224,-0.052878205,0.9207795,-0.90863466,-0.6582803,0.69452447,0.07273026,0.60318464,-0.52960104,-0.9692863,-0.8985436,0.03236073,0.94081366,-0.9222716,-0.92823756],[0.96224225,0.2885098,-0.6419281,0.06212027,-0.80801535,-0.16808611,-0.30930027,-0.79514194,-0.19894576,0.8695015,0.0162812,-0.6227656,-0.62627727,-0.5473177,0.5363204,0.045626573,0.41479912,-0.99417126,0.08869959,0.30105862,0.8254655,-0.30041894,0.29079032,-0.9221881,0.5599024,0.92508435,-0.09490904,-0.65510666,-0.71574545,-0.87485105,-0.12555145,0.63671833,-0.28602463,0.6046436,0.17876062,-0.06372385,-0.29956535,-0.73526186,-0.16029084,0.49995402,0.6783116,-0.3069779,-0.6208169,0.7371305,-0.56232584,-0.1006374,0.66677654,-0.61825615,-0.19359212,-0.093680784,0.16899724,0.13131404,-0.48965326,-0.71815914,-0.2805056,-0.42103112,0.7584975,-0.9670409,0.7992686,-0.18659164,-0.08558727,0.35845008,-0.82285935,-0.5279207,-0.2099309],[0.2569563,-0.53040147,-0.2999676,-0.71497446,-0.86805755,0.65244466,-0.48975858,-0.80270976,-0.12343003,0.9085753,-0.4195061,-0.10945837,0.5813335,-0.76735765,-0.44291943,-0.64081615,-0.002578281,-0.02196301,0.022757882,0.004043883,-0.19687714,-0.08052648,-0.5165158,-0.20036866,-0.08022363,0.7217868,-0.47022858,0.96900356,0.07033402,-0.93683606,-0.11856804,-0.35600477,0.95544314,0.1334437,-0.23762509,-0.5117864,-0.7061934,0.087422214,0.3758762,-0.34801337,0.7471901,-0.96914047,0.2165545,0.4832469,-0.40879622,0.102255285,0.70674014,0.8767273,-0.16807733,-0.6437718,0.047789264,-0.6424341,0.716182,0.05899896,0.5338961,-0.93212587,-0.803855,-0.9582122,-0.83404994,-0.23249285,-0.02319001,0.23980613,0.5350151,0.84641033,-0.5714844],[-0.5481208,0.087229826,0.43921703,-0.84716654,0.27184585,-0.46107295,0.7616361,-0.7125566,-0.8359092,0.6057962,-0.0980748,-0.28422722,0.61102194,0.6382023,-0.65467167,0.3527815,0.010094502,0.5506476,0.2298118,-0.13168629,0.33711243,-0.33554727,0.575858,-0.97232276,0.93597907,0.07855975,-0.39767063,0.52784866,0.11671531,0.23127405,0.17687412,-0.75504917,-0.51978916,-0.7812532,-0.8973277,0.7383574,0.6413714,0.120120585,0.09541617,-0.8473541,0.45175704,0.8533772,-0.9795471,-0.104597434,-0.17233187,0.42617628,-0.32486334,0.26581776,-0.83222955,-0.893109,-0.92945725,0.59901994,0.21589711,0.3920864,0.26255864,-0.19084163,0.30497062,0.20440702,-0.0283688,0.52547705,-0.086890295,-0.96423894,-0.72900385,-0.004547256,-0.81162465],[0.03392825,-0.72961473,-0.35069174,-0.864006,0.4475182,-0.6536598,-0.6215653,-0.32035357,-0.80120564,0.84054345,0.6706671,0.44916224,0.017661383,-0.69077855,-0.4937135,-0.2244762,0.75358015,-0.4856523,-0.683865,0.5710696,0.98519236,0.39596424,-0.8457664,0.3777295,-0.07023677,-0.41098398,0.10356512,0.3816079,0.41562757,-0.50217074,0.36507946,0.46978292,-0.9532739,-0.84764236,0.8923611,-0.54962844,-0.9418497,0.039785795,0.34530115,-0.48161167,-0.45361495,0.72721606,-0.6638041,0.7663526,0.31910107,-0.027159462,0.87544584,0.46913078,0.99884516,-0.8812285,-0.87669486,0.6235103,0.5616223,0.29165754,-0.2852293,-0.8360654,-0.2765842,0.19192019,-0.4777201,0.53562236,0.76205164,-0.70171183,-0.7638939,-0.22839434,0.6121038],[-0.51466095,-0.094338834,0.8580387,-0.5366466,0.16421802,-0.4032009,-0.0378108,-0.25767055,0.0042803166,0.35351953,-0.2067282,0.08264345,-0.30565602,-0.12759013,0.7785601,0.22407515,-0.21560666,0.7554939,0.7826474,-0.41430855,0.0914841,-0.272301,-0.76481295,-0.8092406,0.18061353,-0.07991375,-0.31271446,0.2717623,-0.3825087,-0.5014143,0.8285517,-0.5097217,-0.26505366,-0.7033116,0.2682796,0.68323183,0.944542,0.26648033,0.27325794,0.5585663,0.098803446,0.3796457,0.076381974,0.43487254,-0.7134076,0.4307039,-0.29283088,0.6103333,0.40381056,0.15104046,-0.43075886,0.51510704,0.34158984,-0.06205763,0.4633523,0.04615596,-0.70371616,-0.9553063,0.78472257,-0.32681638,0.24165583,-0.68571734,0.84689456,0.72624266,0.1435997],[0.97039586,-0.70838267,-0.11611832,-0.043367945,-0.44903475,0.1682099,0.050489403,0.14150593,-0.9018594,-0.100613885,-0.6719789,0.05255481,0.7895236,0.05073854,0.6773441,0.027840432,0.46586332,-0.5920232,0.74628425,1.0080006,-0.8765488,-0.7182924,0.68790144,-0.060553096,0.9621615,0.5162476,-0.28700048,-0.83482057,0.5367898,-0.9190777,-0.22112179,-0.37566593,0.43044823,0.19707999,0.48389155,0.054713435,0.9985814,-0.16278294,0.18747412,0.42877737,-0.38344046,0.48250312,0.5544522,-0.9239131,-0.08698996,0.9987799,-0.6451035,-0.9708611,0.8643989,-0.7855567,0.37018406,0.6171416,0.24011183,-0.84011185,0.45935,-0.8089504,0.7009955,-0.34705797,-0.5001672,0.7773504,0.25465968,0.42661488,0.4132038,-0.8375988,-0.7666653],[0.3886443,-0.9669784,0.6185395,-0.8902412,0.53194714,-0.32115582,-0.7551698,0.5665163,-0.7281657,-0.3407994,-0.3044287,0.37241197,0.22626406,-0.68376017,-0.05547135,-0.20220387,0.8324226,0.72380173,0.96589047,0.7267616,0.40331644,-0.40204865,0.52684426,0.9755906,0.27324954,-0.7525729,-0.12440103,-0.42740104,0.43242612,0.624089,0.23072618,-0.28362474,0.36307606,-0.45169073,-0.78640735,-0.8149287,-0.9232853,0.93326646,-0.26364455,0.7383142,-0.036586933,-0.8185744,0.1631972,-0.9029945,-0.6253493,0.5851991,0.28988248,0.14947212,-0.13759619,-0.770028,0.42865017,-0.31332597,-0.9930104,-0.008259384,-0.18785581,0.43688118,0.3083028,-0.80780715,-0.9960149,0.7969804,0.13731834,-0.3558715,-0.50181395,0.46776095,0.3062298],[0.3579873,0.823337,0.6072314,-0.9804834,-0.36689898,-0.7268771,0.80058974,0.6873721,-0.24766591,0.35448655,-0.8250387,0.2395031,-0.87053657,0.38852382,0.35650712,0.7471751,0.7660045,0.6177067,-0.34136385,-0.17618707,0.5055101,0.5893865,-0.21351177,-0.6958911,-0.2032497,-0.6791974,-0.5218575,0.6624918,0.31013906,-0.65083706,0.97690535,-0.73828566,-0.21434431,0.34678102,0.95209605,0.13989437,-0.27452183,-0.06608241,-0.0641813,0.008540991,-0.67693293,-0.16580275,-0.39251494,0.5404007,-0.16341631,0.36553738,0.5039086,0.5216136,-0.8594639,0.8282138,0.15086176,0.4908342,0.37570462,0.3436132,0.2991242,-0.18820846,0.74581426,0.25514257,0.94317025,-0.25814262,0.6903182,-0.73723376,-0.5827874,-0.04689575,-0.05461258],[-0.67215747,-0.9476493,-0.5061358,-0.037666388,0.5359319,0.32575232,0.061401244,0.8497439,0.6755612,0.45840755,0.61274797,0.4572509,-0.23612775,-0.9262951,0.7165767,0.19451368,-0.12160815,0.5646373,0.61118776,-0.4258701,-0.07246316,-0.56108046,-0.13340397,-0.90449303,0.5007506,1.0047153,0.25513864,0.28346232,1.0003576,-0.6595986,-0.9021938,0.11038352,0.17241815,-0.58065695,-0.55496514,-0.3525739,-0.43389195,-0.32231718,-0.27536225,-0.60542446,0.335231,-0.47514623,0.40644053,1.0154978,0.19053204,-0.6359478,-0.54193205,-0.9360696,0.10244604,0.7634176,-0.5268966,-0.19192114,-0.13810137,0.4871815,-0.44417745,-0.022317845,-0.414459,-0.56892246,-0.8736361,-0.061557762,0.49740604,-0.54937977,0.9680215,0.8250548,0.5182605],[-0.32506618,0.3617656,0.9894368,0.5702609,0.44986755,-0.6024451,0.20067139,-0.64857036,0.45353797,0.8467794,0.49948698,0.009861442,-0.3845188,-0.96566,-0.7380346,0.26372677,-0.63401276,0.92937,0.8390032,-0.40309888,-0.2374048,-0.18068981,-0.5612805,-0.23721033,0.9703708,0.042948287,0.6348759,0.14871906,0.34176624,0.7609013,-0.4319791,0.012232139,0.4441399,0.09015086,0.56287825,-0.049915083,0.0849707,0.6281624,0.28930604,-0.11898125,-0.8282504,-0.0019559364,0.35851106,0.04518721,-0.008811711,0.61953706,-0.2471828,-0.5606089,0.49280196,-0.8007835,0.064138725,0.052161798,-0.18951303,0.2814702,-0.4532527,-0.470649,0.76717925,-0.21173234,0.2624487,-0.2995812,0.66055214,0.8051591,-0.8676313,-0.9040828,0.90804994],[-0.8950802,0.62789404,-0.13847457,-0.7904033,0.771215,0.9246663,0.722816,-0.5838405,-0.16458724,0.6834365,-0.95508605,0.7756902,0.39313376,-0.879493,-0.8031985,-0.72430706,0.9615469,-0.23180653,0.3404087,-0.3516925,0.3737899,-0.37512827,-0.52265453,0.38363668,-0.49043986,-0.47245663,0.8755925,-0.3947676,0.24418288,0.7189691,0.036232315,0.94307184,-0.20335725,0.5299805,-0.8815017,-0.09967429,-0.5074286,0.024398051,0.53541124,-0.48519373,0.57737124,0.8159706,0.9842691,0.9134886,0.79416025,0.6251691,0.7852934,0.8378999,-0.91545826,-0.25476596,-0.019419601,0.6627584,0.43235788,-0.74875736,0.646915,-0.25470054,0.28423843,-0.0037398909,-0.97918266,-0.98141664,-0.81005925,-0.02828762,-0.6411403,0.40772125,0.54926467],[-0.8460653,0.21105433,-0.3585507,-0.51179963,0.05907417,0.3539594,-0.8932037,-0.46825337,0.29163033,-0.39430067,0.27882242,-0.50681764,-0.3137153,0.90804464,0.40333802,-0.07785189,-0.4327516,0.14091323,0.28838325,-0.9607215,-0.92473805,0.9469515,0.15730403,0.26434746,-0.16403142,-0.41689602,-0.84911597,0.9923888,0.32429704,0.32019734,-0.17480923,0.70631844,-0.61741894,0.56415176,-0.86992574,0.7868199,-0.5652731,0.981709,-0.91709524,-0.8187548,0.9095157,0.36940384,0.6302851,0.8239486,-0.4430889,0.50056344,-0.58820057,-0.6678938,-0.41505814,-0.7951097,0.44553638,-0.6483404,0.19882192,0.16545872,-0.2750104,-0.31217846,0.79760134,0.5966856,0.15156949,-0.56723297,-0.0012305619,-0.10435104,0.060943503,-0.8876321,-0.5529189],[0.19778179,0.222871,0.2545206,-0.59468216,0.3609776,-0.7033186,0.9415395,0.14067867,-0.38484603,-1.006151,0.6036809,0.067015566,0.10777864,-0.7352068,0.9354879,-0.5341626,-0.28808388,-0.07207257,0.6907704,-0.9484895,-0.01093683,-0.4563884,-0.49577814,0.7172546,0.47308004,-0.41626504,-0.84541845,0.118759826,-0.5709947,0.25063765,-0.10302935,-0.8884947,-0.65180194,0.21812786,-0.84076566,0.18124235,-0.26813748,-0.08538888,0.68240696,-0.15347424,0.3138094,0.41856346,0.2021782,0.9463226,-0.7183051,-0.98292017,-0.00976878,-0.6229773,-0.17412277,0.76312554,0.68433076,0.27514902,0.34072083,-0.30994517,0.30481526,-0.2803196,0.100778736,-0.7076286,-0.6893692,-0.41061413,-0.7219186,-0.29281452,-0.33717924,0.4266228,-0.32171932],[-0.3390026,-0.90141326,0.79499406,-0.07868614,0.880451,-0.87540156,-0.6501298,-0.053848885,-0.8139977,-0.05861909,0.85680056,0.28680226,-0.40333802,0.45645922,0.51783276,0.16266447,-0.52600247,0.6826384,0.8291247,-0.30841273,-0.49045312,-0.5711526,-0.9058097,0.88213044,0.5675614,0.1413618,0.9583808,0.25382334,-0.49730057,-0.22568451,-0.8122233,-0.47210354,0.45933455,-0.38654765,-0.2292305,-0.05326709,-0.854889,0.7195028,-0.5976685,-0.45711607,-0.9726051,-0.36157322,0.6841584,0.3355455,0.06348464,0.74903154,-0.46677372,0.5526036,-0.18697229,0.9595762,0.35729235,-0.003648152,-0.6342683,0.3838804,0.2962815,0.8865664,0.5834926,0.09473441,0.7003712,-0.8109698,-0.15426889,-0.19496053,-0.15969045,0.72319525,-0.41370645],[0.8532777,0.31226143,-0.08890322,-0.4129906,0.13369739,-0.02737016,-0.88187623,0.766046,0.7944766,0.24562494,-0.9824876,0.9611331,0.8215288,0.31628993,0.92610246,0.981188,-0.26922458,-0.33286428,-0.5416491,-0.32943723,-0.8046089,-0.9205016,0.72981834,0.30675343,0.29730174,0.38928106,0.99598825,-0.83169836,-0.8432041,0.6997773,-0.4086394,-0.35481417,0.49675864,-0.65990734,-0.5537288,0.74386,-0.9918286,0.28908962,-0.5328978,0.27653962,-0.05212202,-0.74766546,0.32558173,1.0013467,0.7086725,0.6127863,-0.21957529,0.41896132,-0.5560168,-0.78643507,-0.8088527,0.26190934,-0.34368747,-0.58888596,-0.31548068,0.74660003,0.22740793,0.9012128,0.33512628,-0.084839225,-0.27810696,0.1611019,0.092973314,0.12564865,0.57019925],[0.7488093,0.57854086,-0.37238684,0.53472525,0.9602223,-0.24890949,-0.6254919,-0.9776184,0.09610412,0.5599072,0.30924863,0.07137435,-0.041745525,0.20305984,-0.85035896,-0.52666104,-0.78786063,-0.35688132,0.45506573,-0.8436131,0.34594393,-0.7195763,-0.33907732,0.39137325,-0.65563816,-0.36943308,-0.69838434,-0.28212616,-0.7364243,-0.3816874,-0.1786497,0.51711196,-0.2935015,0.29679462,0.5138938,0.4802671,0.25457427,-0.67076844,0.38943166,0.0861629,-0.98463345,0.07135462,-0.87789404,-0.4138287,-0.91049576,0.69777805,-0.96288735,-0.51561624,0.1527171,0.48663127,-0.23358855,0.6028688,0.8481038,0.1864938,-0.23067927,-0.67288464,-0.10418266,-0.27784717,0.76443416,-0.50706017,0.3499648,0.7260803,-0.91687614,0.91347426,0.035569787],[0.35102683,-0.37008038,0.56794024,-0.38711298,0.23057964,-0.972779,-0.14586323,0.30174842,0.16561374,0.5320443,-0.21506752,0.011788202,1.0125772,-0.34557632,-0.41160604,-0.22871529,-0.4085748,-0.9391381,-0.110136665,-0.34809336,0.45254177,0.16479059,0.054965034,-0.026123947,0.5384925,0.27986556,0.04539409,0.17580554,0.83455074,-0.41112953,-0.38246047,0.35501093,-0.4217146,-0.6364138,0.6821671,-0.9095853,-0.59418666,-0.26688027,0.26562417,-0.61465174,0.91040987,-0.8723145,0.17665154,-0.18922241,0.48099378,0.18700385,0.6255973,0.9257384,-0.6989331,0.2640123,1.0102568,-0.3276257,0.70638055,0.32200062,-0.73117274,0.76052314,0.28544685,-0.6763746,-0.07053052,0.56384444,-0.45997435,-0.6588364,0.7014262,0.017620131,0.8914835],[0.4369919,-0.0857065,0.73716295,0.7687296,-0.57605755,0.21409236,0.9878755,0.328287,-0.24176556,0.81555635,0.95243245,0.4273208,-0.18326451,0.45703396,-0.08484828,-0.935722,-0.8387935,-0.23773347,0.6677512,-0.79020464,0.930326,0.9412604,0.4279428,0.60483557,-0.8760725,-0.31677496,-0.27285668,0.45020357,0.353941,0.47634953,0.57873327,0.77194405,0.21588044,-0.97341585,0.60547507,-0.8055251,0.21972923,0.7419013,-0.818282,0.9766453,0.36782345,0.17417389,-0.028120713,-0.39101148,0.4350238,0.25139952,0.71775943,0.23218533,-0.7372702,-0.52588123,-0.5851235,0.85002565,0.7686545,0.11277155,-0.2738051,-0.28287163,0.99607915,0.5314406,-0.7228635,0.9867507,0.6270521,0.19417344,-0.43920267,-0.38649252,-0.13436244],[-0.8577204,0.3121112,-0.4458771,0.026630666,0.8556174,0.8957996,0.5189848,-0.60552555,-0.39162105,0.14818321,-0.5902113,-0.64015186,0.4507062,-0.78774107,-0.74365574,0.83379465,0.97430605,-0.16514274,0.42788133,-0.23496689,0.6815472,0.597688,-0.9111014,0.08183766,-0.57793266,0.17148162,0.6387021,0.07335926,-0.5689224,0.65488654,0.34648958,-0.9263255,0.06533547,-0.076217376,-0.19270864,-0.26941222,-0.0052508097,-0.8889902,-0.7308628,-0.68859637,-0.97713304,-0.0569259,-0.50189525,-0.554932,0.15210323,-0.44636568,-0.0032231784,-0.6447535,0.73466736,0.9030782,-0.19829535,0.46045583,-0.0058146236,-0.2568612,-0.017457014,-0.10683021,-0.79658407,0.3783736,0.50697,0.0034484565,-0.41225952,-0.7166308,-0.8387234,0.040341485,-0.62510014],[0.605871,0.37591735,0.78490317,-0.75587463,0.52282935,-0.89039326,-0.8574837,0.3761048,0.0022646904,-0.63165903,-0.8034777,-0.76765335,0.08305199,0.11048784,0.24206534,-0.67862505,0.47783133,-0.8688108,-0.53344846,-0.77363527,-0.6513884,0.38605604,0.045529738,0.0740042,0.45542648,0.43071112,0.5257633,0.7192411,0.28453687,0.5779977,0.26252204,0.17252727,-0.51435,-0.5503053,-0.96785545,0.08447256,0.7521785,0.79605347,0.5065305,0.8898577,-0.83772916,0.92922103,0.17889841,0.56612647,0.28091085,-0.20850298,-0.13993098,0.56084144,0.42556188,-0.13911834,0.5936677,-0.6447501,-0.9914138,-0.9779397,-0.0091488315,0.39818665,0.055922788,0.47648785,-0.39061758,0.95936906,-0.9980676,-0.7041432,-0.20438454,-0.730479,0.24907732],[0.83504677,0.4620176,0.3903536,0.40292853,0.63116986,-0.07723835,-0.32716632,0.15867579,0.6587262,-0.72035897,-0.31446534,0.54541785,0.15801294,0.018105201,0.37489682,-0.8061179,-0.57562995,-0.45027572,0.24070518,0.25311032,0.15186553,-0.4299231,0.7656344,0.95987624,-0.40789774,0.97729075,-0.14484736,0.5751797,-0.4480815,0.008911653,0.84226424,-0.83875084,0.03973065,-0.7155827,0.7468895,0.03790733,-0.9301483,-0.8573595,-0.2997764,-0.4488254,0.36962253,-0.80828446,-0.8983393,-0.4654131,0.74143124,-0.8170002,-0.50811327,-0.41181895,0.8431435,0.9443487,-0.24939619,0.349596,-0.7014037,0.03378535,0.27869707,0.6778463,-0.45952997,-0.9732182,0.14687116,0.7092977,-0.8255893,-0.13153055,0.13118722,0.47618794,0.09595635],[0.89866185,0.29384553,-0.76726025,-0.37618926,-0.13811114,0.9515982,-0.99253803,-0.0038631991,-0.9950639,0.049243677,-0.6583868,-0.39226377,0.07668589,0.50676847,-0.97312117,-0.1024071,-0.025557913,-0.71613264,-0.1390908,-0.8972141,-0.50267,0.7892187,-0.1400269,0.5332335,-0.8664369,0.2790387,0.69603175,0.53951496,-0.9296713,0.24146003,-0.15301643,0.1638945,-0.2441525,0.5531454,-0.5045433,-0.07443791,-0.8677926,0.17658083,0.6791212,-0.6851554,0.08631463,0.9476408,0.1808105,0.6800543,0.15739432,-0.08588147,-0.60869515,0.76960933,0.92520034,0.21631125,-0.17507342,0.8892097,0.617739,-0.22279304,0.21325831,0.51292163,0.007536728,0.4169374,0.15719685,-0.7129442,0.10761146,-0.039360818,0.84119904,0.96822983,0.933615],[-0.24077775,0.5949088,0.3831042,-0.7832274,-0.40862074,-0.87059313,0.8411641,0.19672896,-0.49419737,0.85447407,0.82108265,0.19633962,0.6588832,0.29854497,0.94850993,0.45245853,-1.0033679,-0.4381068,-0.0006317411,-0.9832461,0.5981359,0.8750092,0.47640577,0.33408695,-0.25704816,0.8000704,-0.92221427,-0.056479543,-0.08364399,0.485981,0.59931564,-0.53188,0.61364645,-0.53800213,0.7196329,-0.35646805,0.33427176,0.17970376,0.3855507,-0.4588633,-0.58179253,0.5963031,0.78303057,-0.53357685,-0.49309725,-0.110284664,-0.3977148,0.047253404,0.9810524,-0.89244294,0.64364916,-0.093981,-0.027260654,0.49467054,-0.21606608,0.82932705,0.57573503,0.5963721,-0.62856954,-0.20336178,-0.57585794,0.8645999,0.9636274,-0.7055873,0.4471478],[-0.3665393,-0.7469309,0.041436,0.23075552,0.020796925,-0.45915407,-0.35937697,0.56700855,-0.38899657,0.081387445,-0.36038464,-0.006845509,-0.8834963,-0.9692415,0.393851,0.16584094,-0.0457728,0.031773236,-0.018952407,0.49056122,-0.9792726,-0.97069615,-0.40769953,-0.32155946,-0.68671644,-0.012201405,-0.1599198,-0.13301994,0.0449425,-0.9459931,0.2199045,-0.6537316,-0.5337994,0.85547924,-0.31258956,0.46329293,0.33339775,0.3084789,0.43989512,0.41706732,0.25094107,-0.5512065,0.13189453,0.8753869,-0.15700431,0.5683646,0.26475286,0.1626916,-0.8493349,-0.82303244,0.068428986,-0.824554,-0.85288453,0.6528528,-0.52384406,-0.49718106,0.9572651,-0.44156647,0.014618488,0.1833157,0.6159218,0.16647345,0.31475973,0.7911154,-0.11677691],[0.050041657,0.45710197,0.8156653,-0.8987383,0.6889991,0.32523522,-0.6602995,-0.20667437,0.9495605,-0.30483696,-0.8631584,-0.7151443,0.37373194,-0.9407231,-0.5359673,-0.49126533,0.81729656,-0.6213025,-0.10132214,-0.35091773,0.20320854,-0.85120803,-0.37520057,-0.30240184,-0.72565466,0.9286134,-0.86563027,-0.14755087,-0.40252006,-0.41504613,0.008027877,0.48600543,0.8594262,-0.7620166,-0.24133615,0.94757885,0.92635655,0.65094423,-0.67702806,0.18994315,-0.16355065,-0.4261971,-0.49055764,0.63239986,-0.7407217,-0.5942675,-0.15460867,-0.20442247,-0.20341271,0.6046902,0.48647204,-0.027339252,-0.6791394,-0.81930476,0.45324665,-0.57328606,0.3574886,0.69672203,-0.061571065,0.8610566,-0.8383917,-0.9476341,-0.23185106,0.8977791,0.64216346],[0.20586744,-0.39724958,0.6828434,-0.6115999,-0.3201724,0.25926316,0.32374355,0.605918,-0.11944671,-0.53469783,0.5994397,-0.53500897,0.18130225,-0.14648478,0.28770006,0.27015513,-0.050682697,-0.004780048,0.67767245,-0.98627853,-0.7437382,0.021365156,0.80699724,-0.69008815,0.26818585,-0.54324543,-0.3530334,0.20124942,-0.920904,-0.5445679,-0.22239777,-0.26163858,-0.6820191,0.12315687,-0.1172542,-0.51453173,-0.059400257,-0.34991884,0.79683244,0.14311522,0.089216486,0.81519514,0.4844607,0.6439938,-0.96361196,0.7998946,-0.6693618,0.14292207,-0.9020384,-0.8592561,0.05220752,-0.7784343,0.3807215,-0.8087733,0.7922071,0.18760917,-0.5412135,-0.56761646,-0.028069427,-0.6544758,-0.9584923,-0.04245441,0.14641193,-0.955284,0.90696037],[0.3753021,0.4510014,-0.06874565,0.18208078,0.3662023,-0.8229258,-0.86324537,-0.87943363,0.541935,0.2589632,0.28083545,-0.7363502,-0.007645494,0.12611122,0.43480587,0.916153,-0.46678564,0.6266756,-0.5835347,0.34114328,0.46588266,0.75693595,0.030805014,0.5502696,-0.12337731,0.630638,-0.46269,-0.94820815,-0.50176436,-0.4815496,0.398892,0.86346793,-0.6661196,0.5291072,0.42643481,-0.22081548,-0.32148442,0.3592778,0.96328825,0.020009004,0.8966002,-0.21119118,-0.83475405,0.13722432,-0.8567968,-0.4620224,0.977863,0.25308698,-0.14792857,0.2245165,-0.70513815,-0.17724207,-0.4192391,0.26982504,-0.15371375,-0.1599986,-0.6974833,-0.31861004,-0.6956745,0.7509096,0.97940314,0.2851557,0.9055255,-0.6646261,0.31785852],[-0.59620005,0.0045049223,0.24907994,0.37950766,0.1501375,-0.18841377,0.1791237,0.8775312,-0.14207816,-0.540938,-0.9363544,0.7970982,-0.21064919,0.09097069,-0.36056426,0.21778798,-0.6393077,0.0746478,-0.3096536,0.83847797,0.85051394,0.3867271,-0.5324688,-0.49199253,-0.4228191,-0.67481786,-0.9605259,-0.34564477,0.5143982,0.32717398,-0.67828363,-0.15149605,-0.2339801,0.35024065,0.5336251,0.14008962,-0.61217105,-0.87589693,-0.98144424,-0.0019689477,0.022914793,0.81701994,0.18158445,0.1095256,0.3689528,-0.45417705,-0.52585465,-0.6883751,0.1361291,-0.2508647,-0.45751315,-0.24113183,0.8519048,-0.99166316,0.049120624,0.28854656,-0.84095746,0.9089934,-0.40217325,0.5076201,0.5319372,-0.42373785,0.055872858,-0.41772994,-0.528863],[0.41706014,0.058257118,0.84235966,-0.42128554,-0.1837937,-0.48931187,-0.72760993,0.0033268058,-0.27851424,0.6681235,-0.31439307,-0.34588423,0.9493461,-0.631808,0.35474706,0.61759293,0.2815656,0.00025048375,0.028821325,0.6194247,0.59986717,0.9564759,-0.9814469,0.65178347,-0.77851295,-0.7718046,-0.6663396,0.7400395,0.6511967,0.5380799,0.9157755,-0.74349517,0.843921,-0.44587857,-0.3845754,0.4899627,0.20586471,-0.17513426,-0.8582231,-0.5446279,-0.4104573,-0.5457412,-0.41467014,-0.34783915,-0.6405777,-0.31139743,0.8723654,-0.51951927,-0.36676943,-0.42531306,-0.7375847,0.22653012,0.53711563,0.05762317,0.89369655,-0.57821745,0.5768815,-0.3257705,-0.6025901,0.3254221,-0.020469796,-0.06736953,-0.4724474,0.95857155,0.89357525],[-0.7919398,-0.30450386,0.5434678,-0.42537758,0.062041167,0.22056511,0.88233787,0.5400233,0.97575635,-0.9687075,0.5452141,-0.59050447,0.18465091,0.025435854,0.36625594,0.93717074,-0.09908543,0.14266436,-0.29101738,0.20174035,0.86817425,0.18049254,-0.9597828,0.39637986,-0.8254998,-0.576572,-0.226985,0.09834098,0.55798566,0.9431151,0.96982497,-0.2861898,0.36709806,0.38551298,0.50342137,0.11669997,0.8215582,-0.48104146,-0.7368462,0.2613874,-0.72563165,-0.45888263,0.48671034,0.6860448,-0.88931775,0.30884415,-0.5388773,-0.77161556,0.4928246,0.28911364,0.8436023,-0.55256575,0.96745604,0.3016518,0.36298454,0.11850844,-0.41654724,-0.63884234,-0.79980385,0.845911,-0.9447007,0.22717185,-0.6435498,-0.5187567,0.2150434],[0.86934584,0.27784845,-0.5504704,0.6201388,-0.45044705,0.053464238,0.01919231,0.8420102,0.6716534,0.4646736,0.19253856,0.453713,-0.036151495,0.14174952,0.9275933,0.03693506,0.6939782,-0.32501528,-0.60584605,-0.2097731,-0.13008194,-0.09941193,0.51593745,-0.6663856,0.54639417,-0.6989413,-0.5329963,-0.965542,-0.9218208,0.13269395,-0.012198549,-0.14260459,0.023809154,-0.78647655,-0.7946793,0.63288504,0.3729137,0.3822927,0.8269285,0.8527006,0.050790258,-0.7989589,-0.09457924,0.29108524,0.13636737,-0.8146472,-0.35745224,-0.27745742,0.1972532,-0.6918732,0.23023412,0.038257416,-0.3463481,-0.48862955,0.9378893,0.27316788,0.8106534,-0.1931139,-0.12346675,-0.8593584,-0.6340777,-0.6283957,-0.3070259,0.90584403,0.6135418],[0.83722395,0.23140828,0.16502437,-0.18121327,-0.44977543,-0.76006275,0.91756505,-0.65521264,0.25662085,-0.60894424,0.51528656,0.77873486,-0.51264626,0.34849256,0.14389281,0.5976584,-0.9334795,-0.2784225,-0.85861564,-0.8851683,-0.05743513,0.40441355,0.69063294,-0.79763776,0.44590077,-0.91826195,-0.70338,0.25100574,0.7666129,0.6009665,0.34497666,0.04337858,-0.62798506,0.09303832,0.24833612,-0.81322646,-0.7559565,0.3335233,0.7830281,0.073456116,-0.27860728,0.92150575,0.19822006,-0.5902145,0.7442594,0.7719583,-0.013771353,0.7028169,-0.40076953,0.15999608,0.35979268,0.60676646,-0.44184035,-0.9071701,0.62862813,-0.57302797,0.94440895,0.38878807,0.9560947,-0.5672992,0.83237845,-0.6947036,-0.1843733,-0.31471354,-0.9816518],[0.31897596,0.4099011,-0.5928629,0.45885113,-0.4857059,0.14326508,0.28380385,0.8574263,0.34052256,-0.85276484,-0.5498679,-0.11197637,-0.841205,-0.10195825,0.27035746,-0.35187393,0.6211553,0.8489231,0.15224606,-0.30801582,-0.07936895,-0.57244617,0.30118322,0.26737997,0.7913481,-0.28830025,-0.6527435,0.26239645,-0.8508319,-0.6638617,-0.66619295,-0.93759286,0.31000784,1.0020993,0.59279346,-0.16844705,-0.1084071,0.029229218,-0.3505895,-0.81029534,0.35418096,0.5890798,0.9756949,-0.49284324,0.66730934,0.50621945,0.99330854,-0.584914,-0.61470056,0.30252013,-0.18715698,-0.1780168,0.48889428,0.46492064,-0.4456717,0.9047573,-0.35009274,0.31450197,0.18956187,0.6785431,-0.013757977,0.31077507,0.25932643,0.4917415,-0.87546575],[-0.964088,-0.2920914,0.66011244,-0.9505793,0.34714633,-0.44106692,-0.23038416,-0.82222563,0.27712625,0.7195488,-0.40093723,0.3737021,-0.1342762,-0.51728195,0.8613178,0.14104778,0.04924939,-0.19878687,0.8615955,0.3830623,-0.40371534,-0.16218369,-0.50474846,-0.35654736,-0.8201652,-0.33084753,0.21129851,-0.30172247,-0.6687384,0.6606589,0.43677962,0.041435506,-0.18580325,-0.90536976,-0.07644323,0.6501591,-0.99780095,0.46339422,-0.04383536,0.82752067,0.5733015,-0.51175004,0.85917616,0.33281192,-0.5359236,0.32025352,0.5316437,0.54580015,0.319139,0.9486459,-0.27315965,-0.8216138,0.035350308,-0.39719686,0.23124534,0.490007,-0.5315886,0.8848359,0.21194685,0.0019581157,-0.25007153,-0.7511626,0.4034087,0.5316447,-0.50171757],[0.7796486,0.40713608,0.63925576,0.28671345,-0.84506583,0.7876372,-0.6738318,-0.23693891,0.9976922,0.9898195,-0.1351949,0.6795637,-0.41460532,0.31944877,0.5513008,-0.5480892,-0.23411436,-0.7840224,0.048742678,0.88380724,-0.012370922,0.7006247,-0.63479644,0.69371194,0.24483973,-0.3094648,0.20242257,0.84472144,0.1504443,0.2633258,0.43541953,-0.3168949,-0.564256,-0.71013045,0.45097855,-0.03009618,-0.7841854,-0.8218757,-0.6081502,-0.91953075,0.19946292,-0.96798503,-0.40991858,0.5345772,-0.21396384,0.9971366,-0.62645537,-0.13020775,-0.42292684,0.36915103,-0.30491298,-0.39035803,-0.32728505,-0.552425,-0.45161015,0.71877694,0.21211803,-0.97445595,0.98756874,0.7739455,-0.63641715,0.5464558,0.32553777,0.47952878,0.27713963],[0.05710577,-0.9977093,-0.11081224,-0.15728548,-0.32013765,-0.48114637,0.53277594,-0.0631926,0.5113122,0.9580001,0.5598777,-0.7067526,0.6327331,0.56235117,0.4146518,-0.53886926,0.6767151,-0.78795254,0.8625287,0.32127678,-0.32171282,0.5064217,-0.2505757,-0.34206387,-0.89374995,0.5239733,-0.077052355,0.4164112,0.234907,-0.3692051,0.83720064,-0.428739,-0.25961912,0.9616473,0.57593,0.09353785,-0.5040054,0.4550975,-0.36907443,0.56534743,0.6456718,0.5757019,0.07953221,0.9411241,0.19187863,0.92839897,-0.7411046,0.40297604,0.45140803,0.13924184,-0.5778588,-0.41259956,-0.54132235,-0.5199696,-0.61494786,-0.021786207,-0.6463329,-0.4954984,0.6170468,0.53160197,0.20268784,0.84736484,-0.6369999,-0.5633222,0.9160786],[0.9975353,-0.034955427,0.28450975,0.8280416,-0.8470346,0.9887007,0.9421951,0.84674037,-0.30520168,0.03215635,0.7629453,-0.17392875,0.038178034,0.5575554,0.04847546,0.36994666,0.17335625,-0.80240047,0.86786973,-0.76927227,-0.1686279,0.6002658,-0.7613428,-0.8912576,-0.6866385,0.77065414,-0.118670866,-0.8774468,0.7265606,-0.12818794,-0.72571,-0.5209147,-0.91966885,0.30708408,0.057827298,-0.42765746,0.5096497,0.7262181,0.481895,0.846563,-0.8644266,0.55588526,0.010055544,-0.3482653,0.46394363,0.8402008,-0.050867606,-0.70293045,0.12618537,0.85475045,-0.23388486,0.016173026,-0.95252895,0.1510831,-0.17841674,0.9194441,0.5641107,-0.22568902,0.26712546,0.663409,-0.40818676,-0.970269,0.703667,-0.026107375,-0.8704232],[0.3248538,0.4451807,-0.75848716,-0.07893253,0.3575536,0.75311357,0.6538159,-0.44946375,-0.62307334,0.7782018,0.19639587,-0.34047925,0.29080373,0.73524684,0.5549929,0.0717444,0.32922983,0.9907343,-0.5008325,0.9886087,0.2849839,0.07216468,0.12380673,-0.4334946,-0.46715662,-0.23743466,0.8802225,0.61238545,0.39962018,-0.09878091,-0.7185786,-0.8201742,0.9513479,0.76563513,0.49659306,0.825863,-0.92467445,0.74609053,0.70421773,-0.5917921,-0.7018653,0.88317746,-0.8230249,-0.9194039,0.23331615,-0.448101,-0.17883988,-0.5175944,0.21638833,-0.96222353,-0.80290663,0.9540161,0.069274805,0.6725202,0.30884987,0.85030454,0.95204055,-0.58153176,0.83866185,-0.81344473,0.35325396,0.9594753,-0.633109,0.049296673,-0.70497125],[0.6729558,0.5276732,-0.5401749,0.80649334,0.04319926,0.3467378,0.8126473,-0.13757682,0.13073711,-0.41047895,0.17783685,-0.94081426,-0.5020182,-0.17201757,0.009880082,0.19391216,0.66827875,0.9694367,0.40419412,0.24089834,0.15780972,0.8888541,0.9806304,0.9259826,0.7039904,0.76103675,0.7267887,-0.9931702,0.0049589453,0.047326498,0.74610144,-0.3262517,0.49756265,0.39827746,0.51551795,0.2099526,-0.7628885,0.7381594,0.36710614,0.28591728,-0.289384,-0.35465956,-0.06937111,0.14346388,-0.34546176,0.45666027,0.8503121,-0.09939475,-0.09382371,-0.8822229,0.85284454,0.004866587,-0.22889861,0.20613335,-0.0626934,-0.7272885,-0.021269185,0.7327199,0.83505744,0.052899446,0.02984483,-0.9520501,0.18480532,-0.9160343,0.9718806],[-0.66926104,0.7228715,0.7643471,0.42481324,0.8843489,-0.45034316,0.38814434,0.8781008,0.021044407,0.08979808,-0.41612458,-0.049652576,-0.9858716,0.74057853,0.7986344,-0.43672863,0.5214465,-0.7781899,0.65335387,-0.8960962,-1.0162281,0.45025617,0.07887985,-0.80731183,-0.14396581,-0.19628385,0.47988835,-0.70353186,-0.25846705,-0.94810647,0.40444645,0.57985526,0.37831718,-0.1330594,0.5479184,-0.39683044,0.8516963,0.1123448,-0.4125719,0.35078964,-0.7490921,0.3994843,0.2184063,-0.45288137,-0.523869,0.1942161,0.3286386,0.9668423,-0.42711827,0.0022586586,-0.17692669,-1.0101255,-0.19874409,-0.0007772501,0.7742541,-0.22840549,0.6202317,0.5223442,-0.53429407,0.47470376,-0.94211125,0.48193842,-0.20260331,-0.71719956,-0.99290186],[0.38380224,0.20875913,-0.7447892,-0.41821283,0.7236759,0.03269036,0.8169656,-0.4107497,-0.6267541,-0.97295475,-0.38222402,-0.6055609,0.40924475,-0.62463444,0.76349765,-0.58325946,0.2968389,0.14572991,-0.54219633,-0.7640933,-0.51974744,0.9123967,0.43769252,-0.62709606,0.21139659,-0.20526621,-0.6594767,0.6061203,-0.8423495,-0.99107003,-0.5628421,0.65888816,-0.3278137,-0.51579523,0.57768756,0.13458128,0.08525129,-0.5983355,-0.121266395,0.70223206,-0.598707,-0.15550949,-0.99155205,0.84240484,-0.51823366,0.70347595,0.100622,0.52258086,0.90544856,-0.16138604,0.8891566,-0.43221906,-0.9856264,-0.47984025,0.27770394,0.024557866,-0.36146954,-0.031767562,0.21887694,0.5848592,0.38855517,0.18860771,0.47669262,0.9821482,0.015081878],[0.8491418,0.6089415,-0.53180337,0.3799798,-0.459768,0.18215121,-0.49796432,-0.3504169,-0.91673225,-0.25137442,-0.32134295,-0.16045831,-0.7695489,0.71530354,0.1841191,0.87176734,-0.97699225,0.50411415,-0.35424542,-0.21219063,0.14246625,0.9915201,-0.2604076,0.35782787,-0.9606823,-0.301665,0.6700678,-0.38130242,0.10843707,0.53510803,0.44095245,-0.057217892,-0.0034846116,0.2037973,-0.1469011,0.384776,0.42390528,0.012771008,-0.7761909,-0.19265349,-0.2659426,0.08433662,0.56174254,-0.5931299,-0.9289102,-0.82719177,0.064245194,-0.06779977,0.07075358,-0.9306118,-0.4640487,-0.9331268,0.2640859,-0.48637214,-0.75239503,0.7248859,-0.77397645,-0.25287023,0.30038854,-0.5213384,-0.53653145,-0.6734063,0.104811154,-0.1378812,-0.20948935],[0.9526792,-0.9337789,0.7437357,-0.6503823,-0.05380745,-0.6132347,-0.3207626,0.7609403,-0.64887923,0.50208294,0.38679683,-0.97200364,-0.57303303,-0.19021378,0.3796694,0.40989155,0.59060925,-0.020325432,-0.5575642,0.6474491,-0.4363906,-0.7658941,0.3943757,0.2972511,0.38872552,-0.20489767,-0.723634,-0.06127247,0.11092122,0.2137489,-0.33841354,-0.8243491,-0.05025525,-0.15637371,-0.08617489,0.5875102,-0.23922148,0.2686894,0.25336418,0.79343545,0.39478624,-0.109187104,0.8176486,0.58279276,0.95945007,0.54409796,0.2595259,0.5120336,0.39143154,0.03332484,0.97802776,0.6331895,0.3424388,0.6954503,0.98411185,0.16000418,-0.29666415,0.10914244,0.5798007,0.5396332,-0.43842867,-0.029476902,0.23466283,-0.86706996,-0.39717585],[0.36225417,0.75197494,0.7458112,0.14285228,-0.7273147,0.9652096,-0.22711623,0.41536066,-0.15163352,-0.6291045,0.8992337,-0.54178244,-0.031767342,-0.80394787,0.70031726,-0.5862904,-0.46761554,-0.57570636,-0.7517356,-0.8470426,-0.6455622,0.4222527,-0.41560256,-0.98224735,0.81297994,0.11964121,-0.40206122,-0.66461205,-1.0009836,0.9498504,0.9406714,-0.57608193,0.7749649,0.9430724,-0.086535886,0.37128526,-0.16401884,0.1895064,-0.9158203,0.6918422,-0.71947986,-0.32315418,0.049551576,0.17290933,-0.3161379,-0.9545553,0.5547303,-0.08580846,0.8050547,0.87281793,-0.25514084,-0.70897484,0.1136735,-0.41833213,0.4902808,-0.2921667,0.99364305,-0.07384919,0.9414072,-0.40316087,0.17566378,0.8852349,-0.18780755,-0.67152596,0.714707],[-0.9005423,-0.0013875171,0.73610467,0.64674103,0.09332471,-0.19207855,-0.94520426,-0.7892811,0.043911837,0.088498875,-0.9633883,0.41200593,-0.75308114,-0.22596563,-0.0260205,0.07661333,-0.89604753,0.17293312,-0.17345567,0.3674933,-0.53821015,-0.40065318,-0.0029336824,-0.68662673,-0.31826058,0.48717657,0.085438035,-0.35018155,-0.18745393,0.5558021,-0.08098983,0.40492254,-0.91503817,-0.7363331,0.5432141,-0.24918808,-0.61454684,0.13134365,0.8353601,-0.21302252,0.9250281,-0.79381484,0.059829965,0.3679746,0.6013979,0.6960869,0.6920473,0.22091743,0.5345807,-0.43620458,-0.98029757,-0.44523862,-0.85979736,0.36498743,0.07608314,0.30624646,-0.85820186,0.9375592,0.43850464,0.99537575,0.070104115,0.8653884,-0.017594125,-0.16536051,-0.62342334],[0.31702486,-0.82571834,1.0347693,0.22583142,-0.22671968,0.45750415,-0.32119104,-0.50157315,-0.54033417,-0.5682913,-0.19050281,0.0841399,0.35005325,0.97420937,0.37168503,-0.82495666,0.21386741,0.9200942,-0.48893023,-0.937508,-0.884183,0.49125728,-0.94010824,0.8736268,0.21332759,-0.25740317,-0.28108642,0.5304451,0.834566,0.1421095,0.20339952,-0.44437808,0.25834367,0.14917931,-0.47357592,0.70093334,0.46317637,0.29593214,0.278974,0.936647,0.8783994,0.09698924,0.30183476,0.6549148,-0.48514375,-0.9642541,-0.50226235,-0.8056038,-0.17142746,0.30966362,0.9038026,-0.23865502,-0.33867666,-0.4055056,0.063167766,0.6675349,-0.8701892,0.8098592,0.54377913,-0.06680464,0.8421896,0.52482593,-0.3116469,-0.54126716,0.7213045],[-0.5892112,0.64991504,-0.03304241,0.5638098,0.33652645,-0.12578349,-0.05346434,-0.22903772,-0.18049736,0.8780872,-0.80934644,0.84671,0.9733369,0.5695219,0.6302407,0.15617667,-0.7125941,-0.21896875,-0.7562613,-0.41946942,0.4638653,0.7859477,-0.11283493,0.56075823,-0.7397629,0.83822244,0.27759162,-0.08535457,-0.065831006,-0.43351877,0.07883753,-0.5595537,-0.5094304,0.28394663,0.044215474,0.37439185,-0.4990025,0.87488216,-0.95182073,-0.26445556,-0.39400238,-0.5514908,-0.46850115,-0.8969415,-0.92686146,0.28493735,-0.00877093,-0.48505417,-0.58829963,-0.35363996,-0.16698632,0.498363,-0.836246,0.7286618,0.8216911,-0.6675725,-0.37147528,0.5398013,0.9918686,-0.7341803,-0.6752362,-0.78543746,-0.87644297,0.34414452,-0.24030809],[0.58757955,-0.16511866,-0.28823718,-0.8863377,0.94253063,-0.97432446,0.4046769,-0.7835958,-0.15871826,-0.5643943,-0.49395934,-0.391882,0.8318834,0.44175357,0.6242654,0.25935495,0.29316467,0.40055582,0.062394988,-0.3749991,-0.9185352,-0.69988936,-0.45838618,-0.08363055,0.17601727,-0.34037283,0.71544397,-0.891682,-0.15847397,0.35091555,0.94291925,0.60527736,-0.97082233,-0.10018496,0.9523247,0.56022465,0.20793481,-0.631596,-0.02462349,0.8817029,-0.8533446,0.2721691,-0.09248663,-0.28831577,0.20054226,0.90299,-0.56911904,-0.98350424,0.13731192,0.22246453,0.88856083,0.72877854,-0.4958441,0.6975353,0.45148167,0.44605994,0.09329877,-0.67939216,-0.61031276,0.42831314,0.39555347,-0.9685323,0.54393566,0.64152247,0.9092611],[-0.6119777,0.8985151,0.45671156,0.8425257,-0.66076446,0.1860667,0.40132904,0.5847709,0.61405474,-0.2525513,-0.343444,-0.5640769,0.07651543,0.5233211,-0.5088177,0.93966407,-0.7394245,-0.19752766,0.5232877,-0.65782857,-0.837574,-0.85850513,-0.06356932,-0.9979083,0.64414763,-0.54967093,-0.35207883,-0.2880465,-0.86896616,0.2960287,-0.103508584,-0.09145586,0.5094683,0.10341262,0.8665832,-0.3586333,0.49653286,-0.3017322,0.89986277,0.09702957,0.089609616,-0.30462614,0.18414013,-0.38855508,-0.5715999,-0.72472876,0.08980792,0.012387698,0.19804457,0.043426115,0.29818133,0.32938588,-0.8196563,-0.42532432,0.02501239,-0.35729647,-0.38311964,0.24477413,0.51118165,-0.8277201,-0.62649554,0.18386829,0.700112,0.17211866,0.7121678],[0.3833803,-0.42410162,0.23233356,0.33513153,0.31438428,0.15735304,-0.6297705,0.9138265,0.063949056,-0.70271313,0.812838,-0.5969488,-0.019372553,-0.65678847,0.5408159,-0.2632164,-0.34264168,0.3316099,-0.055908542,-0.14083172,0.07948206,0.5306014,-0.7242133,-0.21158826,0.32689953,-0.9079348,0.58730686,0.17958856,-0.9125198,0.18234187,-0.3197648,0.8954148,-0.35444868,0.08751553,-0.78656137,-0.3050035,0.88342905,-0.10214928,0.9777289,-0.740682,-0.4526929,0.43600452,-0.42020163,-0.7318153,0.16140302,0.7703398,0.5616745,0.508467,-0.77238595,0.47073847,0.64415073,0.47418767,0.93669325,0.30639774,0.41460624,0.091541015,0.35494232,0.098851636,0.32114664,-0.33595347,-0.7627382,-0.31772503,-0.35645097,-0.106075004,0.80972666],[0.85426664,0.49665958,0.24321683,0.3085399,0.6608565,-0.08357939,-0.6591957,0.73866135,-0.5086209,0.78674084,-0.2837552,0.68549573,0.24096604,-0.25259054,0.06025186,-0.5482885,0.9657478,-0.64578086,0.16242146,0.5381903,0.21697386,0.63649833,0.07817487,-0.8335068,-0.065626286,0.5426494,0.77542883,0.29060075,-0.9769301,0.0485794,0.9954088,0.9219369,0.6870704,0.7674032,0.2545686,0.81240153,0.911788,0.10382249,-0.56749034,-0.0042470302,0.39167872,-0.77686596,-0.07342337,-0.97699285,0.034968037,-0.64060247,0.8822099,-0.56655216,0.5708702,-0.63553876,0.7333944,-0.8878472,-0.36924833,-0.12891491,-0.69446594,-0.61321205,-0.96508837,0.8419742,0.8461759,0.7048151,0.4716424,-0.70020086,0.4398712,-0.6193507,0.16114205],[-0.3341683,-0.6655864,-0.21968925,0.8848546,0.8918377,-0.06008799,0.5991986,-0.56457186,-0.82549244,-0.29968515,0.5220074,0.90540063,-0.58719325,0.26851737,0.84368294,-0.5406263,-0.40519148,-0.43903893,0.6745997,0.4339705,0.42025068,-0.2879194,0.08784479,-0.07417379,-0.6704079,0.5046541,0.8168756,0.054787047,0.7064164,-0.04849728,-0.6388044,0.27120563,-0.943976,0.76772016,0.42917985,-0.25662816,-0.2693045,-0.54455584,0.2543948,0.32478103,-0.52690196,0.984872,0.9718822,-0.8202632,0.23702998,0.85256183,-0.35987774,-0.19184019,0.35277575,-0.5334306,0.06012233,-0.6599577,-0.5831883,-0.5118719,0.91135585,0.36039212,0.22795701,-0.87888664,0.031462073,-0.23843667,-0.8662422,0.06206122,-0.90804625,0.86833453,0.941023],[-0.51872873,0.0850907,0.42555457,0.45485467,0.35550556,-0.12893507,0.20266072,-0.73112774,0.69158816,0.25814104,0.44677553,0.1298895,-0.0032744813,-0.7402214,0.9765626,0.7869498,-0.21873921,0.7683236,-0.68471164,0.14096183,-0.31640056,-0.75895786,-0.73534214,0.38803145,0.1513589,-0.8924399,-0.58201694,0.77138406,-0.825592,-0.23900563,-0.84231097,0.8070932,-0.08847748,0.7303971,-0.7662245,0.43972123,-0.31306478,0.06188694,-0.2821885,-0.47254312,0.46018296,0.8805382,0.8218718,-0.8622418,0.053490527,0.8077566,0.79016954,0.8491245,0.13005985,-0.39025673,0.22895251,0.3560253,-0.20806877,0.46532708,0.8508483,0.0655258,0.119386986,0.09611045,-0.5478992,-0.16354911,0.55478257,0.30468526,-0.23177263,0.87421995,-0.7362862],[-0.8345923,-0.75997573,-0.1236301,-0.99208504,0.23471846,-0.6761526,-0.24655253,0.14476854,-0.99599636,-0.49931216,0.13055359,0.94060695,0.39693686,0.67552537,-0.21947405,0.17013764,-0.7835511,0.7881232,-0.4553092,0.7149952,-0.7550024,-0.055606544,-0.118403584,-0.9393462,-0.5651716,-0.56701684,-0.24675836,-0.32227394,-0.8285205,-0.39639506,0.9040336,-0.54995996,-0.0012082433,-0.33351213,0.5615694,0.66689867,0.96513456,0.45818755,-0.3587201,0.73390096,0.8693454,-0.090579934,-0.73613,0.18237086,0.6354893,0.50511014,0.4233295,-0.8757684,-0.56485647,0.36737788,0.3406387,0.83144486,0.34810784,-0.14147283,-0.6378747,0.51463133,-0.29205063,-0.85778546,-0.12591739,0.621358,-0.34253797,-0.11591767,-0.19268274,0.6647409,0.5907036],[0.16550499,-0.8324383,-0.6934199,-0.9104838,0.14689106,0.14623062,0.78751343,-0.9880747,0.34642023,0.6250465,0.7034572,-0.8123027,0.5040442,0.2463209,-0.2698848,0.82629275,0.43240803,-0.5321931,0.31058443,0.65368724,0.7933209,-0.049788024,-0.94626695,-0.79321736,-0.28245065,-0.6007459,-0.589142,-0.5605097,-0.0776847,-0.83677536,0.913373,0.6076813,0.9147219,0.926508,0.2841952,0.40664464,0.4931017,0.6227189,0.35605645,-0.41748053,0.82809085,0.8728707,-0.9057659,0.36959475,-0.53396,-0.4857158,0.97364163,0.5575968,0.5255702,0.8300984,0.23235397,-0.854729,0.4015298,0.8346139,0.31380048,0.26076233,-0.54288983,-0.95834833,-0.89600414,-0.22887623,0.67920756,0.94958466,0.75987154,-0.9134598,0.3234427],[0.856098,-0.10510507,0.6440947,0.6595269,-0.15332662,-0.34216583,-0.632551,-0.07279571,0.2191876,-0.0077042975,0.25348887,-0.07293908,-0.5264358,-0.5055009,0.9695734,-0.9781483,0.20707043,0.5933112,-0.15553348,-0.9320711,0.7001795,0.14259434,-0.47954303,-0.19665445,-0.61724687,-0.26455635,-0.92567134,-0.5998477,0.27499858,0.8652624,0.8677375,0.7371425,-0.86703753,-0.5229036,-0.7969604,-0.47802296,-0.8185074,0.16545159,-0.8740348,0.9509856,0.11825844,-0.69389933,0.08717446,0.7181427,0.5986837,-0.19368392,0.8767285,0.18384624,0.28616053,0.9861748,-0.30223504,0.5576869,-0.007936906,-0.006045508,0.350765,-0.26892382,-0.8578343,0.1951641,-0.22600982,0.48517397,0.30649748,0.49624962,0.5505558,-0.1972944,-0.4713176],[-0.19192505,0.694872,-0.601521,0.29091015,0.48796496,-0.5909206,-0.3445755,-0.6462122,-0.36271334,0.1787733,-0.7074761,-0.703072,-0.65321875,-0.17228161,0.9419942,0.5629692,-0.6856601,-0.52720964,-0.52141553,0.9892256,-0.4949045,-0.058056556,-0.060075104,-0.7923842,-0.091418415,0.6583399,-0.5903859,-0.8720032,-0.17756653,0.69443774,-0.2844537,-0.7954966,-0.590946,-0.20681196,0.71298254,0.7457283,0.8001546,0.029339777,-0.235519,0.33074474,-0.9370698,0.6994773,-0.77391654,0.043810897,0.7149706,0.42027923,-0.5711521,0.69109,0.071979254,0.82034045,-0.35678026,-0.4013822,0.484579,-0.59024495,-0.94592494,-0.516116,-0.45015702,0.24426508,0.74683625,-0.32598114,0.2232398,-0.28534254,-0.1439052,-0.7839129,-0.54204094],[-0.91167516,-0.42187485,0.64821875,-0.5109575,0.23410024,-0.3952572,0.9812097,0.04091394,0.12114996,0.36856353,0.003836995,0.6268996,0.5370086,-0.38930342,-0.1979859,0.542661,0.04007715,0.44772214,0.3848511,-0.7161213,-0.36665803,0.64557403,-0.069687076,-0.6204177,-0.21656743,-0.14862067,-0.27419084,-0.33753905,0.20647712,-0.4292071,-0.19230945,0.8255281,0.8750145,-0.66271436,-0.96989906,0.94882387,0.2977681,0.1302077,0.13662308,0.99233454,0.20623286,0.54270047,-0.7339157,-0.82347405,-0.9289727,-0.6540933,0.7806373,0.5877745,-0.7488754,0.44643646,0.03391469,0.6745553,0.263179,0.44057027,-0.53541845,-0.20848721,-0.10150079,-0.5886512,-0.3824898,-0.12468804,-0.7482938,0.5438726,-0.9311683,0.24274507,0.6706145],[-0.11973975,-0.870418,0.41388538,0.45430428,0.8724873,0.5239921,0.8256014,0.2973571,-0.6802923,-0.57075274,-0.28651035,0.71564853,-0.5616571,-0.1636373,0.3899208,0.2548606,-0.3457926,-0.47545174,0.041146155,0.445909,0.44629198,0.41417924,0.7585549,-0.38973415,0.60984087,-0.25855508,0.00903807,0.39812467,0.41879264,-0.2182902,-0.9864248,0.25799963,0.7985869,0.9410303,-0.052323163,-0.20320038,-0.10483677,0.17407385,0.077745855,0.9305409,-0.41922468,-0.8515366,-0.07670564,-0.21070412,-0.036102727,-0.5436217,-0.22720444,-0.15372658,-0.6094539,-0.45649648,0.08037925,0.7486642,0.009901143,0.44007024,-0.60749125,0.9937588,-0.33838665,0.9184854,0.9473506,-0.7922262,0.9989698,-0.118398435,0.58141434,0.73711425,0.15841648],[-0.5726176,-0.31978878,0.06994144,0.026914803,0.57517236,-0.5589968,0.02510724,0.33903745,-0.82974076,0.8822376,-0.2388156,0.36974186,0.36375096,-0.031085357,0.7820811,0.17514297,0.5717527,0.2771491,-0.27904117,0.16737011,-0.29951587,0.2420496,-0.7052371,0.15515976,-0.9717891,-0.88741183,-0.3926111,-0.27147216,0.20790766,-0.26662207,-0.8072989,0.08953356,0.7242668,-0.6457132,0.20776284,0.1333135,-0.2790306,0.16364795,0.70780873,0.15614171,-0.21081844,0.20118292,-0.9614769,-0.41212603,-0.5477826,-0.60190856,-0.7099153,-0.89754844,-0.728373,-0.0070003737,0.26341522,-0.24665503,0.70035076,0.6030572,-0.90303296,0.6811788,0.26452267,-0.061977856,0.05711536,-0.47730613,-0.26493153,-0.7482234,-0.56388676,-0.6753411,-0.63854486],[0.8074573,-0.8748609,-0.20370483,-0.38737917,-0.27505746,0.8499393,-0.8515682,0.62605053,-0.8808095,-0.23476079,-0.27802065,0.15990576,-0.3894669,0.5086784,0.9699809,-0.725417,0.13302614,-0.98538053,-0.38271725,-0.44179115,-0.8156397,-0.4550793,-0.37733847,0.40748695,0.21109197,0.35723534,-0.5111014,-0.9172481,-0.051778466,-0.13497426,0.793438,0.14730115,0.79719746,0.6163944,-0.6620297,-0.68093175,0.8627561,0.30393916,-0.49842557,0.3700708,0.6776675,0.08940986,0.848031,0.91049206,0.13284056,-0.77281773,0.29513976,0.42471272,0.8414004,-0.8679856,-0.9410274,0.664192,-0.34502825,0.26941824,0.3596013,0.2437086,0.23891222,0.49279502,-0.64308476,0.2824055,0.66105366,-0.5644781,-0.8581,0.9097115,-0.53596985],[0.2925713,0.696379,0.19335866,0.938044,0.43433264,-0.8245258,-0.2169661,0.3753631,0.9194947,-0.45555028,-0.25457352,0.44048786,-0.73687875,-0.71682227,0.73134995,-0.68394697,0.8218796,-0.31537458,-0.44512808,0.20700237,-0.6792693,-0.56390625,0.6010607,-0.01024527,0.8632941,0.7194465,-0.8026577,-0.35058975,-0.635481,0.7295529,0.3079425,0.059820708,0.8712132,0.07300261,0.36815843,0.3410043,0.50257903,-0.37985364,0.37603953,-0.2561666,-0.06461594,-0.64365053,-0.8183162,0.47582296,-0.92054,0.44532585,-0.18193366,0.37043557,0.6955193,0.08933908,-1.0070366,-0.9153561,-0.7078377,-0.45360088,-0.9397057,-0.27888063,0.8034696,-0.64987737,-0.6162341,0.636219,0.39034173,0.108974144,0.9662949,-0.90269244,-0.26011494],[-0.8936272,-0.6024287,0.8164891,-0.55412275,-0.16397399,-0.061345216,-0.5795994,-0.9446487,0.67503107,0.1925168,-0.53227913,0.48036772,0.9286707,-0.6703637,-0.021284964,0.1027287,-0.7343392,-0.26304865,-0.46015283,0.19575271,0.783249,0.65639657,-0.6589162,-0.5127225,-0.729441,-0.5245804,0.7527803,0.70803237,-0.8516285,-0.038384758,-0.71749586,-0.2867135,-0.12647614,0.11705159,-0.98819137,-0.12645936,-0.713882,0.32588223,-0.0923276,0.97877634,0.58828765,0.06566344,0.26025492,-0.30213973,0.71877944,-0.6447969,0.51479644,-0.40027165,-0.41058895,0.98485774,0.9811486,-0.9454891,0.38907737,0.739905,0.5923607,0.5020645,0.03200393,0.52821124,-0.35446325,0.7455822,0.573861,-0.91419166,0.87175333,0.6209808,0.14660427],[-0.15077755,-0.4400635,-0.95882463,-0.5323997,-0.366257,0.99471563,-0.5009448,-0.3716853,0.0110234665,-0.745933,0.42059276,0.85297406,-0.8539079,-0.23382194,0.6060647,0.028464207,0.02739486,-0.7955511,0.53968465,-0.7595522,-0.2597652,-0.20869929,-0.5948984,0.39985272,0.7311487,0.76307654,-0.4598666,0.033957332,0.24050413,0.82492673,0.03544089,0.9533142,-0.038051665,-0.74917173,-0.3440912,-0.46904707,-0.20574674,-0.43317342,0.7922377,0.75947565,0.39121473,0.6359262,0.8571873,0.68455285,0.91141,-0.27144596,-0.53345007,0.2299189,-0.7839771,0.41914302,-0.9388284,0.700827,-0.22342043,-0.0016490472,0.7013559,0.93671334,0.21869396,-0.67919254,0.8427048,0.9954521,0.9325494,0.015441058,0.4214079,0.9304579,-0.8897265],[0.6150862,-0.9435871,0.50629634,0.34730205,0.313287,0.95725054,-0.3077909,-0.2275375,-0.33270168,0.44402245,-0.084459096,-0.03877474,-0.6226396,-0.44297704,-0.6111561,0.99148756,0.79405075,0.6744757,-0.979285,0.610647,0.9339857,0.41564834,0.08253929,-0.96130437,0.7394471,0.99355984,0.8736726,0.82641983,0.780389,-0.2292351,0.20214154,-0.1316584,-0.53847003,-0.930406,-0.39267364,0.005149457,-0.59653634,-0.8951911,-0.9287779,0.59322685,-0.46861404,0.7131049,0.7418253,0.13307944,-0.41865137,0.34684578,-0.49475697,0.9042726,0.97748005,-0.3346207,0.612008,0.5287554,0.4215208,0.7795903,-0.32819176,0.019068297,0.6043601,-0.14012642,-0.3629327,0.9397371,0.86265993,-0.16627817,0.6214931,0.3590736,-0.93845725],[-0.70165366,0.57602113,0.7781259,0.82452136,0.68014556,0.9381798,0.51472354,-0.229232,0.83442694,-0.6198943,0.15660167,-0.2476481,-0.7866181,0.6738119,0.19244075,-0.743609,-0.20075254,0.16092333,-0.95236516,0.92809045,-0.16159685,-0.4410036,0.600444,-0.053572338,0.53915733,0.2574765,-0.9683525,-0.3730721,-0.93975323,0.64273465,0.7676919,-0.6298204,0.004161285,-0.16840403,0.41004613,0.8569395,0.060841374,0.10742248,0.64247906,-0.06523023,-0.86339957,0.019736318,-0.8005914,-0.9318444,0.6035989,-0.14554568,-0.9611724,-0.1688444,0.6642218,-0.23516539,0.30049282,-0.25233597,-0.5835602,-0.42975667,-0.49666926,0.27798173,0.25200537,-0.71120507,-0.23377901,0.9233934,-0.6869021,0.17158715,-0.42685083,0.24172403,0.6858238],[0.59386784,-0.23251288,-0.29332107,0.62504727,-0.5942285,0.2590864,0.52264374,-0.47832796,0.6742355,0.17004612,-0.6721267,0.47245422,0.40809676,-0.20538157,-0.76136434,0.5543009,-0.08712621,0.8016494,0.7569111,-0.4498537,0.8367634,0.7312128,0.8073061,-0.36900234,0.8032668,0.32376954,-0.8529471,0.7496634,0.21721217,-0.70724446,-0.041414343,-0.7344633,0.88634,-0.05324595,0.103503756,-0.3548501,-0.21766986,0.23429236,0.0031666544,-0.5851038,-0.045122452,0.4116102,0.49460116,-0.024733692,0.21193841,0.46855277,-0.7655528,0.15619451,-0.018381802,-0.99501014,-0.90404874,-0.73201233,0.87366617,0.30117452,-0.4960771,-0.5987435,-0.8053053,0.7096472,0.6670997,-0.06286779,0.93498385,0.55243343,0.30695793,0.3995694,0.55913955],[0.8684298,0.6023925,-0.02333005,-0.032303285,0.33409616,-0.9407975,-0.31252816,-0.4000327,-0.92709154,-0.5969589,0.91757214,-0.76080495,-0.4143461,-0.22183453,-0.8165957,-0.24440804,-0.51348627,0.40684912,0.19200487,0.9367954,0.16686794,0.14205523,0.5982184,-0.8793807,-0.03405194,0.96349764,-0.92559934,0.1848533,-0.7242397,-0.44588593,-0.41772783,0.22134285,0.5893136,0.6351004,0.31063965,0.27012348,-0.4975816,-0.3765846,-0.15628225,-0.9938372,0.18900356,0.5143839,-0.78800654,0.038242053,-0.46295682,0.42897785,-0.4482178,0.23772034,0.70320666,-0.95147336,0.24670218,-0.9826495,-0.6251404,-0.5088824,0.2476166,-0.026300142,-0.87264526,0.28687426,-0.12446416,-0.04625509,-0.90734375,0.6630282,0.45215183,-0.6407431,-0.65667003],[-0.9727643,0.034944195,0.088802464,0.3161446,-0.41806033,-0.7893475,-0.55892956,-0.6042882,0.1629494,-0.63306797,0.52520865,-0.12602238,-0.33606437,0.37397078,0.6443055,-0.87981147,0.49590063,-0.7118316,0.11648746,-0.0012982781,0.14911598,-0.4574302,-0.5221558,-0.80779195,0.14481992,0.15867504,-0.122307196,0.5555874,-0.88905954,-0.28536776,0.442207,-0.52689487,0.061557896,-0.9779214,-0.85844237,0.37839952,-0.77227616,0.85452074,-0.8844247,0.36872277,0.39520776,0.8542598,0.19373794,0.85264915,0.32146952,0.7912529,0.46988118,0.6711431,-0.85917836,-0.24701414,0.7022085,0.59291965,-0.4351611,0.19095628,-0.38773632,0.52878827,-0.22928461,0.14324768,0.10704762,-0.6938137,-0.38906574,-0.47379652,0.7215287,-0.41758657,-0.5448785],[-0.3075102,-0.8192362,0.061602555,0.96918136,0.94145525,-0.86651367,0.31012398,-0.3668215,0.71091086,-0.61581445,0.22070955,0.013261229,0.26698554,0.51958686,0.6708913,0.58554566,-0.88975656,-0.4401363,-0.6396321,-0.4056954,0.7085649,0.24971941,-0.14365721,-0.50338835,-0.41342103,-0.6101621,-0.15709053,-0.04436971,-0.6796669,0.5149547,-0.2811926,-0.2538864,0.8856236,0.63168794,-0.43530375,-0.7016469,0.5397203,0.5838207,-0.6816625,-0.26890647,0.29306898,-0.96369743,-0.60630536,0.8484022,0.9832458,0.112123,-0.68518436,0.8292931,0.888976,0.7806245,-0.8474488,-0.91386783,-0.10689567,-0.9637067,-0.29615095,-0.8027426,0.14247485,0.48362365,-0.6948798,0.22616777,-0.7975045,0.3185239,-0.030079015,-0.8893143,-0.7057871],[-0.76634806,0.30245963,0.17743815,-0.12873617,-0.8855911,0.045721594,-0.68480146,0.71363837,0.8199404,0.7447528,0.35226956,0.27037862,0.088437326,-0.4268012,0.030855315,0.14830887,-0.19961427,-1.0013556,-0.60461086,-0.36499757,0.56770927,-0.7509594,-0.47690985,0.75157017,0.8910908,-0.6668221,0.9401459,-0.14627352,0.44418937,-0.3667116,0.7729668,0.2559674,0.7269896,-0.6363695,-0.24918008,0.7456675,-0.78327274,0.28045368,-0.6619204,0.51222664,0.6507566,-0.20404932,-0.47600508,0.5729673,0.79762167,-0.23890099,-0.80017936,0.37192237,0.4022155,-0.9444293,-0.34528255,-0.8985086,-0.9922853,0.9443662,-0.74566907,0.9517069,-0.50914085,0.27194858,-0.93545735,-0.9042755,0.12531993,0.7343959,-0.027648034,0.2880664,0.29758528],[0.22520694,0.77144426,-0.6525937,-0.878037,-0.0502429,0.5057323,-0.42622727,-0.57053185,-0.19636796,-0.36480954,0.9603099,-0.75775355,-0.45953536,0.13095862,-0.105010934,0.03829445,0.8886891,0.7609106,-0.1697846,0.94617367,0.9175418,0.14708838,-0.06960211,0.7997118,0.9823518,0.27900642,-0.576381,0.27697885,0.4613487,-0.42187822,0.6841041,-0.7931449,0.30542487,0.5706333,0.6806966,-0.6450503,-0.32333526,0.23516952,0.72759813,0.98588085,0.5110609,0.018353011,0.8974703,-0.99187094,0.95470136,0.19517797,-0.9398361,-0.60861677,-0.15427513,-0.42205656,0.6356411,-0.627838,0.4023161,0.9046094,-0.22285284,-0.6129941,0.50901866,-0.84208256,0.6351731,-0.4453459,-0.18195866,0.20510758,-0.114703625,-0.68648034,0.66273934],[0.75680923,-0.5959845,-0.036744732,0.49618676,0.13434438,0.94562125,0.9244036,-0.97504693,-0.99619704,0.28383625,0.7441866,-0.90918624,0.63096595,-0.8325419,0.20937425,0.8162788,-0.7699167,-0.66531605,0.6665953,-0.056159366,0.3093676,0.17565942,-0.12679057,0.8125576,0.6433755,-0.12405948,0.022927418,-0.15791677,0.39516997,-0.57324684,0.088488124,-0.77379084,0.034034897,-0.8370112,-0.7386948,0.5709303,-0.25683945,0.95651525,-0.7832096,-0.95513326,-0.20120324,0.5785138,-0.36633405,-0.09405215,0.09542303,0.723005,-0.9215198,0.39413577,-0.28088608,0.7140525,0.43108922,-0.091558784,-0.6704173,0.39314142,0.059027478,0.058632687,0.1458654,0.41395384,-0.60423696,0.8643214,0.13349837,0.5558322,0.71198356,-0.038896106,0.7519415],[-0.7034094,-0.6616703,0.7500406,-0.54210484,-0.43728864,0.17683789,0.25201622,-0.10515409,-0.40808874,0.49524325,-0.94303554,-0.40146944,-0.24871907,0.09071456,-0.9306997,0.064942315,0.29219195,-0.6571169,0.23613021,-0.4686491,0.8510726,0.16449805,-0.76865375,-0.79171306,-0.6777639,0.23374374,0.35976723,0.41001973,0.20564196,-0.28442454,0.25081745,0.6287712,0.35892862,-0.026045673,-0.5132135,0.16409317,0.31762558,-0.1025528,-0.5013075,0.67860144,-0.2543105,0.44511765,0.950419,-0.54037416,-0.5628865,-0.68212014,-0.8418829,0.9377388,0.17215088,0.44535014,-0.5419078,0.6267759,-0.29133424,0.16335705,0.82919526,-0.114897914,-0.67727596,0.11170171,-0.37449464,-0.23029782,0.530703,-0.96990263,-0.7890578,-0.45625162,0.5473821],[0.5106266,-0.37505975,-0.35441738,-0.64670295,0.4506673,-0.8947564,-0.7201681,0.7151939,-0.18528268,0.13833128,0.35816976,-0.65014094,-0.58700347,-0.43802845,-0.9144737,-0.2141217,-0.58050925,-0.2282774,0.16495359,-0.09186497,-0.52418953,-0.7477669,0.05877026,-0.31737387,-0.67065823,-0.24621099,0.31448904,-0.4073752,-0.54401034,0.4633469,-0.407359,0.69843465,-0.89289814,-0.5807005,-0.014038274,-0.8619573,0.9096621,0.92171407,0.6422463,0.18934089,-0.13295864,0.94164664,-0.18095154,0.107978575,0.5224032,-0.40830317,-0.31478226,0.57181686,-1.0004674,0.028789293,0.5081225,-0.30951807,0.23260877,-0.1407847,0.7502475,-0.75254637,0.5576007,-0.97620964,0.62822133,0.5085632,-0.902164,-0.07149616,0.39777058,0.5332126,-0.24078466],[0.34349155,0.599403,0.6116671,-0.29263344,0.3297029,-0.31581417,-0.08337831,0.83524334,-0.19571517,-0.8364146,-0.4440866,-0.24527946,-0.9555951,-0.4022143,-0.9840497,-0.73849654,0.0047066906,0.2538951,-0.61006075,-0.109694965,-0.09986925,0.7355342,-0.014735799,-0.808266,-0.87455404,0.9970156,0.3492763,-0.062895186,-0.77479666,0.97380495,0.32851648,0.4348524,-0.51279265,-0.9150038,-0.6687977,0.99843055,-0.36601254,0.77111566,-0.457367,-0.71022326,-0.16626458,0.7623399,0.42456073,0.50601745,-0.07226842,0.7076915,0.75199455,-0.8213648,0.4813434,-0.16592011,-0.0160891,-0.6035497,0.6422245,0.8030302,-0.99964744,0.41419017,0.8811045,-0.17595933,-0.037401967,-0.41293344,-0.52452165,-0.22562008,0.3941117,0.7640724,-0.2779283],[-0.71423906,-0.68071675,-0.8671877,0.553504,0.8205281,-0.3063773,0.69968337,0.7678995,-0.31941003,0.098578505,-0.32565522,-0.6283443,0.8399503,0.32291073,-0.61515784,0.62500566,0.36277303,0.25809285,-0.53155583,0.37051532,-0.11314111,-0.07801476,0.77546686,0.06945326,0.065225855,-0.8681689,0.24209622,0.7104893,-0.022072503,-0.49350217,-0.062688,-0.3671922,0.40731046,0.36286286,-0.16685212,0.21610048,0.51694804,0.91674477,0.669585,-0.7292411,0.5032281,-0.47567272,0.79237676,0.68009573,0.13702457,0.736336,0.8850178,0.5028961,0.3462664,-0.615601,-0.4739744,0.20562407,0.38024876,0.26574716,0.11101512,-0.5934835,-0.7729762,0.5999628,0.87932885,-0.33706868,0.8612807,0.26312748,-0.1787171,-0.5381883,-0.048018545],[-0.27165657,-0.52200425,0.46784037,-0.7285151,-0.56096965,0.8124277,0.80932766,-0.34220925,0.9340208,-0.0617607,-0.7366405,-0.021899167,0.5388637,0.9117822,-0.19695888,0.30111822,0.6344317,0.48219237,-0.5104645,0.004573759,0.73974454,-0.21737586,-0.8260688,0.53941035,-0.6174645,-0.5560856,-0.06339378,0.8859254,-0.58039325,-0.65639347,-0.07778432,0.5985492,-0.68912965,-0.075994864,-0.74615467,-0.65273184,-0.95441383,-0.47728094,-0.26082432,-0.6773278,0.9831565,-0.015010396,-0.9813252,-0.29215643,0.9563212,0.09546289,0.6941643,-0.5044813,-0.7823812,0.29740953,-0.9955923,-0.5292589,-0.27337712,-0.06372195,0.3261353,-0.15327826,0.5095598,0.9756754,-0.7257174,0.8907782,0.8450896,-0.7109309,-0.23197147,0.7548267,0.3850151],[0.8739731,-0.0007485558,-0.5751073,0.9048548,-0.8509084,-0.47910485,-0.6953083,0.7840716,-0.81363523,-0.5675331,-0.4680445,0.284394,0.07336612,0.19608332,0.40087396,0.09739805,0.8646918,0.6701047,-0.6161864,-0.12364917,0.9569458,0.14633818,0.27679744,-0.658768,-0.5983156,-0.27144286,1.0072594,0.6758594,0.72094625,0.89624715,0.48958096,-0.8032084,0.6476686,-0.4240523,-0.60533816,-0.15510637,-0.6939135,0.795264,-0.44436458,0.8606993,-0.34648553,0.8965625,0.22309214,-0.89188844,-0.7129041,-0.5996558,-0.89813006,-0.8935435,-0.0600548,0.6372315,-0.32697234,0.29439455,-0.23939067,-0.9262733,-0.921636,0.5589021,-0.30482,0.025039094,0.105717376,-0.63898665,0.9055761,-0.05238389,-0.82721794,0.9004981,-0.28462276],[-0.17513713,-0.70430946,-0.053448115,0.6327667,-0.99808884,0.13378826,0.92784697,-0.17275229,0.34201553,-0.38298374,-0.6816781,-0.011262154,-0.30021718,0.3501621,-0.8806765,-0.7563361,0.5420968,0.11508748,-0.80457366,-0.24255878,-0.69567215,-0.9101299,-0.65205926,0.73148614,0.31382564,-0.7684902,-0.1496195,0.3568254,-0.8737002,-0.2658201,0.6447415,0.5059457,-0.7387659,-0.90909386,-0.5185268,-0.16849044,-0.37765035,0.3072865,-0.57494676,0.95222604,0.76842827,0.48452702,-0.15223372,-0.5229408,-0.5821954,-0.3841431,0.663561,0.5004153,0.66396147,0.30062187,-0.65223366,0.3341342,0.3665592,0.5091524,-0.005826003,0.14501595,-0.9938492,-0.88310915,-0.80434686,-0.36292064,-0.51535904,0.18585491,0.5457263,-0.07792312,0.78061116],[0.8264493,0.124859266,-0.0058549414,0.38398862,-0.45044094,0.700165,0.6834971,-0.44617304,0.55285656,0.37185112,0.48636863,-0.21686691,-0.49105924,-0.17364211,-0.18007003,-0.10580108,-0.43943185,-0.80162406,0.3031472,0.8376205,0.72687215,-0.40975246,0.84330547,-0.40735084,-0.81349427,0.3290872,0.98231804,-0.04907504,0.9559328,-0.827661,-0.27489537,-0.7235568,0.17014998,-0.9221273,-0.66464996,-0.75852394,-0.2507511,-0.28175366,-0.8210398,-0.9462143,0.3637961,-0.34362844,-0.33764148,-0.009502518,-0.29763645,-0.78358364,-0.16291425,-0.8544274,-0.71192175,0.84317684,-0.16028112,-0.024033785,0.27454025,-0.6722573,0.79019475,-0.7564765,0.16682616,0.32298094,0.7610079,0.60591197,0.65159374,-0.40563294,-0.4508503,-0.2860836,-0.55155253],[-0.098507635,0.30087334,-0.73986036,0.2839537,-0.49350443,0.78870875,0.5440741,0.40696192,-0.93531567,0.6757542,0.74187297,-0.77237815,-0.6593419,0.42045254,0.38448977,-0.82299566,0.25558603,-0.71859795,-0.68825614,0.032317095,0.45026577,0.30871332,0.8645414,-0.119922385,-0.89831644,0.4165741,-0.21002774,-0.9039035,0.31940475,-0.78787833,-0.09748811,-0.016370006,-0.4488533,0.5141161,-0.2613396,0.6414393,-0.8947486,0.5543198,0.54875284,0.5861016,-0.02641009,-0.5555524,-0.47892123,0.5584161,0.79954517,-0.9283503,0.20875576,-0.2164999,0.6705993,-0.2989286,-0.4884514,-0.21343839,-0.01880204,0.9690214,0.50701845,0.81533056,0.71053463,0.9909554,-0.20198499,1.0148164,-0.7328777,0.50593644,0.61252683,-0.15339755,0.27597335],[0.66465586,0.6815889,-0.8372545,0.48934186,0.6292167,-0.42690575,0.7939341,-0.8532638,-0.7083625,0.7536189,-0.063474745,-0.76452523,-0.002250732,0.14186555,-0.43790612,0.56647635,-0.63193375,-0.6488855,-0.5118074,0.3237376,-0.9391998,0.43742883,-0.011157095,-0.73509455,0.11128867,-0.5484832,-0.55145854,0.09894658,-0.34314555,-0.17431314,0.6196473,0.29223764,0.032883525,0.14076853,-0.50694954,0.6809003,-0.21389599,0.60949653,0.8159203,0.15340364,0.267649,-0.7009939,0.7280229,0.47307667,-0.12073323,0.4151584,0.8542905,-0.662698,0.2934961,-0.72883606,-0.7841366,0.42078143,-0.41907945,-0.0073808734,-0.117445104,0.4421111,0.8907705,-0.4610092,-0.86604226,-0.10326256,0.18168497,0.5712652,0.9450953,-0.33386454,-0.7582888],[0.50435734,0.9144756,0.8477565,-0.8154006,-0.27249545,-0.2116915,0.9200948,-0.79170036,-0.19176319,0.5878011,-0.79093736,1.0170636,-0.928588,-0.34435338,-0.70633215,-0.032658156,-0.8683956,-0.54946005,0.504943,1.0103769,0.10816597,0.43991423,0.18640149,0.024257513,-0.36378312,-0.0071522444,0.5627409,-0.8949929,0.047352202,0.13320927,0.14252621,0.6508731,0.91205555,-0.5488507,0.20918791,-0.4416801,0.4032546,0.63035107,-0.4597828,0.3023856,-0.0113079585,-0.8031148,-0.80046296,0.106868125,-0.1045723,0.9014667,0.15003195,-0.75720614,0.68440557,-0.1739272,-0.06063744,0.9111534,-0.4011172,-0.44710267,0.33985993,-0.27051166,0.05200339,-0.67843515,0.5046118,0.82247233,-0.5768158,0.68213606,-0.026517952,0.19800915,-0.124791816],[-0.23674773,-0.70115995,0.8724091,-0.5412755,0.06833057,-0.97463065,-0.32738498,0.2499863,0.86425024,-0.6923036,0.73569685,-0.58409005,-0.703006,-0.6273363,-0.9727585,-0.64080375,-0.9557795,-0.6947168,-0.242327,-0.50972676,0.94904786,-0.42910117,0.67970794,-0.19833371,-0.8310103,0.147753,0.54960257,-0.00042281597,-0.7245563,-0.9410648,0.06958056,-0.9403901,-0.9514114,-0.898764,0.5823691,-0.6814046,-0.40222317,-0.19827873,0.28949678,0.1311309,-0.65225667,-0.34191293,-0.16749427,-0.6275532,-0.5378463,-0.7494042,-0.16664253,0.9976081,-0.28608194,0.47342357,0.5626933,-0.19394752,-0.12610778,-0.93232185,0.8854381,-0.7679938,0.5789958,0.6931735,-0.86387175,-0.38132325,-0.13891114,0.3537569,0.90881723,-0.8973435,-0.16767354],[0.84998643,0.16830434,-0.6039221,0.5299475,0.14781201,-0.41633877,-0.38489702,0.6235557,-0.7508669,0.7014609,0.94447607,0.8954012,0.078287736,0.5439976,0.43473688,0.70155585,-0.14592014,0.69822365,0.45008507,-0.2992397,-0.6189999,0.28785142,0.32668346,0.08435543,-0.024576616,0.74816316,0.3170823,-0.48722565,-0.5483415,-0.1697217,0.96918935,0.6441446,-0.24261722,-0.07041183,0.43918175,-0.99911505,-0.15900591,0.8065503,-0.85724837,-0.9531177,-0.61936635,-0.16706362,-0.3337046,-0.59410095,-0.94791543,-0.8080642,0.8306846,-0.95477873,0.9022051,0.7248159,-0.38249853,-0.1154368,0.32362384,0.09241704,-0.10646958,0.6846286,-0.88947934,-0.9996535,0.81619096,0.5248587,-0.29886225,0.9085984,-0.6897144,-0.47447094,-0.5190191],[0.6559195,0.58000964,-0.6171414,0.96979773,-0.006554396,0.13584849,0.59191793,0.5201381,-0.13679893,0.72523165,0.697217,-0.6807996,0.68017304,-0.4407734,0.100885764,-0.5444582,0.87786824,0.28257337,0.45896646,0.032286536,-0.107297555,-0.5418663,0.61363393,0.87045646,-0.6800676,0.33406755,-0.15626974,0.011081516,-0.9121405,-0.6171766,-0.5636763,-0.9068968,0.07071024,0.96526223,0.58756703,0.9393134,-1.0079651,-0.4058658,-0.42674297,-0.5761482,-0.22828327,0.88243705,0.4028059,-0.74410677,0.878915,-0.23978315,0.10648483,0.97948384,0.4355482,-0.5224463,-0.37479436,-0.9147478,0.62775093,-0.98234653,0.76997006,-0.23104738,-0.09787214,0.17564632,-0.7774241,-0.7765508,-0.41396236,-0.8481237,-0.46947592,-0.49874407,0.3969573],[-0.6094368,0.6093086,-0.67821276,-0.18098463,-0.897527,-0.33449683,0.24767996,0.11748743,-0.51824045,-0.20914716,-0.4769099,0.0402988,-0.17746523,-0.38055226,-0.74010324,-0.17561512,0.4690094,0.45278814,-0.59672046,-0.42070937,-0.061742853,-0.5051272,-0.13738598,0.8540539,-0.2797443,-0.0011660354,0.74008566,0.3816607,-0.96018374,0.34805828,0.19828969,0.7801891,0.37350255,-0.5065345,0.45767194,-0.9260327,-0.71525544,0.33878413,0.9618768,0.0909761,-0.42846698,0.113250025,-0.9480753,0.6476595,-0.25456142,0.78223574,0.23223053,-0.8673538,0.045956463,0.48544124,-0.16481814,0.901966,0.34487736,0.2891532,0.48747668,-0.26734826,0.055700332,0.022136299,-0.6129224,0.94306314,-0.6293509,-0.089765005,0.36054838,-0.96077,-0.8467046]],[[0.6978953,0.63732386,-0.8408754,0.5552676,0.36090827,0.7390959,-0.25665665,0.32818556,0.5962417,0.018660307,0.9142308,0.97727084,0.81821895,-0.79925156,-0.29059434,-0.056320667,-0.17507124,0.5671294,-0.6239574,-0.122644424,-0.50024796,0.31113672,-0.89717007,0.5294306,0.26474738,0.8918605,0.38337207,-0.6408205,0.7614176,-0.28855824,-0.61044884,0.3304069,-0.7244067,0.28722143,0.3701198,0.89410853,0.05382228,-0.13947129,-0.24168587,-0.67815185,-0.90335965,-0.07084298,0.772357,-0.47468877,-0.49435568,-0.20723605,0.27445912,0.56585073,-0.17590451,-0.7379556,-0.26957536,-0.7556858,0.8171859,0.12105441,0.08586645,-0.16674113,0.94595265,0.8647449,-0.07117081,-0.92308664,0.028103352,-0.5371046,-0.78108263,0.78493285,-0.7657018,-0.7030809,-0.030127287,0.25244665,-0.19002295,-0.21190763,-0.6743343,0.07944512,-0.23044133,0.84980893,-0.3657887,-0.44736767,0.22317243,-0.13503957,-0.64640594,0.63153315,0.59560466,-0.42680836,-0.8016088,-0.61777854,-0.97688055,0.61074543,-0.9155853,0.21401072,0.3173046,0.2536211,-0.41859627,0.82859325,-0.95865583,-0.12253165,0.06343508,-0.10396075,-0.7205355],[0.70804965,-0.3214795,-0.26779145,-0.9828639,-0.24414267,0.5082464,0.25896144,-0.3944731,0.49958605,-0.78456616,0.5161798,0.13621154,0.5482686,0.8600585,0.9489185,0.4385568,-0.24732459,0.70509493,0.22030157,-0.52964634,0.51531327,0.61104435,0.280917,-0.5555922,0.4905061,0.93502563,0.45052442,-0.7252318,0.9736512,0.15895776,-0.87275845,-0.9032854,-0.8352151,-0.50015754,0.35189402,0.53063697,0.9659453,-0.9705919,-0.07830699,-0.04266684,0.15650591,0.84369004,0.525798,-0.90246063,-0.71860355,-0.90890473,0.4124461,0.36673543,0.9550146,0.71657985,-0.77840877,-0.82923067,0.89110297,-0.19122854,0.47802165,0.25944206,0.6908869,0.9220452,-0.017934881,0.55164003,0.25957948,0.8686078,-0.6742074,0.13890752,0.17884302,0.078573145,0.5242662,0.61335576,0.8853606,0.4644246,0.28097883,0.5055611,-0.1761852,0.29177868,0.22477442,0.5735656,0.85961705,-0.97415185,-0.12548931,-0.32468337,-0.27035213,0.6807987,-0.81281435,-0.80982494,0.7181517,0.922101,0.94704944,0.88210446,0.2126875,-0.48833314,-0.09947735,0.21887986,0.72912234,0.63451517,0.15915641,0.5922207,0.9008333],[0.69297224,0.09879397,-0.8228584,-0.19219568,0.42819503,-0.6779592,0.85137266,0.23757713,-0.19068496,0.1830724,-0.24771376,0.64668775,0.47357816,-0.029568465,-0.35540447,0.69606966,-0.3141906,0.15695648,-0.7797268,-0.6298679,0.5929775,0.030863753,0.53400373,-0.9127974,0.66539335,0.79319715,-0.4768572,0.34033847,0.64266956,0.4906537,-0.3986525,-0.07677791,0.84219366,-0.71994513,-0.67784244,-0.57138735,0.9164927,0.4951777,-0.71885026,-0.9476809,-0.81920844,-0.14337632,0.14689633,0.45004535,0.9465143,-0.687766,-0.10073696,0.95267934,-0.23225403,0.42816162,0.40881303,-0.46834183,0.9332994,-0.5302029,-0.98047346,-0.12623428,0.2862887,0.07914957,-0.08819554,0.693707,0.33901742,-0.14362422,-0.8718477,-0.68489087,0.8704766,0.19892325,0.008777951,0.77317935,-0.78561836,-0.4813041,-0.86145824,-0.15994206,0.3678209,-0.31922352,0.5262198,0.040455986,0.7079566,-0.823498,-0.1078114,-0.39888287,-0.7253523,0.4327899,-0.55341685,0.22932902,0.7536556,-0.12007208,0.32115346,0.33651802,0.22887814,-0.28046858,-0.1726513,-0.9294409,0.69125503,0.7770598,-0.093673706,0.10481818,-0.19606517],[-0.5881345,-0.027565487,0.13291703,-0.013531928,-0.49626705,-0.22076501,0.4235769,-0.35706586,0.9545376,0.5959399,-0.47913054,-0.11801786,-0.04181197,-0.6625285,-0.1045865,-0.49090698,-0.93348336,-0.1055298,0.31239003,0.8591877,-0.26948482,-0.04821886,-0.04441072,-0.69030774,-0.6004029,-0.65746367,-0.402762,-0.6673093,-0.9611349,0.6086597,0.3053096,0.18334728,-0.17393638,0.69999343,0.6663354,-0.36684144,-0.782719,0.8933685,0.96378976,-0.8083665,0.47201222,-0.9356509,0.4222014,0.6613708,0.42487484,-0.6163655,-0.89989895,0.7940475,0.23014368,-0.178676,-0.77022177,-0.96706635,-0.700611,-0.38352174,-0.8521119,0.51465565,-0.5824668,0.5605724,-0.49888003,-0.7945001,-0.39694065,-0.5723002,0.3363082,-0.6019936,-0.34178534,-0.96754074,0.011412879,-0.81251746,0.5768595,0.5768481,0.3117474,-0.4370296,0.07275662,-0.016254,0.052471578,-0.469742,-0.8954119,0.79474115,-0.93808174,0.68199366,-0.8247468,0.88225424,0.4136531,0.13044083,-0.5805771,0.8175643,-0.2572093,-0.19877124,-0.05900064,-0.40637794,0.30732003,0.43861148,-0.8655182,0.76661223,0.25843757,0.9595101,0.097138934],[0.1487802,-0.5421779,-0.28559512,-0.20094733,0.88339496,-0.9261308,0.7785658,-0.24714682,-0.7491924,0.058045954,0.8443449,-0.6666703,0.5484239,0.26033354,-0.43706104,0.74961764,0.11865437,-0.9689967,0.749327,0.16119888,-0.9470321,-0.49058586,-0.12586744,0.90822184,0.25695017,-0.5403048,0.3682757,0.09659842,0.8909925,-0.8592874,0.9224692,-0.33422193,-0.74305344,0.7516036,0.05709417,-0.7457602,-0.55241156,-0.60926914,0.4289959,0.6665968,-0.2572179,-0.69331425,-0.41254663,-0.28801525,0.61039025,0.79244906,0.70543927,-0.075380854,0.18526986,-0.24354911,0.6730911,0.1250304,0.98751104,0.322692,-0.4489831,0.3479625,-0.18316516,-0.64393675,-0.35854837,-0.7002098,0.13971107,-0.99092704,0.5851324,-1.0032301,0.19188178,-0.39850894,-0.88525355,0.1252157,0.2980219,-0.24914844,0.07717146,0.010279906,-0.6050391,-0.7676884,-0.44654667,-0.24392389,-0.2888053,-0.9646049,0.47491693,0.1268728,-0.74130434,-0.7057841,-0.31128746,-0.8215921,0.9637719,0.6530843,0.4254711,-0.6619294,-0.19887376,0.12550831,0.44272488,-0.7655067,0.22202678,-0.2027947,0.9403195,-0.3678821,-0.117128335],[-0.5630563,-0.7100673,-0.7755291,0.47992808,0.64497614,-0.914934,0.11102846,0.18310039,0.053439774,0.9146795,-0.72906184,0.06037171,0.5711228,-0.8051429,0.29242218,0.14145824,0.73560315,0.5283089,-0.32827768,-0.014512444,0.2640797,0.24546154,0.470607,-0.30008063,0.08968762,-0.8234111,0.32076174,-0.5885363,-0.99538004,-0.18389384,-0.41996017,0.50656074,-0.14907049,0.05737387,0.63175017,-0.43141696,0.08515859,-0.32182422,0.9258548,-0.080348894,-0.5144896,0.60332245,0.14629327,-0.36348864,0.9267423,0.60204357,0.0025588598,-0.783931,-0.06865349,0.60959995,0.66721433,0.29892242,0.570459,-0.6342226,-0.13344528,-0.89704645,0.39779425,-0.5809598,0.7700343,-0.85191405,0.2963307,0.22655724,-0.6139833,-0.44432154,0.012151308,0.42751,-0.56258,-0.27532288,0.3399304,0.5471665,0.15878993,0.16131498,-0.9662233,-0.30663723,0.45176643,-0.9255837,-0.7049401,-0.4778779,-0.31743327,0.112252355,-0.43166283,0.40673935,0.7840633,-0.35979018,-0.32178155,-0.8688889,-0.13921991,0.008538877,-0.5379861,-0.7472774,-0.04034379,-0.7932658,-0.7684732,-0.94922066,0.51894385,-0.17599325,-0.5414571],[0.2850349,-0.079130374,-0.5739051,0.34104204,-0.9352883,0.7008696,-0.7785844,0.46924695,0.25066376,-0.28194138,0.37071824,-0.40455288,-0.3384025,-0.18435183,0.9916574,-0.55022556,-0.96917355,-0.6420727,0.29267332,-0.55813634,-0.42773438,-0.92859316,0.68650454,-0.8564716,0.74096537,0.931585,0.4389493,0.07417336,0.17707461,0.15180333,0.85017014,0.8820544,0.05013096,0.0803357,-0.96079457,-0.94801146,0.097036585,-0.012125133,0.85937405,-0.890429,-0.79292274,-0.640002,-0.6422774,0.4063767,-0.6677113,-0.63481754,-0.77530944,0.5636687,0.06406766,-0.40721434,0.39950997,0.8008693,-0.5617419,-0.11085566,0.011430594,-0.23050898,-0.2462924,0.93462545,0.46304357,-0.7204365,0.8257198,-0.114954166,0.25376785,0.27478468,-0.2135676,-0.95333374,-0.5932271,-0.34534994,0.08176906,-0.3148481,-0.07010316,0.053124644,-0.83760995,0.012775665,0.9679198,-0.12877691,-0.8578858,-0.088142425,0.7351865,0.39200363,-0.44071978,0.27821034,0.08983637,0.69562286,0.39713427,0.15571027,0.8254776,0.0454627,-0.29523876,-0.50602293,0.0877709,0.4085535,0.8904112,-0.5463752,-0.021171838,-0.9294076,-0.45268413],[0.0152337365,0.16437797,-0.17941734,-0.53385675,-0.43221566,-0.44511724,-0.5408575,0.9604255,-0.13708411,-0.10923142,-0.8214146,0.47938347,0.74948895,-0.8553946,-0.316995,0.48760796,0.37941864,-0.3136169,0.8582639,0.74332863,0.06235025,0.44916636,0.30845806,-0.6628428,0.91233164,0.2758599,0.28172806,0.4330002,-0.7976899,0.8333049,-0.41404986,0.27660453,0.84879345,0.33072665,0.47988898,-0.0848321,0.9143758,0.5917968,-0.2119985,-0.07855575,0.8569844,-0.44188598,0.54181975,-0.30222252,-0.09034948,-0.14038627,-0.32770395,0.8820478,-0.77951473,0.0066886498,-0.7117488,-0.887848,0.5332323,0.065454215,0.51648664,1.0073205,-0.0029112278,-0.07711778,0.24501275,0.31703782,0.5420358,0.18530157,0.43760195,-0.8757617,-0.8336725,0.6898864,-0.12382655,0.25484106,-0.77617973,0.645867,0.2843154,0.6739076,-0.72273546,-0.0320362,0.44919613,0.09547754,0.0763395,0.23147744,-0.66497755,0.3748808,0.69715595,0.037322655,-0.875623,0.083134994,-0.03783424,-0.21841356,0.53073514,-0.6952064,0.7628955,0.69572425,0.36630228,-0.14049691,-0.19432645,-0.4843413,-0.4334886,0.67081434,0.5190701],[-0.72776705,-0.094183326,-0.53780097,0.4490148,-0.20819527,0.9444338,-0.5814781,0.5133963,-0.07044157,0.3422959,-0.3874301,0.63193333,0.41259667,0.22222018,0.062738314,0.72878736,-0.8902798,0.8654446,-0.29370135,0.15298823,0.7067613,-0.58728623,0.3571551,0.54639083,0.510858,-0.18866576,0.84680843,-0.005487086,0.67366165,0.7188755,-0.74706924,0.5388356,0.01259809,0.45765057,0.107786655,0.52392256,0.0509171,0.7582342,-0.40585923,-0.20815745,0.9851843,0.84163314,-0.50206035,0.90061975,0.467669,0.63385177,0.82991314,-0.80307084,0.7447634,-0.42088956,0.5787675,-0.33345687,0.3306165,-0.62081164,0.34703216,0.26580942,-0.13093609,0.021200106,-0.38969603,-0.12491513,0.88468236,0.26097813,-0.26379958,0.74181443,-0.65822035,-0.21406762,-0.03282168,-0.83407605,0.64380425,-0.74291825,-0.61287785,-0.35753465,0.5035777,-0.19779496,0.67132956,0.53173065,-0.3096263,-0.40963393,0.9578919,-0.8795229,-0.41624779,0.6387789,-0.7824204,-0.9672906,0.5683419,-0.22436398,-0.6142853,-0.65611327,-0.99535173,0.5853106,0.98740584,-0.41919804,0.53771424,-0.542571,0.36940044,-0.5838001,-0.2781823],[0.98251235,-0.070920035,0.18631339,0.47778913,0.076613225,0.41889367,0.43798533,-0.8111779,0.7718923,0.5190204,0.78956056,0.61802727,0.171615,-0.45048535,-0.91910267,0.026990391,0.44813433,-0.6258165,0.013133473,-0.31425124,-0.29776162,-0.098356925,-0.8530511,-0.41327283,-0.019898992,0.8261914,0.011161308,0.41169882,-0.6121364,0.43476543,-0.58779496,0.49677217,0.44555977,0.46755835,-0.67605776,0.4165897,-0.44932494,0.18868375,-0.16404909,-0.43137795,-0.3304749,-0.270641,-0.57797796,0.5181961,0.06951724,-0.4538243,0.6111197,-0.25274506,-0.818211,-0.45244023,0.94152236,-0.5944522,-0.25206262,0.2595606,-0.04298266,0.33469477,0.5608042,-0.5451095,0.8980694,-0.37789196,-0.9658272,0.5676334,-0.47327513,0.94302946,-0.97757995,0.5319786,-0.05626759,-0.7037552,0.3407892,-0.65179574,0.40127462,-0.48775005,0.7518494,1.0037862,-0.59579355,-0.7900169,0.6843751,0.16026485,-0.4038193,-0.4040774,0.8137993,0.7091778,0.59301066,0.67698914,-0.029487725,-0.5928165,-0.29898363,0.06678762,0.27759317,0.8823151,0.97482586,-0.44106114,0.307133,-0.3133331,0.12685232,0.74098206,-0.42817152],[-0.67322445,0.23139495,-0.21073702,0.11518738,0.37048274,-0.7073281,-0.13618542,-0.7995602,0.6109729,-0.44865263,-0.0869853,0.2084741,0.5648644,0.111020215,-0.52988297,0.57297826,-0.31865644,-0.38142875,-0.39024535,0.735471,0.79291326,0.11655597,0.8347438,0.88385224,-0.17813878,0.076201074,0.47467336,0.9019205,-0.28423744,0.5506438,0.39095727,-0.68761337,0.4416978,0.58046067,0.6180637,-0.44085962,-0.038286455,0.25375918,0.16417988,0.8678695,-0.2418469,0.109649464,-0.47312388,0.6802813,-0.3713366,-0.78208035,0.34281915,0.6867106,0.7594255,0.043056294,0.5567959,0.28615683,0.5814304,0.47190803,-0.5059447,0.71257514,0.40262336,0.81332296,0.4814477,-0.91331995,-0.39398864,-0.9880371,0.009788702,0.534132,-0.015234915,-0.54393417,-0.5148715,-0.10862857,0.8639368,-0.045809925,-0.087139085,0.36504057,0.7387214,-0.65020895,-0.5181877,-0.26457897,-0.3168462,0.90119696,-0.11267468,0.7326214,-0.965603,0.066806525,-0.72596276,-0.558358,0.738927,-0.04498654,-0.39607307,-0.33438614,0.70800424,-0.27117544,-0.42067084,-0.6033579,0.054650534,-0.19439064,-0.8896261,0.26026016,-0.9014918],[-0.6646112,-0.7189598,-0.34954783,-0.72916144,-0.5010007,-0.67705303,0.3959301,0.94014275,0.7106127,0.43216458,-0.7057239,-0.67787516,-0.7019669,-0.42063668,0.8330908,-0.6341542,-0.8411633,0.5358241,0.4776862,0.5558893,0.77334017,-0.4330811,-0.511542,0.8473306,-0.8215375,0.5386767,0.21554773,0.52741534,0.5712843,-0.47295377,-0.52877396,0.16353257,-0.92924,0.020064108,-0.8953899,-0.93298274,0.192764,-0.047252614,0.2216416,0.028861722,-0.589237,0.53649837,0.94826555,0.121571355,0.61571866,-0.9143122,0.20013818,-0.8551992,-0.29698187,-0.8659255,0.96138114,-0.015230852,0.8228396,-0.9815941,-0.66950595,-0.6641815,0.5421709,0.36539844,-0.84068877,0.012097315,-0.20464042,-0.30308574,0.07933321,0.072931,-0.78480995,0.12696485,-0.5381952,-0.3808293,0.60292757,-0.93140316,0.24724594,0.9308258,-0.092630304,0.3527536,-0.16361633,0.17476374,-0.44910935,0.802856,-0.389753,0.885695,0.90229297,-0.02554053,0.3506578,0.57808495,-0.19020423,0.086681135,0.17841733,-0.017537009,0.33975542,0.5847453,0.17656614,0.95202506,-0.09605668,0.97400844,0.815387,-0.9570103,-0.87109774],[0.6257642,-0.6732792,0.118870445,0.8464033,0.9218133,-0.8931348,-0.26040834,0.0060820905,-0.6883032,-0.48400727,0.4735008,-0.23949377,-0.48685777,0.58008724,0.51715237,-0.83581287,0.45861018,-0.83269876,-0.9310419,0.2898646,0.17932919,0.02324968,0.78504014,-0.6206475,-0.9091371,0.15609862,-0.5443585,0.021258479,-0.5120674,0.019000776,-0.75871694,-0.87090623,0.58949286,0.07224846,-0.5499214,0.574519,0.52589875,0.76846087,-1.0031044,-0.16058837,0.4892142,-0.14599347,0.12635861,0.2384224,-0.2151202,-0.6410917,0.17930724,0.07802428,-0.7072711,0.53816456,0.09313799,-0.34610575,0.538205,-0.09527931,-0.6227323,0.7286604,0.07796071,-0.7943603,0.5695528,0.5427731,-0.26147932,0.33556998,-0.0020226922,-0.20344369,-0.26960292,-0.12995002,-0.8157637,-0.2191047,0.13436651,0.8067901,-0.30681878,-0.5966793,0.6308408,0.98084724,0.8518565,0.2766816,-0.11313024,-0.66263276,-0.5653254,-0.8726243,-0.7180009,0.95873106,0.84443384,0.9227052,0.9905528,0.513507,0.11869634,0.25910503,-0.44257474,-0.49564034,0.5718841,-0.49977973,0.19803858,-0.13803086,0.04188919,0.07998594,0.7715925],[0.5984974,0.1721869,-0.48633692,0.37572724,-0.07267735,-0.8536939,0.7140658,0.45626035,0.70187795,0.86001116,0.06083272,-0.0532202,0.13783756,-0.26427934,-0.5575897,-0.9881197,0.92213094,0.9033304,0.388234,-0.6620182,-0.1841164,0.14150055,-0.29163158,0.5800309,0.88524586,-0.33699244,-0.49594566,1.0107207,0.272511,0.03728976,0.01984885,-0.23509067,-0.6923954,0.021073274,-0.35346094,0.2386728,-0.8430162,0.35856557,0.85295403,0.20885712,-0.3032215,0.26273748,-0.4516558,0.10667148,-0.39728233,0.57329684,0.95653516,0.19192235,0.08375875,0.20149711,-0.5465266,0.40097538,0.9492522,0.22919205,0.47739547,0.90775144,0.83515644,0.388276,0.1374799,0.37790725,0.96434695,-0.9922721,-0.97234327,-0.46725127,-0.6790775,-0.1662011,0.9603676,0.5826938,-0.43686312,-0.980202,0.7419721,-0.22882062,-0.7749413,-0.8530465,0.9359316,0.33525696,-0.65984535,-0.06089892,0.7996753,0.1362982,-0.45117176,-0.7696911,0.42213586,-0.667853,-0.59942997,0.6631507,-0.64714706,0.64320153,0.4004359,-0.66064966,-0.095109805,0.04714785,0.9727535,0.4312202,0.5709071,0.42111412,-0.03223853],[0.8676682,-0.19023621,-0.058833074,-0.68021214,0.34392035,-0.26334232,0.25953776,0.2544393,0.4695226,-0.15152138,0.13888125,-0.6003433,-0.7717435,-0.3716464,-0.33780095,-0.46561995,-0.3729901,-0.870588,0.64071906,-0.1577451,-0.5097693,-0.024598267,0.34624493,0.4228731,0.89727306,-0.03704165,0.52679086,-0.036545925,0.46904427,-0.5086601,0.73856825,0.5416787,-0.29188243,0.79981685,0.96794516,0.8981686,0.6800775,0.29450995,-0.60647804,0.35180137,0.6508601,-0.62563807,0.13302466,-0.88117874,0.6523194,-0.33038947,-0.8992972,-0.44763288,-0.09583473,-0.50836724,0.78151864,0.9186766,-0.104368754,0.3667984,0.5286706,0.67469454,0.61946553,-0.49263462,-0.7951505,-0.85899085,0.65596366,-0.08565038,0.46355894,-0.95043564,-0.03899356,0.5185126,-0.58234066,0.6898835,-0.3958057,-0.465135,0.57837206,-0.5341361,-0.6983055,0.6984173,0.14051785,0.2104867,0.05335063,0.000600032,-0.19216406,-0.38857493,-0.832887,-0.1650869,-0.056033116,0.02527959,-0.15408549,-0.6496856,-0.83882886,0.050784655,0.30943245,0.3831983,0.12781306,-0.6692522,-0.78176457,0.14489435,0.3916716,-0.96890414,0.9299588],[0.2096932,-0.9850001,0.87399185,-0.080432855,-0.5424568,-0.8029674,0.38686302,-0.93840116,0.5785194,0.71339905,-0.41857535,-0.7854087,-0.457597,0.5301703,-0.110499054,-0.7738192,-0.53389025,0.08106986,-0.51749545,0.5100798,-0.7600188,-0.20578344,-0.06916261,0.42212826,0.3867964,-0.627278,0.81842357,-0.7304878,0.09171282,0.6487074,0.2770407,-0.98190767,0.22351022,-0.08600992,-0.05169268,0.9911772,-0.13735625,-0.04732633,-0.08065765,0.035871238,-0.23819546,-0.17546873,0.019039875,0.8795053,0.40415242,-0.9839952,-0.08966169,-0.2354932,-0.535848,-0.7708238,-0.7566178,0.43956226,-0.0022133933,-0.6629687,-0.24932936,0.29918587,0.4147797,0.18980289,0.44229597,-0.39217213,0.8740377,0.9247613,-0.6303874,-0.6094324,0.43454883,0.6857656,0.6689743,0.7611727,-0.967664,0.03495488,0.79016805,-0.15058374,0.6694419,-0.36744884,0.6642393,0.24013892,-0.065102115,0.8274993,-0.91381794,0.014304569,-0.55543506,0.8318778,-0.8591062,-0.3413128,-0.29244083,-0.23195432,-0.8676496,-0.5431954,-0.63099444,-0.58937925,-0.45332658,-0.09365198,0.73712605,0.20778632,0.8547846,-0.5833805,-0.12517928],[0.3751879,0.0019032347,-0.47999108,-0.07730688,0.7375282,-0.5633703,0.6800216,-0.09418941,0.055190727,-0.8966157,-0.24864592,0.72974765,-0.7006782,-0.90701056,0.74956745,0.29074457,-0.8957254,0.19498901,-0.1642589,-0.5691496,0.43076286,0.39493144,0.45012942,0.40961853,-0.9147101,-0.9494887,0.031467114,-0.2894777,0.31204432,-0.08924498,-0.48740545,-0.961841,-0.4185558,0.28136832,0.3614755,-0.6653264,-0.79724836,-0.7166957,-0.9421391,-0.66124636,-0.855927,-0.3242327,-0.34046558,-0.02774173,0.5826738,0.35039267,-0.12934415,0.51736546,0.8267876,-0.72784096,-0.21905805,0.7465256,-0.7174337,-0.9636169,-0.904616,0.33273238,-0.58086824,0.5061991,0.44916955,0.46490973,-0.3682542,0.568263,-0.14910404,0.37230134,0.16286658,-0.85931367,0.20859751,0.44528195,0.18884271,0.8018512,-0.17820305,-0.3048718,0.5386368,-0.485342,0.028648412,0.608189,0.7203287,0.60472846,0.54996765,-0.65702516,0.5956714,0.23499595,-0.99423385,-0.3846338,-0.5416936,-0.182458,0.34988368,-0.35315555,0.4720547,0.51578534,0.0078644985,-0.4342058,0.24053754,-0.85608226,0.108187534,-0.46614274,0.5884511],[0.4935704,0.7508593,-0.34346318,-0.6867209,0.47239998,-0.2637027,0.49661243,-0.15399921,0.46286675,0.83723307,-0.299775,0.15869637,0.18648638,-0.1628221,0.86003685,-0.65031177,0.64886254,0.4749517,0.0044682096,0.3672762,-0.98538655,0.5363835,-0.1913536,0.035122354,-0.6001463,0.9078297,-0.123825416,-0.8654032,0.42900506,0.7239994,0.7215465,-0.7831615,-0.16570301,0.8392298,0.32613117,-0.024701303,-0.7370438,0.7263654,-0.44414783,0.9674339,-0.89113593,0.59604645,-0.80889046,0.97809696,0.23430535,0.24702463,0.42165768,-0.31508532,0.7660512,-0.44025773,0.87878525,-0.34274432,-0.5835517,-0.21340612,0.858068,-0.15792781,-0.27230504,-0.82042134,0.7938649,-0.9244516,0.46787167,-0.38658345,-0.23531888,0.92651606,0.9523649,0.09766603,-0.73577595,0.087402396,0.3592156,-0.60894233,-0.25475678,-0.58579504,0.59020555,0.101793975,0.10273876,0.58774096,0.7453452,-0.8755455,0.67031807,0.38943687,-0.8772137,0.58547926,0.2016305,0.59930444,0.78773165,0.59326273,0.3805183,-0.9738303,0.94179416,0.9208271,0.1277455,-0.5961531,0.61302954,0.26960322,0.8206594,-0.14648592,0.11103395],[-0.06467061,-0.17263234,0.27916673,-0.25639102,0.896454,-0.5608653,0.4869024,-0.49265793,0.9416995,0.36469996,-0.054864597,0.35072026,-0.067107126,0.06879951,-0.96134526,-0.9287641,-0.069966875,0.8096114,0.30336538,0.22993205,-0.17666544,0.7198506,0.90986204,0.51627797,-0.82873017,-0.6444471,-0.56897366,-0.46123108,-0.8462931,0.7238898,0.6948164,-0.24526018,0.47212166,-0.098537974,-0.7267012,-0.29513115,0.0073601115,0.42297667,-0.65634596,-0.6255063,0.35829616,-0.14409496,0.20727494,0.7133054,0.30650333,-0.1916273,0.3327267,0.32500494,0.7112829,0.7829179,0.013114859,0.008079793,0.6740425,0.48857257,-0.67984056,-0.034177896,-0.9673705,-0.6533774,-0.45244288,0.66727614,-0.4372418,0.1273925,-0.62823856,-0.9409734,-0.5004266,-0.49940044,-0.64820987,-0.32997447,-0.96197873,-0.91417295,0.6565765,-0.42954448,-0.657389,-0.9081525,0.7893155,0.8525924,0.14167881,1.0060793,-0.62975305,0.45827866,-0.99267596,-0.8476997,-0.16003653,-0.29267743,-0.26512533,0.740068,0.070878774,0.50497,0.17300253,-0.4627071,0.0026004908,-0.54408985,-0.53492564,-0.8654222,-0.7212662,-0.6243895,0.9835999],[0.15811093,0.0020132996,-0.064002745,-0.3580848,0.6937155,-0.62385744,-0.8708317,0.74217236,0.8514868,0.2871411,-0.77082306,0.612421,0.1953152,-0.6923721,-0.121755324,-0.2841452,0.45924836,-0.0001086306,0.08764467,0.23733261,-0.94523764,0.58633167,0.2823943,-0.27053002,-0.29623973,-0.9496182,-0.81401515,0.033292584,0.62661356,0.18920688,0.9728726,-0.99579734,-0.9272773,-0.49609742,-0.10794888,-0.34802872,-0.45281515,-0.52092713,-0.6822019,-0.34628198,0.16722849,-0.033554785,-0.4146549,-0.58148265,-0.63636327,-0.100274965,0.18717998,-0.9318774,-0.38927323,-0.59450126,0.14933422,-0.36886495,-0.20277704,-0.97340477,0.015002471,-0.011797409,0.7543368,0.66252047,-0.5480248,0.02481296,-1.0048124,-0.43413967,0.29334676,-0.37318173,-0.9736161,0.31781745,0.3694496,0.80923444,0.44480234,0.1744398,0.6410849,0.80276245,0.46489236,-0.008700347,-0.62127805,-0.6787933,-0.37914234,0.50417596,0.7464967,0.63435835,0.4494545,-0.50914603,-0.40058035,0.22581655,0.07109013,0.41416165,-0.6737527,0.012617272,-0.47917944,-0.5613294,0.8095785,-0.82789,-0.5932496,0.664119,-0.13984804,-0.017491337,0.3763513],[0.76128495,0.70741993,0.17128263,0.12865089,-0.5631307,-0.26944733,0.69845045,0.5436286,-0.7836586,-0.66267943,-0.32843137,-0.3529669,-0.05716189,-0.5868855,-0.34837922,0.92271733,-0.37085223,-0.41173148,0.17298035,0.02132427,0.573612,-0.2817114,0.5974006,-0.04885546,0.10293141,-0.014094136,-0.9058458,0.67833704,0.4909452,-0.09199297,-0.96591693,-0.82510436,-0.46765652,-0.23730807,-0.29975873,0.5557962,0.27272505,0.058767736,0.44037887,0.6601431,0.085107565,-0.16268715,-0.51300013,0.7555785,-0.88867265,0.88722265,0.030472316,-0.82630646,-0.6589095,0.6687284,0.18104595,-0.42065576,-0.36055878,-0.113924235,0.81475914,0.84580296,0.7494684,-0.28087872,0.74306434,-0.39311934,-0.64275753,-0.5308745,0.5530904,0.44384128,0.72073644,0.37456307,0.16457675,-0.8325932,0.1851737,-0.003507673,0.489396,-0.66750014,-0.68448204,-0.2150882,0.5668194,0.6332059,0.66344184,-0.94662344,0.36324227,-0.7291087,0.5753445,-0.9430397,-1.0076301,0.5674183,0.062082365,0.5727683,-0.82907814,0.8327844,-0.2722811,-0.29527915,0.68914384,-0.8960068,0.47868896,0.07239126,0.70885587,-0.24650894,-0.6569529],[-0.54824126,-0.1355876,0.78369176,-1.006207,-0.09249738,-0.5904442,-0.20962176,-0.17550087,-0.44007686,0.10973403,0.097492516,-0.19061103,-0.3687188,-0.47867057,0.64653957,0.8810628,0.48869628,-0.37521407,-0.040642805,0.080203064,-0.6667948,-0.011838695,0.45997152,-0.7629562,0.0010595034,0.87003523,0.8840746,0.59883446,0.41141766,-0.40291274,0.24084724,-0.07586074,-0.3810328,0.79045254,-0.72161204,0.10039688,-0.6932485,0.43048874,0.78764486,0.55314535,0.5051504,0.46341336,0.560488,0.69776595,-0.7027629,-0.9972818,-0.6064997,-0.87102187,0.1902851,1.0140164,0.8143169,0.03701325,0.44477051,-0.5615079,-0.036443725,0.33674482,0.6018211,0.81527215,0.47425705,0.36011186,-0.09470429,-0.53941464,0.4821247,-0.322552,-0.8459759,-0.469894,0.9585337,-0.68938434,0.21719787,-0.007435361,-0.93148935,-0.015682401,-0.4561993,0.6983241,0.47718364,0.011153966,-0.18760745,0.9878651,-0.6202285,-0.38310906,-0.016697362,-0.20133628,-0.71179605,0.18285096,0.044192094,0.49777934,-0.92521924,-0.3082701,0.65771264,0.4668282,-0.93531096,0.7799762,-0.8922448,-0.101998344,0.622721,0.42392492,0.024337117],[-0.24651729,0.24790578,-0.48865393,-0.105181046,0.85044605,0.7649022,-0.7772773,0.49004322,-0.8240973,0.37736732,-0.97105664,0.34368587,-0.2675858,0.06228858,-0.7296368,-0.986377,0.37310025,-0.80659145,-0.1262094,-0.070567966,0.43121386,0.18713515,-0.69747055,-0.0123594785,0.83495665,0.7700456,-0.49542868,-0.32788956,0.83980113,-0.022746224,-0.61078805,-0.13896272,-0.91986996,-0.31622466,0.2383696,-0.15906484,0.29121223,0.47856048,-0.42883378,-0.951822,0.43655398,0.10123532,-0.9867152,-0.8349785,-0.8165452,0.45895833,1.0020645,0.26114318,0.749803,-0.27990004,0.6283164,0.7717212,0.11667163,-0.39285678,0.987797,-0.6760796,0.9044759,0.8342328,0.22540097,0.98988223,-0.94542265,0.75008875,0.16092035,-0.6030551,-0.56737894,-0.46645764,0.81052446,0.8063632,0.20035139,0.59535336,0.7303154,0.43343425,0.38614488,-0.55265915,-0.073567726,-0.28419918,-0.40651408,-0.52536327,0.6264416,0.77823764,0.14853661,0.34538922,0.13257717,0.7663089,-0.78572315,0.33217287,-0.2833508,0.104273334,0.58401793,0.8648994,-0.93366057,0.20575301,-0.6194801,-0.80696154,-0.51454425,0.34776375,-0.55508554],[-0.5125161,0.49468297,0.8036191,-0.18114462,-0.5543005,0.25234258,0.9925599,0.93602234,0.9989152,0.52286357,0.7959779,0.21670598,0.66093844,-0.8286331,0.7579706,0.19017334,0.7722431,-0.35269287,-0.60585946,-0.43527213,-0.9313754,-0.71893954,-0.74966353,-0.69143844,0.24130057,-0.283885,-0.16437124,-0.16145451,0.855092,-0.20630637,0.9485504,0.6031255,-0.8882678,0.30575556,0.5992424,0.1344212,0.13410883,0.31388652,-0.29377943,0.87135035,-0.3631914,-0.3291281,0.99203515,-0.54397285,0.19260453,0.96393186,-0.65682447,0.44813773,0.8772464,-0.8875029,-0.3968522,-0.71741414,0.1567768,-0.25516737,0.95021576,-0.004076311,-0.70621705,-0.062378634,0.15525085,0.24603178,-0.86624855,0.60939586,0.7907025,0.13128068,-0.7830647,-0.2940833,-0.33616424,0.13442229,-0.8604777,0.28932682,-0.9764535,-0.52994734,-0.8963415,-0.25888407,0.09705095,0.46702537,-0.6147143,-0.50646234,0.84319484,0.5281378,-0.5584118,0.2213182,0.40609792,0.96882915,0.1215586,-0.8116294,-0.32203028,-0.58771014,0.16813105,-0.930004,0.99361753,