{"layer_count":3,"input_len":192,"hidden_len":384,"output_len":3,"x":[[1.0,0.8627451,0.92941177,0.9254902,0.90588236,0.96862745,0.9647059,0.8666667,0.9254902,0.91764706,0.7137255,0.7647059,0.78039217,0.9098039,0.9764706,0.9764706,0.9372549,1.0,1.0,0.9098039,1.0,1.0,0.89411765,0.99607843,0.99607843,0.52156866,0.54901963,0.41960785,0.44313726,0.45490196,0.47058824,0.4,0.39607844,0.42745098,0.34901962,0.33333334,0.39607844,0.5882353,0.61960787,0.6666667,0.89411765,0.91764706,0.92156863,0.92156863,0.9764706,0.972549,0.92156863,0.99607843,0.99607843,0.57254905,0.6,0.3647059,0.47843137,0.4392157,0.39215687,0.3647059,0.3254902,0.34117648,0.42352942,0.37254903,0.40392157,0.47058824,0.40784314,0.41960785,0.5411765,0.52156866,0.5568628,0.90588236,0.9098039,0.90588236,0.9647059,1.0,1.0,0.3254902,0.25490198,0.21568628,0.35686275,0.25882354,0.2509804,0.47058824,0.38039216,0.34509805,0.47058824,0.40784314,0.3764706,0.4627451,0.39215687,0.4,0.5764706,0.5411765,0.56078434,0.88235295,0.8901961,0.8862745,0.95686275,0.96862745,0.95686275,0.27058825,0.22745098,0.24313726,0.3764706,0.34901962,0.3882353,0.2901961,0.24313726,0.2901961,0.34901962,0.28235295,0.29411766,0.42745098,0.34117648,0.30980393,0.41568628,0.33333334,0.3372549,0.47058824,0.40784314,0.41568628,0.80784315,0.7921569,0.7607843,0.5058824,0.4509804,0.3764706,0.47843137,0.4627451,0.44705883,0.36862746,0.3529412,0.35686275,0.32156864,0.29803923,0.30588236,0.5058824,0.4509804,0.3647059,0.4392157,0.38039216,0.36078432,0.47843137,0.4745098,0.5058824,0.6862745,0.7372549,0.78431374,0.2784314,0.1764706,0.16862746,0.4509804,0.34901962,0.2784314,0.47058824,0.39215687,0.3137255,0.3372549,0.27058825,0.22352941,0.3254902,0.23529412,0.23137255,0.45490196,0.3647059,0.3529412,0.49803922,0.45490196,0.4,0.5529412,0.5411765,0.5019608,0.20392157,0.14901961,0.12941177,0.24705882,0.16862746,0.16078432,0.20392157,0.15294118,0.17254902,0.21960784,0.14509805,0.15294118,0.3137255,0.22745098,0.21568628,0.3137255,0.23137255,0.27450982,0.31764707,0.21960784,0.23137255,0.5058824,0.48235294,0.36078432],[1.0,0.999862,0.9249868,0.99998856,0.9999974,-0.9999891,-0.9608633,0.9999334,0.9999998,1.0,-0.99019796,-0.9960493,-0.46639636,0.99990094,0.9988973,-0.061823674,0.93153226,0.8284749,0.8914222,-0.65386117,-0.9895302,-0.41925737,0.9999817,-0.99834347,0.999999,0.99999875,0.8359746,0.37703276,-0.5355445,-0.99817204,0.9997261,0.9777709,-0.7596498,0.999952,-0.44578615,-0.99849105,0.999094,-0.9999659,0.9999997,0.9947675,0.99061024,-0.99457335,-0.5585655,-1.0,0.9994253,-0.9999972,-0.63677675,-0.99859405,-0.35054645,-0.9479372,0.98423356,-0.19600242,0.999996,0.93120486,-0.99941957,-0.99999994,0.9999431,-0.99970055,-0.99999887,0.9858346,0.9998835,-0.6827401,-0.9733783,0.86137414,0.9845305,-0.9999376,0.5565933,-0.91859293,0.9996079,0.99983877,-0.6799693,0.99301374,0.99998504,-0.99994147,-0.926792,-0.9812708,-0.6115347,0.8260402,-0.9993041,-0.99999976,-0.97168905,0.8898406,-0.99572194,0.85869974,0.999765,0.95796466,0.99989575,0.99999994,0.9974452,0.8680181,-0.7573929,-0.9951213,-0.99998033,-0.9998743,-0.9999968,-0.9996862,0.9999839,-0.99999994,0.9958505,0.99998254,-0.99999964,1.0,-0.9932267,-0.99582505,0.9945658,0.95137286,-0.99949604,-0.9999931,-0.99975216,-0.16315761,0.99996746,-0.99999946,0.9940068,0.85874665,0.47600597,0.9999999,-0.99665886,-0.9767572,-1.0,0.9997454,-0.9995268,-0.8926496,-0.9618062,1.0,-0.9987424,-0.9999984,-0.9620194,0.99970484,-0.98957896,1.0,0.8345236,-0.580998,-0.9999177,-0.99999994,0.9999997,-0.9977429,-0.99986106,0.9999997,0.31991643,-0.9999993,-0.9999997,-0.9830927,0.99952877,-0.431283,0.9998148,0.66805744,-1.0,0.9996668,0.98869896,-0.99816763,-0.9999999,-0.99478465,1.0,-0.99615955,-0.56649345,1.0,-0.032602493,0.9941334,-0.9999998,0.753295,0.9992608,-0.7959993,-0.99973166,0.99992645,0.9997896,-0.7364233,0.5609629,-0.9952885,-0.99999934,-0.99994427,0.9372959,-0.99999994,-0.9998756,-0.21582471,-0.64222234,0.9992738,0.086571075,0.99887294,-0.9998719,-0.99942845,-0.999997,0.9902162,-0.9984698,-0.9292119,1.0,-0.99678385,0.4808347,-0.7469604,0.9999999,0.9999922,-0.98690593,0.99996775,-1.0,0.9491958,-0.99996173,-0.999541,0.9425929,-0.999965,-0.8186691,0.9671434,0.9999722,-0.99883103,1.0,-0.9978711,0.99999595,0.9992218,-0.7553474,-0.9999519,0.95324177,-0.54860824,0.9999747,-0.99966866,0.99973756,-0.99871504,-0.9978934,0.99998003,-0.6659083,0.98788184,0.98227334,0.9973066,-0.99993813,-0.9634305,-0.9999914,0.999919,-0.99984497,-0.9014108,-0.9963595,-0.9995124,0.9985933,0.8803172,-0.99595237,-0.99892575,-0.98569137,0.90556777,-0.9305391,-0.99999887,0.9992679,0.29046637,0.9945666,-0.9970023,1.0,0.99999994,-0.9999096,0.99999994,0.99992514,-0.9917839,0.9985069,-0.9999997,1.0,0.9513257,-0.9964832,0.38562536,0.99983907,-0.9999478,0.76716506,-0.99999434,-0.9999198,-0.9998585,0.9999898,-0.99962723,0.82976246,-0.99999857,-0.9992732,-0.99995506,-0.09266271,0.978287,-0.9916034,-0.9561721,0.9999963,0.13179813,-0.88320047,0.9999999,0.9997057,0.9952928,-0.99999565,0.9993637,-0.5164778,-0.9955707,-0.97971517,0.96992624,0.8260927,-0.9999987,-0.99971104,0.9989444,0.99789464,-0.9999984,-0.99999994,-1.0,-0.9923323,0.56612444,0.99776685,0.99872863,-0.99601614,0.8251898,-0.5240561,0.99999547,-0.32893172,-0.9966629,-0.6011661,-0.9999783,0.98208356,-0.9999999,0.9895408,-0.93116474,-0.9281847,-0.99650055,-0.99999976,0.99898785,-0.9543861,0.998291,-0.9953615,0.9712354,-1.0,1.0,0.99974996,-0.9999987,0.99581355,-1.0,1.0,-0.9640216,-0.9642696,0.9996967,0.99995506,0.9999995,0.993331,0.998342,-0.6061523,-0.82863057,-1.0,-0.9999999,-0.99939036,0.96017104,0.99996,0.993017,-0.9999995,-0.9999999,0.9999931,0.9999712,-0.9996615,0.9962961,-0.9354645,0.9544372,-0.998266,0.9999203,1.0,-0.25500068,-1.0,-0.9969444,0.50117534,0.9724374,-0.4547713,0.9999999,0.7254799,-0.9999998,0.9880843,-0.99989647,-0.29737455,0.9993338,-0.9964981,-0.47071302,-0.99999934,-0.998611,-0.99970746,-0.994593,-0.99992776,-0.9997028,-0.99999857,0.9926322,0.35177466,-0.9693663,-1.0,-0.36211425,-0.9999119,0.99352944,-0.99997586,-0.9999994,0.977231,-0.99868447,0.9999999,-0.6832868,0.99999905,1.0,-0.965063,-0.9999829,0.9954346],[1.0,0.99584913,-1.0,-0.99999785,0.9803417,-1.0,-1.0,1.0,-1.0,-0.9999965,-1.0,1.0,0.96784395,1.0,1.0,-1.0,0.99999887,-1.0,1.0,-0.9999989,-1.0,-0.9112953,0.99951416,-0.9998619,0.9309344,1.0,-1.0,-1.0,1.0,-1.0,-0.970394,1.0,1.0,0.99993086,1.0,-0.99999934,-0.9999686,0.66487956,-1.0,-1.0,-1.0,1.0,-0.9999973,1.0,-0.95238715,1.0,0.99343,-1.0,0.9999999,1.0,-1.0,1.0,1.0,-1.0,-0.8753947,-1.0,1.0,0.9999715,0.946878,-1.0,-0.7214553,-1.0,1.0,-1.0,-1.0,-1.0,-1.0,1.0,1.0,-1.0,-1.0,-1.0,-0.9999852,0.9999999,1.0,-0.5965008,1.0,-0.99997115,-0.9999926,1.0,-0.9846905,1.0,-1.0,-0.9999999,-0.9999998,0.9999997,-1.0,-1.0,0.9999995,0.99925774,-0.9999992,1.0,0.9999999,1.0,1.0,-0.9995775,-1.0,0.99930245,0.9984049,-0.99999994,-1.0,1.0,-0.9999995,1.0,1.0,-1.0,-1.0,0.9999753,-0.9996854,-1.0,1.0,1.0,-1.0,1.0,0.9994939,1.0,1.0,-1.0,-1.0,0.99999404,1.0,0.99999976,0.99999994,1.0,1.0,-1.0,1.0,1.0,1.0,-0.9241463,-0.759497,1.0,1.0,1.0,-0.99828756,1.0,-0.98516744,1.0,-1.0,0.99999905,0.99996203,-0.9999274,-0.950684,0.99971366,0.99999994,1.0,1.0,-1.0,0.99998134,0.51805806,-0.9999841,-0.6299875,-0.99981767,0.32259318,-1.0,0.99999344,-1.0,0.9999999,0.99999565,-1.0,-1.0,-1.0,0.9999863,-1.0,-0.9787478,1.0,1.0,0.99999994,-0.80208206,-0.9999969,1.0,-0.9476602,-0.9999897,-0.99999994,-1.0,1.0,-1.0,0.9997624,0.9999998,-0.9814302,-0.9949934,-0.4224795,0.9999997,-0.75388604,-0.9999021,1.0,-1.0,1.0,-0.9338581,-1.0,-1.0,-0.9962557,-0.99999994,1.0,1.0,1.0,1.0,-0.9998485,-0.99932915,1.0,-0.09261769,-1.0,-1.0,0.9443288,0.999919,0.9999986,0.9999999,-1.0,-0.68629855,1.0,-0.9996663,0.9999982,0.99998385,0.7654966,1.0,0.9999923,1.0,-1.0,1.0,-0.8773697,1.0,0.99537146,1.0,0.88633716,1.0,-0.9999955,0.99980044,-0.9986014,0.9999842,-0.9999898,-1.0,0.48078892,1.0,-1.0,-0.99999744,-1.0,-0.98343474,-0.99997044,0.99397177,1.0,0.9999464,-1.0,-0.99936044,-1.0,-0.99999994,0.28993854,-0.99982953,1.0,-1.0,-1.0,-1.0,1.0,0.75817746,1.0,-1.0,0.99999833,-1.0,1.0,0.98059547,0.9999176,-1.0,-0.9999856,-0.99999946,-0.99576664,0.93327695,-1.0,1.0,-0.99999934,-0.9934433,-0.9971113,-0.99952835,0.9997971,0.99999994,-1.0,1.0,0.9999932,0.9999414,-0.9999998,-0.99998724,1.0,-1.0,1.0,0.82826805,-0.99985886,0.9999872,0.99996495,-0.99999833,-1.0,-1.0,-0.953998,-0.37957668,1.0,-1.0,-1.0,1.0,-1.0,-1.0,1.0,-1.0,-1.0,0.99989605,1.0,0.9018246,0.9999673,1.0,0.9999998,1.0,-1.0,-0.99999994,0.9997902,1.0,-1.0,1.0,-0.6582572,1.0,0.9028276,1.0,1.0,1.0,1.0,1.0,0.999988,-0.9997253,1.0,0.99999994,0.99921197,-1.0,0.9999815,-0.98063457,-0.9999977,-1.0,0.99979055,-1.0,1.0,1.0,0.9999905,-1.0,1.0,0.99999994,1.0,1.0,-1.0,-1.0,1.0,-1.0,-1.0,-1.0,0.9999984,1.0,1.0,0.99973226,-0.9999512,0.99999857,-1.0,0.9999829,-0.99735135,1.0,-1.0,-0.99992114,-1.0,-1.0,1.0,-0.99623626,1.0,1.0,1.0,1.0,1.0,-0.8759009,0.99995756,1.0,-1.0,-0.58508104,1.0,1.0,-1.0,0.9159131,1.0,-1.0,-1.0,-1.0,1.0,0.99999905,1.0,-0.9999976]],"w":[[[0.12868142,-0.14574027,-0.0045018196,-0.8203728,-0.64751005,-0.17198586,0.8263469,0.36397552,0.33575344,-0.34527588,-0.33407998,-0.88341475,0.45973158,0.40916514,0.51050854,-0.06711459,-0.65739655,-0.60406613,0.28334975,0.80334425,0.29543853,-0.5180981,-0.20682168,-0.8734331,0.76782966,0.6930914,0.67090917,-0.21624112,0.36006308,-0.030854464,0.33711863,-0.10294771,0.79695964,-0.01615429,-0.36136174,-0.59229064,0.49717903,0.7058294,-0.9590709,-0.37366796,0.9911604,0.8029289,-0.28164768,0.9347341,0.1873641,0.97701454,0.036086798,0.5842552,-0.0678556,0.67605543,0.34310937,-0.0943923,-0.993541,0.9674237,-0.86040425,-0.86807775,-0.21934986,0.92096734,0.58490705,0.43378496,-0.71763253,0.5224972,0.6927414,0.572675,0.6546607,-0.3040285,-0.068017244,0.2691927,-0.40121365,0.5486927,-0.5818546,0.9022465,0.50375557,0.45911932,-0.9990554,0.34239674,0.5790806,0.40966105,0.5671067,0.95894504,0.5991807,-0.5005963,0.5151603,0.34939885,0.30002618,-0.015117645,-0.9436996,-0.395926,0.8953576,0.24040651,0.23088741,0.21781445,-0.27429485,0.17757964,-0.71532154,0.7728057,0.7453306,0.7895217,-0.6673722,0.43395615,-0.1423397,0.90828085,-0.2417829,0.21460533,-0.5681405,-0.025099277,-0.19843459,-0.5313947,-0.3854246,0.6746218,0.9725549,-0.779711,-0.081977606,0.34002233,-0.29444528,0.3018155,0.60358834,-0.56953907,-0.90497136,-0.99904966,0.93398213,-0.43328714,-0.50769186,-0.5669918,0.9666765,0.49776888,0.40227842,-0.51522803,-0.06478882,0.41894794,0.921,0.7063844,0.32383037,0.23889136,0.7529657,0.35694385,0.8584101,-0.20928502,0.4470682,-0.36136174,0.75303745,0.5527711,-0.56892586,-0.53692293,-0.49256587,-0.66664314,0.32136798,-0.29609442,-0.971164,-0.9675784,0.38781762,-0.15054893,-0.7706671,-0.56002593,-0.3437755,-0.6884618,0.76273775,0.15362787,0.07333803,0.20240378,-0.79775405,-0.2529986,-0.99941444,-0.2518034,0.8937118,0.89583206,0.37181544,0.36642504,-0.13688827,-0.56918645,0.9750619,0.012164116,-0.8616111,-0.18307853,-0.656019,0.94454265,-0.442734,-0.057661295,-0.8835201,0.2760949,-0.45021892,0.6990645,-0.4539523,0.33044863,-0.6034467,0.5826123,-0.93493915,-0.3390689,-0.6629846,0.7316997,-0.49658203,0.74254584,-0.0031113625],[0.1244563,0.85022223,-0.74455917,0.6946066,-0.27684486,-0.6162659,-0.1133288,0.30743253,0.1837671,-0.33515304,-0.816291,0.45666328,-0.5218471,0.9134303,-0.56576955,0.31357628,0.5007511,-0.3457694,0.4418637,-0.02857546,0.14648509,-0.93628794,0.12833741,0.41923645,-0.5779982,-0.19030999,0.55052173,-0.2654668,-0.7467656,0.686663,0.7271175,0.037153356,-0.6580349,-0.68477523,-0.95069975,-0.52870256,-0.01973472,-0.106953725,0.6546999,0.3819543,-0.38721496,-0.5818959,0.89535415,-0.29221514,-0.58981496,0.56954926,0.36453128,0.7071307,-0.896563,-0.4740689,0.5614822,0.73434,0.51440966,-0.09660495,-0.19816585,-0.3185023,0.39639255,-0.43736282,-0.27152866,-0.08265943,0.40036222,0.019104788,0.5112704,1.0048727,0.665062,0.5026014,-0.95436,0.37894592,0.58203745,-0.55750513,-0.957606,-0.045945108,-0.20885584,-0.0091323955,-0.9007327,-0.39754027,0.42743483,0.005494828,0.88199127,0.42548627,-0.46440917,-0.9117775,0.048248246,-0.4758099,-0.4418787,0.544584,0.101372056,-0.27679756,0.57406473,-0.38299373,0.55262995,0.490949,0.15759897,-0.7422476,0.8148014,0.1655395,-0.30800802,0.96412396,-0.19374353,-0.23363326,0.42595664,-0.92011374,-0.7097386,0.68385214,0.24469158,0.24543744,-0.1936164,-0.59358716,0.36048284,0.47908226,0.19378401,0.48843637,0.599984,0.17888512,0.7031708,0.22038746,0.22378984,0.3772126,-0.06578962,-0.7381739,0.7350618,0.22408718,0.10961203,0.09851635,-0.24066374,-0.66783035,0.7723796,-0.5128431,0.5505188,0.65532136,-0.5126852,0.09189705,0.31759572,0.60220426,-0.22463286,0.9669697,-0.3695385,0.8736805,0.7015094,0.71971184,0.6134961,0.004805831,0.053172622,0.77838933,-0.42675307,0.8223762,0.328724,0.7597115,-0.67178017,-0.5322015,-0.6697466,0.478516,0.72834444,0.98515415,0.9010933,0.20319885,0.43241414,0.5083307,-0.8715277,0.45665634,0.40277877,-0.8692807,-0.63900715,0.111291304,0.55836135,-0.2538912,0.53501546,-0.56686497,0.4657894,0.8981505,0.013632258,0.48194113,-0.005548579,-0.6601546,0.079544105,-0.35059315,-0.71779037,-0.56845325,-0.17505027,0.1369603,-0.976195,0.4294578,0.4160324,-0.47314686,-0.6519482,0.92609626,-0.2762615,0.19626309,-0.2184481,-0.29345745,0.83961934,0.13087527,-0.51949155],[0.61655116,0.22882652,0.67493355,0.7241134,0.91244406,-0.7147333,0.47908467,0.62625605,-0.94318277,0.29779565,-0.43290305,-0.21227157,-0.5546245,0.8256871,-0.75726056,0.09146556,-0.9424172,-0.6270676,0.9249755,-0.32260844,0.03405015,-0.09693015,0.6481338,0.45944723,-0.28983316,-0.34449005,-0.61668265,-0.421119,0.18419085,0.83135706,-0.9197564,-0.36249346,-0.098790616,0.99415356,-0.58695376,-0.66164744,0.9597823,-0.9029603,0.112004034,0.28719673,-0.6298636,0.29401976,-0.5802181,0.09783169,0.39395505,-0.40030378,0.6148377,-0.4942669,-0.93269795,-0.03174451,-0.736957,-0.30370232,-0.8092607,0.6039426,-0.10472472,0.063176185,-0.8050269,0.16285849,-0.6363315,0.9584865,-0.5736206,-0.31156448,-0.77237964,0.5314643,-0.6400815,-0.6269668,-0.5728609,-0.030810174,0.53442544,0.7943279,0.067990325,0.7175386,0.46772942,-0.03130316,0.5040444,0.34724787,-0.3201331,0.9642795,0.25107,0.24339104,0.61122006,0.614942,0.3176971,-0.27003473,-0.25481227,0.087359756,-0.2038386,0.32046044,-0.108896606,-0.63403994,0.8877491,-0.51487327,-0.39141533,-0.20506619,0.8769054,0.33531097,-0.33445787,0.13248658,0.36081043,-0.96327156,0.7690254,0.7508031,-0.5073503,0.61134386,0.0059780134,0.841419,0.43559116,0.7719918,-0.13311912,0.76351166,0.45308676,0.7713574,-0.7129158,-0.78358966,0.9816148,-0.7077692,0.3353697,-0.4701982,0.68160933,-0.7096712,0.3132915,-0.20425667,0.096907265,0.44968894,-0.21817018,0.38698918,1.0124077,0.1594258,-0.795486,-0.4052593,0.59720737,-0.19174121,0.28971568,0.15635478,0.8813639,0.8499172,-0.44157198,-0.81767493,-0.673464,-0.7398119,0.19390559,0.70432997,0.35047993,-0.4755194,0.48923948,0.08151213,-0.08195319,0.4827969,0.7389988,0.9412682,-0.57765985,-0.51719844,-0.63213986,-0.9366912,0.11089188,0.014491653,0.8417644,0.13666351,-0.647284,-0.23694533,0.09953328,-0.6985669,-0.521258,-0.23147361,0.75281423,0.10368427,0.12150233,0.15974717,0.6748396,-0.2957297,-0.75941867,0.81731105,-0.2369748,0.9360526,0.4432721,0.5057368,-0.1992587,-0.28280607,-0.38355303,0.32798067,0.52763885,-0.20858175,-0.8033478,0.7625241,-0.790404,-0.93406576,-0.2609536,-0.8040086,0.81930584,-0.13438398,-0.4890045,-1.1241629,0.33649394],[-0.5653513,-0.596146,0.81705797,0.8508446,0.1329862,-0.4334805,0.59329,0.39997423,-0.8101128,0.3628427,0.091042034,-0.7297214,-0.68924075,-0.4505592,0.6248447,0.3262922,-0.28271806,0.9650092,0.13198459,0.31776208,-0.9893938,0.46245235,0.47411448,-0.9340756,0.36577058,-0.5278033,0.9920986,-0.77996695,-0.86941016,0.57587624,0.7607279,0.6494802,0.63913333,0.81713694,-0.8713159,0.461932,0.7742796,-0.8811351,0.65725255,0.67355835,0.8066752,0.29802403,0.010374793,-0.5818504,-0.97233295,-0.10241307,0.5495333,-0.7285862,-0.7178159,-0.7644004,-0.13176106,0.36133736,0.5477347,0.8611761,-0.3868659,-0.4636469,0.31801215,0.17953786,-0.16444719,0.435039,0.34765223,0.5640179,0.55258805,-0.30822566,0.2300724,-0.10339932,-0.029996334,-0.5118439,0.8411918,0.6435287,0.8931525,0.7521275,-0.24430047,0.776394,-0.34293705,0.09844474,-0.009546993,-0.03034882,-0.88592696,0.057731543,-0.49795273,0.27049989,-0.50889015,0.66959745,-0.74610984,-0.26789322,-0.29482692,0.75339293,0.7934932,-0.7856698,0.59311587,-0.7696336,-0.57082766,-0.34633473,0.39591217,-0.08246135,0.6524202,-0.43011427,0.5423075,-0.5553759,-0.55801535,0.41954628,-0.2657461,0.8318812,-0.56946707,-0.82881886,0.43317053,0.75492525,0.9781257,0.5717779,-0.20427865,0.5132576,0.013062386,-0.19753142,-0.027865019,-0.028061606,0.6230915,-0.27782655,-0.7272854,-0.84927416,0.08537125,-0.77135646,0.8909607,0.9771614,0.2656159,0.38753673,0.43956336,-0.50235337,0.5800058,0.86144936,0.9620698,0.40415457,-0.85483557,0.54710466,-0.10343484,-0.82582974,0.18545887,0.1495126,-0.15411218,0.48374832,0.08035113,0.46282274,-0.84686136,-0.5129712,-0.36419603,-0.1629498,0.338814,-0.59520745,0.89955163,-0.13375463,0.5884329,0.018275553,0.39785618,0.95100075,0.43510276,0.7064784,0.61105174,0.12177475,0.10638612,-0.4162497,0.37922975,0.481648,0.4790892,0.3001697,0.3398017,-0.022656726,0.044408023,0.42464092,0.8374033,0.6743621,-0.066177644,-0.9966276,-0.11899786,0.8148439,0.7137182,-0.20808637,-0.8787059,0.88686645,0.650966,0.32986435,0.7875079,-0.20789067,0.4505749,0.41510573,0.061088607,-0.61646533,-0.13342412,0.10974691,-0.5390771,-0.26374993,-0.86095893,0.3763449,-0.15367192],[0.8853645,0.56852496,-0.26191223,-0.9607912,0.9223353,-0.796421,0.8896715,-0.12121685,0.49026632,-0.12783077,0.26221007,0.27748126,0.26483056,0.42487696,-0.5136651,0.19364372,-0.3358656,0.31307682,0.4574386,-0.6242481,-0.77367294,0.3725844,0.648555,0.4727659,-0.25891542,0.9210206,0.7026827,0.27001595,0.8297243,-0.8400279,-0.8381445,-0.5419226,-0.06978201,-0.19239452,-0.7942822,0.5486248,-0.94818145,-0.60634184,0.63533133,-0.34001824,0.20627281,0.18223755,-0.45408437,-0.23354378,0.9134556,0.6691174,-0.089567535,0.9780876,0.959421,0.31395942,-0.69837713,0.72825676,0.40139526,0.6151492,-0.3234256,0.18967143,0.71410084,0.5860671,-0.25649175,0.44066265,0.550047,-0.1469279,0.9116215,-0.20482492,0.38692105,-0.94702405,-0.4148116,0.18021385,-0.56019706,0.9061017,0.17884736,0.20574115,-0.40074867,0.2042365,0.4233309,-0.84707814,0.5878372,-0.42598003,-0.22578454,0.49326918,0.95964026,0.9652017,-0.5093414,0.14061876,-0.42809847,0.24922036,0.16724667,-0.6133273,-0.08990663,0.5109675,0.56219107,0.8016856,-0.7224913,-0.12351857,0.86678356,0.018680027,-0.4460528,-0.20210794,0.8586011,0.62529624,-0.70687926,-0.7932782,-0.9785104,-0.7630547,0.62106925,0.6790382,-0.80486584,-0.016424509,0.014506911,0.67355615,0.3030548,0.20457087,-0.40394408,0.089332275,0.75766325,-0.11142539,-0.8998058,-0.42154604,-0.44035265,0.2868897,-0.15808271,0.83975875,0.15447487,-0.28099567,0.27841416,-0.7808118,-0.22072773,0.8521073,0.82581025,-0.8541499,0.16372035,0.33543682,0.7518171,0.8654452,0.62038785,0.2818113,-0.23725279,0.5782925,-0.6750247,-0.28261882,-0.29785097,0.15637171,-0.7828064,-0.54448,0.99806005,0.78130245,-0.7980429,0.5796286,-0.013719944,0.16345093,0.80230343,-0.3806458,0.5833933,0.34621385,-0.7988459,0.62290365,-0.5089093,-0.21253885,0.13527726,-0.4758894,0.18378967,-0.6750349,-0.0234355,-0.28098172,0.023205597,0.7805144,-0.42553207,-0.86420894,0.08782187,0.26834407,-0.17746581,-0.10569192,0.9938071,-0.35935363,0.28177434,0.60743594,0.06408927,0.5229599,-0.0039364756,-0.5528507,-0.28637013,-0.9830913,-0.5837527,0.035510663,0.9863339,-0.4093364,0.76266515,-0.8878264,-0.16762628,-0.97757554,-0.045862895,-0.512909,-0.52218366],[0.57127976,-0.16106336,-0.11803318,0.24890396,-0.5665334,-0.7628732,-0.619382,0.74155694,0.36191335,0.8952241,-0.2088435,0.16119653,0.8307104,-0.29755956,-0.28789595,-1.0019292,-0.65717655,-0.694302,0.29057738,-0.58285046,-0.773391,-0.116289295,-0.5125242,-0.4626981,-0.067565404,-0.9003638,-0.5451445,-1.0155797,-0.3001251,0.9603856,0.114434175,0.25647923,-1.0078248,0.083456896,-0.21084377,0.9740923,-0.5497986,-0.6754789,-0.48011988,0.78388673,0.6359227,-0.69647986,-0.35416526,0.4194365,-0.058125764,0.8686961,0.865828,0.80992,0.39807415,-0.6527669,0.9163555,-0.1726838,-0.4011603,-0.88452643,0.6525012,-0.99486274,-0.05876027,-0.33170795,0.6925727,0.56724423,-0.32760102,-0.10290019,-0.6316974,0.9709087,0.9421156,0.940742,0.3902805,-0.98055047,-0.9645999,0.6133931,0.4671441,0.09394639,0.6906218,-0.06594562,-0.16963665,-0.5113824,-0.09014625,-0.07279661,0.8043446,-0.070084326,-0.16660807,-0.39777014,-0.008085762,0.5912646,0.9093355,0.17313066,-0.19141832,-0.60386044,-0.70300466,-0.8596939,-0.8579543,-0.22252528,0.5121318,-0.5912125,0.21435797,-0.9974834,-0.6472263,0.6224889,-0.26106268,-0.9963412,0.82586443,-0.92541647,-0.6458679,0.30676994,-0.87765896,0.2488339,-0.5991744,0.53752244,-0.35809705,0.055147372,-0.22133934,0.48288244,0.28911367,0.86605614,-0.08645633,0.19837429,0.39071095,0.5223053,0.51942277,-0.34384674,-0.8527331,-0.94736224,0.83619463,-0.59160256,-0.99577475,-0.9223651,-0.09630386,0.42080644,0.019492326,0.6030714,-0.70265704,0.092770495,-1.0032879,0.58877355,0.8266121,0.29717693,0.2358242,0.21997827,0.9894647,-0.6626046,-0.24013788,-0.68166775,0.92814887,-0.02740669,-0.31757286,0.8898,-0.6768896,0.74847305,0.62952745,-0.21433704,-0.9795045,0.27952865,-0.34447116,0.48745382,0.9593302,-0.35572067,-0.6126949,-0.47585404,-0.6463828,0.22514893,0.4959705,0.71386456,-0.9651143,-0.92119277,0.17923836,0.13697198,-0.30547976,-0.053218115,-0.10799685,0.18719755,-0.749372,-0.7991071,-0.04407247,-0.24399593,-0.72462475,0.4139219,-0.8985427,0.022186033,-0.75906533,-0.5835838,0.22625826,0.8134316,-0.022638248,-0.55586237,-0.08617383,0.51686263,-0.9049182,-0.33265746,-0.4450309,0.400353,-0.2838443,-0.62858045,0.6355392],[0.10334925,-0.5614284,0.1806438,0.047659196,0.25179076,0.73447347,-0.6562395,0.43949923,0.69183433,-0.033760346,0.6619424,0.41230166,-0.74330497,0.60415006,-0.92434657,0.47463566,0.8917661,0.21208663,0.63837147,-0.009766174,-0.4421501,-0.7403949,-0.74719656,-0.9237552,-0.5936268,-0.7563862,0.07939682,-0.55120194,0.38226473,0.47599292,-0.45291647,0.78873914,0.7623445,-0.04854034,-0.057991017,0.94843394,0.464656,0.8768534,0.18706189,-0.40407526,1.0418158,-0.014827029,0.71351564,-0.4681979,0.17665352,-0.08244728,-0.66948503,0.82491744,0.45929578,-0.5820124,0.6613801,-0.48287916,-0.4095503,0.3567486,0.8157185,-0.6889891,-0.8947718,0.8517447,0.21913026,-0.60763216,0.6576427,-0.5570752,0.93865955,-0.9065288,-0.5942249,-0.032313257,0.13363113,-0.30369788,0.3312038,0.27604923,0.0030225231,0.25183347,-0.64770514,-0.9998447,0.54048675,-0.13812755,-0.8055854,-0.49401635,-0.100366354,-0.2642464,-0.189005,-0.9538146,0.92591506,-0.45458287,0.13407695,-0.5610001,0.07734076,-0.28519842,0.8185287,-0.6617804,-0.11587333,-0.2051614,0.93882656,-0.7064982,0.5797818,-0.9768385,0.7076303,-0.81820726,-0.48313493,0.38266537,0.28515458,-0.8361514,-0.13637003,-0.57008606,0.8812758,0.9638737,-0.043780316,0.560892,0.85139275,-0.16921996,0.19067898,-0.46778953,-0.22983436,0.5529146,0.26823622,0.07375119,-0.8887727,-0.45274004,0.82090986,-0.65746933,0.73367786,0.13150704,-0.8309964,-0.7587437,-0.25106996,-0.50180393,-0.25583842,-0.892604,-0.031104954,-0.47858787,0.9886536,-0.79682356,0.36971614,-0.8267672,0.7690134,-0.048268992,-0.74147207,0.6657441,0.11572769,-0.4924244,-0.6050057,-0.29379192,-0.10014832,-1.0160142,-0.5577684,-1.0455288,0.7138722,0.74381906,0.6165357,0.2391394,0.23635755,-0.24595502,-0.41343972,-0.47875535,0.9775312,-0.4270343,0.21131778,-0.050807033,0.38387996,0.60623217,-0.6543679,-0.2639092,0.0028012227,0.046053283,0.0011435403,0.39752024,0.8956722,-0.12598567,-0.44604135,-0.84455013,0.031674795,0.34663528,0.10807056,-0.8288359,0.44224307,0.51087207,-0.019045152,0.19399805,-0.72147346,0.44779316,-0.28171194,-0.82899725,0.7025101,-0.6985881,0.23113301,0.18563291,-0.5454946,0.29552087,-0.068790846,0.9298828,0.18623884,-0.64812434,-0.76626784],[-0.25751668,0.61712474,0.46996984,-0.015239743,-0.07652584,0.1345637,0.21304646,0.8451744,0.19609648,0.19041327,-0.13586868,0.5928104,-0.22000155,0.590308,0.23755607,0.6726643,-0.8399247,-0.70277876,0.28292584,-0.7911469,0.9578097,0.40359542,0.64084953,0.29310256,-0.5027099,-0.31696388,0.78905785,0.17563374,0.2589996,0.038870145,0.659805,-0.7266494,0.15159339,0.7989079,-0.5575629,-0.8287364,-0.55589896,0.18006322,-0.70435345,-0.011575633,-0.84857583,-0.6388237,0.5487981,0.87841547,0.058169805,0.93147314,0.78207964,0.13636,0.07013803,0.85960525,-0.366008,-0.34180126,-0.05273161,0.23443717,0.7112459,0.43939182,-0.70203084,0.6524422,0.37198585,-0.17526026,0.6460633,-0.2815237,-0.18596067,-0.35910463,-0.15577303,0.22263941,0.81579965,-0.4493174,-0.21408516,-0.25126,-0.84363234,-0.4041397,-0.99547446,0.6293828,-0.030961094,-0.50674486,0.17588323,-0.6898382,0.35167024,0.80628884,-0.68850225,-0.0871705,0.47659686,-0.3953494,-0.3482711,0.3297576,0.43539396,-0.65168923,0.07430634,0.16855088,0.6923222,0.50013554,0.044111457,-0.17268912,-0.8783202,0.18160613,0.8152083,0.4051919,-0.29068902,0.29917246,-0.6502839,-0.35538763,0.8574685,-0.49790245,-0.11457175,0.90976065,0.91313475,-0.10306486,-0.71793956,-0.93198776,-0.6252618,-0.31657764,0.7488183,0.36434072,0.21629383,-0.28344053,0.4930351,0.6777213,-0.7466079,0.88028294,0.34237078,-0.016386598,-0.0033237936,0.6921782,0.2556457,-0.69426244,0.9434514,0.48817563,-0.25500047,1.0008086,-0.0024466773,0.15875515,-0.7156862,0.40646067,-0.7292262,-0.36544195,0.3461052,-0.18465959,-0.54619706,-0.24017957,0.95222473,-0.61779934,0.30149075,0.53001076,0.20917833,0.8685566,0.44577456,0.7150895,-0.519383,-0.35994032,-0.20145614,0.5723115,-0.30107945,-0.39705583,0.43131402,-0.2983512,0.82767224,-0.9125597,-0.30237734,0.4518663,0.07244386,-0.6318016,-0.28888723,0.91685426,-0.51129323,-0.629545,-0.22894548,-0.8478762,0.26117268,-0.07802757,0.29171294,-0.47487924,-0.8081528,0.60977876,-0.5201801,0.9699421,-0.12046228,0.027508957,-0.5385602,-0.6737117,0.756538,-0.40556967,-0.47460246,0.6717491,-0.8229746,-0.8832146,0.85631907,-0.66469043,0.600612,-0.879789,0.8322605,-0.69285303,0.66044563],[-0.10001731,0.15184775,-0.6204286,0.17663214,-0.26761308,-0.41099653,0.67327464,0.28770012,0.3149113,0.14033453,-0.007957334,-0.68116677,-0.6077441,0.4179716,0.77159286,-0.9512611,-0.010038857,-0.724036,0.38510725,0.30812135,0.052324448,0.51285547,0.16863036,-0.08109051,-0.76780826,0.66144234,0.21503216,0.6134789,0.27059093,0.9596979,0.052707326,-0.073209114,-0.7690239,-0.35563672,-0.85335314,0.8801786,0.15910745,-0.060340013,0.5528751,0.0068946267,0.7045023,-0.6106971,-0.7089908,0.5398957,0.17809959,0.17345902,0.68482774,-0.84382176,0.6392126,0.1629611,-0.938933,-0.16162436,0.16484974,-0.12093147,0.9676208,0.4607149,-0.5573789,-0.6829828,0.67866766,0.9149246,0.19311717,-0.6017902,0.9705607,0.7983664,0.95526797,0.77351433,0.29457432,0.0967689,-0.28258285,0.75702286,0.673966,-0.110472634,0.4706241,-0.70538723,0.9631823,-0.74945563,0.5728517,-0.73132414,-0.645271,0.629712,-0.54191345,0.44336027,-0.82425416,-0.22758631,-0.6860987,-0.82565993,0.66580534,-0.43316695,0.2662797,-0.5832331,0.60712147,-0.22255105,0.75720006,0.99485576,0.3633509,-0.2010888,0.044189207,-0.9052695,0.66495365,0.48438644,0.33238518,-0.7702604,0.9629183,0.025788257,-0.4705034,0.91621673,0.9247939,-0.8765781,-0.24894759,-0.4230315,0.71138567,0.72096455,0.003998979,0.4989747,0.23800781,-0.25863877,0.18098147,-0.39285865,0.865811,0.75546145,-0.33027357,-0.99144363,0.36010423,0.874131,-0.2676033,0.11976587,-0.0340598,-0.9995178,0.2951203,-0.5206203,-0.86616075,-0.7128775,-0.7737683,0.075204976,0.7623615,0.8607361,-0.4255444,-0.9616638,0.16891652,0.6407018,-0.8085774,0.82047737,0.53827995,-0.7825595,0.25617632,0.64954275,-0.39596584,-0.05847855,0.684197,0.964004,0.78459734,0.1253286,0.01781234,0.47440916,-0.22315492,0.7028386,0.40406007,0.91922116,-0.94911385,0.15805781,-0.31553328,0.68683034,0.22643825,0.3036143,0.14951219,0.15669991,0.00047758242,-0.007864371,0.47886685,0.4148319,0.060710147,-0.23639421,-0.22376114,0.42343608,-0.324656,-0.9866346,-1.0059791,-0.5535742,-0.2525174,0.6334126,-0.27038407,-0.06069237,-0.040822335,0.17044047,-0.8424729,0.04288168,0.49748328,-0.4796472,-0.41678047,-0.97611684,0.9578346,0.62286574,-0.56136584],[0.25468582,0.23912388,0.15187594,-0.08636862,-0.6674475,0.72922385,0.15184368,-0.6608446,-0.6923735,0.501131,0.19672279,0.22304496,-0.17379339,0.35175613,0.7515989,0.7367225,0.3858686,-0.046802197,0.87743765,0.31895894,0.6261252,0.6772839,0.7892009,-0.52263767,0.0037025202,-0.1413069,-0.018921707,0.8163612,-0.20881444,0.34288147,0.9872916,-0.8417935,-0.92037034,0.70657444,0.5477235,0.30170494,-0.38287947,0.73330134,-0.1548817,-0.68693614,0.4298092,0.5017441,0.3340622,0.8480595,-0.6555816,-0.65610296,-0.4537667,0.79660225,-0.013564497,-0.63902026,-0.348115,0.2839995,0.140985,-0.45128745,-0.9555298,0.98819625,-0.37574822,-0.54520667,-0.5432349,0.08827969,-0.7265262,-0.92445505,0.17552698,-0.6572663,-0.5039715,-0.18225367,0.96683365,0.22089255,0.71512455,0.6596506,-0.7241296,0.086222455,-0.9928057,-0.6244987,-0.08944335,-0.34973547,0.10004231,0.025532927,-0.2318961,-0.24967751,0.33008075,0.7744152,0.055964276,0.9666854,0.3227658,-0.5388052,-0.58742136,0.9300124,0.5541765,0.72898334,0.5944192,-0.09206814,-0.5036206,0.18887599,0.66491425,0.104414985,0.88535637,0.252104,0.1587068,-0.4193392,-0.408208,-0.30918726,0.5884049,-0.8825543,0.007729622,0.46970174,0.6401616,0.46184707,0.90042776,0.84971124,0.8121791,0.40153268,-0.46745327,0.2307294,0.28562343,0.2480817,0.91441214,-0.39670685,0.23557878,-0.77560663,0.5254795,0.02165234,0.38826704,0.5571775,-0.83497936,0.81472814,0.42070687,0.36932766,-0.5766838,0.60672486,-0.13013762,0.9304157,-0.549634,0.5316611,-0.9926869,0.97385955,-0.16201313,-0.09507991,0.77476066,0.9855263,-0.21141925,0.8736153,-0.059035808,0.43329373,0.19035144,-0.8782965,-0.4135633,-0.3313994,-0.7148159,0.9626746,0.15351224,-0.6722991,-0.31893292,0.61102635,-0.35268885,0.16338976,0.76165366,-0.4574144,0.68449277,0.4637675,0.20343392,0.40147358,0.4432783,0.7868437,-0.26258045,0.17634872,0.17573617,-0.11255632,-0.09849579,0.4246259,0.45170754,0.5370001,0.519337,0.89448833,0.24969895,-0.22666544,-0.40750438,-0.91572434,0.95186645,-0.6817856,-0.06344389,-0.6310799,0.74627966,-0.5313976,0.43027163,0.60183233,-0.79391277,0.16195026,0.31157264,0.7031836,-0.555761,-0.77510643,-0.40540907],[0.342751,-0.6374042,-0.86994946,0.54937124,-0.6258083,0.995524,0.00045360805,-0.8254569,-1.0033236,-0.51041424,0.9348441,0.40230897,-0.6201134,0.5440366,0.74468756,0.37800932,-0.41201875,-0.661235,0.82445794,-0.26861134,0.5608142,0.9377431,-0.09426852,-0.4236871,0.15735687,-0.7906167,-0.020530375,-0.7460467,-0.86601657,-0.20531216,-0.6370872,1.0132992,-0.2672885,0.35367325,0.5332458,0.048491284,0.24175984,-0.86068803,0.05868452,0.36447144,0.23245232,-0.51790875,0.88034815,-0.8016635,-0.23174168,0.17056306,0.75353,0.6617606,0.085992336,0.8631607,0.6250237,-0.8824157,0.4405859,0.86612415,0.98493093,0.3227881,-0.24788809,-0.06870977,0.15668544,-0.6796001,-0.3323986,0.56746054,0.2776747,0.6605331,-0.9652508,-0.43082473,0.15894245,0.84652084,-0.16663021,0.40306792,-0.64202064,-0.3980479,0.6389175,0.34595585,-0.7590072,0.6589365,0.9095918,-0.73668146,-0.14128534,-0.48914856,0.2731382,-0.85876983,-0.7460035,0.26330867,-0.97689825,0.76730794,0.2894216,-0.51723987,-0.41741624,0.2520225,-0.24563392,-0.6610548,-0.6992296,-0.6300228,-0.69489396,-0.9404662,-0.032633763,-0.61348134,0.59622645,-0.9186982,0.49039438,-0.6950608,-0.26081166,1.0113698,-0.7531555,-0.89451206,0.616252,-0.076571606,-0.3666518,-0.790276,0.6210176,0.07161816,0.93846977,0.58929193,0.4482841,0.02687139,-0.5962894,0.79539007,-0.024849646,-0.25543785,-0.33646768,-0.9805379,-0.99086154,-0.47070462,0.54701203,0.06984438,-0.34245583,0.93486744,0.5758669,-0.32206056,-0.7608554,-0.13949424,-0.860502,0.44593912,-0.76105905,0.8895712,0.26335394,0.04206978,0.57491326,-0.08094845,-0.7107899,0.47621208,0.9203008,0.9279561,-0.68067557,0.53398496,0.049210962,0.11937746,0.28325346,0.15696031,0.6844782,-0.4764674,0.09157914,0.9437836,-0.7350325,0.2173022,-0.480515,-0.04822268,-0.5371015,-0.94635105,-0.29899892,-0.033180002,0.13723454,-0.32987818,-0.7025934,0.8079823,0.25562128,-0.04914041,-0.32202512,0.01956513,-0.52389145,-0.96122223,-0.40831083,-0.5646551,0.026230905,0.13451093,0.36707285,0.32503754,0.14824456,-0.39834696,-0.82682526,-0.8873006,1.0313389,-0.94919807,-0.9313815,-0.38125607,0.04776632,0.37396044,0.91047096,-0.631556,-0.44299155,0.55177635,0.6955396],[0.3075844,0.9453358,-0.98016685,0.20759447,-0.7994459,0.24527949,-0.44711283,-0.46843687,-0.722775,0.7236763,-0.33820754,-0.43068993,0.8628488,-0.44056275,0.0930165,-0.6575931,0.40087312,0.018504392,0.38071182,-0.117519364,-0.036474586,-0.94766414,0.6131665,-0.054552916,0.08917319,0.34584728,0.8584694,0.98709995,0.6310454,-0.13406381,-0.21455011,-0.6199924,-0.8336535,0.04667747,0.8296297,0.948604,0.45254534,0.09486361,0.043796767,-0.92523026,0.9899895,-0.19353467,0.87784517,-0.892498,0.7798734,-0.20327017,-0.08216795,0.24406071,-0.44957364,0.08789504,0.4113611,0.6124206,-0.0987812,-0.8532067,0.053512454,0.1581871,0.30181122,0.9292599,-0.47795674,0.20447616,0.92928445,0.27581546,-0.3332845,-0.13744342,0.046296842,0.4168051,0.08526597,0.5231202,-0.5789474,-0.13726011,0.45446455,-0.97160935,0.86217093,-0.896474,0.36975217,0.0028408677,0.65196663,-0.56267893,-0.86886054,-0.64421886,0.93518764,0.6675515,0.9919204,0.47028756,-0.22399302,-0.65857834,-0.32996097,0.56914586,-0.048207942,-0.35796133,-0.68073744,-0.5702349,-0.407623,-0.9623419,0.35564697,-0.94296134,0.91609794,-0.91654617,0.056115363,0.47299793,-0.26615265,0.29324293,0.11405496,-0.5112053,-0.70629287,-0.02366456,0.40953076,-0.98115855,0.21531759,0.6628564,-0.8420832,-0.730119,-0.6496806,-0.65330255,0.53953344,0.008588856,0.47081786,0.5322001,-0.8425265,0.6906239,0.7000051,0.8364568,-0.62955,-0.60840225,-0.11961918,-0.7021168,1.0064911,-0.5960598,0.43636715,0.8418464,-0.78806424,0.96099466,-0.5855038,-0.97985005,0.20231251,-0.6555752,-0.3595382,-0.43315157,0.042628333,0.06739701,-0.8098792,0.4617247,-0.6446156,0.7271999,-0.2871028,-0.17922364,0.48181581,-0.6988984,0.7758779,0.2836961,-0.94770455,-0.59779567,-0.92861104,0.7057236,0.18617828,-0.049518794,0.3380131,0.43334284,-0.30823323,0.93919843,-0.82626754,0.5863645,0.38113979,-0.05644944,0.16674277,-0.6763931,0.48993298,-0.66364473,-0.033444103,-0.19137932,-0.3556439,-0.4673242,-0.9150898,-0.12478978,-0.46950144,-0.8122659,-0.838998,-0.58601123,0.4875277,0.51728636,-0.7742184,-0.7083342,-0.261324,-0.78810346,-0.22607833,-0.99316174,0.61935776,-0.61075777,0.88260806,-0.45094344,0.42852205,0.36658242,-0.80727404],[0.9916761,-0.2976624,0.93036216,0.70656484,-0.88423556,0.05350698,-0.820138,-0.8333768,1.0090042,0.3676517,-0.019690378,-0.85980386,0.40529343,-0.693195,-0.6314122,0.78095466,0.63325506,0.5876653,-0.8435571,0.2213904,-0.24793395,-0.73018235,0.6540198,-1.016108,0.25439677,0.72422326,0.20354322,0.50009924,-0.6852651,-0.4582329,-0.58754534,-0.19500522,0.47600353,0.104214676,-1.0381744,-0.16389091,0.8086365,0.6420253,0.19413768,0.4776183,-0.87171614,0.77586585,0.49044904,-0.29964575,0.9227867,0.6540798,-0.16009817,0.58729243,0.22382228,0.6727352,0.77141696,-0.33779806,0.531814,0.20874518,-0.85049045,-0.52895844,0.08083175,0.069511145,1.0941116,-0.76622885,0.35494444,1.1318798,-0.9161877,0.10253488,-0.0362919,0.24377796,0.38728255,-0.57235277,-0.13708082,-0.4166117,0.24388292,-0.5879914,-0.769761,-0.62037617,0.5080135,-0.05274676,0.79932326,-0.33990446,-0.16935076,0.39574262,0.8535383,0.7300329,0.22766827,-0.48841858,0.668154,-0.764318,0.69191563,0.95765954,0.5650105,-1.0546016,-0.47934327,0.2873081,-0.6294056,-0.9126281,-0.81009084,-0.2784757,-0.68884385,-0.7421627,0.0010699455,-0.7518806,0.30951837,-0.4287484,0.7397321,-0.3913482,0.94275826,0.70178735,0.29205057,0.3082652,0.029376704,0.41672856,-0.7874857,-0.29711878,-0.9548038,-0.5523368,0.6355716,0.0102774035,-0.86263865,-0.27342415,0.76456994,0.18668038,-0.14041425,-0.62005043,-0.9172295,0.2994492,-0.65567106,0.115355864,0.67768604,0.95710325,0.23767288,-0.6557889,0.86040515,-0.73379314,0.17379671,-0.24982917,0.81816185,-0.67169994,-0.3409492,0.2885077,-0.49287176,0.32657072,-0.3106719,-0.24238867,-0.05233249,-0.891754,0.1640384,-0.08200437,-0.6842876,-0.30144736,-0.2892353,-0.51080275,0.38197684,0.36289737,-0.057222627,-0.42533648,0.23286328,-0.42229256,0.445702,0.5614148,-0.36207774,0.35443437,-0.20616105,0.8329424,0.902464,-0.05529496,0.31664574,0.5871445,0.7240163,-0.28024945,0.744579,0.042448156,0.5006105,0.93536925,-0.8509477,-0.72492456,0.7185409,-0.16537891,-0.56446105,-0.7762403,-0.7012927,0.16395335,-0.68540657,0.46815857,-0.9751252,-0.87929237,0.9555346,-1.082419,-0.4556851,0.009389824,-0.19466782,0.68339866,0.018756231,-0.1198651,-0.3767983],[0.63302726,-0.5513352,-0.51496875,-0.5824638,0.7477058,-0.56416625,-0.81917065,0.8299867,0.18084627,-0.121618964,-0.8164726,0.93275696,-0.2030502,0.82300824,0.6825649,0.9873943,-0.8206872,0.7228248,0.14639394,0.4530804,0.32290196,-0.13588117,0.68646824,0.2776365,0.64541143,-0.24157532,-0.56997555,-0.8572421,0.17341703,0.073924944,-0.64697856,-0.050781727,0.9639912,0.061110117,0.34627542,-0.7249896,0.8182742,-0.86792743,0.9238154,0.7406709,0.34272268,-0.15844664,0.9591471,-0.7015924,0.0139895575,0.46812406,0.5730918,-0.810662,0.30567113,-0.24992137,-0.9649725,-0.2295162,0.76740503,-0.7734016,0.27653778,0.5104679,-0.72754776,-0.83003616,0.8902651,-0.5397861,-0.41494185,-0.4030168,-0.34468418,-0.17219713,-0.45866314,0.3229447,-0.60246074,-0.68600076,1.0368102,0.17291309,0.47995883,0.4652913,-0.7058836,0.21657738,0.7179987,0.53360003,0.14470531,-0.8929072,-0.4657516,0.77118367,0.5195158,-0.14391123,0.24394701,-0.790251,-0.0034918375,0.95761585,-0.49485698,-0.268551,-0.62650806,-0.8509132,0.8735961,0.7482019,0.16041541,0.6366533,-0.36841112,0.8403426,-0.3681858,-0.7229081,0.72043145,-0.56401426,0.9105287,0.6952977,-0.59751475,0.2690814,-0.49844554,-0.80949444,-0.8994086,-0.30031025,-0.615256,0.09475359,0.8216857,-0.68941087,-0.10442305,-0.6258583,-0.30641288,0.22408563,0.17320701,0.37880182,0.055001963,0.3814494,0.6239064,-0.7440501,0.7497936,-0.3283381,-0.7690262,-0.017025957,-0.3230264,0.37910745,1.0000067,0.04606905,-0.6153735,1.0233048,-0.24079087,-0.44930184,-0.47971606,0.64653534,0.3141513,0.0043821097,0.5514884,0.5455753,0.44109362,-0.43297714,-0.5429462,-0.13915125,0.7090856,0.8350308,-0.8637357,-0.22358544,-0.7201505,1.0103617,-0.17072375,0.1768956,-0.25341755,-0.7764264,0.11662306,0.5630601,0.9873866,-0.353601,0.9313639,0.52386063,0.12794904,-0.8895615,0.51580876,-0.26957896,-0.51191616,-0.6845997,0.20757344,0.069983326,0.6746269,-0.95234054,0.8897777,-0.9205583,-0.2767334,0.16921325,-0.9671423,-0.38245714,0.7344327,-0.25745496,-0.98056525,0.16659275,0.81257945,-0.08622944,-0.46961835,0.38627756,-0.3924284,0.36341408,0.8769566,-0.57800204,0.8381724,-0.16000175,-0.92095363,-0.3038568,-0.69467735],[-0.73374903,0.76751643,-0.1660691,-0.33119014,0.18942034,0.48500457,-0.51843625,-0.386195,0.7734992,-0.84271586,-0.33789316,0.5078767,0.18388863,0.16064167,0.38375476,-0.05612085,-0.15226904,0.888668,-0.6327465,-0.17078465,-0.4558871,0.88969654,-0.85109574,0.7703273,-0.23936373,0.17518272,-0.80467284,0.9708538,-0.7860772,0.28296936,0.55147505,0.353033,-0.19688818,0.2941978,0.79411423,-0.0567681,-0.18807538,-0.42636636,0.23871686,0.6392975,0.8442581,0.4619065,0.9402048,-0.371616,-0.8226489,-0.0740904,-0.25843704,0.8595872,0.8962378,0.9673086,0.06905606,0.9502919,-0.1120333,0.73536,0.15596996,-0.9026836,-0.8267272,-0.9676873,-0.5147507,-0.26693726,-0.024618708,0.74221337,0.6030423,-0.4652421,0.15142703,0.05684476,0.31342614,0.23441625,0.9511192,-0.79540604,0.2983784,0.36156452,0.24926114,-0.044507906,0.33713076,0.960432,-0.742082,-0.8861357,0.5071252,0.2998515,0.5750254,-0.6964368,0.040144805,-0.05215544,-0.3769582,-0.2897856,-0.43006688,-0.05951646,0.6481252,0.8536241,-0.73458403,-0.039820015,-0.5909313,-0.8289188,-0.8013862,0.13961914,-0.49187693,-0.5950161,-0.8660869,-0.75759834,0.0790067,-0.7494673,-0.95574445,-0.13791648,0.32656732,0.558758,-0.73970246,0.87816304,-0.3491196,0.46683148,-0.9538452,0.49494475,-0.40486604,0.38845983,0.121312395,-0.5495354,-0.050882753,-0.5124208,0.7020482,-0.40541318,-0.30775487,-0.8148003,0.34937054,-0.8252193,0.97787005,0.1407851,0.3795701,0.5501177,-0.48702273,0.26334375,-0.89723444,-0.8677297,0.9154153,0.9555379,-0.1066828,0.41779587,-0.11700613,0.19705324,0.8931607,-0.44589922,-0.28839457,-0.97930694,0.44066298,-0.6427422,0.40675533,0.95597327,0.33213937,0.10773813,0.94392586,-0.4698867,-0.77629215,0.47896773,0.5287881,-0.7995297,-0.13485998,0.85820353,0.44655448,-0.13668841,0.6404602,0.6095882,-0.8323265,-0.4054038,-0.4452922,0.5529599,0.60902303,0.15716934,-0.3549596,0.872958,0.82715404,0.31352735,0.93050283,-0.026548121,-0.43177056,0.6498888,-0.3691155,0.6201459,-0.7673119,-0.5905807,-0.8443059,-0.1449396,0.8241828,0.786509,0.42503515,0.5078195,-0.35618603,-0.37430352,-0.63152343,0.5157197,-0.5139429,0.40807164,0.42919332,-0.23446476,0.5329343],[-0.27594045,0.37067157,0.4635415,-0.043829743,0.7415557,0.52435917,-0.0693145,0.8306681,-0.77142227,-0.8616501,0.94819385,0.1444878,-0.19010518,-0.5686974,0.1482266,0.89657795,-0.32915965,-0.2811308,-0.26207703,0.44454825,-0.14950734,0.7159664,-0.13291922,-0.3492953,-0.69770384,0.1496965,-0.5327342,-0.28238052,-0.7437318,0.83861727,-0.23749225,-0.8049388,-0.050523333,-0.70019996,-0.94744253,-0.12135111,-1.0185685,-0.59853816,-0.7798158,-0.7273156,-0.46702266,0.9102957,0.31583533,0.18580285,-0.31742918,0.06541405,0.8798996,-0.46056738,0.77409387,0.5877538,-0.040673576,0.62824327,-0.10610798,-0.69477415,-0.6229856,-0.9519806,-0.5195637,0.12918629,0.77251345,-0.1488727,-0.8390469,0.85189515,-0.90976936,0.81305295,0.9562695,0.6561303,-0.7354881,0.47833243,0.57622546,0.7937581,-0.38305622,-0.95329374,-0.6320662,-0.32480055,0.5980676,0.13843462,0.28653365,0.7139649,-0.27849495,0.32926095,-0.9473189,-0.3363641,-0.52739877,-0.998867,0.1879218,0.91748106,-0.078367196,0.6763775,-0.5232457,-0.14247103,0.5697348,0.3374353,0.35117936,0.1257712,-0.3577774,-0.5281959,-0.3339395,-0.48764357,0.86361486,0.7673676,0.95745426,-0.8748911,-0.13988496,-0.021263024,0.4499298,0.2695431,-0.58178645,-0.03768672,0.4252592,0.18162265,-0.52433395,0.43042043,0.5405208,-0.9379868,0.28202462,-0.9384151,0.59382623,0.71214265,-0.000038992624,0.52247095,-0.055268843,0.571224,-0.87903357,0.188498,0.2966854,-0.21658415,0.78264844,-0.6608715,0.9617838,0.94723284,0.52920663,0.04750586,0.5386308,0.7734538,-0.5592611,-0.6221989,0.92436886,-0.917763,-0.04133497,-0.25807345,0.2337124,0.49412876,-0.655795,-0.07263751,0.5415647,-0.88974994,0.40692312,0.22816825,0.12446198,-0.13577457,-0.5616784,-0.31678805,-0.14691631,-0.0017742016,-0.6377771,0.53250337,-0.5926606,-0.7483618,0.5016856,0.1644771,0.18903124,-0.050808858,0.37957972,0.89382845,0.07525015,-0.9007942,0.337287,-0.33649495,0.4483119,-0.519808,-0.9931263,0.12799023,-0.62266153,0.3221421,-0.36591238,0.2538464,0.27291268,-1.0464239,0.8691913,-0.37296814,-0.6650936,0.7993599,-0.42824027,-0.927872,-0.32712853,0.20921388,-0.6485229,0.04165881,0.50751543,-1.0340722,-0.2069536,-0.10623536,0.2517339],[-0.10296653,-0.3014718,-0.39915615,0.16791023,-0.20765518,0.17072909,-0.10292272,0.46024814,-0.2053887,0.62920564,-0.5661481,-0.5558989,0.53911984,0.6975716,0.14826795,0.42823446,0.0504584,-0.11637619,-0.85216916,0.88038933,-0.6966319,0.8914382,0.50807047,-0.60941565,-0.020612428,-0.91208386,-0.28689262,0.49597374,-0.006808759,0.6764549,-0.1836584,0.13640022,0.3661538,0.6313705,0.46939838,0.2905871,0.55457807,0.5846509,0.04206286,-0.60628,-0.7745637,-0.22528039,-0.13375275,-0.5863438,-0.72156274,-0.6092711,0.9455991,-0.56934786,-0.710898,0.25397217,0.012691271,0.044123664,0.18187708,-0.56182057,-0.48769704,0.9627142,-0.0569958,-0.8636132,-0.7210275,0.26114145,0.4834715,0.4438906,-0.6368157,0.83211285,0.6430542,-0.28815758,0.12917037,-0.4177334,0.0722972,-0.64021045,-0.5653134,-0.91362816,0.44679695,-0.67393726,-0.09671211,0.3271534,-0.42865297,0.7072755,0.9049479,-0.050876502,0.4722574,-0.53840894,-0.083107725,0.26483193,-0.28728098,0.8438982,1.0152502,0.43834993,0.1650409,-0.24369252,0.6071404,-0.6991537,0.6306874,0.849546,-0.034896538,-0.7607691,-0.12267388,0.110997,-0.5327526,-0.19596499,0.5696124,-0.78340155,0.8638519,0.8312396,-0.56125635,-0.72173995,0.6023047,0.61968935,-0.24781811,0.39130047,0.47265515,0.4311866,-0.22092481,0.8560128,-0.5756084,0.5160261,-0.08874026,-0.093776554,0.5350703,0.6088128,-0.05352628,-0.45336807,0.791958,-0.87252307,-0.17862691,0.11782737,0.7800194,-0.9016547,0.25522804,0.083535165,0.15476473,-0.05399994,0.2743652,0.37006754,-0.41966948,-0.8146046,0.94583714,0.9041473,-0.7209244,-0.54859436,0.28085178,-0.17307448,-0.49463904,0.8075959,-0.15314758,0.0070630237,0.8733821,-0.19275188,0.54087263,0.5782958,-0.004877535,-0.7176502,0.056363486,0.13130006,0.5313823,-0.21664035,0.5790403,0.3732888,0.50140035,0.09334816,0.7715881,0.009973304,0.32340777,0.1320441,0.49552065,-0.47392586,0.05242784,-0.052266024,-0.91603076,0.3725147,0.74385995,-0.9385672,-0.60440946,-0.69531864,0.17407238,0.68580085,0.74188554,0.15481612,-0.678475,0.025466299,0.7071496,0.43782568,-0.72880137,0.1044353,0.81925404,0.59164715,0.5524187,-0.060586225,0.9314696,0.65009165,-0.2960019,0.64301217,-0.4443806],[-0.87734354,-0.7491388,0.7274699,0.37089074,0.12680304,0.11151767,0.81993115,-0.8961484,0.48092365,0.9820597,-0.24171834,-0.1696039,0.6451926,-0.12834427,0.92293763,0.98181194,0.09358364,0.9064036,0.11010172,-0.71827936,-0.28142345,-0.5812837,0.18596922,0.19146256,0.3973187,0.13097258,-0.35311732,0.9870393,0.8467213,0.59313864,0.5468724,0.086645685,0.69740367,0.015720053,0.5114121,0.26091248,-0.41459784,-0.9233991,0.10660706,0.7933475,-0.8169773,-0.27348578,-0.27983257,-0.8204695,0.16089398,0.3124961,-0.46934256,0.65421546,-0.2572334,0.101069346,0.7753707,0.7271858,0.40496197,0.49860352,-0.3664413,-1.0357901,-0.92925715,0.20019484,-0.91019446,-0.07481551,0.6088703,-0.10759146,0.07083307,0.9015447,-0.45055398,-0.34304675,-0.33790666,-0.5900767,0.3847996,-0.3061598,-0.1482914,-0.41946194,0.31034416,0.29794103,0.6226931,0.33140257,-0.26849434,0.0911755,0.5937799,-0.9459544,-0.106634006,-0.41713282,0.9218517,0.93689996,-0.87409,0.1436288,0.9536845,-0.17125678,0.6562365,-0.2878611,-0.57500076,0.812701,-0.031043863,-0.113363154,0.40454403,-0.25955683,0.4787884,-0.8506238,0.005106192,-0.5920199,0.7166724,-0.19917727,0.56588906,0.15167606,0.050938178,0.408758,0.82032186,-0.686998,0.25468075,-0.7313646,-0.07381824,-0.09747611,-0.8381835,0.76225466,-0.6961215,-0.8406271,-0.90671664,-0.4955021,0.74872017,-0.69921476,0.49790606,0.102831244,-0.019365896,-0.8365211,0.36386362,-0.77587306,0.6367201,0.61595434,0.4473313,0.4054976,0.7577984,-0.66278964,-0.7387523,0.1536048,-0.26192942,-0.8028181,0.341548,0.50958705,-0.6161338,-0.08373015,-0.87076384,-1.0253006,0.15595639,-0.8412735,0.30616355,-0.74733406,0.9647735,-0.6694966,0.6645165,0.82589626,0.44931704,-0.75829846,-0.7105096,0.38725728,0.12382627,0.56431353,-0.06019144,0.07535723,-0.39785248,0.76107544,0.29716045,-0.36576316,1.0527791,-0.7718837,-0.11748753,0.6211671,-0.52129734,-0.7713272,0.9002323,-0.38877916,-0.0655378,0.5776114,-0.7061957,0.03158963,0.906328,-0.5153584,-0.8931319,0.26490217,0.083695136,-0.52424717,-0.8988629,0.109578,-0.6983164,-0.6853297,-0.0056099924,-0.49158975,-0.42811215,0.12521632,0.23095931,-0.2427283,-0.11861614,-0.9279463,-0.07711264],[-0.21995384,0.7288998,0.29122642,0.5134188,-0.55692756,0.2170873,0.85377204,-0.67393595,0.46939084,-0.6741406,0.5132097,0.51734704,0.97836846,-0.33671018,-0.06183494,-0.8121462,0.595146,0.41434753,0.10002229,0.028116425,0.0227203,-0.82750124,-0.29792535,-0.10021903,-0.57910687,-0.20376407,0.5488265,-0.5110755,0.96830463,-0.049077667,0.2707344,-0.97089803,0.78746265,-0.8610288,0.8304908,-0.27749917,-0.10068301,-0.31030673,0.29329887,-0.3795742,0.91161805,-1.0275205,-0.06994063,-0.97503686,-0.8737105,0.025610782,0.89318216,-0.019378811,0.5504634,0.745857,-0.51985836,0.69821674,-0.07108217,0.84380466,-0.8421609,0.7692365,-0.12686294,0.2484754,0.7874395,-0.7049794,0.32618764,0.81832397,-0.29377827,0.7935626,0.42104417,0.5559256,-0.7270046,-1.0199038,0.9635293,0.38011965,0.5881818,0.9249491,-0.9692932,0.683085,0.80614185,-0.023375217,0.24651226,0.09083925,0.89044935,-0.30501014,-0.7279508,-0.7255566,-0.0015202485,-0.08219581,-0.5543636,-0.24178708,0.71599597,0.41992876,-1.0187246,0.3501098,-0.5896632,0.18394455,0.13829249,0.83390963,-0.057260055,-0.24974383,-0.77020824,0.85146964,-0.98125535,-0.61676997,0.55805874,-0.4013379,0.18950199,0.6947284,0.6987915,-0.9949407,0.6125631,0.9506176,0.9434044,-0.7808737,-0.29574603,-0.4479828,-0.45272553,0.6804711,0.65935165,0.4753601,0.6515215,-0.08404177,-0.15560427,-0.5787453,-0.23947632,0.48221093,-0.3490926,-0.8122902,-0.036940143,-0.8082623,-0.5067215,0.97368914,0.5353808,0.73022324,-0.77871984,0.998097,-0.4052151,0.56605405,-0.9240581,-0.5418962,0.90429205,-0.17715324,-0.30577013,-0.99198467,-0.31050754,0.3766022,0.081392765,-0.15668184,-0.94871724,-0.7580715,0.54399264,0.12568922,0.9555742,0.5642921,0.18481442,0.9495399,-0.6282311,0.19696511,0.9205322,-0.69948804,-0.98303777,0.5171706,-0.43681654,-0.39879945,0.3945583,-0.008148451,-0.68834406,0.1406852,0.19684987,0.86576635,-0.6454732,-0.06572155,-0.035192214,-0.9572518,0.7345815,-0.7573361,-0.1330595,-0.3450436,0.310985,0.2659794,-0.92466426,0.071480155,-0.0996244,0.7557755,0.9026707,-0.26768038,0.8306076,-0.65164214,0.6118419,0.47367653,-0.58883506,0.39644447,0.70405346,0.24026051,0.62561995,-0.99604505,-0.58399755],[0.03655772,-0.5650189,-0.4023277,-0.3780685,0.7790695,-0.3996863,0.3329531,-0.7059611,-0.5414278,-0.17574702,0.37746182,0.046676558,0.9917997,0.6142875,0.3924613,-0.84083205,0.510049,0.036240608,-0.4190668,-0.979853,0.09841026,-0.69157565,-0.22422943,0.87903523,0.9304073,0.6754252,-0.4338604,-0.15986325,-0.046588242,0.7381704,-0.7026728,0.8628651,-0.7705182,-0.9391139,-0.62834066,0.54035044,0.8428514,-0.15674165,-0.4504748,0.09093093,0.947925,0.44494388,-0.867287,-0.8408086,0.32395798,0.030216904,-0.0918383,-0.35199618,-0.42696205,0.55633336,0.3797166,-0.5959464,-0.8078191,0.5309342,0.57325715,0.26380825,0.3340189,0.6176487,-0.9089048,-1.0101116,-0.12826756,0.32060406,-0.23296238,-0.17326514,0.45065537,-0.1251603,-0.47665134,0.7830391,0.5576548,-0.9959523,-0.59543204,0.80325025,-0.08748391,-0.8262514,0.6187913,0.75137794,-0.86357164,-0.3249936,0.91661674,-0.19666126,-0.7979847,-0.12585475,0.808884,0.23066546,-0.31735975,0.9299881,-0.033215307,0.6585798,0.9689584,0.20357083,0.34244582,-0.208058,0.3184123,-0.45412377,0.24599819,0.66939,-0.018204955,-0.13360351,-0.66564023,-0.103043415,0.53931034,-0.34397522,-0.2452419,-0.8932304,0.18606755,-0.51092505,1.033663,0.8580039,-0.15008214,-0.35145697,-0.6107728,-0.087464996,-0.324211,0.5588272,-0.83221954,-1.0139724,-1.028398,0.72713697,0.30060035,0.5680955,-0.50370467,-0.5148137,0.21617578,0.9232242,0.90765643,-0.63753766,-0.16018897,0.7796045,0.35919842,0.49161473,0.011228368,-0.96101826,0.15744096,-0.502136,-0.8503383,-0.7878159,0.33657768,-0.41820723,-0.7757744,-0.9621009,-0.94068867,0.26422843,0.134272,-0.07612629,0.4396722,0.5090597,0.6431146,-0.8489499,-0.6943409,-0.8016036,-0.21679394,0.3997078,0.4690987,-0.2859952,0.8512458,0.3695091,-0.07621575,-0.45250347,0.67932457,-0.8339973,0.9665592,0.92161685,0.53245234,-0.3556848,0.99698657,0.34804508,0.079638794,-0.06953484,-0.61002284,-0.9574472,0.16486876,0.24489892,0.29653907,-0.6385776,-0.1935436,-0.8471588,-0.73844504,-0.5885365,0.8766332,0.14710666,-0.28284547,-0.10555988,0.11905539,-0.9177154,0.84491885,-0.022856524,-0.24629736,-0.1927887,-0.62152714,0.7887669,-0.23069835,0.62118524,-0.79722893],[0.38852558,-0.33511448,-0.8268314,-0.9764681,0.84663445,0.78619844,-0.9109666,-0.9476909,0.1725875,0.8246627,-0.2853423,0.41913223,0.25241935,-0.16417514,-0.075582415,-0.07696559,0.7860018,0.47183874,-0.3036802,0.77585846,-0.2702584,0.96693957,0.95854706,-0.22824858,-0.3045297,-0.4070743,0.16736287,0.32459933,-0.720672,0.6741581,0.91838783,0.23296535,-1.0120072,0.009325396,-0.22757888,0.756005,-0.7365191,-0.22015743,-1.0640689,0.28983817,0.5125695,0.8711169,0.10231333,-0.1248434,-0.67995393,-0.06931253,0.8379055,0.059894193,0.0024875721,0.27604967,-0.21878311,0.6715843,-0.109622575,-0.5118231,0.82692504,0.44501677,-0.5900061,0.19546925,-0.1257474,0.017597036,-0.7739795,-0.22156516,-0.45226565,-0.9062531,-0.086498864,-0.7168081,-0.14851148,0.51424843,0.28773126,-0.94021004,0.592662,0.41206568,0.211438,-0.9811658,0.8948972,-0.1282036,-0.33982712,-0.7509995,-0.48511916,-0.4062857,0.58059967,0.35866114,-0.6130606,-0.54146385,-0.21935965,0.45804584,0.009463963,0.57947725,-0.1875075,0.5107374,-0.5241473,-0.79160756,0.7878617,0.71956694,-0.5701612,-0.2976503,-0.27509865,-0.13731866,-0.044660058,0.7396598,-0.044628017,-0.90677124,0.49472597,0.4499185,-0.4140935,0.6001826,-0.08267051,0.8053989,0.7036684,-0.48290548,0.9093425,-0.92551136,0.64163566,0.6749435,0.33820218,0.90994304,0.42964423,0.024155116,0.02078961,-0.80248153,-0.46736965,-0.4461328,-0.5272845,-0.8090163,-0.785176,0.6713846,0.8723061,-0.710907,0.19232506,0.8861934,-0.6694555,-0.80987144,-0.44192877,-0.010488884,0.7197036,-0.68668985,1.0247582,0.22072324,-0.41774788,-0.90114,-0.9699067,-0.23047349,-0.9617747,0.013373031,-0.45089862,-0.8586153,-0.38665757,-0.033544514,0.02194629,-0.08915893,-0.09332006,0.7730877,-0.24676327,-0.79747766,-0.3076489,-0.6919051,0.8752721,-0.25859764,-0.23081811,-0.22079992,-0.8515121,-0.97569126,0.4080236,-0.10804893,-0.051677052,-0.5377186,0.16858341,-1.0424181,-0.5924742,-0.88287956,0.14583173,0.121233664,0.39758545,-0.9734784,-0.017069869,-0.28473353,-0.1941406,0.8550473,0.011604899,0.9219237,-0.53748083,-0.71656376,0.65751636,0.6555981,-0.67414236,0.96454716,-0.7851526,-0.16478541,0.9747589,-0.20718999,-0.55476505,0.9425808,0.21547186],[-0.59359884,-0.027307432,-0.15102741,0.6346253,-0.027489837,-0.0022057835,-0.997123,0.29182318,-0.27447677,0.19139072,-0.86296296,-0.6102944,-0.1837467,-0.93882287,0.83540416,-0.09222625,0.77582353,0.6672911,-0.18427616,0.039483853,-0.8656752,-0.76279664,-0.19785789,-0.5236163,-0.129082,-0.64647686,-0.606207,0.31962237,-0.1525771,0.681101,0.38484055,0.7009089,0.38934985,-0.4107207,-0.4175683,0.23885587,0.29082954,0.9568885,-0.45003718,1.0501714,0.985586,-0.4633811,-0.14546634,-0.24145366,0.6927322,0.65277624,-0.7620299,-0.54828393,0.5194553,-0.39766315,-0.64504206,0.66222143,0.8002715,0.7897797,-0.89982647,-0.43087375,0.6720452,-0.4057686,-0.07325918,-0.1629139,0.012541157,-0.95896256,0.26157188,-0.46419212,-0.5486069,1.0168813,-0.5323449,-0.19699968,0.1593976,0.33586907,-0.07127232,0.3939648,-0.7577028,0.6003656,-0.902308,-0.024619544,0.5452851,0.44290495,-0.1562922,-0.082761995,0.014094653,-0.31034482,-0.99281263,0.11952939,0.27294746,0.8682207,0.15507711,0.56673044,0.8057643,0.014092419,-1.0291032,-0.0020832138,0.29807502,-0.48212788,0.6929876,0.2977815,0.3529128,0.48756254,-0.65123624,0.75390285,0.30731657,0.6203866,0.27534935,0.019168613,0.39643615,0.26221788,-0.8245148,0.7059086,-0.8192629,0.4968918,0.59335876,0.26656175,1.01729,-0.7273344,0.61373484,-0.16865395,0.9555046,0.7519736,-0.48227474,-0.38504374,0.05852024,0.28554374,-0.3144393,0.1339411,0.22671108,-0.4108053,-0.81064266,0.73158324,0.015595971,0.058656964,0.0658359,-0.29710653,-0.09503586,-0.87874955,0.9759385,-0.7471288,1.0000932,0.68296087,-0.7540837,0.3893751,-0.887738,0.07312061,0.071906544,-0.43969572,-0.35882843,0.48275304,0.4507283,0.15388083,-0.19279826,-0.26158658,-0.4082306,-0.43163186,0.5647332,0.741333,-0.026130112,-0.76513267,0.57965845,0.7096497,0.7988069,-0.41093317,1.0811529,0.1124107,0.549258,-0.29260784,-0.8265964,0.7350886,0.51561093,-0.6271117,-0.2969771,-0.34770903,0.42675045,-0.2993262,-0.5105166,0.0016426448,-0.522812,-0.6027908,0.89217556,-0.021253414,-0.56936264,-0.49226838,0.4180344,0.23319152,-0.016041469,-0.38231492,-0.13596207,0.5346829,0.9654258,-0.50691843,0.91972315,-0.9028758,0.26868942,-0.36224705,-0.8709906],[-0.77298164,0.37416404,0.10076142,0.17937207,-0.8574692,-0.9167337,-0.6309215,-0.4593575,0.8815137,0.19756462,-0.9108346,0.24425992,0.9706056,-0.42104143,0.83957344,0.7356545,-0.748635,-0.2468089,0.844823,0.08404346,0.34752387,0.7805862,0.2942662,0.32410744,0.7433934,-0.53898877,-0.15417399,0.37762547,-0.088038005,0.6101062,0.46889475,-0.4807463,-0.4134546,-0.2152907,0.8622891,-0.3316901,0.7870154,0.595432,-0.6906667,-0.65624374,0.847031,-0.90613264,-0.19918032,0.11212214,0.75278467,-0.24170826,0.027786525,0.17719616,-0.09513443,-0.7118172,-0.65418863,0.7438619,0.75289434,-0.8304734,-0.17644538,0.05337338,0.54298156,-0.28061286,0.63227284,0.20863661,0.23711136,0.6393002,0.21553694,-0.7110664,-0.020737495,0.9462701,0.8841282,0.31435534,-0.6761893,-0.36018533,0.13944419,-0.16420761,-0.2732747,-0.39028397,-0.30325535,-0.64172673,-0.8074438,-0.3772868,-0.80166537,-0.082812995,0.39742732,0.98983645,-0.526106,-0.11870369,-0.59855783,0.46071908,0.69854456,0.78377473,0.243639,0.4200303,0.06566532,0.61647534,0.23267071,0.08874972,-0.05072251,0.67408884,0.41672623,0.36926833,-0.6957805,0.05583803,-0.9301986,0.31295758,-0.4932078,0.5315945,-0.92438966,0.6375698,-0.14901641,-0.07142306,-0.4903736,0.23448497,0.092986345,-0.09598237,-0.039209396,0.48473236,-0.85389537,0.21975622,-0.332704,0.6665431,0.65651786,0.55464906,-0.75390494,0.15568739,-0.7330933,0.3658618,0.6897752,0.36226475,0.61517584,0.60803556,-0.8542511,0.4654707,0.81941676,0.43405554,-0.04851428,-0.72899276,-0.13206084,-0.10477199,-0.33197093,0.78425205,0.9473381,-0.096166715,-0.27162197,-0.15412489,0.70368576,0.5199057,0.50717956,0.10870023,-0.43970907,0.21009554,-0.32636076,0.7249938,0.3380255,0.07377356,0.2954354,0.44593972,0.5961077,-0.06584668,-0.25018305,-0.21384434,0.5811093,-0.9824146,-0.5216976,-0.38822395,-0.9065584,-0.47148034,-0.32198626,-0.56471103,-0.3131745,-0.2357329,-0.26374567,-0.3537185,0.06795875,0.8258451,0.34073988,-0.8622527,-0.28053758,-0.20493121,-0.05188556,0.9293849,0.4650607,0.2623514,0.32384947,0.13618349,0.97598535,0.81717783,0.33024237,-0.74405265,0.13370147,0.020674765,0.87799156,0.29132417,-0.03548534,-0.30657408,-0.50188696],[-0.7300481,0.31981042,0.07732945,0.2228174,-0.5942167,0.059631906,0.10239046,0.50041026,0.68648404,0.39044532,-0.6497822,-0.25404274,-0.48712292,0.88114244,-0.29070482,0.5076861,0.47130078,-0.39531463,-0.3446092,0.6996361,-0.02576483,0.78945965,-0.20727658,-0.18856259,-0.964002,-0.28582177,-0.29965368,-0.105216764,-0.05072246,-0.5835801,0.87575454,-0.25831643,0.7934181,-0.4168563,0.5641029,0.745047,0.0026317334,-0.07384919,-1.0187619,0.70770556,0.4028071,-0.58451027,-0.8909547,0.8449606,-0.2559299,0.2460204,-0.35081172,-0.63431627,0.12776476,-0.3997955,-0.9163378,-0.11243204,-0.9363574,0.793173,-0.7618476,0.09950456,-0.4895012,-0.89095914,0.21779749,0.6339205,-0.07891076,0.5256104,0.9200804,-1.091411,-0.44727102,-0.3240646,-0.1635941,-0.15611526,-0.26786697,-0.5851981,0.1689627,-0.99516475,0.1419398,0.88730526,-0.6880993,-0.9052017,0.8171333,0.27070287,0.9545553,0.8287928,0.8271938,0.28693733,-0.12555113,-0.05845828,0.62677467,0.8611989,-0.6272863,0.45752254,0.7717372,-0.6479959,-0.6526927,0.65290916,0.48898733,-0.889525,0.6324528,0.19291154,0.54303956,0.91213274,-0.4292056,0.21741283,-0.43062994,-0.026107442,0.10001863,-0.11035748,0.30331898,-0.7843711,0.72359216,-0.6017998,0.4144775,0.7387373,-0.17076692,-0.8014049,-0.09667485,-0.7859521,0.60223645,-0.22562647,0.7499013,0.85090536,0.26513198,-0.3775689,-0.662239,0.6071445,-0.7833195,0.053909957,0.80506986,-0.21609975,0.84407425,0.25793332,0.13209206,0.18402211,-0.74061775,0.11032635,-0.5005143,0.24654609,-0.41038364,0.06819704,-0.45984325,-0.8169457,0.4073799,-0.096552156,-0.82973003,-0.54665077,-0.5196373,0.44400474,-0.99851525,-0.16177875,0.28877345,-0.5134931,0.41228998,-0.24724412,0.7756568,0.77526915,0.013942467,-0.16942658,0.11011905,-0.7723304,0.85791504,-0.23124361,0.76768374,0.85624737,-0.10937457,-0.39838484,0.17499675,-0.16873868,0.06353578,-0.10566968,-0.8728174,-0.02634793,-0.5183792,0.053093918,0.9251416,0.11836728,-1.0594702,0.4556168,0.2703878,0.17069887,0.78926176,0.30233392,-0.94114894,0.3883448,-0.50134766,0.2741022,0.7193822,-1.0438439,-0.0665139,-0.6891135,0.42759082,-0.6563209,-0.7855201,0.31406507,-0.6111912,-0.9044799,-0.6847333],[0.9769756,0.82150364,0.6963962,0.16659895,-0.36663663,-0.9410392,0.28568137,-0.48278537,-0.09605253,-0.49582466,0.75471324,0.42118478,-0.62085426,0.91078436,0.95201147,0.4039694,-0.06149637,-0.57166785,-0.6051699,-0.86228925,0.94729763,0.49430865,0.19174363,0.7113793,0.55284035,-0.6312789,0.9945401,0.2435347,-0.66969365,-0.78015333,-0.13043943,-0.4403403,0.14179032,-0.10065267,-0.7758558,0.7148631,-0.108595796,0.9348798,-0.54234165,-0.8751585,0.89570874,-0.6319435,-0.401061,0.6571605,-0.055800766,-0.3399366,-0.91502595,0.6749642,0.49281088,-0.5315774,0.7426108,-0.11072537,0.06799666,-0.38497317,-0.9043907,0.2979844,0.6805579,0.85800934,-0.03906761,-0.46077442,0.90709746,-0.38848704,0.8901499,-0.42583886,-0.7023707,0.698766,0.37678736,-0.54383516,-0.04621255,0.5116816,0.2854667,0.76012105,0.4311748,0.40565246,0.25214392,0.9036424,0.45840636,0.13780311,-0.22261621,-0.90294534,0.60173225,-0.78841007,0.17217734,-0.4902756,-0.8054123,-0.8290443,-0.5385063,-0.35743186,0.95410943,0.018500961,-0.97997624,0.4681287,0.1303148,0.27077305,0.45141146,0.39688817,-0.361379,-0.105463624,0.32302475,-0.93306637,0.11655238,0.84289694,-0.3445828,0.08740071,0.2986345,-0.13590431,0.111926064,0.65013766,0.88257504,-0.8162445,0.4958018,0.016563505,0.68786067,-0.5302819,-0.53292865,-0.70420337,0.9312747,0.4324574,-0.9844232,0.30092928,0.11750391,-0.20205238,0.46821484,0.28170854,0.16289236,0.8191986,-0.018048394,0.28745154,-0.14613745,0.27150032,-0.6073119,-0.3766801,0.8599094,0.32239047,-0.25752246,-0.07728278,-0.91225815,-0.902862,0.6042671,0.053612985,-0.44712964,-0.042946074,0.52447295,-0.5292248,0.5964584,0.10584591,0.38899723,0.9107309,0.8705763,-0.27774766,-0.8881944,0.6872234,0.3281181,0.2696238,-0.13430685,0.8869804,0.19731636,0.7883644,0.6782559,0.023246543,0.018386526,0.5419175,0.021883493,0.010884913,-0.66547006,0.84415627,-0.64086056,-0.702478,0.18960685,-0.055713188,-0.97623456,-0.7939283,-0.96576685,0.48266673,-0.9906131,-0.60262555,0.8580719,-0.10633511,0.3647442,0.79395574,-0.6301813,0.6326474,-0.977617,-0.039719637,-0.2150529,-0.09953464,-0.19923823,0.29120126,0.39891508,0.28108123,0.24225745,0.28195596,0.6656821],[-0.2601795,0.96269476,0.97446734,-0.21632762,0.48989213,0.5631874,-0.6802346,-0.8504954,0.24888101,-0.18101141,0.13964891,-0.11157997,-0.22439365,-0.29553124,-0.72087574,-0.55400646,0.67771757,-0.80089235,0.83391184,0.39766446,0.64542204,-0.4798437,0.73199576,-0.17700286,0.098997705,-0.30105013,-0.16348381,0.5536784,0.9486205,-0.37972537,0.57033634,-0.2647048,0.5465634,0.5235769,0.61750734,0.7457517,-0.58817625,0.86584586,-0.09606386,0.6810309,0.05354113,-0.5835299,-0.3156966,0.82390153,-0.95271313,0.6335081,0.13110192,0.67650944,0.3114345,0.91126937,-0.49747404,-0.60579187,0.14688797,0.9494033,0.5447311,0.065415934,0.7250545,0.71681285,-0.08948587,0.483972,0.08760855,0.8698587,0.40831518,0.7567889,0.3167534,0.32050613,-0.19871402,0.83391124,-0.43032554,-0.30148232,0.9609739,-0.10177629,-0.36758623,0.198518,-0.33154213,0.947642,-0.7758416,0.5448367,0.18842547,-0.082584806,0.21204177,0.9089749,0.29377097,0.8369076,-0.49836078,0.24910271,-0.24049123,-0.059256073,0.8158753,-0.8042309,0.1006806,-0.37511063,-0.71980715,-0.78267944,0.5298625,-0.58993083,0.96899784,0.31001076,0.9205543,-0.08687839,0.51498955,-0.58844316,-0.95488113,0.87592727,-0.97903347,-0.8570053,0.6659445,0.021861387,-0.42384174,-0.8478966,0.19030608,-0.3306444,0.891341,0.85248387,0.34631714,0.9450417,-0.78856117,-0.04426575,-0.7602776,0.80718595,0.80958194,0.4031341,0.67797494,0.51771164,-0.5121118,0.53149664,-0.2592616,0.86111873,-0.0015832413,-0.7601359,0.43667072,0.23029917,-0.5437931,0.30443743,0.7698017,-0.6910722,-0.019298432,-0.30542678,0.024086067,0.271512,0.94175166,-0.68021774,-0.7341916,-0.5036351,-0.40027443,-0.8524558,-0.5323031,0.051187605,0.07303971,0.8283065,0.93098956,-0.07723494,-0.88691545,-0.9004314,0.7360318,0.442699,-0.47467962,0.5950062,-0.1172218,-0.015106202,0.07776445,0.85446155,-0.15910643,0.2879886,-0.6393874,0.37269047,-0.62507135,-0.8739502,-0.84411484,-0.400374,0.016589556,-0.9129658,0.21171494,0.9080571,0.5202132,-0.61876446,0.30838442,-0.048585813,-0.3227726,-0.7050345,-0.05193728,0.84088933,-0.083301,-0.0066044843,0.8314303,0.82602406,-0.25887585,-0.33954692,-0.07471382,0.6388156,0.9036643,-0.99504477,0.031170627],[0.5941307,0.016084198,-0.09332941,0.43529838,0.58552414,-0.67253023,0.12634926,-0.117653415,-0.8905258,-0.30999315,-0.66241217,0.5436443,0.7131197,0.54412675,-0.02305497,-0.31165183,-0.991101,0.37391797,-0.7071248,-0.20614468,-0.34927908,0.36813402,-0.47683528,-0.28075507,1.1782712,-0.453192,0.27969104,0.7331524,0.030670391,0.6667575,-0.43789783,-0.50901073,-0.20506439,-0.862586,0.52208096,0.12101946,-0.77105135,0.0048139584,0.20485485,0.1485924,0.4070993,0.83457524,0.51703084,-0.9621789,-0.7692086,0.8521076,-0.9296846,-0.9251959,-0.9273734,0.11878685,0.9772645,-0.87018794,-0.6848294,-0.66030586,-0.43251592,-0.84762275,0.65016216,-0.36790338,0.5621771,-0.78859544,-0.41060272,0.63826454,-0.5386431,-0.4842822,0.15349185,0.76452774,-0.69625854,0.8465265,-0.32658052,-0.6673972,-0.030308872,0.47618333,-0.80500084,0.26047593,0.3208818,0.20077328,0.18286125,0.08819357,-0.22393851,-0.22062282,0.82769436,0.05978151,-0.33054307,0.6596661,0.45418325,-0.18147148,0.8692368,0.82213897,-0.5623375,-0.018936526,-0.36929467,-0.79413146,1.1011566,0.62414056,-0.40361023,0.98802245,0.6008397,0.8123597,0.51151943,-0.44580045,0.29120404,-0.30588624,-0.60735667,0.660522,1.0652704,0.2076754,0.19094452,-0.65110415,-0.09733252,0.63446313,0.45431083,-0.30861068,-0.45612064,0.6773817,0.46938288,0.1219852,0.4055371,-0.46739176,0.37989366,0.9132162,0.6723738,-0.87514347,0.14272441,0.5412939,0.2109088,-0.61535466,-0.0005606477,-0.44635943,0.57928485,0.7503959,0.1772839,-0.93101454,-0.8270265,0.8859457,-0.12940474,0.42606378,-0.3076989,0.5752121,-0.7277123,0.5724927,-0.08931428,-0.5451963,-0.22226602,-0.55271083,0.18087845,-0.08073835,0.7930016,-0.59441334,-0.77813953,0.4736474,0.7468581,-0.16310374,-0.65688515,-0.23883846,-0.19726223,-0.33508933,-0.9782666,-0.100354426,0.93533844,-0.018582303,0.6290081,-0.13386807,-0.699543,0.36309186,0.91891885,-0.38792124,0.9338848,-0.4016925,0.9093829,0.33280417,-1.0830404,-1.0186436,-0.4551962,-0.50890714,0.2672022,0.39892966,-0.28252947,-0.31425908,-0.72100306,0.4565004,0.94400615,0.046682887,-0.35233524,0.3007806,-0.63267016,0.7339896,-0.24558137,-0.448221,-0.4760902,0.704382,0.402439,0.3384353,0.5472238],[0.86945075,0.62921584,-0.87158644,0.72072184,-0.9565205,-0.29949817,-0.30747443,0.13228089,0.29314148,-0.20466185,-0.0713583,-0.08369422,0.6300255,0.07086312,-0.3800632,-0.77451587,-0.1157667,-0.60818976,0.68032026,0.66134155,-0.4623751,-0.5667844,0.93963075,-0.658087,-0.2501791,-0.5324499,0.75068134,-0.3003794,-0.59179056,-0.32169452,-0.64370954,0.54894924,0.05350466,-0.66619813,-0.36475936,0.3389966,-0.7757379,-0.44661644,-0.6016774,-0.7721527,0.17363355,-0.6508675,0.39383,-0.5483879,0.29544216,0.85807925,-0.9030624,-0.084712945,0.3252351,-0.25661394,-0.20328042,0.5354652,-0.04907058,-0.9806496,0.15111245,0.48723102,-0.2580604,0.6765937,0.9137929,-0.31168437,-0.5508843,-0.7440672,-0.29509777,0.7245196,0.19031014,0.77283,-0.487032,0.14212304,0.41022605,-0.6499601,0.59675896,0.89300305,0.5659124,0.5195574,0.8917875,0.46229607,-0.5576577,0.0022827694,-0.061604876,1.0391022,-0.36626074,0.9441806,-0.6259732,0.8229452,-0.68652964,0.9188995,0.46398565,-0.6709473,-0.06872238,-0.6047736,0.39692724,0.7137878,-0.35857147,0.8412652,-0.9134791,0.42682776,0.5054528,-0.79327327,-0.78886694,1.0680534,-0.16286533,0.677392,-0.23188916,-0.071577884,-0.13456006,-0.8142021,-0.78980994,0.034295823,-0.72996813,-0.9678778,-0.5562494,-0.89180315,0.03692997,0.32703966,0.36839607,-0.43145528,0.3797653,-0.17034484,-0.8753496,-0.0049209455,0.17932254,-0.4356441,0.59269005,0.70954144,0.9174556,0.092654236,0.929448,-0.12943299,0.7608773,0.60635644,-0.6773201,-0.6541657,0.03572719,-0.15403457,0.8184481,-0.82177234,0.41253987,0.86503196,0.39373028,0.14520106,0.049923286,0.9051156,0.58273214,0.1953216,0.062036064,-0.4453294,-0.7996008,-0.9916431,0.50710976,0.46209392,-0.92945457,0.46789774,0.0022349712,-0.032297168,-0.21067132,0.6105979,-0.4546683,-0.4384786,0.17800248,-0.08820621,0.870668,-0.042672392,-0.9510185,0.43988967,0.3134924,0.8606392,-0.5824396,-1.0121015,-0.19386244,-0.38600865,-0.35968992,0.23754197,0.62159413,-0.4408535,-0.686912,0.5221931,0.23504184,-0.26335564,-0.2286098,0.6685727,-0.9222385,-0.460128,-0.7491202,0.79936004,-1.0517353,0.23334837,-0.10713834,0.38849673,-0.83073527,-0.8020343,0.4155332,-0.2407827,0.58023065],[0.74120784,0.6479739,-0.79391396,-0.3903248,-0.88669366,0.1492742,0.24947332,-0.3105251,-0.92556393,-0.5551459,-1.0617527,0.14521793,-0.0057055852,0.14575404,0.4170036,-0.69671464,-0.051252335,-0.85637623,-0.38227478,-0.2851965,-0.77099264,0.85787576,0.13655141,0.40418696,-0.052013867,-0.6972532,-0.5635505,-0.994594,-0.6273875,0.6244332,0.33719653,0.58947355,0.8919265,0.51452535,-0.53552806,0.30999288,0.25933263,0.20997348,-0.92557514,0.27315181,-0.8970381,0.40654773,-0.47954866,0.76014096,0.34082264,0.63095045,1.0336125,0.11686701,-0.5569412,-0.6195791,0.1408509,-0.59044063,0.12684438,0.7037674,-0.89862025,-0.42515585,-0.09057937,-0.050285388,1.0065795,-0.4348418,-0.433575,0.96306854,0.38349587,-0.19510606,0.8316525,-0.3935817,-0.21990766,0.7215672,0.11053591,-0.6971244,0.16734281,0.5788642,-0.97164714,0.51116943,0.8273219,0.8112074,0.38483793,0.024555275,0.9759933,0.28533125,-0.5344565,-0.78311235,0.18662623,-0.04021835,0.4599536,0.07654244,-0.27010292,0.88528746,0.10531341,-0.58174783,0.5135157,0.46483853,0.4857189,0.099898145,-0.24185951,-0.49778152,-0.06739932,-0.09406035,1.0187395,0.6480943,0.3583794,0.7077913,0.10035768,0.62377644,0.63295805,-0.67115426,-0.48477563,0.4457143,0.13663179,-0.06544821,-0.38559687,0.93840414,0.024086628,-0.2207425,0.099512026,0.92968136,0.9029628,0.7385394,0.5568192,-0.6288181,-0.4209059,0.7242063,0.27669233,-0.8315077,0.004990696,-0.7180364,0.3873309,0.13055022,-0.24636671,-0.89205027,0.926773,0.62317145,0.8856459,-0.73385316,-0.8303421,0.18254614,0.99427384,-0.9016242,0.8433906,-0.7561905,-0.55064946,0.5747993,-0.51615185,-0.3355186,-0.38142717,-0.5912011,-0.92009336,0.35079056,-0.2549725,0.98096436,-0.7304838,0.5425929,-0.6286091,0.13093172,-0.15447204,-0.95477384,0.5170275,-0.67745936,1.0467557,-0.35725382,0.9119597,-0.70672965,0.27111933,-0.31962836,0.99749345,-0.29108483,0.2901967,-0.27973717,-0.62455803,0.4055411,0.29241812,0.92205036,-0.7902,0.68650323,-0.35996887,-0.927233,-0.12685193,0.23734933,-0.09011758,0.3851204,0.21577972,0.043951266,0.4032246,-0.056307532,-0.53765535,-0.81236464,-0.008970025,-0.18717349,0.44163236,0.31691912,-0.11865753,0.86775,0.7313586],[0.94706345,0.9732101,0.20765446,-0.42654783,-0.85288316,-0.123197846,0.25587127,0.72502625,0.88104326,0.23031512,-0.97962385,0.62576115,-0.7291041,-0.4777507,-0.77114016,-0.24452181,-0.24833287,0.22289118,0.5604879,0.47550547,-0.32278574,0.90970945,-0.9733832,0.15192609,0.3933288,-0.19170019,-0.505043,0.43345374,-0.9123747,-0.8840931,0.9153665,0.41258484,0.087153874,0.25036722,0.37855718,0.09718511,1.003167,0.3918137,0.11667284,0.59480596,-0.3632261,0.49131694,-0.93500423,0.45829222,-0.81241596,0.22681339,0.6564825,0.5748699,0.7433929,-0.0023558645,-0.7888566,-0.9684349,-0.10928884,0.45005688,-0.5990431,0.29897246,0.49686956,-0.7934853,-0.8287447,0.520541,0.70435107,-0.17383553,-0.9253279,0.8710197,-0.59726554,0.0363434,-0.7627929,-0.104222864,-0.71340644,-0.1365861,-0.7336234,-0.38785264,0.7357424,-0.5464819,-0.080405846,-0.34796473,0.54882276,-0.096293226,-0.7356638,0.7899002,-0.9488816,-0.9280424,0.00036961611,-0.5834352,-0.8840592,0.63958246,-0.29893303,0.1630917,0.6002589,-0.49930522,-0.44490072,-0.9313972,0.5069617,0.07332345,0.60067326,-0.71980506,-0.051136002,0.770408,-0.6415826,-0.2893262,-0.5729106,-0.17005813,-0.29141217,0.6098854,0.95187473,-0.16924396,0.5193823,0.51468074,-0.9375717,-0.89402944,0.31992817,0.3104905,0.3339558,-0.63453734,-0.9818204,-0.64706427,-0.37658778,0.5830125,-0.2617008,0.2479816,-0.79207706,0.20403424,-0.69470495,0.24882814,-0.57744503,-0.54857004,0.8449287,-0.83340687,0.8243477,0.023267532,0.39972222,0.18430212,0.19743618,-0.007730795,-0.79776746,-0.7428032,-0.52148736,0.8237154,0.7820713,-0.6470798,0.08115243,0.27315348,0.80960363,-0.8051005,0.5587005,0.5764946,0.90234655,-0.19142908,0.12496531,-0.49153772,-0.7491792,-0.5466819,0.076491304,-0.97486776,0.14034547,-0.5962807,-0.7999233,0.9751853,0.28600693,0.8713031,-0.65078855,-0.5607587,0.004741451,0.3949356,0.1842609,-0.55939716,0.0008320236,-0.84057313,-0.43146327,-0.57946086,0.38001135,-0.80207026,0.91555035,-0.63047874,0.71384686,-0.7174052,-0.7626067,0.458442,0.9586583,-0.9534377,0.35708606,0.47903994,0.53207976,0.98478085,-0.119771935,-0.6738532,0.6950688,0.2625774,0.6464485,0.4455884,-0.57577425,-0.25346446,-0.89006084],[0.048432406,0.8527681,-0.37932673,0.45857075,-0.5085217,0.09862988,0.46340123,-0.57176214,0.21842484,0.08265276,-0.87582177,0.5945064,-1.0057294,0.333805,0.16291949,0.31374288,-0.15034385,-0.25761256,0.5026143,0.7370006,-0.6313192,-0.8985735,-0.32475975,-0.36254412,-0.13549912,0.807374,0.7522008,0.71341145,-0.12257757,-0.5172178,-0.13388276,0.8506033,-0.28336304,0.42581424,0.65303695,0.38536724,-0.4687613,-0.10447212,0.7024047,0.9874125,-0.4454372,-0.58719206,0.63942504,0.5885208,0.7298494,0.22945537,-0.30356455,-0.20890114,0.8912937,-0.5556613,-0.49158606,0.12111539,-0.33174425,-0.13672662,-0.24728157,1.0085317,0.47818184,-0.70000505,-0.6070405,0.8459899,-0.02777125,0.13788481,0.68361175,0.8052947,-0.78907686,0.52084863,0.19081001,0.99417037,0.5125935,0.35384244,0.0040481105,0.6935441,0.8701834,-0.56773764,0.93389326,-0.25107142,0.19048914,-0.5150728,0.4272877,-0.6611112,-0.045386165,0.014593457,-0.3607206,0.7636133,-0.466385,-0.09181534,0.24296658,-0.21637744,-0.17742638,0.16831782,-0.7932255,0.37065333,0.4179655,-0.21302874,0.53493744,-0.02484448,-0.874753,-0.9253585,0.09572809,0.67127097,0.93104327,0.016388232,-0.6404217,0.7781618,-0.9387977,-0.42369476,0.0716873,0.6462611,-0.7881336,-0.29678327,-0.5102785,0.9097401,-1.0156468,-0.14714596,-0.9764497,0.3539924,-0.5985789,0.3093603,-0.008773008,0.56679904,-0.7731574,-0.21874267,-0.34505126,-0.8013342,-0.27289578,0.78654593,0.7770262,0.51512545,-0.55880284,-0.7589683,0.5490265,-0.98626435,-0.04987575,-0.2598803,0.85606563,0.95124614,0.13967456,-0.51258016,-0.43720248,-0.25190136,0.2903691,0.31299073,-0.77102256,0.775285,-0.16248095,0.89444035,0.33608204,0.50936747,0.35280946,0.26314276,0.5596559,-0.99081707,0.49227196,0.35095134,-0.63275963,-0.47286448,0.95764077,-0.9178757,0.4679722,0.19411209,0.017749863,0.8026459,-0.018907849,0.867563,-0.4041431,-0.7936056,-0.8750115,0.44943014,-0.28904492,-0.4767257,0.6332285,0.18084739,-0.7981218,0.91115284,-0.089703836,0.07006625,0.01244847,-0.7655801,0.8099436,-0.42757693,-0.24253148,0.5463601,-0.34679377,0.40389878,-0.38943362,-0.60133207,0.030491272,-0.44207105,0.37364542,-0.8372647,-0.46147227,0.14338444,0.609133],[0.58868414,0.40326983,-0.9760381,-0.68687296,-0.2941846,-0.71917224,0.3437325,0.57695985,-0.506194,0.78339803,0.08556096,-0.21790007,0.16232091,-0.84920996,0.24367872,0.51922554,0.44986048,0.5521716,-0.40499765,-0.67250633,0.8808708,0.31658444,-0.5904682,0.023716891,-0.11976085,-0.6856452,-0.86020726,-0.8101319,0.6538208,0.473279,0.37019792,-0.93190676,-0.074737385,0.788731,-0.07581397,-0.14471644,0.7830008,0.13955083,-0.73126394,-0.45122397,0.6034416,-0.065276384,0.9386272,0.9476198,0.9564399,-0.96561533,0.37925076,-0.46998808,0.638183,0.42944884,-0.7172789,1.0063872,-0.62501913,-0.25662556,-0.39568338,0.19321029,-0.7486399,-0.18768793,0.3859815,0.55443174,0.83285207,0.92661685,0.14053388,0.7997473,0.39769337,0.3594783,-0.4322423,-0.40749618,0.13253549,-0.14017005,0.006731728,0.47513488,0.92499506,-0.82980555,-0.7120778,0.088721424,-0.4768509,0.905796,0.037058607,0.5955352,-0.7906229,-0.8222563,0.8707386,-0.7874872,0.100752786,-0.48463562,0.030541634,-0.7852918,-0.57916427,-0.86507,0.42204732,-0.14005266,0.97460395,0.68330723,-0.69340897,-0.83680177,-0.67956,0.10854932,-0.94594955,0.28205436,0.65267104,0.9998179,-0.3030898,-0.23118486,0.9618889,0.6151628,0.45894563,0.5598504,0.31170604,0.91225225,-0.31243837,-0.865555,-0.6571609,0.83022904,-0.09135778,-0.36692712,-0.37988785,-0.5661679,-0.7407504,0.5550171,-0.14286123,0.2172727,0.26495755,-0.33021754,-0.45985818,0.53205454,-0.9212702,-0.14248934,0.005700527,0.24351625,-0.91314596,0.7518344,0.5590009,-0.7707934,0.70946336,0.63197696,0.09191745,-0.07682659,0.735095,0.89017195,-0.4554662,0.6077492,0.57585955,-0.87344754,0.28869677,-0.013936069,0.14797707,0.26693204,-0.6278583,0.022478761,-0.3548585,0.63221073,-0.683293,-0.4405421,0.8926418,0.6622473,-0.14534116,0.7857027,0.4844783,0.7238921,-0.78401893,0.43933973,0.06779235,-0.28459734,-0.8704296,-0.6209599,0.004186059,0.8436669,0.08924049,0.003717285,0.8459545,0.73575586,-0.71840703,0.026132764,-0.7876288,-0.63910997,0.66989607,0.6161116,0.3009812,-0.4640268,0.17686579,-0.36371556,0.8225571,0.57127184,0.8702393,-0.8516113,-0.56506896,0.8535675,-0.10637045,-0.1036977,-0.86633307,-0.8910778,0.25030568],[-0.46127692,-0.7314788,0.89701957,0.2217222,0.72383684,0.21631156,-0.1400636,-0.3787025,0.42484766,-0.43463796,-0.32097706,0.106290124,-0.5540027,0.12933743,0.9424628,-0.38439405,0.9969307,0.83718747,0.91381705,0.6472036,-0.5386593,0.94180006,-0.32711446,0.4309723,0.72933316,0.30557424,0.2697721,-0.041904297,0.99417704,0.92776674,0.7226416,0.8213069,0.09322415,0.36424983,0.016441993,-0.4429954,0.5230285,0.822603,-0.7541954,-0.41680038,0.6310697,-0.19645083,-0.62968475,0.37587157,-0.03313722,-0.68407893,-0.24712011,0.19439985,-0.9368591,0.36502737,0.4618351,0.2482426,-0.6622025,0.8720488,0.40366066,0.24738868,-0.17152883,-0.65276587,-0.7095242,-0.3657538,-0.20527345,0.0054435097,-0.5474265,0.59941846,-0.4847219,0.75112367,-0.46083948,-0.66296244,-0.46918422,-0.73313546,0.52778107,0.10349879,-0.40986693,-0.58904076,0.5507075,-0.93558836,-0.7333071,0.990868,0.4347538,-0.2876278,-0.50433624,-0.4888715,-0.28340513,-0.4107722,0.05229433,0.008605732,-0.44267362,-0.9589805,0.0260289,0.20052788,0.55460453,0.19101493,-0.6917808,-0.07476456,-0.6512604,0.37045377,-0.76532215,-0.56494,-0.22880152,-0.1855564,-0.22426437,0.6139045,-0.55363387,-0.59206206,0.4710587,-0.4066443,-0.0239356,-0.7693751,0.6161084,0.70209473,-0.8535808,-0.5821402,-0.6624613,0.79992276,-0.89835984,-0.9691809,0.64684016,0.7855982,0.0921288,-0.6288361,-0.118597224,0.0897435,0.28801346,-0.4181291,-0.28643095,0.4538813,-0.19645819,-0.8806248,0.83464473,0.6764978,-0.6463078,-0.104929626,-0.7927014,0.6240736,0.6964808,-0.12788162,-0.45769674,-0.89851266,0.58768404,0.08150732,0.2631636,-0.22454694,-0.4163886,-0.7237935,-0.33523756,0.4976935,0.8137577,0.08890733,0.4925675,-0.28289172,-0.32290018,-0.5844381,0.8350676,-0.9843553,0.3835016,-0.5258166,-0.6541529,0.3581001,-0.16768551,-0.33457673,-0.30230004,-0.9858383,0.61489403,0.34481096,-0.5580923,-0.84624857,-0.062675215,0.13360727,0.7422209,0.73575234,0.07461148,0.44520053,-0.75476867,-0.116516106,-0.43020093,-0.093932144,-0.9164866,0.6614655,0.465023,0.8199994,-0.09061894,0.02740654,0.5615217,0.545422,0.4383131,0.046402637,-0.4728822,0.8899147,0.48015696,0.95923126,-0.21461223,-0.15114258,-0.5079708],[-1.0642178,-0.54980206,-0.5357436,0.7818679,-0.88679284,-0.16105533,0.81771046,-0.43600625,0.16801256,1.0114374,0.6629075,0.51533526,0.61113465,0.28659734,-0.72631544,0.92936206,0.86368114,0.83138496,-0.17397657,-0.70831656,0.45620382,0.69836515,0.3375397,-0.13461679,0.33336663,0.76526606,-0.9424113,-0.66287315,-0.7820232,-0.34939384,0.12949826,0.810749,-0.907992,-0.52304673,0.62049806,-0.2643241,0.33659488,-0.48339614,-0.6241365,-0.23319735,0.34080127,-0.24157205,0.962783,0.7637955,0.35793313,0.54391843,0.4554766,0.6684427,-0.2730932,-0.36961806,-0.31724483,0.48064956,-0.63145715,0.16699733,-0.016677842,-0.631221,0.3982954,-0.45895064,0.6559216,0.49588615,0.3946206,-0.5955765,-0.70511,0.3753201,-0.48910135,-0.55246943,0.38979104,0.10185741,-0.064075544,0.32135332,-0.7374455,0.7012285,-0.18081835,0.3630467,0.43522415,0.5953122,0.2503385,0.54539543,-0.3046205,-0.9182537,0.5060707,0.7930476,-0.80377203,-0.64665735,-0.86278796,0.48965526,0.6965964,-0.022193924,-0.88472116,0.58825344,-0.5278418,0.40823895,0.85001457,0.90683824,-0.5000989,0.37374765,0.9242545,0.60545355,-0.5557815,0.66472995,-0.9026042,-0.58631545,0.65003604,0.3131024,0.65804714,0.55138004,-0.8442174,0.58992714,0.2796383,-0.48547104,0.59350157,-0.7870911,-0.4454774,0.19647405,-0.44537953,-0.84481746,-0.07193753,0.69524306,-0.3087281,-0.37783307,-0.8807718,0.4283325,0.08093428,-0.28863916,-0.11977963,0.18919699,-0.9748657,-0.7519396,-0.97978085,0.9745329,0.19159739,-0.8315471,0.80868334,0.9631748,0.0008709553,-0.80672324,0.5310566,-0.9536954,0.71783084,0.9399883,0.16461009,0.77757245,0.75406,-0.979907,0.93705195,0.88471496,0.3503655,0.50213194,-0.735582,-0.27237204,-0.8937167,-0.28750902,-0.54116255,0.39390266,-1.0310024,-0.19747336,-0.3024674,0.68977845,-0.6914712,-0.75905347,-0.30130827,0.55795616,0.3939214,0.8529053,0.8442906,-0.9948912,0.72158134,-0.740495,-0.641912,-0.6833198,0.32837978,0.20674887,-0.20838849,-0.56670815,0.12680571,0.09471318,0.9974341,0.9684133,0.007145628,0.7416503,-0.39909378,-0.3557782,-0.7595808,-0.529154,0.006057953,0.2044101,0.5210349,0.3594509,-0.6053717,-0.9006428,0.4331195,-0.2676589,-0.549132],[-0.5824445,-0.089499354,0.92599946,-0.3060175,-0.52258784,0.9107828,0.5733593,-0.9774174,-0.02724931,0.1419507,-0.5226863,-0.98770463,0.5766234,0.26181474,-0.018237086,-0.44584224,0.08904322,0.3360597,0.33996752,-0.79333794,0.19707166,0.61144394,-0.72713166,0.22444548,-0.7746062,-0.12886398,0.19794446,-0.7906583,0.90246904,0.48663843,-0.92098683,-0.42493847,0.91112185,0.85444605,0.42498153,0.60775054,-0.3768558,0.71750623,0.5590312,-0.0055158297,0.056070995,-0.6319913,-0.40224877,-0.6110593,-0.48370036,0.6902891,0.89652145,0.46415442,-0.8531908,-0.9183422,0.1399815,0.2743856,-0.41511914,-0.5448286,-0.89994746,-0.5578935,-0.9644368,0.30927578,-0.84681654,-0.011752558,-0.76863563,0.94026184,0.820836,0.11628405,-0.86703223,-0.8721385,0.3315317,0.9724872,0.6735062,-0.11991902,0.8311201,0.119045086,-0.063214965,0.41985595,0.5503247,-0.84441495,-0.26356217,-0.05015138,0.13938472,-0.31607428,0.75981605,-0.30091953,0.16697738,-0.33612096,0.8116207,-0.92707324,-0.2552352,0.44171426,0.4415044,-0.33024484,-0.2966125,0.27266514,0.7583592,-0.28670582,-0.49169862,0.664581,-0.12825406,-0.31729573,0.98035467,-0.5481223,-0.8121242,0.73193854,-0.9827026,0.9212973,-0.95317984,0.6806356,-0.6023679,0.5349221,-0.010471788,0.6645474,-0.16788262,-0.72007567,-0.9699228,-0.3211499,-0.5717956,0.90769786,-0.90462494,-0.4269802,-0.86659884,-1.0012678,-0.89343554,-0.5800239,0.62420434,-0.89234835,0.59977293,0.57069385,-0.6744373,0.18740986,0.82780945,0.39993486,-0.11646444,0.2239454,-0.8321479,1.011505,0.60381883,0.14138341,-0.8411445,-0.8533122,0.72568595,0.1135602,0.11095437,-0.50182503,0.3472478,0.7873254,0.6880457,-0.036796,-0.19857447,0.4842125,-0.19394407,-0.2553343,-0.6532933,-0.27338699,0.66839206,-0.7603518,0.29401898,0.65216047,0.6231357,0.38732547,0.10232866,0.14790373,-0.95249087,-0.12694156,-0.6107823,0.48896283,0.6593786,0.55969167,0.65182775,-0.110980645,-0.5505658,0.16538087,0.90063566,-0.9625573,-0.35226592,-0.32708475,0.20944192,-0.52234536,-0.63487184,0.09658958,-0.43598086,-0.58258337,0.5231282,0.78825665,-0.5706689,0.8181958,-0.9185439,-0.70079076,0.38619867,0.76710385,-0.47325242,-0.13967857,0.61844504,0.83151937,0.31523398],[0.15171841,0.42101327,-0.60869235,0.4325278,0.113578916,-0.10108667,-0.47288927,-0.6177307,0.39331853,0.41738862,0.64539653,-0.029558303,-0.3825511,0.25435624,-0.5419946,-0.41096613,-0.7586882,-0.07379478,-0.95476514,0.17623195,-0.36417797,0.64364177,-0.09071657,-0.20879933,-0.70695627,-0.40939668,0.3367517,-0.6528922,-0.29116336,0.7967535,-0.87404925,0.93730325,0.45419365,0.2852371,0.19442473,-0.20954333,-0.078209154,0.31234717,0.7792267,0.37127247,0.6175498,-0.03791807,-0.5525439,-0.57781,-0.7943437,-0.9184101,1.048539,0.88214976,0.4417741,0.4251867,-0.45383167,-0.8589461,0.6784497,-0.6990406,0.7412413,-0.045027446,-0.75080806,-0.65770346,-0.53914326,-0.47178754,0.9165765,0.6249896,-0.15830259,0.92369175,-0.82510215,0.3818029,-0.43685377,0.65271604,0.7391669,-0.50775605,-0.18748151,0.7606751,-0.14783481,-0.19887128,-0.2675483,-0.018529117,-0.25649536,-0.35770598,-0.5625215,0.81562185,-0.20530769,0.18448699,0.66042894,0.79111236,-0.8908933,0.058128834,-0.8492381,-0.902259,-0.97601646,-0.6651276,-0.55873364,0.40890753,0.77967834,-0.61019063,-0.3609891,-0.8029428,-0.11139587,-0.40963152,-0.0155190695,-0.33129838,-0.9034296,-0.41609037,0.82219213,-0.9858743,-0.44463664,-0.88845044,-0.48615664,0.16724867,-0.977777,-0.79403627,0.57102984,-0.8968849,0.74501765,-0.42789885,0.042254113,0.7823007,-0.20120095,-0.36462966,0.1374706,-0.5492162,-0.9337754,-0.3716038,-0.5360065,0.85139537,-0.42606464,-0.5938572,0.40274224,0.14953089,-0.6420407,-0.267192,0.6130641,0.9458705,-0.7964601,0.41437778,-0.49587998,0.87006325,0.53991413,-0.91447574,0.5511569,-0.46631834,0.29468083,-0.95952857,-0.17238632,-0.19951302,0.29499328,0.06798676,0.3597068,-0.40635502,0.4733381,0.5593364,0.8397058,0.28303465,1.0051398,0.4720355,0.4311428,-0.2895835,-0.9619741,-0.13111392,0.52547127,0.9337166,0.45081478,0.8128789,-0.68007064,-0.18648009,-0.71029073,0.3613888,-0.15030392,0.7109653,0.3736219,-0.93071395,-0.4142145,0.121374436,0.78784126,0.36951658,-0.7345174,-0.92092854,0.79087085,0.40635264,0.47479728,0.73585325,0.96988446,0.5997228,0.84038806,0.5522216,0.79996085,0.7379596,-0.13519366,-0.046801,-0.07677829,0.2925173,-0.8971298,-0.14601535,0.49200252],[-0.68725777,-0.4345084,-0.3124115,-0.7298837,0.9975171,-0.19721971,0.3630789,-0.18839294,-0.30943245,0.12460459,0.66967726,-0.5488518,-0.94681114,-0.02541727,-0.81948465,-0.3846558,-0.3087866,0.9547974,0.39672524,-0.1399305,0.6169633,0.05667716,-0.8136259,-0.4990938,0.5917641,0.8007785,-0.9998259,-0.1709413,0.9826514,0.2780897,-0.17412521,-0.68049246,0.6775742,0.32021838,-0.19307768,0.6286612,0.09781159,-0.058072165,-0.81961894,-0.9474835,0.5179706,-0.19924444,0.63533646,0.82409143,0.638318,0.03107368,0.11874065,0.1012035,0.62156457,-0.65932685,0.97652805,0.14424531,-0.79896456,0.40184373,0.16440992,-0.7179519,-0.79457676,-0.5526165,0.34331515,0.32881805,0.5327872,-0.7236311,-0.7864833,-0.73124355,0.45123452,-0.95454997,-0.14311576,0.38934222,0.3487289,0.6258956,0.8955987,0.28491813,0.62948626,0.31765643,-0.2708171,0.5857734,-0.8718844,-0.056252085,0.11961771,-0.8245481,0.14335996,-0.4659007,-0.26357484,-0.19983366,-0.7018075,0.18739629,-0.6859734,-0.676729,-0.5862981,-0.25313947,-0.03258966,0.4434634,0.9390989,-0.21645187,-0.6542385,0.4651605,-0.6788635,-0.92007434,-0.6913195,0.60937595,0.7274295,-0.26176757,-0.3376688,0.6165976,-0.9920859,0.14206593,0.52143764,-0.32891694,0.93768525,0.14388481,-0.15961911,-0.68371546,-0.91289943,0.6760195,0.94340175,1.0051192,-0.6859371,-0.7843115,1.0067202,0.65004593,-0.21923067,0.9607564,-0.7685336,-0.34359616,0.47813424,0.2209268,0.8367606,-0.5834824,-0.7413648,-0.6298989,0.39738894,0.3754236,-0.031001128,0.55623233,-0.7955718,-0.74906313,0.31599757,0.67443603,0.05185514,0.08436719,-0.46941876,0.89147437,-0.8156741,0.71763885,0.09876908,-0.14934689,-0.25315034,0.84676665,-0.5807062,0.9163453,0.7629363,0.7760284,0.49174744,0.7870697,0.17980039,0.6188724,0.25928316,0.11146654,0.53181314,-0.84785265,0.04159627,-0.73889524,-0.3091186,-0.45336604,0.53622204,-0.15409163,0.45455772,0.80815434,-0.87493634,0.9355004,-0.59392726,0.6579462,-0.26541334,0.31155777,-0.63612664,0.54661185,0.8707174,0.4381128,0.7323198,0.0002865713,-0.20602962,0.295318,-0.9121154,0.8278437,-0.04471008,0.87026745,0.07696033,0.21937487,0.9705073,-0.23315251,0.69493616,-0.91159254,-0.4265386],[-0.040234476,-0.14526516,-0.996116,-0.48956248,-0.36906642,0.7125663,0.42756885,-0.8466277,-0.8579867,0.23337732,0.5586368,-0.48884594,0.41298336,-0.367893,-0.9825043,-0.50532424,-0.7603454,0.881642,-0.020815544,-0.9431293,0.0007279569,-0.1738726,-0.7361974,0.18895078,-0.6850518,0.2722166,-0.61688286,0.058956973,0.6688183,-0.5027268,-0.40522748,-0.10657908,-0.8038967,-0.3861814,-0.25889534,0.80767536,-1.0389056,-0.30308494,0.71461624,-0.40038317,-0.00214278,0.4574817,0.7089387,-0.5667914,-0.77814347,0.851396,-0.102490254,-0.46995255,-0.7645657,0.35823625,0.44786003,0.5559261,-0.39090332,0.24470423,-0.6738948,-0.1269398,0.6600243,0.78943586,0.11412844,0.9129604,-0.048479427,0.2179111,-0.39776298,0.38469994,-0.26895773,-0.8969327,0.82282096,-0.624996,-0.60336316,0.31283575,-0.5340158,0.32734272,-0.79287434,-0.6646398,0.05757538,0.93575186,-0.79923344,-0.9961618,-0.0316494,-0.3233152,0.42884547,-0.63188446,-0.37744597,-0.57930136,0.78496677,-0.6492079,0.80607873,-0.09541894,-0.64720094,-0.3488814,-0.4146115,-0.089314856,0.88065565,-0.27638942,-0.57878864,0.617094,0.26875165,0.249023,-0.20129468,-0.1506299,-0.8919251,-0.9500167,-0.9649897,-0.5754367,0.3889423,0.04002164,-0.49389815,0.12493675,-0.3668675,0.33920267,0.6469697,-0.76507914,-0.33952618,-0.7263348,0.65076077,0.10826907,0.61090225,0.15668114,0.70975447,0.48409832,0.8336629,-0.31458086,-0.6370877,-0.9622416,-0.25587165,0.44343337,0.39575577,-0.48075336,-0.824774,0.44358826,0.35364115,0.9248634,0.43257722,0.31376427,0.51093185,-0.34036085,-0.31871808,0.5388812,0.72231096,-0.41389763,0.17972109,0.7386952,0.62094444,0.73794407,-0.84297085,-0.18187629,-0.8715347,0.93409085,0.8876065,-0.07445762,0.33389285,-0.83715266,-0.4815607,-0.65718734,0.6484026,0.18405458,0.4648528,-0.25287366,0.99740505,-0.9884502,0.6814453,-0.5743341,-0.816045,0.2537842,0.6158008,0.96391237,0.8228126,0.13869724,0.06431654,-0.50084096,0.9452788,0.094764724,-0.4635609,0.9036927,0.48511246,0.5221615,-0.77985036,0.95030886,0.7573164,-0.95028573,-0.009219035,0.8389786,0.8335735,-0.8602495,0.8814774,-0.38567975,1.0072708,-0.2895076,-0.42436078,0.46399373,0.013532496,0.31198648,-0.37384278],[0.28217062,0.20984177,0.8709138,0.88168925,0.0595747,0.70958406,-0.06775745,0.69766295,0.989731,-0.07826691,-0.54101396,-0.82796675,-0.29029074,-0.18703285,0.7677338,-0.16865502,0.8130099,-0.75318253,0.10409414,-0.2910741,-0.19933711,-0.55905014,-0.768416,0.4771833,-0.48844093,0.47408807,-0.42732212,-0.10126641,-0.8441356,0.4518685,-0.22059374,0.62770367,0.47334847,0.7569869,0.5030012,-0.90199924,0.06711138,-0.24269189,0.87305766,0.06897434,0.8117951,0.7254044,-0.66497993,0.8524648,0.80297345,0.2577463,-0.7919727,0.19644465,0.721308,-0.0500562,0.59135544,-0.7964024,0.16305922,0.9320208,0.38653737,-0.7057625,0.8878183,-0.5524798,-0.8183859,0.93437976,0.6779294,0.44646078,0.33225104,-0.7701139,-0.41062164,0.28095794,-0.72912776,0.4197872,0.16693749,0.7188392,-0.32549667,0.07623272,-0.96477866,0.78892463,-0.68861175,0.33622915,0.5181733,-0.61023945,-0.44883317,0.30881345,0.80176014,-0.3357573,0.252152,0.6744974,0.1068461,-0.1368058,0.23357621,0.17950316,0.090068206,-0.7619474,0.3016719,0.8700819,-0.5168058,-0.5959326,0.44602516,-0.8263923,0.9611066,-0.5198651,-0.04397733,-0.9731977,-0.5313776,-0.3435805,-0.79009455,0.896411,0.85504025,-0.04871382,0.4889342,-0.4946866,0.2717566,-0.268285,-0.793408,-0.77662814,-0.17353527,0.4795492,0.32928333,0.64767313,0.22845964,0.5665359,-0.06785773,-0.9404795,0.85483587,-0.3025197,0.42788064,-0.5229791,0.7016913,0.9797109,-0.47874033,-0.95569986,-0.39410076,0.7107413,-0.35633007,0.8389315,0.4719032,-0.14027229,-0.87042177,0.9552112,-0.3529477,0.7615298,-0.26408795,0.50065506,-0.18686092,-0.66844785,-0.5216171,0.28914604,0.673754,0.4152602,0.12749061,-0.09805671,-0.15169254,0.83066946,-0.4420556,0.9391713,-0.97816557,-0.022958938,-0.6556932,-0.1609446,-0.39460108,-0.92092633,0.60322994,0.4054972,0.17289078,0.120122254,0.17218184,0.9987506,0.76468873,0.68491447,0.73547477,-0.56215036,0.48142785,0.5095759,0.7389434,0.6405586,-0.57706726,0.67493063,-0.29586843,-0.5272275,0.20749073,0.14365087,-0.9231575,-0.7459473,-0.45699155,0.69726455,-0.101975724,-0.07079396,-0.36640424,0.87204885,0.0016182188,0.94032836,-0.11194858,-0.82573473,-0.954158,0.12252448,-0.6844883],[-0.28011075,0.08130036,-0.85743487,0.71516967,0.016750934,0.52740103,-0.5126803,-0.28664118,-0.9561624,0.6861172,-0.06963898,-0.3095061,-0.47399178,0.61932904,0.3258934,-0.35823292,0.85576624,-0.24651977,0.6514648,-0.44030124,-0.63992536,-0.481131,0.0065577403,0.49347505,-0.2810477,-0.584285,0.12044702,-0.47188616,-0.79078805,0.92746717,-0.865137,-0.055479992,-0.2951205,0.0076018227,-0.41493466,0.8636211,0.5426973,-0.616777,0.4133422,-0.63861215,-0.33823067,-0.7939038,-0.17098024,-0.29458535,-0.24146985,-0.4238809,0.9200867,-0.5890798,0.24699251,-0.8084717,0.5585178,-0.35196555,-0.87734497,-0.055013824,0.34858027,1.0081419,-0.92605054,-0.6446133,0.87523776,0.45925853,-0.31902942,0.9295678,0.26883528,-0.26096886,-0.4917611,-0.9093245,-0.8906093,0.49096316,0.53263503,-0.2350898,0.057041887,0.5953509,-0.6664473,0.81298876,-0.04549835,0.7841378,0.68163204,0.76385474,0.77619725,-0.16836248,-0.40685317,0.42554152,0.3592479,-0.22638078,0.16914034,0.12257171,0.48587003,0.11369769,0.42918104,-0.72809994,0.88169473,0.7028968,0.88065994,-0.09805639,0.7899546,0.8536277,0.54277456,0.47900707,-0.06664079,-0.6399583,0.096645765,-0.4475159,-0.78351545,0.89312524,0.8998498,0.07691941,-0.40561104,0.68676656,0.2303745,-0.8226672,-0.7021325,0.43744293,0.7251349,0.95685196,0.4297736,-0.2019488,-0.45706353,-0.08246393,0.38179556,-0.18225496,0.3328874,-0.0827977,-0.4401362,-0.50707483,-0.4943595,0.20663613,-0.2391723,0.28917348,0.51262844,0.35758716,0.60992306,-0.04431852,-0.27383167,0.7345646,0.38117945,0.26765513,-0.11427615,0.09697525,-0.80061585,0.74776226,0.2199781,0.018826842,-0.5664383,0.60521615,0.8029039,0.75992453,0.20000844,-0.7879095,0.8886268,-0.8235511,0.123287074,-0.48028097,-0.31932887,0.7075662,-0.78303134,0.4200127,-0.560358,0.772733,-0.7400527,-0.62088895,0.31067434,-0.592758,0.001662215,-0.65179545,0.36920205,0.8243361,0.450795,0.25770763,0.62243634,0.36333382,-0.07237491,0.7441921,-0.64047396,0.8165557,0.60860807,-0.34413114,0.162153,0.3406839,0.014141489,0.98069334,0.38056377,0.27933258,0.5982721,-0.15288188,-0.61050653,0.0116898175,-0.71124715,-0.9467061,0.6158669,-0.78295517,-0.36501864,-0.6180608,0.011874131],[0.06673169,0.054204427,-0.7695851,-0.5716319,0.21670717,0.6955492,-0.7209692,0.047212753,0.9423455,-0.15597482,-0.19262002,0.35874736,-0.78059965,-0.55245024,0.6693537,0.51351064,-0.086570986,0.348765,-0.95700085,0.19014776,-0.24550913,0.35729936,-0.30740255,0.14301036,0.73015666,1.0192884,-0.6902584,-0.35159984,0.58577824,0.94564867,0.3718105,-0.74720854,-0.16213676,0.65050375,-0.44184628,0.9978977,-0.53604275,-0.74144536,0.1218403,0.76361567,0.77812994,0.11885677,0.59160465,-0.011266294,-0.17579058,0.25457537,0.8470517,-0.78555113,-0.39768592,-0.8781629,-0.37474748,0.7343692,0.91023093,0.22110468,-0.63357913,0.65594786,0.6750734,0.2576602,0.84776837,-0.5285421,0.66548496,0.07064561,-0.0028219675,-0.41980755,0.63045996,0.1512928,0.9035371,-0.17892745,0.8838066,-0.67603755,-0.36418602,-0.9730317,0.5107108,1.0131541,-0.5037689,-0.012262751,-0.065553375,0.04168605,0.8772846,-0.03963107,0.7891596,-0.5442929,-0.46087176,0.89494586,0.41175964,0.7697893,0.07689017,-0.6642973,-0.6986931,0.03909799,-0.19491296,-0.26803342,0.40949145,-0.7027597,0.7935659,-0.4317328,-0.62291884,0.2766541,0.4929195,0.38653502,-0.53884023,-0.8586857,-0.37897748,-0.19832644,-0.52216655,0.33926544,-0.60983366,-0.858842,0.026233764,0.019791752,-0.934037,0.41738406,0.36462826,0.506509,-0.4609106,0.85323447,0.5867546,-0.45670235,-0.117990576,0.43954897,-0.26295775,-0.7086082,-0.7171933,0.28987378,0.5864312,-0.37962365,0.33800936,0.34455362,0.34158733,0.7705653,-0.764965,0.92525613,-0.96748394,0.1400805,0.97851026,0.966586,-0.8499311,-0.65369654,0.34355426,0.45634976,-0.22038554,0.48117334,-0.62507,0.63188607,-0.83100593,0.10668307,-0.9069164,0.35755938,0.18040141,-0.6931012,-0.517917,-0.25452125,0.57387155,0.44374686,0.878755,-0.24510445,0.6666352,-0.66964626,0.2643955,-1.0011046,0.3510826,-0.6119464,0.948398,-0.1460798,-0.4551858,0.35973555,0.77170676,0.44159383,0.15219328,-0.3095001,0.92890877,-0.73269683,-0.95900965,-0.65810466,-0.744469,-0.41914526,0.290995,-0.038910978,-0.33559605,0.7144118,-0.910097,0.26350516,-0.29711992,0.5212516,-0.37605342,0.71726936,0.4321054,0.37103012,0.98971397,0.64040864,-0.59277564,0.067968026,-0.3942643],[0.0018633679,-0.02619182,-0.21111643,-0.30943084,0.7519858,0.58834654,-0.53569645,-0.04872851,0.34569237,-0.65868396,0.63722897,-0.8296488,0.6847957,-0.6217069,-0.6818232,0.2401967,-0.7595783,-0.2218986,-0.42066523,0.547773,0.10471299,0.70100474,-0.27684638,0.36475885,0.38384864,0.22774532,0.48805606,-0.6046225,-0.88957924,0.40503314,-0.95876575,-1.0215522,0.8042104,-0.83715737,0.52922136,0.8912162,0.09586154,-0.988445,-0.84592766,0.109784365,-0.315944,-0.44082972,-0.9631064,-0.15880792,0.6442074,-0.99211234,-0.32973984,-0.7503999,0.6262366,-1.0069584,-0.13548164,-0.984659,-0.77855927,-0.04501638,-0.6699543,-0.6188296,-0.7699349,-0.6898713,0.011066424,0.58225745,0.5785686,0.9790697,-0.9123066,-0.87595403,0.87835276,0.5380278,0.07914769,0.5263832,0.38367984,0.35137722,-0.7553942,0.8253178,0.7524985,-0.51132655,0.47925687,-0.48510692,0.9385923,0.3730862,-0.19815409,-0.68606293,-0.5731731,-0.785705,0.32527095,0.94769084,-0.15177025,0.17546317,0.51594967,-0.02975879,-0.28614497,-0.57046276,-0.053704087,0.22532588,-0.98129827,-0.8802749,0.39054832,-0.46425214,0.9516006,0.9138117,0.24069813,-0.91495603,0.6162661,0.653593,0.9487085,0.49648717,0.626341,-1.0216258,-0.38694295,-0.22101013,0.9877658,0.7514678,0.12316114,1.0075768,-0.42481875,-0.72356874,0.80270594,0.46157542,0.87026745,0.00005457069,-0.6739685,-0.5793544,0.010771643,-0.47619683,-0.43701828,0.41626564,0.79921615,-0.65014434,-0.3477234,0.4622289,0.25725296,-0.21651451,-0.8151612,-0.60110855,0.21085499,-0.56048155,0.6297927,-0.5591823,-0.31074908,-0.2572524,-0.53175104,-0.96798635,-0.5829736,-0.010116852,0.87554747,0.6035672,0.2654659,0.2565156,0.10194101,-0.090617865,0.58868235,-0.040603932,0.41339794,0.37730333,0.17973031,-0.8426586,-0.26523122,0.6240958,-0.80422133,-0.7398123,0.31951895,0.4562866,0.40753862,-0.32365486,0.7543378,0.07874811,-0.91373706,-0.3467389,0.7569138,0.090590924,0.70968056,0.0022877092,-0.6365042,-0.09770537,0.57496953,-0.044524122,-0.40182474,0.55865777,-0.71291363,0.7843446,-0.31232172,0.1885873,-0.102133855,-0.5974452,-0.004230921,-0.45853108,0.8893359,0.7034439,0.73999006,-0.42348468,-0.69116527,0.39339873,-0.20651852,-0.25827333,0.968358],[-0.31835294,-0.57545,-0.10747362,0.028158907,-0.6850157,-0.71352834,-0.2508089,-0.0632312,0.7634044,-0.69642466,1.00114,-0.65432775,0.89277774,0.22489788,0.16403577,-0.5276853,0.6977799,-0.7807041,0.37428918,0.6293773,-0.6607773,-0.79894704,0.7894598,-0.12951258,0.18958014,-0.34077314,0.69949985,-0.5376185,-0.14963329,0.9189773,-0.8797291,0.63818276,1.0249237,1.073511,-0.94091284,0.7918803,0.39518312,-0.8949359,-0.9782043,-0.35930768,-0.504732,0.0928841,0.4326289,-0.28235778,0.037839912,-0.0788352,0.12014623,0.51378846,-0.86207736,-0.7267099,-0.6777152,0.50130105,0.52220654,-1.0080932,-0.7245769,0.08123813,-0.0027248524,-0.20684212,0.5261308,-0.24291986,0.25276658,-0.4682451,0.86266327,-0.9277964,0.31519446,0.7936318,-1.1479217,-0.42009804,0.6720512,0.40247124,0.55122185,0.24428742,0.1412316,1.0134282,0.79029965,0.052129447,0.054065563,-0.7952172,-0.38933787,0.749612,-0.48535824,-0.51758033,-0.77721703,0.074582905,0.19113141,-0.11121254,-0.13928792,0.5699579,-0.20806177,-0.97579706,0.4923074,