{"layer_count":4,"input_len":192,"hidden_len":288,"output_len":3,"x":[[1.0,0.8627451,0.92941177,0.9254902,0.90588236,0.96862745,0.9647059,0.8666667,0.9254902,0.91764706,0.7137255,0.7647059,0.78039217,0.9098039,0.9764706,0.9764706,0.9372549,1.0,1.0,0.9098039,1.0,1.0,0.89411765,0.99607843,0.99607843,0.52156866,0.54901963,0.41960785,0.44313726,0.45490196,0.47058824,0.4,0.39607844,0.42745098,0.34901962,0.33333334,0.39607844,0.5882353,0.61960787,0.6666667,0.89411765,0.91764706,0.92156863,0.92156863,0.9764706,0.972549,0.92156863,0.99607843,0.99607843,0.57254905,0.6,0.3647059,0.47843137,0.4392157,0.39215687,0.3647059,0.3254902,0.34117648,0.42352942,0.37254903,0.40392157,0.47058824,0.40784314,0.41960785,0.5411765,0.52156866,0.5568628,0.90588236,0.9098039,0.90588236,0.9647059,1.0,1.0,0.3254902,0.25490198,0.21568628,0.35686275,0.25882354,0.2509804,0.47058824,0.38039216,0.34509805,0.47058824,0.40784314,0.3764706,0.4627451,0.39215687,0.4,0.5764706,0.5411765,0.56078434,0.88235295,0.8901961,0.8862745,0.95686275,0.96862745,0.95686275,0.27058825,0.22745098,0.24313726,0.3764706,0.34901962,0.3882353,0.2901961,0.24313726,0.2901961,0.34901962,0.28235295,0.29411766,0.42745098,0.34117648,0.30980393,0.41568628,0.33333334,0.3372549,0.47058824,0.40784314,0.41568628,0.80784315,0.7921569,0.7607843,0.5058824,0.4509804,0.3764706,0.47843137,0.4627451,0.44705883,0.36862746,0.3529412,0.35686275,0.32156864,0.29803923,0.30588236,0.5058824,0.4509804,0.3647059,0.4392157,0.38039216,0.36078432,0.47843137,0.4745098,0.5058824,0.6862745,0.7372549,0.78431374,0.2784314,0.1764706,0.16862746,0.4509804,0.34901962,0.2784314,0.47058824,0.39215687,0.3137255,0.3372549,0.27058825,0.22352941,0.3254902,0.23529412,0.23137255,0.45490196,0.3647059,0.3529412,0.49803922,0.45490196,0.4,0.5529412,0.5411765,0.5019608,0.20392157,0.14901961,0.12941177,0.24705882,0.16862746,0.16078432,0.20392157,0.15294118,0.17254902,0.21960784,0.14509805,0.15294118,0.3137255,0.22745098,0.21568628,0.3137255,0.23137255,0.27450982,0.31764707,0.21960784,0.23137255,0.5058824,0.48235294,0.36078432],[1.0,-0.9998147,0.9999927,0.99993676,-0.99995583,0.9991544,0.999996,0.9999976,-0.9996485,-0.9999899,0.99999446,0.9999997,-0.98768485,0.999999,0.9999972,0.94527614,-0.9938518,0.9948744,-0.9999997,-0.9940518,0.9987949,-1.0,0.99851364,-0.9999991,-0.9999249,-0.9998144,0.997914,-0.9999998,-0.99999934,-0.9986836,0.28682673,0.99995667,0.9999996,0.9351284,0.99990296,0.9998526,0.8294459,-0.99970424,-0.9999979,0.99942607,0.9999907,-0.9997696,-0.9995354,-0.9979165,0.961221,0.9999997,-0.9998532,-0.99998665,-0.9999742,-0.99990845,0.9999637,0.99999774,-0.999817,0.9999624,-0.99999994,-0.9913229,-0.9999998,-0.9999872,-0.98624456,-0.99999964,-0.13606946,0.99973917,-0.9982327,0.9973501,-0.99905616,0.9996571,0.99948406,-0.9976372,0.99988574,0.9945977,0.98714614,-0.98593897,0.37550336,-1.0,0.7749947,0.9944979,0.9993289,-0.97943234,-0.99918026,0.9999982,0.99527705,0.99978626,0.98913664,0.9998078,-0.9999917,0.9999675,0.9999387,0.29484767,0.4977371,0.9986819,-0.29707518,-0.51454306,0.9999992,0.8811741,-0.9984989,0.9999194,0.9938369,-0.9993961,0.99141425,-0.9982144,-0.99948394,0.9991182,-0.9833347,1.0,0.9999695,0.8875391,0.99517626,0.99999976,0.9999993,0.9966984,-1.0,1.0,0.9402321,1.0,0.99969065,-0.99977285,0.99999535,-0.9999999,0.994722,-0.999994,-1.0,0.999995,-0.99999374,0.99996626,-0.9952136,-0.97102886,-0.9997375,-0.99978125,0.9985508,0.096926,0.49513805,0.99999994,0.99999994,0.95402867,0.9999647,0.99677205,0.9999984,-0.24912864,0.99012756,-0.99171215,-0.57620275,0.9999937,0.9997752,-0.9778865,-0.9999941,-0.99994296,0.9999038,-0.99991333,-0.99997574,0.9999993,-0.999896,0.24783516,0.99983215,-0.9951738,-0.9390164,-0.9995538,-0.9999777,-0.99490196,-0.9999983,-1.0,0.99998146,0.17209178,0.9830936,-1.0,0.99996126,-0.9999829,-0.56795144,-1.0,0.99999774,0.9995911,-0.9999092,0.27032876,0.99999994,0.99706477,-0.99838996,-0.59809536,-0.98968613,-0.99999774,0.9999996,0.99743104,0.9999776,-0.99324614,0.9994878,-1.0,0.99998015,-0.9998704,-0.99608374,-0.9994234,0.99986887,0.9999312,0.9999985,0.99999857,-0.9999999,0.98195523,-1.0,-0.94225335,0.78812087,1.0,-0.9990316,-0.98113406,0.9988449,-0.16342494,0.99990284,-0.99431306,-0.99996495,0.9999999,-0.99999976,0.9999999,-0.9318866,-0.99088454,0.99999404,-0.9999497,0.9999932,0.9929352,1.0,-0.99639773,-1.0,-0.42439988,-1.0,-0.9999877,0.941721,-0.9986088,1.0,0.9995429,0.99999726,-0.7844178,-0.9973367,1.0,0.99999946,0.9996614,0.999942,-0.99991715,0.9998752,0.9993411,0.99960786,0.9999571,0.99997616,1.0,0.9114746,0.9982775,0.9997478,0.9999827,-0.9895555,0.99999976,0.9946489,-0.99992204,0.97794515,0.99978876,0.9996036,0.9972281,-0.9986209,-0.9999986,0.99999994,0.99998784,0.808718,-0.8277507,-0.99937683,0.9993337,-0.99999994,0.99997944,0.99953216,-0.9980519,-1.0,0.99999905,-0.9999044,0.9999695,-0.97805417,0.99786663,-0.99997514,-0.40688515,0.98293924,0.9999997,1.0,1.0,0.9825097,-1.0,-0.9999998,-0.99900866,0.9995036,0.9999999,0.9999998,-0.99999696,-0.9999989,-0.9999999,-0.2516838,-0.9864757,-0.99792635,0.99511164,0.9999923],[1.0,-0.20284772,-0.754301,0.9991216,-0.9680973,-1.0,1.0,1.0,1.0,-1.0,1.0,-0.9999998,-1.0,1.0,-1.0,-1.0,-1.0,-0.99999976,-1.0,-0.999996,1.0,1.0,0.9999966,-1.0,1.0,-1.0,-1.0,1.0,-0.993571,0.99999994,1.0,-1.0,-1.0,-1.0,-0.99994224,-1.0,-0.99957174,1.0,-0.9999629,-1.0,-1.0,0.9999989,1.0,1.0,0.9999996,-1.0,-1.0,-0.9999951,1.0,-0.9999962,-1.0,-0.9989054,-1.0,0.99984556,-0.8350188,-0.9351965,-1.0,0.99999994,0.99950504,0.99999994,0.99999917,1.0,-0.9992357,-1.0,0.99958766,-0.99999976,-0.99999666,-1.0,0.90957034,-1.0,0.99999696,-0.9986205,1.0,-1.0,-0.99837875,1.0,0.9990331,-1.0,0.99925065,-0.99999374,0.9999436,1.0,-1.0,0.999814,0.9999998,-1.0,1.0,-1.0,-0.99861526,1.0,-1.0,0.9487144,-0.99999815,1.0,-1.0,1.0,-1.0,-0.9999999,-1.0,-1.0,-1.0,-1.0,-0.99999994,-1.0,0.9988406,-0.5891156,0.99999976,-1.0,0.99989104,0.9928257,1.0,0.99997914,1.0,1.0,-0.9999981,0.9999636,-0.99999994,0.99999684,-0.9994009,-1.0,1.0,-0.99999934,1.0,-0.99403775,-0.95932454,-1.0,-1.0,0.99999994,-0.9999968,0.99999595,-1.0,0.9999991,-1.0,1.0,0.9999948,-0.99995095,0.99983174,-0.9609876,1.0,-0.99730825,-0.9988693,1.0,0.9999992,1.0,-0.99999994,-1.0,1.0,-0.9999839,0.99999994,1.0,-1.0,-0.9999686,1.0,-0.9604067,-1.0,0.9999985,1.0,-0.9998661,1.0,0.9999955,-1.0,1.0,-0.99999976,-0.9999986,-1.0,0.9999999,-0.9999941,1.0,-1.0,1.0,-0.9999898,0.99999726,-0.9503214,0.48939845,-1.0,0.9999945,-1.0,-0.9999987,0.99823624,0.9999943,-1.0,-1.0,-0.99999994,1.0,-1.0,-1.0,0.99625915,-0.99999994,1.0,0.9742102,-1.0,-0.999995,-0.9999999,-0.9945126,1.0,-0.9998597,0.9998814,1.0,-1.0,0.9999766,1.0,-0.99999994,-1.0,-1.0,-0.3807462,0.9999543,-0.99797636,-1.0,-1.0,-0.99705535,1.0,1.0,1.0,0.98796403,-1.0,-0.99253386,0.99999994,1.0,-1.0,-1.0,0.9999999,0.99999243,-1.0,1.0,-0.99999905,0.55594313,-1.0,1.0,-1.0,-0.9999994,-0.99983454,1.0,-1.0,-0.9999902,-0.9997963,-0.99852824,-1.0,1.0,0.99978787,-0.99981475,1.0,1.0,1.0,1.0,1.0,-1.0,0.9999938,-0.99999994,-1.0,1.0,1.0,-0.99999654,0.99957234,-1.0,-0.99999976,-1.0,1.0,1.0,0.9918354,-0.9997784,1.0,-1.0,-1.0,-0.9257001,1.0,1.0,0.99999976,0.9999852,0.9999804,1.0,0.99999964,0.9998843,1.0,1.0,0.9938257,0.9999986,-1.0,-0.99999964,1.0,-0.7416086,-0.99999976,-1.0,-0.99999994,0.99718165,0.9974606,0.9989435,0.99987936,0.9995286,-0.9976528],[1.0,0.999887,1.0,-1.0,0.99999946,0.9996414,1.0,1.0,-0.9999966,0.23416841,0.9904953,1.0,-1.0,-0.9999997,1.0,0.9999276,-0.99999994,-1.0,-1.0,-0.9641234,1.0,1.0,1.0,-0.9999981,-1.0,1.0,1.0,-1.0,0.9999824,-1.0,0.99999976,-0.99999887,-0.29855037,-1.0,-1.0,-0.9999967,-0.999994,0.9999991,-0.99999976,0.9989351,-0.99999833,-0.99792963,0.99835324,1.0,0.999833,0.51158494,1.0,0.9948596,0.99131966,1.0,-1.0,1.0,0.9999999,1.0,1.0,1.0,-1.0,-0.8941773,0.9999269,-0.90410364,-0.99999624,-1.0,1.0,-0.9999993,-0.99999124,-0.99995035,-0.9999568,-0.99999934,-0.99999934,-1.0,0.99999994,0.99999994,0.99386466,0.999987,-0.99882203,0.99989164,0.9999982,-1.0,1.0,1.0,1.0,0.99928963,-0.99999976,-1.0,-1.0,-1.0,0.6716531,1.0,-1.0,1.0,0.99873286,-1.0,-0.99984914,0.9999995,1.0,0.9910094,1.0,-0.99999887,0.7320694,0.99955803,-0.99998945,0.999208,0.9999986,1.0,1.0,1.0,-0.9289301,0.65637887,1.0,-1.0,-0.99999994,-1.0,0.9965699,-0.9999987,0.99999994,0.9901023,0.9999967,1.0,-1.0,-1.0,-0.9937558,1.0,-0.8868513,1.0,-0.9998704,0.9999993,1.0,0.99991554,-0.99991184,-0.99975073,0.9999999,0.9996009,1.0,0.9972324,1.0,1.0,-0.92981356,-1.0,0.48564464,1.0,1.0,-1.0,0.99462223,-0.9999875,-1.0,-1.0,0.33005548,-1.0,1.0,-1.0,-0.24772719,-1.0,0.9999995,0.9999448,0.99913096,1.0,-0.99999994,0.99999887,-0.9944137,0.99404204,-0.9658423,0.9998765,0.99999887,0.9999996,-1.0,-0.98628116,-1.0,-0.9999827,-1.0,0.99971825,1.0,0.9999996,-1.0,-1.0,-0.9999626,-0.9999998,0.9999885,-1.0,-0.9999995,1.0,-1.0,0.9319272,-0.99998534,-0.9999568,1.0,-1.0,0.8837965,1.0,-1.0,-1.0,-1.0,-1.0,-0.99967164,-1.0,-0.9785845,0.99960744,-1.0,-1.0,1.0,-1.0,1.0,0.99989855,0.9999958,1.0,0.99627787,-0.9998954,0.99996096,-0.99994713,-0.9999906,-0.99999994,0.9999915,0.99920875,-0.9996298,1.0,1.0,-0.99999994,1.0,-0.99987537,-0.99999994,-1.0,1.0,-0.9982826,1.0,0.99999934,-1.0,0.99908876,1.0,0.99992263,-0.50190353,1.0,1.0,-0.99440473,-1.0,-1.0,-1.0,-0.99996525,-1.0,-0.9999999,-1.0,1.0,-0.9991662,-0.99999833,-0.9968893,0.99999994,-0.9999993,0.99999845,0.999908,0.9999997,-1.0,0.42475328,0.91295284,-1.0,-0.9999336,0.99999976,-1.0,0.99931073,-1.0,0.99999726,-0.9999998,-1.0,0.99999994,-0.9445783,0.9023399,0.99955094,0.9985002,0.9999914,-1.0,1.0,1.0,-1.0,-1.0,-0.9982869,1.0,-1.0,1.0,-1.0,0.94861466,-0.99999946,0.9998734,-1.0,-1.0,-0.9999945,-1.0,0.9999837,0.999515,-0.99999964,-1.0,-0.99935144,1.0]],"w":[[[0.33179903,0.03959894,-0.9871974,0.37341762,0.301692,-0.39748192,-0.50123906,-0.662163,0.9343302,0.11551857,0.72816706,0.6038134,-0.7806523,0.99478745,-0.17546344,-0.14848185,-0.9761684,0.6191721,-0.94272685,0.6281822,0.018684387,-0.64120007,0.57950664,-0.3339324,-0.2840829,0.017292738,-0.2537942,-0.95391655,0.34686947,-0.9097216,-0.5267217,-0.20826292,-0.16209006,-0.445997,-0.011776686,0.17167616,-0.27196288,0.29106903,0.8296163,-0.86966205,0.09503627,-0.9757261,-0.37510324,0.6838021,-0.017440557,-0.5016234,-0.89201665,-0.02891922,-0.024705648,-0.8000624,0.39561796,0.8052678,0.2764132,-0.53530097,0.3062799,-0.12411356,0.77155566,0.9536476,-0.37057328,-0.24337482,-0.9241903,-0.17801356,0.3018372,-0.53361917,0.8676789,-0.3889804,-0.22023082,-0.8525181,0.16154766,-0.6373718,-0.29175115,0.23238492,-0.059167385,0.9704571,0.55278516,0.11132407,0.72347856,0.29368806,0.6974473,0.48586893,-0.5328505,-0.5096731,-0.60653687,-0.7844553,-0.604234,-0.9660964,-0.44713092,0.9864893,0.70217514,0.10792804,-0.93405247,-0.5128093,-0.5001936,-0.91010284,0.20612884,-0.7188916,0.5054941,0.80370617,0.09794545,-0.10993886,-0.48104787,0.67918277,0.12451744,0.21483111,0.05004525,0.7687328,0.7392497,0.7093034,-0.06964064,0.99935126,-0.56282544,0.478451,0.23312116,0.51599956,-0.7461064,-0.22271967,0.98150086,0.7643385,-0.100988865,-0.61613154,-0.68218493,0.2946391,-0.64782214,0.8916669,-0.96399856,0.45140743,0.96730566,0.79260087,0.28016257,0.27837896,0.20955348,0.70620465,-0.48617506,0.13589668,0.85474396,-0.31232643,-0.7223134,-0.57263875,0.7321427,-0.43155217,-0.47854066,-0.8564646,0.83474874,0.86688066,0.6355934,0.21421313,0.48617196,0.97050166,-0.41453266,0.17639947,0.20120382,-0.4877391,-0.34401798,-0.50338936,0.6563766,-0.024134636,0.6045575,-0.5621526,0.9120269,-0.22240543,0.012833834,0.3210883,0.49095893,-0.9245064,0.76773286,-0.7409086,-0.65012336,-0.8222463,-0.95666647,-0.25344062,-0.8663595,0.24090838,-0.9603753,0.516124,0.2536931,-0.70306206,-0.71933675,0.34335208,0.29461837,0.5842314,-0.64878273,0.8890612,0.19425344,-0.91688514,-0.7446878,-0.11952996,-0.7712753,-0.6848457,0.7155156,-0.13945293,-0.6223147,0.022342205,0.5995362],[-0.052494887,-0.99995786,-0.9472771,-0.40440217,-0.80264187,0.9742797,-0.87752986,-0.060964204,-0.9291155,0.54030764,0.31353655,0.9471983,-1.0334121,0.7657196,0.78657204,0.4571682,-0.87327254,-0.54025185,-0.10039624,-0.19963397,0.8298052,0.6368984,-0.872267,-0.76391155,0.05325793,0.8329003,-0.74671227,0.18043603,0.41484404,-0.5476086,-0.35238504,-0.5276908,-0.19872548,0.36825135,-0.37344694,0.60224414,-0.50004,0.7882512,0.88794035,-0.4464822,-0.16450985,-0.84929436,0.60485786,0.95136094,0.13481517,-0.59748864,-0.2791559,0.52073395,-0.0800854,-0.37429553,0.109331585,-0.19287564,0.7076702,0.11800959,0.59646577,-0.15867165,-0.13841611,-0.9885244,-0.4117153,-0.2179072,0.25257197,0.81499755,-0.0062549496,-0.70738083,0.7982106,0.64781374,-0.14038041,-0.565394,-0.3752326,-0.9454834,0.06578056,0.7821658,-0.32603058,0.006348801,0.78696394,-0.48604226,0.82171595,-0.3011975,-0.157218,0.8353031,-0.63453496,0.81934834,0.7904646,-0.88911587,0.39457625,0.5508085,0.73060095,0.093114,0.58643645,0.8013055,-0.38278472,0.6521727,-0.952849,-0.91099644,-0.31495255,-0.34377944,0.8941478,-1.0081987,-0.8746607,-1.0501496,0.58169633,-0.44843352,-1.017859,0.4299724,0.092598975,0.3942029,-0.65266955,0.8162945,-0.99554425,0.597341,0.50994784,0.6054016,0.11945216,0.069222726,0.0154995965,-0.119911954,-0.6387481,0.08822076,-0.29537046,0.4519067,-0.20638034,0.61100173,-0.8210271,0.42305458,0.015127053,-1.0340326,-0.98755074,-0.47947252,-0.69676054,0.3848119,0.08318163,0.669613,0.10527424,0.16023722,0.33293557,0.14000134,-0.42006323,-0.43161458,-0.22738096,-0.035355885,-0.2786026,0.16316229,-0.073237024,0.12080692,0.5168578,0.3129683,-0.4092954,0.48167786,0.6665108,-0.11734252,0.06688621,-0.6201751,-0.49977547,-0.0635757,-0.13615839,-0.34240857,-0.12505046,-0.30867213,0.33741564,-0.19664101,-0.09832524,0.13763243,-0.34690633,-0.09106996,0.14792262,-0.3705708,0.7998181,-0.20624879,-0.6539148,0.9087864,-0.7028222,-0.4589197,0.0257947,0.23106863,0.95864713,0.293917,0.466844,-0.6019565,-0.1524684,-1.0013222,-0.5174809,-0.77196735,0.03961583,0.88692176,-0.78584445,-0.66788405,-0.63064635,-0.19392796,0.020391108,0.75821996,-0.74626637,-0.8537576,0.84666353],[0.58447814,0.6004362,-0.07162645,-0.22437179,-0.73799914,0.14705864,-0.6395239,0.031860646,-0.71442664,0.85181427,-0.5286612,0.7625659,-0.62881917,-0.57032716,0.84327877,-0.23178524,0.6024995,0.07473669,0.7029787,0.27084833,-0.25081202,0.7350498,-0.7562001,-0.9561459,0.8246924,0.80821407,-0.05102568,0.7140992,-0.8129038,0.061769076,0.03130672,0.66882175,-0.7490187,-0.14765182,-0.5901813,0.6792952,0.46658906,0.9383936,-0.09350953,-0.3804357,-0.34582913,0.86940527,-0.91823196,0.24025832,0.5327323,-0.81085503,-0.011083213,0.11563005,0.3465833,0.6147568,-0.5415331,0.38895538,-0.8700335,-0.6214608,0.6584072,-0.70376796,0.6311266,-0.41576123,0.13501804,-0.8613388,0.3686229,0.30700445,0.34174642,0.38923833,-0.18939012,0.33904114,0.56598246,0.38525814,-0.17759241,-0.36407205,0.7504053,0.2207927,0.2907403,0.5480488,-0.22774847,0.7061456,-0.28221726,0.1286752,0.7460299,-0.6488542,-0.5685805,-0.68666154,-0.1997651,0.54545045,-0.48281977,0.716067,-0.24708197,-0.3408544,0.6574134,0.06269683,0.31877077,-0.9396898,-0.09740827,0.849736,0.1058509,-0.18498799,-0.67157555,0.4396479,-0.120194785,-0.66984934,-0.44703197,0.94086206,0.95711076,0.3210469,0.015940294,0.5959065,0.53196824,-0.8883292,-0.7214693,-0.44597417,-0.13399614,-0.8250911,-0.5734439,-0.036916196,-0.03388512,-0.6782574,-0.8287682,-0.27591392,1.0206499,0.04719271,0.20745659,0.22342443,-0.69551176,-0.32635072,1.0127014,0.91779447,0.12881374,0.30430624,-0.17788206,-0.48216048,0.73053426,-0.40260652,-0.921496,-0.30561498,0.7314188,-0.7365768,-0.35567963,0.8622103,0.24979724,0.42769814,-0.7564996,-0.108857095,0.6860758,0.3437087,0.92706174,-0.719189,0.7431742,0.6319504,-0.53120285,-0.17642117,0.7508873,0.49082297,-0.42818677,0.54982215,0.8664558,-0.8869323,-0.09090933,-0.5039049,0.824984,-0.86265963,-0.7314306,-0.7130714,-0.40560892,-0.49320439,-0.24288642,0.95628303,0.31556588,0.72734374,0.53093714,0.15003346,-0.6744061,-0.16038056,0.85051113,-0.30552647,0.6423792,-0.84298587,1.0094423,-0.64734864,-0.5827609,-0.006645969,-0.6034253,0.22531994,-0.15373233,0.31320018,0.9940686,0.26409167,-0.22673498,0.61458206,0.5315472,0.73978496,0.9768782,0.92868185,0.85547924],[0.7805042,-0.56873745,0.38545904,-0.47067687,-0.37488535,0.60065275,0.19351655,-0.3685479,-0.40463185,-0.023185477,0.62808865,0.5317926,-0.13659282,0.4059779,0.50912255,0.6558431,-0.639914,-0.9276392,-0.8293023,0.6139172,0.8356695,-0.04168322,-0.17407589,-0.35316277,0.5904685,0.7492116,-0.15364796,-0.37879422,0.16504724,0.6838185,-0.6667241,-0.56877863,-0.91629106,-0.36197996,0.25505394,-0.7100669,-0.49019557,0.51633716,0.88292617,0.5312035,0.7179666,-0.04660671,0.9283094,0.4281898,0.7382221,0.21375734,0.33109885,-0.69920486,-0.6272471,-0.6655694,1.0057079,0.9806077,0.0052673924,0.5588506,-0.5284255,0.2906536,0.27824548,0.547036,-0.32076165,-0.8361337,0.9797099,-0.04456003,-0.37310797,-0.16545719,-0.15392683,-0.40869033,-0.12765634,-0.22440341,-0.7115356,-0.8505003,0.54343414,-0.35933983,0.11699996,-0.91768384,0.011297673,-0.046282083,-0.89545465,-0.02812422,-0.6117502,0.21705201,0.8237427,0.6416746,-0.04221836,-0.9149844,-0.4933938,0.0138274515,0.1672959,0.15965225,0.72189,-0.42869988,-0.2872445,0.5005341,-0.086716115,-0.69468635,-0.03941048,-0.3627182,0.85888505,0.3656237,0.21302745,0.21105273,-0.67033964,0.6958651,-0.20589654,1.0198921,0.960377,0.35765424,0.57432985,-0.55732024,0.062415164,0.86945444,-0.0046645096,-0.5778114,-0.29960272,0.033685368,1.0067842,0.08394439,-0.21215698,0.8570636,-0.2867512,0.8087769,0.2565849,-0.5946367,-0.94090253,-0.41995063,0.266569,-0.34899366,-0.5467659,-0.045280386,0.44882864,0.8586627,0.45572722,0.9779391,0.2580538,-0.37234017,0.5752131,0.512332,0.3226537,-0.44322082,-0.21014433,-0.028122025,0.312818,0.7890463,0.48417896,0.49856198,0.69422233,-0.9257727,0.59300095,0.5562488,0.49948168,0.7839451,-0.72764647,-0.6963114,-0.9078624,0.014704826,-0.8603987,0.72934943,0.57924926,-0.5906009,0.3192761,-0.8684085,-0.85917246,-0.21038505,0.30687684,0.8672837,0.545437,0.3331894,-0.68431485,0.40150112,0.048775762,-0.93110985,0.3733136,0.056804724,0.433156,0.79690456,-0.7761326,-0.33280382,-0.96658295,0.6652894,-0.37876287,0.14747554,0.032912403,0.57562417,-0.5567917,-0.24116747,-0.60402167,0.6398995,-0.37323263,-0.4336077,0.05450254,0.8190908,-0.07712865,-0.57092917,0.8430629],[-0.5645817,0.67408854,-0.8182814,0.58291787,-0.5180271,-0.22972232,-0.81864834,0.6296421,-0.402963,0.2817493,-0.039140906,0.777531,-0.068938665,-0.35665232,-0.57961184,0.44214806,0.9408231,0.8530262,0.30445516,0.4129338,0.9009064,0.8880626,-0.43305385,-0.26147598,-0.67271453,0.33168983,0.39596936,0.8982774,0.943359,-0.9625553,-0.41642943,-0.7689635,-0.4549005,-0.84612244,-0.95696926,-0.87294155,0.95859206,-0.13128422,0.55488217,-0.7717666,-0.4604769,0.0003790915,-0.8697268,-0.43905717,0.030040031,0.29003617,-0.13956809,0.92191267,0.9518194,-0.24506024,0.63801867,-0.79729927,-0.30273196,-0.20132475,0.58690596,-0.9080727,-0.48305666,-0.6958785,0.49185702,-0.8905917,-0.25196472,-0.52088636,-0.34062132,-0.9949156,0.59312236,0.89380056,0.8710504,-0.56578124,0.1148129,0.1664188,-0.9072421,-0.98017186,-0.4334539,-0.4744735,-0.94823694,0.8114878,0.9046615,-0.11658246,0.71514696,-0.9688432,-0.19812952,0.26302367,0.28206465,-0.15987927,0.8623401,0.14152063,-0.39979747,0.18466549,-0.15279444,-0.87189645,0.037670944,-0.11041456,-0.9639565,-0.7750711,0.50282043,-0.23915161,-0.31029093,-0.5443249,-0.6331636,0.24952199,-0.51294065,0.7316105,-0.34382546,0.19206065,0.005391241,-0.20199789,-0.45974502,0.08505758,-0.90351415,0.6992516,0.08434171,-0.883529,-0.9082711,0.3038075,0.7368713,0.81593585,-0.9936257,0.8825916,-0.110069364,0.81822014,-0.089869365,-0.20329241,-0.51311725,-0.8829086,-0.15761271,-0.34209788,0.5220666,-0.6641905,0.78760713,0.40739453,0.20492126,0.23826444,0.59008753,-0.49622658,0.86613566,0.6691399,-0.87133205,0.804302,-0.19999412,-0.24654883,0.16690733,-0.41949132,-0.6746782,-0.96059793,-0.22511882,0.7572696,0.77409023,-0.70839113,0.7818408,0.112188905,0.7050675,-0.29942402,0.83236516,-0.8387187,-0.22378027,0.030187186,0.15304796,0.3963853,-0.14820398,0.960962,-0.15621495,-0.14357811,0.40355837,-0.25325012,0.7138035,-0.86125195,-0.52153337,-0.4328901,0.35118848,0.51405185,-0.065199606,0.3100308,-0.48075724,0.7880934,-0.25900707,-0.561899,0.9101942,0.41716832,-0.12855491,0.24775681,-0.47330222,-0.36428982,-0.5897793,0.17131504,-0.303914,-0.7779572,-0.98743975,-0.52930987,-0.04397285,0.55763835,0.62192553,-0.30079883,-0.6606046],[-0.12062896,-0.70811903,-0.25602904,0.8915485,-0.27566656,-0.3132897,-0.037574958,0.29788813,-0.098604925,0.7345757,-0.26057294,0.32612267,0.7545546,-0.4335302,0.82552713,0.5157907,0.9955749,-0.34924275,-0.3796045,-0.8017125,0.48917925,0.30417624,0.027720131,0.601879,0.55520195,0.6639574,0.33826292,-0.04413897,0.9521936,-0.7391183,-0.5189944,0.83649236,0.24800682,0.2500258,-0.2552465,0.995684,0.39264756,0.8170672,-0.5815265,-0.82170266,0.18578762,0.9467653,0.2474951,-0.4050846,-0.26557934,-0.8071622,-0.38675472,0.58260566,-0.55742604,0.09758933,-0.46603096,0.5776569,-0.7642693,-0.35240656,0.8522381,0.041253548,0.32220736,-0.84422237,-0.37504864,0.9883719,-0.9145893,-0.4713725,0.7449968,0.59720427,0.6586181,0.6179074,0.966263,0.6989849,0.359491,-0.6499082,-0.34906292,0.8865222,-0.8819822,0.28347626,0.33851948,0.39516652,0.58211184,0.38716543,0.5781161,-0.672159,-0.89085335,0.8277614,0.19827735,1.0381387,-0.87875,-0.60872287,0.84362966,-0.038692735,-0.31615242,-0.3323782,0.8116821,-0.21080539,-0.59605217,-0.7681185,-0.49528283,-0.4468358,-0.20423277,0.7593043,0.28262696,-0.7204219,-0.28294966,0.24671462,-0.35036632,-0.077486075,0.96173966,-0.9091364,-0.47554758,0.7465237,-0.8543215,0.71952915,0.72178316,0.18283844,-0.84014624,0.8005944,0.52386415,0.20758994,-0.20913522,0.7342916,0.3909102,0.8718673,0.39748496,-0.26812422,-0.94893503,0.024674356,-0.11047728,0.96309704,-0.8560832,-0.39981362,0.8842012,-0.7757729,0.1257354,0.08082545,-0.9160713,0.82327276,-0.58499753,-0.62943333,-0.0014193748,0.9488412,0.5171171,-0.6697281,0.7468299,-0.06392613,0.5677427,0.5204072,-0.67919654,0.22099783,0.77404594,0.5294852,0.10244092,0.97556114,-0.17090853,-0.55192643,-0.8091296,-0.53863865,-0.2850044,0.2955896,0.6004938,0.45321432,-0.46453705,0.26364577,0.10706646,0.64265484,0.7755038,-0.5573953,-0.90634775,0.737007,-0.054810822,-0.4916424,0.79796815,-0.53410494,-0.67578065,-0.29382685,0.015113626,-0.18619955,-0.006808561,-0.82124823,-0.8790158,0.60564107,-0.8408495,0.90862894,-0.76559645,0.4635144,-0.38887268,-0.80396366,0.3705635,-0.6977356,-0.024504358,-0.3955282,0.4748377,0.7998847,-0.80444896,0.22208278,-0.28677064],[0.92826605,-0.32722512,0.2746216,0.6110255,-0.696369,0.5282928,-0.7930371,-0.5058941,0.11704963,0.20904459,0.8141058,0.035692696,-0.5741928,-0.80050135,-0.8289508,-0.587632,0.49208298,-0.10279296,-0.17359948,-0.12835091,0.8770116,-0.012291353,-0.36753055,0.49796197,0.67651635,0.01870375,0.35737386,0.45238665,-0.38379112,0.0147500215,-0.032955464,0.33557534,0.713672,0.46460143,-0.49767172,-0.0283786,0.67088825,0.62356114,0.250246,0.2981767,0.550449,-0.8222727,-0.71211094,0.66342753,0.76509666,-0.27309945,-0.75681686,0.6272463,-0.9581324,0.5665485,-0.5437665,-0.18212567,-0.24098259,-0.52027863,-0.25083447,-0.41011378,-0.1981349,0.24537581,0.8486212,0.004609763,0.24763452,0.17675857,-0.29037297,-0.7518582,0.27497277,0.08711554,-0.36592692,-0.8710102,-0.85528016,-0.3255216,-0.19339651,0.8029628,-0.45341215,-0.3039244,-0.4659429,-0.071853645,-0.20122878,-0.5675996,0.92066205,0.20443082,-0.44941345,0.16764458,0.7532448,-0.9845525,0.011252429,0.85415953,0.3538666,0.80557686,0.80807865,0.8814558,0.44762582,0.4877623,0.16962695,0.6744179,0.32320866,0.648944,0.097814165,-0.15420187,0.094832584,0.9751862,-0.972278,0.08453507,0.7640502,0.59018016,-0.4668458,0.1923802,-0.99252456,0.8960707,-0.39052364,-0.835893,0.5249433,-0.3370702,0.10280504,-0.3966447,0.6614567,0.7855465,0.907642,0.29691002,-0.281381,0.27690306,0.70603126,0.36528745,0.82814145,0.91733253,0.17407522,-0.8739739,-0.52399826,0.99305725,0.13847667,-0.83647424,0.9609884,0.01525964,-0.8259029,0.9304435,0.9078604,0.403877,-0.73835576,0.7518318,-0.30043703,0.73279023,0.9422742,-0.5095232,0.1287092,0.30967742,0.7505091,-0.7147795,-0.27616864,-0.754064,0.5182758,0.003068595,-0.86430836,0.15449516,-0.8802086,-0.358372,0.63126874,-0.7414462,0.41029617,0.7816788,0.27890268,-0.34122604,-0.532251,0.021778489,0.8225698,0.09584083,0.8957265,0.47305974,-0.06856315,0.9060981,-0.97027904,0.72319347,-0.78114444,0.10758713,-0.25963867,0.6107703,0.26784262,0.4744284,-0.84756315,-0.61874443,-0.80611163,-0.66835195,0.7263747,-0.22144207,-0.17533827,0.87957364,-0.14455146,0.06061989,-0.918452,0.65412,0.60728616,0.1358996,-0.98476434,-0.25510186,-0.05908151],[0.99505,-0.21641521,-0.27552727,-0.15725978,-0.4939791,-0.3349054,0.04781687,-0.53322875,-0.40100855,0.4012014,0.7263255,-0.19156535,0.62131256,-0.12236831,0.64396346,0.85966474,0.92120385,-0.9517818,0.69498765,0.22787747,0.75332594,-0.0018241794,-0.7476049,0.03941555,0.3610069,0.99409246,0.0026755685,0.74871194,0.75582045,-0.37152237,0.23314755,0.12790227,0.69659436,0.20893979,0.9930241,0.08051788,0.84118795,-0.3252395,-0.26429957,0.55912656,0.5088397,-0.61842036,-0.94385344,-0.35770592,-0.8119556,0.9890113,0.66018337,0.7412242,0.6580549,0.046825256,0.008598223,0.90755284,0.86789477,0.33342636,-0.23305295,0.4196207,-0.63003683,-0.13347913,-0.66743445,0.4589441,-0.9668819,-0.5025672,0.7101217,-0.7824788,0.7289675,0.2806228,0.0773707,0.5793908,0.99087155,-0.4564011,-0.61058164,0.44283408,-0.6233057,0.73326135,-0.25009307,-0.35191858,-0.054485947,-0.08103604,0.09683917,0.5307361,-0.39855582,-0.28472513,-0.7103508,-0.07810781,-0.42521724,-0.9488491,-0.7222892,-0.5295724,-0.9450337,-0.78786,-0.14910482,0.740226,-0.2845631,0.99590224,-0.88291407,0.7450415,0.091598384,-0.88651234,-0.5141548,0.2816692,-0.41592667,-0.69285446,-0.7164696,-0.20631175,-0.042040106,-0.7408561,0.08388466,-0.2969708,-0.6190736,-0.95679826,0.1949004,0.14562194,-0.2615436,-0.17241332,0.6012387,-0.29807785,0.5892256,0.87051135,0.42084748,0.84028363,-0.57950944,-0.21975808,0.05837595,0.43123877,0.82775027,0.7705579,-0.8504045,-0.31737822,0.69741046,-0.22816388,-0.62660223,-0.1607421,0.49612635,0.33029646,0.82091784,-0.95528007,-0.96206945,0.35193115,-0.5310142,-0.8366516,0.09159484,0.9509334,0.4015863,0.4137612,0.90330744,-0.27992558,0.5491799,0.69365025,0.40849727,-0.9669215,0.092050165,-0.039403297,0.15680468,0.13539302,-0.38356322,-0.11887818,0.28320032,-0.7722684,-0.13467515,-0.1610717,0.44161204,0.37702376,0.9342488,0.6632341,-0.7347488,-0.4694339,0.69844973,1.0067371,-0.01902885,0.95595014,-0.5653257,-0.4619077,0.16182971,-0.9462688,-0.7752163,-0.40807366,0.3060708,0.20878486,-0.352433,0.830097,0.7513936,0.45643103,0.73744226,0.6836762,-0.6869679,-0.014064972,0.24879704,-0.18699196,-0.14511293,-0.8112064,-0.297912,-0.42552546,-0.347626],[0.78338957,-0.05223599,0.05687699,0.7631709,-0.5899284,-0.72256666,-0.934999,0.76114494,-0.6712191,-0.1281456,0.11802666,-0.7129479,0.8718018,-0.8847451,-0.26523867,0.062751845,-0.7482163,-0.61772394,0.85624665,-0.1814909,-0.94387496,-0.92811954,0.49933124,0.51988727,-0.48649672,-0.7996511,0.8831559,-0.27284804,-0.4706594,-0.39248657,0.49933407,0.32892787,0.06892519,0.17388493,0.87265384,-0.87024516,-0.84661424,-0.6263994,0.56025654,-0.73940945,-0.16939771,-0.9336108,-0.22235052,0.52538496,0.36752254,-0.9029005,-0.39567932,0.0712406,0.93408626,0.18634664,-0.30018225,-0.69081277,-0.2529622,0.84617335,-0.35949442,-0.6631589,-0.7794168,-0.3412272,0.5971358,-0.56029654,-0.9586086,0.5875307,-1.0157348,-0.02032373,0.2793655,0.3118018,0.9482032,-0.3221656,-0.19518434,0.48167497,-0.7486363,0.38060436,0.720279,0.7815365,-0.31731045,0.32972094,0.70084,-0.0052898885,0.37061745,0.51540536,-0.21744375,-0.17403042,0.3359204,-0.79359823,-0.3255052,0.84075564,-0.9830225,0.8107034,0.45138732,-0.21404949,-0.6755414,-0.90069634,-0.3566492,-0.42825642,-0.4664116,0.6579268,0.28582716,-0.7733927,-0.41409126,-0.5069469,-1.0087523,0.8726793,-0.456104,0.8551063,-0.14157681,0.93888116,0.37338677,-0.05544322,0.8478881,-0.6111177,-0.93937033,-0.825149,-0.08762006,0.93673086,-0.9584508,0.7535992,-0.702216,0.4327231,0.8311205,0.7267492,-0.39184195,0.44588766,-0.2402033,-1.0129707,0.89346796,-0.23180358,-0.58343387,0.2703035,-0.7911662,0.8610309,-0.38392556,0.7503128,0.9633371,-0.6948727,-0.6915138,-0.8652858,-0.698436,-0.37479883,-0.08652389,0.7017696,0.014836244,0.8799496,0.08597385,-0.6269049,0.39374337,-0.89863217,-0.18066639,0.17066039,0.6875255,0.3201337,-0.7558342,0.92141503,-0.48060706,0.020583842,-0.39825833,0.6329916,-0.4510125,0.94431704,0.728267,-0.18503267,-0.737703,0.25115305,0.5442214,0.2198459,0.8246117,0.55305785,-0.012437023,-0.009778793,-0.22546174,0.12359504,0.4393146,0.27225038,0.65622884,-0.4133494,-0.4968324,-0.4030986,0.61739564,-0.43572107,-0.9830533,0.47404274,-0.37091574,0.07532133,-0.08263761,-0.7725833,-0.7014157,0.8223515,0.7424346,0.7980718,-0.1358453,-0.94924617,0.06218125,0.7786497,-0.45670864],[0.2981629,0.9337246,0.78166056,0.7971477,-0.4368684,0.85774803,-0.33205095,0.49719015,0.3346855,0.3034178,-0.86952424,-0.97017866,-0.32397166,-0.8504528,-0.7143542,-0.44412634,-0.34692985,0.45003724,-0.28380525,0.07307398,-0.895953,-0.9635521,0.64512163,0.12933211,-0.7006234,0.27270216,-0.30018926,-0.06704119,-0.3296965,-0.72737837,0.8696555,0.09520598,-0.30084988,0.32895303,0.5585277,-0.39977342,-0.44889066,0.92141324,0.2572078,0.47248426,0.9328576,-0.976482,0.53782827,0.25879323,-0.52080697,-0.75346494,0.8858485,0.7811629,-1.0608366,-0.66623896,-0.44621155,0.59206265,0.24394083,-0.52815276,0.058451597,0.1309857,-0.53397316,0.107649915,-0.6389224,0.87081635,0.021237034,0.8907437,-0.84239185,0.5870126,0.503986,-0.5962713,0.14625034,-0.79105514,0.031640444,0.21903841,-0.38530323,0.53378963,-0.47762972,0.24818763,-0.12807521,-0.106190935,-0.7076031,-0.11719957,0.2911109,0.66820073,-1.0291386,0.40258855,-0.38241988,-0.5335392,-0.06657432,0.53188103,-0.66185135,0.3348382,-0.5091974,-0.9441056,-0.57677937,0.09304675,0.16775769,0.028813547,0.58083177,-0.6399711,-1.055025,0.2988345,-0.060706545,0.38448736,0.24002185,-0.43315697,-0.576925,-0.6679971,0.22337888,-0.5515262,-0.17355654,0.34344888,-1.0873584,0.2933147,0.12924725,-0.37769237,-0.3251778,0.64577323,-0.14017333,-0.7550779,0.2993724,0.17205866,0.09707734,-0.5678139,-0.0820747,-0.8797468,0.67115283,0.59183747,-0.21222809,0.55321705,0.24631053,-0.23993824,-0.040372796,0.14054765,-1.0214561,0.9027243,-0.3223488,-0.008150809,-0.7006682,0.53100985,0.43991354,-0.8899669,-0.8279388,-0.9990187,-0.32096568,0.8210309,-0.58294463,0.34966272,-0.30651698,0.05963125,-1.0291604,0.7448286,-0.8268493,0.9136439,-0.17666398,0.86041176,-0.04356407,0.036609326,0.79723155,0.061073583,-0.7135628,0.39154175,-0.8167552,0.62592286,0.22685625,-0.010679734,-0.741047,-0.80502474,-0.5191881,0.86034423,-0.8770847,0.51975644,0.18519434,0.42432624,-0.2985563,0.55789477,0.26352867,-0.6660564,-0.02572808,-0.25891432,-0.4503,-0.5047789,-0.34214166,-0.3895651,-0.97017586,0.7785124,0.45233303,0.017496713,0.87851393,-0.66784984,0.28010714,0.66609406,0.7970791,0.6698779,0.21256296,0.26676553,-0.9214],[0.8880536,0.3649289,0.17803025,-0.33465096,-0.29372188,-0.52608657,-0.8845426,0.7375105,-0.62683797,0.019020675,-0.5769257,-0.54426104,-0.57153016,-0.5172174,0.7651466,-0.7176846,-0.51802224,-0.33148807,0.7331521,1.0542762,0.3369329,0.13008562,0.4116303,-0.21109778,0.12360371,0.36236832,-0.78480667,0.4279698,-0.13243403,-0.29654324,-0.35922617,0.45235762,-0.6896683,0.68716246,0.23456556,-0.08141361,-0.6944224,-0.008191155,0.46491808,0.19625276,0.6257431,0.009205785,-0.8898991,0.12583533,0.90046704,-0.817491,0.2976957,0.27408358,-0.00046319503,0.55044675,0.96017104,0.46354157,-0.60262996,-0.8410799,-0.59478706,0.33747262,0.52244425,-0.16915083,-0.6606127,-0.39330503,-0.46430573,0.1540755,-0.57821393,0.54078627,-0.2928,-0.185864,-0.40132022,-0.595059,0.5277129,0.9845863,-0.32008016,-0.2568682,0.9221655,0.11711714,-0.84993374,-0.6542101,-0.054967966,0.6329443,0.62807465,-0.7826004,0.3662488,-0.7074045,0.052732497,-0.85652614,0.26572457,0.39202017,0.43273485,0.7758791,-0.037325174,0.7366554,-0.23407276,-0.16532758,-0.5760394,-0.58391315,0.22752117,-0.80008936,0.0009269784,-0.25754327,0.6083858,-0.8200407,-0.31048077,1.044872,0.9641195,0.14931452,0.87666565,-0.41792956,0.5748101,-0.61096203,0.70082873,0.44928628,-0.06706313,-0.8242151,0.42389476,0.4798926,0.087646574,0.24229032,-0.28394783,-0.55657244,0.4841189,0.90033627,1.0905586,0.30302596,0.7196412,-0.7595621,0.062274065,0.60382843,0.5086242,-0.06773141,0.9018087,-0.7095559,-0.6836929,0.6189118,-0.24080189,0.12518695,-0.48978338,-0.66433656,0.48621774,-0.24593782,-0.5856295,0.4468749,0.3513456,0.6334027,-0.44718596,1.0005851,0.18346699,-0.109816104,0.71529603,-0.058284935,0.7037128,0.6371552,-0.7015973,-0.20922719,0.1271532,0.9189716,0.8743575,-0.57303697,-0.5075611,-0.1901515,0.2804467,0.82181937,-0.5126905,0.23682788,-0.6808462,0.64388406,0.49801487,-0.8286851,0.73319966,-0.3545508,1.0144249,0.94886637,0.29740703,0.2536016,0.22939242,0.40913945,0.00057284813,0.81705993,0.536944,-0.066631384,-0.21374616,0.661171,1.032536,-0.19748962,0.028863935,0.97290766,0.34707803,0.4947531,0.43115005,0.78799343,-0.7257929,0.118389204,0.4360878,0.64900804,-0.6645789],[0.19890717,0.36176032,-0.5772085,0.12102649,-0.9343179,-0.5470237,-0.05445944,0.45141748,-0.8369657,0.40629146,0.28191313,-0.9935769,0.21321571,0.92149496,0.03581284,-0.71320987,-0.8000063,0.94532025,0.93921345,0.064298056,-0.8051405,-0.62073743,0.29772666,0.26475048,0.108531825,0.3388577,0.07591824,-0.8393014,0.051643975,-0.9028981,-0.82467866,0.5973312,-0.5876838,0.30057523,0.061450895,0.8784922,0.12105038,0.49346298,0.37295002,0.34373125,0.6616949,0.74476707,0.61812854,0.40800774,0.30572537,0.4808249,-0.19869503,0.570995,0.6982391,-0.4499078,0.24428946,-0.27342105,-0.94067925,0.43408516,0.45337734,0.9300175,0.23610395,-0.086447515,0.22162567,0.10982441,0.13364662,-0.5764304,0.4833427,0.70275784,-0.5417726,-0.86342347,0.5859126,0.45873615,0.9870119,0.1641999,0.8110833,-0.50027436,0.42193618,-0.9142081,-0.57877,-0.6651181,-0.018772833,-0.9704281,0.86635935,0.4692013,0.05098623,0.3079758,0.30404055,0.7734912,0.345361,-0.043139122,0.14100006,-0.47873583,0.7481598,0.039891317,-0.5265078,0.6431948,0.3831055,-0.34366432,0.95010835,0.9612155,0.4055192,0.972535,-0.46632218,-0.1943205,0.9867043,-0.88355213,-0.8490802,-0.06259433,-0.2591863,-0.45983443,-0.7150494,-0.3996932,-0.24922954,-0.29159978,-0.46623877,-0.056724027,-0.6337127,0.83889985,-0.21125561,-0.49036857,-0.50206566,0.51499534,0.79111564,-0.52960026,0.7417822,0.92661077,0.18234728,-0.91608435,0.88909113,-0.19327834,0.58043593,-0.9216605,-0.59921396,0.5885559,0.37672615,0.94005316,0.2211738,-0.05589621,0.4733174,0.64018434,-0.24370983,-0.36138654,0.08645932,-0.6203623,0.22748977,-0.11964963,-0.18730254,-0.43038175,-0.19845474,0.9979293,0.2676841,0.12513967,0.3560913,0.09046191,0.13651691,-0.061412714,0.27894783,-0.68275017,0.012646201,-0.4260486,0.8711065,0.46206653,0.498497,-0.8087847,-0.503704,-0.55853486,-0.2813957,0.011964441,-0.6036849,0.1828062,-0.95126885,-0.4091194,-0.62721413,0.8696847,0.13832197,-0.2613011,-0.38654107,0.2838638,-0.82012725,0.3959686,0.5752579,-0.6272619,-0.009554386,0.8875865,-0.6473118,0.23787998,0.33638498,-0.43006954,0.9446818,0.20040272,-0.92967904,0.2278304,0.26635686,-0.6365619,0.0064782426,0.38950524,0.87509537],[-0.33443823,-0.021122606,0.9021171,-0.0055311825,-0.85365343,-0.5669068,0.55867904,-0.9168929,-0.40459406,-0.4550864,0.31616512,0.57039493,0.5344374,-0.34322715,0.33909824,0.5992351,-0.5413391,-0.9985008,-0.20076115,-0.7189065,-0.92320806,0.71900475,0.5424482,0.0008061686,0.9374907,0.11420529,0.41230834,-0.2375841,-0.06196176,0.09440422,-0.3676789,0.4651703,-0.6103115,-0.7259216,0.7375551,0.05595776,0.5939379,0.7032213,-0.58148354,0.8278579,0.66873854,-0.23695694,-1.0131441,-0.10593064,-0.6956054,-0.91903996,-0.1970467,0.34683216,0.7312553,-0.9508376,0.8341197,-0.8510746,-0.71676713,0.49724525,-0.80460393,0.23871179,0.30520418,-0.46908948,0.3697171,-0.7587932,-0.55709183,0.21827024,-0.68983895,-0.26823202,0.42316133,0.39831823,-0.71133745,-0.08887656,0.7539805,0.81783277,0.39968207,0.20920089,0.007815704,-0.9766994,0.69022363,-0.2456691,0.76758564,-0.025786452,0.4190154,0.7143135,0.79919076,0.47428787,-0.00670421,0.21590781,-0.68511426,-0.6772802,-0.050360646,-0.7981086,0.95071644,0.06159818,0.7962546,0.7826255,-1.0004662,0.027906643,0.82938343,0.56879723,-0.26938123,-0.5918814,0.67991227,0.70550627,0.69844234,-0.37802252,0.61138016,0.3091183,-0.49839598,-0.015839832,-0.19764863,-0.066863865,-0.46665165,0.2679268,-0.3692197,0.45895943,-0.6961344,0.29998034,0.9677457,-0.58258384,-0.5681963,-0.32289296,-0.34198093,-0.58142793,-0.37021714,-0.6540286,0.9853251,-0.49581605,-0.83870065,-0.17455573,0.9534444,-0.80418605,0.92536557,-0.37268317,-0.4171332,0.713594,-0.064218976,-0.17429541,-0.5715547,-0.8825544,-0.9158031,-0.40974236,-0.25189543,0.8171875,-0.54507256,-0.14185879,0.9457462,0.82657367,-0.56552225,0.2087468,0.883307,-0.7860233,-0.63328546,-0.40647227,0.5966432,-0.6811057,-0.16782542,0.46929777,-0.81659365,-0.70705944,-0.44532806,-0.2355277,0.926714,-0.78266406,0.33404785,0.4015705,0.5688951,-0.8091676,0.09711153,-0.18172042,-0.076931015,-0.69730157,-0.12164209,0.6959775,0.38083223,-0.4576425,-0.38855186,-0.58002776,-0.6774507,-0.6129156,-0.08751999,-0.16513121,-0.16011903,-0.6949923,-0.24261938,-0.9186743,0.46476024,-0.5932473,0.67979014,-0.57401097,0.98232335,0.6723718,0.43166107,-0.987628,0.50771123,-0.05969785,0.037474673],[0.8569306,0.22126447,0.7500593,0.4340348,0.1796314,-0.36252534,0.9392357,-0.04172536,0.46279305,-0.32724437,0.6187442,0.6748658,-0.2864917,0.9449797,0.999576,0.12888257,-0.7694249,0.46836466,0.7802604,0.83572793,0.40599906,0.07505918,-0.30970645,0.9691285,-0.42168427,-0.8649973,-0.20225397,-0.642815,0.20109665,-0.83546627,-0.9425113,-0.46124622,-0.7371971,-0.1705675,0.13725773,-0.12645175,0.12754454,0.55427563,0.37157452,0.8476069,0.80652916,0.9266164,0.5520249,0.3407956,-0.0017689987,0.15298305,-0.91567373,-0.3319754,-0.2968269,0.8849739,-0.46408403,0.38404682,-0.8324208,-0.81438804,0.3180079,-0.29529062,-0.39415425,0.4981988,0.04185683,-0.18477263,0.76719373,-0.9108274,-0.555218,0.9377681,-0.6544169,0.088750534,0.13281614,0.6733381,0.44084388,0.7510869,0.2548285,0.74671125,-0.8422463,-0.45453358,0.393711,-0.57539415,-0.33052248,-0.20754218,0.81821036,0.12175985,0.647258,-0.14232066,-0.85549134,0.69626373,-0.73725885,-0.16875686,0.5376774,-0.8712272,0.6807374,-0.7292588,-0.750227,-0.52875435,0.8163421,0.4991879,-0.9186161,-0.1399967,0.43645588,0.14732625,-0.62819844,0.24827741,0.974257,-0.4776043,0.40156972,0.3733647,0.28182212,-0.109793544,0.9581954,-0.40547997,-0.54815763,-0.18837442,-0.5322131,0.6454869,-0.722795,-0.640897,0.5752531,-0.72502214,0.7782091,0.75980484,-0.76916105,-0.18257809,0.6050649,-0.94724315,-0.32644776,-0.71416336,-0.24485646,0.88423157,-0.5851896,-0.689953,0.8362977,0.2467409,-0.7418768,-0.1047824,-0.26732984,-0.56552345,0.30357763,0.46216893,-0.005479296,-0.061054993,0.99753237,0.18686388,0.29718637,-0.5424095,-0.50537413,-0.76286113,0.6810332,0.4678964,-0.25880808,-0.5694247,-0.7180831,-0.49507982,0.0901306,-0.82909596,0.9927127,-0.2589019,0.47244152,-0.94080704,0.2585484,0.90480876,0.10497092,0.7182892,-0.38025117,0.8831998,0.52161974,-0.28282014,-0.68846685,-0.16972148,0.34673446,-0.7491178,0.5590234,-0.43392527,0.3539057,-0.57405746,0.5748924,0.672579,-0.21059746,-0.3913555,-0.7896904,0.39055428,0.37732047,-0.46966028,0.993497,-0.2955783,-0.023953553,-0.9337667,-0.15840423,-0.0468522,0.317318,-0.5927393,-0.3684573,0.38439295,0.06664229,0.97670454,0.07729031],[0.34913772,0.45968887,0.91805613,-0.11102714,-0.96300685,-0.8985747,0.03574978,-0.67291284,-0.49670154,0.68918574,0.003800319,-0.27613103,-0.40057936,-0.96360064,-0.060881432,0.21225853,0.4620407,0.5026526,-0.9173472,-0.0552607,0.96022606,-0.45752782,0.6753968,-0.27567092,0.84597486,0.5540069,0.31860077,-0.88413674,-0.45372653,0.3977357,-0.3547947,0.36340833,0.07814315,-0.7958466,-0.49624777,-0.6160283,-0.15080272,0.14965643,0.7275184,0.6457767,0.23255575,-0.21755601,-0.93863,-0.3799083,-0.298513,0.37401494,0.83288014,0.25788477,0.5069297,0.10991606,0.07799025,0.31617022,-0.5792982,0.27948087,-0.17758079,-0.13177198,-0.3842561,-0.39377773,0.56698763,-0.6469844,-0.9716967,-0.42044005,-0.0008482707,0.33539346,-0.62676454,0.59093547,0.8108647,-0.15344353,-0.315268,0.9016044,-0.33976674,0.40013105,0.6764764,-0.8283466,0.90398765,0.81727487,0.28759775,-0.8048068,-0.5271535,0.54065716,0.4694338,-0.118832156,0.9588832,-0.8083329,-0.7979331,0.1665946,0.37601513,-0.26974288,-0.52479684,0.4256716,0.98785067,0.68479854,-0.22927068,0.82357556,0.7119751,-0.9479014,0.84801406,-0.6973573,-0.2305587,-0.95258677,-0.016077451,0.9770196,-0.88561434,0.23356183,0.79862916,-0.43428198,0.73726666,0.3652196,-0.18336466,0.782315,-0.1772715,0.99945664,0.17001317,0.7552291,-0.16677727,-0.75885105,-0.5462428,-0.7394775,0.31688872,0.35562897,0.9945498,-0.54322904,-0.5812576,-0.494972,0.6427719,-0.77462757,0.39269614,0.9748006,0.35838553,-0.01254923,0.805773,-0.18164575,-0.73966163,-0.7228543,-0.06935806,0.8581199,0.7409496,0.92435735,0.77741927,0.3007459,-0.4088521,0.16244866,0.7489826,0.58118933,0.5204641,0.7527659,-0.54515415,-0.97409207,0.8433106,0.030796463,0.25440627,0.09383843,-0.4993669,-0.289617,0.69866145,-0.39321515,-0.662774,0.11044698,0.17108926,0.49244428,-0.5991483,-0.3824291,0.7602019,-0.36625436,-0.3007655,-0.2754282,0.95705307,-0.67849904,-0.67792505,0.17203003,-0.19755407,0.9415986,0.44485813,-0.7492292,-0.70174295,-0.33020347,0.2778193,0.33854344,0.8654996,-0.75571656,0.38911682,-0.41840285,-0.26117694,-0.7481254,0.13256972,0.28022483,0.78473246,-0.38069448,0.22912091,0.018051801,-0.71570975,0.46529877,0.6075562],[0.26462328,0.21569356,0.99890137,-0.76913184,-0.8116528,0.9548459,-0.014913982,-0.3947222,0.50613135,0.26675054,0.8845396,0.77891207,-0.70955086,-0.8912105,-0.09924384,0.56567454,-0.4537893,-0.26099402,-0.108538926,0.1655202,-0.4253759,-0.41499916,-0.21489683,-0.74644226,-0.06957538,-0.0055164723,0.1524883,0.9618048,0.09664608,-0.16728556,0.55569756,-0.22261575,-0.7977818,0.697502,-0.36730218,0.3218264,0.5520886,-0.031728264,0.555911,0.35644624,0.2826171,-0.2958589,0.7425698,-0.13526702,1.0342069,0.67677647,1.0239482,0.11155599,-0.53705764,-0.93677163,-0.25505117,0.8620763,0.3915079,-0.70820767,0.31542718,0.38183206,-0.7424826,0.5903465,0.695467,-0.610627,0.78609365,-0.099456355,0.7553805,0.5366729,-0.78016835,0.5187859,-0.19490412,-0.16657193,0.78270847,-0.85220945,-0.7350117,-0.63569105,-0.4379997,0.7055712,0.8245516,-0.03772528,-0.23829938,0.8203816,0.8848609,-0.8003664,-0.14042835,0.06513757,0.7823349,-0.28514427,-0.14842981,0.75003505,0.6670716,-0.025466004,-0.31416118,-0.77991617,-0.11382396,0.44271448,0.4810679,-0.8452935,0.21930113,-0.7029104,0.02995026,0.020128509,0.68783194,-0.47430652,0.5977471,-0.61993283,-0.2659373,-0.7128551,1.0054094,0.7984264,0.11835263,0.7264267,-0.6869132,-0.14461799,-0.50548595,-0.90472823,-0.6617281,0.9123108,-0.006952957,0.06848326,0.22253935,0.30209577,-0.541088,-0.011334806,-0.28779063,-0.53723127,-0.65494955,-0.7351918,0.73994005,0.46540615,-0.5354562,0.24715145,0.035757158,0.053021554,-0.8058649,0.1301459,0.53826326,-0.7799732,0.7657769,-0.21686952,0.32080466,0.8448262,0.338982,0.5064119,0.30431858,-0.10922554,-0.7897572,0.89935035,0.9312882,-0.20945491,-0.5377599,-0.38170207,0.7580416,0.65851504,-0.0911792,0.033024333,0.25391936,-0.6082835,-0.567965,0.9747226,0.71439147,0.7322658,0.9110605,-0.13464843,-0.25937742,-0.90238744,0.16033334,-0.72826785,-0.5443048,-0.3679558,0.93947625,-0.3938366,-0.90457505,0.16195026,-0.5565182,0.9970556,-0.93133765,0.20078821,-0.1550503,0.6107799,-0.37435016,0.90414584,0.5840057,0.59087914,-0.41665277,-0.50004613,-0.8385392,-0.22959663,-0.091456935,0.37103376,0.52470124,-0.7976613,-0.45226413,-0.009679766,0.3329678,0.74054873,-0.5329912],[0.009955993,0.8951939,-0.80598044,0.44024616,-0.24571937,-0.30817637,-0.1642643,0.18040909,-0.9395495,-0.76018435,0.8105633,-0.4251288,-0.79394484,0.54265803,-0.32924074,0.23543164,0.30881858,0.18011743,-0.9138037,0.06485716,-0.7899001,0.72644246,-0.47559172,0.35723495,-0.5238105,0.59173936,-0.3015891,-0.62027794,-0.6394562,-0.14739978,0.2795886,0.94712555,0.59535736,-0.32317358,0.8416019,0.3216806,0.9508609,0.45116413,0.26646593,-0.91661173,0.19097675,0.5392795,-0.14716335,-0.076942965,0.0028799286,-0.08964316,0.3928945,0.29679462,0.8669753,-0.3397754,-0.8584804,-0.31189752,0.66300505,0.8747722,-0.35181192,0.11985755,-0.3049205,1.0064465,0.13606055,-0.8629324,-0.3959899,-0.10030606,0.91521865,-0.87817395,-0.81043124,-0.41490442,-0.58844954,-0.037187483,-0.7229927,-0.7109209,0.82628256,-0.68418825,-0.49132022,-0.47171327,-0.13322629,-0.9249289,0.52133536,-0.7468672,0.25409997,-0.806409,-0.37552544,-0.7639313,-0.8979325,0.54692554,-0.054556444,-0.3827382,0.37776962,0.84662175,-0.34001508,0.85513514,-0.7158094,0.55317646,-0.09506795,-0.027050078,-0.39940214,0.43639523,0.82598245,0.96888584,0.06670972,-0.14267607,0.32937634,-0.058183286,-0.21515639,0.9722057,-0.16739918,0.42071766,0.39656183,0.8993778,-0.6457397,0.70502704,-0.88960177,-0.90748525,-0.47915518,-0.3500743,-0.16937277,0.4462644,0.014490324,0.6467869,0.12916158,-0.10293189,-0.8899956,0.025729312,0.7801801,-0.19885392,-0.21806687,-0.7677385,-0.46070912,0.88843346,0.634923,-0.98304385,-0.8893197,0.97387064,-0.26110706,0.3431472,-0.85691226,-0.34632885,-0.14406858,0.14697541,0.97808665,0.55615604,-0.69255406,-0.7110558,0.20355357,0.46667832,0.3758242,-0.49447897,0.8981881,-0.79881436,-0.22021583,0.32683957,-0.007841825,-0.94328165,-0.54629314,-0.5460129,-0.19644296,-0.30833942,0.3983345,0.28627938,-0.5807452,-0.62922424,0.15117791,0.8794654,-0.97234243,-0.69289064,0.21719159,-0.2149801,0.94369614,0.31534916,0.95361656,0.29820535,-0.98014444,0.4611098,-0.7277695,0.66159636,-0.68822366,0.6248579,0.013296367,-0.12598683,0.7540734,-0.063362315,0.38355905,0.63615596,0.12062784,0.036849957,-0.19446985,0.074822426,0.26179183,-0.39969996,0.36978015,0.26895195,-0.7573836,0.03476051,1.0081611],[0.5551547,0.0021133258,0.014178606,-0.6420545,0.10856353,-0.34342578,0.34606114,0.6374974,-0.3808359,-0.5438105,0.3571921,-0.779731,0.55440927,0.02253722,0.35551548,-0.659999,-0.31108117,0.99935657,0.18825497,-0.30555782,0.2448597,-0.5689822,-0.51709545,0.13838756,0.010827618,-0.086568035,0.14737833,-0.19948119,-0.63975215,0.16464531,0.5696306,0.91016537,0.63286525,0.49098822,0.72187686,0.004683896,-0.56959635,-0.19249935,0.72333556,-0.9406785,-0.6336127,-0.649892,0.9946188,-0.3233605,0.5783259,0.6520058,0.52277255,-0.78526324,-0.11547492,0.4011111,0.300747,0.28895876,0.36114797,-0.7484827,-0.053682603,-0.5045771,-0.80186296,0.98793983,-0.89785975,0.009848443,0.28234857,0.95253253,-0.21894558,-0.36870864,-0.056524023,-0.8594113,-0.839428,0.8222973,0.5357478,0.12289302,0.49566478,-0.31947383,0.37912548,0.30661088,-0.4559767,0.50088245,-0.54802465,0.61975366,0.73970896,-0.11146432,-0.665424,0.611808,0.04362094,0.51586246,-0.62327296,0.019020317,-0.05289369,-0.46217796,0.6694161,-0.7737968,0.21025269,0.2796847,0.56012213,-0.13971376,0.8240523,-0.12557644,-0.1930533,-0.71009684,0.68655425,-0.2407393,0.41006416,0.7666564,0.12378577,-0.00053991936,0.8385631,0.23590954,-0.3302899,-0.689348,0.5523476,0.23419157,0.1622768,-0.489872,-0.4594442,-0.5958298,0.33674204,-0.37306347,0.66279966,-0.38790113,0.9746671,0.7861896,0.35335112,0.4079944,0.01261341,-0.6092261,0.06174241,0.06438675,-0.10609586,0.6330777,-0.6334519,0.414278,-0.09623865,0.67300975,-0.6544341,-0.90574414,-0.88212866,0.2238,0.88417864,-0.19453353,0.7186552,0.70053643,0.35604382,-0.45418692,-0.9856705,0.08889814,-0.81212914,-0.8759268,0.77165645,0.97588015,0.28589094,0.7596867,-0.2705647,-0.20611204,-0.045804467,-0.52975374,-0.3174799,0.83234257,0.04523452,0.85085005,-0.6877152,0.53988534,0.55022436,-0.6962218,-0.6752977,0.4564316,-0.7099186,-0.36767146,-0.18920088,0.027038084,0.6244113,-0.04658435,-0.14770527,0.99146277,0.97000086,-0.1338951,-0.88335234,0.9003494,-0.75081265,-0.4001348,-0.88053036,0.5736401,-0.58369356,0.34372655,-0.59213346,-0.13716449,-0.7568287,-0.4712392,0.9451397,0.12468542,-0.09790042,-0.8261898,-0.34160015,0.16892469,-0.5463596],[0.62467676,-0.49032098,-0.5342062,-0.42015544,-0.59016466,0.1445849,0.14794591,0.8551449,0.17740832,0.9840469,-0.20557304,0.61598927,-0.12489463,-0.4534892,0.3418446,0.6198788,0.92704415,-0.7812762,-0.7543201,0.7723967,-0.7468622,0.03916813,0.6108534,0.6762603,-0.9081841,0.11174611,-0.6928601,0.8719523,0.120581664,-0.903692,0.690645,0.21423586,-0.7577454,0.5834493,-0.3575551,-0.029395288,-0.3285067,-0.9613833,-0.81369776,-0.75666237,0.4214587,0.3175064,-0.9507059,-0.95347065,0.27117392,0.7742639,-0.65403074,-0.2356372,-0.058773678,0.9538041,0.86328924,0.009775854,-0.63497883,-0.6107086,-0.68113726,-0.08895359,0.4443039,-0.96456426,-0.067571625,-0.81900144,-0.15484345,-0.7007822,-0.0070037297,-0.4397492,0.9212568,0.71717376,-0.19972064,-0.7995699,-0.09187835,-0.6480782,-0.03282958,0.9961512,-0.6244452,-0.14488159,0.37574428,-0.3279205,0.3604541,-0.6715703,-0.908487,-0.84068084,0.27229875,-0.3187899,-0.14534548,-0.7226463,0.7866944,-0.359195,-0.23736182,0.42403826,-0.15917352,0.26875,0.08588462,-0.75404483,0.72991085,-0.9323168,-0.481995,-0.9273338,-0.08385773,-0.37604618,0.99738085,-0.09906587,-0.39650485,-0.47993863,-0.45516706,-0.83436114,0.50059474,-0.97898203,0.24177486,-0.15468867,0.20742506,-0.52995235,-0.29900846,0.16326196,-0.5869498,-0.66117924,0.47627786,-0.26145905,-0.022503149,0.7119862,-0.32905132,0.32674038,0.9758878,-0.95759594,0.9007778,-0.09622804,-0.65897125,0.063272804,-0.90201825,-0.6490811,-0.69468075,-0.4843657,0.16301546,-0.07192399,-0.8415371,0.850815,-0.59996045,-0.29234785,-0.8378567,-0.21635054,0.8821099,-0.16067635,0.0778621,-0.24976456,-0.39462826,-0.52256346,0.816994,-0.32061785,-0.7600305,0.8358642,-0.006827932,-0.7774087,0.6155846,-0.9033334,-0.060691405,-0.21740936,0.90551174,0.23500659,-0.7184954,-0.065974526,-0.6279234,0.7032151,-0.3330637,-0.4654829,0.5766179,0.5448739,0.094046,-0.4742924,0.22678111,0.79903036,-0.29442605,0.69438493,-0.14367159,-0.2617425,0.85408026,-0.43662688,-0.84656894,-0.98638785,-0.33148485,-0.49294934,0.6922794,-0.12926093,0.46748805,0.9048282,-0.13304695,0.9855359,0.8629575,-0.33902803,-0.4837914,-0.25645477,0.19707389,-0.49814925,-0.048200876,0.32246894,-0.611172],[0.5938162,0.6063808,0.53580546,0.77145606,-0.20737886,-0.48144042,0.8842793,-0.26318628,0.29174182,-0.06587215,0.53118104,-0.13860346,0.6020458,-0.44736254,0.606361,0.05546085,-0.47630015,-0.9593869,-0.18015079,-0.72395235,-0.7227832,0.9046273,0.74613357,0.64045244,-0.6890187,-0.72943056,-0.51631033,0.1571772,-0.9022803,-0.11461237,0.3160484,0.32097843,0.07509021,-0.11231298,0.8466819,-0.21240105,0.6025573,-0.5414049,0.055067264,-0.5429273,-0.42385367,0.92305136,-0.944999,0.8359353,-0.764115,0.8952208,-0.7256705,0.5297634,-0.75770205,0.08474027,-0.03695799,-0.97908264,-0.8578041,0.10947548,0.27636266,0.79680055,0.16025044,-0.6109948,-0.9729285,0.6928312,-0.001163193,-0.27326846,-0.018544817,0.5778721,0.16114709,-0.6983629,-0.16524799,0.03630244,0.31275496,-0.5955855,-0.55383354,-0.44950405,-0.83835363,-0.138453,-0.34877852,-0.90604204,0.13022304,0.809076,-0.53874433,-0.6883215,-0.6790022,-0.59889466,-0.2911205,-0.5396719,-0.8856202,-0.8611986,-0.9179107,0.3256557,-0.5711335,0.9024225,0.6797612,0.062979616,-0.5071921,0.8220387,0.4054276,0.39385056,0.46324325,-0.6940553,0.6456399,0.03136921,0.74108756,-0.69835967,-0.49240354,-0.22915633,0.05057866,-0.8553048,0.8445795,0.77964234,0.82441556,-0.37540123,0.5164484,-0.48330462,-0.1927837,-0.009444676,0.45383856,-0.43707442,-0.4246319,0.73840857,-0.54004407,-0.6421725,-0.34859163,-1.0139263,0.05571515,-0.32359177,0.06593616,0.6715904,0.28434452,0.14633128,0.8316636,0.43748108,0.35315654,-0.9295678,0.53225327,-0.1781463,-0.076152794,0.53361195,0.20793672,-0.24981126,0.24505125,0.39193776,0.55566174,-0.39945412,0.41045097,-0.39216176,-0.008245155,-0.90910876,0.31486177,-0.33253294,-0.25575534,0.14238286,-0.1994949,-0.8164571,0.124998875,-0.024825051,0.70114195,-0.7676951,-0.32632416,-0.7780162,0.74338686,-0.9318486,0.045809746,0.6139488,0.45540017,0.9567821,-0.8562524,-0.04584457,-0.05715428,-0.7762986,-0.6180153,-0.103764914,-0.98782855,-0.85136485,0.21693543,0.015655829,0.22747184,0.051862597,-1.0244057,-0.92261714,0.7092744,0.01749618,0.26573238,-0.7675791,0.82931083,0.95772624,0.36285347,0.6599764,0.005262097,0.28230688,0.5577575,0.92380655,0.777587,0.7654315,-0.2269737],[0.7883035,0.76109636,0.9295431,-0.42818156,0.30085823,-0.57793623,0.9177884,-0.5297847,-0.42918098,-0.2256278,1.0255344,0.94747114,-0.28213,-0.6662364,0.82747585,0.84531045,0.4002792,0.8993847,-0.94322926,-0.47946107,-0.319117,-0.8599101,0.84785527,-0.15917842,-0.3095958,0.26228458,0.8992706,0.17068414,0.6989476,-0.9020925,0.084717914,-0.3518839,-0.93009764,-0.08415949,0.4867785,-0.053114597,0.89471996,0.787467,0.9264552,-0.028480023,-0.56072474,0.3359569,0.641101,0.004321256,-0.65602887,-0.7229697,0.41147813,-0.32394114,0.0003072645,0.30448037,0.18235174,-0.8755435,0.6044188,0.89898354,-0.3825623,0.15650849,0.76483077,0.07148759,-0.11498332,0.19629712,0.012785103,0.01073619,-0.50127923,0.6724136,0.6587046,0.7842253,-0.76228416,-0.017006088,-0.049907017,0.15327895,0.7800083,-0.8012191,-0.5271768,-0.08622828,0.48892424,-0.30551758,0.3411107,0.8689591,-0.92236274,-0.46213806,-0.36697787,0.32238123,0.9561962,0.030458432,0.16801377,-0.662702,0.29929873,0.102210864,0.56748116,0.060802475,0.27656403,-0.5747982,-0.87859446,-0.47687414,0.24442026,0.9271145,-0.62241954,-0.5486677,0.059279,-0.43971238,-0.045759164,-0.6090846,0.64096034,0.008355471,0.4642034,-0.11621892,0.5397918,0.69131345,-0.018869782,-0.24060737,0.5316391,0.85314184,-0.5777888,-0.19732416,-0.5437747,0.98950386,-0.6049747,-0.7885541,0.3477768,-0.7786225,-0.80615187,-0.23250352,-0.48774758,0.5099115,0.026400365,0.93679184,0.21057196,0.19223714,0.88584596,-0.85612494,-0.5603967,-0.051366158,-0.8090474,-0.95799685,-0.4500712,-0.90340275,-0.50721145,0.4485578,0.29550785,-0.3691689,0.10768025,0.66271365,0.51589763,-0.24874191,-0.75689715,-0.24958807,0.8207564,0.5903463,0.3704279,-0.46630195,-0.26802287,0.34166637,-0.20676802,0.59638256,-0.3607729,0.7205969,0.5213377,-0.89296705,-0.12476592,0.7396716,0.2113583,-0.17459795,0.5404949,0.9474069,-0.3306197,0.89238423,-0.7798952,0.045385435,0.10668067,-0.8132798,0.6193401,-0.55822045,0.051939536,-0.49340308,-0.68182534,0.3074094,-0.5203909,-0.8217467,0.65702385,0.17916787,-0.69641846,-0.36578298,0.7886445,0.9640898,0.6678807,-0.32305956,0.9660994,0.6400945,-0.7103898,0.9817304,-0.050701834,0.9437213,0.13567832],[-0.42395306,-0.9709907,0.1672457,-0.22512195,-0.032629732,0.010920674,0.58608127,-0.3695654,-0.9799344,-0.71175146,0.013600657,0.084445186,-0.251993,0.33157974,-0.86723,-0.729423,-0.43358505,-0.57995886,0.09873102,0.9708416,-0.71350235,0.19924487,0.46498525,-0.46628803,-0.9184127,0.4987047,0.99755013,0.54833937,-0.70055836,-0.5615782,-0.2542016,0.117882736,-0.26504838,0.7630222,-0.5733321,0.4381183,0.47435594,-0.90958416,0.86166215,0.39939296,0.058452476,0.29144943,0.77056515,0.3310942,-0.24229464,-0.23964685,-0.96211547,-0.1343583,-0.57926255,0.21919712,-0.34944797,0.4372052,-0.7058635,-0.57017845,0.5550331,-0.9523436,-0.46043772,0.9154801,-0.9785432,0.82944554,-0.34403276,-0.7248224,-0.7303132,0.6634442,-0.31140167,0.42037633,-0.6149134,-0.291961,-0.63019174,-0.20186387,-0.7854029,-0.1978713,-0.84554714,-0.32251805,0.86006397,-0.2974928,-0.3951055,0.07819217,-0.52605075,-0.76247275,0.92892826,-0.035001718,0.35760072,1.0103568,-0.4397137,-0.9720434,-0.8681671,0.8870682,0.60935295,0.26887253,0.92844075,-0.012407578,-0.90998113,-0.9799848,-0.23229042,0.46937147,-0.74685335,-0.1276669,0.07206315,-0.58275086,1.0203483,-0.41685817,0.19454277,-0.49009457,1.0067881,0.7045836,-0.33762097,0.8215575,-0.6141571,-0.92212284,-0.40957764,0.08713703,0.0038902361,0.6229858,0.49526513,-0.7388823,-0.8277713,-0.9692241,-0.2133336,-0.757164,0.9864495,-0.8089599,-0.033971183,-0.89168227,-0.07162773,-0.9708507,0.79398686,0.16316804,-0.13683374,-0.7848939,-0.38870677,0.21795371,-0.8575721,-0.10745021,0.5043746,0.09072254,0.73223823,-0.9316923,-0.6360696,0.9148925,0.8311288,0.20121211,-0.21003757,0.84761816,-0.78119195,0.68501246,0.8665206,0.84218764,0.008554074,0.09144975,-0.5854053,0.60304147,0.71459234,0.68578833,0.29557776,0.049103122,0.28333372,-0.59670305,-0.91319704,0.91087157,-0.64644086,-0.93956524,0.9023159,0.19317535,-0.62760276,0.7870916,-0.13374186,0.6004119,-0.570997,0.96801573,0.57887274,-0.3795356,0.7513173,0.5926504,-0.18752632,-0.5663811,-0.27542672,0.5861294,0.80596834,-0.69689435,-0.70947254,0.22595073,-0.096967876,0.0032719625,0.84931064,-0.8360966,0.78909737,-0.5628585,0.88793796,-0.83294034,0.612959,-0.6038429,-0.32945523],[0.035892747,0.21221986,0.8521175,0.638548,-0.5008038,0.6236275,0.27484697,-0.4277141,-0.9636451,0.38494462,0.40623888,0.54973155,-0.027498204,-0.92576176,-0.2802385,0.19238155,-0.87323385,0.26935524,0.30158445,-0.046579927,-0.54640836,-0.25802657,-0.6572542,-0.075152054,0.2514028,0.91305405,0.12699358,0.43605667,-0.8999646,-0.2048081,-0.15277894,0.7797999,0.75925833,0.17657794,-0.46994048,-0.08031592,0.05925034,-0.29193327,0.8917235,0.32161775,0.3620071,0.4570871,-0.74467814,-0.18449284,0.7539676,0.9725535,0.8319568,-0.61532384,0.61623126,0.46866587,-0.4135131,0.68420786,-0.025818769,0.3179833,-0.9870182,-0.51348096,0.776843,-0.59437084,0.16978359,0.4287054,0.58755666,0.0061038043,-0.23227344,0.32636172,-0.4020472,-0.7891306,0.7850532,0.4449768,-0.6260744,-0.045598637,0.8532394,0.7085828,-0.77066255,0.11062402,-0.066444546,0.7855405,-0.34842914,0.47742298,-0.33052498,0.78826225,0.25772974,-0.820817,-0.72611237,0.18292102,-0.3124029,-0.20641457,-0.18030787,-0.21709083,-0.7467444,0.8150668,0.7650965,0.4456014,-0.9197789,-0.5444769,0.015916767,-0.7735045,-0.04601417,-0.80366695,0.77334136,-0.6133978,-0.28943115,-0.34946802,0.39788124,-0.3444616,0.8004609,-0.28629503,0.9922613,0.4012801,-0.5202744,-0.94494957,-0.68927497,0.22593385,-0.036077324,-0.92291576,0.41686007,0.3778699,0.37738797,0.24283746,-0.2638739,-0.24133386,0.03845719,0.063935295,-0.38848707,-0.81026137,0.38735467,0.07868267,0.33608896,0.9139649,-0.0032506557,-0.68955165,-0.0064188866,0.9396871,0.89482933,0.27549902,0.52751476,0.07166413,-0.7928382,0.028688157,-0.974857,0.110202774,-0.86385083,0.22608294,0.031950004,0.7688254,0.16185968,0.39748785,0.40204936,-0.7604939,0.6596216,-0.26375097,0.71328294,-0.8473275,0.9008974,-0.30646056,-0.070064634,0.44010857,-0.36215377,0.11862264,0.6928634,-0.6756787,-0.022621844,-0.8634159,0.7263942,0.7955146,0.94885695,-0.3333642,0.12193349,0.8377549,0.67006993,-0.64861345,0.9426603,-0.29519007,0.30598348,-0.053987976,0.20058134,0.47822633,-0.4034667,-0.4571769,0.76969135,0.40693587,0.6489331,-0.24400756,-0.9966791,0.6051246,-0.34800145,-0.31180218,-0.7096072,-0.7063644,0.24410596,-0.2998666,-0.6628165,0.36656278,0.258668],[0.50311023,0.7166776,-0.2671464,0.6070249,0.5539799,-0.5492876,-0.5292722,-0.25809255,0.81957483,0.83485574,0.81462705,-0.34771317,0.47403967,-0.9730707,-0.093511745,0.49828038,0.7333294,-0.98418564,-0.60832065,-0.7244239,0.05180215,0.5589871,-0.03881929,-0.92907953,-0.93158627,-0.9673604,-0.17712224,0.33990207,-0.9137254,0.35928905,0.10219017,0.34099838,0.019849591,-0.1704897,0.84311163,0.20348786,-0.46723154,0.43378064,-0.10103563,-0.96981126,0.060087297,-0.022164457,-0.07865522,-0.53777033,0.9622629,0.9677462,0.1364482,0.63006973,-0.84719944,0.33129704,-0.1338454,-0.8956722,0.8175864,-0.5332311,0.89373225,-0.2859901,0.5725957,0.35878026,-0.30996728,-0.7647006,-0.25547495,-0.53905326,0.7367434,-0.26230255,-0.5163766,-0.7781618,-0.7826803,-0.8652665,-0.15568295,-0.0013204301,0.18901059,-0.21986896,-0.20458668,-0.58781934,0.08188931,0.12272812,-0.20591341,-0.15175802,0.8051195,0.48327574,0.28460214,-0.84756243,-0.4874849,-0.7042808,-0.034849606,-0.62924355,0.09992414,-0.9719635,0.9511281,0.044243474,0.93572456,0.27044505,0.16339563,-0.2974928,0.6281228,-0.8496053,-0.67945766,-0.9122173,0.33772734,-0.1143894,-0.42623177,0.5825997,0.7442571,-0.8549503,0.032757346,0.60013086,0.08878864,-0.25694495,-0.03731988,-0.93389446,-0.43568373,0.76947093,-0.3240086,0.8596012,0.20195825,-0.77211064,-0.78443146,0.34078628,-0.2872486,0.34460172,-0.94085234,-0.59333,0.5351798,0.7026291,-0.87483335,-0.5429141,-0.5660543,-0.042093188,-0.52196264,0.6278512,0.42609718,-0.4572802,0.7719265,-0.20747559,-0.8530002,0.45085302,-0.4714512,-0.4420671,-0.20578395,0.8676746,-0.01938985,0.19224423,0.20405772,-0.52271724,0.8851858,0.94448006,-0.2565147,-0.5828475,-0.92707545,-0.42837003,-0.70262516,-0.7649727,0.09488937,-0.34835517,0.92286354,0.7087471,0.7720488,0.4213295,-0.0023070124,-0.4299907,-0.09613895,-0.68224746,0.048553593,-0.16283588,-0.2463438,-0.8326836,-0.41974518,-0.62403834,-0.7133459,-0.49045157,-0.40723085,0.669025,-0.0154799465,-0.56528157,0.52970403,-0.028263755,0.80811775,-0.23915851,-0.47920245,0.21687473,-0.20381235,-0.9881684,0.78465784,0.6481571,-0.9832745,-0.43682548,-0.47244194,-0.88853735,0.6225138,0.62848836,-0.028798588,0.21878919,0.47388476],[-0.20516746,-0.980026,-0.2326752,-1.0264666,0.81064403,0.86046475,0.65672094,0.6379671,-0.70838,0.12109636,0.35203186,-0.06360756,-0.564755,-0.8137733,-0.608564,-0.6000613,-0.46807396,0.34189317,-0.14703996,-0.7068017,0.119385436,-0.5094202,-0.0030025474,-0.7554484,0.21882589,-0.5626141,0.43748662,0.7588642,0.64128613,0.7287448,0.730905,0.08134897,0.47696537,-0.86156875,-0.7298843,0.8233861,-0.5493966,-0.67770404,-0.29241705,0.056044977,0.59572786,-0.45804673,0.5857421,-0.78859645,0.5150786,0.5134907,0.69639957,-0.7980031,0.49748597,-0.10587102,0.3822957,-0.27484292,0.092634894,-0.07718525,0.40986213,0.90721136,-1.009144,0.8135448,-0.2966039,0.88819456,-0.97268945,-0.14752501,0.3772403,0.33153653,-0.71854883,0.1905497,-0.044731908,-0.6226073,0.089386284,-0.70791984,-0.64670295,-0.14282581,-0.8750543,0.48438123,0.0010148863,-0.7144816,-0.80890965,-0.5948115,-0.13771692,-0.49416557,0.36320716,0.7643794,-0.26440197,-0.78512585,0.1691861,-0.43623787,-0.94099265,0.37175632,-1.0037919,0.4473123,0.8778845,-0.13543126,-0.24972954,0.69182533,-0.09494848,0.36580414,-0.051204044,0.28345063,0.9380776,-0.036239963,-0.2545586,-0.043729633,0.9046011,0.14397594,-0.8156762,0.08263006,-0.643066,-0.77427876,-0.29736775,0.2776717,0.7424528,-0.77657104,0.29539713,-0.83251834,-0.9653912,0.7767463,0.082353964,0.36356124,0.11709368,0.06759652,-0.023531895,-0.33768648,0.08008597,-0.12500174,-0.563558,0.7099655,0.77015054,0.89952993,-0.8522739,-0.90206784,-0.08885654,0.8710131,0.7783545,-0.602445,0.7142271,-0.46109095,0.9125553,0.59495646,0.6816708,0.0788981,0.44226933,-0.010472359,-0.8922979,0.31747353,-0.22652586,-0.6695555,0.7408603,-0.80003226,-0.7408087,-0.40444544,0.18535788,0.23030885,0.46102354,-0.40979952,-1.0025339,-0.54370725,0.25190243,0.16489021,-0.053574137,-0.8887345,-0.9149588,-0.8404067,0.014701221,-0.8381855,0.7794433,-0.044981014,0.07427013,0.77909106,0.111532666,0.7874866,-0.4002965,0.8334792,-0.14701474,0.84821373,-0.46930358,-0.1086772,-0.4211542,0.59053296,0.80260164,-0.12252056,0.018169612,-0.635791,0.24646066,-0.27645135,-0.05587875,0.83257043,-0.0068202363,0.2122741,-0.70798475,-0.17193119,0.8189546,-0.03880821,-0.16173063],[-0.57692665,0.684071,-0.95787305,0.50025964,-0.08851499,-0.71151346,-0.26920688,0.35670584,0.3205479,-0.42389038,-0.02203813,0.7026071,-0.50674814,0.45473757,-0.96115893,-0.6476036,0.57045525,-0.93377036,-0.36199462,-0.24874681,-0.12889351,0.14431615,0.7560848,0.883892,0.5984282,0.559259,-0.5757449,0.0022262237,0.2068612,-0.99860084,-0.24600555,0.5406925,0.3200339,0.43943918,-0.0138297435,-0.53842854,0.7824495,-0.824537,-0.6245669,-0.037896805,0.599504,-0.14607303,-0.39184555,0.62226367,-0.8127975,0.57999074,-0.16166364,0.8265374,0.24879986,-0.401921,-0.93453854,0.65597945,-0.18808751,-0.084254384,-0.8342312,-0.7552477,0.18915832,0.5963222,0.57017624,-0.4200626,0.25584108,0.30761978,0.7012504,0.78964645,-0.5250209,0.30401263,-0.28859058,-0.9568992,-0.1734756,0.7323554,-1.0000012,-0.42331785,0.6498949,-0.7210496,-0.65448743,0.13810195,-0.15938365,0.26935714,-0.7433477,-0.6661068,0.10598213,-0.8117657,0.7291501,-0.7745836,-0.6903851,-0.67597693,0.037475225,-0.04490288,0.4011648,-0.57065725,-0.4325322,-0.13499111,-0.92014575,-0.2928756,0.16470122,0.87278473,-0.22518186,0.5372613,0.22932617,0.49136734,0.2837712,-0.20198536,0.7063993,0.07436106,0.047178775,0.47483984,-0.2506033,0.03739888,0.15070707,-0.54038507,-0.72057265,-0.7191337,-0.80371803,-0.52211237,-0.32505333,0.5558902,0.8044512,0.93467456,0.5276628,0.33957273,0.17839293,-0.028732905,0.33368674,-0.8540256,0.4318069,0.23480211,-0.23832053,-0.24370617,-0.11622972,0.5943223,-0.16979007,-0.25830027,0.29799592,0.79698026,0.52251035,-0.4934826,-0.7924639,0.22104621,0.94180286,-0.24235497,0.94123673,-0.6379419,-0.47650895,-0.81102306,-0.06889788,-0.17169884,-0.5497037,0.5613777,-0.576527,0.3594848,-0.5063305,0.6316517,0.71784264,0.68977755,-0.08900818,0.8616138,-0.55544245,-0.5699105,-0.7799808,-0.5982068,-0.009769436,0.34940606,-0.9626788,0.907587,-0.38275802,0.7099013,-0.9745026,-0.4710799,-0.58183604,-0.3794342,0.7873787,0.045626897,0.63065034,0.87946266,0.048924636,-0.98412704,0.41741484,0.07509465,-0.706635,0.01226834,-0.3903837,0.20531602,0.24061257,-0.79894346,0.9441497,-0.07494495,0.6373493,-0.7430187,-0.5125033,-0.38767117,-0.81228924,-0.36588493,0.3273908],[0.27965719,-0.6272893,-0.87653226,0.24258311,-0.35802892,0.66748327,0.83828145,-0.3598409,0.9505614,0.7927806,-0.17248873,-0.8957409,0.8609672,0.66206235,-0.79280114,1.0444578,-0.63506216,0.70494276,0.16142797,0.8493147,0.7056313,1.0547494,-0.3692049,0.23154393,-0.79666203,0.52190655,-0.046658505,0.5558787,-0.87582684,-0.75820684,-0.18217783,0.27560857,-0.7676386,-0.42212176,-0.36381787,0.94552135,0.0041392595,0.5367639,-0.7187144,-0.36624974,-0.08666217,-0.8126756,0.025396014,-0.4438835,-0.097100355,1.0024401,0.7495932,0.052298095,-0.7644618,0.13943617,0.1518726,0.9898675,0.46329656,0.031124752,0.3067969,0.48296583,-0.52439564,0.091038294,0.97505057,0.085287705,-0.8530714,-0.67324626,0.51239634,0.8935166,-0.9112188,-0.76449376,-0.19139676,-0.30083925,0.3289918,-0.52688605,0.47396943,0.80915385,-0.5511014,0.70585656,-0.09612032,0.4679546,0.7474914,1.0474778,-0.455206,0.32658708,-0.44815272,0.048378292,-0.9552216,-0.9215995,0.8616358,-0.018001046,-0.32826808,0.61317235,0.47254676,0.26503146,-0.8618474,-0.9573415,0.93668205,-0.6038507,0.19042565,-0.10015625,-0.49879044,0.5150758,-0.8576594,-0.023684323,0.12725021,0.9320238,0.8159511,0.6927705,-0.4196143,0.37410256,0.722648,-0.25397354,0.4795127,0.23809262,-0.69736946,0.122964285,-0.5708229,-0.88586515,0.39768955,-0.0643578,0.8771034,0.7434997,-0.93387717,-0.8438328,0.60064805,-0.21990193,0.42685175,-0.82115126,0.30844823,-0.50007576,-0.3078224,0.15479636,-0.16188906,-0.23606972,-0.6822773,0.35609415,0.19097462,-0.25951442,-0.6286927,0.77333194,0.8838606,0.6621309,0.6915943,-0.78049403,-0.7983141,0.43133178,0.9885796,-0.38686407,-0.4103613,0.745473,0.19230989,0.19350462,-0.32697135,0.5789625,0.31852517,1.0045841,0.31786084,-0.68220896,-0.93602794,-0.5970034,-0.6507961,-0.9123728,-0.57219094,-0.6873388,-0.06532653,-0.84239125,-0.78836066,0.068759084,0.24955449,0.357642,0.23854135,0.7341431,-0.3171051,-0.11095267,0.5736278,0.7354835,0.8174345,-0.5727076,-0.116693445,0.75059384,0.16415846,0.9807019,-0.57595825,0.41795066,-0.30383322,0.5113204,0.03656031,-0.4346328,-0.49977252,0.11453526,-0.89551467,0.0126071535,-0.70539314,0.485944,0.23445722,0.8748386,0.66183555],[0.25189656,-0.3066587,-0.9467388,0.41518587,-0.95848423,0.25756213,-0.52078986,0.36790642,-0.65211266,0.9666733,-0.55661595,0.30749184,-0.69443256,0.20567465,-0.5527322,0.3506467,-0.65981513,-0.27615649,0.33091205,-0.96668273,0.80554223,0.6202831,-0.23946051,-0.82877946,0.810682,-0.21463367,0.43402117,-0.9195528,-0.40878466,0.26017427,-0.8454229,-0.36387277,0.51708966,0.4697279,-0.7641991,-0.9636778,-0.8131282,0.15636596,-0.9292319,0.24656333,-0.32143173,-0.99562645,0.3635234,0.23858015,-0.7843647,0.42614147,-0.24557452,0.5315508,0.09001631,-0.104616106,-0.3220311,0.083135724,0.42050794,-0.19850664,-0.9442665,-0.14200807,-0.6604499,0.59563357,-0.66934556,-0.9668266,-0.92177856,-0.96850055,0.17663804,0.8920114,0.70895714,-0.31861994,-0.9401682,0.5085919,-0.32700497,0.30722043,-0.5864372,0.99823713,-0.02025123,-0.17932709,-0.4577546,-0.1497889,-0.27986786,0.35541943,0.03845887,0.9103625,0.17739566,0.1486193,-0.8746017,0.47833198,0.2837537,0.6273131,0.44811106,0.7207801,0.7319705,-0.0594634,-0.57358414,-0.9187312,-0.6294332,-0.14583017,-0.08256541,-0.4281711,-0.6790255,0.032942466,-0.1711079,-0.5412053,0.71928465,0.43541548,-0.03517881,-0.5226997,-0.60566145,0.5364993,0.22907957,-0.13483557,-0.76839876,0.65836674,0.9663272,0.10993273,-0.31193402,-0.89538044,0.699164,-0.9896899,-0.35542572,-0.7199311,0.5000367,0.34312615,0.15314661,-0.8914223,0.91329885,0.39409533,0.10996573,-0.5330115,-0.5169927,-0.55499876,0.19156127,0.8666296,0.20213823,-0.32893735,-0.72323275,-0.4859998,0.0017426446,-0.25218007,-0.09445441,0.53326213,-0.36265412,-0.80854136,-0.68516564,-0.105660245,-0.91642106,-0.00998174,-0.009972919,-0.7423644,0.103793785,0.9169882,0.9731846,-0.30348313,0.92766815,0.71967894,0.8549317,0.15158336,0.6431982,0.83499944,-0.6224803,0.64813954,-0.9774421,0.23456582,0.6061315,0.42733353,0.7184735,-0.22319397,0.571767,-0.37251282,-0.7401738,-0.710274,-0.3217853,-0.48866284,-0.59774625,0.5112605,-0.10574198,0.07937002,-0.08754247,-0.3404255,0.64117324,-0.96587604,0.75181293,0.7285811,0.20501569,-0.3299696,0.192386,-1.0055648,-0.7962911,0.1349942,-0.25100815,0.3840607,-0.57484585,0.72294354,0.5549844,-0.9751829,-0.363457],[0.52903426,0.4167047,0.33123794,0.2840289,-0.16529542,0.34538522,-0.36870345,-0.6173367,0.68525124,-0.1437113,-0.98290944,-0.7077321,-0.01132656,-0.7358307,0.053102892,-0.2581721,-0.35859978,-0.94098896,0.5124689,-0.7810257,0.49717215,-0.2377204,-0.51948583,-0.31383657,0.05355069,-0.678614,-0.26109642,-0.044680733,0.12579769,-0.91104704,0.6372556,-0.751962,-0.58443516,0.1208182,-0.6511472,0.29490554,0.91001046,-0.7120636,0.7218028,0.28503105,0.68317044,-0.8381324,0.20859914,-0.73763067,-0.46166152,0.46325725,0.5246227,-0.8386164,-0.5621296,0.16754347,-0.77349824,-0.9358611,0.4123533,0.7589009,-0.78006715,-0.43347022,0.6965021,0.54183507,-0.6723114,-0.9887113,-0.84735745,-0.5446069,-0.11639121,-0.25893754,0.57612556,-0.8905158,0.9032062,0.34010985,0.074681595,-0.46483964,0.7384676,0.051854078,0.0802201,0.63022745,0.1446608,-0.8580487,0.3475668,0.41906586,-0.19749635,0.8821286,0.24819556,0.73087156,0.47963345,-0.4446989,0.20657727,-0.31960395,-0.8082815,-0.2650848,0.89752996,0.91685987,0.15833806,0.053558405,-0.22014403,0.7658257,0.2717317,-0.016348451,0.18320078,0.6643928,0.5782524,0.63770485,0.5240433,0.5458984,-0.40035018,0.5313467,0.6965998,-0.8014278,0.7739411,-0.72642314,-0.501363,-0.93482727,0.011350703,0.7914879,0.08897965,-0.25636435,0.33831722,-0.03743046,0.412278,-0.5925782,-0.84799427,0.34591565,-0.2465991,0.72561276,-0.6561904,-0.7669334,-0.80159104,0.23130201,-0.5712821,-0.9032656,0.49213263,-0.69125193,0.89214766,0.083009444,0.6607156,-0.7305307,-0.47920933,0.65243477,0.51406306,0.45871717,0.34074897,0.42532462,-0.20576774,-0.60856014,-0.99640316,-0.5217628,-0.6505329,-0.53124803,0.9615251,0.48340064,0.17356429,-0.084923506,-0.93222404,-0.3919297,-0.7230514,0.49342835,-0.46398354,0.55984515,0.408624,-0.44809815,-0.24059236,-0.2244086,-0.2986258,0.47780302,0.7133438,-0.934413,0.46015984,-0.9223498,-0.5106598,-0.9120707,0.1963589,0.4322488,-0.8745137,0.8267734,0.34283492,-0.5845232,-0.28068346,0.7765306,-0.48695973,-0.40323547,-0.9578019,-0.73408896,-0.34988675,-0.9633579,0.34450793,0.20466703,-0.642381,0.94989043,-0.21481597,-0.5362457,0.41091004,-0.7618846,0.043873895,0.12495725,0.17663443],[0.40390188,-0.770105,-0.9013368,-0.14367002,-0.062469132,-0.22588655,0.7430014,-0.053886,-0.6515092,-0.86482155,-0.93498504,-0.79238284,-0.4632944,0.6826761,0.3941838,0.79453105,-0.26436126,0.6534411,-0.76359373,0.19476017,0.45206758,0.5386138,-0.54981315,0.5593508,0.86018413,-0.06098262,-0.72645485,-0.11129242,0.5566549,-0.86737084,-0.93350655,-0.14860871,0.52637285,-0.046362616,0.86175466,-0.9831661,-0.614733,-0.79949176,-0.929669,-0.642413,0.013431215,-0.50394994,-0.66046935,0.5430361,-0.951532,0.9426071,0.6328817,0.32276103,-0.72068226,-0.706236,0.35693476,0.28115207,-0.72601557,0.45561397,-0.25323412,-0.43373385,-0.8788691,-0.86524695,-0.2606695,0.73341006,0.94801354,-0.2711863,-0.82668316,0.56795865,-0.2778111,-0.0072494764,-0.9310773,-0.10241095,0.7293628,0.25255516,-0.5624158,0.86407214,0.39359528,-0.3593319,-0.7953424,-0.789765,0.4193519,-0.93917024,0.24635395,-0.6108872,-0.3957501,0.86834097,0.091983065,0.8808255,-0.1539176,0.17394952,0.8493159,0.93953943,-0.85076374,-0.29750812,0.32321626,-0.7170406,0.650806,0.92442065,0.89590615,0.43362337,-0.6365328,-0.35979933,0.5155968,0.37058166,0.7191515,-0.45136172,-0.33842152,-0.4351671,0.14710367,0.8981712,-0.40030915,0.036996968,-0.25842008,-0.34629026,0.44366014,-0.32307482,-0.5081247,0.13506232,0.6873356,-0.45533547,-0.8359425,-0.6714189,0.25357783,0.8331814,-0.837327,-0.711947,-0.9564333,0.28861648,-0.78293514,0.30857563,-0.034349933,-0.020294376,0.19501385,-0.6241169,-0.26462898,-0.6700331,0.43160215,0.68495035,-0.34010026,-0.41007018,-0.5009266,-0.6293084,-0.71418256,0.003006786,-0.60942566,-0.40212634,0.5222447,0.35972854,0.81550956,-0.74242556,-0.70344096,-0.33872467,-0.118645616,0.1762824,0.38241464,-0.07003032,0.27406767,0.3449605,-0.27302083,0.33127776,0.42040345,-0.30849686,-0.8102614,0.17915078,0.19992343,-0.78413844,-0.19801907,0.4136885,0.76202404,-0.1580881,-0.30758876,-0.8704869,0.7673507,0.8051741,-0.34137174,-0.4038909,-0.23432598,-0.24808373,-0.66108185,-0.09642618,-0.828104,0.08424987,0.012059633,0.6748329,0.5996841,0.20951025,-0.8236256,0.26929623,-0.3370659,-0.6406477,0.9989152,0.885977,-0.081781186,0.9134387,0.7526213,-0.526361,-0.65754384],[0.48435822,-0.7902061,0.26873255,0.4546851,-0.03244205,0.42850998,0.85221624,0.054715324,-0.28881115,-0.19989316,-0.5638965,0.67530966,0.57287663,0.9498881,-0.7888049,0.22915144,-0.022474043,-0.9037034,-0.3748527,-0.40688434,-0.45232868,-0.05350299,0.65734017,0.729491,0.9264113,0.5771396,0.31522924,0.95865643,-0.02866208,0.9096649,0.3619427,0.9780655,-0.534178,0.6418542,0.8351713,0.38958287,0.4929351,-0.8746867,0.4398591,0.9282659,0.13050517,-0.16816744,-0.61775595,-0.22649926,-0.2686391,-0.37168232,-0.32889652,0.48618725,0.8024264,-0.52764225,-0.6242169,0.5016904,0.41623867,0.59201634,0.13421819,-0.9890631,0.65304697,0.5063125,0.8590612,0.09806591,0.9034651,-0.08269834,-0.9737836,0.29536477,-0.66783875,-0.31303254,0.87845033,-0.76838076,-0.7086005,0.7503203,0.072690405,-0.5733299,-0.8109333,0.7966266,-0.6984429,0.404715,-0.023663264,0.7442726,-0.35693276,-0.83783597,0.31819758,-0.15252084,-0.3434848,-0.8153408,0.18068413,-0.8243618,0.9631127,-0.20343551,-0.2200289,0.030127907,-0.95731336,0.28447136,-0.7351041,0.5964418,-0.10978526,-0.6803303,-0.69220424,-0.65552264,-0.7742074,0.17287168,0.82231057,-0.27093452,-0.5749425,0.3710994,-0.49431378,0.19475253,0.71392316,0.15460715,-0.9836461,0.40780032,0.20731804,0.14914261,0.21694833,-0.105491534,0.54976696,0.32592076,-0.8018387,0.4363657,0.24528928,-0.2831345,-0.7588732,0.7283476,0.55960524,-0.56071544,-0.3486301,0.9583532,-0.10066202,0.87792486,0.80961233,-0.78396785,-0.9744762,-0.28625268,-0.8758348,-0.6216262,0.8939598,0.47797766,0.6013134,-0.74239314,-1.0125661,-0.5335381,-0.62666893,0.30502036,0.91054505,-0.37458894,-0.46835515,-0.97777665,-0.938248,0.076257214,-0.38070187,0.2370523,-0.96645135,0.3811506,-0.30438083,0.12954593,0.2928703,0.2928305,-0.545711,-0.22249489,-0.42059693,-0.3198285,-0.37481278,0.9748368,-0.45481515,-0.36612082,-0.45642716,0.11341595,0.71927255,0.6812764,0.7667595,0.73894286,0.10186868,-0.62486434,0.70084625,0.6774755,0.51524943,0.43783906,-0.7234173,0.637595,0.68402123,0.66412616,-0.29846308,-0.25627795,-0.729495,0.6590666,-0.54254913,0.277192,-0.79830277,-0.14519078,-0.90015584,-0.3691672,0.24426065,0.6225425,-0.3382167],[0.80230284,0.27327466,0.16075633,-0.5250973,-0.50507635,0.7403129,-0.24773055,-0.8723027,0.36832547,0.9924661,0.6257306,0.5980989,0.24243593,-0.7365643,-0.23555939,-0.025080124,0.34754297,0.47665897,0.5326708,-0.26257843,0.21396522,0.3353063,0.60644436,0.4776086,0.8982182,0.2932979,-0.9237362,0.7773156,0.7150537,-0.67677593,1.0033287,0.19128105,-0.928439,0.3854756,-0.26826474,0.9386327,0.9729161,0.9612556,-0.08628872,-0.47188747,-0.20053446,0.8333982,0.008369204,-0.03126848,-0.7142231,0.034205697,-0.15035672,0.14696334,-0.8641639,-0.0814965,0.80136985,-0.011810968,0.4916787,-0.27776524,0.5756854,0.43617883,-0.50699353,-0.6209129,0.49092764,0.88379365,0.555394,-0.5201697,0.27842742,-0.0036001322,-0.4405404,-0.17879307,-0.88376623,0.7291448,0.20731694,0.40709013,-0.72537524,-0.27254695,-0.27627563,0.4020918,0.82302195,-0.7041523,-0.06176782,0.046233326,-0.46765512,0.35480484,-0.8874975,-0.018349223,-0.61191016,0.53487706,0.3394413,0.38024133,-0.20539463,-0.10469226,-0.43365204,-0.82359684,0.6226878,0.61267644,-0.35286522,0.93071985,-0.7956367,0.9611926,0.60911524,0.46934706,-0.84661,0.56694347,-0.010758866,0.45685336,-0.6550785,0.14631155,0.19533361,-0.6060454,0.028686706,0.033160478,-0.38811663,-0.65974987,-0.3298997,-0.87426114,0.841368,0.15770298,0.75681657,-0.9804723,-0.73994106,-0.29652226,0.06017932,-0.65858895,-0.083058424,0.50133175,0.9458652,0.10666898,0.4128831,0.93742615,-0.208795,-0.70518434,-0.0015971072,-0.45894817,-0.20576862,-0.61104566,-0.6078289,-0.40988588,-0.7983966,0.10085988,1.0086435,-0.12517653,-0.11237341,-0.047864657,-0.9178383,-0.24759097,0.6913309,-0.44979888,0.31575486,0.821134,-0.33002287,-0.86941415,0.00418727,0.5598332,0.67677796,-0.35066915,0.95208704,-0.016369164,0.41048148,0.07958935,0.5252672,-0.30365917,0.77916676,-0.76045656,-0.11337332,0.96170974,0.7591678,-0.79997224,-0.22216864,0.030353159,0.37803683,0.053102624,-0.55501384,-0.94670385,-0.18905672,0.47281,0.07320649,0.17743795,0.7614096,-0.469802,-0.41230583,0.56493556,-0.6778397,-0.21375145,0.44786856,-0.20193118,0.80044943,-0.92817104,-0.5256992,-0.8312575,-0.62357455,0.5360024,-0.23458827,-0.4015463,-0.1782682,0.6602608,-0.67001855],[-0.58314174,0.83786935,-0.7288004,-0.78667,0.7714122,0.19258086,-0.12595573,0.27624735,-0.78064805,-0.63615423,-0.017192962,0.13219565,0.2819989,0.7743735,0.37477624,0.810961,0.7886568,0.3543828,0.9879,-0.075321525,0.99360555,-0.54727775,0.39543903,-0.63393813,-0.904705,-0.54342556,-0.41470098,-0.19869822,0.39648065,-0.90740645,0.40221578,0.1822311,0.5838562,0.8936725,-0.38463408,-0.8782541,-0.3641441,-0.80850565,0.95006406,0.3576856,0.7588388,0.61394113,0.026263732,0.22893935,0.33382323,-0.27758086,0.8734254,0.15030013,0.46368605,-0.54736286,-0.9061836,0.050650544,-0.8234048,0.73364764,0.4272969,0.41971254,0.31925234,0.42643112,0.5680667,-0.1978597,0.8396923,-0.8076244,0.070480235,-0.5165901,0.35140654,-0.020873595,0.25798476,-0.51634085,-0.61736816,0.22446352,0.7197172,0.27825725,0.5309595,-0.31502625,-0.7227174,-0.34846792,-0.8461792,1.0310029,0.49942043,-0.23234433,-0.66181165,0.8436772,0.09556664,-0.5011372,-0.65628505,-0.44008136,-0.38248572,-0.9319711,-0.20552485,0.55761445,-0.9460391,-0.56659347,-0.33451927,0.5805472,0.293223,0.41485623,0.5697752,1.0384923,0.5897593,-0.09268962,-0.13335343,-0.49947432,0.23983715,-0.7586614,-0.2208287,-0.21087743,0.80665773,0.3168944,-0.949471,-0.8027706,0.112003855,0.25036162,0.3154947,0.6277843,-0.48361236,0.93021095,-0.26004288,-0.704356,0.33714056,0.6248357,0.80236566,-0.80217564,-0.56216276,-0.7699713,0.665783,0.19857259,-0.5421607,-0.8070366,-0.71204245,-0.68341595,-0.031158494,0.7545653,0.52826536,-0.39992094,0.5384995,-0.14305992,-0.23468035,0.1440794,-0.11181098,0.7646818,-0.39105132,0.80630773,-0.057776377,0.19069779,-0.35750932,0.4338503,0.6860342,0.6588271,0.6634593,1.0469347,-0.71769994,-0.079386555,0.35248056,0.49722624,-0.68143713,0.24480039,0.9908536,-0.65990716,-0.042680472,-0.6108417,0.3724978,-0.046346817,1.0598559,-0.91334003,0.763487,0.45012772,-0.13889614,-0.11361649,0.7145009,0.667173,0.57756686,0.8051448,-0.8304623,-0.5927087,-0.50788736,0.049654055,-0.49699417,0.60045624,0.73333764,0.31664237,0.93232507,0.3985802,0.79559445,-0.87295055,0.43369514,-0.24148177,-0.5804551,0.21351072,0.80436283,0.9365066,0.04384295,0.89140457,-0.07505576],[-0.5082666,-0.35843223,-0.123997845,-0.33346114,-0.17246655,-0.4616829,0.16605777,-0.48985445,0.6728426,0.52080643,-0.93452454,0.58701974,0.052756656,0.21393676,0.8657358,-0.9059733,0.032325577,-0.4760083,-0.21106936,0.6689301,0.77865416,-0.8121504,-0.65119714,0.3364481,-0.14265564,0.23413506,-0.8815996,0.37300774,-0.79203594,0.9952993,0.056374937,-0.17209268,-0.954684,0.96248513,0.40499333,0.10577102,0.08241542,0.34723467,-0.74748194,-0.86613965,1.0277594,0.070554286,0.69231296,-0.3511507,0.07221679,-0.17638451,-0.60907936,0.85724306,0.7161472,0.9594061,0.42225844,-0.65415215,0.91501397,-0.5728395,0.5278682,-0.3926104,0.06483854,-0.13330853,-0.5202881,0.76010644,-0.3575063,0.8065437,0.45124653,1.0045942,0.33369672,0.31630987,-0.6856496,-0.34856817,0.19552349,0.3436435,-0.6774114,-0.95224273,-0.8452659,0.5232599,-0.16128995,0.12343942,0.620958,0.12304379,0.06889634,-0.721269,0.23165488,0.99994045,0.76093507,-0.7350265,0.16432251,0.3000458,0.86740965,1.0191466,-0.97297335,-0.53009003,-0.17506613,-0.7755568,-0.008678063,0.8333675,-0.58135486,-0.93466276,-0.80563366,0.6281169,-0.8062256,-0.21421044,-0.10834427,-0.5051369,0.90710676,-0.23259786,-0.573664,0.8540594,-0.3004905,0.36297044,0.4581209,-0.5797383,0.49392855,-0.4846323,0.26815948,0.53322315,-0.5489801,0.37798905,-0.73701537,-0.019532192,0.56306136,0.8181074,0.5695396,-0.3241645,0.5354005,0.22129084,-0.19725917,0.4840192,0.95093215,0.5480938,-0.43771708,-0.70941895,0.2998922,-0.007867062,0.83299387,0.91526747,-0.48737326,-0.27624756,1.0012604,-0.79941344,0.8872221,-0.32080427,-0.15953602,-0.6663409,-0.5768627,0.25209334,-0.4906712,0.9048681,0.1032701,-0.35597423,-0.9563663,-0.6785776,-0.21076372,0.44115815,-0.6813736,0.32433754,-0.9257655,0.66609174,-0.27222228,-0.043448698,0.6750788,0.980804,0.10011594,-0.73592,-0.5620141,0.50241256,0.65090686,0.886126,-0.7077992,0.47917882,1.016261,-0.39154354,0.42795348,-0.26710564,-0.94919103,0.22698742,0.5515989,-0.055263434,0.12149662,0.12529224,0.9401449,-0.3020057,-0.2407581,0.92862886,0.5054156,-0.5365206,0.7674022,0.98555857,0.26645127,0.28145772,-0.00021912869,-0.07074526,0.91240406,0.40997016,0.051984992],[0.06988983,0.38960654,0.059744764,0.048219394,1.03369,0.6998881,-0.61968225,-0.8230587,-0.42991295,-0.78887254,-0.40200335,0.7811046,-0.5922653,0.033407234,-0.9352351,-0.50602573,-0.5747388,0.95091677,0.66383266,0.14966796,0.38923585,-0.6771484,-0.5571558,0.64883024,-0.4817088,-0.33982527,-0.0068172966,-0.75045973,0.71356213,-0.047190152,0.16365652,0.6741676,0.39606348,0.21373034,0.88925475,0.7174852,-0.041626267,0.75968033,-0.8071378,-0.0054767393,0.39304504,0.34131673,1.0482597,0.15553434,0.19817914,0.448135,0.94854635,-0.3137872,0.08845705,-0.018608814,-0.76702404,-0.49705237,0.71879375,0.31895196,0.44451642,-0.14093561,0.1551449,0.71085334,0.96891755,0.16040495,0.7355807,-0.19422089,-0.15281993,0.3242944,-0.28530648,-0.6212772,0.40335852,-0.02569078,0.01934918,0.26772228,-0.34010673,-0.21994354,-0.1689546,-0.7863221,0.40529773,-0.92721885,0.68289185,0.81803083,0.7288197,0.17534679,-0.06430799,-0.1286909,0.9070299,0.7526656,0.66247475,0.1931729,0.29702386,0.060023256,-0.9344415,0.22544946,0.7180733,-0.5967231,-0.8623632,0.8820523,-0.2346647,-0.40596786,-0.66023326,-0.414253,0.5500485,-0.84883046,-0.17146698,-0.63119835,0.60240054,-0.46699536,0.20839518,0.19133376,0.035009336,0.6207361,-0.048488885,0.47983846,0.13081434,0.79114324,0.4828586,-0.7842708,0.94805264,-0.91116047,0.2494235,0.77233833,0.15206723,0.8819861,-0.3024052,-0.67265755,0.6882011,-0.34535742,-0.8572598,0.48764363,0.16690868,0.76516896,-0.8764239,-0.43356267,-0.7715147,-0.91392183,-0.53686595,-0.050055165,-0.23366055,-0.33770525,0.34429953,0.2622056,-0.696177,-0.399358,0.5139678,-0.26705375,0.53861487,0.49418595,0.7624547,0.7340079,0.55977595,0.58742,0.551745,-0.38093048,0.9596558,0.88755155,0.1384725,-0.8242485,0.20778807,-0.5969291,0.5925383,-0.099170685,0.7091104,-0.27407676,-0.16916367,0.56031334,-0.101410314,-0.18029447,0.005624441,1.0122285,-0.5878951,0.34022427,-0.9254958,1.0360278,0.799776,-0.25117835,-0.8587608,0.8698953,0.39785743,-0.5790271,0.32591453,-0.69166166,-0.43834254,0.8746883,-0.28086233,-0.39599472,0.77963656,-0.7980114,-0.15791799,-0.4746128,-0.41853037,0.40755576,-0.7294725,0.63899195,0.65859467,0.68924034,-0.57130784],[0.24360535,0.4840984,-0.39626196,-0.31048867,-0.4042603,0.19077942,-0.09059569,0.19377612,0.5313276,-0.5730208,-0.46815583,-0.66684574,-0.06751798,-0.92798567,-0.30002707,-0.7704004,0.25115734,-0.07966106,0.5512174,1.003144,0.9485714,-0.42605308,-0.66607606,0.123406425,0.35666844,0.20617415,-0.33065847,-0.6704552,0.6461543,-0.3020077,1.0301539,0.82988995,-0.2502902,0.6517186,-0.56131244,0.88397473,-0.8775365,-0.4441194,-0.32573453,0.6851388,-0.8166542,-0.755277,1.0271454,0.27483115,0.69203275,0.21245725,0.021308454,-0.8901201,0.45497662,0.3270887,0.7196516,0.8497663,0.03821063,0.100457616,-0.80177826,0.75848436,0.6334525,-0.34235302,-0.6675702,-0.72528964,-0.7935181,1.022061,-0.1376043,-0.34195992,-0.9587062,-0.005804169,0.84757704,-0.16044995,-0.81310403,0.97347814,-0.2904039,0.811093,0.0014638052,0.5464944,0.9971834,-0.7201364,-0.8036879,0.2831103,1.0097798,-0.49657437,0.63454604,0.24217768,-0.048318386,-0.116543956,-0.26524726,-0.17464823,0.24906783,0.84506714,0.41415074,0.43019956,-0.18122402,0.86671436,0.24829702,-0.349719,0.043922417,-0.31194147,0.47534686,0.14518322,-0.30349928,0.053337786,-0.062641725,-0.036706,0.8117141,-0.7164834,-0.038426645,-0.7310682,0.7205179,0.659464,-0.35232776,-0.8172606,0.95345354,-0.94756806,0.72279304,0.86844754,0.023091614,-0.21952102,0.9271175,-0.09742309,0.5678461,-0.5991906,-0.21888082,0.14894854,0.5435947,0.70102274,0.2874899,0.8657175,0.77067953,-0.3940021,-0.9367875,-0.5700285,-0.1562927,-0.78541845,0.80075836,0.082180455,-0.92448896,0.9603979,-0.035078697,0.5999757,0.37687355,0.30580592,0.75900084,-0.40649793,0.39812487,-0.15437065,-0.19968425,0.20918733,0.6399329,-0.89250076,0.19340734,-0.005328704,0.40654048,-0.69030344,-0.7986076,0.71080714,0.90713775,0.07248615,0.7748948,0.6455316,0.15593188,0.6114598,0.7733097,-0.6937379,0.5298723,-0.16701211,-0.048606083,0.108045764,0.14665413,0.1573497,-0.21368803,-0.85941553,-0.84450954,0.95545334,-0.41472247,-0.872897,0.025376655,0.005407984,-0.7581188,-0.35787162,-0.5865128,-0.19981897,-0.1894351,0.43216544,-0.49586874,0.36178747,0.21983902,0.13443474,0.32823893,-0.07463045,0.70464367,-0.14875497,-0.43474644,0.085814565,-0.4589183],[0.9998177,-0.31981835,0.41950172,0.43972594,-0.846629,0.97982675,-0.83859307,-0.45394266,0.99475694,0.49003133,0.46324518,-0.5559884,0.87745285,0.41841903,-0.2998318,0.36794886,-0.1715563,-0.44874918,0.89327407,-0.65816987,0.5233666,0.7760149,0.47209543,-0.42032576,-0.94146204,-0.6817034,0.66906255,0.6500169,0.6785596,0.4498234,0.6522659,0.81518286,-0.8467226,0.34487817,0.909784,0.8449245,0.47026062,0.11217234,0.7880601,-0.19118437,-0.8668107,-0.45258176,0.59122646,-0.29086894,-0.09343673,0.49565876,-0.3669582,-0.048691858,-0.7376352,0.84587264,-0.5982423,-0.05748204,0.5794021,0.43625927,0.16371213,-0.5032683,0.8073625,-0.78577507,0.58291084,-0.73978794,0.8144008,0.38977113,0.41828212,0.8135498,0.062012542,0.7758278,0.035784442,-0.008130366,0.41875294,0.47488984,-0.67209893,-0.44851744,0.91536915,0.99281776,-0.65259725,-0.50726223,-0.6739913,0.5413331,0.8907282,-0.7300198,0.37755814,-0.9887426,0.43668506,-0.5325457,-0.14585826,-0.697519,0.89731497,-0.20277059,-0.9319186,-0.84644186,-0.4527583,-0.83949083,0.22252302,-0.9107643,0.12353081,0.07596942,-0.795313,0.6526884,0.18048103,-0.9565905,0.7827399,0.75259954,0.05496964,-0.39878312,0.79098153,0.052230604,-0.198883,-0.7209954,0.8352663,-0.681355,-0.5803461,-0.81196177,0.17048413,-0.41906962,-0.27760607,-0.09274097,0.06716046,0.7447785,0.14317611,-0.20798305,0.20006245,-0.782972,-0.058816884,-0.6111902,0.44040948,-0.23746762,-0.046256598,-0.055416886,-0.3768411,-0.08132721,-0.5333088,-0.17229463,0.054197237,-0.9503453,-0.9047905,0.044707596,-0.44066802,0.099482894,-0.03397022,0.9276529,-0.74079245,0.5002505,-0.17702046,0.81264997,-0.22143902,0.62145513,0.14939763,0.39649373,-0.7681593,0.58770144,-0.33842954,-0.079162925,0.89346117,0.5800974,-0.92001307,-0.4011001,0.79621845,-0.07169955,-0.20136413,0.21268274,0.11210794,-0.57940924,0.43790996,0.46072477,0.8089522,0.47110263,-0.5347871,0.20257922,-0.46453097,0.5038449,-0.3073988,-0.9875691,-0.325945,0.95551807,-0.36934686,-0.032040212,-0.15936477,0.4850513,-0.6800896,0.730941,0.4745687,-0.68693376,0.05189087,0.6011613,-0.4129948,-0.41008747,0.74313605,-0.8674671,-0.9884993,-0.14212617,-0.4470878,0.4499608,-0.66147196],[-0.75122976,-0.7131592,0.65745974,0.56566167,-0.048328202,0.3331774,-0.49240363,0.33051404,0.025971485,-0.01282355,0.013743915,-0.67457277,0.2228655,-0.19973272,0.73140913,-0.7694012,-0.52898866,-0.22143015,0.6476736,0.14648315,-0.64451355,-0.5512349,-0.20907488,0.73303705,0.4044726,0.37384656,-0.98701024,-0.4683453,0.0705545,0.20790751,0.75461817,0.4112693,-0.49722666,0.22076319,-0.23269854,-1.0181595,0.22893806,-0.98933536,-0.271557,0.46425158,0.6487435,-0.50759673,0.7001921,-0.9062618,-0.511784,-0.4737883,0.41081354,0.91733605,-0.33758694,-0.48443723,0.50847316,0.7618416,-0.8382057,-0.73380023,-1.0047665,-0.85480434,0.7963244,0.18539575,-0.9450199,0.58917004,-1.0102408,0.21667013,0.6528107,-0.46979433,0.33541578,0.34631547,-0.5348967,0.54671687,-0.6166139,0.64332336,-0.75607365,-0.83864486,0.2185385,-0.62442493,-0.014351411,0.9647503,0.093869545,0.34998617,0.82152355,0.6909104,0.24270368,0.276057,0.11034163,-0.35274032,0.2903862,-0.8249242,-0.58799934,-0.8562548,-1.0160666,0.95851475,-0.5422047,-0.9292216,-0.107604906,0.48589674,0.14477484,0.67470384,0.93781686,-0.72422075,-0.96266294,-0.39783272,-0.35805374,0.42763206,-0.36480674,-0.55651456,-0.6122462,0.56634957,0.77972907,-0.81841254,-0.3707843,0.39049986,-0.16097072,-0.71242386,-0.85587883,0.922116,0.90289223,0.665684,0.25543076,0.67862207,-0.02835671,-0.7691665,-0.7249208,0.6881095,-0.042202074,-0.64710194,-0.29618564,-0.4010758,-0.9299252,0.7693087,0.10287123,0.9084987,0.89801216,-0.22277237,0.9094948,-0.89573735,0.6952948,-0.6068573,0.6001558,-0.2118898,0.16009784,0.13045175,0.09470207,0.9757804,-0.73120266,-0.85427433,0.1872133,-0.7916801,0.61864924,0.28794995,-0.72505677,-0.88373977,0.3560417,0.68862146,-0.24487658,-0.89712757,0.26777765,-0.5029708,-0.33869043,0.46140873,-0.8513993,-0.6501971,0.855318,0.92725676,0.63637877,-0.8251034,-0.52376854,0.5229485,-0.37246355,0.55403244,0.32148436,0.90853345,-0.49931,-0.3260828,0.1054468,0.4203391,0.058698263,-0.39089403,0.82563114,0.14896992,-0.88846457,0.035195727,0.25849268,-0.38314265,-0.99878037,0.47740242,0.60078776,0.15674664,0.09958832,-0.71157986,-0.94832873,-0.24985065,0.10011616,0.61850035,0.02038888],[-0.6086896,-0.8505136,0.45241037,-0.88736475,-0.74983454,-0.9101952,-0.5527237,-0.36226285,-0.5320515,0.8828701,0.5991176,0.39784673,-0.44234845,0.08465126,-0.9796641,0.65532494,0.3037919,0.01667544,0.0042398092,-0.39316002,-1.0090615,-0.18996666,-0.5055706,-0.71025366,-0.35862002,-0.77689064,0.6088885,-0.81701565,-0.0094909845,-0.7110168,-0.7672856,-0.8440951,0.5549498,0.5574548,-0.1812539,-0.05043247,0.9597248,0.9398697,0.096495464,0.48854625,0.17479527,-0.66913205,-0.08514789,0.4576301,-0.0069082803,-0.3663576,0.5290094,-0.4106231,0.67203116,0.27486232,0.7603918,0.526969,0.478634,0.165098,-0.59754276,0.64772874,0.92372626,-0.5408609,-0.95829064,0.8120374,-0.15381229,0.2934196,-0.2964146,-0.8195588,0.3926153,-0.53965175,0.049304113,-0.03669089,-0.284881,-0.7367714,-0.9987259,-0.7802969,-0.39926332,0.42668262,-0.6964337,-0.4486843,-0.17564557,-0.26227424,0.12524273,0.0074576368,-0.052089654,0.5091203,-0.8184288,0.94662774,0.5546306,-0.6407586,-0.26573563,0.049426924,0.47543976,0.18519084,-0.9008332,0.31061018,0.62538636,-0.58201337,-0.49895903,0.30707344,0.9042166,0.4064192,0.21002883,0.14797147,0.7500809,0.4564809,-1.0084249,0.55335605,-0.3061933,-0.32554993,0.44973186,0.33685094,-0.89809364,-0.8207304,-0.09166359,-0.8398499,-0.11612517,0.45818576,0.8749824,-0.72414184,0.20129481,-0.53555757,0.9538082,-0.27739453,0.443926,0.90354216,0.82121307,-0.0090369815,0.33102667,0.5421561,-0.8432352,-0.42114896,-0.040802334,0.4862232,-0.10349675,0.8443619,-0.38797933,0.39863408,-0.3598685,-0.19205281,0.6739609,-0.84128356,0.45406628,0.56397796,-0.5842831,-0.29504582,-0.10794143,0.06693263,0.30642915,0.9428967,-0.8751454,0.7995483,0.14703786,-0.42919764,0.28847957,0.056104198,0.8519639,-0.40120104,-0.36175424,-0.23061255,-0.7300146,-0.50266546,0.6862371,0.17591499,-0.80607533,0.7980982,-0.26284662,-0.87115,-0.42072207,-0.12507503,-0.46960697,0.06402903,-0.87868994,0.7780991,-0.8529865,0.7380141,0.8690956,-0.485629,-0.830601,0.490256,0.124277964,-0.09151019,0.44885918,0.65915996,0.2953544,-0.81328946,0.13875262,-0.6982228,-0.8790746,-0.5335025,-0.27898306,0.84454435,-0.764062,0.42669427,0.78948635,0.36823753,0.74473774],[0.7331067,-0.778868,0.98269135,-0.09200654,-0.7476343,-0.69726473,-0.2539844,-0.5864666,0.41820425,-0.40434578,-0.08681958,-0.27163452,-0.38799182,0.95871085,-0.67689097,-0.7514117,-0.39954752,0.21978785,-0.60453856,0.7944309,0.9314959,-0.61866224,-0.1522496,-0.41556865,0.8515928,-0.6663458,-0.54335445,-0.26564154,0.36546904,0.9545927,-0.9784464,0.7593995,-0.64830875,-0.0035875083,-0.14519654,0.67196596,-0.52333856,-0.6399163,-0.5750055,0.4102869,-0.93208826,0.9298169,-0.32439592,-0.5547588,-0.2458001,-0.5998393,0.9816094,0.77370304,0.60285956,0.76973534,-0.2633372,0.07679021,-0.38080266,-0.6280441,0.87146974,-0.2854087,0.6281246,0.48995227,0.9174436,-0.15591414,-0.2954785,0.49094763,0.7843271,0.61931,0.64559233,-0.50806284,-0.19719723,-0.31895667,-0.9694915,0.8042321,0.6251147,0.25700364,0.02369408,0.29387066,0.44701606,-0.84101707,-0.5050552,0.7720326,-0.96820635,-0.95369387,-0.23865975,0.6820115,-0.8704277,-0.5784254,0.6021664,0.8131617,0.31167114,0.6857816,0.34160477,0.8656839,0.9757317,0.4475985,-0.8416334,0.4072389,-0.32562837,0.68394625,0.7772584,-0.6771318,0.5326106,0.932425,-0.43378684,-0.66363686,0.5283012,0.024693225,-0.8431807,-0.63176775,0.27853626,1.0080191,-0.735651,-0.5525767,-0.4339885,-0.77415234,-0.20625624,0.28971922,0.11294399,0.20853111,0.8900929,0.25640917,0.9687066,-0.3391418,0.33342668,-0.5996604,-0.36379182,-0.19316995,0.49075854,0.0519403,0.6220242,0.42467797,0.22066763,0.7691331,0.6246402,-0.65445626,0.7119521,-0.9463628,0.174079,-0.98595315,-0.8526943,-0.910432,0.9898506,-0.29774928,0.5737019,0.85590744,0.6061674,0.5937793,-0.77288216,0.26713517,0.31825536,0.060162447,-0.26722458,-0.47660416,0.67801124,0.7858288,-0.5715972,0.75538164,0.21315905,0.5454327,0.51803595,-0.54786086,-0.2242918,-0.7098216,-0.89342374,-0.17548384,-0.28430653,0.5748814,0.0869812,0.74272585,-0.3898588,0.8390413,0.38423643,0.695893,0.9767412,-0.069297336,0.39395943,0.33805612,-0.54224163,-0.8877411,0.50540316,-0.42932025,0.4407691,0.5934167,-0.71890974,0.74826664,-0.54351497,0.16941002,0.35903108,-0.6305912,-0.07673295,0.34717202,0.109706335,-0.7715971,-0.3766815,0.70610154,-0.23852426],[0.8229785,-0.66765904,0.956429,-0.7606848,0.7018181,0.4561175,-0.692886,0.2082252,0.7216272,0.88495463,0.34781635,-0.4313169,-0.57262754,-0.7028571,0.70078146,-0.9524104,-0.93862873,-0.31987533,-0.33613428,0.7897619,-0.36151356,-0.60656077,0.49675566,-0.80905336,0.77633125,-0.3146501,0.36391303,0.7549571,0.19552383,-0.36645895,0.15999986,0.45656753,0.9000863,0.41148102,-0.36239335,0.7699563,-0.3570576,0.4116404,0.48308197,0.3944073,0.98304296,0.07579323,-0.20603979,0.6572526,0.9957766,-0.89389485,-0.37599578,0.2247264,-0.44699866,-0.2169519,-0.32774776,0.14358446,0.3041494,-0.003940428,-0.6999558,-0.17957681,-0.08601322,0.9981182,0.14820637,-0.57570297,-0.8053338,0.32309318,0.15697554,-0.06435542,0.6228224,0.3516178,0.5412622,-0.31648436,-0.2901352,0.8357945,0.14308216,-0.227725,0.6788002,0.6291003,0.85188377,0.7280697,-0.7496872,-0.5002142,-0.82951355,0.4551738,-0.7977982,0.62381905,-0.47506583,-0.20241325,-0.8689836,-0.34288788,-0.58852607,-0.049761336,0.95065856,-0.93760073,-0.010179308,0.6311106,0.2305841,0.6035143,-0.2963506,0.7443153,-0.4011961,-0.86176586,0.6556163,-0.9446947,0.5390065,-0.13526854,0.76234317,-0.48494598,0.41291183,-0.88064253,-0.87118685,-0.6791771,-0.66557866,-0.44502902,0.90790886,0.9909823,-0.25144064,-0.76410174,0.23549592,0.06403541,0.23760736,0.64708346,-0.23034228,0.99647975,-0.08088776,0.8309315,-0.8240752,0.9227269,0.10643828,0.3937997,-0.08818796,0.52989787,-0.7237697,0.54586554,0.6532156,0.38621107,0.64822716,-0.9560191,-0.2990686,-0.5101105,0.42629045,-0.7060698,-0.35183704,-0.9616995,-0.11453682,-0.08867783,-0.003389071,0.9279146,0.55288965,0.3796722,0.07120696,0.20186777,0.9642678,-0.97163045,0.6858853,0.7942563,-0.21239457,-0.61885977,-0.5558014,-0.32379428,0.56301814,-0.12524247,0.2699318,0.9920535,-0.24786578,-0.81775403,0.53459376,0.79215986,-0.43951362,0.31126407,-0.23309144,0.8004092,-0.56426924,-0.62061584,-0.78825784,-0.25479236,-0.8086792,-0.47940117,0.50798005,0.40329528,0.46376747,0.22989762,0.39449692,-0.91448826,-0.5827188,0.68374294,-0.2094345,0.9558333,-0.85710335,0.95710105,-0.86839217,0.99146616,0.07034094,-0.008079575,0.3118831,-0.25691664,0.65428877],[0.06274865,0.8034183,-0.61555094,-0.2653569,-0.5221707,0.2886712,-0.2597807,-0.64286214,0.6426491,-0.81213176,-0.6441799,0.3830338,-0.9464205,-0.02878627,-0.54967046,-0.704568,-0.95687157,-0.2912896,-0.07983856,0.1257448,0.4433088,-0.558183,0.6888241,0.9403711,0.93948126,0.62205344,0.3569373,0.05156773,-0.45987278,0.68491197,0.40503266,-0.6586683,0.8620061,-0.84769946,0.8454974,0.41588798,-0.49069574,-0.042443797,-0.4760964,0.18936904,0.36491653,0.6136305,0.12612781,0.11834966,-0.6597331,0.8508425,-0.5353756,-0.28856924,-0.80968934,-0.06626029,-0.8250456,-0.7495004,0.3475484,-0.43808678,0.8147411,0.20148306,0.28716272,-0.15618083,-0.69279546,-0.76941496,0.10178566,0.00797913,-0.66165304,-0.87353665,0.88222307,0.039620243,-0.3699558,-0.97007835,0.9921572,-0.035812713,-0.03420353,0.20489289,-0.94239,-0.0146479625,0.42853194,0.5667866,-0.20976415,-0.7141419,-0.6239938,0.31511578,0.83852834,0.9072513,0.70637655,0.47578537,-0.47151753,-0.40980402,-0.2662579,-0.7677536,0.13186216,-0.16911204,-0.15555312,-0.55050474,0.8116175,-0.022752872,0.3123601,-0.37215337,-0.16031684,0.96528924,-0.18748643,0.35121807,-0.64682907,-0.5412803,-0.078231774,0.35505608,0.8949171,0.59915566,-0.09487744,0.58842313,0.92796314,-0.6353045,-0.5108105,-0.85519904,-0.9747024,0.5051072,0.30660525,-0.87101465,-0.9815366,0.94300395,0.19967397,-0.7975378,-0.32247964,-0.4767861,0.40852454,-0.11941368,0.98160154,0.6509672,0.30883068,-0.16762768,0.68339586,-0.7405886,0.7352772,-0.30352908,-0.78746855,-0.56771415,0.7859613,-0.020369437,0.2794347,-0.22500853,-0.7466291,0.033390563,0.58535415,-0.966013,0.5918516,-0.5251053,-0.749689,-0.6441354,0.49613965,-0.1361532,0.78872484,-0.29554936,-0.49656805,0.8272762,0.2601832,0.054814003,0.28273955,-0.37500587,-0.49923593,0.16055185,0.5460574,-0.67886084,-0.53208095,-0.079465374,-0.009022909,0.08681557,0.6843058,-0.18079436,-0.91467184,-0.30851492,0.8949088,-0.024142236,0.09420649,0.67872226,0.3250253,0.13300213,0.28908253,0.0010175806,0.46519476,0.867122,0.17316754,-0.7114263,-0.116146535,0.45089257,-0.0568029,-0.6769901,-0.6599861,-0.16748527,0.8390035,-0.30093807,0.05979612,0.35801873,0.7350471,-0.67071015,0.1962068],[0.2595466,0.11190752,0.69577813,-0.28494954,-0.19047284,0.65555453,0.82761437,-0.15468179,0.7083429,