{"layer_count":6,"input_len":64,"hidden_len":64,"output_len":3,"x":[[1.0,0.15294118,0.14117648,0.1254902,0.11764706,0.105882354,0.1254902,0.14509805,0.15294118,0.19215687,0.18039216,0.19215687,0.21960784,0.3764706,0.2784314,0.20784314,0.21960784,0.22352941,0.2901961,0.60784316,0.6666667,0.6901961,0.49803922,0.3137255,0.30588236,0.40392157,0.54901963,0.6901961,0.6627451,0.5058824,0.40784314,0.5921569,0.57254905,0.75686276,0.60784316,0.42745098,0.3882353,0.47843137,0.38039216,0.56078434,0.79607844,0.7921569,0.6509804,0.6509804,0.5686275,0.69411767,0.627451,0.5764706,0.7647059,0.48235294,0.54901963,0.6431373,0.69411767,0.6313726,0.4392157,0.5921569,0.65882355,0.18431373,0.49411765,0.44313726,0.6392157,0.6039216,0.5882353,0.6156863,0.62352943],[1.0,-0.844161,0.7550912,-0.95012504,-0.87799263,-0.9715902,0.985035,-0.9034173,-0.12304962,-0.8650216,-0.11341805,-0.99691385,-0.9714662,0.3209065,0.9919985,-0.58543664,0.9960314,0.9997659,-0.83907735,-0.40084982,-0.9716867,0.22556303,0.999675,0.99678177,-0.98801726,-0.9376092,0.94047594,-0.6482943,-0.9920641,-0.99945074,0.99630594,0.99895066,0.7964602,0.98584014,0.9110809,0.8532366,0.99983203,0.99840283,0.92340755,-0.94028157,0.9500683,-0.90067565,-0.2749263,0.9983902,0.4778689,0.9961531,0.9964188,0.9920627,0.9798138,-0.82563084,0.99946487,0.9999955,-0.9539235,-0.99970025,-0.07632824,0.062351357,-0.9998935,0.8510513,-0.57759017,0.9254748,-0.81996256,-0.8664504,-0.98890626,0.99888897,-0.9272857],[1.0,-0.9893584,-0.99996287,0.9999915,-0.99298203,0.99990296,-0.98573166,0.8383858,-0.53258747,0.7195741,-0.9986095,1.0,-0.83246785,0.9999665,0.53536445,0.9996661,0.09202849,-1.0,0.9998999,0.24686262,0.05927621,-0.99976337,0.99992895,0.9999955,0.99998736,-1.0,-1.0,0.9999913,-0.99985725,-0.9905188,-0.9987667,0.40490454,-0.90737486,-0.99999756,-0.9999885,0.9708853,-1.0,-0.99999386,-0.9999713,-0.9998338,-0.9999945,0.9996835,-0.9958389,0.9998641,0.9463295,0.8130674,-0.9999997,-0.08237758,1.0,-0.9923007,0.99998873,-0.7319385,-0.99999905,-0.977872,-0.99995255,-0.9999992,-0.99248743,-0.9988953,-0.9999978,-0.9999998,-0.99718326,0.8604511,0.99902284,0.11763925,-0.9808243],[1.0,0.8992561,0.99742246,0.9997954,0.99541855,0.9912642,-0.9999992,-1.0,0.8954774,0.9914286,0.9999999,-0.9993875,0.9999976,0.9999549,0.99394643,0.9992235,0.99999917,-0.5019343,-0.99994063,1.0,-0.9999725,-0.98183537,0.9974583,-0.98989874,0.9999879,0.9987694,-0.99857146,0.99997896,-0.99990684,-0.9999966,0.94506854,-0.99929774,-1.0,0.99968374,-1.0,-0.99997514,-0.9659781,0.9999803,-1.0,0.99744666,-0.99997014,-0.99967873,-0.9973237,0.9999913,0.9999947,-0.99935824,-0.79931676,0.9998986,0.9736278,-0.9927903,0.8825266,0.999799,-0.9997789,0.9207601,-0.9999998,-0.9906363,0.99999994,0.9527679,0.9924996,-0.9987621,-0.99998736,0.9375479,0.9992325,-0.99949604,0.9963351],[1.0,-0.999908,0.34849352,0.999976,0.9938215,0.9873954,1.0,0.9944886,-0.9999968,1.0,0.8964156,0.99771214,0.90935403,-0.9780211,-0.9999832,-0.99947166,-0.99979764,-0.9999984,1.0,0.9899622,-0.99998206,0.99999344,0.99942,0.9986554,-0.027893845,1.0,1.0,-0.99994695,-0.8416143,0.9992318,0.9999552,-0.99717826,-0.9257113,-0.9998389,-0.9885007,-0.99999297,0.99999976,-0.9928398,-0.99997854,-0.99999046,-0.9996332,1.0,0.99870956,0.9999712,0.9999973,0.9999999,-0.99997234,0.9999901,-0.9989232,-0.918253,-0.99999934,-0.99994016,-0.33322865,0.9999978,0.9783911,0.99999785,-0.9999048,0.99999994,0.9999711,-0.95187116,0.9999988,0.99998766,-0.99958336,-0.99999964,-0.99860394],[1.0,-0.98379695,0.99982226,0.99941134,-0.99999994,-0.9837956,-0.9999926,0.9999189,-0.99994045,0.9999995,-0.9999988,-0.9996166,-0.9913627,-0.9962913,-0.9999759,-0.9999111,-0.99994737,0.99996716,0.99989617,-0.9984456,-1.0,0.99564826,-0.99963385,0.9999999,0.99994546,0.9786214,0.99991286,-0.99999654,0.99965566,-0.99968106,-0.9997735,-1.0,0.99911875,-0.9998105,0.99379027,0.9972512,0.99999905,0.99999654,-0.9983294,-0.8333192,0.99995685,-0.99989927,-0.9999994,-0.9998314,-0.9999997,-0.999926,-0.99999875,0.99993235,-0.9958409,0.9984399,0.9981728,0.99996686,0.9999737,0.9688274,-0.999922,1.0,0.999404,-0.9993201,-0.99962294,0.99997115,-0.9981749,-1.0,0.9593152,0.9998239,-0.9999994]],"w":[[[-0.8400643,0.39049602,0.62759256,0.656934,-0.24635696,-0.83962035,-0.79774284,-0.6302202,0.3781016,0.054682016,-0.7956667,0.23030901,-0.08000779,0.22259927,-0.884212,0.71617126,-0.004452944,0.93664956,0.82345057,0.7989814,-0.8877039,-0.24864006,-0.39941168,-0.21835327,-0.7725985,-0.8742318,-0.8290775,0.47510386,0.36055565,0.073854685,-0.45433354,-0.769331,0.14663243,-0.21514058,-0.3984735,-0.72400093,-0.67095065,0.27473998,0.6431904,0.99758077,-0.79944396,-0.69573116,0.34419918,0.38377142,-0.5228832,0.22978377,0.3219285,-0.07146168,-0.3013184,0.8901348,0.9122231,0.6574137,-0.0781486,0.68137765,0.72193885,0.2902515,-0.9105575,-0.72195053,-0.9033387,-0.30221057,0.69399047,0.08005595,-0.86035776,0.26568508,-0.9401438],[1.0759451,1.3191718,0.6667615,1.1636013,-0.45222306,-0.09181776,0.14788133,0.57707155,0.81366277,1.1004984,-0.82995474,-0.9853781,-0.019654496,0.78135985,-0.3829011,-0.7030879,-0.29390416,-0.20043753,0.40545714,-0.3376575,-0.7066482,0.41864982,0.44587326,-0.7986399,0.99034303,-0.65024614,-0.41554636,-0.3779187,-0.01968803,0.62598723,0.2549588,-0.9574892,0.017050669,0.07005266,0.019852398,-0.37716767,-0.92068034,-1.2391107,-0.19491352,0.86845726,-0.48551643,1.2329836,-0.80118585,0.2218342,0.12109658,-0.7845582,-0.7355248,0.16006264,-0.6072497,0.42258576,0.18333392,0.2151571,-0.5986208,-0.35114846,0.20251912,-0.1743711,-0.83239144,-0.79386485,0.90763336,0.5684145,-1.2913647,0.5709636,0.074571736,0.21104403,0.6717925],[0.49179986,0.28985265,-0.79780793,0.4139053,0.42089418,-0.42162856,0.355087,0.035807725,0.7818233,0.5734434,0.115225255,-0.03951139,0.91326344,0.32983935,0.15529858,-0.30004218,-1.031679,-0.30924124,0.49677566,0.14783923,-0.038931727,0.72604775,-0.09714567,-0.9180498,-0.6684293,-0.9379251,1.0713769,0.85314244,-0.5823776,0.6234714,0.77664685,-0.5519501,-0.10296024,-0.6693958,1.0472938,0.18304251,-0.85971,0.00084030273,-0.13756844,0.64295304,-0.5251757,0.65410405,-0.7316173,-0.9677171,-0.0075300336,0.878691,-0.5544443,0.14819418,-0.11461815,-0.9631151,0.38306305,-1.1522431,0.901134,-0.059885774,-0.51701105,-0.6437346,-0.24993075,0.43192646,-0.13837337,0.5456263,-0.06249148,0.21877067,0.7387796,0.5486439,0.008652427],[0.22902697,-0.72112453,0.75280076,-0.12049493,-0.749921,-0.8266902,0.53450894,-1.0413898,-0.13456392,-0.6080395,0.28164518,0.6746348,-0.36569703,-0.618531,-0.9955136,-0.095064186,0.66902,0.82168275,0.068503566,-0.123679854,-1.080555,0.43124953,-0.25796312,0.7524474,-0.7087989,-0.6292732,-0.08348871,0.9177578,-0.2808678,0.7839722,0.30394924,0.6505369,0.77310133,-0.99111205,-0.28249624,0.6511732,0.046342216,-0.61707926,-0.7993127,0.9534823,-0.83235013,-0.033957463,-0.4629815,0.40094367,-0.26745448,-0.39910856,0.5832854,0.8064691,-0.90420103,-0.06482632,0.25411895,-0.43473327,0.16773221,0.14776206,-0.037141353,-0.51607263,-0.15477276,0.022039613,-0.084776364,-0.47170314,0.4623445,-0.5683195,-0.5924013,0.3226844,0.13532852],[-0.4093929,-0.7056588,1.0458784,0.5214282,-0.6332178,-0.06930932,0.11427275,0.7206607,-0.16108607,-0.538614,0.49467158,0.7722392,-0.6170865,-0.74033505,-0.062141385,-0.55305064,0.6030831,-0.8918805,0.18173835,-0.27627516,-0.41147724,0.87805486,0.97925013,-0.15185727,-0.07317489,-0.28306854,-0.96996766,-0.3460376,0.40240496,0.5198141,0.038083233,0.8837261,-1.0424783,-0.65736306,-0.16295734,0.7818521,0.36422595,-0.20639516,-0.38359892,0.36586112,0.59428287,0.9862254,-0.86462396,0.17570302,0.26843113,-0.812018,-0.5698639,-0.6698293,0.3469632,-0.8768033,0.78256226,-0.9212904,0.87773794,0.3235696,-0.10992252,-0.04201607,0.37373778,-0.6200993,-0.7940642,0.76202285,-0.9408242,0.4014208,-0.9724754,0.45258343,-0.242962],[0.9647862,-0.7649061,-1.0480057,0.4185907,0.87288696,0.8667443,0.648802,-0.37594494,0.0053249244,0.03499613,0.7407343,1.0068777,-0.13914296,-0.878914,-0.29959568,-0.23916611,-0.37751335,0.8594608,0.46432894,-0.777844,-0.73251146,-0.11927442,-0.82850087,-1.4565731,-0.04534224,0.43229654,1.0803664,1.270159,-0.20395353,0.564154,0.46103868,-0.37263775,0.42356208,0.4301598,-0.45963788,-0.04753899,-0.16903931,-0.42948827,0.48728088,-0.22185312,-1.0652581,-1.1355135,-0.25482887,0.7139706,0.095127515,-0.8982235,0.46746883,0.76239574,-0.030827884,0.59134245,-0.6940006,-0.1368699,-1.0478039,-1.0104353,-0.010371333,1.0068136,-1.6608049,-0.02065041,-0.9173814,0.12800345,0.5895763,0.59976125,-0.4655083,1.0025605,-0.6298037],[0.4712149,0.14382051,1.2931263,-0.74505824,0.33526936,0.023104263,0.004661567,-0.5467873,-0.0150521435,0.23215711,-0.9807592,0.899469,-0.75547487,-1.0282897,-0.24380423,-0.6623896,0.7759741,-0.5912679,-0.98589677,0.09410208,0.9456303,-0.6016038,-0.60454524,1.0254894,-0.30366504,0.035759963,-0.74478656,0.27778253,1.3250219,1.1583698,-0.29792437,0.3020748,1.3336967,0.3352341,-0.7109978,1.2401671,0.083565444,0.3116699,0.3423603,0.5520008,-0.23089172,0.32063952,0.19699231,-0.38147435,-0.78274906,-0.81510824,1.1441298,-0.8683735,0.65364796,-0.53242755,-0.09110253,0.2927216,0.11907651,-0.3073114,-0.022355588,-0.92683065,0.63031197,-1.0835392,-0.2596076,0.20372407,-0.32691693,0.18973494,1.2068356,-0.24391794,0.16109581],[0.3111804,1.3834119,0.8519069,1.0640582,0.18003753,-0.5724791,-0.3445628,-1.307237,-0.25321248,0.11539365,0.12506305,-0.23290958,0.9160834,0.9733022,-0.0523899,0.762388,-1.2706281,0.48119807,-0.3937526,0.3029467,-0.74232566,0.0074583516,0.087077394,0.35097244,-1.1654922,-0.8399509,-1.4015546,0.5480174,-1.0741045,0.25558266,-0.33651167,-0.4772878,-1.3791285,0.51703686,0.25070012,-0.34940466,-0.07512661,0.13023251,-0.94895047,-0.2669579,0.43452534,0.9685566,-0.27721563,-0.4465489,0.62157744,-0.4899392,-0.14921768,1.0610802,0.19289854,0.7024997,-0.70186573,0.39652395,0.0912942,0.27802417,-0.36125994,-0.29528794,-0.41430938,0.14288957,0.15556777,0.90082,-0.44249383,-0.4565866,-0.7709816,-0.77800244,0.8973172],[0.67369413,-0.031963285,-1.4033364,0.33393943,1.0266471,-0.33998314,0.9026536,1.344732,0.42894435,0.4640823,-1.122672,-0.2885437,0.53479224,0.38404626,0.5230611,-0.9095665,0.19774094,-0.76901346,-0.85165036,-0.4822189,-0.1489778,-0.15300147,0.5001679,-0.08558205,1.240038,-0.605683,-0.56322896,-1.0093445,-0.89031166,0.246679,0.9221777,-0.49152198,-0.7272683,-0.3997889,0.051319845,0.6987909,-0.77300966,-0.31035006,0.2010244,0.043478213,0.4328099,-0.18658082,-0.95582116,-0.42530444,-1.0492597,0.3702507,0.7054268,0.9145914,1.2741451,-0.9836607,-0.016525907,1.0415993,0.4641341,-0.8763304,-0.080960914,0.227204,-1.0512247,0.6337708,-0.845104,0.21323363,-0.21069217,1.0828851,0.6771694,0.07557125,0.7586417],[-0.090047635,-0.38935953,-0.1956792,-0.20819905,-0.45194298,0.80950814,-0.74795306,0.07949917,-0.3295311,0.45360202,0.6289264,-0.41343385,-1.0276266,1.1967243,0.15577455,0.97018564,0.891055,-1.1435986,-1.0205011,0.60939556,-0.49199927,0.8017503,-0.43347916,-0.2406448,-0.112309195,-0.6608565,-0.85371286,0.05920695,-0.043291293,-0.59042436,1.2103527,0.27400333,0.85256,0.45089975,1.4380447,-0.4663263,-0.96462786,-0.823573,0.020789497,0.38040853,1.0665983,-0.46792728,-0.36480853,-1.2303951,-0.6583635,-0.28158972,-0.9192498,0.14577913,-0.42303544,-0.10101793,0.74114794,-0.74027365,0.40265042,-0.06362443,-0.27629235,-0.23126428,-0.63902533,0.85429513,0.11898448,0.78609884,-0.7870359,0.30961993,0.0487468,-0.29083773,0.48246986],[-0.013686632,-0.4986849,-0.56770104,-0.8182641,-0.7427801,0.2804635,-1.1132878,0.69593287,0.39928424,-0.3703996,-0.13819125,-0.7989005,1.4129108,0.56563896,-0.2850862,1.0162007,-0.9432597,1.1915644,0.55564773,0.17886017,1.0930953,0.85473174,-0.2822026,0.8969862,-0.5562835,0.6335172,0.62353396,-0.3793473,-0.7447509,-0.9185168,-0.33488947,-0.1465502,1.6006889,0.7205191,-0.09923776,-1.1767637,0.2547829,0.47617105,-0.35985434,-0.73643106,0.031209972,-0.6462818,0.28311005,0.9875268,-0.3274121,-0.1661023,-0.5591794,-0.5660081,-0.36968637,-0.8342884,0.56268877,0.394528,-0.90127075,-1.2944912,0.11843082,0.37319702,-0.8654479,0.4410125,1.1434566,0.94045436,0.56833583,-0.6074775,-0.0410219,-0.4231045,0.10644467],[0.92916244,-0.032306507,-0.32438365,-0.85756147,0.35736054,-0.30286488,-0.0026424313,-0.02645922,-0.6954814,0.06608748,1.1488334,0.63630027,0.0779042,0.49044707,0.6871569,-0.8741071,-0.48606777,0.0927522,-0.08221451,-0.030369787,-0.64382845,0.77534556,0.428326,-0.2548565,-0.6356074,-0.5105641,-0.5951027,-0.29310516,-0.014777689,0.3857376,0.030794097,-0.7023764,-0.66691446,-0.94798976,-0.8599649,-0.85609114,-0.7146307,0.9455359,0.26251408,0.36481592,-0.16558734,0.947447,-0.84292495,-0.5837872,-0.32959992,0.3264941,0.67737496,0.3630146,-0.07609909,0.050531022,0.16155979,-0.66728693,-0.9433925,-0.96530634,-0.52067405,0.016780283,0.31768605,0.43078253,0.7847673,-0.7931304,0.96402764,-0.0041969796,-0.9121075,-0.5472528,-0.7795107],[-0.17791569,-0.9429577,0.82929707,-0.68650895,0.14971563,0.023868052,1.2364187,0.45675817,-0.8264576,0.93306714,-0.028466577,-0.41448766,-1.0735354,0.7270699,0.8750883,0.023308609,-0.34014404,0.99937165,-0.56777006,0.00012165399,0.2791499,-1.3311031,0.54252946,0.89068174,-0.7218337,0.880423,0.28032303,-0.87531114,-0.8137817,-1.3275957,-0.6913692,-0.49405012,-0.5238518,0.5277075,-0.1773458,0.31858167,-0.8503207,-1.4358002,0.26758143,-0.28802988,-1.034367,-1.113099,-0.42478803,0.20550802,0.56224215,1.0547057,1.117827,-0.20801163,0.4910537,0.17133497,0.38007924,-0.3158223,-0.61150104,0.7652813,-0.4803515,-0.43543437,-0.6074741,0.61664903,0.73723406,0.6347333,-0.70070946,-0.6008417,0.42535892,1.4327142,0.6521854],[-0.098378554,0.7161456,-1.1622994,0.11887897,0.033357393,-0.4347539,-0.8611275,0.58413285,0.046873506,0.09945399,-0.47173923,-0.3340126,1.0675133,0.60247314,0.7173298,0.13761976,-1.1803389,0.038376197,0.60338515,-0.87201464,-0.6604481,0.4972636,-0.8520631,0.42399028,0.7981292,0.20901343,-0.5417613,-0.5791019,0.23988143,1.0446965,-0.45240536,0.01355328,-0.1221359,-0.41785267,-0.35481974,0.56061596,0.5260502,0.6773688,1.1155746,0.22713648,0.5171147,-0.8219418,0.32125247,0.5425812,0.33871776,-0.67953193,0.11566108,-0.8563027,0.69327956,-0.25853574,0.9610395,-1.2764837,0.22197963,0.09396495,-0.5905683,-1.225675,-0.9173489,0.54595464,-0.47314975,-0.007287811,0.39781684,1.1468691,0.32739452,0.3406776,0.8527396],[-0.52479964,0.6978998,-0.23143812,-0.6954495,0.25259686,-0.6782566,-0.38091272,0.0915296,-0.12842998,-0.07384633,-0.40337402,-0.4690429,0.39991197,0.897986,0.7977325,-0.34798247,-0.007330107,0.74360096,0.19759487,0.9162266,-0.01707152,0.16497394,-0.24681668,0.5687299,-0.28396025,-0.10998244,-0.45309216,0.61631143,-0.3500051,-0.26640475,-0.16855627,-0.74290484,0.42102432,-0.35641783,0.88398606,0.197556,0.78156304,-0.11293427,0.86380714,-0.2434407,0.03025569,0.06391248,-0.37857568,0.3390667,0.19352543,0.7312968,-0.3736311,0.74549115,0.79658014,-0.56223166,-0.23001142,0.6454457,-0.042713434,-0.7786454,-0.8008431,0.10917977,0.75928557,0.97513574,-0.4730889,-0.12302039,0.2942789,0.9288076,-0.05821885,0.8769098,-0.75986075],[-0.69777095,-0.29030836,0.21023339,-0.6063541,1.0000169,-0.58303046,-0.48238045,-0.8778548,0.07091827,0.38828212,0.41441604,0.39746287,-0.20214964,0.12780972,-0.83913946,0.0801742,1.2094915,-0.80895895,-0.9884732,0.35639158,0.8576857,-0.45007193,0.7859854,-0.2557973,1.063176,0.63534576,-0.5802625,-0.5190064,-0.5752205,-0.4344347,-1.1937792,-0.2749666,-0.65490866,0.75824726,0.6860301,0.65200627,-0.18025263,-0.21871603,0.25196493,0.11745754,0.20138189,-0.5395023,-0.22940508,-0.6390163,0.34158114,-0.44361472,-0.092292555,0.030448968,-0.020727593,-0.11003727,-0.78897804,1.0302063,0.27992994,-0.13490547,-0.37986007,-0.15641792,0.26936322,-0.19058019,0.63472104,-0.37466064,0.24718377,0.12716797,0.83995146,-0.55728453,0.6481375],[0.27393284,0.57303214,0.32122985,0.67121476,-0.9602776,0.994625,0.061775945,0.8592776,-0.056671407,0.8255902,0.9711195,0.2884453,0.7879895,-0.6547495,0.44728097,-0.5123817,0.6308101,-0.27661556,0.6413608,-0.40421948,-0.024433881,0.47253224,-0.6051096,0.00080203835,0.6761126,0.6765249,0.41317567,0.34030044,-0.5673948,-0.57919836,0.37355548,0.61842674,-0.59018826,0.22002307,0.088419944,0.25652978,0.31150416,0.20753299,-0.8192898,0.5001921,-0.7305708,0.016365964,-0.14313222,-0.8265495,0.8360914,-0.07522679,-0.46291873,0.3413481,-0.2424758,0.79421026,-0.45637023,1.0449755,-0.72028255,0.5824827,-0.020757847,-0.006577462,-0.13555805,0.7620157,0.39897504,-0.46240747,0.8994476,0.90069044,0.12095211,0.70585644,-0.16151507],[-0.040684015,0.5772393,-0.25570637,0.44821972,-0.48433778,0.33050475,0.85160786,-0.6225824,-0.31811303,0.5625024,0.6922332,-0.7260025,0.6111334,-0.38769278,-0.28245255,-0.04804195,-0.3690003,0.7707091,-0.34453434,-0.34501326,0.44668776,-0.8219906,-0.5156636,0.35475945,-0.53329223,-0.327111,-0.20912975,0.9052904,0.07170518,-0.95071644,0.4629244,-0.1741467,1.0068591,-0.059930105,-0.9167251,0.98210466,-0.7269312,-0.35214835,0.47381404,-0.19760084,0.9513316,0.20147838,0.94495547,-0.39730427,-0.004771595,0.4882648,0.9135431,0.69041175,0.3870621,0.13191473,0.8317142,0.544933,0.92564416,-0.48705345,0.86702645,-0.549607,-0.9371913,-0.14604406,0.73036695,0.8492738,0.307061,0.8076192,-0.6114964,0.69513595,0.46604404],[0.8689285,-0.2946055,-0.06832613,0.25165534,1.0677471,1.3054532,-0.08286888,0.36042082,-0.47400117,-1.0129482,0.5119446,-0.22870494,-0.28839535,0.23467384,-0.34648427,-0.054061748,-0.51993495,-1.6856894,0.64207435,-0.90546584,0.9778,-1.0545806,0.8554706,0.103635736,1.1651113,0.22886854,-0.010407673,-0.14122614,0.28482223,0.5647906,0.5494302,0.42391446,0.92159075,-1.1815366,-0.6830969,-0.41478086,0.5297188,0.021969898,0.33694708,-1.1293969,-0.54993314,1.0137694,0.07877607,-0.61781913,-0.18726616,-0.702894,-0.110451594,-0.8259317,-0.5319778,-0.7481816,0.78648293,0.6648699,-0.4307967,-0.5685136,0.79876006,-0.87389505,-1.0344311,0.29516247,0.78978837,-0.6436991,1.0849369,0.56528515,-0.64882493,-1.2873204,1.4065278],[0.07237215,0.11454534,-0.9349325,-0.33973828,1.2530504,-0.49889448,-0.18060783,-0.25628313,-0.6082371,-0.6280705,0.79783636,0.16014893,0.597285,-0.85488504,-0.55720145,0.41339067,-1.4325484,-0.7489603,0.84775096,-0.12678805,-0.7217254,0.45791507,1.1536392,-0.20355122,-0.5418756,1.1456141,0.4998656,0.9379325,-0.34673744,-1.1237583,0.99548256,-0.40552214,-0.7156186,-0.71928304,-0.14023314,1.0124497,1.3432257,0.6682791,-0.63806415,0.76899254,0.5415106,0.7814904,-0.7607849,-0.94971436,-0.4758886,-0.29882303,-0.93633354,-0.7011669,0.8653198,-0.46676373,-0.98663276,0.49073806,-0.39870846,-0.6866785,-0.48360005,0.81678694,-0.04293671,-0.5606009,-0.961941,0.73434436,-0.34404942,0.1570845,0.7276152,0.95492834,0.055230416],[-1.2075793,-0.4427584,0.786046,0.14162882,0.5712359,-0.30340302,0.8920601,-0.013882634,-0.36980984,0.55578405,0.5285242,-0.5674916,0.85863537,0.38382506,1.3458703,-0.35008228,-0.40315458,-0.15972182,-1.2655185,-0.9851831,0.79705614,0.096157156,-0.3447264,0.08128612,-0.9128729,0.67668587,0.1426916,-0.71971875,0.3363518,0.2631615,0.570337,-1.0055081,-1.1907084,0.7430873,0.5445583,0.3652302,0.61094123,-1.0683702,-0.044758547,0.8725108,0.52155966,0.71872306,-0.85032195,-0.7974588,-0.009563025,-0.49789593,-1.3790985,0.05752724,0.7146279,-0.745779,-1.0315946,-0.88858396,-0.73914355,0.12535277,-1.0513148,-0.78880996,0.9019496,-0.2237788,0.15558755,-0.9723957,-0.04770881,1.2314004,0.63142425,1.295089,0.34691247],[-0.39504722,0.21354702,0.34928814,0.5929631,0.22831124,-0.81132764,-0.5545406,0.36175662,-1.2318822,0.99937063,0.28724444,-0.35460547,0.19608577,0.52259547,0.08256071,0.77216053,-0.98801225,1.026829,1.0452186,-0.6283785,0.9681342,-0.21724358,0.1435768,0.6211054,0.6632736,-1.0207947,-0.77209836,0.7832602,-0.3345346,0.29279682,-0.66782844,0.70030856,-0.47245458,0.28943214,0.31743243,0.6554184,0.14180748,-0.84925,0.9045479,0.46798423,-0.6273761,-0.5512513,0.6142454,-0.80098563,-0.41626015,-0.9429227,0.8045982,-0.37532952,0.16828781,-0.7055332,-0.5789374,0.33700913,-0.45622224,-0.21788318,0.4435838,-0.7199865,0.33227095,-0.7045625,-0.32072031,0.8170082,0.7541974,0.8801129,-0.44617063,0.00062403415,0.64111584],[0.030903375,0.31611186,-0.83659506,-0.3699292,-0.21089372,-0.47272983,-0.86282724,0.33606085,-0.69997585,0.91297865,-0.0050929785,0.5581965,-0.12586235,0.09362134,0.07333323,0.041840345,0.88984084,0.8960587,0.5887991,1.0255966,0.3775126,0.859528,0.8644708,0.64374423,-0.8399555,0.06177419,0.2737027,-0.839098,-0.5126067,1.0271215,-0.004271235,0.00881926,-0.2863144,0.7774257,1.0466843,-0.620297,0.4821321,-0.9457526,0.14924635,-0.10439709,0.7561465,0.8863699,-0.71914583,0.18837187,-0.53348714,0.73946613,0.60465467,0.82430404,-0.3743505,0.55952114,0.15870175,-0.5034038,-0.3960659,0.03765646,-0.48148915,-0.5036165,0.73336923,-0.10455523,0.10080952,0.25809208,0.42078957,-0.6925033,0.6546439,-0.7808283,0.41661468],[0.37608433,0.11021866,0.5071351,0.1766982,0.135447,-1.0045136,0.53792953,-0.16949096,-1.1623394,0.033238098,-0.66623235,-0.6506001,0.09934577,-0.60527664,-1.1518953,0.61211365,0.8158078,-0.4948709,0.4324863,0.8979937,-0.08889252,0.16329995,-1.1697499,-0.004793349,-0.82688,-0.53387314,0.6885408,0.5017284,0.27515203,-0.9881061,-0.13418975,1.1425205,1.0553491,0.28877908,0.33915448,0.60638905,-0.50679314,0.79403895,-0.57864374,-0.9801209,0.70676535,0.41608453,0.23255199,0.40571246,0.93859524,-0.76461583,0.3777599,0.14316049,0.60409325,-1.0379753,-0.01849275,-0.013635651,-0.42527536,-1.2220231,0.29580185,-0.46348205,0.60817003,0.3382863,-0.44376698,-0.7116733,-0.27285308,0.9951112,0.62907135,0.3731796,1.2913704],[0.7724138,0.9624429,-0.5653742,0.40414524,-0.28761566,0.0028387182,-0.5492102,0.46690023,-0.17393014,0.0649427,-0.365726,-0.5498493,0.46973398,0.25293636,-0.3069287,0.7857518,0.81754297,-0.00004728094,-0.9027958,-0.66740096,0.29899117,-0.9714171,-0.78622466,0.2025936,-0.38508666,0.43509218,-0.8120323,1.0664259,-0.13025653,-0.8875727,-0.5719577,0.49304566,0.1022525,-0.46910772,-0.217685,-0.2863355,-0.3419362,0.43376353,0.37708104,0.87143075,0.6720663,-0.24318504,-0.44225636,0.498466,-0.4785666,-0.19791827,1.0259749,-0.92363364,0.63457847,-0.78546435,-0.16613874,-0.24415308,0.5373867,-0.03554614,-1.0744071,-0.39445144,-0.46406212,0.6082032,-0.70097876,-0.12540363,-0.8600374,-0.6533033,0.26926997,-0.03923315,-0.67407435],[0.30569065,-0.33141738,-0.6707966,0.408984,-0.8943883,-0.71594614,-0.944636,0.9719647,0.6697889,0.45232671,-0.40130624,0.0014856313,0.7746256,-0.66494936,0.8728711,-0.4110874,0.104511105,0.7413703,0.37399533,0.70132816,-0.7028178,0.26335442,0.3823838,0.5886765,-0.14405656,-0.19907305,-0.4470792,-0.39889315,0.782076,-0.6238457,-0.910104,-0.23906976,-0.7287375,1.0430993,-0.8401411,-0.79426277,0.7917464,-0.8177281,-0.55905455,-0.96200365,-0.67400223,-0.8758464,0.814001,-0.5185424,1.1542925,-0.5957158,-0.6510549,-0.644036,0.92106724,-0.53045,0.029569674,0.6278757,-0.08876839,0.6206746,-0.5292096,0.52979124,-0.017582895,0.50706846,-0.77083087,0.09799548,-0.37914124,-0.14104253,1.1910074,-0.49187067,-0.04497347],[0.15388171,1.0990747,-0.3849289,-0.6410934,0.30933204,0.20343195,0.6320188,0.12623607,-0.25001648,-0.8050759,-0.30858386,-0.29926658,0.16923869,-0.15802604,0.13485804,-0.02666664,-0.07103985,-0.86817956,-0.16064999,-0.2046042,0.79131085,0.39273173,-1.0984198,-0.06331885,0.87728065,-0.3119547,-1.0790244,0.26316977,0.2948949,1.000237,-0.5438346,-0.31571448,-0.4496984,0.58492076,-1.1176869,0.63998455,-0.2924221,0.3346106,0.10123705,-0.055032786,-0.090957545,-0.3301596,0.8097516,-0.3010677,0.39779505,0.65680325,-0.65066713,-0.13869064,1.0010167,-0.7587242,0.11804755,-0.7077092,-0.74375355,-0.37566254,0.17151727,0.67543644,1.3916742,1.0509938,-0.47835514,-0.1781805,0.24301782,0.45510095,-0.32762045,0.6003059,1.06249],[0.057915773,0.13967314,-0.93814313,0.3339721,-0.27602258,-0.12833385,0.25010642,-0.26490024,-0.56573373,-0.35889634,-0.7227787,-0.54818684,0.54799324,0.400225,0.4781776,0.06963301,-0.3984671,0.7956684,-1.207529,-0.50136113,-0.24955054,0.40361193,-0.029977022,-0.51401776,-0.7136008,-0.28355634,-0.7333197,0.23613352,0.46453053,-0.2163195,-0.17581193,0.37327772,-0.58912617,0.012176157,0.12750234,0.8610872,0.22275575,1.0713553,1.2442029,0.32829684,0.56784195,0.75336444,0.4334133,0.93237305,-0.61366075,-0.26228413,-0.1367704,0.60057557,-0.1039351,0.9818312,-0.6051517,-0.7332667,-1.1463248,-0.9407987,-0.24146257,-0.6013128,-1.0435506,0.33400837,-0.93248636,-0.5894087,0.6055541,0.12893514,0.3253106,-0.7596923,0.79816085],[0.6771668,-0.58908296,0.30688646,-0.6825104,-0.7913753,0.543282,0.63595784,0.6109082,0.6381392,-0.78710616,-0.6089643,0.41194648,0.34541133,-0.4265457,-0.18246569,0.342014,-0.6433266,0.6020632,-0.8240694,-0.5805653,-0.5364613,0.76266414,0.04468874,-0.69179994,0.10593596,0.02727308,-1.0445559,-0.80650866,-0.64305407,-0.083162665,-0.08881924,-0.5896667,-0.38360414,0.5136128,-1.0702684,-0.75903606,-0.68544555,-0.77691853,0.7404333,0.7256362,-0.106608115,-0.69159013,-0.5431123,0.995603,-0.5778664,-0.7626339,-0.2824008,1.0237191,-0.41663966,0.3230157,0.46830818,0.07224446,0.5111443,-0.86246085,-0.95184106,0.99666274,1.0000836,0.8806778,0.18685988,0.73299855,-0.80586123,-0.7103279,-0.8282627,0.42160994,0.99764353],[-0.9578262,-0.18549417,-0.107282475,0.7776505,-0.22134836,0.603655,-0.41476607,0.4976371,-0.41145647,0.798822,-0.7694487,-0.4221998,0.11582432,0.1740944,0.8358404,0.7713765,0.5148215,-0.73052585,0.59618837,-0.26210392,0.16483444,-0.29305527,-0.17318274,-0.70651203,0.78706396,0.43134868,0.86674684,-0.49194562,1.1227945,-0.9363608,-0.4883311,-0.8252897,-0.5950966,0.036788955,0.3408865,-0.8349976,-0.48964342,0.28194624,-0.25304216,-0.43004015,-0.1632803,-0.5039467,-0.026258707,-0.8178717,-0.46729228,0.60423917,-0.43621776,-0.822077,-0.31809703,-0.86972505,0.8748286,-0.6995014,-0.6266335,0.5740572,-0.75110704,0.94740874,0.15296164,0.75972384,-0.11839159,0.650284,0.5047338,-0.34500375,-0.12937775,-0.7058067,-0.606888],[0.37249956,0.5531985,-0.8800322,-1.1109811,-0.7704106,-0.58360136,0.12950024,-0.1893714,-0.94220597,0.3435984,0.20290002,0.55645424,-0.29189602,-0.061081994,0.29092932,0.71803874,0.7059614,0.17990276,1.2667279,0.16932966,-0.18857516,-0.7806887,1.0595949,1.0058942,0.78677475,0.5668159,0.6932506,-0.6593993,-0.48100933,-0.51001513,-0.68000054,0.7446107,0.15222625,0.22169097,0.9882341,0.73380625,0.68233865,-0.28120548,-0.8135266,0.16449866,-0.90718913,0.28446278,0.457243,0.9147778,-0.32687393,0.3065934,0.1811175,-0.050096367,-0.121286355,-0.7246997,-1.0826324,0.1405431,-0.02369401,-0.7799775,-0.41939038,-0.060699638,0.4816651,1.156363,-0.43460476,-0.47537374,-0.03534967,0.69441986,0.2605794,1.1411309,1.2966934],[1.1604711,-0.9789459,-0.78148806,-0.6283045,0.45064506,0.36033544,-0.25817952,-0.7595631,-0.7903186,0.5147958,0.363274,-0.3269912,0.8506797,-0.2006261,0.004533671,0.522148,-0.6029724,-0.82601583,-0.0334589,1.3083575,0.38580754,-0.27263454,-0.3008473,-0.50124264,-1.0860513,-0.5092737,1.2003437,0.37034997,-0.12847733,0.8292057,0.62901205,-0.6371372,-0.48304898,0.9367162,1.5130013,1.2447267,0.7639704,-0.10319145,-0.5483952,0.41413423,0.912144,0.008830431,0.45088318,0.2660594,-0.90883064,-1.1262339,-0.7070607,0.6300531,0.12938632,0.71167547,0.41801676,-1.1471266,0.56063074,0.29425603,-0.07509973,0.31355748,-0.35124415,-0.58761036,0.23404579,-0.46388307,-0.5551277,0.1684179,-0.32006964,0.059202906,0.2895115],[-1.0535828,-0.8054957,0.72292596,-0.31978673,0.15900944,-0.89629996,-0.7495947,1.031231,0.8523466,0.012153536,-1.0047444,0.7375131,0.010035246,-0.4172276,0.16199745,0.7446433,-0.71894985,-0.8294907,1.0023563,-0.5767753,-0.10187337,0.4884441,0.85511315,0.7407763,-0.571373,-0.8456727,-0.30470812,0.7761593,-0.1455637,-0.8459226,0.0438061,0.27197453,0.14103018,-0.4178929,0.91505605,-0.20935017,1.0210755,0.69449896,0.97694904,-0.31861746,0.09660675,0.46603626,-1.1131891,0.5939059,-1.117166,-0.3162546,0.49735057,1.064932,-1.1709667,0.7456344,0.66974527,0.6491451,-1.0654217,0.10190893,0.46391818,-0.4660305,1.053159,0.05402548,0.32224956,0.19033605,-0.22150247,-0.12225516,0.9356022,0.33169502,-0.42575675],[0.16865903,0.50495094,0.8742437,0.16419987,-0.6411976,0.8904591,0.44826916,-0.2352583,0.39844793,-0.5566105,0.15161811,-0.18289493,0.3587721,0.9432184,-0.109945916,-0.3435727,-0.47543868,-0.53452533,-1.0421188,0.71433115,0.32025534,0.0567199,0.6240841,-0.44253954,-0.46690878,0.8996837,0.6671582,0.6641951,0.51153886,-0.7925648,0.77380806,-0.53823394,0.42029613,0.0016208991,-0.2510745,-0.33035588,0.88406503,-0.37521163,0.054674093,0.80508274,0.93622285,-0.79982966,-0.8516463,-0.11469466,0.535481,0.4985801,0.6653301,0.47946677,0.6502182,-0.6223298,0.31582022,0.017494632,0.20010398,-0.91463053,-0.06190879,0.60264695,-0.38922074,-0.067393616,-0.9835273,-0.2156601,-0.74327916,0.5134413,-0.35572004,0.49706748,-0.50557554],[-0.14945747,0.4949588,0.18492728,-0.25284672,0.5088043,0.7436482,-0.002463611,1.0834976,-0.11566177,-0.27909365,-0.6799042,-1.1506003,-1.118066,0.7224294,-0.30458996,-0.5331904,0.090511225,-0.19499055,0.7253395,-0.65733826,0.13253129,-0.30591953,0.42495415,-0.7461318,0.5330677,-0.87103915,-0.66712457,1.2544327,-0.72973996,0.60117745,-0.25592038,-0.22783491,1.1988921,-0.34341842,0.39370817,0.7309777,-0.39761236,-1.1680892,0.4945324,0.86765885,0.3519753,0.4824326,1.1295902,-0.26526234,-1.0760785,0.15834318,-0.65410453,0.6527741,0.351315,-0.16064456,0.8391393,-0.21465291,-0.15562887,-0.8832114,0.3938354,-0.82893217,0.15855388,0.19996667,0.7057054,0.032750666,0.4912899,0.0023885416,0.99856377,-0.55363625,0.22858314],[1.3606043,-0.8429459,-0.22889337,-0.043336257,-0.45786738,-0.66884506,0.06111639,-0.06481225,-0.772179,-0.11238283,0.0820412,0.55928564,-0.6242741,-0.1420702,-0.086970456,0.1383858,-0.639987,0.5589431,0.025532924,-0.050433505,-0.59432024,0.2596488,0.908963,1.0072731,0.15980954,-0.5471864,-0.9762794,0.041140083,0.70013916,-0.52618223,-0.16166387,0.07967849,1.6670454,-0.07793176,-0.43391618,-0.63021445,0.75835955,0.9135824,1.03032,-0.26228267,0.9775587,-0.20062254,-1.0662544,-1.1293542,-1.0057118,0.30958945,1.0114169,-0.6647711,-0.7417,0.2556378,-0.59747124,-1.045376,0.46947193,-0.53282064,0.033678524,-0.3052761,-0.7118165,0.54331875,0.13407803,0.41075623,-1.180353,0.86953247,1.0651326,0.80936354,1.3061044],[-0.55329776,-0.45094892,0.04695005,0.56897724,0.20676565,-0.39247146,-1.1619356,-0.38614216,-1.2365872,-0.626581,1.1091113,0.055110157,-0.5564296,0.04022846,-0.21944138,0.10367781,0.6846036,0.8137114,0.59483176,-0.80351406,0.17120978,-0.095841095,0.14219137,-0.795513,-0.6276983,-0.43581846,-0.3677924,0.039997842,0.3869206,1.0124907,0.06933214,0.2927422,0.97311467,-0.0624951,0.6483073,-0.53627944,0.3927012,-0.27728245,-0.9424033,-0.14845333,0.4122782,-0.34994695,0.30101028,0.85995334,0.12326619,0.85143197,-0.108027905,-0.27946258,0.3610131,0.2599557,0.70799446,0.6389043,0.94779724,0.9274087,-0.14972675,0.8598573,0.50704324,0.252348,-0.7512624,-0.00037491418,0.8741357,-0.914723,0.041523747,0.998775,0.5663804],[0.42868188,-0.00013238275,0.99045324,-0.80219376,0.9503248,0.78500265,0.016098367,-0.2930728,-0.00065921014,0.40809476,-0.28797743,0.79656684,-0.054970264,-0.34466693,0.9325725,0.40038645,-0.016041357,-0.061041124,0.7723263,0.17027362,0.15027271,-0.024184266,-0.4229396,0.9004871,0.32763997,-0.2658579,-0.5339715,-0.34624058,0.46281826,-0.8848915,0.62520844,0.019650405,-0.19185467,-0.42865247,-0.04397948,0.5948728,-0.41988665,-0.33434123,-0.64622235,0.7111128,0.77095485,0.53944534,0.5807881,0.5732615,0.7964661,0.9896466,0.013501374,-0.1192333,-0.055850837,0.31828043,-0.10894312,-0.7751331,-0.6184069,0.7703618,1.0552139,0.5411562,0.25604257,-0.6816874,-0.26201695,-0.84835106,-0.33959004,0.3855655,-0.07636713,-0.063740276,0.24548557],[-1.5117056,-0.5495071,0.32925397,0.40944916,-0.4535464,1.1460617,-0.71245843,-0.123073675,-0.07126641,-0.6576562,-0.55992156,1.0506452,0.68436,0.13689126,0.4633726,-1.4067113,-0.14623275,0.07817419,0.46594438,0.08958041,0.28420782,0.103967555,0.6761774,-0.72964346,-0.52700484,-0.6496473,-0.10445518,1.21903,-0.11043251,-0.019473208,1.3206966,-1.0004461,-0.37435415,0.49212235,0.56010187,-0.34275585,0.37804735,-0.9582316,0.042858094,-0.44537452,-0.29152903,1.0716932,0.34039545,1.0491775,0.8554508,-0.6525666,0.5145773,0.37871653,0.2636624,-0.74207234,-0.5230074,0.077011004,-0.09471626,0.15316892,0.8836092,-0.7507088,-0.6950085,0.3778914,-0.61070067,0.787727,1.027745,0.45375594,0.09966076,-0.2503996,0.6429307],[-0.19295701,0.7787557,-0.02860635,-0.6122151,-0.58726245,-0.17122753,-0.64494103,-0.97958785,0.47877952,-0.394302,-0.3357085,0.5323612,-0.52955407,0.08344326,-0.7676094,0.5987071,-0.83818537,0.45839867,0.2742929,-0.92362756,-0.6350587,0.19272803,-0.66597176,-0.6326536,0.32076073,-0.5194523,0.8040594,-0.0954844,0.7041835,0.9126769,-0.79590464,-0.18221262,0.70001614,-0.3024249,0.089727715,-0.04596105,0.5102796,-0.2874308,0.07307216,0.8751419,-1.0068997,0.26917282,-0.15473709,-0.59157354,0.34946495,0.30720153,0.50214857,0.91506356,-0.47953504,-0.31237507,0.044921804,0.8914095,-0.58101934,0.029695101,-0.49520785,0.90522903,-0.6296451,-0.09674781,-0.69851965,-0.7255611,-0.9202966,0.30268645,-0.7873063,0.22582953,0.5320071],[1.1666758,0.25321487,-0.8067686,-0.16377766,-0.45700103,-0.59042704,-1.1084083,-0.34179795,-0.31465045,0.5996151,0.6806248,-1.4766465,-1.4382128,0.64356685,-0.6432426,-0.10591574,1.5890766,-0.27128962,-0.7434601,0.5014766,0.15420507,-0.64514226,-0.49490553,0.16522379,-0.21848232,-0.18542068,0.41091868,-0.14624067,-0.3161843,0.5464315,-0.26982158,-0.9394888,0.22759393,0.6886842,0.66064274,1.0474685,-0.9644731,-0.7562978,0.773356,-0.3386391,-0.4515216,0.08185878,0.34937918,-0.29509664,0.38501236,0.6218756,-0.035862517,0.60702366,-0.64034873,-1.0315676,0.072839186,-0.2907598,0.7843971,0.026839448,-0.43995816,0.22142054,0.66604215,0.64435154,0.9766387,0.29458097,-0.46475843,0.7551588,-0.20984776,0.010680278,0.07359386],[0.34545207,-0.012466687,0.25806656,0.24608906,-0.6998693,-0.19641171,0.2127796,0.26532575,-1.1995754,1.2356263,0.25351205,0.85965955,0.7292554,0.45316294,0.15195318,-0.13807435,-0.58426994,0.020554814,0.5193501,-1.1329179,-0.16446103,0.23681584,-0.3906174,-0.6231602,0.42553335,-0.95276695,0.48669618,-0.02025221,0.48243535,-0.014068855,-0.094984226,-1.2214727,1.1230563,0.5369694,-0.806803,-0.46167505,-1.1074212,0.2105999,-0.23483552,-0.9637956,0.03624414,0.54636276,0.2821788,0.8374864,-0.8204849,-1.3003815,-1.0928406,0.5569096,-0.87221634,0.13927284,-1.2789724,0.06447142,0.6949711,0.85134083,0.0001914912,-0.8262895,-0.19147973,-0.3206763,0.67481035,-0.36993432,0.85557866,-0.40578708,0.35993868,-0.110260695,0.69172764],[0.65719944,0.80088204,0.28604972,-0.82060814,-0.939119,0.19476311,0.5050732,-0.36997983,-0.5294968,0.744575,-0.5945111,0.69393283,-1.0569937,-0.60809326,-0.20570353,-0.59533656,-0.5839542,0.73095846,-0.6303697,-0.9832131,-1.1021072,-0.6879478,-0.60539764,0.2467259,0.18224345,-0.6312383,0.31605643,0.45485613,0.20316295,0.6786322,-0.87691385,-0.86072886,-0.8607865,0.32938775,-0.15495835,0.37930658,0.90389633,-0.7250045,-0.29510382,0.9997008,0.7654875,0.5457778,-0.7380275,-0.7505975,0.81475097,0.92610216,-0.4045611,-0.5892374,0.41543806,0.1361803,-0.10479251,0.5936634,0.9352475,0.80401504,-0.032754447,0.0948316,-0.52334946,-0.26867405,-0.38286397,0.25216892,1.1052449,-0.7879014,-0.22611602,0.19567686,-0.96177596],[0.71877295,0.2512255,-0.48206732,-0.7699853,0.7686338,-0.8210481,-0.10479986,0.10696004,-0.6714689,0.9098936,-0.69438714,0.6987993,0.16221282,0.8980337,0.009188391,0.3226911,0.23497331,0.26423833,0.52510196,-0.74252814,0.2822596,0.71694887,0.6719984,-1.0031391,0.7600854,-0.12832174,0.08630336,0.72898877,-0.7442913,0.8950449,0.8177493,-0.12070393,0.5851852,0.8566432,0.0010580714,-0.04736717,-0.019735934,0.62113684,0.22058877,0.36483127,-0.39194918,0.33256418,-0.825217,-0.73442984,-1.0149907,-0.51435375,0.19113149,-0.55643946,0.94419837,0.017499557,0.6200238,-0.15345259,-0.9790621,-0.56182295,-0.29374555,0.8397516,0.8118735,0.13710964,0.38767824,-0.34987473,0.90752655,0.3796486,-0.6607582,-0.28328747,0.76929814],[0.14603733,-0.45398477,1.0515585,0.8879668,0.17835778,0.12796071,-0.27889377,1.0238767,0.75028366,0.5373784,-0.5942998,-0.64015996,0.73964685,-0.23782894,1.146482,-0.78229415,0.03502828,0.30022016,-0.29693484,0.7867067,-0.22531204,0.42125914,1.0311205,0.6312616,0.16232194,-0.12656598,0.3615172,-0.6976492,-0.17703342,-0.18323126,-0.38755694,-0.3143943,-0.25590184,0.8307937,-0.63775,0.42368734,-0.3006653,-0.58110774,0.16369703,0.040854264,-0.26776692,0.33096865,-0.8384157,0.05284255,-0.44951615,0.8577343,-0.7073158,-0.0036200294,0.764659,-0.9372131,-0.923253,0.9113423,0.14433892,0.198673,0.15635273,0.85136455,-1.1273676,-0.5794553,-0.030253487,-0.72514665,0.4290683,0.21593612,-0.29274476,-0.45116845,0.25862825],[0.2969206,0.8347517,0.26195687,0.7281204,-0.11206418,0.95000905,-0.19539629,0.3803462,0.5862015,0.8032378,-0.09760609,0.6505435,-0.5129529,-0.16229433,0.9236671,-0.6122697,0.6933936,0.37754765,-0.23465906,-0.3124513,0.44298306,-0.8520531,0.3041422,-0.8175964,0.36300078,0.7431346,0.14408824,0.89702404,-0.9771652,0.57445043,0.90687776,0.6150772,0.0783248,0.46474147,0.4385593,-0.41701934,0.8616221,-0.31203857,-0.59217846,0.7332813,-0.23266637,0.27524546,-0.238323,0.1247074,-0.4281267,0.31978565,-0.12549308,0.575595,-0.49843565,-0.14493,0.9574522,-0.2662552,-0.8451312,0.08336859,-0.1813441,0.029108258,0.22245675,0.7073726,0.63534707,0.80638975,-0.3281447,0.6727444,-0.9445943,-0.80483544,1.0148938],[-0.717685,0.26449403,-0.050122872,0.34568745,-0.506283,-0.15537141,0.5830015,0.6552221,0.5620323,-0.15632212,-0.40121314,-0.54840714,0.6914445,-0.2629328,0.5797087,0.631585,0.4059436,0.656269,-0.20429988,-0.24739368,0.13202928,0.6230116,-0.27474877,0.92216074,0.71273804,0.1350648,-0.9172013,-0.46142116,0.5603533,-0.10691096,0.5033142,-0.82209045,-0.9414649,0.8592656,1.0325089,-0.84452415,0.023148814,0.88126874,0.34143242,0.6773198,0.7070429,0.28488016,-0.7898105,0.8511958,-0.26908213,0.33190286,0.5104461,0.5417343,-0.13853544,1.0047143,0.6743788,-0.16300021,0.40696532,0.6149787,-0.41493952,-0.36079162,0.022259243,0.9622352,0.24926749,-0.24552722,-0.20489156,-0.9093223,0.21569394,-0.7404789,0.5306282],[-1.0840265,-1.1012363,-0.39609203,0.8241453,-0.29669675,-0.3308114,-0.39424703,0.8306041,0.39410174,-0.48335716,-1.0936325,-0.73147726,0.42802784,-0.29216006,0.19024651,0.64077294,0.44452608,-0.9196675,0.10283997,1.0127362,1.1606629,0.84107035,-0.40945393,-0.5072427,0.093247056,-0.7782805,0.8570748,1.1958616,-0.33639362,-0.43899065,-0.18017659,0.7218313,0.337916,-1.280898,0.17462064,0.19858211,0.76503456,0.047476165,0.23528232,-0.02485032,0.20840113,-0.50156975,1.0258802,0.34569618,-0.44603062,-0.5392858,0.009325227,-0.7954643,-0.8310308,0.60270584,-0.8602169,-0.42926157,-0.13064653,0.91254765,0.39915457,-0.9463045,0.05314305,-0.017266925,0.5695339,1.092438,0.47408023,0.8271566,1.3759516,1.3111333,0.1669715],[-0.836203,0.17307928,-0.738271,-0.4160329,-0.9529681,-0.8455224,0.6311972,0.63866407,-0.4993072,1.1546417,0.5663205,0.37191242,-0.5732265,1.0225017,-0.12776096,0.06571579,-0.046409205,0.012308003,0.40257102,1.222701,0.9116418,-0.7901044,-0.33845603,0.37669867,-0.7270411,-0.44604307,-0.46300343,0.35517922,-0.61219066,0.62745404,0.7809643,0.34759453,-0.7914767,1.1030306,0.5912134,-0.20635508,-0.7287097,-0.6923657,0.80877316,-1.0695838,-1.118227,-0.35291764,0.8402838,-0.29223314,-0.5495442,0.69331676,0.15780364,-0.39244118,0.22214264,-0.6650819,1.1914151,0.73752,0.6063109,0.52686566,0.028183907,0.8961613,-0.10590907,0.15867874,1.2542121,-0.64893216,0.17512286,0.11808512,-0.007821148,0.05807095,0.14160764],[0.30380234,0.43091968,-0.26569977,0.055952612,-0.8480908,-0.043255817,-0.10672015,-0.97133934,-0.3126822,0.3020946,-0.955403,-0.96885866,-0.7246337,-0.94689417,-0.57335985,0.5865291,0.18081321,-0.7012365,0.16860238,0.059787013,0.67086774,-0.11402536,-0.4317769,0.96786034,-0.49062544,-0.9924195,0.6410338,0.5218742,0.034405667,-0.60547,0.32052234,-0.2807979,-0.9056828,0.39479858,-0.6345535,0.2570618,0.2670655,-0.51522124,0.58029664,0.68639547,0.67398304,-0.8214264,0.28537256,-0.74343187,-0.06792741,-0.69132304,-0.28607047,-0.11655721,0.6931053,-0.2552052,-0.75448436,0.12379162,0.23448785,-0.07131705,0.5119948,-0.09906233,-0.715347,0.86299354,-0.3901176,-0.008690869,0.08326972,0.08951301,-0.22060362,0.31796548,0.9123156],[0.64431584,0.74040985,0.19890143,0.6852759,-0.686853,0.40863284,-0.13991739,-0.2662297,-0.28730094,-0.089217566,0.5356527,-0.7325037,0.620545,0.5453919,-0.33754086,0.3903242,-0.21662435,-0.5346087,0.79395306,-0.30934,0.18769631,-0.82249135,-0.061630655,-0.7451594,0.852241,-0.25663573,0.20176966,-0.28729722,-0.623444,0.73598313,0.73305225,-0.036853608,-0.26054794,0.06120269,0.040010214,0.4926789,0.6195592,0.62589014,-0.7866587,0.62683773,-0.22734046,0.9306342,0.13875876,0.37690485,-0.5526553,0.2253488,-0.40306255,0.98274547,-0.9289131,0.6050858,0.42949963,0.7838522,0.9852653,0.8174166,-0.11449944,0.82629067,-0.074342564,0.14915527,-0.65348804,-0.26062107,0.91417706,-0.80036,0.63161284,0.16809711,-0.33865714],[0.79052335,-0.6488586,0.9111286,0.8187013,0.80070364,0.6345369,-0.4806982,0.3614406,0.27701205,0.39129418,-0.02221946,-0.031533428,0.85464257,-0.31405157,-0.71514094,0.31020197,-0.17688413,-0.34210578,0.31868067,0.54540956,0.18375969,0.926854,0.94027764,-0.42084342,0.17207451,-0.029224021,0.422091,0.4737901,0.8204168,0.3257023,0.122335434,0.27091852,0.99525064,0.33571732,-0.47126094,0.47564408,-0.6275684,-0.99477625,-0.5964878,-0.14575577,0.6008563,0.0110593345,0.29640326,-0.8590709,0.35796297,-0.67603254,0.5093598,0.4019374,-0.71105933,0.9649955,-0.9749097,0.8487312,0.81830853,0.17925109,0.16204377,0.9711381,0.9046967,-0.8912708,0.6727292,-0.2371437,-0.32967743,0.362987,-0.6824812,0.391542,0.9209425],[0.5898105,-0.69338936,-0.92293465,0.6782779,-0.70537835,0.5288385,-0.09803083,-0.99741274,0.3614246,-0.27199003,0.11956904,-0.57765055,-0.49913937,0.8868715,0.11962994,0.14225185,0.6335557,-0.49276713,-0.7560151,-0.10646135,-0.40607694,-0.95073587,-0.33466876,0.56797254,-0.75864166,-0.5733039,0.43981645,-0.29928845,-0.63254267,-0.05442997,0.8390347,0.9445127,0.7004884,-0.7946152,-0.6324553,0.92398196,-0.70358676,0.42872867,0.1374933,0.70222473,0.016424585,-0.5862169,0.37042794,-0.48585373,-0.5006059,0.20866978,-0.6243548,0.5053664,0.39518186,0.27907005,-0.1663725,-0.8241914,-0.8051601,-0.72924143,0.2864435,-0.24763045,-0.66773283,0.6638616,-0.7817151,0.0017774882,0.3390211,0.2890125,0.58723634,0.21902837,0.7220788],[1.021264,-0.96304756,0.564074,0.42163277,-0.44502756,-0.39354965,1.0723294,0.3862603,-0.16886598,0.8620591,-0.40913406,0.36134,-0.8119224,0.36157328,0.30569094,0.4685309,0.9968731,-1.1624502,-1.023907,-0.3861701,0.7958082,0.06790137,0.027326047,-0.45217872,-0.7416661,-0.34635857,-0.7938955,0.26236534,-0.1698683,0.88012683,0.3686693,0.43443972,-0.42853108,-0.24272496,-0.9851975,-0.6429241,0.36171097,-0.58131623,-0.8700499,0.95614177,-0.86654854,-0.7191795,-0.7098909,-0.04526306,-0.092571564,-1.029575,-0.2994765,-0.28958172,-0.44461057,-1.0337975,-0.7204998,-0.48076716,-0.5132124,-0.6062905,-0.23619749,0.48350552,0.68021405,0.2413113,0.45671615,-0.23087034,0.45203888,0.0040284707,-0.34963167,0.2130823,-0.6436276],[-1.1469098,0.14663371,0.08305184,-0.9211048,-1.0850698,-0.23682572,1.2447639,1.444891,0.81892085,-0.9103815,0.13446042,-1.303982,-0.84795976,0.56761456,0.3365247,-0.4475052,1.4476211,-1.5189874,-0.76381356,0.18797754,0.23923616,-0.043606106,-0.32707793,-0.9595484,0.10525136,0.8481811,0.8082446,-0.8977625,1.0707716,0.629653,0.4512858,0.05061555,0.410229,0.17214452,0.55206627,-0.24453868,0.2237079,0.97408515,-0.3851705,0.44718432,1.0968747,0.28703803,-0.26504102,-0.3824798,1.133651,0.16062215,-0.15710643,0.4495994,0.12597503,-0.055143077,-0.5610647,-1.1724576,0.7823372,-0.41769814,0.7212776,0.030585429,-0.35622314,-0.09345886,-0.27603212,-0.9410107,-0.82387584,-0.24583298,-0.31012252,-0.49506554,-0.4720176],[0.5010618,-0.44919735,-0.6719965,0.93293506,0.6103167,0.5489158,0.18330039,0.14733544,0.26622254,0.40936017,0.30115882,0.56894237,0.5311606,0.47845396,0.5864626,-0.013800108,-0.42763817,-0.7116657,-0.18656692,-0.8514282,-0.33181378,0.47436848,0.48540083,0.71916014,-0.38257265,0.8928225,0.5050737,0.7266318,0.22695176,0.66240925,-0.78077495,-0.59380674,0.64235526,-0.8084872,-0.45670244,-0.4987726,-0.9369147,0.57996166,-0.034262702,-0.2849588,0.1282612,0.33136585,-1.1509869,-0.19251667,0.30753186,-0.0417216,0.25073504,0.030681597,-0.32601926,-0.9176927,0.4064157,-0.98938096,0.6605891,-0.63781446,-0.45616636,-0.9595381,0.62128943,0.7271559,0.93759775,0.90596896,-0.40779024,-0.78992057,0.6250645,-0.6601155,0.76324505],[-0.47019255,-0.4273232,-0.21205896,0.27733985,-0.34040955,0.18814762,0.253436,0.20751584,-0.6288522,-0.7159385,-0.09563219,0.5526332,-0.6205495,-0.58195776,-0.2464607,-0.43575093,-0.10801898,-0.114042915,-0.0044551683,-0.2836067,0.289499,-0.5368956,-0.8667514,-0.4635808,-0.1482895,-0.13543624,-0.25093254,-0.44667456,-0.32429838,-0.95019454,-0.74105215,-0.13524972,0.7042671,-0.8575446,0.1452333,0.6863322,-0.073152885,-0.8984998,0.12789631,0.47361064,0.2592677,-0.33901936,0.12910533,0.9822021,0.97315234,-0.42196053,-0.1418734,-0.80338925,-0.027117461,-0.9728283,-0.44752774,-0.9536485,-0.38177654,-0.23382886,0.67074084,0.0819525,0.19426186,-0.7259099,0.045626406,0.35288805,0.22833155,0.113787584,-0.83423525,0.33085117,-0.3428966],[0.4412723,0.044190228,0.8221886,0.7757614,0.010746493,-0.96740925,-0.28224787,0.41923773,-0.0023356818,0.6900508,0.7734051,0.43330535,0.354399,0.4914082,1.1171069,-0.59722096,-0.54587847,-0.7950196,-0.8160111,0.3163563,0.04206078,-0.10208483,1.0180453,-0.17437549,-0.5788857,-0.26655576,0.004245707,-0.06385476,-0.021824263,0.4673512,-0.21349582,0.30767876,-0.37262547,0.545097,-0.37744543,-0.59356856,0.618072,0.50350976,0.55957747,0.6165648,0.6521239,-0.09033658,0.73188734,0.24319059,-0.23193789,-0.9383482,0.31718504,-0.966889,-0.91361785,-0.16063525,0.12585054,0.43804193,-0.93632287,-0.95069027,-0.40735033,0.36154065,0.5871303,-0.24500157,0.1644915,0.12841189,0.48400903,0.79804915,-0.53022856,0.0050102,-0.33243543],[-0.45831612,0.06925356,-0.0023859618,-0.9376825,0.9692394,0.7226819,-0.012997111,-0.3255412,-0.5412447,-0.20590332,0.90505195,-0.42330214,1.0453784,-0.067530565,-0.84857845,0.5059035,-0.34066847,-0.2751812,-0.43442744,0.1817102,-0.3032918,-0.43956932,0.737304,0.443853,-0.5783561,-1.368392,0.14656827,0.14359196,-0.54002136,-0.55396295,0.48127612,-0.08517313,1.1148893,-0.45407102,-1.1140691,-0.90235156,0.3813398,1.0093751,0.32297033,-0.63594466,0.96432704,0.050549757,-0.65193635,0.69311374,0.4976513,-0.8781053,0.95830625,-0.05690247,-0.66197014,0.35695845,0.15337218,-0.1304192,1.2021154,0.3505152,-0.7037809,0.42998388,-0.4146002,-1.019205,0.7695012,-0.76501036,0.54972017,0.19936584,-0.029777177,0.3248063,-1.0928383],[-0.10878229,0.08670637,-0.9713522,-0.56960857,0.6954069,-0.9894165,1.0127844,0.02174588,-0.8054886,0.15616374,-0.7133108,0.6985328,1.0288994,-0.6793232,1.038444,1.031116,0.5341658,-0.30625093,0.51729405,0.077442266,0.6984121,0.25372744,0.04598571,0.20184419,0.3763247,-1.070113,0.8027814,0.35978162,-0.17038879,-0.40196452,-0.7269164,-1.0427022,0.50174004,-0.280737,0.23442468,-0.8477194,0.110586956,0.25420827,1.0020396,-0.5186864,-0.2720931,0.1023966,0.17777593,-0.115527324,-0.21478274,0.36948255,0.048711754,0.6795408,0.54093736,0.30685058,0.90613675,-0.14309502,-0.21774767,0.57424706,0.2461396,0.3628103,-0.279092,-0.78977805,0.80519557,0.08108724,-0.0072794612,-0.8291198,0.5686068,-1.1981928,0.085452735],[-0.9484524,0.88277626,-0.4768598,-0.7744104,-1.1546117,-1.2808653,0.7561314,0.31879005,-0.21598165,-0.66283834,-0.13048202,-0.55855286,-0.81930435,0.98165023,0.8596199,1.0276285,0.9584079,0.65416217,0.67259526,0.84257174,-0.73198366,1.135181,-0.3617821,0.78325665,0.46455693,-0.2938191,1.2847216,-0.96010745,-0.40028092,-0.26520985,0.29314503,-0.73964834,-0.8066717,0.07439918,0.7533687,0.12174441,0.73302597,0.3136384,-0.5258779,0.25788745,-0.5997881,-0.9784076,0.052824363,0.40803254,-0.52490866,-0.82808405,-0.6448199,0.13547975,-0.8831519,0.2510589,0.95926946,-0.6797636,-0.02759051,-1.0962573,-0.20838355,-0.7190304,0.9781127,-1.1458633,-0.25887182,-0.09867947,0.69423926,0.10991509,1.1798134,0.63064826,0.53721005],[-0.20533516,-0.89613014,0.024292316,0.84334314,-0.64496225,-0.9259111,-0.21751922,0.044056077,0.7941562,-0.045542374,-0.2211132,0.09158528,-0.7734401,0.20342584,-0.9037029,-0.53106314,0.1384413,1.1153419,0.37058473,-0.8049368,-0.7173002,0.38083836,-0.77172256,-0.41652885,0.40988433,-0.14287964,1.2075045,-0.15743372,0.70458454,0.00956232,0.4251654,-0.30154175,0.76906824,-0.7734038,-0.48941,-0.6335424,-0.85087764,0.2073311,0.01635101,0.44483954,-0.7879668,0.47867993,0.4347159,0.8767651,-0.7003176,-0.8740274,0.014911814,0.040727813,1.0721519,-0.14224616,0.9335621,-0.33227766,0.21276411,-0.09669259,-0.341428,-0.6897455,0.90686464,-0.37306985,-0.69900507,0.87766767,-0.9137613,-1.1282789,0.5404353,-0.3245905,0.4329856],[-0.6522337,-0.57342535,0.3046935,0.5758551,-0.9219742,-0.3297469,-0.7753035,-0.5249803,0.025365882,0.7426344,-0.7645027,0.7566313,-0.90389425,0.44927782,-0.75142545,0.36409193,0.044996407,-0.6389793,0.5679654,-0.27525026,-0.23560354,-0.5263758,0.12202473,-0.09613678,-0.012442326,0.75345314,0.6547106,-0.651802,-0.028264573,-0.3261769,-0.6697404,-0.6396613,0.4935115,0.02341059,0.512699,0.6398695,0.8130057,0.83908594,-0.7379483,0.67219293,-0.20977269,0.67984915,0.06691025,-0.20525183,0.6466238,-0.2839296,-0.15242116,0.77453333,-0.44551712,-0.95009375,-0.8336811,-1.0009879,-0.33689365,0.44624004,0.59436697,-0.6918414,0.3853439,-0.75218076,-0.5414234,0.95381725,-0.28320235,-0.9626626,-0.36688444,-0.405723,0.10217694],[0.5087362,0.6015147,-0.75157404,-0.98600096,0.3544543,-1.22202,-0.62622136,0.47338256,-0.09910238,0.6548525,-0.57511884,0.08145527,1.2029687,0.28165898,0.55282825,-1.0296084,-0.3150199,-0.29053947,0.34589088,0.46055624,0.04372317,-0.009004687,0.7376022,0.01214777,-0.7149356,-0.44010264,0.89823216,-0.298178,-0.7568026,-0.20182124,0.7519095,-0.049028583,0.24812797,0.79172087,-0.88490814,-0.77838004,-0.51704204,0.6008987,0.04654328,0.7420564,1.0084229,0.53886104,0.8182077,-0.16658562,-0.37209544,0.4584254,-0.21665588,0.16374463,-0.6372295,0.37731314,0.7271912,0.20879377,1.230987,-0.44610193,0.69799715,-0.14484157,0.795359,0.55265117,-0.52440554,0.9824159,-0.6243037,-0.7892381,0.104423165,-0.6009261,0.29909652],[0.8945832,-0.36707684,-0.20922011,-0.64063704,0.4534656,-0.101060286,-0.51284385,0.812219,-0.6051348,-0.087085895,0.93836015,1.068087,1.1320875,-0.091875054,0.42010406,-0.53034717,0.140749,0.11877133,-0.6584068,0.1217191,0.25754836,-1.089366,0.7240478,-0.9869498,-0.9498724,0.11051888,-0.17949791,0.8994877,0.9970877,0.8327855,0.5763934,-1.025172,0.45468798,-0.26689613,-0.6596791,-0.5159431,-1.0267936,0.41683325,-1.1388113,0.19897522,-0.68413174,-0.64458895,0.21051452,-0.7408805,-0.55608636,-0.8418719,0.225811,0.92582905,0.7403236,-0.16058978,-0.38378868,-0.5986548,0.66823494,-0.4136726,-0.37051743,0.10573678,-0.38408107,-1.0543897,-1.25184,0.119153984,-0.29176798,-0.23005706,0.5169901,1.0394828,-0.38218492]],[[-0.46742177,0.76359653,0.91863036,-0.29786348,-0.90076613,-0.0035822392,-0.83741856,0.78326464,0.56036425,0.31996942,0.30284286,0.047658682,0.37806058,-0.69964075,0.75309086,0.7145157,-0.59429026,0.41492915,0.23855472,0.15001369,-0.64476633,0.6743829,-0.9464383,-0.74971795,-0.25912356,0.12956953,-0.06037426,0.30175376,-0.9988811,-0.69014096,-0.7255111,-0.057031393,0.6588707,-0.36249232,0.14891243,-0.95877504,0.33013463,-0.999825,-0.43352866,0.6716628,-0.83063054,-0.77207136,-0.038639307,0.9009397,0.5090518,-0.26408315,0.012424469,0.44942045,0.3516717,0.9442363,-0.6103871,0.0035879612,0.7164388,0.9665861,-0.7562835,-0.6068442,0.8862324,0.2794211,-0.32861018,-0.31979084,-0.24902582,0.2952752,0.47613525,-0.4735279,-0.63935065],[-0.3217264,-0.7704277,0.07534215,-0.14483345,0.013349978,0.36491013,0.95634425,-0.15181051,-0.013684279,0.80584013,0.1108461,-0.014624195,0.99635327,0.26578346,-0.039766062,0.32125258,0.92866904,0.14972898,0.56512344,0.5753618,0.60997635,-0.42233446,-0.12243764,0.14864978,0.17513788,-0.30599815,-0.4101931,0.06977074,0.73226804,-0.45686233,-0.29037035,0.20499109,0.9651763,0.7613535,-0.9414603,0.8425379,0.7871238,-0.6166764,-0.14305687,0.12235118,1.1729754,0.9322892,0.9704027,0.050608717,0.13792163,0.26956868,-0.93937016,-0.81971645,-0.2960117,0.011646153,-0.5612432,0.4631448,0.009361721,-0.4463112,0.5347814,0.7089503,0.09553116,-0.9037173,0.0073964926,-0.36167654,-0.76966757,-0.10871862,0.5106362,0.2973814,0.41981012],[0.8758743,-0.27154914,0.5980684,-0.33860648,0.75031984,0.13280483,0.064407304,-0.18181248,-0.6728243,0.3109089,-0.17058147,-0.060372807,-0.6965701,0.040792488,-0.27611676,-0.9786253,0.09569306,0.08901927,-0.2250722,0.22985663,0.5714775,-0.07034172,-0.60426575,0.49861044,0.46654874,0.11761881,0.24386832,0.36493462,0.83752793,-0.36210158,0.47763744,-0.49345866,-0.3558058,0.11130596,0.6297203,-0.2491963,-0.668692,-0.9141075,-0.30525777,-0.54375535,-0.3007657,-0.30996946,0.7874043,-0.28134036,-0.24437246,-0.7767271,0.19267534,-0.867311,-0.71869785,0.583385,-0.23159166,-0.56970876,0.283737,-0.44559467,-0.088451885,-0.9128269,0.53425556,0.50342983,-0.5550636,-1.0100265,-0.818233,0.50079703,-0.48190734,-0.69340146,0.42795092],[-0.4216082,0.600991,-0.24323747,0.039384488,-0.03936821,-0.055768136,-0.25106868,-0.4224482,-0.4869342,-0.95407516,1.0124257,-0.24006301,-0.4335464,0.016934836,-0.14836226,0.413065,0.8719734,0.16285764,0.093352854,-0.44862926,0.32142052,0.76093405,0.26829,0.850869,-0.94327044,-0.9318769,0.8121754,-0.93762964,-0.7214292,-0.48018035,-0.049626295,0.52032834,0.46564922,-0.61094743,0.01188577,-0.8711778,0.0059525776,0.50144625,0.8869327,-0.2586639,-0.68579286,-0.78345066,-0.037853077,1.036745,0.84983045,0.25050545,-0.7596837,0.9841661,-0.34454373,-0.10741182,-0.12274226,-0.15360193,0.7523271,-0.20172313,0.3372352,-0.787617,0.28725293,-0.49141082,0.023879848,0.83987,0.52129424,0.55921346,0.37467104,-0.42459738,0.76069796],[-0.15955867,-0.5311296,-0.8109276,-0.48414084,0.5092935,-0.018985253,-0.2083892,0.7236645,0.7568729,1.068894,0.7712627,0.15988912,-0.4366858,-0.51092625,0.2881364,-0.05520524,-0.7837551,-0.06979872,0.5371818,0.23417246,-0.30524358,0.051059984,0.74237275,0.39903796,0.57943094,0.35779443,-0.17811483,-0.21421625,0.0058300323,0.6597977,0.8967111,0.020712055,1.0802137,-1.1041238,-0.8703653,1.0443324,1.1062366,-0.5923524,-0.68987566,0.17287794,-0.13065957,0.5951856,0.45375642,0.17076112,0.3386822,-0.28311238,-0.102426454,-0.9829794,0.71479493,-0.43472,-0.54719347,0.55782616,0.80131614,-0.2708636,-0.8471515,0.25321224,-0.60540086,0.503113,-0.9854716,-0.7951457,-0.5846571,0.038657453,1.0658814,0.08991011,-0.9372974],[-0.56726646,0.14056876,0.3277369,-0.63743454,-0.69055974,-0.49968696,0.057332586,0.6691125,0.7528619,0.47754133,0.97232157,0.66470367,0.79021424,-0.43317193,0.29750755,0.38601726,0.64164484,0.5136624,0.6382602,0.4009894,-0.698715,0.44776174,0.61412555,-0.59530765,-0.2802773,-0.9409902,0.83748424,-0.3150149,-1.0085406,-0.9742819,-0.11511176,-0.11615904,-0.20450854,1.0205525,-0.5585604,-0.57739365,-0.51972544,0.060516275,-0.8414085,-0.8665668,-0.5475171,0.5765254,-0.7441616,0.89196855,0.62129086,0.9862309,0.6684439,-0.84389806,0.21320161,0.8537021,-0.017396487,0.056782477,0.081256635,-0.91899014,0.7257079,0.15220016,0.8924751,-0.1402092,-0.41960186,-0.6054431,-0.844544,-0.65057987,-0.5173025,-0.950697,-0.87247527],[0.0802232,0.16893892,-1.1228772,0.38430905,0.7700581,0.93808496,1.041786,-0.9649871,0.7066944,0.75664216,-1.4799992,0.87188196,-0.35290465,-1.0035135,0.69937325,0.11848931,0.110546716,0.031909574,0.43592414,0.6001218,-0.04463668,-0.17008354,0.59900737,-0.6305666,0.19648014,-0.15530467,0.3966069,-0.39340585,0.9170834,0.35018677,0.11226541,0.55615914,1.0466161,0.4401266,0.3535327,-0.42140174,-0.06300416,-1.0431472,1.2172201,-0.72722584,-0.47504762,-0.12536207,0.06426553,-0.8275637,0.5278376,-0.16383094,-0.78874797,-0.066282526,0.8888966,0.8677735,0.52281153,0.28494558,0.33924687,0.6678522,-0.14721039,-0.09086311,0.2733318,-0.23955321,0.6821216,0.024886442,0.7258912,-0.3944635,-0.6354083,-0.7061499,-1.0897335],[0.8279944,1.0379869,-0.8264113,0.04864819,-0.562147,0.582108,0.1332467,0.35269892,0.5218257,-0.5492577,-0.19544628,-0.9605921,-0.6886056,0.66099244,0.04401509,-0.7762393,0.4604973,0.4666688,0.19312209,0.043351233,0.31938976,-0.25048503,0.4689809,-0.0670364,-0.4924351,-0.12664594,-0.36267513,0.6619739,0.01739265,0.074851975,-0.52713376,-0.25335696,-0.3302439,0.4106569,0.6448569,-0.8402097,0.023144552,0.5940637,-0.21724385,-0.33913708,-0.98395187,-0.81309485,0.11590925,0.16185538,-0.29468003,0.01970845,0.7702414,0.56388366,-0.58544606,0.5415604,-0.11989381,-0.29563275,-0.21744554,-0.08993048,0.14526245,0.5548208,-0.26865414,0.7099139,0.51394343,0.2793406,-0.973308,0.62176174,0.573896,-0.81185013,0.8647227],[0.012915295,1.041305,-0.1431105,-0.2906518,0.28405878,-0.3095251,0.3052622,-0.22814834,-0.7496552,-0.6886574,-0.69748163,0.60331535,-0.55207896,0.18710572,0.8046614,-0.50165933,-1.0361233,0.9165337,-1.1386423,1.1694968,-0.57823795,-1.0303973,0.16082591,-0.5788544,0.10899703,-0.4579295,0.71058846,-0.49083254,0.3016933,0.050187394,-0.9384118,-0.9787198,0.44978583,0.7578236,-1.0454128,0.72687805,0.5884814,0.029481772,1.1478324,0.40183258,0.6033823,0.73550874,-0.6272874,-0.14192803,0.12844625,0.028506638,0.50000334,0.13159464,0.19315,0.4308927,0.36962342,-0.5783,0.22747678,-0.26188883,0.14767765,0.6495951,0.6283749,-1.0118598,0.8739791,-0.1386222,0.0023174852,-0.68682057,0.4765981,-0.89390516,1.2683632],[-0.7832209,-0.1489041,-0.46325165,0.26513946,-1.1151204,0.23107542,1.6445521,-0.35558718,-0.4166352,0.47077224,-0.27474043,-0.7858038,1.2762741,-0.47845075,0.64799434,-1.039283,0.19411534,-0.13782981,-0.54962975,-0.13597259,0.7625407,0.26160973,0.7821292,-0.5442002,0.96901464,1.0652329,0.33177057,0.5672009,-0.6991564,-0.7099143,-0.05908689,-0.33319333,-0.13078825,0.42156994,-0.4750373,0.69196475,-1.1136689,0.5095673,-0.684586,0.27298355,-0.876248,0.8440533,0.5983825,-0.048573975,-0.881697,-0.7110898,-0.37432364,1.0399648,-0.17835194,0.1974032,0.9571473,0.8298789,0.09885825,-0.0243529,-1.2381237,-0.15628292,-0.46980652,0.69925624,-0.39847243,-0.098794855,0.45927596,0.41092423,-0.53368,1.0858619,0.23745145],[0.8210405,-0.6880916,-0.08792737,-0.10234937,-0.37286934,-0.80291224,-1.0587564,0.73773736,0.0076401257,0.48951772,0.30931163,0.67720914,-0.01596377,-0.1281731,-0.94441396,-0.3253017,-0.9019295,0.22342,-1.0225852,-0.64000124,-0.83827376,-0.5599065,0.45759255,-0.5921833,-0.6502365,0.6154049,-0.98340535,-0.48546326,0.385629,-0.1963199,-0.5831854,0.41698238,-0.64307123,-0.13129522,0.46652806,-0.037256718,-0.7942076,-0.47956577,-0.83276093,0.71037054,0.2965052,-0.7759677,0.48344144,0.7786952,0.5962603,0.7909268,0.34653404,0.6956764,0.9613203,-0.5504852,-0.82765126,0.19823813,0.5602778,0.81242925,-0.9646263,0.6925983,0.68117374,-0.7336247,0.3339059,0.4488013,0.54248136,0.64682543,-0.51575476,-0.72026974,0.72697264],[0.28490287,-0.6681204,0.41828763,0.76090854,-0.8507794,0.27998433,0.8775952,-0.54374456,0.2459691,-0.86060816,-0.73569405,-0.77670825,-0.16810146,-0.5665488,0.9432209,0.160515,-0.26689616,0.8711423,-0.0778469,0.7191684,0.5082698,0.9055924,-0.84348905,0.5003746,-0.93545794,0.25787407,-0.49700472,0.82477176,0.17837465,-0.7225969,-0.9183778,-0.2793797,-0.8221174,0.9156401,-0.42180267,-0.6682799,0.9086066,0.73856723,0.65692645,-0.31882882,0.11669899,0.5874678,0.37643865,0.73482865,0.15801182,0.96943355,-0.6387017,-0.72831535,-0.30186102,-0.001430519,0.7697049,-0.33538622,-0.07539679,-0.9077638,-0.17061129,0.11486339,-0.7243261,0.85128206,0.121416375,0.10755366,-0.80350935,-0.8891935,-0.95155865,-0.73824036,-0.06393247],[-0.7881286,0.5912476,-0.65582913,0.31739178,0.45321482,-0.9805591,0.2622196,0.78561836,-0.76722956,-0.20609689,-0.19817314,0.9130365,-0.7161243,-0.24814571,-0.24703701,-0.94577026,-0.03724842,0.37574342,-0.45199972,-0.38171482,1.0177869,0.10410931,-0.37094256,1.0516733,0.8056285,-0.7439654,0.25273293,0.40930343,-0.19686824,-0.20787509,0.9916271,-0.23143724,-0.08460915,0.46906456,-0.29458866,-0.36178294,0.6780734,-0.42970002,-0.29950804,0.34040865,0.77204376,0.009756903,0.19720273,0.04139275,0.9975771,-0.16892152,-0.6263205,0.96739596,0.45329157,-0.16900389,-0.9558694,-0.5718961,-0.044112045,-0.23890164,0.4845445,0.9593605,0.11508897,-0.73240066,0.6531357,-0.38272005,-0.019323315,-0.90897566,0.9741909,0.06677005,-0.25357646],[0.5472222,0.6749095,-0.42353642,0.63127893,-0.40362155,0.07781573,-0.77290726,0.14640784,0.23012987,0.29942453,-0.36761212,-0.07859158,-0.20219968,0.33081415,0.7596396,-0.3576951,1.0341845,0.661896,-0.06515564,-0.767086,0.75652474,0.44685563,-0.6324961,0.41201025,-0.24099314,-0.34632233,-0.80205107,0.12680358,0.24681729,-0.6905485,-0.1596951,-0.17454089,0.7585973,0.8061015,0.8527483,0.3917851,0.49562386,0.9044696,-0.047384568,-0.94373536,0.3961059,-0.12634563,0.8902303,0.26446453,-0.5737489,0.36166444,-0.54654807,-0.28123608,0.30686346,-0.94475436,0.11679378,-0.39283758,-0.83997524,-0.43284458,-0.60957193,0.28089783,0.9362897,-0.957312,0.5854777,-0.27238604,-0.9077723,-0.25081182,0.41551843,-0.15071091,-0.2532957],[0.4822527,-0.9846026,-0.14243585,-0.06979944,0.8914179,1.1515783,1.4328818,0.22044073,-0.41574085,0.76576865,-1.3429186,-1.0609261,1.0796617,0.4482919,0.61228687,-0.399561,0.53009796,-0.43729067,0.067160055,-0.40989417,-0.50235504,0.56985474,-0.7869661,-0.8044452,0.8339461,0.5601606,-0.6869749,0.8900121,0.4213374,-0.8242524,0.26231495,0.89309716,-0.64210767,1.0596981,-0.22807857,0.04432137,-0.5079057,0.2636036,0.7772523,-0.49638456,-1.3337376,-1.0773534,-0.13071273,-0.93587923,-0.37839875,0.11459821,0.34197894,0.28166056,0.1468549,1.0057247,0.5731704,-0.49536106,0.49793485,-0.60023564,0.49248797,-0.37825862,0.23921597,0.71446985,-0.97629476,0.599891,-0.21837966,0.79906464,-0.7059564,-0.43522087,0.09559754],[-0.517542,0.38969454,1.0820462,0.19437245,-0.4745996,-0.5845946,-0.15543792,0.5676251,1.5922046,-0.90621316,-0.55339164,0.4880389,-0.86251396,-0.6345918,0.59614146,0.37461793,-0.2668312,0.51777315,0.04423842,0.40661675,-0.7169509,0.3773145,-0.50162107,-0.9656185,0.25590074,-0.688102,-1.1264629,0.34316713,0.8619007,0.17858082,-0.13395901,0.7531597,-0.33400008,-0.5780938,-0.097598135,0.78750306,0.8028424,0.43821505,0.81929946,-0.7229992,1.0272229,0.5144653,0.10671474,0.5630181,0.7490664,0.7636588,0.45269397,-0.30043837,0.60515076,-0.09313213,-0.44661397,0.26927057,-0.7843275,0.8873645,1.2379843,0.7694484,-0.57497066,-0.87252825,1.1012275,-0.71613914,-0.94617057,0.39642683,-0.092733525,1.0521978,0.15994714],[-0.7379092,0.018801052,0.8345867,-0.2797841,-0.73130536,0.4341355,0.8220771,-0.34896335,0.31920743,-0.6902188,-0.0003724764,-0.9477838,0.72694016,0.7649846,-0.9139921,-0.038700707,-0.21257463,0.9969926,0.7578596,-0.5586031,0.16935222,-0.9031971,0.49993968,-0.5935016,-0.9299606,-0.09605204,0.64744025,-0.5394187,0.13239555,0.26802483,0.15292278,-0.49615029,0.4125378,-0.2909239,-0.6496605,-0.78193766,0.32574394,-0.9362069,-0.44917586,0.2073112,-0.4747086,0.92301875,0.042094212,-0.06647963,-0.30118436,0.18726932,0.13129056,0.23347098,-0.8761928,0.06574047,0.40913373,0.4771606,-0.23720102,0.75656796,-0.5723742,0.26892686,0.93545896,0.78356296,0.52219105,-0.54482114,0.04453306,-0.7798306,0.23818563,0.8125992,-1.1382315],[0.78682804,-0.5183356,0.56464297,0.8945138,-0.398531,0.917261,0.29515564,0.325669,-0.11103182,0.21439874,0.4566445,0.89712876,-0.52277625,0.122286275,0.25992912,-0.5271843,-0.6044533,0.81015164,-0.32063803,0.22125733,-0.44744965,-0.56324095,-0.99828476,-0.8729598,0.5801933,0.93180484,0.12029956,-0.3281642,0.70274055,1.0000153,-0.37920776,-0.8308012,-0.36474514,0.089883514,-0.649074,0.08612195,-0.6305256,-0.64170134,-0.15663154,0.61324924,-0.3465886,0.508082,0.44844085,-0.24772729,-0.32754195,-0.15108442,0.6061697,0.5553532,-0.9789307,0.89096963,0.5377962,0.33089876,-0.5277833,0.6456485,0.53758943,-0.27137595,0.03484104,-0.6015219,0.16003752,0.9290832,-0.901171,-0.050238702,0.9678617,0.0067312876,0.78893703],[-0.54161316,0.7100228,0.7372543,0.7287757,-0.9564857,0.17063075,0.96585023,0.18421441,0.55609393,-0.33748105,0.3755005,-0.5942966,-0.39564317,0.08227683,0.5373383,0.76421106,0.17630938,0.30998367,-0.008098516,0.19796602,0.046668902,0.31582233,0.070628166,0.7477402,0.7300726,0.01123433,-0.679837,0.79145926,0.5545693,-0.871003,0.89701736,0.30542278,-0.15846403,-0.18026932,-0.64545214,-0.00818052,0.04706438,-0.21549411,0.8060091,-0.32216305,-0.8501588,0.69806224,0.90241826,0.39591494,0.38982055,-0.18168366,0.82821476,0.46444562,0.876399,-0.6600651,-0.040861942,0.650523,-0.51129,0.9296497,-0.22091767,0.8617943,0.58991575,0.4522549,-0.016431281,0.2538862,-0.30456218,0.8000443,-0.21986234,0.35172155,-0.88471425],[0.26202703,1.5405515,0.54008013,-0.39509863,0.8252125,0.08444409,0.18954775,-0.729118,0.065700315,0.37007463,0.039666075,0.5816808,0.8374128,0.5381491,0.76230496,-0.4151644,-0.8992297,0.7760239,-0.036550514,-1.5068555,0.9274976,-0.18447983,0.7249387,0.36940104,-0.14448547,0.8234547,-0.29638073,-0.16816711,0.6830879,-0.86622846,1.0581617,0.6240114,0.20874254,-0.79567015,-0.016572203,-0.29979607,-0.10033851,0.7125009,0.17536025,-0.12503368,0.8352432,-0.16339529,-0.14898404,-0.60803723,-0.080172285,0.41769725,0.32381615,-1.1461811,-0.2673231,-0.5722597,-0.9571184,0.8397357,0.8337106,0.27838415,0.35099742,0.21558756,-0.21224682,-0.40453878,0.15657523,0.60887545,-0.25329423,0.010631404,-0.09957341,-0.2614098,0.034475315],[0.5661388,-0.7062071,0.06159912,-0.23102091,0.4166378,0.6500444,0.40302333,-0.6565598,0.9850125,1.1761416,-0.13254751,-0.27583325,0.57886016,0.59125817,0.0707184,-0.7922606,-0.38966748,-0.046238817,0.38235506,1.2098471,-0.5817162,0.6017651,0.6979544,0.8219871,0.2557709,1.0764132,0.44011083,0.88777894,-0.30967787,0.64880246,-0.7706922,-0.96839213,0.8227081,0.33170077,-1.0766047,0.06960368,-0.0876549,-0.60150665,0.32152852,0.5270175,-1.024373,0.8897852,-0.634476,0.9028371,0.65765685,0.7778268,-0.09866687,0.2668713,1.4951605,0.7479616,-0.64128506,0.61486065,0.29158416,-0.30259797,-0.33696938,-0.5908733,-0.92757314,-0.7872593,-0.47169387,-0.7533817,-0.7132155,-1.1982793,0.024191406,-1.0411496,-0.9603564],[0.5353812,0.54156077,-0.95535374,0.25753206,-0.05695486,-0.065593995,0.8722951,0.3004397,0.82613784,-0.8962519,0.90372807,0.4966222,0.26489124,-0.6540531,0.81457007,0.5584921,-0.7470243,-0.38053373,0.073220134,0.6212995,0.84758043,0.08608239,0.14226012,0.2853127,0.86935335,-0.19214518,-0.12789261,-0.738716,0.3534687,-0.14516953,0.21463919,0.62845796,-0.23523965,0.002182053,0.39282498,0.75739855,0.48256063,-0.84954923,0.98155487,0.7996403,-0.36342394,0.49862996,0.62280357,-0.73682296,-0.4991787,0.9079761,-0.31030312,-0.015179958,-0.3894141,0.39130944,0.13241053,-0.029904705,-0.89503187,0.14602587,-0.48075038,-0.5137523,0.0034969158,-0.32235676,0.28946382,0.27038613,-0.71588165,0.5450748,0.87771076,-0.8551583,0.5221204],[0.4175169,0.49936172,0.5099183,0.6804692,-0.28208333,0.11633453,0.77114916,-0.48290974,0.7737482,-1.0389293,0.60604745,0.30257034,-0.8604474,-0.10049253,1.1000488,-0.7515405,0.64778394,0.9615242,0.33852786,0.16098705,0.20055698,-0.7951477,0.5647867,-0.43812752,-0.7565341,0.710556,0.19211292,0.37096196,0.30918142,0.15759982,0.4898759,0.20192224,-0.08644067,-0.81586814,0.16626966,-0.69602174,0.5490862,-0.9248228,0.86627275,-0.44348556,0.37473816,-0.4430272,0.26836467,-0.6324395,-0.66943073,0.9875855,0.07246896,0.28446344,0.8345138,0.6487049,0.29049683,0.5383896,0.93125194,0.28687978,-0.15216595,0.18897006,-0.7104417,0.80303913,0.24294503,0.22833453,0.811707,0.53404963,0.54167944,-0.7411891,-0.4488733],[-0.6752034,-0.9448095,0.37929526,0.5786123,-0.74314165,-0.6098669,0.75635815,-0.19571173,-0.7060483,0.081432864,0.7735158,0.87042725,0.54091316,0.98293257,-0.20455419,-1.0074391,0.81163275,0.9488227,-0.20722508,-0.6937296,-0.44871387,-0.56046826,0.025926821,-0.9488708,-0.53919137,-0.8929135,0.65214497,0.7439028,-0.13769932,0.09470988,-0.30981848,0.9685315,1.0698371,0.47741544,-0.594207,-0.18537189,-0.62921405,0.10487583,-0.32442775,-0.7321327,-0.27755702,-1.2273697,-0.1302496,-0.036201175,0.51305807,-0.20703818,0.23771943,0.9713834,-0.7478411,-0.19486286,-0.72332263,-0.7702161,-0.41601223,-0.38904414,-0.6720779,0.5101519,-0.6117025,-0.12346686,-0.33922175,-0.5556185,-0.009976255,0.76145077,-0.94137746,-0.56826395,-0.18160672],[-0.9511541,-0.20626874,1.058003,0.24048516,-0.7403536,-0.48657182,0.27065995,0.3932736,0.032778695,-1.0099845,-0.42779964,-0.9370206,-0.011467551,0.41406772,-0.27256027,-0.33719546,0.63392013,-0.1234774,0.8148316,0.24104194,-0.8609324,-0.64850235,0.69969445,-1.1126896,0.0464206,0.50659144,-0.29868975,-0.63205063,0.8006157,-0.38855046,0.7284137,0.6015873,-0.8680057,-0.77914095,-0.2588409,0.9730429,-0.025745248,-0.74282575,-0.49564654,-0.31916338,0.6792531,-1.025931,0.528248,-0.5236666,-0.5709097,0.3926613,-0.773234,0.97485995,0.86827576,-1.0271473,0.2631759,0.5282605,-0.8862553,0.27630278,0.25512716,-0.18922941,-0.36499614,0.85485256,-0.8014386,0.17782106,0.75891596,0.72286403,0.24343908,-0.7466771,-0.8180118],[0.41060024,-0.04939673,0.6816311,0.5689957,-0.6186502,0.9211748,0.4157199,0.6206833,0.39169922,-0.05943938,-0.29338,0.68980426,-0.42228904,0.27058014,0.3943107,-0.6730061,0.81412965,-0.068640575,0.44491223,-0.120427504,0.073920436,0.45127267,-0.7847594,-0.6489751,0.87388355,0.35324124,0.7526474,0.60414773,0.6930015,0.7294347,0.48539206,-0.3768754,-1.2567759,-0.7139819,-0.5884326,-0.22510704,-0.7813917,0.74775416,-0.9259759,1.0895743,-0.64212584,0.88750774,0.72942007,0.24716365,-0.37443477,0.03165878,-0.32942513,-0.6745704,-0.3566866,-0.3935568,-0.04564256,-0.18313068,1.1038253,0.038164854,-0.8388585,0.084770426,0.7454957,0.3995622,-0.2314966,-0.08253913,1.1633034,-0.89147395,-0.76935786,0.30083263,0.43441653],[-0.8277067,-0.038563643,-0.045385607,0.96424454,0.5182757,-0.22194779,0.8577817,-0.32406268,-0.16777286,0.435385,-0.55074126,0.6207342,0.5137142,-0.5261675,-0.661685,-0.99052334,-0.4704947,-0.30462053,0.99501085,-0.7586004,-0.08993693,0.31777284,-0.65687394,-0.9799744,0.107404,-0.8155021,-0.39038584,0.9590148,0.17790362,0.6796674,-0.832023,-0.6926952,-0.70998645,0.12673733,-0.6461092,-0.26736712,-0.53019005,-0.7304862,-0.73781306,-0.62455964,-0.21819963,-0.010470534,-0.19960958,-0.30052918,-0.35136655,-0.19985741,0.5380118,-0.47595417,-0.1389568,0.9365442,-0.78938866,0.6919316,-0.5133025,0.11101065,0.7728644,0.7105829,0.9801472,-0.8702263,0.22596033,0.2853562,-0.14315791,-0.3142943,0.14972496,-0.032078486,0.8143095],[0.5743909,0.19710508,0.9035034,-0.036705695,0.5736359,0.48064038,-0.83778834,-0.51893234,0.5658354,-0.44163188,0.81400764,-0.81426597,-0.10476639,-0.15711387,0.8579013,-0.988145,-0.5936926,0.27629447,0.8653706,-0.5269342,-0.67570704,0.3311196,-0.4667676,-0.4528887,0.056646436,-0.482152,0.16410708,-0.9586588,-0.084868364,-0.69854295,0.11969283,0.913687,-0.10674653,0.90684754,0.9903774,0.058044564,-0.51325595,0.44726878,-0.34443375,-0.58734024,0.24737431,-0.71144116,-0.82090545,-0.60202444,0.76417845,0.6787628,-0.42549554,0.20240484,-0.48345757,0.81703573,0.031403646,0.33574396,-0.41222784,-0.05337245,-0.3752824,0.5127877,-0.64858884,0.83048254,-0.07640786,-0.4714084,-0.78344727,0.9867913,0.3484988,-0.9903022,0.53684354],[0.33543766,0.85284925,-0.58726937,-0.50850046,-0.0063261203,1.1604173,0.5294454,0.051992748,0.964792,0.93810636,-0.9314217,0.64523876,0.54101115,-0.20340723,-0.8322204,-0.55993724,0.059176862,-0.0030368168,-0.06921397,1.0649642,-0.6899536,0.74631935,-0.54161274,0.76443845,-0.7669974,-0.99832225,-0.81864774,0.40539855,-0.03770696,-0.84512895,0.3851937,1.0767571,-0.023550102,0.7267142,-1.2858702,-0.099339955,0.8381627,-0.4822881,-0.9315274,-0.48233324,0.07864429,0.44978207,1.3482374,0.18599793,-0.5310353,-0.4088071,0.12758149,0.26759657,-0.11033563,-0.6462105,0.19801676,-0.73976344,1.0614388,0.15171964,-0.1885973,0.85126394,0.3693639,-0.5444815,0.4408093,-0.020707436,0.20542404,0.71104664,-0.22139044,-0.6671139,0.032392073],[0.051263344,-0.26508507,-0.431653,1.0433052,0.73622125,-0.3460561,0.48832634,-0.65323997,0.9130882,-0.77637136,0.14653374,-0.250612,-0.58687997,-0.33944154,-0.04062144,-0.40595847,0.6119069,-0.79710627,0.29175097,-0.98400044,0.6646197,1.2241076,-0.8445446,-0.1779409,-0.75976914,0.13888168,0.18934914,0.79010296,0.95424646,1.0489085,-0.13158861,-1.0899115,0.37371534,0.3906612,0.7415384,-0.64215857,-1.2089623,0.18820566,-0.0760437,0.11030422,-0.5030121,-0.4449013,-0.35648507,-0.44206053,-1.1643635,-0.3398086,0.8045147,0.96442163,0.39092258,0.78507483,-0.17733046,-0.02931673,0.14119807,0.22621243,0.905933,-0.45306367,0.05099501,0.18273607,0.85455453,0.72277284,-0.7898555,-0.011663795,0.02479425,0.6210918,0.15933657],[-0.2417304,1.0737246,0.11449295,-0.19745457,0.9278854,0.7646935,-1.0252404,-0.2803584,-0.8559059,0.3083821,-0.46963492,-0.8510696,0.3845903,-0.6457461,0.28662217,0.5802356,-0.3028197,-0.6242949,0.75772125,-0.6604055,-0.49439964,0.4195616,-0.09758118,1.0655029,0.45593765,-0.39550406,-0.42510533,1.1267567,1.0535629,0.04413868,-0.6527216,1.2739458,-0.55505186,0.12131167,-0.5419234,0.7894078,0.44795796,-0.7850532,-0.42971084,0.95014286,1.0285909,0.56391084,-0.5192831,0.6619636,-0.8130331,-0.14004184,0.6383368,0.2973803,-0.14612176,-0.35640982,-0.4417908,-0.15666662,-0.2740142,-0.64595836,0.3050804,-0.38728818,-0.39112815,-0.97667855,-0.6151018,-0.12840219,0.83646655,-0.5388993,-0.54719347,0.3139725,-0.07677447],[0.5153954,-0.109238766,-0.6569419,-0.5941228,-0.7554082,0.24924736,-0.76200294,-0.6674404,0.19847819,0.08708428,0.90501547,0.31317648,0.14217108,0.6822901,0.50279033,0.797178,0.7727675,0.47784123,0.8066992,0.93306684,-1.0433992,0.022750624,0.8278275,0.90983313,0.1657402,-0.70215636,-0.3914469,-0.921674,-1.0509795,0.13471015,0.77738404,0.24584647,-0.7162779,-0.8218,0.12444469,-0.90119773,-0.5973006,-0.54896563,-0.38183394,0.78730416,-0.37282822,-0.49333313,-0.58517057,-0.7808108,-0.12344874,0.30714425,0.70250016,-0.7510247,0.000033102737,-0.69609255,-0.3548831,-0.64714235,0.35984823,0.2837657,0.34272262,0.33813623,-0.15802053,-0.95217055,-0.85303265,1.1818964,0.093435116,0.9391052,0.539093,1.0362478,0.65359133],[0.18594079,-0.4283552,0.05787642,-0.1935072,-0.01903741,0.57990116,-0.08005331,-0.5429378,0.3719408,0.40157226,0.049858216,0.052099142,0.4723288,0.34754682,-0.4084286,0.7360699,-0.7097548,0.2613164,-0.07701597,-0.7914417,-0.94312745,0.32273486,0.5104038,-1.298974,-0.4109497,-0.8436119,0.74806297,-0.67709905,-0.37472016,-1.0335559,-0.90824455,0.4846703,-1.0934621,0.90207994,-0.51316255,-1.6594564,0.7844269,0.41084296,-1.0893595,0.18920577,-0.9666053,0.06418154,0.78467137,-0.5284177,-0.09077508,-0.28842223,0.41982695,0.6718693,-1.234242,0.30681315,-0.3787353,0.17804763,-0.9511285,0.597529,-0.8317373,-0.37168714,0.54615283,1.1553458,-0.3403264,-0.24681649,0.3676515,0.16705555,-0.02666293,0.79162925,0.675545],[0.32822406,-0.12368556,0.86603564,0.6356103,-0.8388916,-0.5890949,0.36083925,0.8839631,0.2905474,0.17908868,-0.19755055,0.21429056,0.27091482,-0.059815235,0.7472331,-0.8874962,-0.35980964,-0.026022796,0.4371451,0.33948416,1.0001289,-0.1085924,-0.45461613,-0.32784405,0.35132617,-0.10472678,-0.19431518,0.7680445,0.48110375,0.044573553,0.35454616,-0.3228896,-0.5349884,0.073592864,-0.9116691,-0.2924729,-0.037430692,-0.5097739,-0.04859753,0.37126958,-0.52080584,0.4549112,0.029217739,0.3494256,-0.3359967,-0.39137462,-0.58086354,-1.3318628,-0.08087676,-0.6941537,-0.30147842,0.7837521,0.44706237,-0.516671,-0.2690637,-0.3403246,0.67215085,0.9705978,0.47232,0.43206164,-0.21292402,-0.27062267,0.942081,-0.5936468,-0.52813244],[-0.7435195,-0.6012763,-0.34973007,0.29791632,-0.971776,0.261791,-0.19795424,-0.9302085,0.81519043,0.77093846,-0.58620346,0.37348992,0.3894956,-0.63470066,0.75630856,-0.9171544,-0.9763449,0.33044764,-0.6710163,-0.5405324,0.6318173,-0.5569602,-0.76245064,-0.7601898,0.59671813,-0.07166628,0.6048189,-0.646498,-0.0140351085,0.7596302,-0.20293397,0.6457176,-0.6194505,-0.88095117,0.7124014,-0.61986035,0.32264405,0.21692556,-0.4107446,0.81618243,-0.5536285,-1.0337975,-0.46861005,-0.62524414,0.87880653,0.5661861,-0.6137864,-0.54295856,0.11773288,0.42912737,-0.62947094,-0.36449435,-0.6785143,0.6588568,0.9534299,0.78700304,-0.007500218,-0.28816798,-0.525174,-0.32248515,0.7213584,0.8739878,-0.8086433,-0.14260174,-0.14072621],[0.17544784,-0.35107327,0.39513507,-0.6144768,-0.9688515,-0.4413635,-0.61177313,0.6221016,0.3835114,-0.04975981,-0.040035352,-1.027897,-0.78702813,-0.26116812,-0.7821978,-0.5727121,0.21372463,0.89405394,0.35946956,0.35974163,0.701844,0.606014,-0.759339,-1.0163062,-0.18907866,0.63907504,-0.4517764,-0.90641516,-0.6044032,-0.45481515,-0.3479841,-0.38443968,0.6521104,-0.6049634,0.41470283,-0.59446067,0.7772594,0.65760946,-0.8827309,-0.67979,0.14644869,-0.000054061074,0.96006995,-0.90311927,0.15396367,-0.22656025,0.754528,0.7424929,0.80281174,0.2250567,0.84413946,0.9995493,-0.9192214,0.5337236,0.6420197,0.5140609,-0.16777548,0.23369983,1.0586479,-0.8717365,-0.7098292,0.9709067,0.76349854,-0.32782295,0.8435092],[0.71962297,0.40648195,0.07453402,0.2601072,0.6282931,-0.7173662,-0.78402615,-0.46462506,0.14894314,0.8844929,0.1785449,0.72226363,0.023801439,0.88706225,0.29060012,0.5007019,0.4493407,-0.5270383,-0.7879008,-0.76320773,-0.5107073,0.9464415,-1.0072107,-0.5074204,0.50684726,0.09825777,-0.9145507,-0.050966304,0.19588174,-0.5146332,-0.7904808,-0.031568706,-1.044976,-0.8437077,-0.92770576,0.034381352,-0.66306543,0.115632184,-0.8560651,-0.40358323,-0.57654876,0.49407697,-0.91912323,0.33469784,-0.0044696215,-0.71351564,-0.6214321,0.6483041,-0.4278323,0.602304,0.5765714,-0.4179076,0.29284063,0.5817009,-0.42886105,-0.91769063,-0.2961253,0.49270844,-0.714184,-0.23286486,-0.6899961,0.44353598,0.9859752,-0.848474,-0.91721565],[0.7529881,-0.78081733,0.7253723,-0.8186114,0.5581084,0.26180258,-0.24792741,-0.068011515,0.82096183,0.6451275,0.29649642,-0.6914999,0.025526721,0.22707918,0.61123234,-0.7440592,0.35868475,-0.86956674,-0.037044145,0.07127793,0.8622527,0.6162071,-1.0849018,0.14094667,0.79539096,0.9725521,-0.35974222,0.3271429,-0.8578268,0.8280356,-0.6403706,-0.7853565,-0.85583967,-0.64867496,0.9074023,0.111803494,-0.4650631,0.47028178,-0.14637609,1.0632206,0.7970019,0.90088224,0.894957,0.8443692,0.17676383,-0.18844616,-1.0141625,-0.653861,-1.2190826,0.88585055,-0.5973323,0.94232637,-0.5083975,1.0058568,0.25171754,0.80434686,-0.13512021,0.6882534,0.44272596,0.23141849,-0.1308986,0.40833783,-0.506027,-0.13822685,-0.6270863],[0.5027893,-0.20788254,-0.41750816,0.6579216,-0.18997729,-0.99519545,-0.12919053,-0.41435355,-0.8147105,0.45931947,0.9488264,0.97090894,0.85473317,-0.5490434,0.6142748,0.8071435,-0.07848849,-0.9437027,-0.78696495,0.20980492,0.1141878,0.18354341,-0.37515143,-0.6235222,0.7222987,0.8566672,0.6747206,0.55435365,0.55890375,0.53943026,-0.9696241,-0.8039637,-0.287465,-0.34345216,-0.8167977,-0.0538725,0.14046001,-0.8736307,-0.23124497,0.4373812,-0.83885676,0.0636384,0.003033621,0.2881983,-0.19542328,0.92722684,0.82492924,0.8630009,-0.031338576,0.4287877,0.06515618,0.2980684,-0.67543286,0.5556085,-0.85233444,-0.78665507,-0.35861915,0.87923217,0.6778265,-0.9021658,0.5238583,-0.18297009,-0.8220322,0.92421514,-0.54817957],[-0.6551609,-0.4065323,0.672275,0.29246145,0.8362855,1.0346701,1.3636435,-0.59938574,0.028816951,-1.2941755,1.0033337,0.7819092,-0.21061687,-0.14421828,-0.22174408,1.1339511,-0.53126574,0.9038784,0.49023175,-0.68810004,0.8121497,0.3461117,-0.7794297,0.15271078,0.61804646,-0.3541279,0.91356546,-0.70702827,-0.052661024,0.9527129,-0.052323297,-0.92821383,-0.12828615,-0.19333804,-0.23150513,0.8475756,1.0187019,-0.4490927,0.5370427,-0.2844304,-0.96835744,1.3282846,0.24074522,-0.65399045,-0.5084525,-0.63359326,0.08481073,-0.59218436,0.9161012,-1.0400366,-0.37789217,0.7567566,0.5792176,0.37916288,-0.623421,0.21672173,0.28470263,0.5071221,0.18558769,-0.36016387,0.2540125,-0.29496402,0.76912,0.73394984,0.7008717],[-0.88892174,0.5154678,0.64616716,0.56001663,0.05104361,-0.97675383,0.8028258,0.47041136,-0.03131115,0.5395655,-0.07457625,-0.5528139,1.2038313,-0.295728,-0.5394184,0.25090316,0.118688166,0.007256581,0.44823655,0.6852905,0.27373242,-0.07319748,0.36623147,-0.47052452,0.003613151,0.90139514,-0.7892373,-0.23444116,-0.75585943,-0.74147266,0.2579877,1.0832963,0.3379182,-0.13261813,0.5495025,-0.39183617,0.1872923,-0.4537352,-0.40561244,0.61148256,-0.30631816,-0.26005915,0.5781189,-0.2792313,0.3519465,0.167147,0.54625684,-0.93139994,0.09566945,0.3963499,-0.9808861,-0.70421284,-0.75762546,-0.18310839,-0.4748798,0.45523855,0.70336556,0.13953394,0.62672377,-0.10948492,0.4632951,0.33313313,0.53840584,-0.7055537,-0.44699612],[0.32542577,0.42154893,0.16612259,-0.53908443,-0.5087971,-0.70474017,0.66906923,-0.3830954,-0.6325201,-0.10199301,-0.4347749,-0.4886742,1.124991,0.2689786,0.38175833,0.20674029,-0.14053227,-0.89212227,-0.3709218,-0.4836348,-0.46502024,0.91682225,0.109289594,-0.8302026,-0.09195651,-0.58116454,-0.3399035,0.11089523,-0.41698477,-0.6952732,0.7448791,0.33855772,0.35694134,0.101453595,0.3195487,0.8599334,-0.68630636,0.48279324,0.8764462,0.6875294,-0.41646767,0.85476846,0.52937293,0.033878718,0.7463505,-0.27113003,0.69612044,-0.46867478,0.25573853,-0.30977872,0.52891016,0.624905,-0.44695762,-0.3383179,-1.2057524,-0.34790972,0.3128508,-0.067434035,0.014117845,-0.8800828,-0.18357979,0.70830363,0.7905521,-0.72595394,-0.10114501],[0.5987366,0.24051778,0.46516675,1.0075524,0.69349796,0.6381077,0.22549735,0.7000684,-0.35289425,0.42734003,-0.1918022,0.47560692,0.44630197,-0.7961645,-0.7663488,-0.25799105,-0.8083446,0.66719115,-0.46579698,-0.13969216,-0.75568086,-0.4441194,-0.602995,-0.22261102,-0.6987036,-0.6107676,-0.9864598,0.3719241,-0.0120122265,-0.5813662,0.5801937,0.45577016,0.41762987,-0.36776343,0.76375985,0.984895,-0.66804856,0.09409148,0.12600185,-0.0035359496,0.63805526,-0.40002134,-0.24765758,-0.83184236,0.4099954,-1.0189795,-0.10941722,0.4865055,0.14602694,-0.4772864,-0.68013287,-0.52608293,-0.7260937,-0.52185655,0.31627822,0.018835057,-0.19058564,-1.0136038,-0.64277154,-0.94905114,0.58629084,0.024118697,0.93965757,-0.15855202,-0.4707444],[0.89319116,0.63779444,0.41108325,-0.673048,0.120549515,-0.65348685,-0.26825285,-0.7885878,0.86215246,-0.5238873,0.6821381,-0.66993815,0.07252441,-0.085281946,0.6981575,-0.63502246,-0.65310806,0.51312834,0.5101971,-0.005704307,-0.008950133,-0.038288277,-0.16983967,0.74421006,-0.62121177,-0.8282405,0.39227438,-0.024644293,0.089803636,-0.90671057,0.36521342,-0.5153246,-0.6804185,-0.28787965,0.43484342,0.78908104,0.37397543,0.48212475,-0.94640523,-0.11608857,0.8526288,0.8421493,-0.6674117,-0.9745024,0.05199391,0.6825963,-0.13775931,0.5382669,0.98151547,-0.6150767,0.912994,-0.6805221,0.59472775,0.6843735,-1.1072496,0.6994163,0.20910187,-0.18274604,1.0090847,0.3339785,0.17940535,1.0037506,0.8505431,-0.6847236,-0.071599744],[0.9214858,-0.6517328,0.05915006,-0.15409917,-0.39332643,-1.4054537,-0.4854326,-0.9914974,-1.0420423,-1.1252908,-1.3863212,0.6261845,1.2429651,0.964275,0.43408075,0.6769687,-0.90213096,0.68734473,0.025866264,0.41622737,-0.41967008,0.1425905,-0.95515907,-0.17057455,-0.29032934,1.0012374,0.2484665,0.20392863,-0.5511506,-0.59419435,-0.6206702,-0.25480258,0.825206,0.15065454,1.0082563,0.19244558,-1.2229902,-0.4594197,0.7644586,0.22007164,-0.27697408,-0.7517479,-0.944062,-0.9084122,0.8136342,0.023074733,0.22076249,-0.74396265,-0.8738433,-0.8421269,-0.6396782,-0.864586,-0.6382735,0.43197575,-0.27612612,0.8484124,-0.09094763,0.79702824,-0.5339815,-0.8034515,-0.48787254,0.62273127,-0.54772055,0.5663906,0.704721],[0.73164415,-0.9839574,-0.47814018,-0.15978943,0.5780195,-0.93473554,-0.66325784,0.27144584,1.08641,-0.31634194,1.1625074,0.99920917,0.43521187,0.15931465,-0.89309525,0.63506424,-0.41343725,0.85462475,-0.51580656,0.32763332,0.4593975,-0.6739984,0.31364754,-0.24849147,0.10905696,-0.3617713,0.07935654,-0.7323425,-0.8025502,-0.055935506,-0.80331016,0.7466417,0.17285536,-0.5457759,-0.14026839,-0.40287295,0.66805124,-0.47579756,0.024705779,0.80144393,0.6406932,-0.81935096,0.49870226,0.9307538,0.0244706,-0.36607042,-0.5452175,0.101944335,0.2880719,0.7117642,0.010525321,0.4109809,-0.35651046,0.019606048,0.21286754,-0.7279668,0.59242296,-0.7307298,0.47838256,0.9276833,-0.28009698,0.57433337,-0.74467534,0.37276283,-0.6369186],[0.14780901,-0.5247709,-0.494097,-0.6139513,-0.92883337,0.17010646,-1.1127523,-0.08219085,1.3463742,0.062907755,-0.49500313,0.9959192,0.7113158,0.01688489,0.10245081,0.8627187,0.19594742,0.23779725,0.5585084,-0.78326964,-0.073575996,-0.13553403,0.45048404,-0.65492153,-0.54242015,0.8934521,-0.7725166,0.38589,-0.98850006,0.9383129,0.55485195,-0.54975307,-0.48219568,0.62010765,-0.02945764,-1.0407286,0.034339946,0.68246263,-1.0516826,0.14776604,-1.31682,0.25324476,-0.17252494,-0.42713112,0.041959774,0.9213624,-0.9778358,-0.28243148,0.29346377,-0.0048802746,-0.97986645,-0.4585036,0.5019471,0.15487881,-1.3210598,-0.4238256,-0.26490077,-0.09427863,0.14803748,-0.59481007,-1.0491227,-0.092389785,0.24860622,-0.41402906,-0.17717974],[-0.59916025,0.08557998,-0.7695263,-0.80462044,-0.5980039,-0.14707974,0.17790708,-0.03693502,0.7327327,-0.85540956,-0.8395657,0.796244,1.3232423,-0.8764984,-0.7848867,-0.27792022,-0.06513214,0.18194146,1.532487,0.54232234,0.35275996,-1.2880118,0.99997395,0.0334632,0.5178849,0.13495368,1.4285654,0.6103051,0.9752211,0.113502294,-0.2834462,-0.6195658,-0.82152104,0.91615325,-0.35475874,-1.3848826,0.41388983,0.9229399,0.93890154,0.014703879,-0.38272113,-0.3766288,-0.14463946,-0.8498738,0.028264355,-0.40100428,-0.23534614,-1.1276393,0.5234098,-0.8347767,0.7749165,-0.37263104,-0.6855331,0.21213871,1.5721171,0.6122407,-0.75189936,-0.33109507,-1.0864986,-0.07095518,-0.018904567,-1.0960495,-0.8827002,0.9739614,-0.27213117],[1.0255787,-0.82810795,0.22364566,-0.6295935,0.15061723,0.39185038,-0.15918699,-0.97066736,-0.84292006,-0.45032856,0.25995225,-0.4975599,0.3843776,-0.26581427,-0.56782806,-0.49654073,-0.5207007,0.89806384,0.09270714,0.23215537,0.0043311096,-0.46444485,0.45470116,-0.243494,0.24646004,-0.98982203,-0.40976337,-0.7346493,-0.8829267,0.41179127,-0.84790766,0.860463,0.96148676,-0.02834452,-0.7453843,-0.6334765,0.4965481,0.3211727,0.5520973,-0.9521642,0.1754665,-0.6828679,0.34280944,0.1487973,0.83532596,-0.8023915,0.82212716,0.80668783,0.14275613,-0.6054687,0.5871177,-0.48889825,0.15398179,0.08484826,-0.6719155,0.7345091,0.6166212,0.31617662,-0.0039358893,0.94277775,0.19986714,-0.3770664,-0.28072786,0.06568467,-0.5085607],[0.060619902,0.20910405,-0.047195647,-0.4104758,0.041421965,0.7129991,0.749079,-0.18964924,0.1833988,-0.10940476,-0.20186238,-0.00082604453,-0.8463544,0.19775379,-0.22448416,1.0295967,-0.8722784,0.37767288,-0.5065133,0.27978602,0.71076256,0.28141263,0.9758624,0.4847032,-0.18943222,0.4191296,-0.60489726,0.615165,0.7704475,-0.31923118,-0.806779,-0.35380188,0.27589583,0.66115826,0.46629554,0.7040617,-0.048589867,-0.47360134,-0.030408455,-0.09904001,0.6113348,-0.60887814,0.62232953,0.25778136,0.2305179,-0.2793738,-0.43699032,-1.0073385,0.07451252,0.6646935,-0.60918814,-0.37644327,-0.7995247,0.7161832,-0.0864914,0.13727053,-0.7434314,0.30213544,0.21737576,-1.0306494,0.24383004,-0.10896824,0.4037436,-0.946504,-0.69602925],[0.8615377,-0.32336208,0.4549069,0.5928476,-0.6262643,0.438353,0.08475488,-0.06473896,-0.43839192,0.30683553,0.70669645,-0.25263587,0.01067107,0.32808346,0.57842934,-0.46094385,0.038871698,0.47169015,0.8699474,-0.87748826,-0.17070295,0.66545546,0.98312,-0.8443421,-0.15578827,-0.78747165,-0.39253607,-0.7791965,-0.39128512,-0.42945912,0.2718719,0.8065746,-0.23114768,-0.18937616,0.66879165,0.04231051,0.075809196,0.63040054,-0.7213569,0.31881398,-0.8630566,0.6913548,0.6110591,0.5256787,0.7566215,0.3990988,0.41681856,-0.45572633,-0.25391355,-0.31900367,-0.36913943,-0.7223458,0.96727437,0.07639853,-0.027768964,-0.4236701,-0.6241895,0.74647725,-0.18648766,0.67095685,-0.64040035,-0.512879,-0.7095567,-0.4045613,0.3793283],[-0.9658296,-0.8219055,-0.66096765,-0.62783617,-0.58016074,-0.8155881,0.6451144,0.50913465,-0.13949636,-0.6670115,-0.071102954,0.067828126,-0.27938575,0.11527627,0.1646031,0.618051,0.28307605,0.15810089,-0.53173053,0.4619897,-0.32378018,-0.91979975,-0.1553943,-0.27055523,-0.5330648,0.009402862,-0.77222776,0.25226164,-0.52205324,-0.39514744,0.4976485,-0.48739946,-0.5622167,-0.9100392,0.44975662,-0.7029526,0.53684306,-0.6837481,0.7614752,1.040473,-0.15254028,0.062334355,-0.8230531,0.33032042,0.38830566,0.6896576,-0.7277984,0.09302066,0.123482026,-0.76443917,-0.2692691,-0.5207593,0.23275487,0.81722695,-0.10223453,0.6252753,-0.88021535,-0.4715232,0.0008249356,-0.6624781,-0.7780732,0.33561608,0.9315095,-0.6424226,0.0767652],[-0.88905406,0.7583334,-0.41733187,0.35161608,-0.0562579,-0.886114,-0.76111925,0.5408112,0.4822322,0.776409,-0.4186948,-0.3548224,-0.5907477,-0.24830218,-0.07755234,0.4374998,-0.99116135,0.6119107,0.33930615,-0.7551314,-0.2407331,0.5084919,0.5305957,-0.44495988,-0.281402,0.28904963,0.07936159,0.79514444,0.6527468,-0.15124238,-0.562694,-0.477882,-0.5084039,-0.40534323,0.061938442,0.85409164,-0.06243845,0.52905005,0.39939344,-0.9086054,0.3822286,0.59801173,-0.03808628,-0.96931976,0.10462019,0.0851968,-0.0705583,-0.72376835,-0.9971914,0.41853353,-0.70275843,0.6053582,1.1015552,-0.53320336,-0.3405942,-0.1246531,0.49361432,-0.19162937,0.43165332,-0.31334254,-0.6295692,0.61984384,-0.5019926,-0.64952284,-0.7563242],[0.2888553,0.80670446,0.5675649,0.00084605016,0.124916576,0.28057292,-0.9693353,-0.8714635,0.2656425,-1.0912194,-0.6730961,0.20691769,0.652372,0.35727897,-0.77950186,-1.0281948,0.8581561,0.5351722,-1.2634281,-0.33046433,0.045460224,-0.072849095,0.24181536,-1.0264316,-0.06704865,-0.6381234,-0.43567374,0.5321815,0.94012076,0.056119796,0.914805,0.7501762,-0.5804294,-0.14601985,-0.46234682,0.056669574,1.1795026,0.0127711445,-0.47038844,0.24498235,0.3555341,0.8347653,-0.31536862,-0.48678732,0.21793315,0.5259927,0.34877366,0.30838677,-0.6052003,0.6903601,0.048446503,-0.56753504,-0.038210034,0.5849561,-0.14474818,0.0379496,0.5584206,-0.70031357,0.12093456,-0.726407,-0.053918857,0.19464129,0.95163894,0.34373522,-0.7266489],[-0.79277575,0.47811505,-0.64039034,0.98610127,0.3724304,0.5826711,-0.39985466,-0.6514887,-0.99404466,0.98036003,0.47900108,-0.5872849,0.3627751,0.6405575,0.6157913,0.20324016,0.007719591,-0.48388448,-0.6001451,-0.9401916,-0.061950527,-0.19738293,-0.7111885,0.64199626,-0.49568596,-0.19372915,-0.60464084,-0.7956588,0.77684516,0.67323965,-0.85173327,-0.44834003,0.122058704,0.11794272,-0.6262645,0.9383913,0.5658332,-0.20936301,-0.82324755,-0.7528889,0.2368837,-0.795406,0.8415129,0.7394255,-0.68064255,-0.4091672,-0.56683826,0.28823283,0.27244374,-0.5114633,-0.2062644,-0.9276587,-0.21758236,0.95564806,0.36639822,0.7868471,0.76105285,0.79402286,-0.8439299,-0.5876416,-0.41222945,-0.6851052,0.101233624,-0.90441,0.2018947],[-0.6238498,-0.036680985,-0.2763501,-0.95832634,0.72312826,0.40920871,-0.70253384,0.042735025,-0.7422259,0.39988276,-0.0270843,0.9837608,-0.59105265,-0.02336475,-0.38276252,-0.13914658,0.7830089,0.35301813,1.0255061,-0.99695414,-0.45802918,-0.57072943,-0.19972114,-0.2838572,-0.30957475,0.33889064,0.07149837,-0.3146971,-0.24361452,-0.1953251,-0.67701197,-0.5232983,-0.1068543,-0.66077214,-0.18304606,-0.6979991,-0.36295813,-0.08050453,-0.23852706,0.21329214,-0.65758127,0.16414686,-0.8360608,-0.7566591,0.26887766,-0.011241207,-0.18194707,0.47575238,0.27501363,0.313011,0.18931904,-0.3293167,0.9217837,-0.19208923,0.7438375,-0.4998291,0.8747665,0.5190885,0.25032052,0.22780551,-0.63930583,0.11292776,0.5180594,0.54922056,0.76207626],[-0.3509148,0.1300892,0.44808924,0.13702993,0.44395596,0.30566078,-0.38333246,-1.0193431,-0.9858779,0.23176245,0.28497785,0.3055778,-0.041202005,-0.26308692,-0.5767968,0.7267509,-0.5925053,0.11119328,-0.44911227,0.051332064,-0.8710481,0.81016487,-0.75491595,0.048631858,-0.41496986,-0.25540093,0.74538654,0.96136117,0.5744694,-0.66548765,-0.15975207,0.063204,-0.9126441,-0.81433475,-0.35481635,-0.546439,0.27510205,0.8827085,0.29472262,-0.9746999,-0.4325474,0.8306042,0.94985753,0.10358427,-1.1030952,-0.6754692,0.6815553,-0.0013039927,-0.69180554,-0.67246073,-0.9121224,0.63110775,-0.32494858,0.963992,-0.66712373,-0.7833751,0.08537553,-0.76558995,-0.2931691,0.85429776,-0.011096711,0.86684734,-0.09215779,0.70888615,-0.78184825],[0.9630508,-0.9250035,0.18453419,-0.52591234,0.6692786,0.77160317,0.17259127,0.4504168,0.22402918,0.031205067,-0.36623886,-0.2704483,-1.04994,0.048394114,0.11195924,-0.72832483,-0.6374664,-0.43128023,-0.875775,-0.95543206,-0.46037117,-0.47726765,-1.0476673,0.4028335,0.4984457,-0.5895903,-0.15363662,-0.2919081,0.8159737,-0.703487,-0.7922081,-0.12618026,-0.081542015,-0.5872051,0.06270542,-0.3871236,0.9119461,0.102706864,0.54960316,0.78838116,-0.8551825,0.124206096,-0.5534812,-0.86847574,-0.13441217,-0.089793,0.67299384,0.03688621,-0.30227357,0.96692497,-0.67939675,-0.73897165,0.095505685,-0.46544382,-0.3280627,0.9666919,1.0183934,-0.47270197,0.3604262,-0.840561,-0.97393095,-0.23015434,-0.6425113,-0.48856324,0.7345097],[0.4281099,1.1862478,0.36441317,0.7195028,0.72115135,-0.6775683,0.020209596,-0.17624941,-0.47120532,-0.40153208,0.38433248,-0.055759642,0.03727735,0.71067095,-0.31240898,-0.18015036,-0.89805007,0.00448019,0.55593216,0.6623933,0.19536047,-0.019934246,0.11633304,-0.25468647,-0.005091186,0.930626,-0.1954754,0.96595085,-0.11414432,0.1893756,0.6026733,-0.29077673,-0.0379807,0.7209863,0.74177617,-0.72385633,-0.6834958,-0.67763436,0.2860883,0.09301973,0.8045613,1.1518584,-0.5694412,0.709902,-0.669454,0.16076675,0.8495884,-0.6439087,-0.95791656,-0.09840898,-0.5472314,0.92285585,-0.5325979,-0.9164297,-0.05580419,0.20302396,0.98196965,-0.49315897,-0.81380624,-0.9693312,1.0284711,0.61110806,0.054559432,-1.0187705,-0.024673976],[-0.43745163,-0.4566324,0.3075,-0.40720114,-0.16095316,-0.70768255,-0.8022162,0.6663175,0.5024758,0.1569279,0.8574541,0.093109354,0.883494,-0.7473859,0.11438714,-0.17068325,0.85239786,-0.1523391,-0.6814447,0.26349556,0.06482472,0.93999267,-0.88368446,-0.48784062,-0.6943042,0.59033865,-0.62295413,0.04055822,0.72837764,-0.7043823,-0.73887676,-0.37333325,-0.866327,-0.5332253,0.85502154,-0.11947748,-0.6533954,-0.5065407,0.82199615,0.9053142,0.30618483,0.8940168,0.51222503,-0.7973488,-0.9788979,-0.7416278,-0.90532845,-0.16182172,0.5676897,0.94853115,-0.54810035,0.16676573,-0.87629116,0.44518635,-0.87879115,-0.55279255,-0.5334864,-1.016718,-0.7111902,0.7810682,0.3006359,0.07746845,-0.20168367,0.7026767,0.88240874],[0.70714766,0.2560156,-0.5516018,0.88067883,-0.6148223,0.32594848,-0.8204685,1.0652498,0.18869576,-0.19660497,-0.8919195,-0.35433877,-0.62163013,-0.011439614,0.43275306,0.5558944,-0.3769457,-0.68457264,0.48947048,-0.06778102,0.50880617,0.17147264,-0.28139868,-0.5543421,0.8365837,0.9182936,0.05096217,0.8366554,-0.29358742,0.7070617,0.84035534,-0.034576956,0.46581885,0.35125676,-0.8504348,0.7357748,0.4712573,-0.7448373,0.54647,0.44567683,-0.1275955,0.37253842,0.09007097,-0.27771717,-0.53292286,0.94660455,0.54114187,0.71495974,0.33453456,0.83025795,0.59392524,-0.7056899,0.4378733,-0.5950642,0.7022302,-0.0948176,0.39965948,0.24737042,-0.60138786,-0.7322011,0.38153377,-0.99620193,0.24495533,0.687811,-0.609437],[-0.17345762,0.38510048,-0.13848956,-0.79341966,0.23980585,0.3842534,0.73288625,-0.16755824,-0.2980213,0.85402036,0.30533403,-0.8613879,-0.6925162,0.23650467,-0.29705954,-0.67435366,0.6132177,0.19837001,0.7239369,0.27209222,-0.56264657,0.6611034,0.6016037,0.8831023,-0.49244994,0.7555944,-0.7035378,0.73779196,-0.2221329,0.5072144,-0.8018062,-0.2774052,1.0020651,0.59292465,-0.031249186,0.05039391,-1.0734855,0.464491,-0.6867316,-0.47532898,0.024402015,0.31990296,-0.009355898,0.20543794,0.89375275,-0.46362963,-0.18354288,0.9271147,-0.7133232,0.2164953,0.6064317,0.72188264,0.9550079,-0.2738697,0.3952205,-0.2149154,-0.46247223,-0.17028953,0.2869007,-0.34741637,-0.038044948,-0.73492754,0.21335441,-0.2214699,0.80060065],[0.793476,-0.14093238,-0.36282185,0.0471871,0.71072435,-0.523405,0.79051095,0.45010945,0.038458996,-0.5812076,0.47647145,-0.6525744,0.58812916,0.63455707,-0.07237117,-0.7495925,0.65555614,0.20825343,-0.061018243,0.8329173,-0.018544544,0.9236683,-0.6048674,-0.2785181,-0.5131097,-0.30136886,-0.0073686983,-0.2716692,0.35588515,-0.09111609,0.978711,-0.93665355,-0.10899652,-0.944451,0.0055877557,-0.033870973,-0.27495113,-0.54247445,-0.5570914,0.3975371,0.8958183,-0.7173931,-0.28382796,0.3003063,-0.6215846,0.588584,0.84496516,-0.67784864,-0.5056413,0.6838857,0.7817627,0.5461502,0.31577653,-1.0114133,0.42896044,0.6589242,0.27134082,0.62486136,0.6931049,0.9994901,0.49105603,-0.27206144,-0.46942896,-0.5960275,-0.16050562],[0.97626626,-0.39073172,0.40226573,0.8398163,-0.35779136,-0.41944668,1.078497,1.455985,-0.46584734,0.4769344,-0.16623725,0.5027779,0.687407,-0.8992549,-0.15727486,0.19789955,-0.28243628,-0.5633775,-0.017905148,-0.87778735,0.4001124,0.92347914,0.56862706,0.3088918,-0.4531318,-0.4334541,-0.43597543,-0.29932284,0.7668256,-0.09847002,1.3149177,0.36597246,0.10509409,-0.71777827,0.31667608,-0.34075654,0.77627224,0.94178706,-0.637096,-0.5679011,0.3643719,-0.7343542,-0.42699575,-0.0163379,0.5000858,0.58164716,-0.35632676,-1.4561024,-0.5428947,-0.44946325,0.71706367,-0.9617675,1.0056869,-0.25586796,2.1611025,-0.5263289,0.74928266,0.22970681,0.45006496,-0.026043521,1.6170182,-0.7982425,0.8884925,0.44369307,-1.1701735],[0.9453967,0.09004746,-0.16541909,0.2276611,0.049944438,-0.09682197,-1.0035081,-0.6497242,-0.18544193,0.108689785,-0.6292705,-0.56474316,0.37486702,0.61113864,-0.6901656,-0.8753621,0.51623935,-0.34500337,-0.8968402,-0.36467615,-0.16754541,0.1956752,0.7518497,-0.03663266,-0.52182543,-0.25933415,0.57545936,0.5143513,-0.6931353,0.6576681,-0.6942545,0.22636984,-0.5153932,0.7626769,0.33028892,-1.4845941,-0.7340611,-0.81394327,0.9282215,0.87343895,-0.029388554,0.09277227,0.048392516,-0.8645843,-0.3986814,-0.48418003,-0.20295435,0.5051156,0.7840945,0.033357076,0.7830706,-0.74648684,0.4841515,0.82439214,0.04357335,-0.30424076,0.07731709,0.69273454,0.027363265,0.18793814,0.2068052,0.30044132,0.9905748,-0.9554056,-0.5198309]],[[0.59962964,0.026067019,0.39885354,0.23037195,0.14877653,-0.15631318,-0.36081004,-0.12900186,-0.47835565,-0.0061569214,-0.98511076,0.8933239,-0.6346452,0.3926828,-0.8164768,-0.8821981,-0.17814589,0.26231098,0.16801786,0.18240261,0.23001122,0.6606622,0.77209616,-0.9977927,-0.76942563,-0.57840276,0.35605884,0.73435044,-0.3176582,0.9850607,-0.015627146,0.9630947,0.17087197,-0.1896584,-0.50512195,-0.9373009,0.1973331,0.23814893,-0.6044359,0.92807436,0.70109844,0.0033402443,-0.23763847,0.624666,-0.5168295,-0.35085368,-0.10474086,-0.12936234,-0.47922802,-0.972033,0.55853724,0.35495543,0.29404736,-0.015469313,-0.54793143,-0.19196844,-0.0008409023,0.42694473,0.9581728,0.34977126,0.3171699,-0.9779792,0.11805153,-0.010551691,0.12542033],[0.026075438,-0.40721843,0.6758624,-0.6599921,0.349778,0.5759148,0.8995383,0.39510047,0.03478589,0.8365466,0.45776495,-0.21335118,0.6588447,-0.59495467,-1.3597534,-0.99571896,-0.16292213,-0.88310164,-0.37445626,-0.8923782,0.95885307,-0.39701748,0.109323755,0.49802116,-0.6862783,-0.123471774,0.18368801,-0.67392236,-0.72084236,-0.11860508,-0.06313076,0.83118665,0.32762724,-0.7796593,-0.9998056,-0.6722121,-0.33425885,-1.0212942,0.17368492,-0.918517,-0.11098673,-0.20975149,0.36261714,-0.6641749,-0.20060036,-0.13747814,0.2585146,0.9666918,-0.29161698,-0.48579597,0.49693763,-0.33481786,0.19419347,-0.55260813,-0.6514702,-0.76770014,-0.047685977,0.530375,0.09044499,-0.8528124,-0.2041963,-0.86346024,0.38576844,-0.8213509,-0.6227325],[0.29753473,0.14659847,0.024150645,-0.63848823,0.7751452,1.0003417,0.6542197,0.5529737,0.64642566,-0.7875264,0.636226,-0.19277029,0.45607582,-0.5777669,-1.0478027,0.30086687,0.494525,-0.28890148,1.0691874,0.35426223,-1.4338986,0.61363775,-0.5619669,-0.61583126,0.74348235,-0.82519704,-0.9521083,-0.9311165,-0.32973194,-0.5476517,-0.73796576,0.5446639,0.8416574,-0.63128173,-0.10668125,-0.84201384,0.47229528,0.18524423,-0.512738,0.31943852,-0.27875635,0.17917158,-0.67284393,0.055894256,